name,vector_0,vector_1,vector_2,vector_3,vector_4,vector_5,vector_6,vector_7,vector_8,vector_9,vector_10,vector_11,vector_12,vector_13,vector_14,vector_15,vector_16,vector_17,vector_18,vector_19,vector_20,vector_21,vector_22,vector_23,vector_24,vector_25,vector_26,vector_27,vector_28,vector_29
MemberReference,-0.08888507,-0.5601501,-0.10672043,0.2130565,-0.011414027,-0.31282356,-0.60402864,0.2363536,-0.22167516,-0.025868006,0.67559814,0.1054218,-0.6401304,0.36746496,0.34937376,-0.60292065,0.33777747,0.5270227,0.13587306,-0.10864298,0.47311136,-0.078928955,0.08883953,0.31498042,0.37851098,-0.687076,0.22005217,0.66356194,-0.020085752,0.664245,
ReferenceType,0.31809896,-0.40498614,-0.07144293,0.42008704,-0.29335576,-0.16476679,-0.053061083,0.32141533,-0.49057683,-0.24513656,0.2102498,0.13342257,-0.9283219,0.5745485,-0.180269,-0.007508743,0.12464704,0.59364533,-0.25032124,0.033866774,-0.020291789,-0.04903742,-0.048673738,-0.29279304,1.2579366,-0.3249391,-0.116798006,0.3419451,0.26077834,0.4258548,
VariableDeclarator,-0.2817943,-0.68139553,0.06439826,0.09091414,0.07139647,0.108566135,-0.56646806,0.38358068,-0.44262275,-0.104355745,1.0617008,0.21537372,-1.1918777,0.19812453,-0.18572924,0.1620677,0.34222856,-0.022987777,0.12177965,0.29574507,0.5681146,0.0936629,0.18433973,0.11915766,0.83425957,-0.25131932,0.013935379,0.29142708,0.17499058,0.87339824,
StatementExpression,-0.074955724,-0.7509304,-0.1321679,-0.3175463,0.018440668,-0.592954,-0.32625988,0.36466128,-0.102862775,0.012607537,0.5592495,0.21713182,-0.5078318,0.30891675,0.39939106,-0.6975212,-0.4626137,0.92677397,-0.39833602,0.25070387,0.9340667,0.00058689254,0.14330117,-0.09542467,0.23374169,-0.7941708,-0.10437164,0.5185025,0.21749744,0.6360198,
BasicType,-0.7420756,-0.11740036,0.032620568,0.8551643,-0.565602,-0.6140297,0.016254023,0.07371814,-0.37243104,-0.19705708,0.48605976,0.06122677,-0.89178747,0.46358794,0.02435604,-0.26665452,0.26332065,-0.27356312,0.3928201,-0.32866466,0.3583914,0.23702313,0.8048653,0.10553991,0.8860082,-0.66248447,0.018409073,0.25209314,-0.39892116,0.512166,
BlockStatement,0.07463427,-0.3632185,0.046029396,-0.023511685,0.40567115,-0.2833764,-0.7899745,0.0574737,-0.6580596,0.051252075,1.4373704,0.4783231,-0.61299634,0.22816655,0.573385,-0.2813956,-0.41012517,0.20849419,-0.0036038882,-0.35080191,0.5478575,0.14497745,-0.5936718,-0.3764404,0.06836115,-0.20097737,0.23437113,1.2051959,0.098541215,0.52976346,
IfStatement,-0.13867725,-0.48378918,0.23384695,-0.046020128,0.15293184,-0.592969,-0.66646785,0.058604326,-0.6587633,0.30004945,1.2749554,0.5807576,-0.4516999,0.120000206,0.28166735,-0.19127814,-0.011213397,0.36817017,-0.02387877,-0.39015594,0.49892837,0.4140252,-0.7509038,-0.18860315,0.019141998,-0.2303269,-0.18924376,1.1367891,0.09001221,0.42139858,
ReturnStatement,-0.24483062,0.23514703,-0.07718139,0.8866454,-1.317607,0.51230115,-0.25498897,0.65109545,-0.3116842,-0.18213345,0.78295934,0.10228867,-0.74736655,0.03320805,-0.034921333,0.45001283,-0.0033454252,0.31853312,0.28261587,-0.40358093,-0.18464628,-0.00963652,-0.19665632,-0.26553074,-0.09048844,-1.3288271,-0.020910218,0.5683533,-0.070033915,0.45918345,
append(),-1.7747099,-0.68551826,-0.73968154,-0.70920146,0.46866563,-0.5903649,-0.82391804,-0.71167845,-1.354298,-1.3493934,1.1665467,0.011810515,-1.5699794,-0.11698754,-0.31421036,-0.12089433,-1.0280489,1.1619565,-0.905125,0.24518584,0.006729856,-0.24288197,-0.37938124,0.82193726,1.3085294,-1.025473,-0.042925764,0.16573685,-1.0176024,-0.5935576,
CatchClause,0.95026726,-1.0788339,-0.3387535,-1.3062129,-0.050943922,0.28686258,0.09761119,0.86511374,-0.9226469,-0.70947605,0.53163165,0.5106376,-0.3205827,0.2530146,0.23603234,0.34775475,0.013257837,0.6518088,0.2517245,-1.0545753,0.6353882,-0.43108633,-1.511441,0.55525947,-0.44806316,-0.38802785,-0.22613251,-0.19953944,-0.82804424,1.0490178,
TryStatement,0.36949432,-0.7575922,0.39226857,-0.32501107,-0.4245623,0.30606836,0.14930281,0.8334635,-0.25860587,-0.18615647,0.80462265,0.59588385,-0.81804997,-0.13239527,-0.14653046,-0.15179724,-0.11556469,0.33206838,0.29364333,-0.7219113,0.7495808,-0.7155196,-0.7900755,0.7023724,-0.038537588,0.5840944,-0.72266465,0.04637286,-0.94963205,0.9943242,
ThrowStatement,0.20321007,-1.1257944,-0.2555298,-0.38720453,0.026022281,1.3200997,-0.46975943,-0.50058556,-0.46063092,-0.96910137,0.053319532,-0.4152288,0.04594161,-0.46182367,-0.79410267,-0.03903958,0.6569449,1.0884066,-0.676505,-1.0534917,0.2768391,-0.31788597,-1.8001531,-0.33245304,0.8817876,0.28175253,-0.5984468,1.1371855,-0.24508542,0.90649486,
ForStatement,-1.1055795,-1.0076063,1.3096449,-0.38690603,0.6923754,-0.6305152,-0.28198856,-0.3942602,-0.5099491,-0.6584757,0.9188448,-0.22345057,-0.9465762,-0.1233962,-0.62150496,0.23181424,-0.26853678,0.04420093,0.4269196,-0.4209814,1.2369351,0.1324667,-0.35404938,0.09952207,0.15799733,-0.56528246,0.17669562,-0.3579871,0.14580117,0.69989187,
ForControl,-1.5108635,-0.45316333,1.0918247,-0.064794384,0.75382316,-0.5698658,-0.7570276,-0.3141367,-0.2656111,-1.3325298,0.9546778,0.7205076,-0.6314669,-0.31158268,-0.40385178,0.3767194,-0.039585613,0.52066034,0.3991341,-0.29490918,0.69947034,0.16449378,-0.0016345539,-0.33363178,0.17446421,-0.13874637,-0.25572148,0.111983575,0.22437675,0.8423315,
BreakStatement,-0.5123968,0.25071916,-0.3847981,0.3301738,0.39916134,-0.46312004,-0.54481864,-1.0156053,-1.6992815,-0.33825728,1.1172228,0.3437681,-0.22125542,0.18421434,0.258228,0.31044146,-0.5606266,0.9198682,0.30995268,-0.7450389,0.10670771,-1.1546648,-1.0197365,0.06229831,0.09271636,-0.3118489,0.6157975,0.027597545,-0.35003117,0.6797893,
SwitchStatementCase,-0.7231046,0.46511427,-0.957487,0.51737726,0.9276612,-1.3339057,-0.55640244,-1.2953944,-1.707564,-0.2875542,0.5739946,0.13880673,-0.35711128,0.21887107,0.28351656,0.34559396,-0.49380887,0.9507426,0.28591782,-0.8162642,0.003300263,-1.905904,-0.9800328,0.091587484,0.14819176,-0.31536445,0.20086688,-0.13395558,-0.71717215,0.53284144,
equals(),-0.3143342,-0.47134033,0.62525046,0.13058072,0.045443416,-0.36041006,-0.45626184,-0.25202477,-0.5398283,-0.501567,0.99638754,0.12607788,-1.549725,-0.33116466,0.16133651,-0.117747314,0.47503915,1.2193854,0.43421265,0.42734697,-0.20232399,0.17782694,-1.2777504,-0.82487464,0.6398521,-0.118131064,0.9309171,0.29221,-0.63183784,0.10142318,
e,0.65492254,-0.82511866,0.14874236,-0.51619196,0.50390434,0.14660117,-0.686623,0.9278609,-0.6272921,-0.5949639,-0.08176119,0.49357498,-0.32893604,-0.10962563,0.45091608,-0.15750165,-0.2651663,0.52457935,0.09998074,-0.703699,1.0110253,-0.8948683,-1.1620615,0.020787258,-0.09713189,-0.45120642,-0.6867239,0.068642125,-0.84720427,0.8154509,
put(),-0.34318444,-0.37722358,0.4196632,0.4897732,0.13802737,-0.5926518,-0.114190556,1.3317823,-0.4803765,-2.255026,0.8240443,-0.04526498,-1.0975742,1.0045817,0.30433753,-0.005745565,-0.15880592,1.8081548,-0.84559464,0.35531068,0.8129687,-0.35126516,-0.5421601,0.33847094,-0.18102807,0.09298607,0.12843376,-0.11584547,-0.42590123,0.7650376,
println(),-0.40083095,-0.42280245,-0.5125754,0.43174613,0.9295465,0.88704735,0.23197372,-0.08827311,-1.6570145,-0.4076948,1.1011485,0.42479753,-0.20678852,0.40533817,0.08876556,-1.1872222,0.51876587,0.2364008,-0.53554815,-0.7742795,0.81751966,0.09893383,0.14659101,-0.75703204,-0.23397037,-1.0433689,-0.8747677,-0.12636709,-0.9514176,-0.62903756,
elementAt(),-1.3453315,-0.4844737,0.72621566,-0.25057474,0.92038304,-0.7153323,-0.39075822,0.029824806,-0.7083404,-1.0379075,1.277115,-0.25472528,-0.58760077,0.26360205,-0.11715822,0.40324652,0.054198574,0.012661401,0.121310435,-1.0362296,-0.03306011,-0.08143675,0.035066612,-0.023484454,0.06371038,-1.0313418,-0.2335751,0.29426324,0.30637982,0.31313932,
WhileStatement,-1.1403351,0.16954234,0.17246793,-1.0526319,-0.27536762,-0.12710501,-0.051198583,-0.08656772,-1.7530001,-0.47719887,1.23557,0.2823144,-0.3073446,-0.060452737,0.546397,0.63040453,-0.27346203,0.057653084,-0.5174503,-0.3874231,0.30290642,0.77190876,-0.35611883,-0.4128366,-0.024749946,0.030243853,0.3926811,0.50719064,-0.06315926,1.2157815,
size(),-0.7471228,-0.75219905,1.0081784,-0.25299332,0.9062554,-0.36562926,-0.30229536,0.1991195,-0.5160856,-1.0935727,1.03794,0.22538382,-0.75052047,0.36148524,-0.43756092,0.34921563,0.27386004,0.25277165,0.38353825,-0.37807316,0.32395557,-0.068986766,0.028951742,0.12415342,0.4068456,-0.78072035,-0.55858994,0.23845676,0.4218703,0.17994973,
length(),-0.073333785,-0.6201096,-0.00942416,-0.31377974,0.28319067,-0.95787555,-1.2671872,0.015243756,-0.60039043,-0.6780137,0.54486877,0.31452912,-0.5533777,-0.5070881,-0.17683372,-0.4027379,-0.18982324,-0.00867493,0.5815843,-0.43129325,-0.09742853,0.07114747,-0.6587459,-0.2850404,0.79814196,0.1259327,0.04516587,0.1578252,-1.3845645,0.3977794,
toString(),-0.05001516,-0.27356404,0.19851026,-0.7743986,-0.11037256,-0.32784444,-1.3270401,0.9245064,-1.0957975,-0.25452578,-0.043907642,0.27295807,-1.0831664,0.7538857,-0.104734145,-0.4500778,-0.24664524,0.4122057,-0.11583279,-0.19375546,0.14845611,-0.30729342,-0.74453855,-0.53700393,0.7950646,-0.47441173,-0.6013449,0.19967635,-0.75056744,0.18743853,
name,0.022044614,-0.40466514,-0.44367492,1.1696476,-0.59977615,-0.2401056,-0.042126033,0.9724642,-0.9143306,-0.4751894,0.38639456,0.83114254,-0.41323787,0.58986175,-0.33017495,-0.65088445,-0.18992066,0.535749,0.51527303,-0.40150306,-0.03404275,0.5063485,-1.0714222,-0.13733068,0.82536,0.14376883,0.13214144,0.059487004,-0.614797,-0.77592874,
addElement(),-0.3348141,-0.94813013,0.608214,-0.12162376,0.16639411,-0.76464134,-0.25576717,-0.10654086,-0.9056359,-1.5471683,0.74075294,-0.2945818,0.03642052,0.06062794,-0.22052576,0.040089924,0.17270188,0.48120123,-0.11608246,-0.27865282,0.0031664355,-0.47231537,-0.4478668,-0.09492983,0.16273879,-0.6313673,-0.20189667,-0.22748196,0.33684298,0.46104404,
node,-0.8046251,0.16348204,0.013978723,1.0296775,-0.303104,-0.30725777,-0.103770345,0.915253,-0.97331655,0.14063528,-0.048281185,-0.5608696,0.45737246,0.15173917,0.088111915,0.27929083,-0.34567374,-0.23344961,0.014984039,-0.62794495,0.5208812,-0.87624055,0.053801354,0.07699483,0.24451454,-0.60524374,-0.032970842,0.7815919,-1.1912154,0.5536435,
substring(),-0.04045923,-0.68536896,-0.46447,-0.17553811,-0.18899582,-1.3134482,-1.1235795,-0.2793717,-0.4670583,-1.3794167,0.8155979,-0.04391951,-0.47342804,-0.37435052,-0.0821753,-0.024196211,0.0050616846,0.41616952,0.28198478,-0.6025819,-0.08033296,-0.07156195,-1.0313315,-0.33106756,0.29019022,0.15415293,0.5146001,-0.008621005,-1.229768,0.76481026,
classGen,-1.1581002,0.05854819,-0.26481324,-0.0873829,0.85830545,-0.69956785,-1.0244442,0.66276366,-0.44483352,-0.58963114,0.6760856,-0.5397571,-1.5370626,1.0240117,-0.05046142,0.9013673,-0.73989666,1.0651138,-0.21865414,0.11478613,0.08471673,-0.043581598,-0.9983224,0.5887854,1.4765968,-1.1107396,-0.56605107,0.75202173,-0.53457814,0.28219655,
methodGen,-1.3313863,0.0403111,-0.21496637,0.19098794,0.9803588,-0.6455001,-1.0402333,0.694587,-0.48198992,-0.54384273,0.7503932,-0.5932611,-1.6599814,0.92750746,-0.03686432,1.0548619,-0.7180402,1.0361397,-0.15764298,0.1172249,0.07124041,-0.17012212,-0.8170847,0.6776444,1.5475078,-1.1158756,-0.6096087,0.6846046,-0.6702163,0.31829348,
get(),-0.12175382,-0.05080671,0.48109567,0.36101505,0.003324771,-0.4527457,-0.25166073,0.921356,-0.84110135,-1.2135383,0.75214845,-0.06608407,-0.58428687,0.47517332,-0.26604342,-0.12114835,0.060917363,1.0297196,-0.013778313,0.41181928,0.48944896,-0.32144484,-0.3030572,-0.44656453,0.26570135,0.30810416,0.4098639,-0.05539799,-0.38711226,0.41485444,
write(),-0.41766083,-1.7896445,0.30871,-0.6879125,0.22752829,-0.33049163,-0.9339614,0.10646819,-0.013124057,-1.1571661,-0.040744066,0.44309953,-0.405199,0.48724625,-0.23495945,-0.829449,-0.61282575,-0.12290643,-0.25231415,-0.8937449,0.92387724,0.72953355,-0.39239186,0.3061631,0.40228498,-0.11289922,-0.68848133,0.3962438,-2.0374653,1.3002243,
nodeHandle,-2.403177,0.36049885,-0.96545976,1.2105023,0.40103084,-0.7098247,1.4810456,-0.5246494,-1.8702092,-0.6140699,0.33057994,-0.4101817,0.2353976,0.0015482266,-0.08024813,0.69119924,-0.090392165,0.1517457,0.29126713,-1.1449076,0.22448161,-0.1147753,0.4661846,0.052272353,-0.23115584,-0.112251095,0.75220466,0.41379777,-1.1083894,0.17343518,
charAt(),-0.72470117,-0.53959376,0.038246468,-0.63862574,0.041075386,-1.115853,-1.1598601,-0.59433836,-0.92732435,-0.89634377,0.9955267,0.5409631,-0.9374058,-0.1989639,-0.32794917,-0.41227284,-0.19012156,0.16438408,0.54876935,-0.67527485,0.14808121,-0.116358936,-0.40936667,-0.44652283,0.26913604,0.040122684,0.3001183,0.09720175,-1.537323,0.4924576,
value,-0.2747553,-0.46744758,0.09116273,0.93287456,-0.30700567,-0.82146865,-0.6093058,0.8942918,-0.50581974,-0.46047515,0.083859846,-0.050636683,-0.09192361,0.5081778,-0.23224866,-0.33194208,-0.25183654,-0.04938315,0.39469406,-0.10771556,0.29480767,0.67339015,-0.6121426,-0.1337521,0.5964429,-0.3453831,-0.00085965154,0.54599,-0.62143177,0.05116024,
ErrorMsg,-0.0034813667,-0.4319168,-0.08318727,-0.7844488,0.66578335,0.48004898,-1.1668357,0.41456655,-0.5924412,-0.10423534,0.8515088,0.010693396,-1.1346164,0.570452,-0.17930816,-0.19596015,-0.25367132,0.8716184,-0.4943154,-0.5510696,0.32957223,-0.08421397,-1.2512755,-0.26093516,0.95787853,-0.98579794,-0.9581364,0.102386326,-0.83646864,0.3775505,
getInstructionList(),-1.5626111,-0.2642513,-0.2280839,0.24816379,0.97267276,-0.704765,-0.8145381,0.23855294,-0.94103265,-0.48996958,0.96324676,-0.5238049,-1.6552353,0.44380572,-0.23448473,1.1361704,-0.8267993,1.1303481,-0.3587023,0.42572227,0.028692273,-0.24622847,-0.5430052,0.88357496,1.6084942,-0.7844648,-0.23918004,0.47253996,-0.71867245,0.1823684,
uri,-0.03780197,-0.9477137,0.07468834,1.1180189,0.40810475,-0.637281,0.07220745,1.0381664,-0.81795514,-1.1063228,0.23715243,-0.46953338,0.2641418,0.02331216,-0.38982886,0.0431635,0.056339778,0.62928665,0.10369184,-0.39674756,0.19896996,0.80019444,-1.1794851,-0.11248086,0.6231687,0.11265454,0.27983102,0.32851925,-0.61122334,0.0032921985,
addMethodref(),-1.8908837,-0.7107392,-0.33608106,-0.03888487,0.87353826,-0.7909082,-0.75919384,-0.12821579,-1.3119348,-0.5343116,1.0675491,0.22712627,-2.0583105,0.18490006,0.038546328,0.64324087,-0.85514563,1.3457819,-0.49722373,0.39404815,0.34255904,0.015006597,-0.2700878,0.6256865,1.1034272,-0.86292374,0.14751564,0.28724927,-1.0356117,-0.45179126,
getConstantPool(),-1.3793281,-0.18173744,-0.16888079,0.31140625,0.97147334,-0.74701697,-0.6497927,0.377788,-0.69627833,-0.7816576,0.91794246,-0.48646235,-1.8397228,0.5567054,-0.2593457,1.0607235,-0.8006011,1.0328399,-0.24691348,0.40360948,0.060601577,0.00909519,-0.47604218,0.87367946,1.5407987,-0.9023913,-0.38790846,0.41027236,-0.39036387,0.103631146,
type,-0.5484733,0.31022057,-0.24741825,1.3350902,-0.0042845574,-0.725945,-0.62293667,0.5819923,-0.9684907,0.1661513,-0.0372312,-0.57058835,-0.3772596,0.48663414,-0.27397826,0.67149186,-0.6426454,0.6733954,0.17613208,0.305834,0.39258847,-0.19763654,-0.59381515,0.67824584,1.2346424,-0.51852643,0.19534422,0.8897344,-0.34856033,0.28491163,
handler,-0.16375996,-0.8130714,-0.27802148,0.9864053,-0.037611153,-0.32398775,0.03533007,0.46877304,-1.0587016,-0.26522145,-0.2897012,-0.18122311,0.6934981,-0.30604577,-0.34354857,-0.16483262,-0.18691166,-0.22646607,-0.09776526,-0.8859863,0.31229725,0.20568222,-1.1929237,0.017339915,0.67954224,0.28168228,0.111022346,0.37300372,-0.73663634,0.669216,
xctxt,-0.81024057,-0.01714317,-0.24481206,0.790716,0.06303404,0.2155585,0.7808289,0.24783349,-1.1077477,-0.23001182,0.061932065,-0.1058461,-0.66263115,-0.2508047,0.055652212,0.5964535,0.24974997,-0.48286036,0.7322558,-0.11925867,-0.41498485,-0.69946843,-0.37499005,-0.94527775,-0.13643885,0.4886563,-0.36698693,-0.2666124,-0.4649007,1.0518742,
getOp(),-1.6803739,-0.22977412,-0.36159232,-0.41243258,0.13492243,-0.7868268,-0.791005,-1.1418355,-1.1251574,-0.28206363,0.582005,0.03379255,-0.111226715,-0.0192947,0.28884962,-0.2646356,-0.41262057,0.057410724,-0.11673564,-1.0129288,0.26558107,-0.1900734,-0.034037225,0.099602535,-0.1862639,-0.8597716,0.25221282,0.403142,-1.0467061,1.3450205,
x,-0.21851791,-0.9804162,-0.4193179,0.26976776,0.515361,-0.04857264,0.44526094,0.26491457,0.55793333,-0.5543461,1.2431928,0.847231,-1.2238184,0.50806963,0.927148,0.37795746,0.80745703,1.7049234,-0.2599616,-1.2951969,0.45608678,-0.5274991,-2.1227405,-0.3664256,-0.15034771,0.10561593,0.10054743,0.2487888,-1.4428467,1.6461635,
translate(),-1.4645466,-0.34782073,-0.07382182,-0.29673377,0.7648224,-0.40116528,-0.99050844,-0.21401983,-1.0504816,-0.7054144,1.3122976,-0.098979875,-1.3893665,0.7084739,0.05678266,0.39119452,-0.8658684,1.1742405,-0.6786487,0.301142,0.2131626,-0.33916804,-0.43502295,0.62355244,0.9191112,-1.0251048,-0.25746718,0.4132252,-0.6166839,0.26323828,
indexOf(),-0.3046769,-0.63579077,0.15276209,0.057589747,-0.37989283,-1.0089604,-0.8463478,0.39133325,-0.8023517,-0.91989267,0.57196397,-0.07480182,-0.5993089,-0.5037026,-0.16229738,0.044687934,0.286783,-0.05432693,0.5190216,-0.53831434,0.09222941,0.16162004,-0.4548207,-0.4406281,0.23415737,0.20768203,0.29466003,0.026930278,-1.2550621,0.76650363,
TransformerException,-0.1369872,-1.1256344,-0.5264261,-0.4573224,0.8536611,0.43230858,0.00078957743,0.06479565,-0.76424575,-0.5882109,0.45961818,0.7046435,-0.36652195,-0.029507056,-0.15709354,-0.46232122,-0.022308799,0.4550804,-0.30780816,-0.82056546,-0.001952658,-0.9501863,-1.163935,-0.6376442,0.21237521,0.022460543,-0.60369813,-0.7022831,-0.5903159,0.6540993,
getName(),-0.1597758,-0.22165397,0.6178885,-0.121837474,0.593148,-0.07992543,-0.61857826,0.9424458,-0.84226316,-0.43890205,0.97736996,-0.115052655,-1.3972329,0.39915693,0.22729892,-0.04028844,0.14548579,1.2245635,0.00518583,0.043565813,-0.009850981,-0.60367936,-0.7750068,-0.45209622,0.1556343,-0.7086663,-0.25451437,0.0805642,-0.024177708,-0.030184133,
Vector,-0.3964699,-0.7557482,0.76503915,0.124643095,0.45520654,-0.51428723,-0.03192011,0.58795476,-0.6011436,-1.4066838,0.91425884,-0.2248805,-0.4416572,0.4068734,-0.28336346,0.24724174,0.06288035,-0.14414954,0.007499629,0.2765569,-0.01084591,0.20974225,-0.35766783,0.12661335,0.35621598,-0.17265713,-0.37816784,0.030176902,0.29392627,0.5862386,
PUSH,-1.7448075,-0.6978876,-0.3473583,-0.05167492,0.80901146,-0.82323533,-1.1350849,-0.34331834,-1.339082,-0.9806814,1.307544,0.1503149,-1.5180094,0.33989915,-0.030670341,0.15427111,-0.91235286,1.1220665,-0.60046345,0.3215902,0.2700559,-0.6086653,-0.36992285,0.51416546,0.8699779,-0.8276747,-0.028813874,0.0053028427,-0.50574154,-0.10738216,
execute(),-0.6476686,-0.013584094,0.35898063,0.196351,0.3891902,-0.063083015,0.34864685,-0.034129176,-1.0421114,-0.5091065,0.4032834,-0.008294313,-0.5797912,-0.3210604,0.07556276,0.45557156,0.3350038,-0.33301646,0.7326282,-0.13117567,-0.47378433,-0.80092186,-0.5621835,-0.8857346,-0.23772332,0.4615539,-0.4613554,-0.4225916,-0.8272214,1.1731656,
prefix,-0.38653436,-0.65324134,0.17190376,1.0292629,0.30236134,-0.8161142,0.33390483,0.96188074,-0.89890504,-1.1480333,-0.027187703,-0.35972995,0.09544918,-0.1984883,-0.2277115,-0.09189598,0.1717923,0.5123835,0.28195775,-0.33415043,0.10060131,0.5533395,-0.7738338,-0.4017438,0.02922968,0.064110875,0.48817605,0.26262102,-0.79105705,-0.14914145,
error(),-0.48458827,-0.74265635,-0.48483482,0.17730518,0.08434027,-0.22524016,0.31073025,-0.2711312,-1.1326538,-0.56861687,0.17748044,0.20696984,0.108205944,-0.21620603,0.3074104,-0.73976135,0.45373514,0.3492743,-0.045808975,-0.86234677,-0.05658881,-0.8115291,-0.926552,-0.633753,-0.44942445,-0.058970723,0.036351524,-0.031259242,-0.54278004,0.30302656,
run,0.08951476,-0.30674762,-1.2427732,0.98246354,-0.26874703,0.20872864,1.1607081,1.2377326,-0.48329252,-1.2905704,0.95724255,0.5780962,-1.075536,0.9301228,1.0891904,0.55278665,0.32742476,0.27974212,0.13068193,-0.60992336,1.2364138,0.29066992,-1.5145986,-0.36016026,0.32550463,0.0098348595,-0.925741,-0.21627232,-1.4259918,0.7815023,
Integer,-0.20316625,-0.7377739,0.26436782,0.43943954,0.27449298,-0.7043459,-0.35266113,1.5426825,-1.1585842,-2.148535,0.6516143,-0.07304058,-0.60565364,0.5664237,0.30177104,-0.15958281,0.09241106,1.269289,-0.43671757,-0.09336249,0.7961009,-0.8017354,-0.61457235,0.25666574,-0.28900737,0.04601922,-0.17552865,-0.34133193,-0.23101054,0.5032398,
org,-0.12971242,-0.8881804,-0.5086013,0.053695273,0.30219084,0.15160476,0.07224767,0.46529642,-0.54394585,-0.3879464,0.15408681,0.27269784,-0.17695546,-0.26904127,-0.08360424,-0.29259568,0.15002806,0.07960218,-0.1979491,-0.8561716,0.15477104,-0.62641853,-1.3705777,-0.5419593,0.59281987,0.09474377,-0.5925741,-0.34155133,-0.16539754,0.5043745,
ch,-1.0853257,-0.92800003,-0.21924901,0.68577236,0.17375971,-0.65578955,0.18105291,0.31384918,-1.0074435,-0.747513,-0.70249355,0.34594488,0.42684704,-0.42611128,-0.18989663,-0.49269524,0.08518519,-0.45557472,0.1608107,-1.0669487,0.62492764,0.8801969,-0.24368526,-0.2568474,0.2813021,0.15372588,-0.09593304,0.27711383,-1.228693,0.5174653,
getNodeType(),-0.8826349,0.12848812,9.492265e-05,0.70431364,0.28552467,-0.24951,0.056904104,-0.23383486,-1.3892292,-0.06017145,0.7056524,-0.13678768,0.13240135,-0.06748234,-0.11430301,0.3088219,0.05288345,0.17061561,0.3871699,-0.75090754,0.38710895,-0.79401493,-0.07042202,-0.30185676,0.044024423,0.16818981,0.142077,0.17264813,-0.6861023,0.8966484,
doPrivileged(),0.15875857,-0.38960895,-1.3259697,1.045233,-0.20228085,0.23060542,1.2948699,1.3477199,-0.32884902,-1.3059059,0.8182662,0.58877236,-1.2441063,0.79631263,1.0176531,0.64997345,0.42996863,0.40370744,0.23478332,-0.6142931,1.2948303,0.23580588,-1.7053729,-0.2977815,0.4049381,0.085967034,-0.9252865,-0.011114096,-1.3258545,0.79908746,
ConfigurationError,-0.24486706,-1.0134504,-0.64344144,0.6814038,0.6381734,0.24332248,0.45489275,0.27105972,0.7721594,-0.30764508,0.87235117,0.34425497,-1.2162124,0.58343047,0.49214324,0.77872396,0.79933125,1.7024145,-0.18367194,-1.4677756,0.39310572,-0.57383037,-2.185842,-0.3656285,0.47380373,0.0912279,0.16500823,0.44736016,-1.2488527,1.8963833,
reportError(),-0.07967592,-0.2233933,0.016242616,-0.6940786,0.34482417,0.02970398,-1.3121074,0.34785196,-0.19179438,-0.46607187,1.1664405,-0.3375563,-1.394387,0.3357729,0.3060102,0.08600707,-0.27575037,0.7285173,-0.1293299,-0.09524638,0.053929225,-0.17087677,-1.5969235,0.08194958,0.883239,-1.0395455,-0.8614497,0.31947893,-1.1716049,0.62109405,
getProperty(),0.40173814,-0.36147633,-0.26799816,0.03640644,-0.33098096,-0.12554201,0.39622304,0.9357883,-0.28792828,-0.9110934,1.0375031,0.90850574,-1.0641792,0.16202727,0.5712911,0.019472383,0.3951595,0.87505066,0.14209221,-0.060450323,0.37838456,0.32498816,-1.0612932,-0.3793431,-0.18733431,0.3716677,0.056648254,-0.043514155,-1.270521,0.6172974,
org.apache.xalan.xsltc.compiler,-0.19013612,-0.09420963,-0.04869699,0.13365129,0.7545701,0.121933654,0.024002085,0.75074095,-0.09129881,-0.653707,-0.07252679,-0.27622655,-1.0119371,0.5851904,-0.5905466,0.41735685,-0.36162382,-0.08176273,0.24115719,0.301975,0.44631517,0.7992756,-0.10199984,0.22742842,0.8152379,-0.8234949,-1.1646868,0.6746246,-0.30823764,0.28956926,
getType(),-1.0775402,0.24152024,0.54273283,-0.079779565,0.3745424,-0.5949923,-0.7397764,0.06829447,-0.7452687,-0.15161864,0.80218565,-0.36196518,-0.96030986,-0.23832583,0.31153482,0.44938013,-0.12792704,0.3698464,0.58097184,0.12201446,-0.39722097,-0.29103696,-0.7705426,-0.4117212,0.32181987,-0.7737453,-0.1431544,0.22747983,-0.21693636,0.298488,
localName,-0.33149588,-1.114704,-0.18851334,1.6173276,0.3198476,-0.670523,-0.06780247,0.8895216,-0.44348264,-0.99364483,0.0021475255,-0.44808036,0.20298699,0.095039055,-0.47146508,0.09241242,-0.28931776,0.6187181,0.13609639,-0.6337174,0.35596085,0.77982706,-1.2382714,0.17903331,0.84774566,-0.04637706,0.25541747,0.4972111,-0.47175008,0.086885005,
SwitchStatement,-0.7221436,0.19626558,-0.27319372,0.52675796,0.18507789,-0.4573021,-0.57070196,-0.644017,-1.38824,0.074711934,0.5425555,-0.09622539,-0.50879246,-0.1099558,0.056098167,0.5303821,-0.19366111,0.5177007,0.36519897,-0.3721313,0.2687622,-1.3285605,-0.35879472,-0.022743428,0.41820288,-0.38737327,-0.05288366,0.1316134,-0.2781797,0.8222468,
nextToken(),-1.0022058,-0.44216156,-0.06410059,-0.61639833,0.34655136,-1.0843055,-1.0158945,-0.4306909,-1.2692394,-0.6217857,1.3277186,0.121277854,-0.5510337,-0.20430279,0.27542594,-0.45385325,-0.303882,0.09042291,-0.1574175,-0.3919669,-0.19985707,0.26241228,-0.7780001,-0.4372617,0.06546992,-0.2773722,0.5685294,-0.06517058,-0.898769,1.0414926,
PrivilegedAction,0.11038799,-0.36947668,-1.2718399,1.0854118,-0.29402974,0.18334788,1.2536452,1.3287517,-0.2872019,-1.3458178,0.88168657,0.54436755,-1.2483932,0.82360494,0.94166785,0.6748968,0.38582015,0.43852055,0.2326882,-0.568754,1.2652828,0.29875496,-1.5580994,-0.26464945,0.37854528,0.15187363,-0.86535245,0.033264045,-1.1930548,0.7865664,
getDTM(),-0.7451287,-0.08549334,-0.24319176,0.05638165,0.31795794,0.13675553,0.7388344,-0.23080763,-1.0629492,-0.030509582,0.47813153,0.022504035,-0.23021756,-0.10760427,-0.017145138,0.29714817,0.25405976,-0.41966414,0.29699865,-0.47405025,0.011529898,-0.4393603,-0.008096698,-0.35080084,-0.102499366,0.3088896,-0.10449163,0.017490167,-0.6807952,1.1419973,
makeNodeIdentity(),-1.6695194,0.114030845,0.50922644,0.7263751,0.34508637,-0.75759083,-0.021746514,-0.2597606,-1.6683304,-0.67379683,0.72621167,-0.5934552,-0.22448368,0.5142818,-0.1603014,0.57952315,-0.0072159613,-0.06443875,0.55213714,-1.1166513,0.4407296,0.13965502,0.43666118,-0.17392215,-0.11425024,-0.5077578,0.2536069,0.7811407,-1.0394183,0.61519104,
Hashtable,-0.036283657,-0.7064495,0.6181607,0.61428916,0.36100549,-0.18149897,0.10159948,1.3675866,-0.65455496,-1.2265978,0.4586338,-0.101059295,-0.77675164,0.6465003,-0.21954244,0.3882074,0.05675276,0.46129546,-0.1191533,0.38461685,0.5448083,0.07151504,-0.051294774,0.2539979,0.26583594,0.20440103,-0.16111936,0.18398888,-0.31216282,0.71695733,
debugPrintln(),0.055737466,-0.7571968,-0.21486482,0.22161838,0.52103955,0.028481662,0.4735796,0.1324065,0.23371737,-0.45842862,1.1511363,0.7294933,-1.0999224,0.6711765,0.75187194,0.4853685,0.8768242,1.3685089,-0.03398676,-1.1480435,0.7672992,-0.4873509,-1.5560757,-0.2770876,-0.07929032,0.19157784,0.060621716,0.16148286,-1.5640279,1.6410261,
next,-1.4210534,0.38337347,0.56403846,0.42348596,-0.098358355,-0.7550063,-0.49744028,0.016677927,-1.3751078,-0.46028998,0.28158835,-0.68570316,-0.5056277,0.5733408,-0.08664693,0.8577082,-0.3181914,0.00973247,0.45040822,-0.5397124,0.53707576,-0.10265276,0.26082665,0.15418567,0.12014019,-0.6838742,0.113584206,1.081324,-1.068488,0.987605,
newInstance(),0.38263038,-0.9189986,-0.15736409,-0.22668238,0.596503,0.27678546,0.2927958,0.08125283,0.27963573,-0.435334,0.7426824,0.7310878,-0.785952,0.19061796,0.1307913,0.122708924,0.25881848,0.69056773,-0.15892021,-0.47843045,0.5749708,-0.625677,-0.90416056,0.20000999,0.094348565,-0.005330569,-0.43444476,-0.06520193,-0.65886027,1.4782727,
getBundle(),0.13457486,-0.8504989,-0.43528137,-0.01676999,0.29790494,0.46230662,-0.07381637,0.79607177,-0.076197155,-1.1285771,0.60002166,-0.17998855,-1.0468097,0.6883535,0.6705541,0.85329324,0.6558308,0.24637575,0.21108966,-1.5102992,1.3648791,-0.52023643,-2.0582294,0.1450251,0.4721266,-0.03114699,-0.69137037,-0.123582534,-1.6866517,2.1766493,
className,0.45495978,-0.25707865,-0.4159721,0.7798468,-0.019899702,-0.08892989,-0.29912058,0.49358183,-0.17460448,-0.28472117,0.35316867,-0.15081103,-0.8839944,0.64927346,0.4081026,1.2213837,0.16109847,0.6444653,0.49316746,-0.44295475,0.8079661,-0.8339215,-1.1359062,0.57400554,0.74826604,0.18630776,-0.13139777,0.34093884,-0.35426247,1.8183236,
length,-1.1393481,-1.2551583,0.018177211,0.6398223,0.23134676,-0.5084877,0.11720549,0.15101193,-0.8237896,-0.8137894,-0.6507621,0.557082,0.24964924,-0.28979412,-0.22951207,-0.6027956,-0.091553465,-0.36945233,0.13855158,-1.0778322,0.6888591,1.0064577,-0.036528125,-0.17403182,0.32515988,-0.022087824,-0.00339283,0.2936786,-1.4179776,0.45536247,
getNodeName(),-0.49715102,-0.23844244,0.038376573,0.48441023,0.36358985,-0.6362292,0.11513265,-0.24360727,-1.5777266,-0.5377959,0.6811927,0.20608623,-0.1285771,-0.22318284,-0.08086369,-0.2561356,0.34866133,0.28396165,0.45787257,-0.8141012,0.33140448,-1.0039552,-0.40954864,-0.69551337,-0.48184225,0.17112455,0.15074489,-0.28880483,-0.5613871,0.5020923,
getMessage(),-0.038905017,-0.7431998,-0.511188,-0.7571561,0.7490031,0.72374934,0.09658459,0.24822244,-1.0523956,-0.15446396,0.42637095,0.6120013,-0.38779017,0.2124669,0.0071747187,-0.64234173,0.115936495,0.49761665,-0.47023293,-0.7952109,0.2423071,-0.4400841,-1.0140886,-0.65157247,0.06809135,-0.5229925,-0.71548754,-0.33494064,-0.8732525,0.44526786,
ex,0.2846276,-0.2773041,-1.0239668,0.31318295,-0.05825996,0.48673654,0.88181514,0.5198897,-0.28739068,-0.559144,0.66113675,0.8507655,-0.868006,0.489586,0.82740533,0.2506098,0.26931244,0.4157321,0.017335894,-0.557698,0.82533616,-0.46595904,-1.4378009,-0.29691646,0.15187874,0.054848783,-0.90704244,-0.19497642,-1.1277515,0.9862726,
equalsIgnoreCase(),-0.48419183,-0.88738495,0.27606124,0.09885615,0.4216383,-0.31869105,-0.4634895,-0.18451904,-0.7020296,-0.8934175,0.9367318,0.6453707,-0.3321024,-0.091082655,-0.038864505,-0.81423604,0.009740971,0.76940477,0.17906338,-0.7927176,0.5645333,-0.09083652,-0.32442096,-0.7114236,-0.37636897,-0.028857987,0.24251728,-0.072070785,-1.1977232,0.44070953,
translate,-1.0054587,-0.2780034,0.061515834,0.22936046,0.6625983,-0.5176274,-0.98032194,0.6662242,-0.018819619,-0.50419253,0.7726143,-0.6164413,-1.2199616,0.89769,-0.073070526,0.8243341,-0.48186827,0.76855296,-0.0066709123,-0.12956086,0.058755092,0.2041201,-1.1855583,0.40175307,1.4427164,-1.2666669,-0.5762318,0.95470214,-0.09857091,0.49793345,
getParent(),0.012770058,0.5915041,-0.21998645,-0.022575514,-0.6026456,0.11705375,-0.2476214,0.35370144,-0.7136352,0.334993,1.3147427,0.16417275,-0.85014915,0.4350721,0.5301902,0.24621882,-0.3070596,0.29555133,0.28574586,0.2241882,0.41434893,-0.29205245,-0.33237165,-0.25572154,0.5386152,-0.38595673,-0.30504298,0.39745975,-0.49952787,0.7299905,
typeCheck(),-0.83175385,-0.372728,0.56149083,0.17421003,0.49646983,-0.40230194,-1.2441406,0.1998257,0.13469392,-0.8357392,1.0002525,-0.89019775,-0.7682806,0.7105034,0.1411699,0.7030163,-0.3676004,0.7882515,0.19339727,-0.7323008,0.019649005,-0.22106618,-1.2919327,0.17011026,0.89313275,-1.2364275,-0.5260459,0.9756112,-0.3602818,0.81371945,
start,-1.0069346,-1.1542027,0.13774285,0.81540227,0.2258736,-0.53907526,0.13029331,0.27788764,-0.74984074,-0.906793,-0.6859684,0.49477413,0.21493402,-0.12625101,-0.18307887,-0.51968163,-0.055234957,-0.21007839,-0.025244225,-0.924457,0.83753556,0.9656585,0.026712032,-0.008945701,0.41197264,-0.12406208,-0.10373257,0.30375734,-1.1570952,0.52616346,
getLength(),-0.67910194,-0.86450005,0.9290468,0.3725067,0.6389186,-0.31447056,-0.059256013,-0.014104216,-0.9004562,-0.88513917,0.76307195,0.18687822,-0.3712954,-0.11058847,-0.5792349,-0.0013254925,0.085510366,-0.04334185,0.49392354,-0.29495972,0.42931473,-0.24656418,0.105460264,-0.21571933,-0.04322428,0.086960874,-0.17251386,-0.120726265,-0.12719694,0.61523384,
getExpandedTypeID(),-1.0725949,-0.22641341,0.50863475,0.9978113,0.18733592,-0.75985956,-0.2434049,-0.1434011,-1.3981625,-0.7309946,0.34686497,-0.43074974,-0.025477815,0.47856486,0.007871312,0.19532369,0.13627362,0.39097464,0.3398979,-0.7942428,0.9639494,-0.48771238,0.074283466,0.06707666,-0.5107509,-0.57841295,0.12889294,0.5491589,-0.7014957,0.5412739,
arraycopy(),-0.95920897,-0.97935355,0.5213769,0.79725444,-0.12673119,-0.43712598,-0.45509273,0.1984293,-0.49543408,-0.7528754,0.35146722,-0.17158195,-0.17004299,0.7610275,0.09712572,0.07309736,-0.12807378,0.10830341,-0.009508624,-0.65492404,0.89979523,0.3207094,0.3036269,0.3362704,-0.011746925,-0.4336093,-0.06063433,0.7849081,-0.73804706,0.85175,
getTraceManager(),-0.45770428,-0.9796457,-0.08220183,0.22684816,0.9011528,0.13919604,0.9130672,-0.11927606,-0.7644083,-0.8583363,0.5527495,0.42372727,-0.3359249,-0.2542884,0.10535849,-0.0411166,0.27573657,0.35826606,0.3797828,-0.6064353,0.14643595,-1.2864795,-0.6179135,-0.3179498,-0.70926297,0.5059363,-0.15218848,-0.53725094,-0.3849517,1.1193548,
clone(),-0.46380958,-0.41676104,0.5555325,0.26933098,-0.17001286,0.07013372,0.1943635,0.8547882,-0.5804777,-0.3941967,-0.0064025056,0.034197453,-0.42325273,0.61205655,0.26324785,0.3384067,0.23380707,-0.74412566,0.1390043,-0.2906669,0.86049503,-0.27856237,-0.17919129,-0.029996194,-0.34246692,-0.21041425,-0.886839,0.2682258,-0.74836504,1.6144198,
cl,0.2878853,-0.49846128,-0.8987581,0.9952562,-0.35740095,0.22750098,0.7608062,0.9884263,-0.265439,-0.64160573,0.5942189,0.3971497,-0.6264128,0.58414227,0.7202912,0.65631026,0.45661408,0.7175015,0.2954911,-0.91023624,0.87134486,-0.24384299,-2.0295947,-0.237921,0.4126927,0.37425587,-0.32046336,0.1064032,-1.2286023,1.1913109,
context,-1.2320026,0.04238679,0.35205144,0.693342,0.12038387,-0.58988816,0.26751533,0.090261824,-1.2364483,-0.5569888,0.17948909,-0.4601013,-0.16782887,-0.13786209,-0.19804692,0.62343645,0.037795518,-0.43043005,0.63011223,-0.45838857,0.22017637,0.0938693,0.08861007,-0.36029935,-0.05052135,-0.096862085,0.19319879,0.48978028,-0.573601,0.9616887,
ElemDesc,-0.46854118,-0.9263048,0.08168975,1.0178132,0.15055946,-0.8293164,-0.48507756,1.333319,-1.2290907,-2.05846,1.2127374,0.21656366,-1.5319124,1.0226386,0.5877818,0.15750867,-0.11872336,1.4433482,-0.38662744,0.20617175,1.0386614,-0.45460021,-0.5711405,0.5146321,0.055864744,0.11525242,0.047097605,0.0051893373,-0.62409896,0.81706065,
setOp(),-1.5011934,-0.35837677,-0.1315107,-0.49941882,0.1476021,-0.9528128,-0.8503245,-0.8905413,-1.053622,-0.61942756,0.82491666,0.05413057,-0.047020957,0.19112782,0.41665944,-0.4736026,-0.55076814,0.3004784,-0.2723951,-0.8208258,0.2658985,-0.092823125,-0.3951586,0.066794835,-0.34198496,-0.849573,0.2769748,0.4042214,-1.1512127,1.5575616,
factoryId,-0.21427204,-1.1911469,-0.7123811,0.78788894,0.94960785,0.5149265,0.57832426,0.44662568,0.6440185,-0.40453374,0.67301065,0.27443796,-0.8976619,0.62061834,-0.38004407,1.255102,0.36070883,0.8015075,-0.07492014,-1.1982989,0.663597,0.32084787,-1.3243049,0.2224469,1.0393332,0.38541216,0.16345125,0.51665014,-0.8821745,2.144548,
makeNodeHandle(),-1.4747828,0.33356476,0.41969433,0.532933,0.25907105,-0.8792292,-0.14799571,-0.5015978,-1.5548049,-0.5655414,0.609174,-0.470781,-0.12212593,0.4777799,0.02114468,0.40558562,-0.050673444,0.25715116,0.40131357,-0.9462797,0.46818098,-0.30377272,0.24333148,-0.20002803,-0.3133866,-0.66068625,0.11952924,0.80186164,-0.8269886,0.7183258,
stable,-0.6770806,-0.24764936,0.45488182,0.0740832,0.34607777,-0.3335333,-1.0765109,0.63170457,0.11500292,-0.8704052,0.9070738,-0.81587726,-0.8031555,0.46963167,0.019147765,0.30539027,-0.33653143,0.39241555,0.31979173,-0.37953833,-0.12963067,0.33798432,-1.2568123,-0.091221616,0.8450607,-1.1910547,-0.7647713,0.95703506,-0.4676007,0.36628816,
execute,-0.74418443,-0.208278,0.04654718,1.0942421,0.19452709,-0.08575463,0.98504466,0.32459992,-0.9236839,-0.664007,0.10905493,-0.28749922,-0.6244779,-0.21395345,-0.011139448,0.55361634,0.45878038,-0.26263955,0.8976489,-0.2468867,-0.17812657,-0.868002,-0.3679966,-0.7768524,-0.2319893,0.6263871,-0.26506874,-0.037888903,-0.25725967,1.001635,
next(),-0.9765857,0.4538879,0.507556,0.26156804,-0.06901652,-0.52348834,-0.1796335,-0.10377968,-1.2317834,-0.033835735,0.61955374,-0.36335003,-0.16191155,0.3224504,0.2544044,0.38133928,0.07966614,-0.27403316,0.3738629,-0.6036283,0.33668998,-0.43807036,-0.0772114,-0.18326885,-0.11883152,-0.52933705,0.06623134,0.53903455,-0.8614508,1.2054242,
INVOKEINTERFACE,-1.510057,-0.47467902,-0.59966415,-0.13539109,0.6836707,-0.93520766,-0.90142655,-0.13904339,-1.3860426,-0.62725073,1.092946,0.31451392,-1.7212521,0.41064095,0.26741308,0.17941275,-0.92915505,1.3208894,-0.60317373,0.39241928,0.43032858,-0.6854351,-0.44357693,0.52868915,0.79969585,-0.8668556,0.035799418,0.120497085,-0.7492682,-0.09176081,
setElementAt(),-1.0070859,-0.6020782,0.693626,-0.03854567,0.4270769,-0.5799972,-0.27639067,-0.097449124,-0.59238935,-1.3192825,0.8335369,-0.17092036,-0.00392023,0.2770576,0.29554605,-0.2784035,0.17375237,0.5150092,0.017077273,-0.8823114,0.018528543,-0.48163557,-0.33357856,-0.19664511,-0.6557463,-1.1361138,-0.28114608,0.42386138,-0.09167201,0.47051218,
addInterfaceMethodref(),-1.6065147,-0.48703703,-0.54484755,0.013996581,0.64560455,-0.8332899,-0.8259113,-0.36129743,-1.3277476,-0.561465,0.95759916,0.15806688,-1.8752131,0.20488992,0.108468994,0.6464495,-0.92982596,1.3379472,-0.43313456,0.22520836,0.5889222,-0.42636105,-0.18890911,0.57151467,0.9272474,-0.80481124,0.18246083,0.26403084,-0.58219284,-0.09850207,
nextNode(),-1.107142,0.42978093,0.07456827,-0.42497945,0.2688102,-0.120845236,0.1269216,-0.2289812,-1.1874113,0.034077387,0.6665784,0.014376288,-0.71431315,0.27509588,-0.067140475,0.09933243,-0.006787311,0.012607491,-0.018856471,-0.05814493,-0.062385656,-0.22813115,0.23393257,-0.43416625,0.088677146,-0.27267808,-0.025211051,0.25572634,-0.51651657,0.79265684,
se,0.10414851,-0.7470437,-0.10183263,-0.17250887,0.6505637,0.07762401,0.06800815,0.2778749,-0.3961322,-0.6068504,0.76505613,0.7054164,-0.3876487,-0.01843451,0.2603448,-0.2832173,0.28665444,0.63189214,-0.12557672,-0.7495932,0.30766392,-0.66317075,-1.1069425,-0.5372324,0.047296096,0.14849739,-0.25030208,-0.45477462,-0.69559073,1.2140139,
getSystemId(),0.14891039,-0.42554358,-0.48359436,-0.49967378,0.6007363,0.038205512,0.39006966,-0.13350847,-0.57729083,-0.070414215,0.8223768,0.7763044,-0.5463429,0.069159195,-0.12501772,-0.3025536,0.093469344,0.52369505,-0.13356522,0.00921506,0.21401733,-0.48645788,-0.26260903,-0.1677319,0.08174536,-0.33930144,-0.34213597,-0.3321703,-0.64035094,0.4480955,
v,-0.6583,-0.60981506,0.28645372,0.87977874,-0.018705456,-0.15066233,0.57492316,0.40126634,-0.34187606,-1.1623576,0.48958442,-0.4096425,-0.845171,0.42403713,0.023606524,0.5360524,0.34828126,-0.281855,0.5761965,-0.42228702,0.050370146,-0.050032888,-0.21129213,-0.12174147,-0.058218054,-0.20229478,-0.39646095,0.4463462,0.20295061,0.27576435,
getXPathContext(),-0.43294996,-0.40702266,0.16744639,0.015959695,0.40378073,0.21584919,0.6577862,0.06370061,-0.85314393,-0.5027491,0.49169648,0.17428343,-0.5079884,-0.3861586,-0.14846177,0.195139,0.26002192,-0.17238107,0.43751118,-0.22987673,0.248044,-0.6299739,-0.18796419,-0.42345172,-0.2309599,0.50547534,-0.34017524,-0.22528915,-0.39846227,1.3017653,
Long,0.12650354,-1.0447583,-0.6629502,1.0862052,-0.05617466,-0.1728254,0.7981388,1.7471766,-0.6968891,-1.9881359,0.7826811,0.48033953,-1.2155818,0.99841076,0.7282546,0.2220447,0.29377186,1.094049,-0.17796282,-0.039017513,0.9264674,-0.27510422,-1.2451905,0.34069446,-0.1527459,0.21155141,-0.66996336,-0.038310878,-0.90916693,0.35353285,
push(),-0.19014147,-1.1443539,0.68883955,0.5132665,0.38345551,-0.46077415,0.5531752,0.8658425,-0.34138328,-1.7127146,0.4183753,0.25418222,-0.04089022,0.2797047,-0.06987891,-0.42029378,0.10300992,0.43920916,-0.102332406,-0.29073632,0.33714825,0.05223884,-0.5048444,-0.12388037,-0.46293545,-0.5826828,-0.3455745,0.22159411,0.09282236,0.036722373,
getIndex(),-1.527148,-0.50682,-0.5991254,0.018616179,0.6979785,-0.65049,-0.29167733,-0.04817407,-0.8592107,-0.78867173,0.70990133,0.27261207,-1.2446183,0.4203707,-0.1307899,-0.13768129,-1.0444762,1.012026,-0.48844096,0.66598254,0.23419991,-0.22849022,-0.25115204,0.5110821,0.74408394,-0.9282463,-0.12210666,0.32889885,-0.38492152,-0.34521347,
INVOKEVIRTUAL,-1.7139342,-0.41282445,-0.44938836,-0.19953744,0.78656983,-0.8497227,-0.7129148,-0.2576186,-1.123751,-0.7180147,1.1437526,0.16340083,-1.6505969,0.48472726,0.0971094,0.10928568,-0.96092117,1.0948219,-0.5383469,0.43908557,0.28006017,-0.25566122,-0.2518488,0.3849526,0.8098568,-0.859551,-0.08728063,0.22925252,-0.7659401,-0.07786083,
getInstance(),0.1692885,-0.52892816,-0.2722696,0.13441665,0.70069146,0.51498425,0.6610264,0.5002945,-0.49770254,-0.1179627,0.923163,0.5965547,-0.73567545,0.389284,-0.2765286,0.5007252,0.69389576,0.39432463,0.039884783,-0.60827506,0.62899786,0.2122752,-0.41582787,-0.24560049,0.2866694,0.67717576,0.18919928,0.038660925,-0.9357933,1.5917894,
close(),0.10782781,-0.655787,0.398684,-0.6104005,0.24704331,-0.13327195,0.12764828,0.31600147,-0.15224156,-0.6616206,1.2790958,0.96080613,-0.9917272,0.13310167,0.5233725,-0.46970007,0.69865423,0.79708695,-0.21058215,-0.4598852,0.5816451,-0.17428894,-0.88263595,-0.23949623,-0.55696505,-0.17054082,-0.28140172,0.10268837,-1.1309482,1.1556313,
loadDOM(),-1.6251894,-0.43481502,-0.30396253,-0.20332752,0.8735046,-0.88521373,-0.6764977,-0.31361717,-1.2316992,-0.66949624,1.1882124,0.31304252,-1.5783623,0.471983,0.1183617,0.093148835,-0.9192989,1.2805539,-0.55148613,0.43768513,0.19029447,-0.64659554,-0.32793674,0.49091908,0.65562147,-0.9486273,-0.04448351,0.09432358,-0.78118473,0.056618195,
translateTo(),-1.1704959,-0.31499553,-0.039382424,0.08659272,0.73611075,-0.45432004,-1.4021168,0.5286279,-0.7223318,-0.34229293,1.4247087,-0.45465282,-1.247735,0.99334586,0.36391968,0.40033695,-0.7245347,1.4776897,-0.4378858,-0.051907726,0.15400794,-0.20978561,-0.9413555,0.4287299,1.1033472,-1.0974456,-0.090279296,0.60038626,-1.0791874,0.42117733,
typeCheck,-0.5433215,-0.23632048,0.459476,-0.00014169133,0.38930967,-0.287515,-1.0985985,0.71260273,0.07392558,-0.7306147,0.74223304,-0.7587603,-0.839047,0.49817336,0.045480613,0.16955177,-0.28399396,0.49779055,0.34140372,-0.20229052,0.0047910437,0.22416079,-1.2824937,-0.029866092,0.68900716,-1.2759908,-0.7605496,0.9867619,-0.49492782,0.31341445,
startsWith(),-0.38086885,-0.4581641,0.48988152,0.27927387,-0.06601419,-0.9661051,-0.53560996,0.4485409,-0.9334463,-1.0661632,1.0339721,-0.15679432,-0.55845237,-0.40121356,0.0034609511,-0.099147804,0.28599095,0.407507,0.5203308,-0.3795194,-0.052663643,0.16500056,-0.8889802,-0.6849003,0.013490359,0.24146506,0.5120231,0.068897195,-1.0804936,0.42097616,
str(),-0.6838226,0.02789276,-0.17085265,0.16808587,-0.34370968,-0.64714545,-0.31169987,0.17432378,-1.1644263,-0.42238444,0.27501294,-0.029178279,-0.676027,-0.80403316,0.03880219,0.031635873,0.12456252,-0.37446365,0.6660026,-0.27717972,-0.29769093,-0.41782758,-0.6362577,-0.85012823,0.1946404,0.36984652,0.010408491,-0.10677309,-0.8944719,0.5551675,
msg,-0.07721681,-0.68907744,-0.84086365,-0.13249804,0.68888825,0.83141625,0.94870913,0.007483191,-0.59294194,0.102300666,0.37637064,0.6912891,-0.63006294,0.19361238,-0.026737953,-0.07610362,0.76282054,1.192451,-0.25928608,-0.95337653,0.18519568,-0.6193757,-1.0637078,-0.6836868,-0.20744759,0.008506244,-0.16795844,-0.05655389,-0.9017149,0.6275176,
i,-0.7273273,-0.92262304,0.6834338,0.06493822,0.057599474,-0.26060268,-0.09944732,0.40068075,-0.29314202,-1.0414385,0.13062514,-0.05609668,-0.24720043,0.26799476,-0.17854325,0.15343846,0.26600528,-0.27155948,0.53609926,-0.9561763,0.2396031,0.14895238,-0.15907893,-0.38794482,-0.029213132,-0.7139655,-0.35692748,0.5788494,0.09464101,0.57997376,
n,-0.43669674,-0.2836163,0.32832175,0.41336605,-0.09671823,-0.39285693,0.05280608,0.38592395,-0.64942986,-0.8515347,0.10390556,-0.035987753,-0.15598132,0.19021954,-0.14216839,0.13837053,0.113048725,-0.39601353,0.41029742,-0.30482212,0.50766903,-0.27735287,0.14172804,-0.038093276,-0.07587143,-0.45904818,-0.4836665,0.4493561,0.07494026,0.6019077,
index,-1.1850702,-0.34230402,0.32337177,0.35398147,-0.12212982,-0.3035888,0.22940467,0.07483068,-0.34542915,-0.4711181,-0.14803171,-0.24332702,-0.14521685,-0.09304234,-0.33159906,0.15041365,-0.09579444,-0.46519893,0.64755666,-0.6495148,-0.14036128,0.18446095,0.007949323,-0.28690782,0.23747258,-0.57154083,-0.3289344,0.7593775,-0.4269953,0.4429321,
ContinueStatement,-0.9202777,-0.029987983,0.5415829,-0.16246943,0.3309921,-0.51837057,-0.5502942,-0.12927523,-1.0836897,-0.5412926,1.0790737,-0.23916768,-0.54018503,-0.14471547,0.18131016,0.2505498,0.035039835,0.6118309,0.35131195,-0.54961604,-0.10993158,-0.6222708,-0.47480446,-0.43016064,-0.049600266,-0.40440822,0.3181295,0.1857819,-0.34501636,0.60532886,
source,-0.31853607,-0.28230396,-0.7847428,0.45756578,0.15562378,0.27689198,0.6837948,0.15647271,-0.2569071,0.16405813,-0.36875704,0.2245546,-0.24215215,0.30593488,-0.23395394,0.21412617,-0.27513483,-0.33986896,0.022701584,-0.31373182,0.5717655,-0.07307557,0.17387357,0.27237833,0.5342063,-0.34331998,-0.5390274,0.45028403,-0.6726691,0.8590032,
getParser(),-0.19268572,-0.2073751,0.20708118,-0.435647,0.49887013,-0.14094704,-1.2575288,0.60680646,-0.50931007,-0.5538699,0.9447812,-0.22022519,-1.3095571,0.50603473,0.09057976,0.35783085,-0.24775255,0.6652309,-0.14472713,0.12743165,0.041531872,-0.16965866,-1.2734982,0.24429555,1.0489799,-0.9767507,-0.8270891,0.21551464,-0.7043161,0.5577681,
getNodeValue(),-0.33488387,-0.11738923,-0.18377443,0.51568425,0.19617912,-0.8238443,-0.29577166,0.037072454,-1.5225834,-0.5548651,0.4888105,0.12198962,-0.044119406,-0.16967864,-0.042538658,-0.36418894,0.036057692,0.4464885,0.12535141,-0.6235289,0.21163163,-0.8305849,-0.58267754,-0.514533,-0.014006353,0.41351944,0.35627314,-0.3024,-0.6298918,0.5668007,
throwUnimplementedException(),-0.62223715,-0.80241203,-0.91900617,0.87624246,0.52963716,-0.32939515,1.3398451,0.56680495,-0.24565084,-0.65747344,-0.74393183,0.3147141,-0.14516397,0.049813833,-0.3144281,-0.16916387,-0.44683647,0.33307382,-0.12673268,0.20598562,0.14801525,0.38849524,-0.90388995,0.43262374,0.49305165,-0.32941905,-0.5026928,0.51688695,-0.67704964,-0.39938346,
getLocalName(),-0.7475236,-0.24162641,0.2935092,0.63822466,0.29537237,-0.83208287,-0.25358224,-0.0067910794,-1.3163697,-0.62984735,0.76378196,-0.20308803,-0.3049959,-0.35845533,-0.028362233,0.083068095,0.33029056,0.56919783,0.46656284,-0.792714,0.107327715,-0.40539363,-0.73931575,-0.6516017,-0.027682947,0.029608529,0.48106724,-0.07569996,-0.3713855,0.16997322,
XSLTAttributeDef,-0.5859731,-0.7964685,-0.21618207,1.3707818,0.39923796,-0.5826589,-0.05305111,1.0985308,-0.2653271,-1.6495352,1.0767882,-0.44613847,-1.5739408,0.8850766,0.18211105,1.335617,0.052120246,0.7873295,-0.013841907,-0.5087635,0.97867465,0.66120213,-0.9104476,0.42705613,1.1228789,0.38910162,0.046706375,0.26311526,-0.3839267,1.0301539,
transformer,-0.3211803,-0.51936775,0.010479174,0.59514326,0.4702081,-0.025437089,0.8098874,0.24658747,-0.5220337,-0.7655091,0.2569216,-0.07332014,-0.41108564,-0.22060584,-0.09970045,0.29391173,0.29473594,-0.14591455,0.63161296,-0.08349029,0.094131656,-0.8021948,-0.29738325,-0.2862207,-0.23569106,0.37243757,-0.39664197,-0.16095279,-0.047896083,0.8064246,
parser,-0.40462857,-0.2800458,0.42656368,-0.39169464,0.43175754,0.040105756,-0.7206518,0.6890238,-0.116957165,-0.73901343,0.64230144,-0.16117287,-1.095146,0.3519859,-0.17870258,-0.27514705,-0.3189399,-0.17554286,0.55649656,0.27364153,0.030282464,0.7007069,-0.7345775,-0.3159718,0.41035658,-0.98151714,-1.1249266,0.64853644,-0.80142367,0.0140089635,
getContents,-0.5773976,-0.7209326,-0.12897967,0.9242104,-0.02369722,-0.105477355,-0.7468225,0.39910296,-0.56745476,-0.8253572,0.5787006,-0.4277021,-1.167517,0.7237893,0.43662786,1.6391146,0.23291816,0.31975213,0.4142772,-1.0188606,1.4798309,-0.15376267,-0.81761724,0.26999602,0.62215877,0.25043017,0.040185064,0.5093697,-0.8083621,1.6404424,
hasMoreElements(),-0.8090795,-0.0866405,0.3696544,-0.61630744,0.46534002,-0.5104363,-0.49042737,0.73328394,-1.2534468,-1.0774533,1.6883755,-0.2003699,-0.95980704,0.30714616,-0.13376546,0.08804434,-0.20960158,0.18600295,-0.40381196,0.40537474,-0.08458325,0.83375734,-0.40406623,-0.2522561,0.43396845,-0.10054738,0.19582435,-0.038872425,-0.41248676,1.0149734,
findClassLoader(),0.40144846,-1.0064708,0.117269725,0.25721467,0.58261657,0.24488743,-0.26694888,0.741831,0.050985683,-0.83782583,1.1709353,0.34039786,-0.9596756,0.7493576,0.039033588,0.47894597,0.29359245,0.72523284,-0.23397285,-0.4632446,0.96774155,0.07922626,-0.88276774,0.2805456,0.43240824,0.34387788,-0.17503048,0.1521698,-0.75406164,1.6820439,
num(),-0.57271224,0.44102302,0.10296786,0.28952724,-0.2466423,0.03776256,0.16572383,0.29767263,-1.1306221,-0.04923965,0.46250927,-0.22485736,-0.810547,-0.21453008,0.35259143,0.3646698,0.35027388,-0.09045908,0.7715806,-0.32744932,-0.39367032,-0.9015302,-0.71811527,-0.89715356,-0.032391034,-0.041016035,-0.42781776,0.058125783,-0.8132662,0.7997126,
CastExpr,-0.94762796,-0.54413337,0.46735018,0.26594582,0.5184614,-0.42361802,-1.0952551,0.5255448,0.15266956,-0.89554197,1.1217499,-0.79363024,-0.57380146,0.85187286,0.25240186,0.70784736,-0.33041975,1.0925194,-0.16906103,-0.66697496,0.07859072,0.0015658794,-1.3956324,0.25015804,0.85560864,-1.12434,-0.33013907,0.90408933,-0.18011206,0.8143484,
addPrimop(),-0.78468144,-0.96451867,-0.8421694,0.8330743,0.6839787,-0.5994201,0.35857284,-0.29293802,0.044427484,-1.3013579,-0.052782636,0.15320428,-0.5551792,1.1504376,0.07498349,-0.30575085,-1.0711237,1.4765934,-0.48362285,0.051706225,0.7430839,-0.919482,-0.6370743,1.3985679,0.15057679,-1.7386078,-0.7406299,0.9308071,-0.38712248,1.2236664,
createMessage(),-0.16243221,-1.0657549,-0.1378875,-0.34297916,0.60051304,0.24583091,-0.28244764,0.1235591,-1.0570638,-0.60760945,0.8741607,0.60837466,-0.5014123,0.14576682,-0.21566494,-0.6712644,0.30158445,0.6089305,-0.16288213,-0.93530136,0.23721318,-0.39177868,-0.7654778,-0.8997172,-0.06881603,-0.08993198,-0.21371724,-0.35480314,-0.44101498,0.5607444,
getNode(),-0.5779254,0.02439171,-0.396574,0.28552118,0.10629123,0.03142735,0.3139096,-0.18360014,-1.043797,0.13393196,0.38139492,0.10043585,-0.17331885,0.058429774,0.054329712,0.33313686,0.21701661,0.03488154,0.39630905,-0.62323874,0.20696951,-0.7754294,-0.23643519,-0.38485414,-0.026055807,0.1319379,-0.048043825,0.12892884,-0.6070744,0.9848873,
str,-0.6949569,-0.17454882,-0.44887072,0.16864766,-0.42552042,-0.5855225,-0.0031164782,0.29808968,-0.61317766,-0.45169732,0.032188218,-0.04567851,-0.40293652,-0.7511897,-0.35938814,-0.07098072,-0.03207881,-0.841486,0.6410039,-0.254594,-0.2964184,0.12464739,-0.44321933,-0.57987547,0.33919767,0.0957171,-0.114811294,0.14671206,-0.7656182,0.5771315,
opPos,-1.0138565,-0.059703395,-0.50764585,0.3303132,-0.2415497,-0.3167507,0.020555807,-0.34375766,-1.1855904,-0.021437911,-0.020941144,-0.011168385,-0.33784902,-0.039288342,0.15535143,0.23632406,-0.032674808,-0.22083378,0.49755082,-0.814195,-0.007050137,-0.5747271,-0.12008691,-0.1884113,0.0060784314,-0.7465368,-0.25814915,0.54041183,-0.028281579,0.3756515,
StringBuffer,-0.5069378,-0.39256886,0.31890574,-0.26714826,0.25309768,-0.38550663,-1.0385356,0.30986875,-1.0562085,-0.7180822,0.8935043,0.2302435,-1.0392098,0.06299158,-0.38758487,-0.21297109,-0.21383825,-0.027543839,0.042942766,0.056481216,0.14844096,-0.062224384,-0.09155013,-0.22215763,0.6148861,-0.22280951,-0.31442606,0.051835928,-0.55459887,0.33774102,
nextElement(),-0.66339225,-0.12897253,0.3933393,-0.55399,0.50885963,-0.43436304,-0.48983485,0.7583247,-1.1270028,-1.0791892,1.7025936,-0.08289407,-0.91211605,0.32022348,-0.045249872,0.081433766,-0.14757419,0.33041045,-0.39787203,0.39912,-0.031107878,0.7542345,-0.52499866,-0.30628952,0.36080444,-0.042350013,0.19446917,-0.037380785,-0.449814,0.91673565,
rawName,-0.1257336,-1.1076508,-0.35437134,1.3089206,0.11268463,-0.5938671,0.08094415,0.9029186,-0.399934,-1.0380565,0.30651793,-0.2919683,-0.015831947,-0.13183379,-0.43386707,0.039973423,-0.23462233,0.34298348,0.1813473,-0.4145921,0.38961595,0.88525796,-1.3349949,0.05491615,0.98705053,0.20635174,0.20520149,0.37521648,-0.5252624,0.31627783,
RuntimeException,-0.20698215,-0.90099406,0.14009891,-0.3183066,0.21799445,0.38250148,-0.2818566,0.22298826,-0.4408778,-0.5240397,0.4131901,0.19558465,-0.26433226,0.19640346,-0.13212004,-0.34325433,0.37066343,0.09407264,0.028638296,-1.2456363,0.031433184,-0.41072604,-0.84079564,-0.6789128,0.12910224,-0.40010267,-0.48789108,0.08565596,-0.4403436,0.8465597,
toString,-0.60246205,0.27504447,0.14995633,-0.1858673,0.06434427,-0.21016204,-0.44504315,0.49205106,-0.21539421,-0.47441557,0.32822254,-0.3732102,-0.9887529,0.48558947,-0.15171388,0.2067946,-0.1525397,0.0621444,0.4278633,0.13364372,-0.088530205,0.07803169,-0.71886665,-0.14119531,0.62010646,-0.95147526,-0.78886557,0.66175926,-0.29293045,0.20766744,
getResourceAsStream(),0.07114928,-0.6839296,-0.40357503,0.8932092,-0.43928453,0.21034387,0.7036139,0.62341654,-0.3018342,-0.72075826,1.2158985,0.44348925,-0.55329067,0.7871944,0.7497272,0.568858,0.39824304,0.8320827,0.04967741,-0.86848795,0.9485062,0.5446631,-1.0852882,-0.17718934,0.0048624706,0.5234706,0.27347904,0.41002944,-1.4619737,1.1098261,
item(),-0.8161936,-0.52953607,0.8162008,0.31836802,0.37020174,-0.5350819,0.098294325,-0.18283638,-0.81017476,-0.91747355,0.8784803,0.024387999,-0.3841344,-0.23189664,-0.3545549,0.046477944,0.19309622,-0.17393377,0.5564906,-0.45687813,0.2630687,-0.31062463,-0.04067087,-0.34233892,-0.11694298,0.00085375167,-0.056784015,-0.17412274,-0.23853178,0.81395173,
returnNode(),-1.2323538,0.5366514,0.18044119,0.35563913,-0.20050743,-0.72805846,-0.24558836,-0.2347721,-1.2308586,-0.1308229,0.43514627,-0.5838787,-0.22094268,0.37278488,0.27488333,0.6309082,-0.06492559,0.21101937,0.4434262,-0.8986632,0.53769076,-0.41278714,-0.12702316,-0.09039429,-0.03563297,-0.66175133,0.2271125,0.9600601,-0.97779864,0.8845603,
getDocument(),-0.78230435,0.009710085,0.14665502,0.516721,-0.10639085,-0.2537438,0.078861795,0.09972931,-1.0695409,0.1034154,0.040744603,-0.21602352,0.06269757,0.37120184,0.18849546,0.09835904,-0.0055616642,-0.12979385,0.21494818,-0.7956529,0.4458983,-0.5205258,0.041944236,-0.23229897,-0.16584247,-0.36259735,-0.03605952,0.709385,-1.1527658,0.860852,
Locale,0.19372451,-0.85602766,-0.3980329,0.009427022,0.22806506,0.29022688,0.082360774,0.1341794,-0.107417874,-0.35751504,0.84631836,0.36053118,-0.9923379,-0.3113155,0.524656,0.37235013,0.54594165,0.68391514,0.21631871,-0.96618545,0.49961004,-0.9454619,-1.8831687,-0.21559872,0.47399354,0.057388578,0.08592872,-0.4924776,-0.84616935,1.5581905,
findProviderClass(),0.42180896,-0.91717005,0.12578145,0.26133686,0.29802647,0.1494999,-0.2486208,0.71271473,0.2109342,-0.8624532,0.9937347,0.35250607,-1.0365855,0.7120252,0.3033352,0.510636,0.27859825,0.91117334,-0.030394739,-0.4828889,0.83863366,-0.32938796,-1.0024321,0.2197685,0.3506196,0.14506534,-0.20868498,0.10056098,-0.8271234,1.6936504,
getClass(),-0.1036028,-0.012070383,0.26929975,-0.22996731,0.3310153,0.24404468,-0.4533267,0.7161245,-0.63969696,-0.027131129,0.70869815,-0.058374077,-0.89492214,0.6504551,0.38056204,-0.08943171,0.13122526,0.81086564,-0.05527255,-0.08020655,0.17730995,-0.728752,-0.8700371,-0.2333769,0.14036793,-0.8114444,-0.663117,0.18997334,-0.44952047,0.38336447,
getDefault(),0.22643216,-0.549079,0.21078315,0.5522249,0.19806714,0.14435641,-0.4661126,0.78778607,-0.4091829,-0.74022555,0.7727085,-0.29372048,-1.0298527,0.5306191,0.40424335,1.0675242,0.6162319,0.046142247,0.5815832,-0.791596,1.1043323,-0.34601733,-1.1338319,0.0771146,0.43867552,0.22210567,-0.3604033,0.23784804,-1.1011554,1.9729223,
locale,-0.2225761,-1.0881802,-0.09714154,0.33189005,0.49271885,0.122178495,0.4907509,0.757253,0.4098262,-0.62591106,0.72145945,0.11740173,-1.4302231,-0.5523267,-0.036509022,0.627614,0.42638522,0.40973297,0.3365562,-0.58910733,-0.08056641,0.6790732,-1.6230716,-0.36128202,0.9101082,0.33856112,0.32393262,-0.10795998,-0.9870797,0.91183394,
getJCRefType(),-1.235151,-0.4648824,-0.6100439,0.5230081,0.9288578,-0.47874707,-0.29058325,0.13359828,-0.5103136,-0.7041832,0.70747346,0.09736343,-1.5058516,0.83948547,-0.16258734,0.6225518,-1.0435671,1.152239,-0.5382088,0.69332755,0.55477166,-0.19961393,-0.28777552,1.0165765,1.2443533,-0.7362293,-0.46113485,0.30624646,-0.07869475,0.11818711,
loadTranslet(),-1.6632456,-0.36020893,-0.40392786,-0.43493682,0.9402459,-0.76616275,-0.4832619,-0.23718502,-1.0470971,-0.7341701,0.9967187,0.24198064,-1.4270064,0.45884117,-0.058275785,0.058369502,-0.98369896,1.0219548,-0.6750259,0.61514264,0.028728876,-0.36395478,-0.32204348,0.57282805,0.72945213,-0.99673194,-0.28995156,0.13030623,-0.71913546,0.111270525,
f,-0.007490103,-0.64698935,-0.8843538,1.2940314,-0.66011924,0.12532644,1.1170613,1.1507142,-0.30595824,-1.0953473,0.37566122,0.27766213,-0.9089161,0.43506846,0.5575716,0.70108235,0.42717284,0.32705033,0.5386242,-0.7928037,1.2346898,0.5235877,-1.2883403,-0.2890458,0.32896426,0.095361024,-0.37562785,0.5644705,-1.0215169,0.5767191,
parm1,-1.4490235,-0.032988276,-0.3984134,0.3614882,0.4138569,-0.049346924,0.88204813,-0.3240432,-1.4724774,-0.24729048,-0.016401006,0.25165784,-0.047575396,0.2633807,-0.035967477,-0.27766225,-0.11820644,0.31693804,0.16256078,-0.7147957,0.51624876,-0.38619715,0.46806017,-0.3705211,-0.5856135,-0.80856705,-0.11536767,0.5017457,-1.0386386,-0.014062482,
qname,-0.27985007,-0.65573394,0.20718296,0.9325647,-0.22750674,-0.89990485,-0.2793975,0.8893709,-0.7206685,-1.1894392,0.4701215,-0.44356763,-0.36839598,-0.23166941,-0.26066893,0.08568459,0.21058224,0.21222815,0.442321,-0.25227782,0.066835664,0.34661284,-0.82660335,-0.22213669,0.4231426,0.16331598,0.28267762,0.2858738,-0.18420245,0.057102297,
lastIndexOf(),-0.31827256,-0.5027471,0.09020492,0.30987325,-0.48346832,-1.075876,-0.711665,0.357307,-0.84597063,-1.1449033,0.62261754,-0.22376254,-0.5725334,-0.2844197,0.04747621,0.1370784,0.27403447,0.0072455914,0.5134461,-0.5862012,0.120108545,0.30486465,-0.63942593,-0.5189441,0.21875773,0.210564,0.3913785,0.16795078,-1.1683304,0.63021296,
fallbackClassName,-0.020307632,-1.1289178,-0.49635068,0.7393568,0.84724796,0.4839015,0.61484486,0.6209004,0.54963756,-0.55293673,0.65495276,0.20031263,-0.7910578,0.5904864,-0.28627545,1.1055702,0.20188549,0.60009015,0.011351572,-0.8179894,0.71864736,0.38557082,-1.0945749,0.28550607,0.9628616,0.30501455,0.05555314,0.32249066,-0.9312782,2.1461756,
DoStatement,-1.0095277,-0.063989244,0.4583191,0.058449987,0.08864141,-0.45132974,-0.4293898,-0.36949262,-1.1657463,-0.47322807,0.8154385,-0.13117664,-0.20147516,0.19302484,0.118311375,0.31700972,0.047517076,0.25877962,0.22648379,-0.8612243,0.4703288,-0.10813093,-0.0057864888,-0.26110515,-0.109477036,-0.4535273,0.20497304,0.529799,-0.77982855,1.0413798,
getAttribute(),-0.19738124,-0.4045256,0.15132937,-0.64870876,0.4568291,-0.21782574,-0.71600825,0.4414979,-0.19456647,-0.4687366,1.2008353,0.042889815,-1.434428,-0.27370587,0.029979654,-0.21386877,-0.34257486,0.27219197,0.27235693,0.2864094,-0.3239523,0.71123105,-1.2154635,-0.47566313,0.75530624,-0.49632218,-0.25188524,0.1506954,-1.2725387,0.23056322,
reset,-0.7105117,-0.040515073,0.4427626,0.23492508,-0.33261904,-0.558092,-0.06446204,0.46982956,-0.87783146,-0.4591609,-0.17396149,-0.27599186,-0.13946979,0.4165797,0.09575264,0.16439402,-0.073732756,-0.36783054,0.1662367,-0.4212931,0.38402867,-0.12203049,-0.009316585,0.027112568,-0.20303379,-0.5565232,-0.30842322,0.7972252,-0.7603383,0.7879536,
reset(),-0.4726339,-0.07398901,0.48863465,-0.099755935,-0.40695858,-0.22742274,-0.29938728,0.5291833,-1.0350986,-0.24936095,-0.0054160357,-0.1789121,-0.21190096,0.3649541,0.35691917,-0.03618625,0.10409891,-0.26113793,0.016741317,-0.52129585,0.44905335,-0.4751191,-0.27540165,-0.26027137,-0.30146125,-0.46661818,-0.4420711,0.53495014,-1.0288421,1.0393738,
resetPosition(),-1.3253433,0.13194136,0.67510045,0.33547303,-0.2719039,-0.70383126,-0.5105008,0.091813944,-1.2329736,-0.51808983,0.2779006,-0.630133,-0.36368212,0.66532344,0.29443452,0.34082603,-0.17790975,-0.1362563,0.43438566,-0.8518521,0.50374633,-0.34541544,0.054103926,-0.1010762,-0.22446254,-0.9025624,-0.057003677,1.2174944,-1.2131876,0.8347928,
te,0.16514845,-0.87777287,-0.1699084,0.10650775,0.25171176,0.19325528,0.035370097,0.3486252,-0.3067198,-0.62990683,0.41997197,0.4276423,-0.30130854,-0.113602504,-0.017955987,-0.3653302,0.23716505,0.39362738,-0.06229614,-0.5425699,0.03273895,-0.5681579,-1.2607927,-0.5106585,0.43711782,-0.035089746,-0.41619655,-0.28532943,-0.28196093,0.8707648,
getStylesheet(),0.04695902,-0.38543016,0.034764037,-0.011571334,0.5264184,-0.18307,-0.32816863,0.2606146,-0.19315246,-0.23558709,0.48726013,0.02765112,-0.63769007,-0.02419983,-0.3364686,-0.09618331,-0.33686927,0.40926012,-0.04064109,0.27038604,-0.055314038,0.11570217,-0.7949402,-0.0008139844,0.86518824,-0.38694498,-0.2672837,0.18089704,-0.12827224,0.2924793,
org.apache.xalan.templates,-0.47116765,-0.2659763,-0.116130665,0.7936285,0.1270769,-0.17932874,0.8850955,0.2720888,-0.44095844,-0.6007339,-0.09719533,-0.16125824,-0.6016862,-0.085825495,-0.43761232,0.46310428,0.018196438,-0.13674755,0.58929944,-0.024700936,0.12717175,0.011927942,-0.021397052,-0.030052409,0.21705279,-0.021501234,-0.20777372,0.4493463,0.043481126,0.5419018,
characters(),-0.56452054,-0.98211926,-0.11035464,0.654498,0.040332705,-0.62986594,-0.28514025,-0.30115458,-1.123278,-0.49643326,-0.26214215,0.46604288,0.4109498,-0.5854188,-0.23597433,-0.7579147,-0.35374582,-0.1591643,-0.054172173,-0.8134625,0.31493452,-0.16855073,-0.34015206,-0.17924704,0.31413558,0.25537264,0.07627281,-0.036223125,-0.9318905,0.6505943,
setStartNode,-0.8831764,0.23591073,0.04120864,0.62341744,-0.34985635,-0.26707172,-0.17694385,0.2265502,-1.0786968,0.08832984,-0.1609472,-0.5523387,-0.026134476,0.53719336,0.2178118,0.30243394,-0.26981485,-0.12749738,0.15312703,-0.6949273,0.7266792,-0.67449075,-0.048646607,0.064172655,0.05143124,-0.7189489,-0.23872752,1.042987,-1.1149299,0.9780891,
translateTo,-1.0604066,0.11417662,-0.47415859,0.094845906,0.4839332,-0.68422383,-0.86203766,0.5630958,-0.7634848,-0.44458008,0.67022365,-0.3718702,-1.6827941,0.7564162,-0.010744088,0.6381292,-0.7417408,0.96428293,-0.18975583,0.50300866,0.18764229,-0.24368545,-0.9655624,0.5646402,1.3521651,-1.05193,-0.49476337,0.73252636,-0.60991424,0.16244575,
arg0,-0.72682387,-0.8664763,-1.0482655,1.0321985,0.5190945,-0.32218727,1.1654055,0.47070923,-0.3945339,-0.7715802,-0.5867848,0.31521368,-0.07456022,-0.0014943832,-0.22533484,-0.1549429,-0.41348132,0.5046391,-0.21297301,-0.032589328,0.35636634,0.3157531,-0.95565325,0.3255295,0.539776,-0.189531,-0.28112945,0.3506041,-0.51858604,-0.41976443,
ConversionInfo,-1.2298846,-1.486694,-1.1498697,1.0800576,0.87200904,0.45055017,1.2302217,0.36685795,-0.7342748,-1.0113403,0.34373412,0.5655524,-0.75744945,-0.3322715,-0.3443561,0.70706075,-0.0006297811,-0.13333596,-0.47192925,-0.13098575,0.862193,-0.19093332,-0.2889679,0.31189358,0.6523538,0.20010123,-0.3452162,-0.5006175,-0.08222736,0.9131353,
e2,0.31298432,-1.401642,-0.27894938,0.06902469,0.5550429,0.51382625,0.30803102,1.0018888,0.2718686,-0.9508134,0.6062799,0.3920039,-1.117999,0.046614256,0.30163923,0.30212134,0.4951049,0.56673765,-0.006974624,-0.9058336,0.6219366,-0.13287158,-2.111733,-0.12185691,0.5948414,0.14359692,-0.37433758,-0.29649916,-1.0318159,1.4837104,
startElement,-0.2290134,-1.2305539,-0.35601923,1.3833628,0.22652851,-0.69467795,0.5354009,0.8221212,-0.27396703,-1.1301125,-0.05238271,-0.055963036,0.18257868,0.020653168,-0.22815529,-0.2316148,-0.28213456,0.692652,-0.09203467,-0.2880572,0.33161536,0.66114616,-1.1565527,0.26637658,0.57034373,-0.071091406,0.19632135,0.48689094,-0.44204786,0.057157114,
getQName(),-0.47999132,-0.4330504,0.8252062,0.10003211,0.36802953,-0.7855182,-0.62252736,0.4161216,-0.34820363,-1.1377884,0.91598284,-0.24830125,-0.8734464,-0.0642557,-0.13444942,-0.058113128,-0.0053320583,0.70468843,0.41567928,0.12544173,0.025137966,0.16612129,-0.7609105,-0.19626829,0.22283879,-0.39925426,0.19268997,0.069943555,-0.24114998,0.13911322,
addClass(),-1.7112312,-0.55485046,-0.17497888,0.035610564,0.8833017,-0.8303448,-0.5505707,-0.29403242,-1.0034148,-0.86309457,0.9998518,0.34052137,-1.3993591,0.5091147,-0.25886777,0.038120765,-0.99869466,0.85274625,-0.38502055,0.64163,0.14878492,-0.346662,-0.06277966,0.68078184,0.7081101,-0.87777716,-0.2449499,0.25861302,-0.3595046,-0.08158657,
addFieldref(),-1.6990185,-0.25910965,-0.68371165,-0.43903184,0.8693969,-0.75042826,-0.39697415,-0.38342005,-0.75731814,-0.6779987,0.8712891,0.31734148,-1.3315011,0.37041485,-0.0021395814,-0.035372637,-1.1286018,1.305383,-0.6723645,0.595207,0.05938596,-0.45185003,-0.5141112,0.55119884,0.71164393,-1.1360861,-0.20832118,0.16846402,-0.49896392,-0.061633673,
appendChild(),0.036461458,-0.64717364,-0.019872148,0.028226327,0.08934716,-0.3192355,-0.070530385,0.11112184,-0.780786,-0.88659304,0.2818962,0.22003111,0.06999186,-0.34324187,-0.19460002,-0.7875264,-0.0011121966,0.20285873,-0.10247885,-0.379468,0.29101846,-0.39509088,-0.6883753,-0.29711625,-0.14885443,-0.10870408,-0.12816656,-0.18567486,-0.46718356,0.64941233,
getLanguage(),-0.3800568,-1.0539042,0.016521698,0.4671685,0.38852626,-0.03174747,0.5498441,0.795884,0.22546114,-0.5484499,0.80028677,-0.056136638,-1.4079422,-0.38764206,-0.04297434,0.72164655,0.47933915,0.46438313,0.46915728,-0.7443621,-0.08629867,0.6949316,-1.5919799,-0.4358149,0.83685815,0.311075,0.45490918,0.12420819,-0.9855187,0.7042804,
fixupVariables(),-1.3011857,-1.207544,0.13653733,0.97385657,0.6498018,-0.29795966,1.1383187,-0.3008743,-0.10509377,-0.66812384,0.29609284,0.049772244,-0.23120986,0.027335554,-0.5379976,0.51151454,-0.45217097,0.0043841167,0.3023706,-0.39209017,0.28156555,-0.18333437,0.36643973,0.32681444,-0.09572517,-0.16177757,-0.024431149,0.6118772,0.16794528,0.8007898,
setParser(),-0.7260449,-0.27019718,0.8884746,0.05648443,0.4031371,-0.17703357,-0.43014112,0.35786065,0.08683872,-1.0493217,0.48514253,-0.44148898,-0.57897407,0.78364784,-0.066664726,-0.03861856,-0.33996344,0.095356025,0.5952576,0.025134943,-0.14338866,0.19602212,-0.77250755,0.08269155,0.20912981,-1.3183994,-1.209621,0.9128324,-0.4888447,0.32314128,
elem,-0.5112227,-0.6384085,0.3682754,0.76223594,0.00041222037,-0.43394133,-0.017887902,0.4012991,-0.8715427,-0.8538618,0.40363717,-0.24295603,-0.2114956,-0.33017057,-0.27931765,0.09308911,0.2534601,-0.22025795,0.6758806,-0.7157048,0.36404455,-0.14505126,-0.36842638,-0.4112242,0.14201978,0.13759914,0.003971464,0.15341993,-0.18090308,0.52455574,
SAXException,0.09307958,-1.3099679,-0.17570153,0.21585543,0.13840468,0.08283344,-0.12850259,0.6513637,-0.38379264,-0.74724704,0.035672117,0.4304292,0.06832552,0.26025906,-0.012089561,-0.72027266,-0.05970597,0.18714604,-0.3419161,-0.81471264,0.45135236,0.1629752,-0.97496104,-0.21974383,0.32668775,-0.15739508,-0.3946493,-0.07833637,-0.82497716,0.63949275,
File,0.3010193,-0.4237324,-0.15348017,-0.30818635,-0.01273939,-0.08161727,-0.07076847,0.34036848,-0.32460606,-0.6301279,1.2526009,0.61895454,-0.9530167,0.07225753,0.4840652,-0.072535455,0.31127656,0.42269808,-0.13715515,-0.26976293,0.6782531,-0.09585159,-0.62419593,-0.094685316,-0.1169193,0.16940936,-0.23962548,-0.019788777,-1.0959709,1.1903737,
getCurrentNode(),-0.6079583,-0.22561954,0.22628817,0.22028077,0.3486014,0.13581592,0.6261684,0.18008065,-1.0654306,-0.4758241,0.46185076,-0.012071646,-0.5774987,-0.19876528,-0.07071044,0.42298278,0.4410977,-0.26782784,0.59219307,-0.40743318,0.15010619,-0.49078104,0.010314675,-0.572486,-0.24878033,0.48918432,-0.16317046,-0.025283597,-0.55644643,1.2200215,
print(),-0.76830316,-0.21377587,0.14018664,-0.3476767,0.8886387,-0.0033053332,0.270852,-0.456828,-1.5311718,-0.25699198,0.77311623,0.6701477,-0.39789957,0.16628182,-0.18555075,-0.6434046,-0.033551116,0.3944467,-0.17469136,-0.21506205,0.34985092,-0.71517164,0.23198482,-0.3163081,-0.5492191,-0.59450346,-0.47310308,-0.21950132,-0.68104297,0.4870073,
indent(),-0.40423858,-0.6775728,0.18095692,-0.35209855,0.97520125,0.4263499,-0.35915193,0.21065769,-0.9670987,-0.6301754,0.24076508,0.5432272,-0.8880343,1.0853544,-0.13664271,-0.5220262,-0.3801767,0.3302489,-0.37012666,-0.13360162,0.9205257,0.39113683,0.30393076,-0.117398635,-0.13688831,-1.1866448,-1.208722,0.38690352,-1.2046518,0.30695683,
printStackTrace(),0.15924007,-0.51974106,-0.064153776,-0.61487985,0.57394296,0.47709578,-0.28638208,0.39841238,-0.6116967,-0.5575544,0.8275187,0.5141033,-0.74569803,0.613969,0.15649962,-0.6345988,0.06146057,0.62479454,-0.40860423,-0.24089704,0.44290653,-0.44179347,-0.7884515,-0.16043028,0.05226504,-0.69219697,-0.8862645,-0.05717368,-0.863151,0.70142317,
XSLTElementDef,-0.54126024,-0.9691371,-0.45253554,1.4603618,0.24319172,-0.29446325,0.20108308,0.9492209,-0.10328037,-1.2446456,0.46518147,-0.2808065,-0.8094102,0.6522573,0.08901242,1.1703384,-0.016261412,0.7070026,0.057118908,-0.59883326,0.8115776,0.5221441,-1.2459797,0.2916071,0.8621726,0.3153982,0.29219183,0.28286928,-0.48595586,0.908362,
tokenIs(),-1.2643772,-0.42694074,0.14382385,-0.5927712,0.2561347,-0.6432982,-0.7754697,-0.70387673,-1.0899076,-0.43304735,1.1084338,0.20586516,-0.1830089,0.116684295,0.26516074,-0.44171613,-0.32621205,0.4577627,-0.18729176,-0.7903155,0.004580086,-0.11837997,-0.4084369,-0.22523695,-0.12165794,-0.7665132,0.28966102,0.2561164,-1.2098719,1.3340752,
key,-0.25193492,-0.39268863,0.39566165,0.54999703,-0.3266744,-0.6845367,-0.18155114,0.80025834,-0.37700865,-1.0684705,0.6378047,0.0076679015,-0.7170011,0.06449164,-0.011721433,-0.1830334,0.22402154,0.14386639,0.5786836,-0.20290342,0.32426128,0.33335215,-0.43800998,-0.30164632,0.021406688,-0.054131635,0.06133879,0.4216725,-0.3259858,0.10597847,
owner,-0.42188093,-0.5534772,0.07115502,0.86586046,0.20326026,-0.31635198,0.46639878,0.40624422,-0.12755835,-0.74239343,0.19944873,-0.0815104,0.07050097,-0.08411137,-0.45753512,0.002880915,-0.09404768,-0.20114988,0.5764128,-0.14316733,0.20957594,0.3398226,-0.5768561,-0.109165095,0.3640596,-0.31382814,-0.090322964,0.28610444,0.2059025,0.4237939,
parse(),0.21467538,-0.28858015,-0.4224258,-0.5078523,0.45229518,0.02839696,0.024795441,-0.07159427,-0.5064932,-0.07970164,0.6492635,0.55948764,-0.35795644,-0.13703494,0.02064696,-0.29704857,-0.059982464,0.42314315,-0.18710567,-0.25674412,0.26959726,-0.7609117,-0.92296576,-0.024443852,0.18757927,-0.046550028,-0.3552903,-0.35152876,-0.7821052,1.0023124,
compile(),-0.7498348,-0.2948725,-0.031321254,-0.051979415,0.31012487,-0.23298725,-0.62854874,-0.28367296,-0.6819848,-0.38155955,0.7951119,0.042342763,-0.5461111,0.41028705,0.24914195,-0.012345916,-0.3048818,0.5717243,-0.08219983,-0.239561,0.36800405,-0.84859395,-0.1356133,0.07704159,0.13015231,-0.59178025,-0.18480384,0.16733848,-0.1064994,0.6811238,
runTimeError(),0.099302486,0.017350044,0.09705177,0.12379222,-0.6279329,-0.15723963,-0.5705396,0.6901944,-1.1059326,-0.03821091,0.074695185,-0.21364307,-0.4332737,0.2799253,0.33479905,-0.44017237,0.24294412,0.42021525,0.048259627,-0.35939586,0.3014938,-0.6992616,-0.9156745,-0.3549529,0.124484695,-0.43263328,-0.30622855,0.3493286,-0.9807207,0.46574038,
DTMDOMException,-0.37933472,-0.7646295,-1.0256706,0.91755944,0.06427455,0.063249364,0.6024963,0.24568774,-0.6898655,-0.15557164,-0.27091336,0.17370251,0.095497996,-0.2624294,-0.2128045,-0.0046231393,-0.056408815,0.41145954,0.21404022,-0.94662917,0.03169897,-0.4105275,-1.2379993,-0.48767897,0.6296728,-0.02703299,0.044027813,0.180908,-0.20744282,0.33428353,
QName,-0.073246285,-0.5191571,0.3390488,0.47377962,-0.09692348,-0.5854678,-0.1422137,0.6203492,-0.503438,-1.0491806,0.43837,-0.283855,-0.33899394,-0.08117271,-0.06408507,-0.052378707,0.25200886,0.4751388,0.23543333,-0.16597907,0.0050318344,0.34226993,-0.99445486,-0.33765206,0.18709569,0.15162294,0.27420768,0.17652048,-0.4088447,0.39886287,
characters,-0.64812356,-1.0318993,-0.09958153,0.6292135,0.0071100597,-0.4844737,0.007653652,0.17853999,-0.6350001,-0.62485427,-0.473494,0.1431582,0.25384206,-0.23156305,-0.31083634,-0.4645968,-0.35012525,-0.14224459,0.0062690447,-0.76270217,0.47777462,0.53531194,-0.30070195,-0.01612162,0.48981404,-0.00037443306,0.005413412,0.31804895,-1.0136514,0.41638464,
getCountry(),-0.3731422,-1.0228779,-0.03331996,0.5102825,0.3370137,-0.07555552,0.485981,0.74804056,0.06214732,-0.7276462,1.0790303,-0.071401894,-1.468327,-0.3816313,0.108078614,0.7019113,0.4955806,0.6518511,0.39835355,-0.60748273,-0.015164935,0.7052781,-1.5833504,-0.41738176,0.756705,0.38809612,0.5219775,0.11572025,-1.0210466,0.5561068,
org.apache.xml.utils,-0.15797861,-0.30268636,-0.47003958,0.31323573,0.26220605,0.044896387,0.6000282,0.3640467,-0.27167952,-0.29713765,-0.2578173,0.19525336,-0.46155998,-0.15884337,-0.3955543,0.25513437,-0.076726206,-0.1330211,0.06095935,0.046595205,0.35352963,0.22157158,-0.051357117,0.116884254,0.44644317,0.024843201,-0.31698433,0.1528248,-0.23699501,0.5052203,
forName(),0.1902515,-0.79264504,-0.32306394,-0.11164356,0.38061178,0.28144675,0.2851295,0.47036046,-0.0011258854,-0.5307279,1.0667479,0.66942024,-0.61836743,0.5355105,0.47226313,0.22148886,0.2610445,0.7914338,-0.20484771,-0.71552324,0.58026063,-0.13904947,-1.0561146,-0.015705513,0.15657732,0.083706655,-0.22075687,-0.25781283,-1.0216084,1.474503,
startElement(),-0.13586245,-0.8876617,-0.0015082569,0.9330207,0.15548177,-0.89042586,-0.34213424,0.1427146,-0.85478926,-0.7788355,0.30521807,0.06645164,0.12478398,-0.041156583,-0.23319653,-0.397036,-0.286269,0.8072069,-0.14228909,-0.1109083,0.21135342,0.15785904,-0.6532719,0.013700417,0.31615797,0.03595263,0.51919687,0.123503424,-0.31021482,0.229332,
peek(),-0.38658825,-0.901561,0.5068799,0.50161326,0.2998495,-0.46796307,0.27634478,0.69547504,-0.5199138,-1.3627967,0.4612004,0.018933035,-0.05437542,0.11149437,-0.10210017,-0.2907251,0.1945716,0.22302765,0.015752444,-0.43409202,0.3101827,0.24489115,-0.4089144,-0.25816932,-0.15600488,-0.3375409,-0.15669931,0.16563052,-0.007877063,0.05166537,
loadResourceBundle,-0.192555,-0.7358847,-0.1466574,0.8326185,0.084547184,0.011049241,-0.5162981,0.67832446,-0.4542703,-0.89431334,0.8073088,-0.43164214,-1.1911541,0.8112379,0.42014322,1.5193771,0.4133696,0.3217904,0.4524413,-1.0667133,1.3510435,-0.22173294,-1.0891708,0.2793353,0.6727882,0.26162797,-0.16020674,0.4130772,-0.9790101,1.9131002,
MissingResourceException,-0.06934206,-1.4265422,-0.2640153,0.3899557,0.5365874,0.4984185,0.52172524,0.97576874,0.46267682,-0.7747501,0.7032981,0.25229874,-1.3620067,-0.29179403,0.104322575,0.4037594,0.4703308,0.47870046,0.11603966,-0.92292625,0.3073295,0.18560006,-2.0014505,-0.35859504,0.8925655,0.25181845,-0.15789467,-0.21627027,-0.9581417,1.3931624,
getResourceSuffix,-0.19895525,-1.4427769,-0.23693806,0.57945937,0.5279436,0.3069253,0.6167318,1.0517839,0.45218292,-0.7794206,0.80281043,0.2144007,-1.4118211,-0.30413604,-0.0050690626,0.49219018,0.46515664,0.5665965,0.16363063,-0.81477123,0.1752531,0.49757192,-1.9769868,-0.42047545,1.0222797,0.31870952,0.12327159,-0.11680544,-0.87172884,1.1913248,
add(),-0.92183656,-0.10673021,0.23598973,-0.20218934,0.2944599,-0.72680163,-0.57124156,0.20262751,-0.6606779,-0.83123,0.7666689,-0.14825037,-0.7869309,0.3188067,-0.23331419,-0.15741046,-0.5345387,0.50105256,-0.18363443,0.5286444,0.04682268,0.01625713,-0.17198704,0.35775945,0.4387603,-0.7347727,-0.1462267,0.4230951,-0.21958615,0.21107678,
loadHandler(),-1.6180354,-0.3008778,-0.38623157,-0.203941,0.77869624,-0.8976689,-0.4949167,-0.3347742,-1.2801808,-0.57855844,0.919984,0.3181554,-1.4676402,0.44722018,0.019246427,0.043556552,-1.0173259,1.105712,-0.56430584,0.62945175,0.14584889,-0.5319454,-0.1826073,0.5436539,0.6192412,-0.96959597,-0.104868434,0.29740655,-0.6049698,0.10901246,
getFirstChild(),-0.8394298,-0.06556031,0.13495514,0.3066076,0.32483718,-0.47415262,0.017627817,-0.45575944,-1.5136395,-0.33791927,0.8779184,0.123615935,-0.20569234,0.015211055,-0.06376442,-0.05057502,0.087584816,0.25998533,0.38288495,-0.67136854,0.15886647,-0.62200785,0.07724013,-0.36012438,-0.2609034,0.052271366,0.29821303,0.11057614,-0.7326964,0.7625957,
getResourceSuffix(),0.21499428,-0.547981,-0.054960493,0.42318615,0.16844901,0.24817805,-0.27034363,0.8530082,-0.22132114,-0.97906053,0.6715409,-0.28375298,-1.1067673,0.69939613,0.47588602,1.0092678,0.6095498,0.07912898,0.39904144,-0.9285678,1.3598156,-0.3566846,-1.3257228,0.10920154,0.5536465,0.05409468,-0.6293457,0.18766579,-1.2282991,2.180954,
MethodType,-0.6790139,-0.8283517,-0.43170676,1.0068411,0.59208965,-0.49463785,-0.51080126,0.3680197,0.002014795,-1.5337548,0.70974576,-0.78697455,-0.8530974,0.78643423,0.092473984,0.8105526,-0.4704409,1.0592165,-0.36004737,-0.24383032,0.7957153,-0.16930899,-0.64501774,0.7237101,0.81456417,-0.63347524,-0.15659755,0.28613394,0.6440993,0.8067101,
getErrorListener(),-0.07877122,-0.5896735,-0.73911715,-0.11627746,0.56516075,0.36924055,0.4134461,-0.1619763,-1.0028752,-0.15485974,0.47803217,0.632002,-0.3656747,-0.07393651,-0.01842868,-0.2905137,0.17686114,0.65581805,-0.31501955,-0.3627191,0.14895688,-1.1904608,-0.77209693,-0.46877173,0.07835247,0.080088526,-0.37074155,-0.5696204,-0.55990046,0.9693077,
callVisitors(),-1.1560215,-0.75640005,0.21676129,0.5886837,0.60426456,-0.22203337,0.5111939,-0.4799546,-0.34446535,-0.7485659,0.60462826,0.09295195,-0.121715374,-0.13576159,-0.3408084,-0.022475636,-0.327085,-0.013800981,0.40390205,-0.10531243,-0.044938587,-0.35197845,-0.12957002,0.08320749,-0.16617604,-0.5189391,-0.11217567,0.22546932,0.350362,0.26263073,
getString(),-0.71474653,-0.46615237,0.47912106,-0.15160969,0.55667853,0.12832272,-0.11805082,-0.06703262,-1.5212772,-0.49505985,0.59778917,0.47524384,-0.44194406,0.5507009,-0.010350819,-0.36171538,0.5030558,0.2783318,0.0361328,-1.1296331,0.8375868,-0.028396495,-0.030486384,-0.79827976,-0.39556018,-0.5465975,-0.37985402,0.067486644,-0.77648807,0.50771403,
namespaceURI,-0.3275153,-0.8459191,-0.31901821,1.3390132,0.0004842372,-0.40572098,0.25035328,0.65627635,-0.65630674,-0.7659437,-0.12851489,-0.2154059,0.1822215,0.027111312,-0.2906377,-0.04162003,0.007305699,0.39649612,0.26041102,-0.7004513,0.20691371,0.34007066,-0.97052747,-0.2425476,0.5681336,0.008191041,0.18005145,0.4618982,-0.29535544,0.13731869,
analysis,-1.1501366,0.24250622,-0.82340986,0.21437505,-0.2687821,-0.33128375,0.44600284,-0.49764147,-0.9915996,0.2213852,-0.35295668,0.05925811,-0.4221831,-0.16752072,-0.05342962,0.09683473,-0.26352996,-0.09863279,0.6293719,-0.57743776,0.047968064,-0.38918418,0.009881009,-0.21104847,0.11559294,-0.7717328,-0.16861539,0.8540542,-0.7431007,0.3675399,
systemId,-0.2013302,-0.5910445,-0.66843283,0.6134438,0.0114600565,-0.25655502,0.71843225,0.5385035,-0.29871166,-0.59407556,0.1179259,0.33770582,-0.1662747,-0.087297514,-0.2951704,-0.31816307,-0.16574538,0.36931428,0.08952667,-0.06984111,-0.0017022018,0.5523161,-0.9785221,-0.28437164,0.529889,0.008877191,0.043871813,0.097163856,-0.6532984,-0.1295707,
getNodeName,-0.7909778,-0.08320351,-0.08028433,0.996779,0.009280745,-0.31148788,0.85246503,0.20431738,-0.895047,-0.53471047,0.08528426,-0.35971344,-0.38067093,0.08920648,-0.12392796,0.4596949,0.36303023,-0.042288627,0.7692957,-0.47205755,0.36819446,-0.67999876,-0.050813038,-0.3326054,-0.24806017,0.06938479,-0.1068953,0.5479077,-0.016522858,0.60999066,
visitor,-0.93292326,-0.6197129,0.14182578,0.49266437,0.53404415,-0.22381936,0.7403967,-0.30472228,-0.23184511,-0.68942106,0.35918579,0.16229548,0.043525618,-0.29976332,-0.4569948,-0.10733203,-0.15543589,-0.107365526,0.47583947,-0.1399527,-0.035494972,-0.27847835,-0.23622453,-0.01401613,-0.11835894,-0.4118485,-0.18640609,0.1606027,0.34146738,0.32450065,
s,-0.40585548,-0.7830603,0.5358205,-0.010182984,0.09096407,-0.2886714,-0.41238347,0.49976602,-0.5460283,-1.0800194,0.43672502,0.09656591,-0.40105343,0.16860445,-0.111254245,-0.39998892,0.18316689,-0.1749255,0.18080156,-0.5940821,0.52396667,0.14501552,-0.057987045,-0.36148927,-0.11191927,-0.30570439,-0.3541847,0.24255349,-0.42686373,0.45597973,
getMethod(),0.17825086,-0.5127505,-0.115251236,-0.47052243,0.73802567,0.10322066,-0.27772823,0.78691953,0.26100874,-0.7417783,0.6787578,0.47329912,-1.2378554,0.8549002,0.12930174,-0.10383316,-0.33364686,0.8970978,-0.5962349,0.5618973,0.5209493,-0.20758298,-0.6672424,0.55181694,0.5764158,-0.7870291,-0.90488476,-0.001217787,-0.24338263,0.79948294,
Properties,0.11332948,-0.72847295,0.024445597,-0.361947,0.31173235,-0.14570357,0.020537345,0.44827485,-0.19461076,-0.66746753,1.2692714,0.8039557,-0.84874123,0.077400744,0.50703806,-0.32323945,0.3296528,0.6087333,-0.32629246,-0.24079464,0.4841796,-0.048132874,-0.79940546,-0.15852934,-0.31614926,0.099505864,-0.14768143,-0.11550262,-0.8979981,1.1345848,
getNextSibling(),-1.0720767,-0.13500118,0.30075338,0.32912862,0.36253908,-0.48085657,-0.14822026,-0.5826272,-1.530954,-0.3093094,0.9859636,0.051590223,-0.10475829,0.09008561,0.06395566,0.098026946,-0.022189448,0.2726252,0.32399583,-0.74072355,0.22498077,-0.6788484,-0.080066845,-0.29481354,-0.29870105,-0.1434979,0.26999894,0.22176333,-0.66054726,0.8961392,
getValue(),-0.40709746,-0.4441722,0.7110788,0.22171354,0.18295087,-0.7236647,-0.5733747,0.32204682,-0.28019586,-0.9841047,0.8022702,-0.20904322,-0.54690766,-0.25584623,-0.07567235,-0.00023311366,0.20511703,0.5869371,0.45480505,-0.20435172,-0.014214533,0.092009775,-0.86037624,-0.3457402,0.19994174,-0.20248453,0.12995203,0.13558747,-0.20229746,0.42799622,
exprSetParent(),-0.9058534,-0.3500179,-0.22862212,0.5139055,0.23936066,-0.21849908,0.56549424,-0.4144528,-0.46381345,-0.24246833,0.22678138,0.1345519,-0.02989498,-0.13758877,-0.1783336,-0.05838636,-0.31848097,0.04653547,0.2461443,-0.050863095,-0.10987675,-0.55164224,-0.18725634,0.03149644,-0.09204643,-0.40227774,-0.14085406,0.35918546,0.22256075,0.4319169,
propertiesFilename,0.045529846,-1.0293819,-0.5885315,0.8709583,0.67899424,0.4335507,0.61673313,0.6171546,0.49969107,-0.5337812,0.6753114,0.18256238,-0.7021972,0.4904059,-0.2645816,1.0669532,0.2480698,0.6789989,0.03706534,-0.7578333,0.6590622,0.39229822,-1.247307,0.26061872,0.9234081,0.32937476,0.13370408,0.387989,-0.8768321,2.0927703,
getClassLoader(),-0.015053687,-0.59349614,-0.18719396,0.07112457,0.14691055,0.28163487,0.050259072,0.11291167,-0.6076692,-0.2669573,1.7083164,0.33812818,-0.67723256,0.46135685,0.40274912,0.21872306,0.45982775,0.7629171,-0.25043947,-0.8223708,0.53069484,-0.11110905,-0.8026898,-0.28155753,0.07794585,0.45318732,0.45728365,0.12571983,-1.1632854,1.6906044,
INVOKESTATIC,-1.3842406,-0.20935257,-0.15669616,-0.080029294,0.63686,-0.728621,-0.7636012,0.20243417,-0.85824835,-0.45690665,1.2087616,-0.025014665,-1.4865701,0.47093636,0.17189352,0.18409318,-0.6371777,1.3227736,-0.45264256,0.38571736,0.07989585,-0.33986074,-0.68965787,0.31715032,0.85544395,-0.91703343,0.0012146845,0.18652542,-0.5364635,-0.044160012,
expr,-0.7271702,-0.37064293,-0.094531044,0.27624682,0.19204605,-0.007815799,0.4590946,0.049776014,-0.28133944,-0.076407894,0.17521898,0.058185373,-0.16438457,-0.10536342,-0.13707893,0.031376466,-0.08771472,-0.19320649,0.46552664,-0.47214535,-0.05222187,-0.23107114,-0.23221384,-0.29154843,-0.09075878,-0.36009324,-0.031988848,0.35754356,-0.10737148,0.49346295,
getNamespaceURI(),-0.74008405,-0.18476859,0.12553151,0.78762877,0.17921413,-0.7812656,-0.0062367767,-0.1428076,-1.2786769,-0.5498804,0.69108814,-0.123929046,-0.18727604,-0.30173904,-0.023850176,0.10615885,0.263195,0.49308679,0.50483036,-0.66946137,0.08735371,-0.5187878,-0.52528656,-0.4839386,-0.14492486,0.081311986,0.5202029,0.00090839673,-0.43926722,0.3136537,
axis,-1.0854264,0.22306971,-0.64852536,0.8957365,0.0052920072,-0.4876224,0.33711466,-0.24090946,-1.012911,0.1403975,-0.31928104,-0.17704473,-0.102105446,-0.052521493,-0.1975882,0.33566168,-0.5563068,0.24351466,0.3545738,-0.0970366,0.29133728,-0.79422337,-0.0053462824,0.3264302,0.45139697,-0.5008633,-0.021854691,0.6772786,-0.41032434,0.2604991,
setTarget(),-1.2672638,-0.19777958,-0.21481898,-0.28010002,0.7651483,-0.63772035,-0.6545732,-0.117758945,-0.8749714,-0.66601104,0.93036,-0.0014525162,-1.2002892,0.42623174,-0.23845759,0.15413934,-0.8453767,0.85270846,-0.4688423,0.5645791,0.065632954,-0.243612,-0.23524861,0.5145214,0.82286525,-0.99153453,-0.2997452,0.3536448,-0.27567238,0.30911782,
pop(),-0.19846283,-1.0160692,0.4241522,0.61186236,0.11079806,-0.36186373,0.36148027,0.9035564,-0.4221614,-1.353225,0.22033033,0.059043344,0.030808937,0.16833301,-0.11579505,-0.30380657,0.13192509,0.2684201,-0.009095439,-0.4177094,0.41708222,0.27389848,-0.5509462,-0.15020855,-0.10234167,-0.252394,-0.24549207,0.38749024,-0.1731667,0.19870731,
ALOAD,-1.3671346,-0.122094736,-0.8602694,-0.1530848,0.4789106,-0.5877537,0.014785534,0.004202633,-0.7739264,-0.42666957,0.2031217,0.2567923,-1.337855,0.29320303,0.03170299,0.06888961,-0.80843884,0.67387295,-0.29234084,0.6260137,0.22945645,-0.35831645,-0.33599916,0.41162375,0.62450397,-0.90541273,-0.2940972,0.4513154,-0.34913817,-0.41028765,
setAttr(),-0.39263362,-0.696631,0.24543245,0.7547123,-0.06866123,-1.0572256,-0.34239945,0.84746456,-1.2839162,-1.6720222,1.0729281,0.19790544,-0.7591198,0.7410844,0.31522036,-0.2970745,-0.24401794,1.3875965,-0.3333401,0.31962386,0.5405228,-0.56865966,-0.5999637,0.16731226,-0.43152136,0.122868806,0.34010985,0.13756126,-0.5826516,0.6740089,
endElement,-0.073410906,-1.1758018,-0.22361118,1.1843331,0.24310555,-0.48439208,0.3530838,0.6290995,-0.32075712,-0.9167957,-0.13200553,-0.0020382516,0.23326677,0.135683,-0.2446414,-0.2901784,-0.23936643,0.5524027,-0.09692302,-0.36860523,0.36162046,0.52504414,-1.1686345,0.1290446,0.55919915,-0.029081533,-0.012403925,0.3273501,-0.380699,0.18507645,
org.apache.xpath.functions,-0.34772894,-0.16330254,-0.23881847,0.7155813,0.06819141,-0.015631404,0.6242029,0.5032093,-0.6933634,-0.37543687,0.06864777,-0.1287696,-0.63691336,-0.15728948,-0.18532254,0.45090416,0.3019974,-0.23438348,0.62276775,-0.1430938,0.08897779,-0.2762782,-0.45086426,-0.4401321,0.24902734,0.2558058,-0.30643958,0.17691183,-0.16587351,0.68982464,
args,-0.13625616,-0.6591249,-0.50395674,-0.20533942,0.7206529,0.6589249,0.6825804,0.11076549,-0.5701592,-0.24373801,0.25478005,0.58348733,-0.5590283,-0.10754233,-0.40471697,-0.26374272,0.28720847,0.20338883,-0.02876084,-0.4348918,0.061920248,-0.5141905,-0.39125553,-0.55538976,0.08154116,-0.055282436,-0.4963297,-0.2945673,-0.28236413,0.5021938,
IllegalArgumentException,0.2080746,-0.96442014,-0.2331264,-0.054098416,0.2590035,0.16961424,-0.47195756,0.658519,-0.33239257,-0.4965335,0.5311088,0.3169687,-0.3809203,0.18444362,-0.06942841,-0.32697964,0.11875377,0.63547444,-0.14375088,-0.8047212,0.036544338,0.11197579,-1.3268764,-0.52228063,0.57193875,-0.23793605,-0.17310293,-0.0006043257,-0.5953416,0.5740297,
org.apache.xalan.xsltc.dom,-0.17578167,-0.25384068,-0.417058,0.48409185,0.22554849,0.03253413,0.4441588,0.31969306,-0.42308483,-0.12293166,-0.11469987,0.0959214,-0.67380214,-0.0049631894,-0.38154295,0.5494176,-0.11855389,-0.27365294,0.17701769,-0.09849345,0.6011865,0.19504188,0.21474057,0.2539312,0.664672,-0.0030296035,-0.2947877,0.3191004,-0.42811236,0.7812303,
createXMLMessage(),0.117501155,-0.80837494,-0.26965782,-0.24331498,0.13468753,0.17983805,-0.37699044,0.21853553,-0.5306957,-0.33447692,0.22780661,0.3839204,-0.17356047,0.024779633,-0.067746654,-0.45691133,0.14206241,0.46642813,-0.15701066,-0.8624622,0.044422023,-0.27513957,-1.141135,-0.53990775,0.2817981,-0.22782782,-0.20432732,0.03578562,-0.7668991,0.77028483,
fatalError(),0.033070747,-0.7382547,-0.6099804,-0.41793838,0.5362608,0.51284194,0.17484918,0.1272335,-0.618678,-0.31350818,0.6591989,0.6315486,-0.36783144,0.14821383,0.18913963,-0.36000925,0.16392647,0.6318083,-0.36706623,-0.6311665,0.22570893,-0.7510013,-1.1304864,-0.44942945,0.13851528,-0.08323032,-0.42040148,-0.3628439,-0.76569045,1.0027094,
arg1,-0.5994468,-0.7634188,-0.74929476,0.97392076,0.4598129,-0.3946422,0.99863577,0.5162818,-0.22601707,-0.76157784,-0.44638115,0.20700476,-0.19345406,0.06279426,-0.33071285,-3.8669736e-05,-0.43458042,0.37602326,-0.14590439,0.15379974,0.26945382,0.32967687,-0.7107209,0.46791726,0.6612361,-0.23840721,-0.27833748,0.33609653,-0.22098234,-0.07068143,
namespace,-0.29409927,-0.586336,0.1626972,1.1454827,0.02729919,-0.67076445,0.23083518,0.65885645,-0.3575652,-0.9892359,0.08916927,-0.25147825,-0.24801229,0.16684954,-0.29509622,0.18092775,-0.14160693,0.5289797,0.27381173,0.06943078,0.28951102,0.38554227,-0.5236967,0.28311557,0.42255235,-0.07448042,0.25517285,0.49840337,-0.011311616,0.08482403,
startPrefixMapping(),-0.21792687,-0.9693501,0.28829205,0.81765485,0.13624029,-0.8380975,0.037043497,0.46828675,-0.6888428,-1.0681081,0.4894839,-0.040973175,0.06486667,-0.2655494,-0.04956913,-0.402933,0.12639832,0.6806768,0.0694464,-0.3802505,0.04464678,0.29805627,-0.8954148,-0.33060318,0.024349006,0.1525267,0.5047399,0.074081,-0.61477166,0.13045068,
getClassName(),-0.87082684,-0.04505958,-0.3778297,-0.40997934,0.63381326,-0.509286,-0.3021627,-0.03162477,-0.7234475,-0.5208005,0.74097866,0.112684526,-1.1818573,0.24566473,-0.11631861,0.17500673,-0.5836633,0.67949045,-0.32447037,0.51907843,0.13637714,-0.12574725,-0.12622902,0.41910878,0.7203616,-0.72450244,-0.2703618,0.15424235,-0.27642617,0.19964178,
setStartNode(),-1.0419953,0.4839737,0.22974598,0.12190875,-0.0470544,-0.7212913,-0.41696405,-0.11959712,-1.0753249,0.0037076327,0.2804909,-0.28765857,-0.485173,0.5924267,0.1252179,0.28247705,-0.42705294,0.2501104,0.11122758,-0.11098881,0.31051826,-0.46975905,0.12160746,0.1529815,0.13957101,-0.8359361,0.0022851082,0.9354997,-0.78663325,0.71390057,
getNamespace(),-0.31733882,-0.1272843,0.51725906,-0.039252084,0.26242533,-0.7077996,-0.4608322,0.42940098,-0.8431439,-0.76579833,0.8273509,-0.21715161,-0.8134536,-0.112175405,0.051923234,-0.11537526,0.17401393,0.54425406,0.27176678,-0.097293,-0.023441717,-0.21561062,-0.6721551,-0.43539447,0.096721806,-0.4262725,0.07602533,0.065613955,-0.11215636,0.14164259,
exists(),0.13914898,-0.44558892,-0.7041429,0.8926212,-0.48773995,0.10283684,0.9423171,1.0137239,-0.15889287,-0.89900786,0.52035,0.24173288,-0.77438843,0.20915158,0.38557044,0.522252,0.30348068,0.10879934,0.57496595,-0.5346784,0.82333684,0.48013067,-0.94996005,-0.3075831,0.3685518,0.09270907,-0.30157405,0.37141046,-0.9118421,0.66121453,
data,-0.52008325,-1.0648122,-0.38471514,1.0377978,0.16825105,-0.43856657,0.51548296,0.3142879,-0.69252783,-0.7078014,-0.10801649,0.27132428,0.21097995,-0.18670678,-0.16653636,-0.46973217,0.033345584,0.14840896,0.008816024,-0.7720936,0.22786236,0.3035585,-0.7066186,-0.3976236,0.3636165,0.05916422,0.17408875,0.032926872,-0.41731575,0.053168144,
dom,-0.1117226,0.05121749,-0.15281229,0.5934656,-0.07973142,-0.09300192,-0.15772624,0.6197485,-0.93698454,0.20841604,0.06541809,-0.22473054,-0.35736674,0.1743767,0.08793407,0.31142417,0.045251913,0.015242601,0.2668143,-0.2808352,0.42957184,-0.38741028,-0.40216723,-0.23024665,0.48744905,-0.1517229,-0.10424165,0.3220402,-0.6062958,0.6833911,
INVOKESPECIAL,-1.4114522,-0.36388984,-0.28394523,-0.17631662,0.72598284,-0.67775506,-0.53851706,-0.14943501,-0.9059292,-0.59751576,0.90846395,0.18710545,-1.363933,0.38415205,-0.11551647,0.04464096,-0.86994606,0.8250889,-0.3649036,0.5783477,0.14303175,-0.32781398,-0.19784836,0.46811482,0.72326475,-0.9058632,-0.22335051,0.27674213,-0.37808028,0.025217118,
getStringValueX(),-0.81976885,0.33154133,0.084309295,0.30484274,-0.22334804,-0.46044013,-0.279116,-0.050221633,-1.4866608,0.11154015,0.50554734,-0.36236516,-0.2895655,0.08338356,0.2189977,0.11160602,0.037760615,0.30476004,0.34524113,-0.7278895,0.18525602,-0.7464672,-0.44329903,-0.46384364,0.07145291,-0.32570451,0.22248767,0.4856648,-0.9190537,0.7437995,
createXPATHMessage(),-0.23305179,-0.5242349,-0.36553487,-0.15893234,0.365773,0.3453356,0.34743974,0.13932386,-0.34460744,-0.23981407,0.15838858,0.37551075,-0.16536458,-0.13103198,-0.15139985,-0.164773,0.15136854,0.2532899,0.018957641,-0.66800505,-0.06193881,-0.40175304,-0.6252394,-0.58200455,0.13116336,-0.10905045,-0.27171162,-0.11595919,-0.34881115,0.8040179,
compiler,-0.85245466,0.061058544,-0.50902724,0.18885629,-0.05554308,-0.23146828,0.3803654,-0.2981607,-0.8727138,0.04290967,-0.16918065,0.097787574,-0.2504519,-0.19214745,-0.13894917,0.019167103,-0.21206832,-0.078900926,0.30298775,-0.31566074,0.10687237,-0.3699403,0.082046635,-0.11985268,0.024087794,-0.54825693,-0.18214472,0.4389736,-0.31593713,0.32197732,
SynchronizedStatement,0.09451318,-0.5152528,-0.0303593,-0.44824505,0.03636887,0.20364615,-0.17641167,0.30353972,-0.37933782,-0.37956622,0.70031714,0.48806298,-0.49788138,0.15434961,0.2781247,-0.353548,0.021564694,0.29361174,-0.2017658,-0.262721,0.50755477,-0.11712494,-0.55429476,-0.16678602,-0.02492996,-0.3180777,-0.29936862,0.016373415,-0.8425829,0.9436284,
endElement(),-0.28654805,-0.65763205,0.062417217,0.93206173,0.22524126,-0.6505928,-0.29397953,0.13717473,-0.8250981,-0.46632427,0.23659869,-0.07808172,0.06903368,-0.08283831,-0.30059713,-0.25146684,-0.2845891,0.6339451,0.0052948277,-0.03565076,0.1704354,0.05069898,-0.572255,0.020750666,0.53312236,-0.0625673,0.30064523,0.28851375,-0.07255139,0.111660056,
getLineNumber(),-0.18633227,-0.12503964,-0.1793669,-0.641642,0.61075157,0.25191468,0.07775642,-0.024832629,-0.92304474,-0.07908449,0.6260037,0.4682205,-0.6010163,0.14950359,-0.1309476,-0.4701029,-0.047773495,0.37139043,-0.21952242,0.10697475,0.10473427,-0.50962454,-0.39132226,-0.3289521,-0.011031254,-0.6662908,-0.53600705,-0.012905122,-0.38306648,0.36760446,
error,-0.026761692,-0.76362604,-0.5853747,-0.06427935,0.5758247,0.57319546,0.5477077,0.07837001,-0.67269397,-0.13379315,0.09699153,0.63256407,-0.27587515,0.14574319,-0.098164216,-0.43267396,0.15570608,0.45649776,-0.22956493,-0.6294937,0.059372418,-0.58455217,-0.80116904,-0.55820614,0.042029988,-0.2846104,-0.50497717,-0.21419077,-0.5160525,0.5470812,
attributes,-0.15519305,-0.96598375,-0.2506686,1.1291829,0.33488292,-0.41429597,0.30106598,0.70694566,-0.25369364,-0.95341694,0.10526052,-0.044925503,-0.14084345,-0.03512784,-0.34952047,0.11036465,-0.23296587,0.35592228,0.12818445,-0.147328,0.33783954,0.6274318,-0.9571684,0.1876745,0.70924556,-0.03149919,0.0027622413,0.24832454,-0.2395108,0.1682155,
qName,-0.3557035,-1.0677097,-0.06818292,1.3748945,0.26109695,-0.56989735,0.19685955,0.81128794,-0.43298018,-0.97681075,0.13377632,-0.1301438,-0.041122295,0.12566365,-0.23778169,-0.034377903,-0.15148754,0.59049475,0.032525927,-0.29067832,0.41826406,0.631681,-0.9124439,0.1388898,0.5546326,-0.023838405,0.19152059,0.40337488,-0.33325645,0.008860527,
indent,-0.40291646,-0.34453443,0.01845941,-0.07828596,0.93241227,0.38747412,0.30406025,0.13120404,-0.8122257,-0.44623733,-0.07247633,0.4772419,-0.68347347,0.7979656,-0.41956356,-0.35004964,-0.19155672,0.07235184,-0.074094534,-0.022236668,0.7606833,0.048148997,0.43028873,-0.037120964,-0.01387773,-0.93051034,-1.21253,0.39578402,-0.5967208,0.11288118,
invoke(),-0.006161098,-0.6963719,-0.004327747,-0.3632382,0.5881309,0.273807,-0.040286932,0.21580113,-0.090142354,-0.7249181,0.74267596,0.47776383,-0.6441231,0.4752429,0.2644294,-0.21710536,0.15158899,0.69830304,-0.26771212,-0.50480276,0.59914374,-0.6433144,-0.6657445,-0.03995169,-0.04168272,-0.30160174,-0.5416074,-0.24259908,-0.54787636,0.9928836,
flushPending(),-0.13219276,-0.9366111,-0.18648024,0.75353146,0.3049142,-0.38880354,0.43379664,0.24208914,-0.5285976,-0.65599215,-0.046180964,0.33669585,0.36580658,-0.162913,-0.048803486,-0.5662621,-0.06090813,0.38154477,-0.11391977,-0.41814527,0.3111993,0.16102265,-0.7169337,-0.08680187,0.08230139,0.07638659,0.13772842,0.06298529,-0.65153015,0.3624321,
ILOAD,-1.3265461,-0.19319029,-0.6454057,-0.13586283,0.62739974,-0.5969379,-0.19747594,-0.17890354,-0.61206186,-0.4858675,0.5448485,0.19551411,-1.1443579,0.4699534,0.009888058,0.053359874,-0.8829168,0.9545154,-0.5423689,0.60194093,0.16313235,-0.35425287,-0.28592807,0.5440199,0.6472506,-0.9041438,-0.25347394,0.2937107,-0.32984465,-0.08563568,
argument(),-0.602697,-0.20060965,0.17237976,0.13490893,0.61037487,-0.32750532,-1.0675151,0.019833125,-0.48397198,-0.21901058,0.7702906,-0.38721064,-0.8889662,0.48218495,-0.04752212,0.46416456,-0.47579193,0.7593507,0.032631263,-0.17340967,-0.102276176,-0.73733056,-0.8272576,0.16611807,0.92544335,-1.0255173,-0.4363643,0.4402421,0.020765303,0.68767583,
FuncLoader,-0.51483464,-0.9218636,-0.56765646,0.8174438,0.4096339,0.05333338,-0.30275548,-0.0112421075,-0.49254757,-0.41036868,0.50078267,0.3408953,-0.7149714,0.9825216,0.39877352,0.37176868,-0.6910252,0.9424176,-0.5799082,0.048680793,0.9122676,-1.0815715,-0.42207265,0.6940612,0.3047811,-0.7237626,-0.68048525,0.25349122,-0.06387307,0.591399,
Boolean,0.05510907,-0.20713514,-0.42597616,0.9068456,-0.75884974,-0.03851101,0.66871834,0.66783327,-0.5515574,-0.4137013,0.7817115,0.19271982,-0.670185,-0.16928634,0.34969857,0.29956552,0.34210542,0.38528663,0.60695404,-0.35442108,0.18571629,-0.115285866,-0.9764046,-0.50594854,0.3306284,0.19607896,0.043835316,0.05981348,-0.54834807,0.31377968,
getLastModified(),-0.3022005,-0.92251873,0.32820246,-0.4398023,0.40266332,0.0027809425,-0.281167,0.10844402,-0.40662113,-0.49205568,1.2702332,0.69853294,-0.5096364,0.3085223,0.533973,-0.38074678,0.088244766,0.80945987,-0.3962598,-0.5007564,0.57485116,-0.18297139,-0.5219092,-0.09863425,-0.32344884,-0.28473166,-0.051504947,-0.037220724,-1.2727162,1.1311626,
XPath,-0.21387783,-0.21882564,-0.48014492,0.22325756,0.2997414,-0.039141804,0.3882795,-0.27653643,-0.8911732,-0.16468436,0.28011858,0.33225936,-0.33229312,-0.26466897,-0.051924504,0.01962502,0.020409426,0.082352616,0.16677544,-0.026556589,0.12016462,-1.0500833,-0.41146618,-0.26155216,0.030235594,0.16327828,-0.28254607,-0.2915671,-0.076513104,0.8540861,
publicId,-0.23099878,-0.533833,-0.73345256,0.8163028,0.0035520403,-0.36814818,0.94270694,0.7958875,-0.27284268,-0.6742739,-0.09249094,0.34273237,-0.2379419,-0.015216073,-0.3553441,-0.25771672,-0.12524971,0.37098888,0.17835511,-0.07036369,0.07062809,0.58572197,-1.1151791,-0.2519588,0.62655824,-0.025763422,-0.040419824,0.22805758,-0.4629035,-0.09464816,
JavaType,-0.19165401,-0.8514314,0.26055458,0.82882166,0.34719765,-0.6528593,-0.117020406,1.3134567,-0.8835825,-2.029102,0.96919835,0.12634836,-1.0663384,0.8730743,0.40131038,-0.013277961,0.17252639,1.2919606,-0.35941502,0.13976201,0.7254457,-0.5571031,-0.59447616,0.4050844,-0.12244062,0.086396225,-0.09045761,-0.013141141,-0.37477136,0.85441166,
lastModified(),0.18530135,-0.3888472,-0.7168933,0.71599036,-0.25249285,0.0623363,1.0610539,1.0951596,0.01945688,-1.0779891,0.26939684,0.21048565,-0.6723452,0.31188998,0.23422153,0.22103815,0.23794892,0.24357456,0.23584555,-0.2670724,0.72145665,0.22640821,-0.8940458,-0.17437851,0.28610387,0.03221616,-0.48463032,0.22953922,-0.5587936,0.62937224,
NodeSet,-0.371252,-0.6461435,0.35536924,-0.051954497,0.35996112,-0.2327708,0.38457364,-0.08244289,-0.39685142,-0.83918464,0.50471264,0.37432483,-0.19616638,-0.13074295,-0.44742998,-0.38885564,-0.06642672,-0.3743791,0.22393514,-0.14012665,-0.012224747,-0.3837211,0.012073935,-0.03547109,-0.20387511,-0.1202727,-0.4389557,0.00260882,-0.102734655,0.8806374,
getPrefix(),-0.35549036,-0.36370695,0.5114471,0.23498166,0.23847824,-0.5926444,-0.13080043,0.13446654,-0.7457444,-0.7218478,0.7225174,-0.033657867,-0.43847024,-0.27782595,-0.098330274,-0.13688463,0.36314765,0.38564608,0.41864234,-0.56850654,-0.056557067,-0.00585244,-0.6536107,-0.565838,-0.0061228443,-0.16633335,0.24039415,0.1376494,-0.32290944,0.25038847,
locator,0.008791128,-0.5080745,-0.6276166,0.21260284,0.31480554,-0.041811213,0.56719893,0.25572628,-0.31075406,-0.30817434,-0.11006784,0.45549697,-0.15900737,0.06233954,-0.09142098,-0.47547796,-0.1023175,0.28626716,-0.16457433,-0.0018398276,0.1636826,-0.1314057,-0.63164186,-0.08613845,0.16762209,-0.3178893,-0.41490987,0.037699502,-0.38341287,0.14056654,
elements(),-0.6579181,-0.10902525,0.37504333,-0.43840322,0.59907883,-0.38243267,-0.41007367,0.43097347,-1.0102229,-0.7468588,1.2084335,-0.1546743,-1.0281173,0.32067528,-0.33256873,0.22062373,-0.19580828,0.041699346,-0.13815014,0.36901653,-0.055880684,0.5131837,-0.09804795,-0.050295245,0.5363375,-0.24603584,-0.09884552,0.14265761,-0.29513547,0.85546416,
getXSLToken,-0.7628746,-0.41430962,0.00275696,0.9215145,0.0042608855,-0.22353457,0.9171708,0.33492172,-0.6400938,-0.7455347,0.010205822,-0.31822127,-0.6471415,0.027659789,-0.18813486,0.6097148,0.3247751,-0.06936595,0.81679434,-0.5172212,0.5072957,-0.35013434,-0.08719231,-0.23698278,-0.07507646,0.024395341,-0.15070823,0.66802657,0.12819575,0.43726403,
detach(),-0.834254,-0.09444206,-0.102452405,0.27034143,-0.05064803,-0.30599207,0.49803698,-0.247766,-0.7755765,-0.054666784,0.15414327,-0.041679896,-0.19159313,-0.2149905,0.052755404,0.029956605,-0.08573788,-0.13904196,0.38347644,-0.30812916,-0.13712905,-0.4407973,-0.06045577,-0.34913677,-0.23387757,-0.16862027,0.060168847,0.36392918,-0.47051907,0.703389,
parseContents,-0.21070589,-0.16742815,0.29475743,-0.6361851,0.6112468,0.045084797,-0.50253344,0.5654721,-0.37492827,-0.5102232,0.59115124,-0.0036611366,-1.165995,0.3747679,-0.21352516,-0.28277746,-0.1437926,0.064473934,0.22476912,0.22811535,0.20390469,0.5124766,-0.50275046,-0.4189059,0.4290351,-0.88359284,-0.9019231,0.3672082,-0.68350154,0.19022474,
