name,vector_0,vector_1,vector_2,vector_3,vector_4,vector_5,vector_6,vector_7,vector_8,vector_9,vector_10,vector_11,vector_12,vector_13,vector_14,vector_15,vector_16,vector_17,vector_18,vector_19,vector_20,vector_21,vector_22,vector_23,vector_24,vector_25,vector_26,vector_27,vector_28,vector_29
MemberReference,-0.090792164,-0.18253134,0.11260112,-0.5320701,0.45399404,-0.38778132,-0.013396338,-0.7293276,-0.23707582,-0.4389506,0.1738091,-0.6430763,-0.46304107,0.2846957,0.07376332,-0.25749415,0.3028963,0.22899234,0.541646,0.30424172,-0.4249949,-0.42367208,-0.51268965,-0.680405,0.394265,-0.24547012,0.10080591,0.15363668,-0.69884247,0.059661422,
ReferenceType,0.002136791,-0.37006152,0.2887484,-0.114106424,0.18080638,0.0877226,-0.43465212,0.11074631,-0.031932704,0.16337745,-0.12376405,-0.84346294,-0.6375772,0.49714625,0.860803,0.15022226,0.46422413,0.5115983,0.29811135,0.46283677,-0.52106786,0.031570423,-0.4082949,-0.41586357,-0.0111540565,-0.06843173,-0.033224426,-0.009465114,-0.7620399,0.11070717,
StatementExpression,0.015905203,-0.39075223,-0.23710814,-0.66080153,0.29457974,-0.1552215,0.46573117,-1.0395069,-0.40872166,-0.4660737,0.09108345,-0.57895494,-0.7707687,0.5669823,-0.07148611,-0.14178109,0.39388064,0.45905074,-0.06751386,0.1760109,-0.58844256,-0.29806212,-0.46278384,-0.8060051,0.2935994,-0.3444998,0.08697297,0.15266982,-0.4542381,0.0901797,
VariableDeclarator,-0.051703516,-0.56560796,0.60232806,-0.18295382,-0.11827033,-0.064041935,-1.173352,0.50306726,0.35664767,0.24728365,0.18859284,-0.7400132,-0.82666206,0.18482408,0.5205452,-0.16753753,0.24137415,0.29208818,0.62113976,0.78701246,-0.34799135,-0.14644071,-0.27411652,-0.88646597,-0.2526697,-0.14304398,0.09615928,0.2549515,-1.0189005,0.1730324,
BlockStatement,-0.21332872,0.2826256,0.28591827,-0.80568355,0.11043129,0.028426863,-0.0005601669,-0.37028503,0.03577361,-0.18875122,0.48211852,-0.127987,-0.5037785,-0.01862022,0.22056793,-0.75924087,0.30296394,0.3430966,0.5388792,0.5702902,-0.93533,0.10662245,-0.8815562,-0.972246,0.73437756,-0.07329402,0.09111966,-0.20756859,-0.09524407,0.74542,
IfStatement,-0.17232433,0.03739098,0.09563825,-0.9420472,0.17667797,-0.18126601,0.05595144,-0.21766919,-0.17062071,-0.16835032,0.57735276,-0.35519,-0.5595137,-0.20866048,0.10917707,-0.7805984,0.50313133,0.027166827,0.3630382,0.16215904,-0.90975904,0.1312068,-0.93252325,-0.78854764,0.37474114,0.13473117,-0.10076345,0.073199034,-0.29836178,0.54433304,
BasicType,-0.25652426,0.13399695,0.7078582,-0.41729218,-0.15000172,-0.8425927,-0.42765084,0.29181078,0.13606176,-0.29965994,0.08919463,-0.6803861,-0.56225467,-0.31573606,0.24787563,-0.60533077,0.3625262,0.20811991,1.1522048,0.16073462,-0.15633023,-0.6273088,0.03143585,0.14020294,0.53498536,-0.65574974,0.36496982,0.5747668,-0.3712483,-0.04192748,
ReturnStatement,-0.033492878,-0.13275132,0.5372132,-0.734461,0.30254957,-0.122798234,-0.18601774,0.2844053,-0.10843149,-0.25907728,-0.2209576,-0.08403939,-0.47146443,0.27650845,0.16358912,-0.09996406,0.41176558,0.5230866,0.44273803,-0.09862134,-0.17290978,-0.11130611,-0.84858805,-0.25860626,0.6499226,0.22743848,-0.09276913,0.29291132,-0.36933246,0.15483262,
ThrowStatement,0.3143517,-0.21711856,-0.029635713,-0.9306751,1.3330537,0.07473596,-0.09028756,0.3335758,-0.45689633,0.36944693,0.6199329,0.115379006,-0.4906407,-0.69098246,1.038709,0.01920365,0.5878587,0.11973161,0.22283953,0.017398171,-0.4204619,-0.93995124,-1.0121771,-0.7216408,0.66912055,0.42611498,-0.23889929,-0.036565457,-0.3805797,0.85949767,
BuildException,0.26015252,-0.15486541,-0.26094493,-0.9816231,1.0093454,-0.28330323,-0.13586564,0.3118488,-0.73949,0.53539187,0.796367,-0.068999946,-0.66166294,-0.6210162,1.042461,-0.10779425,-0.06719002,0.41670418,0.41424537,-0.12209938,-0.28644836,-0.24619754,-1.1027118,-0.82602805,0.13137357,-0.079167016,-0.04339492,-0.37931743,-0.57009214,0.54015934,
log(),0.041933786,-0.19898754,-0.060696024,-0.5424592,0.6038066,-0.022115689,0.36472434,-0.02852369,-0.8251662,-0.33010152,0.41092882,-0.49853873,0.008896771,-0.1799803,0.45339614,-0.5212964,0.063606806,0.43132678,0.9680106,0.23482035,-0.25516605,0.064435706,-0.8564017,-0.9922207,-0.097035386,-0.20882244,0.102476865,0.053048972,-0.7556409,0.71895087,
CatchClause,-0.59481263,0.08333467,-0.47581527,-0.65773445,0.17778637,0.21388489,-0.14216815,0.8803735,-1.2974051,0.3845461,0.5826786,-0.65559536,0.44477516,0.012966174,0.5256747,-0.24676347,-0.058544844,0.16518238,0.3334688,0.21756482,0.48655397,-0.54337806,-1.6525067,-1.081397,0.12048885,-0.60743946,0.005044254,-0.0811923,-0.91870993,0.41633373,
append(),-0.4288224,-0.2106805,1.2474952,-1.4811658,-0.00755472,-0.3149918,-0.73747057,-0.05677316,-0.7018071,0.21557637,-0.046626557,0.080288336,0.4773936,0.5384318,0.6809128,-0.6375068,1.2353405,1.1442891,0.26858833,1.1662481,-0.71639776,0.51357543,-0.5171697,-0.88544494,0.52767974,-0.49292555,0.015431809,0.00190458,-0.9349384,0.7210595,
TryStatement,-0.33337387,-0.15975621,0.20103148,-0.05489172,0.5903089,0.25334218,-0.060484685,0.470035,-0.4422869,0.12794767,0.42180094,-0.7958603,-0.13157003,-0.3966515,0.19326934,-0.628155,0.11986385,0.22527283,0.26291287,0.39046785,0.28303322,-0.4809892,-0.90032697,-0.754069,0.046879172,-0.43664396,-0.24168535,-0.6126857,-1.0526469,0.4894075,
equals(),-0.73578924,0.47496668,0.058060743,-0.6728649,0.44947892,-0.5502776,-1.0214045,0.16748872,-0.1339867,-0.5817248,0.3836069,-0.45419002,-0.29558635,-0.4523615,-0.06998927,-0.059766155,0.3420312,0.5122291,0.95515764,0.5385146,-0.3381315,0.5164931,-1.2786896,-0.53595644,0.29638836,0.21004897,0.6803969,0.002913807,-0.14309236,0.5636174,
ForStatement,-0.96209025,-0.4123192,1.485738,-0.85149336,0.5048279,0.11029184,-0.14272138,-0.4504086,0.0027500533,0.32062432,0.91103303,-0.835156,-0.7167746,0.13322206,0.31988722,-0.63887376,0.22071026,-0.20607091,0.75536203,-0.016280914,-0.35900944,0.16647434,-0.15443376,-0.82513195,0.19643041,-0.27711,0.7392728,0.094813004,-0.6752806,1.0954714,
ForControl,-1.1096629,-0.33067763,1.3648998,-0.6250421,-0.05078823,-0.055046994,-0.48163337,-0.35168016,-0.47587052,-0.5751849,1.2967932,-0.21671453,-0.6475389,0.6426204,0.80591834,-0.5763851,0.40922612,-0.05774897,0.7833376,-0.41245735,-0.6487798,-0.046186723,-0.39204064,-1.37586,0.2133666,-0.0017682083,0.5067467,0.087138675,-0.32936177,0.40275797,
getProject(),0.047041785,-0.30356893,0.1638536,-0.3427113,0.20455995,-0.19414231,0.63937825,0.5596248,0.041437294,-0.58622545,-0.37666103,-0.6687374,-0.22715116,-0.044050757,0.19162293,-0.38487014,0.13830589,0.51179814,0.25125092,0.39713177,-0.89501065,0.18590838,0.07647472,-1.935291,1.0469524,0.68423355,0.082249224,-0.25841677,-0.59611267,0.280803,
setValue(),-0.37922248,1.0389923,-0.10521534,-1.17515,-0.42303342,-0.5463478,-0.23847511,-0.016480187,-1.1688825,-1.2563473,0.68159896,-0.9015727,-0.8401696,-0.4535034,0.48115623,0.20250385,0.2112112,2.0874968,-0.013419293,0.81376606,-0.95862234,0.28803524,-0.28002316,-0.58617675,-0.4826877,0.22055958,-0.36293408,0.9009062,-0.67647207,1.4606146,
createArgument(),-0.42542845,1.0151685,0.35828343,-1.4784249,-0.42552552,-0.40739545,-0.119749196,0.06500392,-1.1929685,-1.1070447,0.91680235,-1.0867234,-1.0999354,-0.36106998,0.5527347,-0.040265024,0.29367706,1.846304,-0.2695801,1.0830014,-1.0888569,-0.089100756,0.07641072,-1.0137497,-0.5595721,0.29034212,-0.54192084,0.9946105,-0.4692811,1.6135136,
toString(),0.027179006,0.09982105,0.40288645,-1.0598236,-0.1384384,0.06549136,0.22050042,-0.029649464,-0.52171177,0.13440377,0.014300884,-0.047544524,-0.05212616,0.34936816,0.48571163,-0.5717349,0.5610776,0.1930174,0.25658667,0.601598,-0.27281427,-0.123458885,-1.1507277,-0.6555114,0.16863768,-0.39887798,-0.035673335,-0.00020572828,-0.6790754,0.5175195,
e,-0.2202457,0.44181496,0.08689807,-0.23982863,0.292165,-0.256003,0.40380052,0.4658734,-0.7443324,0.4319519,0.33021936,-0.55165285,0.2028206,-0.029385226,0.5874725,-0.50614494,0.1556821,0.55387723,0.22649613,0.40231478,0.4784511,-0.91065633,-1.3692448,-0.9504421,-0.031550888,-0.51649344,0.16410805,-0.3498091,-1.071988,0.45775732,
size(),0.13168465,0.45390674,1.3427402,-0.9844321,0.09392089,-0.32189715,0.3063561,0.04268141,-0.5485195,0.032077536,1.0512004,-0.46824703,-0.794037,0.54201704,0.62921286,0.37636963,0.13918866,0.18815929,0.98744017,-0.054556742,-0.29385233,-0.29351452,-0.39686716,-0.69230086,0.21256587,0.1228823,0.00016397005,0.40146476,-0.33513248,0.7002598,
length(),-0.33137926,0.07419845,0.3888061,-0.74351346,0.001098181,-0.9076259,-0.6335625,-0.36692247,-0.33170694,-0.44716474,0.08193097,0.11447166,-0.29129243,-0.069444075,0.24413717,-0.8755469,0.33425912,0.007252428,0.017059091,0.20253605,-0.61936104,0.03917201,-0.84715915,-0.54454243,0.4789102,-0.5118025,0.43416098,0.4109536,-1.3340781,0.9229623,
WhileStatement,-1.26001,-1.0897833,1.0529287,-0.26392394,0.5176386,0.30286375,-0.73819184,-0.2178783,-0.5542684,0.139422,1.0425004,-0.058858693,-0.9141545,0.37726414,1.0604317,-0.6020164,-0.03619449,-0.24353462,-0.7307294,0.38061294,-0.98816633,-0.21430756,-0.84305966,-0.81688136,-0.00920988,-0.28192565,0.39531192,-0.233026,-0.66503364,1.1042289,
getName(),-0.86641335,0.6708024,0.40806273,0.0695209,0.29031658,0.31075072,-0.5997782,-0.042639576,0.043123428,0.1716548,0.5338957,0.05313841,0.056132846,-0.09758801,-0.22413579,-0.09754536,0.49122486,0.31417832,0.5841422,0.30775973,-0.29733944,0.16626461,-1.7509761,-0.90053016,0.098048694,-0.038753964,0.4503076,-0.20573176,-0.7322081,0.5218083,
getLocation(),0.09307561,0.003911534,-0.0926787,-0.8647697,0.5945014,0.07242633,0.07803172,0.1603883,-0.79436415,0.21523729,0.7264259,-0.37683225,-0.46929392,-0.98907244,1.2348523,-0.19862817,0.051790982,0.49345034,0.2668194,0.20943096,-0.24928501,-0.6129952,-0.89524925,-1.1791942,0.012399813,0.17788221,-0.17865427,-0.077999644,-0.51637757,0.7478403,
add(),-0.6370765,0.4431338,-0.069932766,0.24287614,0.84660393,-0.9319759,0.13089941,0.42384237,-0.61784685,0.33352017,0.61393255,-0.43190795,-0.62498575,0.88465714,0.39470986,0.3149437,0.28830886,-0.0076449965,0.50314504,0.28022122,-0.7539908,-0.39926088,-0.03555426,-0.54631543,0.7223624,1.392202,0.95185035,-0.09958824,-0.71074086,0.6911197,
addElement(),-0.50818205,-0.621098,0.33058476,-0.27279323,0.3827304,-1.190714,0.35099077,-0.10172984,-0.622844,-0.0030566712,0.19685194,-0.12729442,-0.40663487,0.8604302,0.77571845,0.7722512,-0.29250464,0.019287912,0.6492249,0.374735,-0.73566365,-0.9225407,-0.32587576,0.09260404,1.016649,0.18968226,-0.075711854,0.28633404,-0.63232505,1.0385225,
put(),-1.5515151,-0.08412377,0.26995507,0.976873,0.99211943,-0.24417107,-0.46605942,0.039562244,-0.5225888,-0.435424,0.57521194,-0.50973004,-0.316805,0.58004266,-0.035091277,-0.41668257,-0.74797213,0.3354742,0.8578728,0.44181016,-0.20787,-0.3105619,-1.205295,-0.84341735,-0.29000297,0.09664818,-0.0009969262,0.16562696,-0.9740998,1.0085875,
close(),-0.21364732,0.13759916,0.40352502,-0.1787563,0.3372457,-0.07613382,-0.1723115,0.32929447,-1.1165735,0.17343351,0.6399685,-0.1968663,0.030822664,-0.08344009,0.23973903,-0.83322877,0.13969718,0.09769228,-0.11754346,0.46573147,0.28215256,-0.98862624,-1.1736095,-0.9749035,0.28682464,-0.77617157,0.060734972,-0.04281304,-0.55895704,0.46223077,
File,-0.53830606,0.073966034,-0.10496807,-0.1579668,0.39880598,-0.21889801,-0.38385278,-0.079509884,-0.4359058,-0.69233984,0.61237603,-0.4009313,-0.4098524,-0.60577786,0.46113145,-0.46269813,-0.34460878,0.067448504,0.86720014,-0.24879646,-0.34081292,0.0024793062,-0.36920032,-1.3382056,0.20788552,0.3905977,0.20101877,0.14900348,-1.6281474,0.95010924,
isReference(),-0.47325593,0.55401087,1.4134306,-0.8579174,0.9346594,-1.0612767,-0.011762503,0.58092785,-0.20958994,0.46222985,-0.026718512,0.16043134,-0.74750954,0.20632468,0.581719,0.27220583,0.6181355,0.19832695,-0.239455,-0.67061377,0.3850251,0.5583138,-0.69936144,-0.98499066,1.1659663,0.95861214,0.19087972,-0.105086155,-0.2945498,0.29480952,
substring(),-0.7513276,-0.049145363,0.04538331,-0.7487788,0.2923038,-1.1396776,-0.77747214,-0.20744267,-0.39962626,-0.8221773,0.12592946,0.05909751,-0.0993572,0.16249509,0.19927664,-0.9540971,0.27927643,0.14075792,0.11842247,0.04094044,-0.65977204,0.042029876,-1.0630829,-0.58521485,0.5659204,-0.60305285,0.55815136,0.2524173,-1.4850568,1.0729839,
println(),-0.19903551,0.7633915,0.24365847,-0.054876927,0.41884658,0.62943834,-0.3256652,-0.1047112,-1.1096354,0.16867581,0.9503539,-0.8850312,-0.0845804,0.673734,-0.0513523,-1.1293899,0.43879563,0.7923726,0.046453636,0.05999,-0.035710268,-0.654236,-0.20861448,-0.91853946,0.33379143,-1.2565925,0.6149777,-0.083545074,-1.6247187,0.723032,
getAbsolutePath(),-0.19025755,0.1582177,0.15382594,-0.4790514,0.0041021653,0.052062593,0.28165632,-0.31617102,-0.65217924,-0.74436796,0.25327897,-0.543539,-0.2983358,-0.39285326,0.6797156,-0.66094303,-0.20505837,0.08426952,0.6873567,0.14433753,-0.027751869,0.17651406,-0.9196487,-1.2246627,-0.06988331,-0.051048417,-0.17303817,0.103250355,-1.4592776,0.7715429,
getValue(),-0.88842577,0.3393726,0.3812611,0.09001784,0.2829098,-0.63734007,-0.40264046,-0.08061339,0.5560081,-0.39981404,0.45550868,-0.36083508,-0.2903546,0.24313119,-0.3541867,0.5436089,0.6727286,1.1255924,0.5052964,0.17162667,-0.51850885,0.25010008,-1.6481102,-0.28062588,0.34424597,-0.27004838,-0.6191516,0.0033665122,-0.20829639,0.88503844,
BreakStatement,-0.8784316,-0.7555584,0.63721156,-0.53473973,0.5319672,-1.3697885,-0.4671127,-0.70109713,-0.79076266,-0.29421884,0.6592311,-0.10714892,0.627552,0.11803094,0.11997474,-0.24480909,0.50217515,1.0573916,0.37908715,1.1391497,-0.5383479,-0.46397957,-1.2102174,-0.9264648,0.90550303,-0.6493831,0.7654704,0.2642836,-0.18041073,1.2051467,
hasMoreElements(),-1.0631539,-0.44536978,1.4097384,0.06166139,0.43613914,-0.34266993,0.22306353,0.28442922,-0.66145605,-0.4443794,1.0192711,-0.11691386,-0.3615771,0.5441865,0.5702737,0.21863781,-0.47948852,0.005308603,-0.026828049,1.2264231,-0.77981937,0.21194167,-0.5061567,-1.1737269,-0.075531125,-0.47858706,-0.05615306,0.019418208,-1.1913276,1.0692197,
exists(),-0.29478008,0.4772778,0.016444772,-0.1497233,0.60354316,-0.18932495,-0.24690986,0.014480668,-0.7413081,-0.5551536,0.67213386,-0.71992797,-0.7778538,-0.5573126,1.0593998,-0.50093526,-0.82247704,0.036088653,0.54865503,0.049609993,-0.1885724,-0.2429585,-0.86693007,-1.393635,0.096707426,0.34384274,0.00440716,0.20824872,-1.1543194,1.2122499,
Vector,-0.5265056,-0.60725814,0.64668864,0.14467736,-0.082138404,-0.7193184,-0.4933895,0.7690414,0.20071596,0.044733427,0.503561,-0.70465493,-1.0232025,0.5366919,0.71762246,0.25983068,0.10180292,0.49723375,0.633359,0.4524276,-0.13540782,-0.4815915,0.2719268,-0.1828516,0.3997049,0.09679813,0.06539983,0.045169786,-0.90324026,0.4654607,
get(),-1.193308,0.24544773,0.8445546,0.21251851,0.7392419,0.19396852,-0.34022787,0.26464233,-0.34053883,-0.029976465,0.90409684,-0.070876256,-0.3308438,0.6083064,0.2036521,-0.08568563,-0.34258148,0.18626606,0.4509154,0.35618472,-0.38937148,-0.20393412,-1.2542627,-0.6585312,-0.17223378,-0.16366738,0.26968008,0.072597556,-0.5534091,0.62938493,
nextElement(),-1.0137907,-0.35173935,1.097219,0.090763636,0.59954786,-0.18992946,0.4007079,0.082597025,-0.50338954,-0.5288141,0.9110356,-0.0853353,-0.4056669,0.6717826,0.34889534,0.18568096,-0.4606829,0.20135537,-0.0120476475,1.1546478,-0.80619407,0.33568957,-0.6261233,-1.2224106,-0.09236484,-0.5352013,-0.06486574,0.09478476,-1.0739601,1.0609989,
StringBuffer,-0.3370956,-0.18873046,0.91908985,-1.019685,-0.20903455,-0.27843228,-0.64208835,0.05038113,-0.22712696,0.17145304,0.32431084,0.10933295,-0.05492262,0.4570597,0.36906552,-0.20862831,0.6688116,0.54515165,-0.009234284,0.7457989,-0.49525827,-0.09742389,-0.38103816,-0.43377805,0.57856494,-0.70157945,0.2970106,0.094066426,-1.2713919,0.5651742,
name,-1.0831192,0.07968525,-0.19764294,0.12695207,0.30521223,-0.852046,-0.6011466,0.6141773,0.07106632,-0.24445038,-0.26106137,-0.093750104,-0.6217121,0.702403,0.08323556,-0.021502677,-0.2793469,0.41632643,0.5062868,-0.02660975,0.013116295,-0.13847631,-0.8418989,0.3252401,0.60631526,-0.009766957,0.1431645,0.3364029,-1.0076312,0.039803725,
next(),-1.2027283,0.7986571,1.2234694,0.1442501,0.5814386,0.07327852,-0.20252483,0.09480916,-0.33634686,0.48590907,1.0511855,-0.077925354,-0.41605687,0.051573507,0.35642666,0.12444369,0.54865587,-0.0154448785,-0.2968281,0.12748949,-0.8079251,-0.44474348,-0.5978356,-0.86278594,0.281837,0.5063404,0.8887459,-0.30744216,-1.1793035,0.56241614,
execute,0.33933914,-0.19926636,0.20645446,-0.33008763,0.05660314,-0.4766848,-0.08430107,0.41733465,-0.18368179,-0.049333327,0.12438176,-1.1413025,-0.9576326,0.120490484,0.8300691,-0.034109548,-0.08578351,0.49380776,0.6462525,0.6276723,-0.12148145,-0.55316395,-0.04559032,-0.6897834,0.10798613,0.2207466,-0.07505941,0.21334419,-0.30567247,0.4597252,
iterator(),-0.95270365,0.8423419,1.647116,0.012330999,0.2196779,-0.18408206,-0.17132452,0.25661224,-0.2052495,0.54303825,1.0396006,-0.21268088,-0.59512556,0.00769536,0.5076146,0.2164807,0.6210855,-0.20103969,-0.020138815,0.15181817,-0.67283976,-0.4434355,-0.2770019,-0.82842803,0.42546785,0.55490834,0.7915946,-0.06034728,-1.3050158,0.42017686,
SwitchStatementCase,-1.0918305,-0.998901,0.4441208,-0.66358256,0.37461135,-1.900077,-0.223616,-0.73947877,-0.9795703,0.19109721,0.6173628,-0.21985047,0.82582426,0.07703549,0.2992481,-0.022522723,0.6211134,1.3356988,0.17840329,1.2545536,-0.4019339,-0.81812793,-1.3592559,-0.56372166,1.1045388,-0.5206637,0.60906935,0.36744252,0.11139143,1.3228672,
hasNext(),-1.3367904,0.7025985,1.4512417,0.23120269,0.39743668,-0.12582353,-0.1566197,0.11030177,-0.3799128,0.35926634,1.3647561,-0.1585036,-0.35592523,-0.13113236,0.36140034,0.16803868,0.6230321,-0.13365985,-0.3587774,0.19364579,-0.8382221,-0.36447242,-0.39450175,-1.0071009,0.4373999,0.5028667,0.95065737,-0.23163125,-1.3359059,0.5599357,
getProperty(),-0.18777367,-0.09778163,0.2625256,-0.34394443,0.26796967,-0.0019094882,-0.34525937,0.4426358,0.15451545,-0.53868854,-0.16594012,-0.74194455,-0.7150199,0.6721446,0.64146787,-0.7902409,0.045489985,0.3933957,0.3483017,0.8902898,-0.46253204,0.29134423,-0.6667624,-0.8433533,0.024659,-0.1495205,-0.056624625,-0.0615254,-0.9692561,0.38937977,
getMessage(),-0.24884646,0.05814788,-0.1393351,-0.75023896,0.37651017,-0.26344484,0.022172093,0.12369452,-0.64333874,0.43385932,0.6288619,-0.45194894,0.52783567,-0.40578482,0.58189774,-0.45913827,0.466826,0.81405663,0.34875128,0.53797996,0.13290453,-0.7636122,-1.4754755,-1.0360914,0.2638214,-0.7950313,0.4988296,-0.1870597,-0.6626692,0.45807797,
indexOf(),-0.33654162,-0.013117716,0.14547391,-0.86563766,0.18060523,-0.97246575,-1.0818204,0.028983518,-0.3181787,-0.51689863,0.37673044,-0.1620381,-0.37752166,0.21582472,0.48842022,-0.6531772,0.26131576,0.2869057,0.35210803,0.22828226,-0.6629883,-0.10879448,-1.2545663,-0.40814194,0.63761586,-0.5008562,0.5393762,-0.02880903,-1.1616774,1.2032568,
getClass(),-0.6279257,0.5604671,0.16382395,-0.44303048,1.0571613,-0.07790007,-0.5351766,1.1588067,0.051949933,-0.32276565,0.037999358,-0.24026516,0.14376658,-0.22952679,0.06616708,-0.28081,0.6322951,0.7794144,0.5616912,-0.03608851,0.5687057,0.17454512,-1.7725573,-0.96486086,0.29655564,0.102312796,0.5237922,-0.42999026,-0.82994515,-0.03925964,
value,-0.35745353,-0.0046237996,-0.41476342,-0.35357243,0.06559184,-0.6118221,-0.37706256,0.5022832,0.29172355,-0.25301003,-0.25679436,-0.610212,-0.9543296,0.87113667,-0.07863863,-0.27960026,0.12427807,0.9732369,0.4987971,0.02207716,0.12250773,-0.16946359,-0.9781935,0.280028,0.2398825,-0.08715563,-0.6993981,0.42170262,-0.6433571,0.13703041,
write(),-0.80434364,-0.12907346,0.644968,0.055313975,0.21528764,-0.6334726,-0.7169536,-0.1633462,-1.0216534,-0.069900215,1.1428831,-0.42906868,0.20809482,0.15011826,-0.19034788,-0.8013138,0.61236763,0.819953,-0.29177874,0.6643142,-0.30570757,-1.1149654,-1.0935177,-0.4940423,0.46212673,-1.2814618,0.41641733,0.041672226,-0.2514072,0.60454273,
isDirectory(),-0.15340273,0.4526401,0.18522356,-0.29620117,0.7211212,-0.42438143,-0.5277533,-0.08598724,-0.48242795,-0.21592094,0.47953907,-0.3927787,-0.6813019,-0.6094814,0.7003232,-0.26589546,-0.20727403,-0.11852257,0.585626,-0.15684952,-0.3180525,-0.2472702,-0.95572966,-1.0865551,0.42575526,0.5082713,0.19130309,0.12411481,-0.92375636,1.0568348,
replace(),-0.4341989,-0.016352754,-0.04251897,-0.41254073,0.31979513,-0.44348806,-0.44361156,-0.19098035,-0.29757917,-0.65563893,0.13740982,0.009967284,-0.3197785,0.28275734,0.2655213,-0.6427176,0.062894695,0.017875234,0.37059173,0.09405041,-0.609785,0.010577665,-0.91908795,-0.7247065,0.41140068,-0.19170274,0.41244763,0.15175278,-1.5087897,0.9438689,
file,-0.0075073657,-0.17007399,-0.31718343,-0.000786991,0.29794416,-0.30850402,0.02154102,0.2436785,-0.14827614,0.01771531,-0.118690215,-0.1542454,-1.0144736,0.46283177,0.7626989,-0.09033236,-0.34796754,0.091854855,0.34434855,0.0177079,0.2062205,-0.33449882,-0.48515692,-0.27978143,0.50260377,0.22121231,-0.42219672,0.2979607,-0.9892649,0.45008567,
elements(),-0.66086566,-0.22765109,1.3088377,-0.20600079,0.0838794,-0.31455666,0.22475731,0.30747828,-0.38626805,-0.34201258,0.70138246,-0.04132151,-0.41606215,0.775559,0.61075974,0.1343052,-0.27317426,0.008178123,0.21543075,1.1686828,-0.719892,0.11185591,-0.5994055,-0.8685434,0.14566728,-0.31352535,0.022473333,0.1753917,-1.1158978,0.9244603,
ex,-0.27901366,0.2055554,-0.047684334,-0.2777474,0.52610177,-0.2558269,0.24671428,0.51293445,-0.7799736,0.18605977,0.31148776,-0.5007887,0.0852323,-0.2611282,0.72133446,-0.74070984,0.062105153,0.43739024,0.18105786,0.5176548,0.15297048,-0.6451456,-1.5208517,-1.052294,-0.032649063,-0.36476612,0.03421008,-0.2879928,-0.6501907,0.31134292,
read(),-0.6736909,-0.27835697,1.0471941,-0.08001634,0.08222254,-1.0736634,-0.7631541,-0.0057786806,-0.65010035,-0.16976295,0.9279541,-0.42296323,0.064965434,0.17487477,0.19169016,-0.72078544,0.4336467,0.6121444,-0.6181751,0.6408142,-0.06889864,-0.90343994,-1.1027372,-0.28685004,0.615351,-1.0056752,0.16084091,0.08142374,-0.24498361,0.7623377,
getPath(),0.08379582,0.26775944,-0.23693176,-0.6225517,0.15619087,0.06608631,0.12058242,-0.037119392,-0.4978899,-0.7214037,0.32441142,-0.640221,-0.50941044,-0.29885474,0.3864715,-0.8590668,0.10151078,0.47377807,0.52475446,0.20078525,-0.61451,-0.23181698,-0.6569973,-1.4534321,-0.10794544,0.09353344,0.04082982,0.021721952,-1.3078977,0.8229842,
p,-0.20294069,0.34858513,0.6485509,-0.64705473,0.5167575,-0.59449375,0.24822775,0.8338576,0.07599812,0.40540555,-0.30571637,-0.012226764,-0.80515474,0.65582615,0.5147334,0.14298747,0.37412313,0.46029285,0.10842776,-0.17237662,0.1952363,-0.01545968,-0.2716754,-0.280613,1.0399023,0.65499175,0.017503187,-0.06382235,-0.6303032,0.059962388,
project,-0.47457135,0.37298,-0.14114006,0.18331976,0.13659163,0.003361562,-0.19872056,1.0382499,0.03334715,0.13892515,-0.046374947,-0.46708593,-0.88646334,0.16398644,0.21802467,-0.09964398,0.20821644,0.6655724,0.1708601,-0.13487847,0.26308107,-0.08907094,-0.34623504,-0.2607901,0.17741749,0.38323805,0.012319493,-0.19045566,-0.713799,-0.35506403,
org.apache.tools.ant.taskdefs,-0.45673636,-0.3532798,0.18279862,0.4208841,-0.17460191,-0.2555489,-0.09310326,0.95828956,0.32942992,-0.11858685,0.6153971,-0.4509307,-1.3343453,0.17478275,0.67849916,-0.23903826,0.120474525,0.752207,0.2775135,0.09226063,0.3488065,-0.385633,0.33771965,-0.15126428,0.22835311,0.06680804,0.14441518,0.11150279,-0.9979165,0.22784065,
getCheckedRef(),-0.33464518,0.7707777,1.3586744,-0.91592616,0.8253909,-0.5949233,-0.41303793,0.74543136,0.10905527,0.21730998,-0.06597816,0.17333904,-0.6368144,-0.008147772,0.51244104,0.1063697,0.7401168,0.28314236,0.28462404,-0.56791466,0.4705311,0.47781458,-1.2904477,-0.6796566,1.0126023,0.811471,0.22031659,-0.15949328,-0.78594613,0.23851946,
Path,0.12695846,0.111592725,0.3699506,-1.5325041,0.47362176,-0.5108135,0.3167624,0.3312495,0.06308493,-0.47075438,-0.33551028,-0.25914484,-0.61421156,0.6914387,0.64176667,-0.584308,0.63178325,0.95943326,0.1536773,0.601157,-0.41726515,0.7170346,0.19635904,-1.4047736,0.68407524,0.6089798,0.18012723,0.023309777,-0.7463384,0.2583987,
startsWith(),-0.56032753,-0.036237,0.005896663,-0.3913137,0.40133354,-0.63917416,-0.86826664,-0.10901957,-0.44295973,-0.8205793,0.042756177,0.062168177,-0.28091717,0.16926168,0.08970342,-0.628194,0.09999107,0.1537377,0.17670906,0.41968817,-0.84276676,0.284889,-1.0799848,-0.71938145,0.5370969,-0.5187299,0.5079406,0.07128741,-1.1455884,0.98996085,
charAt(),-0.77206117,-0.09511679,0.9543029,-0.9619521,0.17639142,-1.4028046,-1.2453394,-0.26667467,-0.32792112,-0.7340697,0.36191988,-0.08728455,-0.31663808,0.13806795,0.094492026,-0.69837284,0.5162218,0.47758836,-0.005522095,0.0687535,-0.8091225,0.020350568,-0.80853176,-0.35852158,0.9943673,-0.77843726,0.5861953,0.5009294,-0.9347387,1.1211541,
selector,-2.1339655,-0.72610927,0.10010258,-0.18349288,0.44842696,-1.3665022,0.30036896,0.29554334,-1.3807571,0.98606825,0.12421301,0.83980554,-0.5199049,1.5901309,0.024287762,0.17174885,0.82240486,1.6132526,-0.5351274,1.2612789,0.4997939,-0.09864386,1.0476097,-0.19459008,1.0372454,0.22246067,0.16414545,0.44188142,-0.19779862,0.3578811,
setProject(),-0.42942062,0.11715452,-0.18050297,-0.106553026,0.65462226,-0.4039541,0.60842574,0.49668142,-0.36643115,-0.08069788,-0.12312908,-0.43852043,-0.85186136,0.5439972,0.39238256,-0.28292227,0.018736493,0.30864194,0.2861381,0.41583532,-0.2356679,-0.08801825,0.31905478,-0.82391113,0.268386,0.9245996,0.1490488,-0.022966357,-0.35518628,0.13163698,
r,0.018669613,0.24543367,0.39841127,-1.0417128,0.2624056,-0.9854364,0.328835,0.2615644,-0.08836672,0.26622093,-0.115938246,0.128988,-0.504407,0.22032425,0.55130756,-0.3132807,0.6621977,0.7971696,-0.16915639,0.09195399,0.2527016,0.29299167,-0.036488082,-0.8522118,1.242449,0.5638593,0.042645913,-0.0070211915,-0.18478301,0.024612032,
ContinueStatement,-0.99721575,-0.014400694,0.47443554,-0.12218741,0.69359916,-0.29510492,-0.5888326,-0.3983983,-0.37790227,-0.45563716,0.87659067,-0.18780601,-0.15943903,-0.14832857,0.21790265,-0.20980471,-0.019175831,0.0019574026,0.71210736,0.2881285,-0.88070357,0.052875027,-1.3022459,-1.0938119,0.31497735,0.098863155,0.5359036,-0.18259405,-0.81779784,1.0829908,
equalsIgnoreCase(),-0.88886184,0.11438794,0.34216672,-0.11639689,0.828881,-0.6196452,-0.11168575,0.13322498,0.09719559,-0.48012,0.2180547,-0.40435806,-0.04012947,-0.09252857,-0.019970363,0.35816622,0.5065267,0.76997936,0.27594858,-0.43245712,-0.23683564,0.31869593,-1.7089422,-0.39723897,0.4811662,-0.19063061,-0.39385298,0.31231695,-0.6910817,1.0098,
cmd,-0.010655331,0.6108432,-0.115919374,-1.2227913,-0.40809432,-0.15388447,-0.054970723,0.3704489,-0.7366632,-0.44079673,0.48191825,-0.5123881,-0.89617026,-0.44409683,0.6817077,-0.11641566,0.32650653,1.5573179,-0.60520387,0.6479522,-0.35293812,0.029536244,-0.26798555,-0.6773501,-0.38506907,-0.06334732,-0.3921241,0.4522526,-0.5145191,0.70568806,
elementAt(),-0.2057596,0.14913484,1.2703854,-1.056993,0.17768139,-0.25142825,-0.06846822,0.20454864,-0.28577426,-0.26815513,0.98479587,-0.597729,-0.46045282,0.7313368,0.38248158,-0.38938692,0.33599788,0.4535213,1.0588795,0.0039181975,-0.24180785,-0.29049125,-0.24113059,-1.0349342,0.3153336,-0.3040699,0.4220028,0.13500148,-0.8347441,0.56249505,
Hashtable,-0.90494925,-0.4788252,0.94234127,0.35116303,0.14172006,-0.17706175,-0.21174338,0.85430264,0.0973019,0.0062661865,0.80550873,-0.54878545,-1.0382972,0.665327,0.50654376,-0.30545482,-0.35271302,0.34035018,0.5471512,0.42179918,0.12784757,-0.5699979,0.20312755,-0.6319888,0.09109601,-0.31336597,0.10351368,0.12485572,-1.2668842,0.3380289,
b,0.07505114,0.07344133,-0.017449103,-0.6164993,-0.29277292,-0.81522954,-0.20380755,0.0346872,-0.38673136,0.102062695,0.590296,-0.65631497,-1.2289289,0.36672404,0.1443634,-0.54481286,0.5655291,1.0454139,0.032964546,-0.115116864,0.2754834,-0.9704804,-0.1344295,0.0960896,0.6727037,-0.24402314,-0.26881328,0.49804956,0.405305,0.24273603,
newInstance(),-0.23794617,0.18225718,-0.13020572,-0.21490188,0.6295523,-0.3297188,-0.031141242,1.2487504,0.19151473,-0.16017132,0.17644173,-0.6889718,-0.19196697,0.15187912,0.40826288,-0.3720715,0.35705248,1.0564278,0.59604585,0.039828584,0.58680487,-0.42628065,-1.5241922,-0.64422,0.17280942,-0.34169674,-0.120111324,-0.37182644,-0.8491597,0.019731538,
endsWith(),-0.69175595,0.07932589,0.21029817,-0.33306143,0.49939162,-0.5137308,-0.67735666,0.09657419,-0.13815264,-0.66518724,0.10423018,0.03693101,-0.25606927,0.24996927,0.1682657,-0.49696898,0.16731156,0.022092097,0.3427377,0.020120291,-0.55416,0.09237442,-1.2084552,-0.70041645,0.4617668,-0.17516078,0.53230923,0.055860113,-1.4319723,0.7201326,
ioe,-0.3837119,0.033813618,0.19086091,-0.10176945,0.49135396,-0.14974378,0.07367333,0.2442054,-0.91292435,0.1860232,0.65515256,-0.5720619,0.021777984,-0.23884031,0.83390576,-0.8943131,0.03380695,0.22464956,0.32080665,0.60469764,-0.09819379,-0.8124871,-1.5179499,-1.2590069,-0.12313538,-0.536627,0.124127865,-0.3268131,-0.6734708,0.5778674,
event,-1.5740595,0.015293629,-0.37752458,-0.15199107,0.72160685,0.287815,0.39148688,0.4265527,-0.61155707,-0.11004753,0.29366308,0.81706583,0.2631877,-0.5225164,-0.44038448,0.44421506,0.51281214,1.2967348,-0.61719376,1.3359814,-0.25946945,0.9657837,-0.47222802,-1.2070439,-0.6347668,-0.5958403,0.4082766,0.32887757,-0.78763974,0.33953473,
getBytes(),-0.7356276,-0.021347463,0.33172724,-0.00048824807,-0.048661564,-0.48646423,-0.56127954,0.109277435,-0.43327567,-0.20907165,0.6350792,-0.35340372,-0.41758996,0.5452557,-0.49678972,-1.0646073,0.60162604,0.7523647,-0.22221233,0.1596767,0.19107962,-0.544671,-1.0736138,-0.011739796,0.36319026,-1.0040928,0.12511072,0.111507766,-0.047577843,0.09892225,
toString,-0.5422909,-0.0035127439,1.018026,-0.9320977,0.1047577,-0.4865894,-0.31516406,0.33229646,0.22576022,0.10247412,-0.1420394,0.068953045,-0.30350348,0.7469362,0.51322037,0.009160009,0.76391214,0.40571806,0.0025107665,0.5078227,-0.13259807,0.26208892,-1.0043546,-0.012361449,0.4734226,-0.1813885,0.02922971,-0.012208958,-0.8087933,0.3079684,
out,-0.4760939,-0.031709224,0.16560057,0.40314865,0.004909092,0.17420192,-0.265654,0.38963312,-0.60650444,0.4401178,0.61750025,-0.43461388,-0.437912,0.5306105,0.011712173,-0.7412718,0.1661817,0.5220197,-0.38521898,0.33871305,0.23323306,-0.88038117,-0.10507643,-0.4309398,0.42072874,-0.8485717,0.28703225,0.0709943,-0.9374952,0.0318866,
lastModified(),-0.3127133,0.20432599,0.07541496,0.07739926,0.37797576,0.012478766,-0.037056945,-0.35562575,-0.55482215,-0.9888701,0.44158134,-0.81142163,-0.6767949,0.11533196,0.3656744,-0.79542047,-0.44639772,0.316479,0.7161297,0.053552266,-0.30497265,-0.24326657,-0.8231857,-1.0784758,0.13244149,0.283537,0.0765969,0.3280729,-1.1787716,1.2081488,
ArrayList,-0.88359,0.31885135,0.76950204,0.46560904,0.3586598,-0.35662872,-0.34144586,0.63519055,-0.14718851,0.19721897,0.9204868,-0.33137682,-0.929733,0.7490366,0.29510704,0.19006616,-0.040639292,0.06452356,0.5257669,-0.10490499,-0.19713064,-0.56492716,-0.1877189,-0.19041422,0.4420702,0.27281788,0.42734918,-0.0322676,-1.0850508,0.32303396,
trim(),-0.40605828,-0.29554278,0.11840328,-0.6551597,0.2694446,-0.7893611,-0.78683364,0.0045987316,-0.11343715,-0.38421625,0.014580662,0.028412335,-0.48915216,0.001413629,0.4608153,-0.3859648,0.096365266,0.05999917,0.047008246,0.5177975,-0.82296497,0.13742657,-1.1499838,-0.24010615,0.5895047,-0.2772926,0.26851073,0.09833546,-1.0243216,0.78339666,
createArg(),-0.3290312,0.6923941,-0.256041,-1.3736023,0.23690303,-0.5288462,-0.14672671,-0.2958087,-1.1373401,-1.2925789,0.13737774,-0.86772984,-0.40741456,-0.73212314,0.20771353,-0.6186453,0.62647045,1.5361301,0.5352898,0.71630037,-0.77119994,0.35421807,-0.7306267,-1.2239594,-0.14988637,0.12646349,-0.11178857,0.5364347,-0.73696727,1.1732038,
execute(),0.060571488,0.14934462,-0.24531806,-0.27083692,0.34857485,0.13997515,0.5977995,0.46997592,-0.85790855,-0.24749957,0.24566785,-0.4959849,-0.058774237,-0.33853284,0.51580346,-0.54709333,0.14848317,0.523763,0.40477356,0.62514746,-0.04834155,-0.29430068,-0.6116651,-1.4364024,-0.1966759,-0.07301701,-0.013581272,-0.14454587,-0.7347334,0.33021232,
getFileUtils(),-0.35127345,-0.31639537,0.16899192,0.20259506,-0.1903584,-0.24659646,-0.4736917,0.93793005,0.24512213,-0.25998834,0.40678456,-0.6058741,-1.1552173,-0.044741575,0.74532026,-0.37915048,0.1528652,0.47555447,0.445311,0.13667694,0.21321702,-0.33990985,-0.0035963785,-0.16969663,0.0074320897,-0.049913634,0.016584558,0.12312635,-1.0749338,0.15028259,
resolveFile(),-0.21691585,0.24952081,0.11748956,-0.3358369,0.54064023,-0.0727904,0.057308577,0.20700374,-0.27050737,-0.6535314,0.10415718,-0.49909467,-0.66508406,0.0032754457,0.49129212,-0.54688644,-0.11454193,0.008336122,0.71541137,0.25507724,-0.48121828,0.08263619,-0.34838468,-1.2027723,0.19178952,0.56419456,0.3237421,0.041048992,-1.0427513,0.5693783,
forName(),-0.3588274,0.16548398,-0.17413315,-0.19536702,1.0195098,-0.35845375,-0.13124135,1.2110711,-0.2236198,-0.25737813,0.31086904,-0.8088501,-0.004337324,0.18268615,0.48121703,-0.9507417,0.29582745,0.9209754,0.5126926,-0.086165026,0.49872202,-0.57272404,-1.1930199,-1.1533483,0.09380503,-0.18523575,0.14311866,-0.43104258,-0.9272882,0.19804657,
t,-0.35725448,-0.10672097,-0.132663,0.04633198,0.3566466,-0.4270042,-0.07963601,0.6109203,-0.48170516,0.4838423,0.1401636,-0.5263987,-0.11388873,0.4209541,0.17819144,-0.6911049,0.2946466,0.6313803,0.26422068,0.08081951,0.83155435,-0.8687263,-0.8845986,-0.32471707,0.419401,-0.6942294,0.19101499,-0.110539146,-0.491163,-0.14095077,
getRef(),-0.44883567,0.5786345,1.4812876,-0.9640832,0.7483164,-0.4904101,0.44002637,0.5928907,-0.10899474,0.184611,-0.19795331,-0.0054038176,-0.89657354,0.60160077,0.6458268,0.12463742,0.45087934,0.17722005,0.26469257,-0.07348435,0.15275198,0.5777379,-0.18669577,-0.84926164,0.91853726,0.9688401,0.21983528,0.08937898,-0.60498,0.3379212,
addArgument(),-0.8616494,0.20202568,0.359132,-0.34020942,-0.034729455,-0.4583632,0.09106707,-0.39710113,-1.171329,-0.7059008,0.060314592,0.22002393,-0.61442643,1.4185956,0.08731012,-0.7170346,0.06539452,0.8523655,-0.38844842,0.9691643,-0.5366817,0.5925765,-0.0774411,-0.5701506,0.5173196,-0.5888306,0.31459007,0.19435215,-0.25679067,1.0063179,
flush(),-0.47114578,-0.058635343,0.29475012,0.046098858,0.026134336,-0.11151829,-0.17638737,0.1107649,-1.1387596,0.1153329,0.7095536,-0.3757094,0.25833067,0.18541175,-0.06473011,-1.045902,0.591414,0.7253054,-0.3842688,0.55982697,0.20752831,-0.96328837,-0.75488037,-0.6887717,0.2412665,-1.3444707,0.3330505,-0.034715485,-0.5059059,0.2722148,
delete(),-0.090931185,0.2580608,-0.102530055,-0.3512319,0.43921253,0.062083095,-0.29411712,0.01124592,-0.9480935,-0.24685955,0.49490362,-0.5969264,-0.12500747,-0.4918436,0.6025144,-0.72055006,-0.11740777,0.3530204,0.4255928,0.22970583,-0.13568898,-0.5308562,-0.96393967,-1.2171346,0.051395733,-0.22304553,-0.051021032,-0.025606124,-1.0426738,0.8296901,
arraycopy(),-0.3805146,0.14693718,0.15130894,-0.33845428,0.12376878,-0.8187025,-0.67091894,-0.1127562,-0.40972304,-0.64931744,0.77819216,-0.96753,-0.45622835,0.60274005,-0.19415116,-0.90817696,0.27769274,0.99241304,0.5629077,-0.025840543,0.022711817,-0.7481835,-0.65241677,-0.5342588,0.4708554,-0.42970592,0.1429623,0.22158042,-0.06306992,0.45223707,
tooManyAttributes(),-0.37514183,0.41293997,0.45975804,-1.310599,0.7854907,-1.1661451,0.16667937,0.007505238,-0.47994003,0.55061966,0.0063789226,0.08162928,-0.6520671,-0.22752728,0.6881532,0.22661632,0.34198135,0.36718518,0.08710106,-0.09110417,-0.10188628,0.49283487,-0.5222574,-0.8526017,0.94626826,0.8710292,-0.056731135,0.029487131,-0.045186765,0.30090448,
print(),-0.7847005,0.2614663,0.43297446,0.08354888,0.30417112,0.16362685,-0.51232976,-0.2268054,-0.9254809,-0.21744682,0.849345,-0.5317694,-0.10785805,0.87579876,-0.512653,-0.9188887,0.43022096,0.81630105,-0.26360667,0.62731004,-0.49326542,-0.46620187,-0.4601911,-0.7304259,0.38851476,-1.1514634,0.38526398,-0.0069603887,-0.809287,0.7151172,
clone(),0.15191141,0.1347162,0.7607417,-0.87772715,0.36240995,-0.112255424,0.790835,0.64695144,-0.30230632,0.16231368,0.12275652,-0.30256194,-0.57770944,0.49741024,0.92153156,-0.15703827,0.22815669,0.26644105,0.23204966,0.25674555,-0.05736908,-0.16960971,-0.16795996,-1.2312912,0.33994448,0.35764045,-0.07623693,-0.16970351,-0.92407197,0.25870857,
setExecutable(),0.253488,0.49877727,-0.33326006,-1.0743399,-0.2348881,-0.22134604,0.013151811,0.290331,-0.69815487,-0.5703664,0.3492299,-0.9881527,-1.0115669,-0.58737856,0.643662,-0.4534885,0.35546842,1.2953302,0.14700404,0.5458296,-0.37973136,-0.26243713,-0.005055547,-0.94835484,-0.36734265,0.23625961,-0.4276631,0.42812553,-0.6709406,0.6848068,
toLowerCase(),-0.7301306,0.092705175,0.10643673,-0.1505276,0.3377343,-0.67373055,-0.6997786,0.32122046,0.21785554,-0.51388437,-0.047695067,-0.17306632,-0.5096525,0.51105833,0.10003437,-0.280682,0.052497197,0.30591127,0.46954948,0.22799051,-0.5526575,0.039430585,-1.0999739,-0.20538162,0.46075118,-0.06698065,0.14738418,0.034341007,-1.0149312,0.58365196,
add,-0.65470445,0.36267912,0.099467404,-0.09116172,0.896209,-0.9612872,0.2783066,0.22853036,-0.61244285,0.8469634,0.35890505,-0.30756983,-0.9449946,0.90728235,0.41854444,0.3384426,0.17807095,0.12264799,0.2843752,0.09459255,-0.14841293,-0.6153812,-0.042407274,-0.40996617,0.79141915,1.0917001,0.37130338,0.024419582,-0.04228436,0.27124208,
invoke(),-0.37223953,0.087896004,-0.30936745,-0.40842292,0.71267915,-0.36087614,-0.18979692,1.078578,-0.2436908,0.011261393,0.08911745,-0.51756334,0.056843963,0.010632512,0.4679487,-0.7201789,0.37830302,0.8257216,0.11662256,-0.12355349,0.60949326,-0.5669101,-1.3930948,-0.82188135,0.17980225,-0.34432414,0.06680074,-0.37519723,-1.1075577,0.05523041,
getBaseDir(),-0.050805103,0.42615953,-0.26639092,-0.5409512,0.4465216,0.16374245,0.27911693,0.2778695,-0.36500278,-0.8160874,0.061471723,-0.7090715,-0.65779823,-0.3358344,0.5355043,-0.6812687,0.26139894,0.53380424,0.4505034,0.31252292,-0.45739707,0.18627208,-0.2854842,-1.4686276,-0.15248884,0.5366814,0.16681057,-0.058168128,-1.1015999,0.5631288,
nextToken(),-0.9822059,-0.43907785,0.4494537,-0.28977028,0.3867576,-0.92606306,-0.52981204,-0.14328223,-0.2626403,-0.3559168,0.5477421,0.09518313,-0.7465812,0.20749553,0.510332,0.22821446,-0.19803919,-0.23086159,0.14336413,0.74084944,-1.2961028,0.23735872,-0.8787506,-0.3836182,0.5094495,0.072183736,0.31359896,0.071690544,-0.9378159,0.87292415,
getTask(),-0.3401617,0.25534022,-0.012268146,-0.9373435,0.37190586,-0.015432007,0.2545797,0.08713017,-0.25739983,-0.42942247,0.028791346,-0.12228878,0.0010434919,-0.36138287,0.25295547,-0.28233024,0.621525,0.9279066,0.25916865,0.7450319,-0.4256933,0.54072326,-0.5921749,-1.1823037,-0.17859235,-0.12646113,0.33663648,0.09635076,-0.5669352,0.3011091,
s,-0.20550261,0.0035153872,-0.06924605,-0.44206274,0.18690962,-0.9621809,-0.043021698,0.014818036,-0.2438712,0.09466479,-0.024463343,-0.24231914,-0.59963197,0.57314837,0.040293932,-0.17899,0.4047557,0.44381893,0.27514765,-0.07993202,-0.0307796,-0.27088898,-0.17579503,-0.2593442,0.97513026,0.39311653,0.26596707,0.27497628,-0.3357681,0.3177008,
getDirectoryScanner(),-0.4796943,0.22370765,1.1727021,-0.6594199,0.38523683,-0.1903491,0.23044445,0.36897445,-0.013192773,-0.30833727,0.4504927,-0.38486215,-0.8553521,0.6796128,0.6018858,-0.2981948,0.14578192,0.0030994134,0.99814695,0.17798823,-0.41636926,0.23651871,0.20901884,-1.3278112,0.3881163,0.77478516,0.42194656,0.106549226,-0.9477761,0.49514127,
lastIndexOf(),-0.43215558,-0.011141,0.12609704,-0.53385013,0.4301177,-0.89430404,-0.974368,-0.075145,-0.27273023,-0.872692,0.19939479,-0.12988229,-0.43144333,-0.06312279,0.3224522,-0.5163547,0.17652586,0.30240318,0.29788142,-0.07679512,-0.58407587,0.10751342,-0.92529505,-0.5823092,0.58856946,-0.2131009,0.49462205,0.2520449,-1.3174893,1.1223071,
getCommandline(),0.28302538,0.28671804,-0.2769473,-0.70184875,0.23463856,0.030906323,0.7554994,0.4329766,-0.793012,-0.24489255,0.07197282,-0.56564796,-0.3546505,-0.32993448,0.463969,-0.51200205,0.37714443,0.69565517,0.31392878,0.20254813,0.17538638,-0.10378786,-0.16063888,-1.2695974,0.003810369,0.06673642,-0.08052208,0.10472797,-0.51614594,0.15712431,
createPath(),-0.11274284,0.12991054,0.22470543,-1.4517946,0.5660122,-0.79491556,0.59045464,0.26686814,-0.17460568,-0.23332217,-0.81167144,-0.0074987197,-0.25893384,0.6984507,0.36957026,-0.59570426,0.7851191,0.8915475,-0.031310927,0.52971923,-0.030954702,0.75028616,-0.17815362,-1.108168,1.0365857,0.4167801,0.20212682,0.07520979,-0.6365366,0.17345263,
appendSelector(),-1.5869077,-0.55895466,0.24622263,-0.08067355,0.22480045,-0.9583157,0.22154753,0.22427319,-1.0607057,0.63785046,-0.070355125,0.47069287,-0.593386,1.1405845,-0.14441356,0.017083978,0.8423945,1.1485802,-0.2861634,0.91821,0.36426982,-0.030397614,0.8064136,-0.14532717,0.8574318,0.06186941,0.11779799,0.46591786,-0.33081672,0.18268716,
setName(),-0.83236337,-0.09895184,0.4483054,0.038158715,0.38501406,-0.4388102,-0.08196464,0.008783292,-0.12217428,-0.30489662,0.008094568,0.037279848,-0.50354224,0.21509191,0.025244964,0.14692,0.13267101,-0.020339048,0.4112435,0.3212012,-0.66956466,0.31035852,-0.4577941,-0.32341355,0.46646208,0.3522681,0.028764028,0.10298844,-0.5714028,0.42880994,
getValues,-0.42114213,0.27198356,0.14509083,-0.4532499,0.040662944,-0.41582787,-0.39543462,0.5935003,0.58304757,-0.44911653,0.17870371,-0.36474043,-1.01754,0.40618554,0.26690307,-0.05281409,0.21035302,0.71294314,0.373182,-0.092872575,0.0038357757,0.0071500363,-1.0761199,0.20290032,0.16062069,-0.045008823,-0.25426415,0.1983294,-0.8558452,0.3544847,
getClassLoader(),-0.31473744,0.36967182,-0.14071153,-0.293815,0.7135968,-0.24628617,0.06215634,0.916832,-0.07282342,-0.30626002,-0.22362791,-0.46705624,0.05383403,0.14943688,0.14779721,-0.5045783,0.41146764,0.6272907,0.6015469,0.082309626,0.3222411,-0.0761817,-1.2008461,-0.868779,0.35560432,0.049132567,0.2516035,-0.28698552,-0.88980925,0.06888591,
getInputStream(),-0.49749094,-0.13196184,0.27788496,0.24548656,0.38778794,0.08930343,-0.30792198,0.5203137,-0.48825303,0.028308619,0.61996484,-0.33130145,-0.04299177,-0.17627867,0.2519508,-0.7021768,0.163106,0.1830009,0.0006680387,0.33357853,0.123877786,-0.596033,-1.1905402,-0.9286959,0.14445725,-0.59793663,0.24323326,-0.25318936,-0.7764781,0.27631736,
getMethod(),-0.5067043,-0.13563032,-0.25867975,-0.19064662,0.5285995,-0.43037015,-0.40496242,0.8746653,-0.1385299,-0.06543703,0.23719348,-0.43544602,0.1469998,-0.023757469,0.19044359,-0.62087864,0.483856,0.8746625,0.1947403,0.19360879,0.4046802,-0.67795724,-1.6694218,-0.48306754,0.20080498,-0.7517238,0.22075498,-0.3360104,-0.89629316,0.09951062,
read,-0.5502542,-0.49507985,0.56924117,-0.2690559,-0.4133007,-0.88668394,-0.71735877,-0.14780344,-0.41978565,-0.14372374,0.35754213,-0.13662232,-0.6490222,0.12341192,-0.14693192,-0.41809607,0.62846017,0.7494475,-0.4543902,0.44283333,-0.09567871,-0.43610132,-0.29389837,0.2488035,0.75047714,-0.91490185,0.0649632,0.56643856,-0.094392635,0.47416338,
setRefid(),-0.24372685,0.29452944,0.3370657,-1.3387249,0.58350235,-1.032547,0.36474058,0.29793257,-0.2813579,0.2925429,-0.39468887,-0.008917318,-0.55874157,0.16361459,0.54481804,-0.061891656,0.6604523,0.7878326,-0.04308648,0.11264886,0.034595724,0.63113844,-0.26936683,-0.8122649,0.9752112,0.66000915,-0.15673058,0.06459935,-0.060266424,0.083471365,
c,-0.30572522,0.24350592,0.32090613,-0.27380636,0.46807116,-0.69156986,-0.1832498,0.15099254,-0.16405769,0.22310641,0.25325856,-0.24610904,-0.79122823,0.51418,0.120099664,-0.048253395,0.34637257,0.16722995,0.1617597,-0.2463717,-0.13776587,-0.3731109,-0.44430986,-0.26688516,0.8196611,0.48494768,0.22410259,0.054007903,-0.27180043,0.3175388,
noChildrenAllowed(),-0.42554843,0.42635956,0.55827147,-0.8966179,0.80558145,-1.1527264,0.26849738,0.14869314,-0.49443087,0.6772114,-0.03922316,-0.07397364,-0.8824419,0.22720262,0.6462177,0.3653215,0.22283705,0.24230963,0.019205451,0.025672391,-0.118115574,0.3308014,-0.36093932,-0.80420184,0.90950763,0.95188344,0.09458605,0.00814903,0.037226666,0.21634021,
keys(),-0.9393994,-0.1431676,1.1348068,0.19290046,0.37369475,-0.06014443,0.11387831,0.24675478,-0.46021643,-0.18637039,0.9594924,-0.25301585,-0.52439934,0.617479,0.42661196,-0.0065911645,-0.3203065,-0.09735377,0.44627562,0.85550725,-0.74125004,-0.1229315,-0.47729623,-1.0522972,0.057145834,-0.29941177,0.24991024,0.076277316,-1.1949463,0.82415414,
test,-0.90910417,-0.63012886,-0.17445599,0.36144644,0.3270835,-0.33401757,0.33874646,0.52046645,-0.7971101,0.69426614,0.38898218,-0.034641623,-0.3045003,0.4763223,-0.05971412,-0.09401285,0.10324751,0.6859836,-0.13645144,0.20289464,0.8619679,-0.82342374,-0.2973541,-0.10320425,0.57044727,-0.73158044,0.1536402,0.12453724,-0.37801754,-0.10768312,
writeOut(),-1.097866,-0.15801801,0.20127848,0.08193411,0.09738785,-0.6269315,-0.5795614,0.1004154,-0.8513835,-0.13884346,0.71166104,-0.3843193,-0.56142235,0.6521555,-0.63403225,-1.0589229,0.51127934,0.9637011,-0.119028345,0.36312383,0.2217288,-0.6599132,-0.9091595,-0.11704979,0.40049207,-0.8778963,0.038518276,0.2733855,-0.0042850995,0.33051458,
setName,-0.84097517,-0.1448954,0.094825275,-0.15784992,0.17005295,-0.96813405,-0.58752614,0.59732,0.2935375,-0.20856081,-0.15203477,-0.30244708,-0.917537,0.98264134,0.26729974,-0.16842236,0.14118235,0.4006781,0.2804135,-0.04338631,-3.7734237e-05,-0.21826206,-0.7496504,0.43147832,0.73223627,0.04569763,0.037044022,0.30701888,-0.9735806,0.22362615,
output,-0.5983366,-0.09148277,-0.24647726,0.22891991,0.25188357,-0.18254007,0.054474633,0.06660832,-0.84392416,0.13209452,0.32325548,-0.34711328,-0.38394973,0.085723884,-0.57797843,-0.55808955,0.4061495,0.93549365,-0.11923195,0.23566407,0.21389751,-0.5037733,0.10627601,-0.2671994,0.44026452,-0.6901265,0.16580516,0.39147234,0.01577166,0.14206013,
Commandline,0.29218143,0.15162182,-0.009006321,-0.90724176,-0.41847634,-0.22992407,-0.11871785,0.56996053,-0.10103785,-0.30377683,0.5476299,-0.8703896,-1.4973873,-0.3803467,0.93894196,-0.31549785,0.2980096,1.0970008,0.23094839,0.47557104,-0.22926435,-0.24294852,0.42051223,-0.60053885,-0.3400997,0.16859736,-0.26150793,0.41925398,-0.6233496,0.4645246,
readLine(),-0.3002484,-0.2539968,0.56006426,-0.2724206,0.16104339,-0.35843554,-0.53837466,0.1899066,-0.49478585,-0.39966574,0.654292,-0.403786,-0.14863095,0.30543262,0.3150912,-0.81075895,0.13925214,0.111841,-0.075978965,0.5439153,-0.5093928,-0.757157,-1.0388576,-0.7973371,0.46267095,-1.0844554,0.3684464,-0.09746264,-1.3262442,0.6590474,
IOException,-0.17418058,0.1704957,0.20398329,-0.28131157,0.14395927,-0.56371343,-0.7442959,-0.16940953,-0.6007258,-0.11484066,0.9416773,-0.758537,-0.42371067,-0.06340254,0.1300055,-0.8095239,-0.028526392,0.5027079,-0.008006426,0.14162421,-0.027784515,-0.7125802,-1.0243821,-0.76301223,0.39201358,-0.7741712,0.17568082,0.008093306,-0.4387352,0.6670887,
validate(),-0.14897469,0.07031536,0.46777818,-0.27429524,0.50049657,-0.32824653,0.13979922,0.24232186,-0.16850725,0.07787256,0.17402379,-0.33701777,-0.6809127,0.39509118,0.6645649,-0.012802392,-0.047632497,-0.071698785,0.61949986,0.2664219,-0.13227388,-0.21635965,-0.43280235,-0.6625453,0.4544659,0.3548577,-0.07061787,0.018668653,-0.90177804,0.5844644,
parent,-0.6746098,0.07118163,-0.20022881,0.15499382,0.5033413,-0.46375844,-0.18557675,0.90878546,0.022281665,0.25125805,0.0030098131,-0.1964836,-0.5414215,0.39723042,0.1761951,0.0042242156,0.164973,0.5995464,0.10727225,0.0007356256,0.29877606,-0.33161804,-0.6471412,-0.087191686,0.485346,0.15519014,0.100549966,-0.057935156,-0.6592073,-0.053750597,
list(),-0.1489191,0.1789819,0.80125743,-0.40933678,0.31055853,-0.32735056,-0.31588528,-0.08092855,-0.15693383,-0.35705993,0.58731616,-0.67949796,-0.517158,0.0113911405,0.50863296,-0.4601366,0.122640066,0.00336385,0.9074305,0.018869754,-0.25915572,-0.35642543,-0.56433195,-1.128761,0.41957253,0.15072855,0.3221115,0.04983543,-1.1289408,0.71805394,
FileOutputStream,-0.38126925,-0.17310473,-0.017899534,0.1770793,0.22391811,0.026078524,0.002406741,0.29706174,-0.72764224,-0.16255265,0.7634944,-0.60082567,0.0057511996,-0.13909182,0.30803502,-0.7901393,0.062249232,0.41867086,0.19945069,0.34583855,0.15117809,-0.8668826,-0.6534366,-1.0049217,-0.055278897,-0.69426787,0.14960667,-0.09505782,-0.94517094,0.3600902,
f,-0.14241414,0.047219638,-0.09608806,-0.24588713,0.097593874,-0.35646892,-0.043351244,0.18174404,-0.18358861,-0.22014904,0.20897889,-0.4300559,-0.9420528,0.4614786,0.22311987,-0.4802911,-0.015631245,0.43530232,0.32752895,-0.16994847,0.097930215,-0.4636426,-0.33643627,-0.24762206,0.4430999,0.059268273,-0.11948036,0.24340431,-0.49893296,0.31475818,
org.apache.tools.ant.util,-0.5543499,-0.42051327,0.2160157,0.30258378,-0.20675753,-0.27285576,-0.099001795,0.6171696,0.09069934,0.104084305,0.3767669,-0.1228108,-0.96048146,0.11235779,0.2790461,-0.1423463,0.30227044,0.3938935,0.08799168,0.14868385,0.20525634,-0.18378632,0.0940118,0.072123915,0.2672576,-0.18339413,0.14527401,0.19379447,-0.7210816,0.01831595,
message,-0.27844748,-0.023415703,-0.1300591,-0.043697573,0.03930369,-0.11176629,0.3478993,0.36060485,-0.652893,0.33563265,0.003740312,-0.50313073,-0.21979862,0.074173175,0.10523117,-0.3668482,0.38896012,0.80554223,0.0555022,0.21857078,0.5608722,-0.48578817,-0.15534498,-0.31022924,0.24461813,-0.23461223,0.055118322,0.3415701,-0.25279334,-0.05450289,
InputStreamReader,-0.5226527,-0.316414,0.21337567,0.17251854,0.45795453,-0.072837755,-0.19346645,0.9040925,-0.48644567,0.13567652,0.7374992,-0.53377575,-0.12447713,0.24341547,0.60188884,-0.75164336,0.03563587,0.36711505,-0.2529805,0.39767838,0.09503887,-1.0073154,-0.7838642,-0.9527341,0.0887817,-0.5995948,0.21049632,-0.38941994,-1.0818106,0.27057463,
FileInputStream,-0.47754416,-0.16707957,0.027541224,0.17119235,0.4079387,0.047630306,-0.11056874,0.5812173,-0.41048124,-0.0667104,0.6550442,-0.44275826,-0.08347531,-0.046846922,0.48531157,-0.725875,-0.13511431,0.23714016,0.22945458,0.305929,0.083122104,-0.711338,-1.0550689,-1.0948699,-0.028064352,-0.46326414,0.17866544,-0.23199129,-1.3168494,0.4435603,
isFamily(),0.13722281,-0.14519425,0.02267207,-0.39109138,0.0012058083,-0.2080601,-0.63185364,0.7271848,-0.07549279,-0.3810085,0.10997181,-0.5055264,-0.7270031,-0.4583736,0.49382165,-0.32856664,0.19097845,0.33074325,0.2543385,0.2485022,0.12079086,-0.22907673,-0.79218143,-0.42494228,0.028184596,-0.40655163,-0.14037381,0.01548025,-0.9132445,0.22842725,
line,-0.36601633,-0.38638678,0.0012851057,-0.43844405,0.04882564,-0.6528857,-0.25247896,-0.103445716,-0.38191473,-0.20132473,0.02147363,0.20678192,-0.1976957,0.16051114,0.099876024,-0.29902977,0.09516848,0.12514189,0.1669276,0.38039413,-0.37629032,-0.033186227,-0.69772506,-0.264627,0.5186015,-0.64714545,0.2699243,0.23195952,-0.78462356,0.55631816,
StringTokenizer,-0.7544847,-0.56853276,0.53080463,-0.103104666,0.1247252,-0.8310705,-0.6221206,-0.09250236,-0.08396701,-0.32649925,0.663175,0.10299232,-0.94321734,0.2953452,0.39672676,0.06899563,-0.09865996,-0.012084305,-0.11744067,0.6308987,-0.9410792,0.0050302627,-0.520761,-0.17581213,0.63932294,-0.0244979,0.20186448,0.20121366,-1.1152657,0.95980483,
hasMoreTokens(),-1.0564758,-0.34221974,0.65981954,-0.15152042,0.43132153,-1.0520617,-0.7232166,-0.029947331,-0.26099896,-0.36363092,0.7250028,-0.034981094,-0.83408713,0.25903413,0.53468746,0.20530327,-0.13770702,-0.18354127,-0.031952243,0.6284015,-1.1662138,0.06816858,-0.9947549,-0.28057,0.623349,0.08662876,0.32999998,0.07942298,-0.95857126,1.0141399,
currentTimeMillis(),-0.63672626,-0.1728965,0.06246711,0.33863956,0.21075968,0.15541096,-0.124533184,0.07808128,-0.50966376,-0.16352987,0.5242635,-0.21605314,-0.088861495,-0.10494435,-0.06348885,-0.40534207,0.22473302,0.47880262,0.087378584,0.4898356,-0.050280448,-0.20112504,-0.5874928,-0.6621559,-0.14875399,-0.5643863,0.18121071,0.08717001,-0.5446335,0.30862388,
isEmpty(),-0.26957333,0.35826465,1.0459,-0.63930416,0.29884878,-0.45058316,0.20656852,0.04824145,-0.20443842,0.22971769,0.30120116,-0.1420792,-0.7940094,0.11547856,0.7041191,0.21880622,0.20355812,-0.2135298,0.25746766,0.21588576,-0.59958136,0.16072708,-0.32714435,-0.81036234,0.5551497,0.64273113,0.098399974,0.075435996,-0.4510278,0.39814088,
getName,-0.8057787,0.2566841,0.2013212,-0.3722016,0.24470162,-0.9121354,-0.44439587,0.5128624,0.14830957,-0.12263865,-0.22726431,-0.103481986,-0.7448908,0.86656654,0.21489342,-0.0915905,0.12748212,0.5391302,0.07921066,-0.081664085,0.13086475,0.036698718,-0.87901884,0.3656589,0.7885967,0.21011019,0.011649254,0.23971556,-0.8032338,0.24140283,
BufferedReader,-0.3865861,-0.46301317,0.06997371,0.14054441,0.12627222,0.06869409,-0.2282938,0.6815752,-0.4251102,-0.06490208,0.57590425,-0.4280948,-0.33686757,0.13218693,0.64132977,-0.93447757,-0.012615513,0.22955403,-0.30946118,0.55072683,-0.08599684,-0.78151804,-0.6901824,-0.87969756,0.05187147,-0.7916379,0.17847808,-0.25476894,-1.242682,0.23776115,
setError(),-0.41488096,0.22436114,0.021341605,-0.4129477,1.0172877,-0.7160572,0.12632257,-0.12277339,-0.4010206,-0.08471157,-0.3908577,0.06818976,-0.043029707,0.08404558,-0.09785077,0.17629921,0.47218987,0.54216737,0.21878785,0.06141727,-0.17268522,0.44329265,-1.1988978,-0.56528395,0.6522765,-0.0362473,-0.36580977,0.10340889,-0.2672248,0.8144074,
getTaskName(),-0.22991206,0.3440167,-0.19917707,-0.43232587,0.59741217,-0.07319687,0.35719335,0.37080657,-0.5529015,0.2505476,0.32905886,-0.1492106,-0.22684667,-0.6436579,0.50402564,0.16945249,0.25188637,0.3787068,0.40408298,0.45939192,-0.24701954,-0.071139336,-0.6988836,-1.0640372,0.03303466,0.24779364,0.25974926,-0.10764531,-0.4118065,0.21600887,
init(),-0.43088683,0.05063158,-0.011388104,0.06058514,0.42127666,-0.2731191,0.3350235,0.65894455,-0.34733078,0.18155025,-0.00488008,-0.30312037,-0.66915965,0.11725131,0.3249798,-0.078723684,0.1184359,0.274238,0.3093189,0.1778733,0.101140134,-0.17548484,-0.018862516,-0.4112368,0.24099757,0.4827444,-0.0016000548,0.021695387,-0.38884732,0.029495914,
in,-0.6008033,-0.4678414,0.41687262,0.112276495,-0.29916477,-0.40480632,-0.53595626,0.16493183,-0.34859338,0.046078626,0.4855,-0.1276752,-0.54963386,0.08978714,0.010035573,-0.5047884,0.43578944,0.433158,-0.25622422,0.41450703,0.014777601,-0.46638444,-0.19398119,0.048354384,0.38443708,-0.8523219,0.20201828,0.2915709,-0.4566106,0.25532517,
createClasspath(),-0.116370395,0.036801122,0.18354537,-1.3724304,0.3455602,-0.721465,0.5488402,0.059889037,-0.25597247,-0.2732623,-0.6223294,0.12292902,-0.34174463,0.2624343,0.44596398,-0.4788404,0.6988742,0.7717901,0.013871457,0.47878018,-0.22611108,0.8187258,-0.27826586,-0.9516277,0.8504393,0.3240895,-0.017152345,0.14866452,-0.5218239,0.22184598,
getIncludedFiles(),-0.5123668,0.20472574,1.0438128,-0.4101286,0.35829315,-0.22833419,0.051348154,0.10260855,-0.074154615,-0.57252836,0.59640145,-0.57482743,-0.7883744,0.4728099,0.2766984,-0.3426468,0.08974269,0.09944759,1.0105686,0.06698876,-0.40495458,0.13321406,0.3138319,-1.2485017,0.34449974,0.49778292,0.52527153,0.18375,-1.0109441,0.56717664,
getComment(),-0.3237551,0.5892628,0.06900171,-1.3283294,-0.13869017,-0.44419375,-0.1550341,-0.31482717,-1.1059401,-0.71422684,0.31448185,-0.568057,-1.0409423,-0.60452527,0.16448994,-0.24141316,0.7097501,1.4825598,-0.2669698,0.6778758,-0.7422307,0.3660445,-0.31021172,-0.72214633,-0.14623578,-0.047944836,-0.38328606,0.8214731,-0.22145002,0.9561344,
toArray(),-0.50511,0.51828605,1.1180333,-0.39947003,0.3308778,-0.3026594,0.2452254,0.23766194,-0.3980579,0.316408,0.7846997,-0.12010366,-0.81209624,0.558754,0.53716266,0.23516268,0.086879045,-0.1306548,0.65823114,-0.12764795,-0.33533588,-0.19901645,-0.23115604,-0.55393934,0.50398546,0.43747067,0.43961403,0.15389685,-0.77048147,0.53381884,
setFile,-0.30101925,-0.005258524,-0.23262064,-0.07287841,0.19834912,-0.46937343,0.01926964,0.6167515,-0.08389966,0.05078467,0.009093505,-0.38533348,-1.044283,0.2685529,0.5245876,-0.14327498,0.041982833,0.4613428,0.35774088,-0.08428118,0.30776548,-0.32660994,-0.0165337,-0.07969399,0.38807452,0.35762075,-0.19333293,0.2675696,-0.68196136,0.07790685,
printStackTrace(),-0.23902,0.26451832,-0.09129968,-0.07658296,0.5551758,0.11369029,0.08817143,0.43150127,-0.9752299,0.07961819,0.5038584,-0.48139912,0.15299068,0.16758701,0.18674658,-0.7365756,0.2622844,0.5814067,0.03535477,0.28691027,0.24164525,-0.7625657,-1.0188687,-0.9921882,0.16444595,-0.83358324,0.22003661,-0.21372896,-0.9888827,0.37600416,
SynchronizedStatement,-0.42080066,-0.062132765,0.42582017,0.25618586,0.24323486,-0.12601878,-0.0589912,0.18796586,-0.69758147,0.0883369,0.75531566,-0.31585363,-0.22962342,0.58069026,0.04000654,-0.4850134,-0.026268246,0.20226009,0.23403096,0.21255663,0.052691653,-0.8619079,-0.6938211,-0.53603154,0.42443714,-0.6518792,0.22723138,-0.028562382,-0.5214366,0.4030836,
getParentFile(),-0.31662735,0.32470554,-0.013661278,0.13188344,0.419751,0.037260924,-0.016721912,0.10386912,-0.33487552,-0.27043068,0.44139344,-0.4405356,-0.5216036,-0.20376617,0.5108524,-0.28062764,-0.21409252,-0.018156147,0.5941403,0.1297396,-0.34923428,-0.20379062,-0.83322227,-0.8903924,0.14081813,0.2606114,0.17588806,-0.04311599,-1.1067941,0.6600979,
setAttribute(),-1.30427,-0.034869887,0.48447886,0.42111325,0.39854583,0.084215745,-0.45033365,0.056544196,-0.40349433,-0.016019925,0.3863286,0.015268917,0.28798944,0.29106644,-0.1841042,-0.40211332,0.5306715,0.50601673,0.26035565,0.45581597,-0.48600182,-0.09101,-1.1557546,-0.6159665,0.056315996,-0.69927317,0.36473763,-0.08118566,-0.6302673,0.2271645,
src,-0.1480524,0.05605488,-0.11640656,-0.24746521,-0.11471083,-0.28605798,0.029216012,0.08325318,-0.24828972,-0.026182672,0.043407246,-0.2037345,-1.1265895,0.03649132,0.42892942,-0.011538919,0.07070587,0.3760315,0.043529473,0.20577164,-0.18129787,0.024458168,0.1434023,-0.24019176,0.36694652,0.439504,-0.12269473,0.40545934,-0.5719789,0.29552335,
getProperties(),-0.71000093,-0.05366848,0.8219309,0.087188154,0.47183937,0.028401941,0.13269103,0.18110758,-0.18144207,-0.4126006,0.24731083,-0.17147365,-0.41399583,0.4203407,0.2141229,-0.19012164,-0.088212736,-0.21825778,0.68368185,0.5955907,-0.6142737,0.2450522,-0.5973117,-0.97645384,0.060423728,-0.030818615,0.19793725,0.05130038,-1.0820484,0.5465481,
SwitchStatement,-0.7652861,-0.71038616,0.5778628,-0.41243947,0.2747607,-1.1805854,-0.46741754,-0.4948648,-0.6210619,-0.06478206,0.4962282,-0.12242842,0.19024196,0.20713653,0.14013907,-0.21381786,0.48567668,0.70363504,0.1464743,0.8037228,-0.45417327,-0.47218794,-1.0599443,-0.4327736,0.8316456,-0.5909611,0.38593116,0.23223339,-0.25193086,0.9250317,
setFile(),-0.036848504,0.23197788,-0.19245726,-0.70435727,0.08129842,-0.19180264,0.16825709,-0.21734732,-0.5817112,-0.5650979,0.16284677,-0.6046818,-1.2310957,-0.26196384,0.40915194,-0.30632815,0.15675676,0.7391315,0.27442843,0.3331155,-0.5769882,0.2211945,0.036466364,-0.8263106,-0.008463181,0.43249875,-0.2979922,0.4861159,-0.29741415,0.5705495,
path,-0.21357188,-0.08317333,0.14485495,-0.66218686,0.060082607,-0.3884965,-0.083291434,0.008225804,-0.08216683,-0.20252916,-0.094043255,-0.02584817,-0.61872786,0.31463608,0.31393516,-0.2594107,0.20229486,0.31111667,0.06281263,0.15801993,-0.27196908,0.31427538,-0.30833575,-0.41014573,0.488659,0.11393746,0.04957014,0.17523569,-0.7826564,0.34079403,
setNewProperty(),-0.14754814,-0.03394946,0.21014419,-0.7202951,0.6073178,-0.3039883,0.12270317,0.22806874,-0.34826118,-0.39357036,0.101654306,-0.44326526,-0.3210305,0.3552884,0.4591192,-0.72133136,0.11438712,0.30918634,0.50494087,0.4353347,-0.30388615,-0.017421503,-0.54012585,-1.108096,0.17487673,0.044143565,0.23026004,0.0072924113,-0.6498791,0.48484185,
org.apache.tools.ant,-0.5749761,-0.21658255,-0.027203036,0.3187384,-0.06568454,-0.13431515,0.1012976,0.66617584,0.007033752,0.049325738,0.25891945,-0.06138794,-0.8750022,-0.05869779,0.20449115,-0.01285878,0.2688947,0.48164785,0.078282475,0.16888839,0.29461527,-0.06812707,0.022354785,-0.073601864,0.15991218,-0.03504538,0.096370034,0.21546118,-0.57891804,-0.029406859,
isSelected,-0.28058478,0.13909297,0.36073402,-0.41348678,0.3793309,-0.607624,0.056369506,0.087619625,-0.17245714,0.17093451,-0.1365843,0.116010375,-0.5140357,0.31986707,0.3939134,0.086403005,0.34799367,0.14843272,0.1518951,-0.10864265,0.26679477,0.1988136,-0.6482301,-0.3461643,0.7955795,0.28159544,-0.17550993,0.2148076,-0.5960905,0.34605184,
FileResource,-0.43499482,0.006991379,-0.045107808,0.06351119,0.24504799,-0.2729259,0.02835538,0.37620738,-0.12665178,-0.069900215,0.18615355,-0.14994004,-1.0296063,0.23857397,0.3889031,-0.045807958,-0.046157934,0.14713852,0.22082026,-0.040681794,0.009880948,-0.14024182,-0.06252616,-0.3633676,0.44420552,0.5041292,0.049295317,0.19747692,-0.7552473,0.243193,
org.apache.tools.ant.types,-0.5099429,-0.3508677,0.18472905,0.26033077,-0.21263158,-0.2736566,0.067395076,0.59850055,0.05411569,0.14619249,0.13781469,-0.11941579,-1.0644021,0.16744618,0.31909105,0.03819617,0.30868697,0.4687849,0.14041127,0.25061196,0.19152787,-0.031472757,0.28258318,0.04591591,0.31654578,0.09328324,0.023188775,0.2759265,-0.618577,0.022590771,
getFile(),-0.47121975,0.514926,0.4444141,-0.42216015,0.38390136,-0.106781945,-0.3421582,0.0046285167,-0.0127278725,-0.44017407,0.18519215,-0.1881065,-0.54812235,-0.24229456,0.4342542,-0.06530993,0.28341475,0.011555252,0.53332186,0.017926324,-0.6114194,0.39482132,-1.175109,-0.80012715,0.30242822,0.45286041,0.28730023,-0.036009077,-0.92282736,0.71199524,
clear(),-0.5647074,0.15397315,0.48101804,0.25031397,0.45406014,-0.27756405,-0.049065858,0.14309713,-0.53066456,0.025587967,0.5665005,-0.4178433,-0.44000104,0.51991624,0.21388105,-0.19156872,-0.03577385,0.053196583,0.3164514,0.17624398,-0.36414316,-0.543919,-0.3317857,-0.5973376,0.30952528,0.12381826,0.24313664,-0.070316084,-0.6230054,0.58334804,
isExists(),-0.3241428,0.5372752,0.7619731,-0.17178199,0.48431686,-0.091472484,-0.27346304,0.2341677,-0.02403558,0.09440805,0.34972626,-0.15432312,-0.58092487,-0.2902413,0.47001,0.003356437,0.4141086,-0.07501417,0.32227883,-0.04502723,-0.20477803,-0.00045802433,-1.1780151,-0.72916985,0.49458903,0.51009333,0.32717875,-0.15469769,-0.7358848,0.47708252,
dieOnCircularReference(),-0.49453855,0.6432894,1.3294886,-0.6796984,0.49240148,-0.49549422,0.09272146,0.33628184,-0.18715447,0.38022155,0.08935484,-0.04169791,-0.7122649,0.3718656,0.4669362,0.21062249,0.5837469,0.05293439,0.31838986,-0.14921805,-0.16937901,0.20168707,-0.40021735,-0.5869648,0.8709993,0.838716,0.31333974,0.019125363,-0.5905304,0.26253858,
classpath,-0.32500094,-0.013709856,0.35707566,-1.0225906,0.20678577,-0.632066,0.25805122,0.19065613,-0.18863104,0.041795507,-0.4327779,-0.008858565,-0.22520475,0.58248454,0.24252087,-0.29044673,0.72978836,0.82692295,-0.18898039,0.5031678,-0.034362245,0.49020234,-0.10723924,-0.5221545,0.7419248,0.06347366,-0.04799677,0.08532729,-0.3472678,0.027628679,
task,-0.45442078,-0.0066638305,0.07160961,0.18936616,0.09300353,-0.05527615,0.11733885,0.41562676,-0.36353752,0.28063688,0.2324925,-0.25738743,-0.5998202,0.16784203,0.1639621,-0.28193098,0.2537642,0.44357195,0.08971817,0.09022927,0.27076855,-0.2586394,-0.040938597,-0.30340934,0.21692856,0.020353537,0.11349614,0.12936133,-0.3442742,-0.031099552,
uri,-0.7212893,-0.118781306,-0.27452725,0.10491811,0.30726483,-0.4804194,-0.2771618,0.49733916,-0.14512442,0.037341807,-0.11872081,0.10697357,-0.47061738,0.20574409,-0.03119392,-0.04264644,0.1345637,0.22516343,0.15670957,0.07601978,0.050741874,0.017175121,-0.5435416,0.053195726,0.3746702,-0.146271,0.2044019,0.16572112,-0.7884751,-0.012599935,
remove(),-1.1174673,0.34017572,0.6132553,0.34311986,0.7707091,-0.312297,-0.120272696,0.0068258005,-0.65540385,0.14224117,0.8958073,-0.15678556,-0.4065897,0.47467923,0.1709975,0.016947452,-0.2070324,-0.16906762,0.4722614,0.217987,-0.66931576,-0.42639032,-0.96163744,-0.77087176,0.22190435,0.2224063,0.473375,-0.04438652,-0.5968059,0.68253285,
dir,-0.04168838,0.06902035,0.027188871,-0.23557983,0.08231695,-0.22101077,-0.062327318,0.20905082,-0.11646784,-0.11350939,0.13817894,-0.32138908,-0.684637,-0.1496036,0.38558954,-0.3144248,0.16323516,0.177945,0.4800607,-0.08277819,0.06007796,-0.16653138,-0.53462905,-0.49691308,0.34629267,0.13985479,0.057228956,0.14505513,-0.6208734,0.17005293,
classname,-0.39795977,-0.092727825,-0.14664073,-0.27518085,0.21564727,-0.40169007,-0.1578423,0.19117281,-0.17191404,-0.24680129,-0.10474464,-0.1291026,-0.34781188,0.31756505,0.11454541,-0.40521538,0.18148956,0.25475577,0.24593882,-0.011288231,-0.08792739,-0.029901845,-0.6165657,-0.3548867,0.4554882,-0.018357668,0.09090303,0.074400656,-0.75712466,0.26287204,
size,-0.3358187,0.38261,1.127304,-0.47984752,0.22461136,-0.363185,-0.016010098,0.22540432,0.014029387,0.07087055,0.18581739,-0.23117155,-0.9001322,0.43172714,0.40531152,-0.007113189,0.36966398,0.060761318,0.48756552,-0.16277461,0.026655238,0.14226297,-0.32546234,-0.3707576,0.7077783,0.5678926,0.22322556,0.17490521,-0.5432773,0.36220995,
eval,0.017802328,0.14236362,0.19271927,-0.18148421,0.16466863,-0.43038538,-0.3251827,0.4115147,-0.21821262,0.14498752,0.33360574,-0.47779727,-0.81043535,0.26005995,0.5058352,-0.3036704,-0.00754324,0.22632615,0.3991904,-0.00917005,0.23722424,-0.49513236,-0.62236124,-0.34673148,0.46483824,0.04897274,-0.017994478,0.09405631,-0.3043798,0.36203656,
HashMap,-0.85586804,-0.2088702,0.58457977,0.40045103,0.1597309,-0.19087884,-0.31692684,0.6183812,0.17464453,-0.007032442,0.8403062,-0.4413575,-0.99869406,0.50051403,0.42275953,-0.12573099,-0.10846799,0.1616671,0.5682726,0.15797412,-0.21820962,-0.5499624,-0.08061723,-0.42065278,0.1451915,0.042634275,0.29522178,0.013473503,-1.1347227,0.25009015,
log,-0.06456912,-0.08981395,-0.11662924,-0.4066929,0.115256466,-0.036320787,0.32481945,0.24308409,-0.6370591,-0.015412325,0.0017752553,-0.42062825,-0.33185694,-0.07902319,0.09102524,-0.4927216,0.41351306,0.78076166,0.11932389,0.13288173,0.3303642,-0.097211696,-0.14517294,-0.5479768,0.12029003,-0.31767678,0.0624889,0.29371,-0.2610498,0.05517059,
set,-0.5811445,0.07728071,-0.14492854,-0.114613995,0.57080126,-1.1176845,-0.033529036,0.292503,-0.3295431,0.3635968,0.3785761,-0.458617,-0.9796607,0.9181094,0.2333659,0.098091245,0.0053621647,0.42108062,0.48590696,-0.18903233,-0.08607923,-0.63233584,-0.21523434,-0.13737297,0.93350226,0.71675724,0.25594097,0.05113383,-0.35607114,0.50284237,
getValue,-0.635749,0.088546656,0.11652904,-0.38128537,0.23647937,-0.8134859,-0.39366218,0.4311042,0.14882834,-0.24551296,-0.017134922,-0.346396,-0.7866972,0.8428212,0.084393546,-0.15113077,0.15641169,0.7414078,0.20916003,-0.17076214,0.24590544,-0.20006263,-0.8346299,0.22069024,0.7258214,-0.01887788,-0.14373466,0.30218467,-0.6120676,0.3167436,
createClasspath,-0.30980405,0.11865234,0.45619425,-1.4861121,0.5036414,-0.8151664,0.33542338,0.22468786,-0.32989794,-0.033385426,-0.62701803,0.016012603,-0.033132337,0.6192752,0.31706512,-0.4531689,0.8756965,1.0172158,-0.21237832,0.55329096,-0.010952308,0.66168964,-0.1816924,-0.9157065,0.84332895,0.15981445,0.060294315,0.12239771,-0.39532745,0.1575946,
setLocation(),-0.008062461,0.26218557,-0.15119846,-0.51590633,0.54415905,-0.09682056,0.5261657,0.28886813,-0.7060696,-0.019640587,-0.14895234,-0.39080703,-0.29132485,-0.38149303,0.50362843,-0.29586828,0.29862183,0.37996796,0.30194426,0.46976706,-0.17331389,-0.048875574,-0.44738993,-1.1158887,0.15383111,0.35567227,0.051505554,-0.017520024,-0.4042564,0.12222849,
push(),-0.80559236,-0.30360997,0.9475051,-0.1329237,0.3772597,-0.62626934,-0.34320298,-0.19727866,-0.38418734,0.16037239,0.5570301,-0.014650791,-0.0676833,0.47066686,0.19858722,-0.07217252,0.30531523,0.096138835,0.12640496,0.52292377,-0.5720768,-0.34663087,-0.68197066,-0.49975243,0.5691931,-0.12629199,0.4130122,0.05331411,-0.49473664,0.5967407,
destFile,-0.7258152,-0.16367695,-0.39580712,0.4723378,0.10517771,-0.05994621,-0.0022698676,0.22284609,-0.34908858,-0.0060096732,0.19894964,0.07644643,-1.0251938,-0.52162594,0.39447388,0.005060929,-0.10907197,0.04910146,0.47896037,-0.17296387,0.24410123,-0.01575118,-0.13360289,-0.3760783,0.068042554,0.34759343,0.04134397,0.30627778,-1.006002,0.2080756,
validate,-0.061592925,0.28573865,0.30103585,-0.52740693,0.42827505,-0.4506158,-0.036181893,0.05220235,-0.2967167,0.19041379,0.23620677,-0.34741408,-0.5509805,-0.045920722,0.71888703,-0.116080984,0.07507869,0.017526917,0.27529028,0.16460583,-0.22294603,-0.15405376,-0.7495797,-0.8616025,0.46616554,0.29643202,0.121287845,-0.031309627,-0.5333005,0.40602207,
command,-0.2732656,-0.017140836,0.013980361,-0.12133785,0.005826427,-0.07253198,0.2147887,0.21151087,-0.4070267,-0.16760914,0.224347,-0.18676132,-0.67633754,0.40190116,0.279122,-0.40584075,0.09219843,0.36702782,0.12302862,0.3339673,-0.020357605,-0.07976583,-0.11021537,-0.5184111,0.18749405,-0.10940703,0.12462763,0.08883211,-0.46477035,0.22901867,
contains(),-0.672432,0.12562196,0.36255622,-0.0059264703,0.6050582,-0.40210664,-0.21990083,0.14334084,-0.15135874,-0.07398587,0.41652197,-0.24363239,-0.61388373,0.4340162,0.23369922,0.10356665,-0.16161552,-0.11867827,0.48155844,-0.037065387,-0.30236733,-0.17685717,-0.8696897,-0.48659733,0.48097682,0.20862612,0.30813453,0.04307255,-0.769302,0.48928955,
other,-0.49179435,0.117589146,0.55562794,-0.19710281,0.24322271,-0.3868102,-0.4071033,0.3839666,0.04366157,0.037803046,0.1609567,-0.1054437,-0.5322754,0.37049076,0.11358934,-0.08838269,0.39745528,0.36000976,0.35621366,-0.01213551,0.21550116,0.023405507,-0.67375976,-0.19381902,0.6261458,0.12837596,0.18574017,-0.011973805,-0.40511224,0.11147562,
target,-0.6817879,0.060627237,0.027054634,0.216026,0.24746786,-0.19932517,0.13154753,0.29225484,-0.2602783,0.09852669,0.12786172,-0.15515605,-0.599039,0.22354926,-0.017651653,0.049275633,0.20249026,0.47407904,0.18204166,0.08707594,0.09823347,-0.11578691,-0.2537616,-0.14036678,0.27855146,0.2805637,0.039011292,0.18351726,-0.47179067,0.16810314,
isFile(),-0.16861555,0.51218176,0.25375402,-0.52967936,0.5564186,-0.10749433,-0.15688266,0.0049462435,-0.5159719,-0.24316013,0.5798418,-0.6569622,-0.7523609,-0.60768026,0.80078465,-0.18701905,-0.22146311,0.10905323,0.5100583,0.17021322,-0.578043,-0.15964565,-1.0469449,-1.1586282,-0.04829611,0.2653844,-0.017633392,0.041445896,-0.81343126,0.825134,
setClasspath,-0.40094692,-0.12594716,0.53805053,-1.0800891,0.1242305,-0.7418153,0.13608555,0.15582483,-0.06901061,-0.022771932,-0.38178074,0.003344612,-0.3503014,0.6292034,0.21192034,-0.31472468,0.8125032,0.918886,-0.22375862,0.3772361,0.028016007,0.46365854,-0.0780911,-0.35769492,0.82879776,-0.06955164,-0.03678339,0.185366,-0.33090645,0.058887996,
getDir(),-0.17445712,0.29726037,0.65120983,-0.5371843,0.46059072,-0.057256736,0.34461507,0.21608816,-0.16320197,-0.3184298,0.19355857,-0.44298914,-0.721078,0.28346643,0.5289941,-0.37689778,0.1717767,-0.007168361,0.7687892,0.14406899,-0.36036617,0.17164096,-0.07090641,-1.2530445,0.311527,0.6534875,0.34273246,-0.0004913963,-0.8553359,0.40234134,
filename,-0.32461214,-0.1212123,0.17723924,-0.3653846,0.26920345,-0.5831929,-0.05205971,0.0749249,-0.10125646,-0.059379227,-0.16188379,0.15644552,-0.7082915,0.40070623,0.43018958,-0.0011180084,0.12096718,0.027266763,0.17632586,-0.058414023,0.047765054,0.10001291,-0.3754545,-0.21111158,0.6430657,0.0116351,-0.08534853,0.3689925,-1.0216886,0.38304853,
getClasspath(),0.07899143,0.2014165,0.011107841,-0.92291254,0.2918749,-0.088231295,0.4450205,0.13926473,-0.5484887,-0.29372075,-0.09393346,-0.3253752,-0.2843212,-0.15044448,0.35773635,-0.5139446,0.42839742,0.6871,0.19616504,0.44636625,-0.21069565,0.26053417,-0.3844228,-1.1094096,0.055163573,-0.011928981,-0.0895209,0.09265048,-0.42681864,0.2766861,
getException(),-0.5869167,0.16317466,-0.04480843,-0.37256616,0.58710766,-0.05003358,0.23593384,0.18025462,-0.6705584,0.06659798,0.18159837,0.06475145,0.42380562,-0.48183092,0.124156564,-0.13343458,0.5889034,0.8204163,-0.10180835,0.7786941,-0.09220423,0.12506531,-1.2102392,-1.0671993,-0.076837,-0.5738345,0.26917067,-0.054692972,-0.3536297,0.24578622,
Properties,-0.47782335,-0.039530795,0.5436475,0.122649014,0.38798586,0.13788967,0.08614574,0.53018034,-0.20542328,-0.024523579,0.8388072,-0.4362736,-0.40333453,0.2861589,0.54411507,-0.2696688,-0.14982559,0.054509494,0.54271567,0.3075654,-0.1940128,-0.5401317,-0.6529663,-0.9985992,-0.021024559,-0.25398216,0.26925266,-0.17213403,-1.1917449,0.45102602,
offset,-0.62153256,-0.3237729,0.5650853,-0.12641701,-0.25056317,-0.8196028,-0.7045194,-0.20413809,-0.33856598,-0.19722353,0.4398122,-0.41383383,-0.75393385,0.44443196,-0.4163695,-0.58967865,0.70198107,0.9057343,0.102027856,0.010227503,0.31164587,-0.44721055,-0.25423163,0.1837725,0.9204807,-0.70607316,0.15051386,0.60385275,-0.0017778475,0.38913944,
close,-0.24218664,-0.18080007,0.16703929,-0.276807,0.17975858,-0.32227635,-0.16645601,0.19734481,-0.70805633,0.13273193,0.38207975,-0.13274932,0.036537923,0.14631961,0.070354216,-0.7370045,0.42269388,0.6011559,-0.21101435,0.27249515,0.26433024,-0.69039786,-0.8432678,-0.56675047,0.4315986,-0.89993286,0.15493368,-0.010079905,-0.42287686,0.22449163,
args,-0.17805028,-0.043784104,0.077672474,-0.25089103,-0.22399929,-0.018006671,-0.04602383,0.08063199,-0.40704113,-0.004912859,0.34265673,-0.32912838,-0.533126,-0.04500394,0.22064856,-0.33665216,0.274354,0.4053436,0.02515,0.28177235,-0.096532285,-0.28282872,-0.41176248,-0.32351997,0.04832744,-0.4811244,-0.031062216,0.14939688,-0.54977083,0.21448821,
copyInto(),-0.28648326,0.22509594,0.79748976,-0.6136579,0.1665221,-0.4399006,0.12963755,0.24629807,-0.42265743,0.15407924,0.6605651,-0.3434898,-0.5690776,0.5968936,0.64249265,0.034678888,-0.05876082,0.23639983,0.699003,0.1418787,-0.13723542,-0.41526031,-0.36981055,-0.4502928,0.39794448,0.06546225,0.12205082,0.14800961,-0.6456909,0.65033334,
parse(),-0.3045076,-0.14239228,-0.15023182,0.12264625,0.49183214,-0.09598143,0.009992104,0.42740873,-0.5372763,0.004980636,0.2323815,-0.37162232,-0.23957962,-0.1276299,0.29084003,-0.5869866,0.1247317,0.13655826,0.25931633,0.09435983,0.08716119,-0.4276391,-0.86759216,-0.77802837,0.1115806,-0.29432786,0.13046886,-0.14990105,-0.6726861,0.16376196,
setPath(),-0.048063707,0.50302297,0.2644995,-1.4031147,0.08181911,-0.34521344,-0.03746375,-0.33904907,-0.7060845,-0.6719536,0.24533854,-0.5262446,-0.877624,-0.19651888,0.2797233,-0.25999385,0.5439808,1.106048,0.33998266,0.5863741,-0.8641533,0.41874385,-0.25866863,-0.9245101,0.055024937,0.11993043,-0.14908397,0.48734188,-0.3084944,0.815591,
getSize(),-0.66853684,0.12467918,0.30634916,0.122968405,0.17772992,-0.18975292,-0.34191394,-0.13984384,-0.34228468,-0.14217012,0.2917853,-0.048904125,-0.3436824,0.15466133,-0.39722303,-0.3208813,0.37908798,0.23874527,0.09409204,0.19868164,-0.11745208,0.05402018,-0.86943597,-0.25285915,0.36858255,-0.3694976,0.19641325,0.1314456,-0.31781363,0.33098257,
getConfig(),-0.4818068,0.26102957,0.27990663,-0.51017535,0.47833818,-0.07770171,-0.33583757,-0.3648357,-0.41567537,-0.6474294,0.49120635,-0.47892752,-0.64924866,-0.29373184,0.37911236,-0.37504426,-0.00097091775,0.039327387,0.6197808,0.06564624,-0.85311276,-0.02574618,-0.9002229,-1.0157868,0.040951215,0.07446691,0.23250785,0.112193994,-1.0775876,0.86709034,
getResource(),-0.41204676,0.31074622,0.39115342,-0.38938567,0.4847008,-0.42469767,-0.29358324,0.16340923,-0.027479133,-0.31039202,0.16424243,-0.21945249,-0.4616332,0.06894336,0.21786006,-0.042795684,0.13910155,0.09828782,0.5718309,-0.08342217,-0.23165534,0.14756607,-1.00214,-0.62922704,0.44255885,0.2689905,0.2217231,-0.011595041,-0.59679943,0.41051537,
prefix,-0.54067254,-0.06042742,0.177461,0.05906008,0.26875648,-0.2853707,-0.2310472,0.16446419,-0.22447437,-0.049594913,0.21777938,-0.10908093,-0.55260307,0.20285167,0.06497294,-0.21597299,0.08522139,-0.008403515,0.32931268,0.025519716,-0.17840637,-0.21469055,-0.47549152,-0.27408415,0.38034812,-0.07627793,0.23121707,0.13693824,-0.69657815,0.2836645,
length,-0.59149647,-0.32339132,0.6443935,-0.062994964,-0.19723676,-0.7986035,-0.7864046,-0.22978655,-0.30371106,-0.23979093,0.46685892,-0.42160657,-0.73758066,0.46255,-0.48211944,-0.63873214,0.61539483,0.80014056,0.2533333,0.031374417,0.21924688,-0.45721886,-0.17843363,0.07777648,0.9435537,-0.60688484,0.2155457,0.55497277,-0.083304614,0.47148204,
exc,-0.21768185,0.08270876,-0.0025116738,-0.26498368,0.39541212,-0.37570548,0.071343675,0.49365655,-0.60416865,0.4163935,0.35412878,-0.38628146,0.040283863,-0.32783115,0.56278044,-0.47314638,0.32009012,0.38575125,0.09855745,0.4170628,0.15662944,-0.72146755,-1.2064041,-0.79539746,0.14388596,-0.5125246,0.081304446,-0.26312262,-0.59729564,0.16229479,
copyFile(),-0.583165,-0.07622833,-0.2601356,0.47910252,0.45374927,0.16192001,0.08962645,0.24530454,-0.5307986,-0.095237456,0.28722662,-0.2043375,-0.7299847,-0.47223932,0.5111423,-0.24161151,-0.14173481,-0.12639524,0.6087393,-0.078746535,0.106796294,-0.10411721,-0.43583962,-0.8776006,-0.097408935,0.36387965,0.08742709,0.07870311,-0.8806348,0.28004935,
setValue,-0.6279264,0.026579991,-0.077156335,-0.32164484,0.17484221,-0.77633667,-0.38470352,0.53354686,0.1670074,-0.20170885,-0.016762054,-0.41969264,-0.8672196,0.83727306,0.12172369,-0.1868954,0.19049779,0.9760889,0.2055526,-0.051918115,0.19776157,-0.1959276,-0.62143034,0.2416261,0.54726255,0.041944418,-0.22455892,0.2520865,-0.63605773,0.23225771,
encoding,-0.5277426,0.0600272,-0.14579904,0.18882865,0.18850818,-0.39529613,0.073775604,0.31115797,-0.15924226,0.080765426,0.09744921,-0.26764575,-0.88020444,0.16216208,0.10269843,0.13285607,0.18547547,0.404153,0.2625185,-0.10347273,0.18189527,-0.22424527,-0.1627022,-0.057022434,0.45877317,0.38132417,-0.066998765,0.22600776,-0.3869132,0.19096416,
files,-0.3824973,-0.04562998,0.25991246,0.23898503,-0.035287343,0.04696343,0.10778079,0.43319264,-0.29179555,0.08603239,0.5316104,-0.1869977,-0.6309602,-0.068628944,0.36337438,-0.06462652,0.054413106,0.1235348,0.432222,0.14897348,0.071358286,-0.32646555,-0.06595984,-0.51097375,0.12167664,-0.01863973,0.18636277,0.14123164,-0.76172185,0.1179873,
checkAttributesAllowed(),-0.4040986,0.29740953,0.31463346,-0.50141287,0.25913793,-0.6721444,0.16567807,0.12182653,-0.39473513,0.06509218,-0.15977535,-0.0389174,-0.7278698,0.16988632,0.08942504,-0.065658376,0.46985698,0.3225241,0.29836908,-0.054322775,0.037246045,0.21431905,-0.026862847,-0.37347043,0.71944976,0.6663132,0.039948717,0.30699304,-0.10775929,0.12604797,
keySet(),-0.9298973,0.23795888,1.2086293,0.30659488,0.19764078,0.10249486,-0.1987441,0.1566731,-0.2540213,0.15267639,0.9861817,-0.28871003,-0.8686662,0.28825405,0.39036077,0.03239433,0.1694158,-0.23759991,0.48357907,0.24066673,-0.6143167,-0.36529323,-0.36397913,-0.7011244,0.31808102,0.083272845,0.5730009,-0.039516285,-1.0701239,0.41982257,
PrintWriter,-0.26177865,-0.12737527,0.07320534,0.091247976,-0.01661269,0.18965736,-0.0003292719,0.35413054,-0.61727107,-0.1107083,0.6158131,-0.5731709,-0.26118422,0.22791101,0.34668446,-0.8967644,0.12481793,0.42956656,0.12148441,0.42639416,0.051570926,-0.7106697,-0.45050743,-0.81959033,-0.039515026,-0.7465199,0.18570413,-0.10403905,-0.98308885,0.24870484,
containsKey(),-0.9687821,-0.1179438,0.68446994,-0.078917876,0.57912564,-0.31576917,-0.29143462,-0.13958791,-0.31288213,-0.2618174,0.4938113,-0.18023498,-0.24506254,0.5002106,0.22596315,-0.23625846,-0.18661349,-0.053607695,0.49550307,0.47046733,-0.7038822,-0.018279433,-1.0357307,-0.7688319,0.1886685,-0.17826398,0.25484473,0.062283605,-0.784667,0.7474156,
hashCode(),-0.51490456,0.5080231,0.9120962,-0.85587764,0.41435406,-0.6373235,-0.41632357,0.40597537,0.15025064,-0.15457574,-0.36193997,0.057927396,-0.37639222,0.3122314,0.16105872,-0.022339057,0.86264217,0.54438007,0.29571027,-0.00634471,0.17107148,0.59077936,-1.5025096,-0.33548102,0.8573621,0.17014591,0.14330141,0.011063087,-0.67544395,0.30261594,
init,-0.3978714,-0.0663425,0.016917706,0.036556065,0.26046014,-0.3522034,0.12025733,0.578178,-0.10740506,0.12098995,0.04861955,-0.25814497,-0.68256843,0.35681733,0.2876105,-0.1345025,0.16432044,0.47535905,0.2266708,0.24239282,0.17631407,-0.19082712,0.017351404,-0.3370241,0.37767667,0.27319705,0.09263769,0.0569779,-0.5759481,0.12009106,
filter,-0.54353064,-0.49984965,0.07362437,-0.31276903,0.3403656,-1.1175877,0.03166323,-0.079790056,-0.3152387,0.15672131,0.19808252,-0.041115563,-0.5739053,0.5263018,0.34288532,0.29790923,-0.12318818,0.1725843,0.15647191,0.18388163,-0.23198749,-0.5669218,-0.64285696,-0.0071217683,1.0451515,-0.0011909122,0.070262626,0.24129482,-0.46787715,0.74754506,
run(),0.19665614,0.22903314,-0.186052,-0.85597205,0.079221256,0.045944363,0.3360241,0.2751294,-0.8717582,-0.15417969,0.26376218,-0.65241635,-0.3629348,-0.44844043,0.53703785,-0.58325243,0.39520937,0.8858773,0.12838112,0.55414456,-0.0036228364,-0.20323098,-0.5695957,-1.0744612,-0.25082347,-0.34233123,-0.14030963,0.18421125,-0.3013895,0.3005262,
setCommandline(),0.08712884,0.20456591,-0.46532813,-0.26480874,0.46401358,0.20491241,0.75964946,0.4980733,-0.9826599,-0.20458964,-0.08302671,-0.6820143,-0.2661647,-0.4557049,0.4541931,-0.7096226,0.34435326,0.63514006,0.43439034,0.4169604,0.19624096,-0.26959226,-0.39797878,-1.4663252,-0.123266906,0.13435785,-0.096104905,-0.018170014,-0.56505287,0.17875388,
getCommandLine(),0.019455265,0.29822585,-0.19917491,-0.7065572,0.14152361,-0.24315003,0.60299003,-0.044056263,-0.8117031,-0.07197527,-0.20176786,-0.29499704,-0.38025337,-0.440413,0.18780245,-0.10160128,0.47746998,0.6937552,0.15031517,0.43336618,-0.060852285,0.24707958,-0.24377611,-0.74415135,0.18382826,0.17477374,-0.1393554,0.40332696,-0.06619884,0.21059181,
getWrapper(),-0.8112844,0.2618825,0.56458336,-0.00468659,0.23092271,-0.035864808,0.08612785,0.103976965,-0.4724506,0.11859679,0.3567553,0.041250855,-0.46229196,-0.048407685,0.15739726,0.25663063,0.25374627,0.07174577,0.32934496,0.393146,-0.518954,0.22653012,-0.43226862,-0.40697354,0.2052877,0.2316142,0.2614765,0.08789756,-0.32620242,0.2926318,
getClassName(),-0.5133612,0.064409494,0.5118374,-0.34857288,0.32144246,-0.19426222,-0.26546836,0.14326508,-0.09168635,-0.044865776,0.34500846,-0.13808328,-0.1771235,0.1156458,0.19259518,-0.17459677,0.40251327,0.1925497,0.25569823,0.22959895,-0.32012513,-0.010063207,-0.9441871,-0.5279801,0.33941472,-0.28376552,0.36061344,-0.17409924,-0.67858315,0.25840378,
o,-0.45397654,0.10368326,0.4605347,-0.12547748,0.33637384,-0.44419825,-0.29718703,0.40360293,0.04962922,0.1182391,0.25951725,-0.12212612,-0.48309377,0.33584473,0.20771134,-0.006221316,0.22845253,0.07469858,0.25560856,-0.0608331,-0.012431265,-0.30793864,-0.9777591,-0.15143992,0.66829664,0.002166971,0.24155647,-0.05790632,-0.7251928,0.28126457,
type,-0.30630842,-0.047275245,0.059477516,-0.28420824,0.26372868,-0.40095985,-0.16999462,0.34378442,-0.026218036,-0.027219601,0.103429906,-0.2481797,-0.569803,0.34469354,0.1350572,-0.13114111,0.29832253,0.46382517,0.22664376,0.07750051,0.04157758,-0.12095376,-0.47253972,-0.15981297,0.4702883,-0.086908706,0.0969404,0.08079004,-0.4551636,0.14458464,
write,-0.3669906,-0.35468915,0.2807527,0.08371109,-0.19192562,-0.45107603,-0.32909006,-0.015783539,-0.65785396,-0.020178623,0.67842686,-0.4255503,-0.3885352,0.38754195,-0.14224082,-0.6656434,0.43224347,0.67521596,-0.15801318,0.3647736,0.20063469,-0.89696455,-0.42803174,-0.13885866,0.49275282,-1.0036478,0.12205185,0.2964244,-0.25708526,0.36141166,
match(),-0.600391,0.017394166,0.22202489,-0.23118633,0.62597394,-0.5928911,-0.21913616,-0.16526917,-0.4375214,-0.10721491,0.21816988,-0.17800716,-0.10143941,0.26781186,0.034388684,-0.19866219,0.048215818,0.1347409,0.5763369,0.2370046,-0.29400352,-0.08529589,-1.0079457,-0.56998056,0.45443732,-0.16201453,0.35526878,0.033002853,-0.47372013,0.53548294,
addText,-0.4480601,-0.06532395,0.033992965,-0.22729015,0.1488614,-0.41777238,-0.12437134,0.14413498,-0.17859869,0.16107838,-0.018670343,-0.14181028,-0.52624214,0.42552805,0.1571066,-0.16480426,0.36980924,0.38060194,0.10507279,0.209385,-0.043687195,-0.12448726,-0.4083827,-0.0785768,0.44459236,-0.03538081,0.042334117,0.13834275,-0.472023,0.12283779,
input,-0.4615467,-0.38326645,0.31552327,-0.3755654,-0.055067804,-0.48503616,-0.23793864,0.030315833,-0.28027537,0.23477694,0.23588395,-0.052500203,-0.38434535,0.022891609,0.16726096,-0.26423204,0.4032621,0.29143378,-0.033502758,0.172573,-0.02474546,-0.2162908,-0.29809874,-0.09005753,0.47877032,-0.39880273,0.12156101,0.25551513,-0.33534312,0.22264345,
createClassLoader(),-0.12832756,0.18619503,-0.0052138604,-0.50070363,0.66012645,-0.08215684,0.22508934,0.623003,-0.3277447,-0.24489886,-0.09260926,-0.5786579,-0.14945787,0.13471118,0.36949927,-0.71638864,0.2538401,0.45175448,0.51152164,0.25379568,0.12291832,-0.07312541,-0.77652144,-1.1955149,0.08981857,0.05240436,0.112588495,-0.15455404,-0.6403374,0.097034276,
valueOf(),-0.26153493,0.1573995,0.059623126,-0.33627006,0.23202388,-0.16920966,-0.014155987,0.08359665,-0.008844763,-0.4262561,0.009490302,-0.29614547,-0.5527875,-0.026411662,0.068839185,-0.17915717,0.22640222,0.39195913,0.43841597,0.1872404,-0.35217547,0.20674407,-0.76608026,-0.5049529,0.08453949,0.024746269,-0.059083693,0.11949255,-0.6851529,0.39474607,
Execute,0.093555816,0.057557493,-0.43256417,-0.38647586,0.16418064,0.24186137,0.5131472,0.6062805,-0.47110805,-0.28449893,0.026220746,-0.53689355,-0.5732141,-0.37598345,0.55266416,-0.47936663,0.23277883,0.7127239,0.19097607,0.45984638,0.082035474,-0.14477536,-0.20530128,-1.1718714,-0.2771902,0.020546494,-0.17474398,0.09730046,-0.6743701,0.09913607,
Integer,-1.1460854,-0.43099427,0.10813375,0.4415838,0.8391004,-0.8902944,-0.17108141,-0.2761004,-0.3145168,-0.25258583,0.4159837,-0.4186266,-0.18633084,0.50555485,-0.23702556,-0.11950751,-0.23308842,0.42207673,0.8547085,0.42031768,-0.1820759,-0.56653947,-1.4011207,-0.39890003,0.38499224,-0.25036314,0.05149916,0.15021047,-0.42826325,0.75612396,
java,-0.753095,0.07621985,0.018592555,0.52947515,0.85511535,-0.40832126,0.15145159,0.55621886,-0.38929066,0.54010373,0.9888698,-0.21811447,-0.76658535,0.67752576,0.36885598,0.07533577,-0.08323784,0.0018934566,0.42773873,0.11389941,-0.26864794,-0.5703695,-0.16393532,-0.9907835,0.4805913,0.6564014,0.73694575,-0.239575,-1.2103765,0.5810539,
isAssignableFrom(),-0.3682451,0.16267966,0.29335034,-0.32537934,0.7244723,-0.2978058,-0.33118156,0.3856569,-0.062169544,0.014950667,0.40934232,-0.52266014,-0.20942152,0.1618147,0.25800854,-0.1751321,0.2039396,0.3450426,0.5948154,-0.048853062,0.03667449,-0.36337066,-1.2058393,-0.740187,0.4083231,0.051543873,0.26695547,-0.20390362,-0.5988023,0.32654536,
basedir,-0.35957825,-0.044850167,0.23552394,-0.2977155,0.38557452,-0.4858064,0.109960504,0.24077396,-0.16358568,0.1683084,-0.17019972,0.18140723,-0.63421327,0.36560068,0.43877545,0.08232103,0.21512808,0.13792759,0.12377022,-0.08709221,0.27002385,0.17875893,-0.51995766,-0.3035841,0.6513275,0.1426253,-0.1373812,0.23357294,-0.8209742,0.31676227,
text,-0.5347621,0.044205382,0.06685221,-0.21821807,0.1268366,-0.38473192,-0.20403646,0.16824155,-0.11475928,0.08235088,-0.057286453,0.0044289897,-0.6334048,0.22570625,0.14707936,-0.07303544,0.3358312,0.37714064,0.017262738,0.11754238,-0.012254507,0.04604786,-0.33918604,-0.091834165,0.4822754,0.045064144,-0.00908984,0.22000712,-0.5313123,0.1459514,
start(),-0.3680724,-0.13610807,-0.0151686575,0.33470306,0.1851681,0.040379904,0.24023974,0.38751864,-0.95099086,0.3974385,0.4203912,-0.20449044,-0.022316758,-0.20395975,0.05444424,-0.485509,0.39333028,0.33798414,-0.040954977,0.3129858,0.33669794,-0.6005102,-0.57005376,-0.6447893,0.09292372,-0.60815024,0.1392806,-0.1046908,-0.31673703,-0.005240296,
getTaskType(),-0.062135268,0.32882893,-0.11513289,-0.3617863,0.4323197,-0.20698114,0.1952704,0.5206124,-0.5171961,0.38331005,0.37242332,-0.5177827,-0.60539234,-0.50462383,0.75678766,-0.20165119,0.107503,0.252709,0.4570956,0.17403024,0.1394443,-0.5468671,-0.96909285,-0.80330867,0.06758228,0.22571768,-0.09998245,-0.055954766,-0.36127928,0.13785884,
mkdirs(),-0.03276663,0.2838057,0.029816518,-0.25863114,0.5302785,-0.046215557,0.009528856,0.08022264,-0.57188845,-0.4580736,0.39678115,-0.59327716,-0.4921304,-0.45700285,0.6652829,-0.47375846,-0.18019517,0.084290124,0.55125886,0.09477604,-0.31552935,-0.20287085,-0.98531497,-1.2435621,0.031857565,0.05973878,0.09463907,-0.004692671,-0.96111894,0.68605536,
describeCommand(),0.11801113,0.16179901,-0.17174314,-0.52224845,0.19151187,0.07806318,0.5565802,0.22869758,-0.90042806,-0.22854045,0.078018814,-0.56763834,-0.18427795,-0.3437762,0.34899983,-0.5306943,0.3428808,0.55053693,0.31829298,0.40711612,0.0057178154,-0.18150298,-0.62278056,-1.1734749,-0.12894249,-0.26342827,-0.08354536,0.06521575,-0.50719213,0.20161949,
getLastModified(),-0.35487676,0.2870753,0.3575944,-0.039065473,0.41545442,-0.06065127,-0.1489891,0.22845669,-0.21482912,-0.045276366,0.35630372,-0.2804515,-0.49625066,-0.20415543,0.2095621,-0.1863873,0.23845565,0.08896835,0.35246643,-0.10660154,0.03353943,-0.14894386,-0.7649921,-0.6357978,0.3488449,0.20602302,0.31078327,-0.016148316,-0.61076385,0.2665777,
setRefid,-0.18264323,0.4055757,0.35899243,-0.9940076,0.49797058,-0.73786944,0.35454082,0.29976103,-0.399391,0.44197738,-0.07243819,-0.15455905,-0.71303463,0.06106922,0.61908877,0.034257095,0.40083846,0.31107488,0.19186199,-0.07641828,0.10712592,0.18449926,-0.37753025,-0.5935311,0.65618974,0.67342985,-0.031686522,0.091862105,-0.09925741,0.09721038,
replaceProperties(),-0.35907835,0.030223753,0.09205571,-0.24164096,0.35206765,-0.20866612,-0.23022102,0.20904675,-0.099372216,-0.48454306,-0.015963636,-0.26439163,-0.47414523,0.4066254,0.018800834,-0.4868747,0.16367182,0.37537327,0.18357942,0.33058462,-0.24968313,0.07057697,-0.73669696,-0.54050964,0.34816045,-0.24344514,0.15718105,0.053141445,-0.6699995,0.32652703,
attrs,-0.8680893,-0.12667854,-0.040278822,0.043334424,0.30192167,-0.488166,-0.25189164,0.58034563,-0.020728625,0.044455707,0.003374698,0.024316084,-0.6810599,0.23238212,0.00094876444,0.113085926,0.28524697,0.46511215,0.22848177,0.12628457,0.08257125,0.12661606,-0.22115879,0.028408302,0.4118116,0.14183366,0.1630172,0.16286652,-0.66247255,-0.041236155,
from,-0.29640794,-0.18861698,0.010747347,-0.13290963,0.039533805,-0.32078466,0.036207393,0.22096287,-0.3126555,0.20361416,0.15884298,-0.18656251,-0.72255933,-0.06027022,0.3451878,0.029186552,0.1537981,0.21646123,0.15876661,0.2505656,0.020324476,-0.22450243,-0.1365899,-0.13649389,0.24846014,0.031156074,-0.031131849,0.24407385,-0.462471,0.2234118,
isFailure(),0.21289873,0.29446214,-0.20219645,-0.87572443,0.3341247,-0.027780829,0.4045842,0.33522615,-0.99828213,-0.03634673,0.1738902,-0.6961077,-0.3010301,-0.62726724,0.7136898,-0.5243711,0.3663631,0.80955136,0.15649587,0.51698023,0.1117436,-0.3358682,-0.8501602,-1.2013773,-0.21346271,-0.19343981,-0.18580703,0.088774145,-0.31307194,0.29325107,
addFileset,-0.5469202,0.027976062,0.00057558436,0.0305652,0.41180116,-0.9244763,0.11101225,0.089565955,-0.41659653,0.3356256,0.3992403,-0.3840184,-0.9391602,0.7319869,0.21108676,0.14283152,0.044954434,0.28815237,0.47036466,-0.03781649,-0.06882997,-0.46328482,-0.0061930777,-0.17527829,0.8512779,0.66780746,0.26963818,0.15535524,-0.25514692,0.46838033,
setClasspathRef,-0.38527578,0.19222616,0.17788434,-1.2315602,0.3913127,-0.8053485,0.5749449,0.24575457,-0.43835387,0.018338654,-0.7396993,0.0932687,-0.41809118,0.34137374,0.2690549,-0.36827734,0.92342204,0.917531,-0.0821615,0.488747,0.041150138,0.7857839,-0.2040553,-0.788798,0.9484308,0.43684635,-0.010180256,0.20789748,-0.24584284,-0.00068116596,
rc,-0.5014511,0.35019583,0.28268397,-0.028053734,0.5559258,-0.56167316,0.03974372,0.22961274,-0.33437136,0.50773734,0.49012163,-0.2065472,-0.86012936,0.51045746,0.3316768,0.108167775,0.16676827,0.053330615,0.29053852,-0.122770965,-0.17387365,-0.3691172,-0.20921978,-0.4791151,0.72195405,0.7478132,0.46000215,-0.07409308,-0.37193143,0.3292517,
is,-0.3827665,-0.46789563,-0.20213431,0.46572167,-0.049493846,-0.04591102,0.08654313,0.6910558,-0.47102594,0.25014666,0.31602576,-0.2186744,-0.45799384,-0.115391776,0.19425423,-0.43626127,0.3206336,0.5474147,-0.09229376,0.32049337,0.49125195,-0.62448406,-0.30107498,-0.2235522,0.1531407,-0.6701089,0.071951866,0.03492443,-0.4628452,-0.16871914,
options,-0.4365815,-0.38163745,0.39655754,-0.068597175,-0.185503,-0.38051853,-0.14071448,0.12094303,-0.2944521,0.1378698,0.26809165,-0.11711421,-0.7125732,0.13703187,0.07125213,-0.1552997,0.37174577,0.27567765,0.15233749,0.098991,0.10411053,-0.17013846,-0.038717583,-0.05294928,0.5164569,-0.24582937,0.10263788,0.3315622,-0.19354592,0.12031667,
org.apache.tools.ant.types.selectors,-0.4798265,-0.2983724,0.54187167,-0.22747909,-0.1035813,-0.34886563,-0.18987218,0.45723775,0.10658592,0.1141586,0.14721258,-0.017145475,-0.60663056,0.42837945,0.37534025,-0.08860358,0.42505848,0.42237973,-0.006420322,0.31787324,0.07681139,0.03075202,-0.103068896,-0.07089405,0.381377,-0.17829412,0.10605698,0.09065014,-0.75229424,0.13025174,
msg,-0.12603687,-0.010973537,-0.12307307,-0.09901962,0.19259752,-0.07661472,0.1561297,0.34725097,-0.4499645,0.10897505,0.07653629,-0.3487896,-0.46172923,-0.12019408,0.22717193,-0.37818378,0.29588652,0.4712515,0.24376553,0.22644046,0.27412117,-0.24100748,-0.32119048,-0.47652367,0.17839386,-0.12328763,0.047735337,0.12274584,-0.24847876,0.06753651,
setTaskName(),-0.16583422,0.23841618,-0.3744737,-0.39754084,0.4193259,0.0042623663,0.5665977,0.26236778,-0.7789655,-0.0824788,-0.12536848,-0.25055844,-0.3303636,-0.48330405,0.30942893,-0.24838366,0.2895774,0.50417876,0.32920003,0.4384506,-0.058719862,0.053764343,-0.3143838,-0.95441765,-0.032827858,0.323037,-0.05501038,0.082763895,-0.30034828,0.18645014,
source,-0.36129263,0.02253199,0.11717415,0.035445355,-0.020589272,-0.18647195,-0.010479395,0.3383272,-0.2017023,0.031761196,0.18672729,-0.2975896,-0.69593215,0.10791107,0.22658505,-0.10353016,0.2263986,0.26374182,0.3217865,0.11552006,0.042590167,-0.20831099,-0.1243516,-0.23439379,0.2507831,0.05402153,0.106352106,0.18088698,-0.6039928,0.17785722,
addText(),-0.69093645,-0.04463784,0.025256986,-0.13844565,0.021151546,-0.5643125,-0.23703063,0.26790327,-0.20064063,0.07081135,-0.03574182,0.020067997,-0.60123175,0.35212365,-0.002612963,-0.057094958,0.46377814,0.6008298,0.044502214,0.15509221,0.0235818,0.07605717,-0.12195883,0.038277704,0.49307966,0.030962497,0.0008262152,0.25531915,-0.4395476,0.1332099,
addAll(),-0.86975783,0.18535295,1.0166538,-0.0530642,0.37573186,-0.28638184,-0.16919358,-0.020270947,-0.2842603,0.084977396,0.64271325,-0.13144305,-0.6501883,0.41506165,0.2750057,0.17252974,0.132192,-0.21369883,0.6458424,0.14283068,-0.661289,0.0036477437,-0.47563717,-0.4997173,0.4717596,0.33143035,0.37163147,0.031587686,-0.58896875,0.50434285,
appendChild(),-0.85941136,-0.19079866,0.19061609,0.35944274,0.44116506,-0.124374025,-0.09752145,0.21964605,-0.39892197,0.0077157137,0.23246711,-0.11695293,-0.017176088,0.16378328,-0.04878798,-0.21661156,0.22254768,0.36535951,0.07732539,0.5365237,-0.22937396,-0.22609821,-0.755801,-0.41037244,0.10258169,-0.5284354,0.2259679,0.02722993,-0.4378254,0.15236236,
run,-0.010012997,0.00065115624,0.04474765,-0.1443916,-0.023870723,0.09664753,0.040562738,0.31541207,-0.48785093,-0.08587503,0.3495673,-0.4975765,-0.44555837,-0.14341737,0.2726997,-0.42509526,0.30869576,0.4162117,0.17708501,0.32090673,-0.005628947,-0.3831128,-0.49252328,-0.6214945,-0.017160667,-0.3253163,-0.054571755,0.030963613,-0.48057273,0.18171132,
LogOutputStream,-0.13326116,0.028748555,0.010441551,-0.08857115,0.13868678,0.07596494,0.117301084,0.50781935,-0.5176435,0.076780826,0.39374134,-0.51685184,-0.27164382,-0.09547335,0.40578324,-0.53552955,0.20811138,0.44902274,0.30264828,0.19671844,0.28870368,-0.59358466,-0.42634752,-0.73191607,0.01030983,-0.30540356,0.033014663,-0.029175354,-0.458105,0.053686306,
getImplementation(),-0.24626715,0.32427484,0.29714772,-0.219651,0.50804424,-0.31448734,0.15624769,0.18946448,-0.3882267,0.09444309,0.3772472,-0.31974015,-0.47661394,0.1620167,0.4299287,-0.035991874,-0.003953379,0.03338187,0.44071522,0.1697876,-0.24247812,-0.17733613,-0.4811021,-0.8730734,0.29915425,0.2896446,0.24722873,-0.0527681,-0.607785,0.42109242,
org.apache.tools.ant.taskdefs.condition,-0.40714282,-0.21456301,0.21044119,0.07668826,-0.008746223,-0.39709663,-0.058465663,0.50819016,-0.00030712603,0.013885143,0.36872017,-0.21894437,-0.75875396,0.19772248,0.3668809,-0.16042812,0.13605297,0.42583206,0.19667698,0.12899882,0.1494738,-0.30253437,-0.1132671,-0.07771346,0.3102968,-0.036439713,0.05289481,0.13491698,-0.5730179,0.19716333,
getCommentFile(),-0.3034734,0.41298226,0.07950556,-1.106456,-0.12705895,-0.3653199,-0.12796304,-0.17476822,-0.7937758,-0.6754087,0.35652652,-0.5398183,-1.1019236,-0.5789017,0.25726676,-0.15026416,0.58545613,1.329336,-0.091517374,0.6653062,-0.79147327,0.34105393,-0.16535752,-0.75759923,-0.14794056,-0.0011878335,-0.33081448,0.6835839,-0.29483378,0.852283,
org.apache.tools.ant.types.resources,-0.5559897,-0.07218183,0.34457362,0.2592087,-0.16659583,-0.1215827,0.1657311,0.42650884,-0.18263522,0.21615395,0.31372783,-0.04092811,-0.9383452,0.03619688,0.16834362,0.044791218,0.3544371,0.22692518,0.18190308,0.072152525,0.12924139,-0.049386047,0.10959518,0.004872263,0.30858245,0.044755697,0.110788636,0.25058776,-0.35853937,-0.04515148,
pattern,-0.69517577,-0.24210548,0.18724757,0.05234652,-0.15222731,-0.4318377,-0.04703677,0.19790044,-0.22716315,0.044873904,0.017242555,0.12172541,-0.64500856,0.1570734,-0.052168448,-0.03626225,0.3231274,0.39391237,-0.013223906,0.16776343,0.15023912,0.14587186,-0.0457608,0.06854329,0.4764337,-0.11446509,0.098102674,0.40282813,-0.40064892,0.13792856,
toBoolean(),-0.37333086,-0.068771616,-0.058090046,-0.5649063,0.3656995,-0.49038437,-0.4397026,-0.30062285,-0.22393982,-0.6728183,0.029152608,-0.28123707,-0.3469692,-0.15498485,-0.044259988,-0.30020565,0.37632185,0.5149337,0.40019956,0.21974085,-0.7340023,0.23887715,-1.1621672,-0.5788444,0.30705255,-0.35483912,-0.089356735,0.2368562,-0.692808,0.89198893,
start,-0.534794,-0.37739643,0.21016121,0.13204324,-0.1964585,-0.37195104,-0.44991,0.10233515,-0.33266947,0.012607964,0.39578256,-0.11103664,-0.53541625,0.16317303,-0.10834317,-0.45056018,0.41668516,0.46962944,0.07325349,0.09228071,0.22142719,-0.38323173,-0.27062708,-0.024446784,0.5440573,-0.6519619,0.18802899,0.28413248,-0.44233954,0.21112476,
setProperty,-0.4372978,-0.1414628,0.10815898,-0.20544998,0.1535738,-0.5466748,-0.19848782,0.64610606,0.15291171,-0.030187981,0.062876076,-0.3481096,-0.7915076,0.592862,0.4058628,-0.22128922,0.12964354,0.5244139,0.30987906,0.09072465,0.16156459,-0.21502653,-0.26710254,-0.06703771,0.46075973,0.12432621,0.03179176,0.12975399,-0.74155194,0.16792065,
setProperty(),-0.28959632,0.111973636,0.15521617,-0.28809145,0.47583646,-0.14290227,0.005205962,0.2914173,-0.40810975,-0.21312158,0.14658248,-0.42084616,-0.10584802,0.2975087,0.30676126,-0.51933366,0.13575354,0.35551956,0.5563111,0.38764402,-0.16951557,-0.18842146,-0.7843315,-0.8530472,0.1194447,-0.14139006,0.13601896,-0.07127289,-0.7615153,0.38797885,
isJavaVersion(),-0.72413796,0.36039028,0.09966131,-0.3542996,0.58919585,-0.50351197,-0.4972484,0.1981839,-0.0037665977,-0.44665655,-0.12722118,-0.13535532,-0.8838288,-0.6424927,-0.053755783,0.26884857,0.6248223,0.6012623,0.7059486,0.03798662,-0.20110013,0.6344841,-1.1415709,-0.1948386,0.6381178,0.4098844,0.31949967,0.26006153,-0.28618228,0.30949518,
String,-0.41129583,-0.1662094,0.38980445,-0.5094437,0.090980604,-0.49590987,-0.4127349,-0.004768972,-0.26247743,-0.062038817,0.20088895,-0.068193085,-0.12867513,0.19776614,0.021141848,-0.54109555,0.548938,0.38548073,-0.0014691988,0.1720672,-0.07146146,-0.2198412,-0.83270264,-0.31356344,0.5593526,-0.67710274,0.2264233,0.113406874,-0.53403825,0.28107432,
setClassname(),-0.18749358,0.23182607,-0.20618357,-0.66686636,0.15420778,-0.22414415,0.041034345,-0.21595627,-0.5170504,-0.5501076,0.02033331,-0.3977526,-0.4745278,-0.4745235,0.07198246,-0.13002202,0.4305604,0.64433783,0.42659503,0.30287108,-0.49815634,0.3305506,-0.50577927,-0.6621415,0.025971938,0.08640796,-0.025827803,0.3094896,-0.37292898,0.45793685,
getFailOnErr(),0.13604473,0.45694277,-0.22607817,-1.1566094,0.34180415,-0.08265831,0.38424417,0.17717513,-1.1747376,-0.23678042,0.06428516,-0.70077866,-0.42800006,-0.6123667,0.6062001,-0.5907868,0.46684036,0.94426954,0.23669244,0.70240563,-0.2437628,-0.03974158,-0.73898,-1.3108107,-0.23787881,-0.08589477,-0.18443303,0.23932892,-0.29137796,0.4605385,
