name,vector_0,vector_1,vector_2,vector_3,vector_4,vector_5,vector_6,vector_7,vector_8,vector_9,vector_10,vector_11,vector_12,vector_13,vector_14,vector_15,vector_16,vector_17,vector_18,vector_19,vector_20,vector_21,vector_22,vector_23,vector_24,vector_25,vector_26,vector_27,vector_28,vector_29
MemberReference,-0.03333323,-0.03744022,0.42003152,0.083490685,0.3698114,-0.30444062,-0.33809048,0.2121567,-0.7944451,-0.61829084,0.37818086,0.025069544,-0.26799875,0.13360713,0.18355992,0.103166714,0.37093645,0.18644242,0.2812156,-0.89137983,0.5162712,0.23703426,-0.5867019,-0.21169187,0.4687189,-0.4424994,-0.7262913,0.17689098,-0.16290319,0.8789081,
ReferenceType,-0.3026089,-0.8217493,-0.23411126,-0.13882521,0.26557973,-0.21595122,0.015979534,0.4811532,-0.46598622,-0.41137633,-0.36027122,-0.1186543,-0.30306026,-0.28792155,0.19983701,-0.07281201,0.6165865,0.65521073,-0.20017467,-0.71407133,0.24695039,-0.25429565,-0.48602432,0.15329601,-0.040675547,0.0029304656,-0.2828768,-0.04895986,-0.19765235,0.76451635,
StatementExpression,-0.14546897,0.108751476,0.2851902,-0.20999363,0.3916533,0.12203134,-0.0028609182,0.100791514,-0.7111574,-0.52383834,0.08894711,0.55289096,0.062718734,0.2657508,0.20194148,0.45086443,0.2947533,-0.13416348,0.16651978,-0.37066975,0.7222448,0.1351134,-0.287308,-0.1163838,0.3009584,-0.8234616,-0.703917,0.65660393,-0.5100034,1.0068423,
VariableDeclarator,-0.35665718,-1.3993518,-0.052253924,-0.08588153,0.15854059,-0.5966336,-0.41787443,-0.44290736,-0.39411992,-0.34897444,0.24370243,0.0732875,-0.30152002,-0.4782111,0.46981245,-0.026232556,0.15945005,0.71707773,-0.0022691046,-0.66929644,0.54986763,0.119691014,-0.039603405,-0.101471364,-0.5300071,-0.3511616,-0.22566514,-0.20389803,-0.61755246,0.99663913,
BasicType,-0.37172496,-0.38235587,0.050072275,-0.2572265,-0.31076986,-0.5185523,0.06332907,-0.20684393,0.24590136,-0.3241365,0.6377688,-0.17518422,-0.5716506,-0.30372232,0.1119081,-0.2033834,0.87405854,0.3344367,0.29611033,-1.3084323,0.83472264,-0.2857151,-0.41851592,-0.15448718,0.1465183,-0.26291296,0.2582421,0.055323917,-0.30881894,0.68352383,
IfStatement,-0.13460699,-0.46308124,0.35309082,-0.08682487,0.40535697,0.018034127,-0.012044992,0.12754606,-0.78832084,-0.24604769,0.7175291,0.11734434,0.11321491,0.3493044,-0.2699816,0.072792865,0.35627234,-0.0148533005,0.31492376,-0.43225017,0.29942918,0.689248,-0.5204426,-0.5610145,-0.05070194,0.10813415,-0.8670223,0.4211992,-0.5087791,0.92969173,
BlockStatement,-0.34210634,-0.74465287,0.19110872,-0.2606388,0.4094949,0.066329084,-0.5225091,0.042240173,-0.91864485,-0.2899319,0.78780186,-0.15165506,0.190343,-0.15355204,-0.1551136,0.035653286,0.1925146,-0.14298965,0.6138065,-0.36866254,0.5377756,0.59036064,-0.49954212,-0.559988,0.10873892,-0.1680312,-0.88427705,0.2159165,-0.6845514,0.74859697,
ReturnStatement,0.5599988,-0.10445475,-0.23764332,0.34210026,-0.18605211,-0.49069467,0.24782033,-0.03431565,-0.46327916,-0.839498,0.73559874,-0.2829021,-0.64708525,-0.45755073,0.0077263424,0.2902068,0.6363829,-0.26934847,0.13144533,-0.5002055,0.22959873,-0.4998758,-0.7767776,-0.39440748,-0.31229,0.021856453,0.09979892,0.6119036,-0.057164107,0.6224757,
append(),-1.1421683,-0.597165,-0.44297257,-0.010497811,-0.46471673,-0.26399407,-0.80537266,-0.15553758,-1.0629263,-0.4371065,0.48455516,1.0557158,-0.83208776,-0.99855894,-0.3333559,0.9223241,0.33593476,0.24555065,-0.18121415,-0.15598951,0.687642,1.7760222,-1.3272358,0.18673232,0.8530416,-0.037022986,-0.4638069,0.042084612,-1.288019,0.82681185,
CatchClause,-0.9505215,-0.41553938,-0.9117545,-1.1036863,0.7387818,-0.12562871,0.15002826,0.6248381,-1.245208,-0.63286984,0.38498843,1.0941128,-0.10343393,0.6367357,0.27702725,-0.5422358,-1.0135527,-0.07479245,0.3707793,0.07036786,0.44588923,-0.98013043,-0.8150204,-0.1581966,-0.16276702,-0.24324794,-0.43753296,-0.18794325,-1.1934811,0.5233226,
ForStatement,-0.8265785,-0.8000974,1.1675164,-0.6077035,0.3159037,-0.1694674,0.5786362,-0.4723005,-0.43354738,-0.97058696,0.94791204,-0.21761173,-0.25867608,-0.31210795,-0.27697623,0.16358334,0.37313387,0.1535255,0.0020205947,-0.4602595,0.6456088,0.82538325,-0.053313613,0.19781706,-0.19780487,-0.12283488,0.014482187,0.07488038,-1.0160267,1.0621763,
ForControl,-0.69897294,-0.9987686,0.5917643,-0.16040225,-0.03181513,-0.5025715,0.44578364,-0.28446138,-0.48693767,-1.4762912,0.96486896,0.7920003,0.11194901,0.010576483,-0.24113283,-0.08550747,0.44891763,0.023773732,0.63222516,-0.29148823,0.70791847,0.6473772,0.07557665,-0.15810175,-0.19600156,0.49266148,-0.17264012,0.37744558,-0.7064566,0.7720456,
SwitchStatementCase,-1.5014317,-0.27400792,-0.9552739,0.3504211,0.83434457,-1.010148,-0.0035875037,-0.2901902,-0.6096236,-0.40865296,1.0105636,0.06628426,-1.0437726,-0.20545731,-1.12665,0.7578596,-1.0345567,0.2596714,0.8749083,-0.4602759,0.2738397,0.3592969,-1.1609685,0.4523224,0.99237686,0.18795976,-0.010119047,0.4478235,-0.28618613,0.3012155,
TryStatement,-0.39614907,-0.6514267,-0.19420706,-0.304053,0.57730186,-0.25137708,0.06975594,-0.10757363,-0.70761454,-0.9284888,0.24364467,0.62685955,-0.15801713,0.17106682,0.32866463,-1.0650058,-0.5061227,0.4819303,0.13218772,0.21735464,0.17418018,-0.71867335,-0.3298971,-0.37652463,-0.016541531,-0.35989156,-0.3400759,0.104668945,-0.6542772,0.5183863,
BreakStatement,-1.445334,-0.49033248,-0.39005482,0.110795125,0.7230512,-0.78674585,-0.23486626,-0.47884607,-0.6441507,-0.68170273,1.0928316,0.18621509,-0.926856,-0.36298454,-0.9320146,0.5634018,-0.72301954,-0.22975445,0.79764974,-0.17158528,0.090978384,0.32961687,-0.9708572,0.2649056,0.6908238,-0.12280431,-0.22632267,0.43698922,-0.19241141,0.46327493,
ThrowStatement,-0.18291222,-0.4227178,-0.7092156,-0.61870563,0.62426513,0.5678929,0.667794,0.70834947,-1.5685568,-1.4190748,0.4982511,1.4693892,-0.46034282,-0.2618693,-0.17972285,-0.8103423,-0.27534872,0.12243244,-0.3811297,0.0051397537,-0.07811571,-0.057368226,-0.5207464,-0.35784963,-0.08256324,0.14757214,-0.50825727,-0.6704736,0.47508377,0.6992117,
equals(),-0.7208737,-0.48243192,0.22247405,-0.08857729,0.6559868,-0.034882125,0.091918044,0.49784952,-0.7732168,-0.43182752,0.79150856,-0.40937597,-0.66380626,-0.2396343,0.2872584,0.4306095,0.18814212,0.7908888,0.35621905,-0.084078334,-0.09644319,0.81227475,-1.1136184,-0.6426592,0.1424688,0.37495145,-0.28589734,0.56318325,-1.2499886,-0.3896042,
println(),-0.404934,0.055325404,-0.5078463,0.95895743,0.71312696,0.33024412,1.0066197,-0.87428695,-1.5532589,0.30833972,1.0488149,0.32390034,-0.14094967,-0.15034544,-1.3829669,-0.57601374,0.10522991,0.21946551,0.09565625,-0.09797517,0.9640959,-0.041922167,0.0309994,0.25157583,-0.10490663,-1.0555037,0.12707175,0.13617735,-0.9490247,-0.2913538,
put(),-0.9172975,-0.53622013,-0.030186865,0.7484656,0.2771642,0.36809617,0.35918373,0.42861137,-1.3805827,-1.029252,0.37328953,0.2455655,-0.24981822,0.5317229,0.97165245,-0.050115917,0.067473255,0.9165376,-0.45448,0.5271595,0.597244,-0.7318531,-0.56215185,0.29735786,0.39451027,0.32867566,0.17861159,0.5894757,-1.9363436,1.5905315,
WhileStatement,-0.88019615,-1.1500806,0.495876,0.13433535,0.1081013,0.76217,-0.74580747,-0.12797146,-0.26139793,0.06999428,1.0413622,0.47622228,-0.9568568,0.26834458,-0.09751677,0.4710829,-0.21225534,-0.4434321,0.82475305,-0.25398326,0.120026164,0.17353225,-0.81749594,-0.021412246,-0.56429434,-0.17739326,0.05331148,0.40049154,-0.5251479,1.2099584,
e,-0.54036885,-0.034997534,-0.66889954,-0.6116691,1.0719525,-0.32409605,0.27555543,0.47471175,-1.078704,-0.74792296,0.33321834,0.83012974,0.068912774,0.2578412,0.18258858,-0.77213097,-0.40385544,0.31194797,0.19529493,0.31401148,0.5544917,-0.47969222,-1.0932543,0.18393154,-0.071624205,-0.5302535,-0.3136052,-0.17922288,-0.95309883,0.48821044,
elementAt(),-0.78692657,-1.0759089,0.6307399,-0.03388155,0.15507591,-0.31541023,0.6332857,0.26538205,-0.97489893,-0.9749988,0.8344385,-0.019824859,0.39741746,-0.062037766,-0.433606,-0.39960718,0.45368513,-0.8664745,0.36552796,-0.20742643,0.7570082,0.9885236,-0.1799345,0.2884778,-0.0049071037,-0.087867394,0.081889026,0.43757948,-0.80296814,0.30109957,
toString(),-0.14157732,-0.31015414,-0.40892532,-0.4845988,0.64330155,-0.010997699,-0.51576537,0.1599944,-1.0327018,-0.80240244,0.30703408,0.57826644,-0.13807838,0.15081902,0.041210886,0.1408056,0.27200302,-0.35796613,-0.06995218,-0.5333399,0.86034214,-0.02640439,-1.3333395,0.11649191,-0.31061405,-0.069344595,-0.4337777,-0.22707047,-0.93720657,0.52413267,
size(),-0.7211061,-1.1330128,0.6752756,-0.18055473,-0.041348595,-0.39586085,0.3955455,0.047776513,-1.096957,-0.953528,0.24872553,0.24039264,0.36068,-0.048346024,0.048622657,-0.28118762,0.52058476,-0.4193418,0.19156401,-0.23193528,0.7751197,0.83423764,-0.053446453,0.47667426,-0.07040287,-0.35152653,-0.019512482,0.2453308,-1.1621192,0.45433336,
name,-0.25426745,-0.23460801,-0.6265971,0.2559502,-0.11573193,0.53997093,1.0926474,0.34263566,-0.83329225,-0.1873986,0.31224734,0.22802338,-0.4441073,0.46194005,0.4756933,-0.08512077,0.392268,1.3565029,-0.33724254,-0.72406566,0.3904631,-0.08810764,-0.65519583,-0.50570947,0.78333503,0.37629637,-0.18590395,0.2652022,-0.46970728,-0.16944364,
length(),-0.41074055,-0.61623615,-0.1547987,-0.7054524,0.2868318,0.20367195,-0.6128457,-0.23745587,-0.64650315,-0.8207982,1.0536904,0.5366186,-0.85711306,-0.10316672,0.009612022,-0.4814906,0.037494678,0.38762152,0.11525374,-0.4824631,0.3049283,0.38588798,-1.0388947,-0.96424216,0.1990897,-0.012655434,-0.05461364,-0.054398604,-0.9181284,-0.12915915,
classGen,-0.03463398,-1.3830959,-0.6506583,0.6662771,-0.5405299,-0.14043021,-0.08822957,1.4257392,-0.4723082,-1.0543625,0.73447585,-0.00718347,-0.34900737,-0.73963374,-0.023918401,0.30902073,0.46847528,-0.37291726,-0.31394324,-0.5784243,1.0126215,0.7324338,-1.6369468,0.6445878,-0.3073161,0.23639968,-0.46962106,-0.552043,-1.8766196,0.931118,
node,0.26530132,-0.39286503,-0.36134768,0.78474855,-0.3355497,0.21746784,-0.17440051,0.29706445,-0.017149104,0.09433556,1.1590089,-0.10611432,-0.83048177,-0.23245381,-0.0459201,0.2011983,-0.057633113,0.117484145,0.84658504,-0.9925599,0.34938264,-0.85481083,-1.0715454,0.21698727,-0.14241128,-0.28346395,0.17047872,0.22069803,0.32061172,0.7749689,
addElement(),-0.6524048,-0.86980605,0.21262224,-0.09525094,-0.11428022,-0.3482164,0.21499921,-0.32108495,-1.5563889,-1.019618,0.5026663,0.028112639,0.026128147,0.25527546,-0.033661168,0.17908761,0.31631505,-0.20497121,0.19701274,0.075687,-0.6031947,0.07031142,-0.29458612,0.56736624,0.0045978595,-0.5816534,0.2263562,0.75612026,-0.86805403,0.5964018,
get(),-0.6471545,-0.9814973,0.32434976,0.3074682,0.14251293,-0.13148034,0.23374541,0.08897532,-0.85837346,-0.66688925,0.47604805,-0.17495175,-0.3037315,0.7079335,0.42580813,0.13723493,0.084466554,1.0135105,0.020273251,-0.14824006,-0.14872202,-0.15416244,-0.84010017,-0.10136149,0.15273134,0.38729534,0.18003108,0.59491855,-0.939732,0.59907764,
methodGen,-0.35634378,-1.5209459,-0.5191046,0.8430357,-0.5508962,-0.3259731,-0.06354025,1.5694702,-0.27241552,-1.1889685,0.80663395,0.09239045,-0.34734607,-0.85545516,0.030553913,0.27640817,0.3958511,-0.23871495,-0.33581346,-0.574611,1.056481,0.74507874,-1.6202567,0.65333825,-0.15905057,0.35878134,-0.503122,-0.6958686,-1.7960062,0.9216587,
substring(),-0.6830316,-0.660431,-0.7816714,-0.64051956,0.46781534,-0.104296796,-0.6138669,-0.08406757,-0.7963988,-0.7960707,1.3024844,0.06850033,-1.3597302,0.28064144,0.023540117,-0.2993378,0.12160462,0.27270195,0.074815035,-0.42145774,-0.22469218,0.12933852,-0.99790823,-1.0290426,0.16235466,0.18861693,-0.055306382,0.4566502,-1.055259,0.043495763,
write(),-0.75335824,0.6686564,0.42732927,-1.0628027,0.43173337,-0.2975852,0.29399046,-0.22216094,-1.3340654,-1.305276,1.3055015,1.0055689,-0.7845094,0.28303358,-0.4073246,-1.6930771,0.3878136,0.46429765,0.44289988,-0.3034679,1.2931296,0.13531859,-0.3127002,-0.41480443,0.5258658,-0.42620358,0.0144446585,0.19164272,-1.8706846,1.0935891,
getInstructionList(),-0.71270406,-1.7403663,-0.30585644,1.0799803,-0.70458496,-0.4502445,-0.23699793,1.0495087,-0.17828012,-0.9959302,0.64777124,0.10737557,-0.6372065,-0.8886344,-0.07751256,0.6870075,0.36752373,0.22295262,-0.42795694,-0.5482816,1.0858877,0.88185763,-1.4564954,0.6325195,0.26574445,0.33501348,-0.51014507,-0.27750432,-1.5252668,0.89130825,
value,0.39655244,-0.17282146,-0.21949852,0.15966032,-0.3547387,0.61635756,0.31524858,0.3550364,-0.42544633,-0.114729494,0.6392391,-0.117074355,-0.33599713,0.34440547,0.48251864,-0.28734642,0.46670878,0.9339378,0.0022638529,-0.7528927,0.410561,-0.16681235,-0.67187893,-0.553838,0.14705466,-0.112463616,-0.14435343,0.48459554,-0.6032613,0.32906917,
charAt(),-0.7171296,-0.37966976,0.05545331,-0.7436249,0.4911665,-0.1576295,-0.81987906,-0.21182251,-0.6490605,-0.6979663,1.3278047,0.45408377,-1.035516,-0.018029993,-0.37282103,-0.45522916,0.12073616,-0.026257372,0.45131573,-0.8497264,0.6993012,0.80229115,-1.0931858,-0.7899579,0.29124516,0.0039680954,-0.05440613,0.21433897,-1.0035243,0.24911009,
getConstantPool(),-0.5965542,-1.8338983,-0.3555858,0.9219305,-0.7217027,-0.38964224,-0.06666898,1.0145013,-0.15905215,-0.9663349,0.5637251,0.1610222,-0.532875,-0.937676,0.08238106,0.63112307,0.4728371,0.13818075,-0.40058404,-0.6029539,1.0919724,0.8581615,-1.2743435,0.70505345,0.18810883,0.2344101,-0.5815466,-0.4166412,-1.4179015,0.9994038,
addMethodref(),-0.8446446,-1.0924642,-0.39593887,0.5395621,-0.7828559,-0.35864612,-0.45739123,0.5527754,-0.40099737,-0.70658183,0.6996498,0.2881161,-0.9338799,-0.93919307,0.1648171,0.8072959,0.3521901,0.5060678,-0.117598504,-0.63827103,1.4180304,1.606474,-1.0153373,0.27194926,0.76937485,0.18577267,-0.59227085,0.34241232,-1.5776812,0.9543457,
xctxt,-0.35564527,-1.1805226,-0.08439159,0.64743984,0.14892736,0.20202936,1.080198,0.22928171,0.018361473,-0.46773747,0.6466086,-0.15971929,-1.2456728,-0.16210318,-0.103695035,-0.86549526,-0.22140452,-0.27320004,0.86104983,-0.2771504,-0.8036676,-0.34354538,0.04003418,-0.26784673,-0.38800365,-0.040471524,-0.08311563,-0.5195051,-0.14250499,0.5408675,
type,0.33563948,-0.58356863,-0.33099157,1.0065423,-0.6577353,0.35807672,-0.11026993,0.7052839,0.21841025,-0.27020666,0.52088237,-0.020524757,-0.45401862,-0.4221924,0.18361749,0.5246764,0.28159416,0.10613275,0.19475673,-1.108877,0.7346618,-0.0791,-1.1779183,0.37579095,-0.1692523,0.027237328,-0.077393584,0.030697359,-0.19665961,0.80473626,
uri,-0.023210455,-0.920797,-0.38037676,0.061421808,-0.19107497,0.9399413,0.8105528,0.6158997,-0.9252814,-0.3211434,0.49997598,0.008177583,-0.60377485,0.52235997,0.6264519,-0.50444746,0.43199775,1.0902975,-0.17296204,-0.33507407,-0.33020744,-0.32803327,-0.51669014,-0.34568837,0.53844804,-0.0024641338,-0.3004877,0.16872752,-0.74177915,0.09038094,
translate(),-0.79927415,-0.8488025,-0.24596138,0.6685222,-0.38631016,-0.1750091,-0.49324888,0.88172424,-0.76758605,-0.84165156,0.8058156,0.44257104,-0.3344754,-0.72061795,-0.47173315,0.8328675,0.31355098,-0.10864051,-0.23951998,-0.39452133,1.1562574,1.3612486,-1.1441761,0.54224986,0.2521857,-0.00682981,-0.5559229,0.23750831,-1.3892496,1.1304151,
ErrorMsg,-0.20784001,-0.6440444,-0.7399778,-0.12607612,0.7192484,-0.14409278,-0.12785003,0.80672324,-1.2232633,-0.66962713,0.7501383,0.6947614,-0.17006342,-0.40541667,-0.50468355,0.1598617,0.2680418,-0.011384281,-0.52430683,-0.1452269,0.7019971,0.17408028,-1.1397094,0.23579025,-0.59614915,-0.18601552,-0.81210047,-0.70886487,-1.155951,0.36341026,
TransformerException,-0.6489917,-0.778292,-0.6200279,-0.4772957,1.119783,-0.26986635,0.7096667,0.5169719,-1.1982359,-0.52402806,0.88477206,0.76008475,-0.5706256,-0.08644714,-0.6523378,-0.80928844,-0.4281054,0.22091042,0.15215358,0.4222678,-0.13118894,-0.4870855,-0.73462796,-0.17596938,0.1487071,-0.36984316,-0.6544566,-0.57758456,-0.48058587,0.3096233,
handler,0.032211613,-0.6085997,-0.65870535,0.041596293,-0.16825221,0.6845011,0.55442613,0.21994205,-0.29185897,0.07442058,0.22860818,0.4450346,-0.84038025,0.16628183,0.32742274,-0.3165385,-0.25090155,1.1745362,-0.002780937,-0.34291354,-0.14046313,-0.6577248,-0.86224556,-0.117122956,0.7911997,-0.18136215,-0.46319386,-0.037671357,0.18022265,0.6082076,
indexOf(),-0.42047676,-0.7193055,-0.19921261,-0.4860485,0.32953924,0.12968777,-0.2197341,-0.23722464,-0.75849104,-0.6485518,1.3502669,0.10085136,-1.4283462,0.038745634,-0.02639309,-0.41489547,0.30960426,0.3004788,0.21982145,-0.5979992,-0.22451185,0.31155878,-0.64234287,-1.0811516,-0.0068721245,0.0009787884,0.072979644,0.16773453,-0.72196865,-0.0031677727,
org,-0.0035672518,-0.8747654,-0.48969942,-0.26970506,0.6676345,-0.032509446,0.8171382,0.6252733,-0.82760155,-0.3274756,0.7396003,0.6757517,-0.60931367,0.051508475,-0.07238069,-0.96887326,-0.1299227,0.31688777,0.15628298,0.32054225,-0.098498456,-0.7121232,-0.8089528,0.0030354692,0.23274614,-0.31952104,-0.5110206,-0.53552526,-0.18957649,0.5486284,
error(),-0.39257136,-0.21249002,-0.43385142,0.04483841,0.95915097,0.14217527,0.6787186,-0.1728066,-1.0039192,-0.05494737,0.8403039,0.28949636,-0.9757976,0.18858452,-0.7298823,-0.52357143,-0.4593704,0.5164655,0.56075597,-0.078885846,-0.37147197,-0.5259412,-0.46421754,-0.31368634,0.6295988,-0.33202115,-0.27360338,0.18923809,0.07194324,0.4496403,
nodeHandle,-0.45066503,-0.3369666,-0.5662098,0.6292477,-0.17140913,0.17087305,1.2446212,-0.31108353,-0.018249584,-0.15676554,1.0361756,0.048088145,-1.4300468,-0.596482,-0.9293517,-0.352759,-0.42119017,-0.018130459,1.0389404,-1.0339032,0.12846145,0.4108118,-0.21016337,-0.15858674,0.4339233,-0.32856676,0.3680183,-0.015926637,0.4676469,-0.08185092,
getName(),-0.40250546,-0.9955334,0.038808923,0.24820681,0.7170349,-0.080759026,0.10831891,0.32403877,-1.2019408,-0.4596012,0.44875297,-0.1387067,0.1705584,-0.15033674,0.08988617,0.44853702,0.36549917,0.11384324,-0.09839416,-0.08131295,0.30587256,-0.06850427,-0.9539612,-0.1255182,-0.31758168,0.12322074,-0.36551318,0.043517526,-1.0882053,0.21493402,
SwitchStatement,-0.7815879,-0.6145415,-0.05110354,0.36475712,0.45810756,-0.6454046,0.037218675,-0.21968552,-0.32614318,-0.3616417,0.8388219,0.26963583,-0.6362479,-0.3153322,-0.5874681,0.6396481,-0.37324739,0.14577237,0.66971076,-0.64071417,0.46654806,0.086368494,-0.8312656,0.5011282,0.38726243,-0.013047036,-0.2444681,0.16182575,0.28935924,0.75832784,
Vector,-0.5196961,-1.4538192,0.5074758,0.27017218,-0.38706377,-0.20621012,0.15678158,-0.16401735,-0.77129745,-0.82654124,0.06629704,0.078127064,0.089107044,0.24991941,0.3908966,-0.32989562,0.5260983,0.025860488,0.082204744,-0.020151414,-0.118614145,-0.18372096,-0.22804956,0.28839505,0.0048338063,-0.36199316,0.22925037,0.20981477,-1.2221771,0.6309657,
ch,-0.17358783,0.26981196,-0.19981043,-0.69173354,-0.22699189,0.5097771,0.82501584,-0.44822115,-0.08686321,-0.31651667,0.7329175,0.48332006,-1.2379831,-0.2624774,-0.19704337,-1.2088106,0.11416498,0.7353546,0.59421915,-0.62641674,0.7722069,0.24562758,-0.2856971,-0.74818975,0.83618295,-0.5065452,0.19758399,-0.106211945,-0.25316566,0.3716299,
execute(),-0.7890259,-0.94691896,0.18073711,0.30130285,0.36573654,0.08659799,0.7751894,0.19926675,-0.00613014,-0.6866548,0.95130295,-0.11858734,-1.458356,-0.0768689,-0.23599844,-1.0289087,-0.12108652,-0.1950775,0.80563104,-0.24707241,-0.8442592,-0.21105129,-0.0671691,-0.6667956,-0.4143367,0.08683065,-0.12514704,-0.50358117,-0.5358865,0.24382737,
org.apache.xalan.xsltc.compiler,0.31484488,-0.7458887,-0.11982972,0.6456935,-0.6394956,0.48770252,0.93423456,0.10843684,-0.008717043,-0.62950844,-0.048418853,0.09790967,-0.19427891,-0.36755952,0.001573514,-0.45908144,0.77828175,0.20342688,-0.43691638,-0.55380523,0.7335142,0.07903297,-0.1676836,0.07732322,-0.5322851,-0.28787595,-0.05859482,-0.57279444,-1.3774673,0.07466024,
prefix,-0.17701699,-0.5719158,-0.03197583,0.10516931,-0.025032105,0.9441364,1.0153201,0.07579725,-0.92023516,-0.4584429,0.6104424,-0.10314273,-0.77930325,0.43578044,0.4983967,-0.44967556,0.47091836,0.8002425,0.026720952,-0.3255534,-0.18638726,-0.269819,-0.34045717,-0.66080445,0.54039097,-0.021280345,0.24323754,0.29976523,-0.88088167,-0.060557257,
Hashtable,-0.3297265,-1.2891722,0.16967085,0.5180603,-0.23329017,0.043309644,0.14438568,0.11465883,-0.5873874,-0.33127472,0.17697267,0.047939625,-0.33753896,0.511046,0.76824117,-0.2802178,0.14646249,0.84743917,0.015453029,-0.11319089,0.35729808,-0.82709444,-0.33872083,0.26458907,0.16938753,-0.1732257,0.09680587,0.16121581,-1.1551063,1.1128709,
nextToken(),-0.5697239,-0.606204,0.32882252,-0.04114598,0.62208325,0.23345323,-1.0343202,-0.2285186,-0.7972832,-0.08974875,1.2689481,0.24764039,-0.8406236,0.3876946,-0.30846876,0.2375846,0.26246396,0.46636432,0.44445378,-0.3519555,0.4199939,-0.11131214,-1.1430146,-0.6223994,0.40655398,-0.26766092,-0.23318276,0.9911063,-0.88580984,1.0116056,
PUSH,-0.9934719,-0.8152348,-0.2766557,0.45559072,-0.3584477,-0.3724187,-0.5423251,0.6014471,-0.6494319,-0.864085,0.7518112,0.39792955,-0.5081785,-0.57498455,-0.42032352,0.86790603,0.2659376,0.21875523,-0.19310641,-0.4080274,1.2988294,1.3764727,-1.4274623,0.49521536,0.62137395,0.08119165,-0.5239178,0.5290554,-1.5144458,1.2392561,
Integer,-0.69182783,-0.6918677,0.05853153,0.20358558,0.34643987,0.07551179,0.28566328,0.19949575,-1.4974318,-0.8242281,0.589195,0.21386337,-0.37777022,0.7012949,0.7567086,-0.05459471,0.078824505,0.8928762,0.031260498,0.1683636,0.596284,-0.6800558,-0.7705733,0.31542355,0.6391153,0.21951206,0.06681445,0.6157638,-1.6222883,1.3928736,
reportError(),-0.19492804,-0.73062956,-0.738854,0.276317,0.6051555,-0.010577714,-0.18704315,1.0092249,-1.3278785,-0.98583776,0.9309833,0.397454,-0.24593304,-0.50747013,-0.39875758,0.29836172,0.45373493,-0.12829557,-0.44541955,-0.18162104,0.53092456,0.21360472,-1.1492311,0.07113957,-0.76510555,-0.088600524,-0.71687984,-0.6083532,-1.6519936,0.40086457,
getType(),-0.0862481,-0.6841527,0.16688898,0.43058163,0.02814577,0.14256367,-0.19183393,0.66030157,-0.22466232,-0.5112497,0.9232713,-0.4207584,-0.6257144,-0.5343182,-0.1751813,0.645882,0.42217308,-0.27841404,0.3541017,-0.6588054,0.08390961,0.7827159,-1.1738062,-0.45986864,-0.39691317,0.25809035,-0.482213,0.0710501,-0.36877173,0.3117553,
next,-0.18976174,-0.7520472,0.5101305,0.97346497,-0.46258318,-0.025231613,-0.30571455,0.29294756,0.09743393,-0.49076247,1.2069448,-0.2604581,-0.9037025,-0.081783004,-0.17563295,0.080749676,0.23195943,-0.64104784,1.2290624,-1.3857461,0.62210464,0.15855944,-0.6689334,0.21182032,-0.06450451,-0.059214372,0.44888547,0.5592311,-0.4511303,1.1711788,
getNodeType(),-0.94757694,-0.8763744,0.17818257,0.5874085,0.54753894,-0.15691558,0.3030243,-0.16841201,-0.44412276,-0.06636265,1.1571337,0.11774395,-0.85364753,-0.10783975,-0.8008642,-0.14867292,-0.30114117,0.11409184,0.82043785,-0.4528076,0.08804598,-0.15160994,-0.1749273,-0.011331009,0.26739955,-0.31505045,-0.10144982,0.101212785,0.19132207,0.3421121,
arraycopy(),-0.21549365,0.03279312,0.37056306,0.31062475,-0.5291688,0.14708628,0.011009788,0.3448482,-0.22074024,-0.43029657,1.1160024,0.13433945,-0.7240554,0.22834705,0.1990986,-0.57398677,0.512484,0.57401353,0.63940185,-1.0873456,1.2218213,-0.027377069,-0.0020899214,-0.0390598,0.515748,-0.23108964,0.123352095,0.5458419,-0.799035,1.2878166,
getMessage(),-0.49378487,-0.5417747,-0.62908953,-0.18449596,1.2278876,0.03416107,0.6109402,0.19702877,-1.4037427,-0.15936631,0.6148682,0.75594074,-0.2325221,0.1545623,-0.73142666,-0.689744,-0.2265353,0.3891224,-0.15818685,0.23442788,0.5159307,-0.57359695,-0.717427,0.072549,-0.08068328,-0.61341196,-0.6130479,-0.5305983,-0.73236483,0.33279207,
next(),-0.40413815,-0.6223197,0.51941264,0.79476255,0.11435438,-0.22183573,-0.26465902,0.13689338,0.048115846,-0.1559603,1.2900114,-0.16045026,-0.9420661,0.067929745,-0.3551972,0.09949295,-0.006537218,-0.311891,1.2457006,-0.84014887,0.39744246,-0.16178963,-0.90565413,0.098522745,0.10517039,-0.19752765,0.2564195,0.5546072,-0.17589581,0.973264,
equalsIgnoreCase(),-0.7993404,-0.17145494,0.38669157,-0.10074919,0.96855295,-0.007732585,0.21096325,-0.2264301,-1.1681246,-0.40093294,1.0642748,0.22003394,-0.66662115,0.35466793,-0.41362184,-0.36844996,0.1328608,0.84391797,0.2852684,-0.19825833,0.34660476,-0.18909398,-0.40255716,-0.654657,0.30339083,-0.15229625,-0.23074757,0.4019388,-0.96032864,0.36660597,
translate,0.21518442,-1.280742,-0.48765063,0.5921547,-0.35793558,0.101003624,0.24389003,1.5850292,-0.7044185,-1.1319888,0.8708292,0.033498645,-0.30284306,-0.63673764,0.054326843,0.18316175,0.7011212,-0.24754839,-0.36913648,-0.6574546,0.6411749,0.63176227,-1.2997719,0.4320998,-0.68653035,0.17709884,-0.4400974,-0.590182,-1.4351249,0.81064147,
getDTM(),-0.861531,-1.2107505,0.19848621,0.46655306,0.39753243,0.15947573,0.404507,-0.0890503,-0.028979054,-0.15682591,0.822875,0.05537242,-1.0731857,-0.024339074,-0.4477174,-0.5710945,-0.22416793,-0.3058324,0.9678184,-0.3598641,-0.3798031,-0.26608717,-0.045841902,-0.15319902,-0.10336245,-0.2547954,-0.017081207,-0.092038065,-0.016417522,0.44688737,
getNodeValue(),-0.73868513,-0.67840415,0.06841452,0.22158837,0.7590609,-0.07417335,-0.0899897,-0.22215092,-0.4280936,-0.16309741,1.148914,0.10782108,-1.1316717,0.27918142,-0.38881835,0.2620691,-0.22886693,0.48851383,0.7680473,-0.43583572,0.03328392,-0.32341337,-1.1787276,-0.28047982,0.48580593,0.12874918,-0.0069285645,0.46925083,0.07687424,0.3709977,
typeCheck(),-0.08015524,-0.86253345,-0.093642466,0.6229085,0.13978413,0.15698794,0.25341848,1.5175124,-1.4939187,-1.2489673,1.367125,0.104572676,-0.33471417,-0.24717931,-0.3173277,0.07945334,0.65035033,-0.29516834,-0.14272326,-0.5824951,0.37904027,0.5578952,-0.84621155,0.36189067,-0.79933906,0.15294471,-0.32398295,-0.4363662,-1.1783476,0.6106269,
getNodeName(),-1.0664798,-0.7214092,0.18460047,0.27852362,0.95002395,-0.25180966,0.48980337,-0.48678222,-0.72058547,-0.27669,1.1117654,-0.078807816,-0.84899443,0.20853955,-0.83263236,0.06179903,-0.18499263,0.22587691,0.6970525,-0.48731047,0.022242857,0.038130544,-0.43201023,-0.22291325,0.42193484,-0.025890248,-0.024188641,0.42360687,-0.10383956,0.15932524,
length,-0.2279024,0.41265157,-0.023199508,-0.6609969,-0.38348702,0.45689306,0.5446234,-0.34779269,-0.12743416,-0.36808634,0.7426962,0.59913206,-1.1279398,-0.17802608,-0.08785914,-1.3376089,0.16997601,0.9343349,0.5951384,-0.68643606,1.1734546,0.21898519,-0.13019858,-0.54887134,0.87034035,-0.42654932,0.20580776,-0.004239927,-0.6022215,0.7303024,
characters(),-0.6716494,0.47237203,-0.25182894,-0.71977,0.31814492,-0.10752453,0.011076499,-0.44125357,-0.5574502,-0.47332972,1.133698,0.89389133,-1.4337364,-0.21735322,-0.5395208,-0.63527435,-0.26555312,1.032195,0.64990425,-0.35020828,0.6362994,-0.07471584,-0.75752383,-0.33701238,1.0274221,-0.3905977,-0.15506028,0.044087753,-0.04687792,0.6297863,
localName,0.23491699,-0.9949959,-0.5977436,0.17068647,-0.2017221,0.92607266,1.0308788,0.49222532,-0.89285207,-0.27109554,0.47638574,0.19610335,-0.75149184,0.17874314,0.42897668,-0.6062414,0.3466448,1.1718754,-0.34646392,-0.3916071,-0.20628981,-0.31741676,-0.5053161,-0.39068824,0.47423378,-0.13653283,-0.39067984,-0.20203269,-0.6199129,0.099953994,
ElemDesc,-0.9111977,-1.0664315,-0.23500995,0.88152224,0.21697125,0.34107402,0.26360586,0.31586996,-1.6941769,-0.85625255,1.2231549,0.032843348,-1.0133988,0.76531774,0.81430197,0.013533174,0.21560173,1.0674596,0.14876914,-0.06500105,1.122529,-0.7428931,-0.9842814,0.41418636,1.156344,0.40390015,0.06073159,0.68271345,-2.108761,1.965249,
context,-0.18153809,-0.9513124,0.3563425,0.73136574,-0.28192884,0.36864868,0.6268206,-0.16605146,-0.07979597,-0.43612498,1.050924,-0.25130507,-0.9376278,0.039948437,-0.13904542,-0.3522988,0.11402978,-0.2798863,1.1177192,-0.96873885,-0.036121458,0.09024062,-0.06769022,-0.25022295,0.020427145,-0.10827009,0.427252,0.40678084,-0.23804593,0.6717862,
stable,0.32764116,-0.90142953,-0.30498704,0.6813161,-0.06648159,0.3697119,0.43019527,1.1769403,-1.2669393,-1.2205914,1.2075317,0.0058702626,-0.30094978,-0.21321653,-0.05347945,0.051480204,0.7367036,-0.1366363,-0.34830332,-0.56182003,0.37399775,0.5514188,-0.82543445,0.032394826,-0.74735665,0.18809694,-0.2887667,-0.35269484,-1.3877195,0.22013952,
execute,-0.437424,-1.3714137,0.14175828,0.6790686,-0.068439834,0.12992847,1.4210176,0.24951582,0.009633684,-0.5496954,0.561282,-0.39587513,-1.2186191,-0.05124432,0.077650115,-1.1015629,-0.09517625,-0.22068338,0.86748064,-0.38864997,-0.8106405,-0.34230918,0.16000988,-0.23292196,-0.04500214,-0.16842766,0.04124222,-0.2573543,-0.4491341,0.45646137,
start,-0.020383308,0.43577096,0.016928496,-0.6418459,-0.43430063,0.4550224,0.58367985,-0.22443,-0.089458324,-0.41402793,0.54794526,0.52433544,-0.92204994,-0.19852792,0.059131317,-1.1648476,0.30425212,0.8046756,0.4481474,-0.71372914,1.1290462,0.2793298,-0.2597339,-0.5293014,0.66400784,-0.4762739,0.106572814,-0.017782552,-0.70086133,0.6945538,
nextNode(),-0.8504214,-0.9200479,0.37653586,0.23612738,0.1991277,0.10774369,-0.35295436,0.24650955,0.23028119,-0.19051461,0.41626087,0.06549504,-0.52266973,-0.10268489,-0.34233302,-0.14858888,0.0963011,-0.49512225,0.59848267,-0.59593886,0.296843,0.2879658,-0.61395544,-0.100418866,-0.20112364,-0.2083745,-0.20617393,0.29559463,-0.030784983,0.6135075,
INVOKEINTERFACE,-0.7985238,-0.76394916,-0.4516313,0.4745807,-0.18957688,-0.45591834,-0.59816206,0.568305,-0.57297367,-0.6397421,0.8357259,0.28314093,-0.67779493,-0.5405072,-0.33824843,0.99730587,0.09647727,0.41032466,-0.10332205,-0.3474883,1.3342136,1.2516824,-1.5477881,0.42604914,0.84567016,0.10146844,-0.7073442,0.5392045,-1.2960649,1.1843592,
clone(),0.04167878,-0.47408414,0.0044227913,0.26789314,-0.027369289,-0.36767298,0.12398076,0.09467488,0.10641828,-0.245117,0.28685188,0.23868935,-0.62317556,0.7446764,0.25418663,-1.0305715,-0.22807766,0.24637094,0.871985,0.043114822,0.20138343,-1.1594393,-0.68738914,0.1664194,-0.07909339,-0.66176057,0.08738662,0.12390477,-0.70412683,1.3218303,
getParent(),-0.18681099,-0.7524051,0.16023076,0.6686399,0.30641422,0.08612596,-0.60396326,0.57197547,-0.45957065,-0.31213152,1.0194702,-0.094791286,-0.35583645,-0.1939798,-0.5271848,0.51206684,0.27958205,-0.36717618,0.43219826,-0.6733877,0.45516747,0.4214201,-0.9457804,-0.026827943,-0.48611265,-0.24167302,-0.26488015,0.2542592,-0.55045,0.45702597,
addInterfaceMethodref(),-0.7662334,-0.88508713,-0.22692423,0.4929824,-0.43428236,-0.44749793,-0.58744025,0.4715686,-0.40006524,-0.6395049,0.8004019,0.26486522,-0.8395565,-0.71942765,-0.15280953,0.96878266,0.26096615,0.4225929,-0.04597618,-0.668467,1.3121262,1.2813299,-1.1455363,0.37277135,0.6180286,0.1818172,-0.60522926,0.47902086,-1.1012347,1.1756014,
v,0.043003295,-0.81464946,-0.14060271,0.43356276,-0.47897774,-0.15312377,1.0937134,0.36411577,-0.4326801,-0.856898,0.32711565,-0.38130027,-0.53325045,0.10079492,0.41235864,-0.6153278,0.24414018,-0.35776764,0.68693846,-0.5033419,-0.25824016,0.1252098,0.1293533,0.2888262,0.15342042,-0.006274394,0.31574795,0.34005365,-0.73212796,0.65867925,
typeCheck,0.43029347,-0.57942754,-0.33217344,0.615931,-0.015349108,0.4725892,0.43807516,1.1028814,-1.2162232,-1.1887655,1.0321605,0.047386114,-0.30130804,-0.16837879,-0.17650495,-0.035332896,0.75282854,-0.13238342,-0.17971244,-0.57659256,0.41026288,0.52748007,-0.8438641,-0.045824483,-0.8578874,0.08612038,-0.16291326,-0.28236517,-1.3900619,0.21252567,
INVOKEVIRTUAL,-0.7310244,-0.7747947,-0.39509675,0.3068404,-0.37429628,-0.27996278,-0.49338952,0.4977015,-0.3982807,-0.61495435,0.5782545,0.30705097,-0.54289055,-0.49522698,-0.15218763,0.6746284,0.13842322,0.22371277,-0.13375026,-0.35672435,1.4056188,1.3093771,-1.2680116,0.3827052,0.7226885,0.01107255,-0.57241696,0.5198405,-1.4463242,1.1108768,
startsWith(),-0.6926079,-0.9418779,0.09532601,-0.08556578,0.6798263,0.18568613,-0.0055608815,-0.018465267,-1.0695862,-0.7643438,1.2914274,-0.15948722,-0.9243003,0.20070185,0.004767808,0.032203835,0.33737445,0.24242361,0.26189452,-0.27372283,-0.32436565,0.21479663,-0.7341811,-0.91522926,-0.19366318,0.2524401,-0.08593408,0.3506819,-1.0679034,-0.015134467,
hasMoreElements(),-1.2363886,-2.0723944,0.45289513,0.542261,0.35118267,0.37087792,-0.6144128,0.15211138,-0.7018043,-0.22443569,0.49605092,0.2976003,-0.38539442,0.42185897,0.13378818,0.1491676,0.19687238,-0.054085437,-0.02615804,0.26329854,0.1447499,-0.034099586,-1.0611936,-0.14717704,-0.17787832,-0.18913656,-0.33300748,0.39964676,-1.1175387,0.7830698,
getIndex(),-0.6612844,-0.48967054,-0.5039546,0.4191229,-0.5754349,-0.09419268,-0.21021324,0.48716715,-0.037428346,-0.4469588,0.10053817,0.28890437,-0.5180128,-0.6413255,-0.38695142,0.6301986,0.107370146,0.27720785,-0.19129306,-0.4321879,1.0261072,1.3749343,-1.217773,0.20018274,0.7326292,-0.07240641,-0.60457647,0.47651604,-1.1245351,0.7471478,
str(),-0.48659483,-0.53298706,-0.041592173,-0.11742478,0.27020088,0.012424731,0.15942462,-0.31750858,-0.071682386,-0.60427755,0.92699206,0.079752624,-1.4630692,-0.3318589,-0.26860115,-0.4276582,0.0545325,-0.052709498,0.6235418,-0.59406066,-0.4068429,0.13607241,-0.567534,-0.9957714,-0.032324363,-0.045097485,-0.021007637,-0.11508336,-0.20107475,0.00528296,
nextElement(),-1.1195576,-1.9570737,0.47195068,0.4793114,0.49778664,0.2611642,-0.5920905,0.12507424,-0.75262785,-0.31961823,0.6582417,0.19959933,-0.3151701,0.4344034,0.106160566,0.20565736,0.2449937,-0.023289336,-0.017299464,0.21509993,0.24641043,-0.089752376,-0.976209,-0.1271755,-0.24086346,-0.17475004,-0.310741,0.38181356,-1.1930503,0.81014204,
setElementAt(),-0.704289,0.23971403,0.42854875,-0.011451571,0.14880143,0.23048148,0.35327557,0.48809245,-1.3069252,-1.0181906,0.9835435,-0.16000324,-0.023225993,-0.00043400237,-0.6569787,-0.16873215,0.50874627,-0.5685467,0.5660534,-0.44363233,-0.00077292346,0.46315342,-0.21985775,0.013481764,-0.15038641,-0.3662208,0.02906559,0.7341587,-0.973482,0.67174536,
getParser(),-0.23029995,-0.9911973,-0.47630417,0.3719345,0.30358684,-0.082706496,-0.34634405,0.7837518,-1.1595231,-0.92064893,0.73411983,0.33456263,-0.1925697,-0.43701097,-0.2604024,0.4573221,0.5110982,-0.08226253,-0.43156397,-0.1676368,0.48823914,0.3066604,-1.3448362,0.22685272,-0.5380666,-0.11254291,-0.60642546,-0.39789996,-1.5568883,0.52192307,
getExpandedTypeID(),-0.87056553,-0.32270107,0.5127738,0.46813154,0.4301878,0.19004598,0.43637356,-0.23515809,-0.70052224,-0.41666508,1.5924779,-0.11217937,-0.9461684,0.32611567,-0.55591595,-0.39766636,-0.01779374,-0.23215945,1.2339904,-0.9816174,0.42839068,-0.115883365,0.026154572,-0.038713276,0.29049867,-0.25820494,0.38350177,0.69481575,-0.41470948,0.8101402,
XSLTAttributeDef,-0.34008136,-2.0409276,-0.13515061,1.2746996,-0.81871563,0.21730039,0.7610427,0.73140395,-0.16572839,-0.80290246,0.6466361,-0.13761407,-1.0348277,0.13701706,1.1761392,-0.15434535,0.49056566,0.7362575,0.0013624119,-0.8638175,0.77443695,-0.025401793,-0.44646242,0.6275513,0.82634944,0.47606277,-0.2711474,-0.09752545,-1.0639087,1.3340031,
translateTo(),-0.29170826,-0.7857886,-0.5484686,0.8275979,-0.27775118,0.020594891,-0.6059821,1.5648222,-0.96377164,-0.91273814,1.2047278,0.16985108,-0.44825578,-0.62903184,-0.25570512,0.4966757,0.58383125,0.016683027,-0.37836513,-0.53220606,1.0458647,0.65897894,-1.2569072,0.32831708,-0.04373582,0.1003353,-0.7251229,-0.0829258,-1.6583803,0.98827624,
i,0.037513707,-0.23732273,0.35649014,-0.45103815,-0.18386194,0.0149792,0.62799853,0.13761854,-0.73550576,-0.7997519,0.7842252,0.013313608,-0.20061266,-0.053757556,0.0827337,-0.73396695,0.46621686,-0.38621935,0.76787126,-0.67319226,0.25841713,0.2720092,-0.18427117,-0.16654254,-0.06704629,-0.30829078,0.25621092,0.26664406,-0.3812638,0.6059498,
parser,0.17200282,-0.39376962,-0.28605983,0.43967184,-0.048578996,0.71471274,0.37267014,0.3332728,-0.84316385,-0.83284163,0.5534735,-0.036075305,-0.079532646,-0.0420915,-0.28049833,-0.43359768,0.7131782,-0.020843605,-0.21507789,-0.3799247,0.6551544,0.55164653,-0.50251573,-0.40699944,-0.71903884,-0.2651946,-0.06455115,-0.14275695,-1.8922393,-0.2916401,
StringBuffer,-0.37137777,-0.9930765,0.117490605,-0.44140396,0.43776086,-0.23498814,-0.3771197,-0.42379496,-0.8000677,-0.7308721,0.6588534,0.39576977,-0.22655977,0.11479569,-0.0036119928,-0.016816167,0.34071958,0.09373275,-0.00829027,-0.47991458,0.86997014,0.5088184,-1.0309638,-0.14833368,0.06277909,0.03530052,-0.1366527,0.05102096,-0.8274535,0.36226442,
Long,-1.0711225,-0.6639702,-0.18363306,0.60355395,0.5489356,0.20851721,0.47494957,0.33877409,-1.7877036,-0.870685,0.80231273,0.27950734,-0.5542381,0.8017066,0.25306454,-0.36064118,0.118385084,1.061733,-0.058396995,0.27319205,0.8622096,-0.7270039,-0.86521494,0.29935005,0.9812334,-0.007548667,-0.17063038,0.59345746,-2.2005377,1.6603267,
getLength(),-0.65977067,-1.1243161,0.7673935,0.17251927,0.11172257,-0.16470651,0.42710924,-0.46325597,-0.6698607,-0.6794193,0.6672013,0.09834374,-0.11812517,-0.084541745,-0.26082143,-0.36418948,0.45189577,0.0025258432,0.46749663,-0.5370177,0.27565992,0.29501757,0.089714475,-0.07081331,0.10705441,-0.16717169,0.07216658,0.20684253,-0.5235736,0.57067007,
getSystemId(),-0.63143486,-0.5178075,-0.38957405,-0.026007675,0.60194945,-0.17556418,0.16285478,-0.039153006,-0.65541524,-0.034629364,0.2582628,0.3767288,-0.041728407,-0.11585294,-0.7156093,-0.2250871,-0.116016224,0.2015541,-0.12805508,0.052822772,0.24592766,-0.060690783,-0.5418361,-0.26390103,-0.10785692,-0.63320005,-0.4417433,-0.008109354,-0.5303427,0.0069412803,
CastExpr,-0.16256522,-0.7694575,-0.15712464,0.6006522,-0.04689638,0.30329373,0.17069563,1.7915984,-1.3972337,-1.1674654,1.3772414,0.103436634,-0.3527101,-0.20920767,-0.21193747,-0.1346044,0.69559014,-0.08453746,-0.31835473,-0.2695331,0.35537288,0.394579,-0.7549497,0.19112743,-0.6001029,0.21238185,-0.40566236,-0.30893362,-1.3992417,0.8578123,
getXPathContext(),-0.7299533,-1.2106203,0.24749656,0.2071528,0.44402194,-0.06849747,0.70196986,-0.3898468,-0.2991035,-0.4149566,0.5880051,0.050101556,-0.88736236,0.10442492,-0.1854235,-0.7804201,-0.16274177,-0.029494654,0.7648105,-0.07950928,-0.5417627,-0.5049086,0.0013498474,-0.26636878,-0.052515727,-0.3063412,-0.14824055,-0.13214368,-0.33502558,0.4960843,
loadDOM(),-0.9463026,-0.67495286,-0.28468737,0.40641108,-0.28946644,-0.4065987,-0.6026692,0.44766665,-0.39598155,-0.68028605,0.5519016,0.37169862,-0.5605384,-0.5389689,-0.42165262,0.8769292,0.13987468,0.39242685,-0.1632319,-0.4060112,1.3555251,1.1995767,-1.446787,0.39210555,0.70012146,-0.005657734,-0.62121844,0.5697018,-1.3938123,1.1340005,
ContinueStatement,-0.90697724,-0.92457914,0.5284634,0.47577122,0.3638427,-0.23912077,-0.17699419,-0.11021095,-0.69532335,-0.5224815,1.1592335,-0.19064246,-0.6670848,0.02897677,-0.41720456,0.33018714,0.10485743,-0.21863408,0.75783336,-0.4237819,0.041399106,0.3735121,-0.6327382,-0.20651837,0.14539468,0.008179199,0.018067803,0.50640476,-0.5806506,0.3429495,
push(),-0.5548035,-0.33559442,0.4306067,-0.14808178,0.26498464,0.25439736,0.80388767,0.036677502,-1.1909713,-0.74784267,0.2903036,0.09996494,-0.09898627,0.61826694,0.52727383,-0.45487195,0.34706607,0.6845662,-0.026412569,0.03972711,0.29680514,-0.3536978,-0.31798556,-0.17865908,0.46849295,-0.059042588,0.18579476,0.7345418,-1.2393401,0.741108,
opPos,0.19446178,-0.29898855,-0.5594983,0.414652,0.029916238,-0.7546299,0.48998815,-0.33496538,0.17092554,0.093095236,0.4090544,0.2809015,-0.9624421,-0.23280019,-0.44605082,-0.028949337,-0.71454513,0.25935638,1.0144624,-0.6700095,0.6423233,-0.2653109,-0.7003304,0.80339044,0.62121737,-0.35870925,0.04717418,0.006695929,0.29572573,1.2785698,
addPrimop(),-0.40486404,0.68018174,-0.4206782,0.8581441,-0.6105795,-0.44549534,0.07796568,0.41323,-0.69502366,-0.59033585,0.22631443,-0.025568396,-0.34747684,-0.04875497,-0.37844977,-0.035413805,0.2690546,0.70239145,0.41245282,-0.7230874,1.2526389,0.26808155,-0.70284,0.44498733,0.97090536,-1.056544,-0.37190384,1.2371756,-1.6472894,1.8420818,
characters,-0.16372246,0.28835368,-0.43440858,-0.83760947,-0.14195965,0.5667428,0.5885104,-0.22915438,-0.30329147,-0.33546016,0.68136096,0.8156262,-1.2100505,-0.13086718,-0.16397929,-1.2130243,-0.09223624,0.9844264,0.3664831,-0.4375765,0.67724437,-0.05119977,-0.45862085,-0.6262086,0.88130933,-0.5568892,-0.102830835,-0.16638951,-0.37996385,0.5362497,
accum(),-1.1330329,0.4876317,0.25307068,-0.19976777,0.4895639,-0.035080507,0.015718957,-0.7830508,-1.2054901,-0.25563958,0.8588834,0.66393065,-0.75453204,0.516876,-0.53334767,-0.46225685,-0.057685275,0.99261606,0.33764762,-0.37785238,1.014772,0.012837284,-0.4923382,-0.7465826,0.70516926,-0.5240795,-0.15344617,0.7316525,-1.400298,0.6144599,
num(),-0.17146444,-0.65818506,0.16394302,0.48881578,0.16778255,0.07813664,0.58743125,0.5315253,-0.079713754,-0.5752555,1.0661945,-0.34675616,-1.3105286,-0.218824,-0.19768238,-0.44753692,0.10571606,-0.23993236,0.84420365,-0.5461643,-0.7045619,-0.12488946,-0.57429266,-0.52852225,-0.43020192,0.10639068,-0.050172456,-0.14181505,-0.22199172,0.21309331,
se,-0.5355139,-0.3734926,-0.22516523,-0.36045545,1.2673346,-0.21624808,0.51199496,0.3583691,-1.1152004,-0.48308298,0.8313927,0.58884907,-0.5055078,0.29648042,-0.41883036,-0.6986007,-0.30465984,0.41430795,0.3505141,0.39811492,-0.07285485,-0.5730917,-0.9706031,-0.22132441,0.031707816,-0.29413626,-0.44363222,-0.1666093,-0.5308176,0.51216626,
getLocalName(),-0.83069146,-0.942603,0.20189959,0.13252507,0.75960994,-0.09583287,0.31048924,-0.20652756,-0.9240035,-0.5079499,1.1091539,-0.12870857,-0.74088866,-0.027226172,-0.2891396,0.20159264,0.1668162,0.29964054,0.38462022,-0.4429535,-0.04702318,0.20872723,-0.54948133,-0.43735027,0.23674752,0.17713249,-0.1726627,0.31295666,-0.41653663,-0.041885674,
n,-0.26436636,-0.29912683,0.33226052,0.028791202,-0.06666225,0.008166825,0.29444957,-0.023064028,-0.3565125,-0.44930154,0.5517027,0.07897526,-0.39672852,0.13501221,0.123568535,-0.44575727,0.23877285,0.05925136,0.5781562,-0.5484237,0.26955667,-0.22593075,-0.19024639,-0.1439931,0.08240436,-0.30408925,0.17936504,0.28580222,-0.3797521,0.7629546,
transformer,-0.43090025,-1.1928688,0.037279233,0.30629703,0.22903353,-0.1357067,0.9706571,-0.1372838,-0.3583527,-0.41771924,0.51221776,-0.088137336,-0.89293045,-0.012569042,-0.13541861,-0.8458187,-0.12076921,0.060726345,0.63602626,-0.06159196,-0.62290156,-0.45198077,0.007782612,-0.21444611,0.050936803,-0.28864586,-0.12412381,-0.120273545,-0.3841554,0.27503616,
getTraceManager(),-0.9570842,-0.77711576,0.032332893,0.19039331,0.7280167,-0.111082144,0.93587214,-0.086792916,-0.7980848,-0.44183978,0.9033641,0.008277387,-1.1375661,0.100284964,-0.5297107,-1.1547581,-0.45546794,0.14418416,0.89899635,0.027878065,-0.71896094,-0.6142121,0.12761147,-0.49345374,0.3318553,-0.33085835,-0.25413933,0.099461526,-0.44714823,0.29679558,
loadTranslet(),-0.75703096,-0.6668678,-0.45245615,0.27347526,-0.45741212,-0.40672562,-0.5168612,0.44693935,-0.22928597,-0.6220769,-0.00789487,0.39961565,-0.27678412,-0.6335525,-0.2667953,0.5728693,0.17351988,0.32078022,-0.30018732,-0.18091688,1.1618047,0.94455916,-1.3567541,0.3681379,0.4573547,-0.28748724,-0.6843714,0.3699189,-1.5079563,1.090864,
toString,0.24568088,-0.43591577,-0.5541869,0.15631035,-0.059691574,0.10384762,0.33394843,0.6551731,-0.5622455,-0.9510575,0.45191735,-0.02935344,-0.14357401,-0.29067317,-0.0048311865,0.08050568,0.44859588,-0.35855067,-0.12633285,-0.6319284,0.48166177,0.55715233,-0.93497735,0.029494742,-0.5824754,0.15044114,-0.11817155,-0.2080238,-0.9374854,0.024034454,
toCharArray(),-0.5778942,-0.78131765,0.15036918,-0.76485604,0.4923885,-0.41328442,-0.07342652,-1.1411349,-0.48804104,-0.47139463,1.0109973,1.0088228,-1.3542548,-0.18576889,-0.1696775,-0.61578906,-0.066261545,0.8593141,0.5174262,-0.48623678,0.7256369,-0.2923781,-0.72557956,-0.30264834,0.6202859,-0.3985117,-0.012073994,-0.4412436,-0.13724639,0.68449885,
index,0.05875484,-0.13517441,0.08239681,0.1743501,-0.5576777,0.29581213,0.6105717,0.26634496,0.1008788,-0.5575577,0.7371124,-0.075759985,-0.6864069,-0.39697722,-0.13392095,-0.40990105,0.2397789,-0.22672166,0.7456307,-1.0721029,0.16317423,0.44390517,-0.20919122,-0.39360467,0.0280021,-0.114474975,0.14441645,0.16970406,-0.07063986,0.4715341,
parm1,-0.5543913,0.33132407,-0.3586811,0.47580823,0.24435161,0.30236176,0.8955431,-0.3824558,-0.58491516,0.08459483,0.9458213,0.06357536,-0.8304073,-0.19835642,-0.98768795,-0.6116877,-0.46213782,0.15352103,0.9493334,-0.6820165,0.6581639,0.11088845,0.16841039,-0.1457514,0.42237434,-0.7694271,0.185092,0.5857555,-0.28734913,0.3490646,
makeNodeIdentity(),-0.6092742,-0.6565961,0.38653558,0.4576373,0.092858054,0.078433335,0.6002096,-0.23803002,-0.52694917,-0.51614577,1.3273889,-0.07787558,-0.8543554,-0.13597234,-0.5580529,-0.54428434,0.15604694,-0.38013744,1.123098,-1.2211622,0.3905117,0.3233355,0.1075786,-0.1990837,0.0016210659,-0.26013514,0.40142465,0.30659702,-0.21579017,0.24495311,
getAttribute(),-0.25382888,-0.69204915,-0.23993888,0.028470034,0.4304969,0.44434655,-0.26632375,0.5929579,-0.8310203,-0.71844023,0.73948115,0.029309927,-0.5592068,-0.16770147,-0.018421335,0.08051228,0.6601677,0.45932898,-0.36052597,-0.26031572,0.33137682,0.27557278,-0.9649376,-0.9026422,-0.58051676,-0.10537668,-0.522355,0.00015618234,-1.6931088,-0.2881238,
newInstance(),-0.45524755,-0.66809654,-0.25639132,-0.26007584,0.55949664,-0.35989782,0.34644136,0.17898543,-0.62361735,-0.35528997,0.2283707,0.65649015,-0.2948256,0.12982586,-0.13857146,-0.84624827,-0.13560218,0.61651516,-0.030978806,0.36188045,0.19075523,-0.7086792,-0.52102065,0.01488451,-0.24089952,-0.51565355,-0.41596606,-0.46383685,-0.95400226,0.6071297,
getNode(),-0.51669055,-0.74910635,-0.041149955,0.2860922,0.60816026,-0.07345565,0.5620491,-0.0035575854,-0.33841142,-0.14661525,0.92090386,0.1513593,-0.86972624,0.010947377,-0.5316978,-0.42230654,-0.29278558,0.06967458,0.802101,-0.3143421,-0.22276717,-0.3117606,-0.31406003,-0.106517054,0.08293125,-0.2191757,-0.1713053,-0.13736278,0.1939806,0.40041924,
indent(),-0.38058832,0.46950698,-0.08195255,0.026237795,0.24978386,0.522782,0.42953524,-0.46384618,-1.1149826,-0.3494885,0.49633542,0.2913599,-0.11903254,0.19246034,-0.6170617,-0.65106237,0.66057473,0.51311713,-0.24920738,-0.58939797,1.4992613,0.14889008,-0.12273345,-0.30809975,-0.34635505,-0.6576186,-0.09971915,0.23288804,-1.9294304,0.29578376,
getValue(),-0.544643,-0.6789938,0.4206756,-0.23882753,0.4598225,0.2902569,0.28114277,-0.089280576,-1.0130785,-0.8639161,0.92554635,-0.07593746,-0.4764647,0.06641744,0.09694038,-0.1612918,0.5380834,0.25713202,0.0908515,-0.30426756,-0.027548464,0.28179994,-0.41195336,-0.82553935,-0.029030662,0.27620652,-0.15218996,0.1937465,-1.0106884,0.12044705,
createMessage(),-0.69980484,-0.5266892,-0.19224732,-0.27270424,1.2707858,-0.15501705,0.5203168,-0.18616757,-1.4486706,-0.22449942,0.91156054,0.46963602,-0.28779152,0.21484289,-0.7902733,-0.35601592,-0.054123163,0.23481381,0.23734155,-0.024242429,0.40347418,-0.33306468,-0.5540003,-0.10935834,0.056374226,-0.45356527,-0.43974072,-0.10770335,-0.575089,0.32282597,
ConversionInfo,-0.511988,-1.4730084,-0.33759397,1.2295339,0.22701542,-0.1501318,0.7830406,0.81602114,-0.70386446,-0.71149546,1.1863126,-0.45428777,-0.3054546,0.022323757,0.21553247,0.2096562,0.43667883,0.49416524,0.08428014,-0.6252306,0.6746143,-0.31036335,-1.0314014,0.41665143,1.4746249,0.25014374,0.10319673,0.029540699,-0.46809945,1.8213159,
source,0.19396447,-0.536446,-0.38824573,0.12422759,-0.05204029,-0.060306102,0.4761782,0.14446072,0.03394761,0.06991473,0.15171432,0.2894611,-0.48502046,-0.18320379,-0.09525789,-0.6277854,-0.16100284,0.20690516,0.3945081,-0.24149236,0.19283871,-0.5429094,-0.4107716,0.14937717,0.04350664,-0.5762556,-0.16584532,-0.30295634,-0.096327536,0.62794864,
rawName,0.28412923,-1.220333,-0.73555845,0.3019415,-0.18082327,0.9153894,0.9834705,0.72304595,-0.6568099,-0.2145906,0.27979925,0.19379431,-0.55829823,0.25589633,0.5641949,-0.41548765,0.36392096,1.2100922,-0.48949173,-0.24273047,-0.096920766,-0.26979646,-0.9385828,-0.41424197,0.36466485,0.0029636216,-0.56800526,-0.104196,-0.644782,0.2590629,
getQName(),-0.52577704,-0.8275591,0.32154337,0.044487264,0.35737026,0.30226007,0.23818529,-0.04215323,-1.0924022,-0.8200878,0.7658481,-0.119070426,-0.2828383,0.123974584,0.2335032,0.07107268,0.6759919,0.24368222,0.07146723,-0.38920313,0.2386498,0.33087364,-0.42023286,-0.5739551,-0.04938025,0.29576403,-0.050853185,0.27780432,-1.2382565,0.09981176,
setParser(),0.2416434,-0.25104997,-0.13936743,0.73374546,-0.35406595,0.4751687,0.60182166,0.8172567,-0.92729354,-1.2456174,0.6002384,-0.23540026,-0.055352814,-0.15469395,-0.40993217,-0.5032958,0.5886969,-0.28515136,0.07798566,-0.42523232,0.3571434,0.70585465,-0.37068316,0.009092317,-0.5390489,-0.15817465,-0.026321173,-0.029728321,-1.6656141,0.008394083,
translateTo,-0.037699744,-1.1849742,-0.79553527,0.6127926,-0.41521206,-0.13783589,-0.10435996,1.1688621,-0.36962086,-0.8497729,0.33193806,0.13382347,-0.24603708,-0.66221976,0.034112092,0.5286188,0.40451276,-0.039681423,-0.4101702,-0.5122174,0.9659802,0.68779886,-1.6854545,0.51409656,-0.10518426,0.081354946,-0.63679725,-0.2587976,-1.4397969,0.935288,
print(),-1.0626972,-0.084035255,0.21510133,0.23240744,0.73611057,0.001117975,0.34901464,-1.014807,-0.81010544,0.03644927,0.64186597,0.23712018,-0.23757428,0.023573618,-1.0712974,-0.22080691,-0.15366456,0.20607491,0.45353112,-0.3854312,0.8293615,0.05249978,-0.15141886,-0.12626682,0.22856607,-0.71462876,-0.06347983,0.5050968,-0.6749726,0.47632438,
str,0.036890768,-0.4893456,-0.4038618,-0.21415068,-0.16709569,0.095056735,0.6276015,-0.26389673,0.22757983,-0.48675153,0.35179204,0.14612786,-0.99335986,-0.46455225,-0.13570459,-0.7510984,0.019478433,-0.11161782,0.47433013,-0.47855332,-0.33609906,0.09165965,-0.40948227,-0.7068214,-0.117557414,-0.31135622,0.16278301,-0.2798151,-0.22496076,0.04919,
printStackTrace(),-0.48641297,-0.17057563,-0.49156287,-0.11861854,0.87501734,-0.08528862,0.24726608,0.20134568,-1.4565715,-0.47098038,0.57664543,0.64147973,-0.05639434,0.18878955,-0.56856275,-0.5569162,0.034028556,0.32140732,-0.16775304,0.2141356,0.5693112,-0.4333648,-0.65429944,0.03759981,-0.22161037,-0.5922723,-0.43321437,-0.16885741,-1.2184658,0.34836158,
add(),-0.45873785,-0.5815189,0.09688709,0.28774023,-0.42180035,0.18275328,-0.26188543,0.33039725,-0.31678227,-0.5690534,0.19765711,0.042172108,-0.075128354,-0.26375064,-0.057433,0.519309,0.46905923,0.18132655,-0.17530823,-0.36037928,0.56287974,0.8521024,-0.8919133,-0.13166365,0.27194077,-0.015796434,-0.28267297,0.59005004,-1.0714848,0.7129899,
getJCRefType(),-0.4111835,-1.1042649,-0.64384985,0.7508497,-0.9232055,-0.11660326,-0.093355924,0.92224866,0.12025245,-0.6182864,0.13576372,0.18033667,-0.64368147,-0.6795395,0.13197756,0.50559247,0.19042668,0.34827992,-0.26642442,-0.4287656,1.0883932,0.85284966,-0.9067611,0.7490609,0.65273124,0.06338899,-0.6467296,0.0042518512,-1.2222693,1.3612858,
XNumber,0.043271147,-1.2376881,-0.026372502,0.7236125,0.0006218851,0.067288876,0.68725705,0.6911402,-0.13656376,-0.51086265,0.79639494,-0.57758397,-1.0608351,0.292546,0.3670931,-0.5885367,0.19218291,0.27315235,0.65180117,-0.5101026,-0.64218044,-0.7620105,-0.4559763,-0.3594705,-0.13926795,0.21959227,0.016979745,-0.017376874,-0.59420943,0.58223474,
getProperty(),-0.54439837,-0.6448576,-0.09918143,-0.0112532275,0.8201907,0.22639726,0.24950713,0.14317477,-1.1099998,-0.34692574,0.5445631,0.3076274,-0.33483565,0.5342134,0.21969165,-0.30685145,0.06885885,0.72048485,-0.06773862,0.3610102,0.13104613,-0.755921,-0.7040673,-0.43739247,0.023317385,-0.19329439,-0.29856974,0.25183132,-1.0907707,0.56509584,
getStylesheet(),-0.2275058,-1.0253512,-0.33094895,0.17742074,0.02584121,0.09278012,0.07037909,0.42265418,-0.43971372,-0.30631945,-0.083670795,0.2329132,0.044154074,-0.23902872,0.06604669,-0.06735937,0.2132411,0.33707646,-0.42531314,-0.06252915,0.07800166,0.0050327065,-0.7049729,-0.12526283,-0.18930487,-0.1848037,-0.55560464,-0.23249058,-0.7436863,0.1455152,
addClass(),-0.8992059,-0.7999769,-0.27217028,0.4871623,-0.6197131,-0.43658146,-0.34282994,0.3121715,-0.10974552,-0.72760016,0.3435647,0.26237962,-0.4098078,-0.5982473,-0.29104143,0.58255994,0.14801763,0.116280355,0.024304964,-0.5114009,1.3661828,1.297043,-1.2034286,0.5400689,0.75445604,-0.045379933,-0.41073856,0.4900102,-1.4051027,1.1501222,
key,-0.087271534,-0.47201064,0.06398269,0.19583738,0.15883015,0.08083551,0.4893184,0.11194416,-0.7950863,-0.52506703,0.56853294,-0.14912316,-0.15786448,0.3805488,0.64648753,-0.19261198,0.39862606,0.55825204,0.26640022,-0.42686138,0.2816091,-0.1407635,-0.53176,-0.4210569,0.22013669,0.09074674,0.15782426,0.6077689,-0.96578264,0.32733765,
lastIndexOf(),-0.34193054,-0.7236938,-0.07434973,-0.3209694,0.10274882,0.17949402,-0.15936401,-0.10289087,-0.7986478,-0.6820777,1.1668491,-0.015060751,-1.2354625,0.16540119,0.25210944,-0.357013,0.45376366,0.3929628,0.20944798,-0.6375106,-0.12536262,0.12813018,-0.5789008,-0.9634082,0.00044771878,0.057341225,0.11931681,0.2664886,-0.9182622,0.1363729,
getCurrentNode(),-0.55722725,-1.2132051,0.30724767,0.27158448,0.30120674,0.14542131,0.6358947,-0.033859875,-0.1958962,-0.38305607,0.7595539,0.043112513,-1.0016874,0.05395465,-0.046732932,-0.8887963,-0.01707895,-0.07639072,0.82328117,-0.4148855,-0.3911555,-0.39783406,0.026528232,-0.37229493,-0.20572484,-0.24442758,-0.052170392,-0.18781024,-0.21691823,0.49866083,
org.apache.xalan.templates,0.005461574,-0.8284736,-0.17666736,0.37017635,-0.42524496,0.016144622,1.0753982,0.058973975,0.19410698,-0.46138617,-0.06578161,-0.20043121,-0.5060278,-0.21107534,0.14953649,-0.485485,0.04559105,-0.071830854,0.47509077,-0.5459515,-0.17549834,0.11068774,-0.11906708,-0.060337923,0.07940598,-0.2012646,0.08929761,0.008045114,-0.35424456,0.33088127,
fixupVariables(),-0.57856274,-0.40758988,-0.19302575,0.8064979,-0.94617236,-0.15334055,1.308468,0.33688226,0.13668141,-0.5250773,0.12144627,-0.35196257,-0.5254004,-0.6155406,-0.48797604,-0.58286804,-0.15174767,-0.3297935,0.6115794,-0.6878961,0.081868164,0.47919735,0.5710424,0.25489593,0.4338945,-0.5509131,-0.029949293,0.732279,-0.88167304,0.63678616,
reset(),0.0992059,-0.03244998,0.18114296,0.14912565,0.2834459,-0.4335879,-0.2537033,-0.18247952,-0.4093069,-0.41995037,0.72258455,0.20816076,-0.5516868,0.398618,-0.29407835,-0.47435287,-0.07033634,-0.4477289,1.0862905,-0.30232006,0.09750621,-0.6347769,-0.95673615,0.025767285,-0.1924836,-0.5828002,0.27957475,0.4479873,-0.48625603,0.9301414,
resetPosition(),-0.21171452,-0.21389042,0.49608156,0.6384058,-0.1597818,-0.17861214,-0.19766079,0.42447478,-0.25586984,-0.6259869,1.3550202,-0.08797681,-0.9512276,0.21775931,-0.28761318,-0.18685491,0.23117608,-0.5517933,1.3172438,-1.352684,0.486192,0.11936826,-0.77603185,0.18316513,-0.045447905,-0.16768314,0.44224432,0.63695204,-0.5509066,1.0116634,
te,-0.1138196,-0.66248083,-0.3917575,-0.36720523,0.8277302,-0.03840021,0.7194961,0.61437416,-0.9863711,-0.46790785,0.6262315,0.46137363,-0.415798,0.10770144,-0.047743276,-0.82438564,0.07493728,0.4970519,0.1383715,0.28384635,-0.20648216,-0.7345565,-0.875195,-0.15795992,-0.029663434,-0.34117323,-0.51470166,-0.30421218,-0.44988787,0.561757,
setStartNode,-0.058555845,-0.26879978,0.024424786,0.7130084,-0.17715298,-0.034162913,-0.1741852,0.47674826,0.1019443,-0.15170638,0.98713154,-0.060417656,-0.9594363,0.010472143,-0.23835754,-0.074963965,-0.08941487,-0.30542296,1.055999,-0.95297724,0.32814232,-0.27341706,-0.87113297,0.22050388,0.008151357,-0.33681124,0.18266055,0.3741086,-0.13498695,0.82325137,
tokenIs(),-0.8644521,-0.16544865,0.39888477,0.24252664,0.53332585,0.055921357,-0.6540758,-0.04676733,-0.7608716,-0.12960921,1.3792036,0.359927,-0.8703746,0.17726867,-0.7437426,-0.11298387,-0.0038731168,0.34111875,0.74575084,-0.4507528,0.7370836,-0.13120551,-0.6181391,-0.36772472,0.5724807,-0.55780786,-0.14835161,0.99882233,-0.71089065,1.2479663,
qname,0.018450081,-0.91495126,-0.14019568,0.009249235,-0.0492732,0.36527163,0.47781134,0.06238139,-0.8717813,-0.6584788,0.5495264,-0.20565653,-0.61601275,0.34554234,0.54466456,-0.24388143,0.5115535,0.35094327,0.027305413,-0.53274226,-0.41196308,-0.07391733,-0.52558196,-0.5658062,0.022022454,0.14970534,0.11772013,0.2235685,-0.8120585,0.18322036,
owner,0.39765278,-0.69617677,-0.22202863,0.3442588,-0.27293617,0.46888173,1.0337715,0.44824153,-0.3053908,-0.2911841,0.2584418,-0.0923361,-0.1679294,-0.026914774,0.13145764,-0.4494303,0.28786823,0.25346926,0.25913122,-0.4540006,-0.14603442,0.16051199,-0.41528353,-0.25043586,-0.04021823,-0.26915747,-0.022647858,0.06557432,-0.31548443,0.2927719,
getMethod(),-0.31361464,-0.7078488,-0.4631104,0.12762979,0.033192176,-0.3372112,0.026060758,0.60139924,-0.537522,-0.546893,-0.29697436,0.54267424,0.25625312,-0.31649238,0.16384195,-0.03670768,0.13479786,0.33058468,-0.49615183,0.5981626,0.5084577,-0.2572662,-0.88197374,0.3501247,-0.25553986,-0.4200974,-0.5569281,-0.24867682,-1.5820277,1.0581902,
XString,-0.09393478,-0.66066515,-0.3324032,-0.004653738,0.19249012,-0.13390672,0.031404685,0.13733703,-0.14976285,-0.46054325,0.7700448,-0.06367611,-1.111199,0.07955148,0.008863707,-0.32393295,0.0823795,0.024427846,0.43184066,-0.4211857,-0.3813671,-0.17421424,-0.7944203,-0.57549125,-0.007401352,0.076091096,0.009953056,-0.12389617,-0.4755204,0.26370642,
SAXException,-0.066778615,0.18665433,-0.29866102,-0.6771931,0.4306169,0.21382107,0.7961884,0.1697611,-1.0249044,-0.45882222,0.78087455,0.6490696,-0.55206436,0.15541646,-0.173161,-1.3011421,0.09818076,0.66669625,0.21634269,0.0007525639,0.46281096,-0.4641565,-0.40790847,-0.39788345,0.36805078,-0.50194174,-0.22557433,-0.1562869,-0.74379456,0.5459337,
DTMDOMException,0.30295822,-0.8096376,-0.8074408,-0.018895144,0.3601752,0.30045956,1.3749741,0.3438076,-0.4587584,-0.11349564,0.6326645,0.36101773,-0.908089,-0.33091566,-0.32024112,-0.72306955,-0.3039335,0.40855053,0.56163263,-0.30831203,-0.30967316,-0.4135691,-0.88527125,-0.25841987,0.29754558,-0.39594203,-0.42178118,-0.5347269,0.40365538,0.27396047,
XSLTElementDef,-0.28674468,-1.8311312,-0.34750858,1.1078308,-0.64964914,0.34578797,0.6339098,0.9682784,-0.36036313,-0.7286024,0.6567452,-0.270475,-0.8529237,0.13495876,1.0857437,0.081928134,0.4509475,0.61759233,-0.02454114,-0.761824,0.44336557,0.03914354,-0.3320422,0.44633678,0.58841217,0.38272277,-0.2525763,0.069580995,-0.87208253,1.2316186,
compile(),-0.6798716,-0.66862136,-0.09387457,0.1796397,0.32116917,-0.5849264,-0.2369775,0.18059275,-0.5877153,-0.41169515,0.5283771,0.44172925,-0.1774272,-0.2657214,-0.24457143,0.36910477,-0.09324475,0.12583458,0.26018986,-0.2579962,0.8237907,-0.010415225,-0.49056053,0.5393786,0.24048696,-0.1491412,-0.41760793,0.14624162,-0.3519323,1.0990443,
QName,-0.18872099,-0.8754957,-0.24609174,0.2194257,0.051970664,0.45031893,0.28991476,0.27182573,-0.7364689,-0.5020767,0.40232027,-0.14269775,-0.56695914,0.35505646,0.50976646,-0.23805836,0.33410072,0.5128447,-0.08489932,-0.17189114,-0.49026424,-0.34121934,-0.5480368,-0.57929367,0.122738466,0.06079289,-0.1526566,0.36712068,-0.8932673,0.21934727,
elem,-0.20543912,-0.6465532,0.04428755,0.0824517,0.168158,0.031152202,0.5855929,-0.015147387,-0.57251096,-0.45250225,0.76110494,-0.18906315,-0.7307082,0.18167691,0.24478054,-0.37054977,0.079038434,0.40885985,0.6018087,-0.79883385,-0.14021508,-0.15286094,-0.3410179,-0.38390493,0.22860213,0.04036348,0.15638472,0.23922051,-0.11199258,0.2488098,
pop(),-0.37640485,-0.14631805,0.22023615,-0.10918922,0.11391975,0.3755725,0.8663916,-0.11921092,-0.93258333,-0.47413594,0.2342483,0.19138883,-0.3009199,0.6090726,0.27293685,-0.5151715,0.1825658,0.75269985,0.009803857,-0.11343557,0.244803,-0.18691188,-0.38433105,-0.3380028,0.6325324,-0.21222338,0.22613615,0.65419275,-0.9438107,0.3681914,
RuntimeException,-0.19707829,-0.41574878,-0.2584881,-0.4381741,0.762223,0.060207125,0.6572712,0.45258722,-0.96763027,-0.41257206,0.8260249,0.45415473,-0.38464937,-0.039511424,-0.43821436,-0.71259654,0.036858473,0.036733568,0.22475141,-0.07170071,0.059218425,-0.26313254,-0.535448,-0.11213508,-0.1632799,-0.2803114,-0.33027464,-0.37592277,-0.322362,0.3388251,
ioe,-0.28038824,0.19430457,-0.24300846,-0.6751838,0.7154807,0.08797272,0.75907487,0.1472255,-1.0856225,-0.56665933,0.729149,0.72947323,-0.4938892,0.14590178,-0.2751115,-1.2823093,-0.048561055,0.6119881,0.36608255,0.061930105,0.4597363,-0.5881943,-0.49719375,-0.3127434,0.23905826,-0.59540063,-0.27791703,-0.091126226,-0.6960339,0.79799193,
msg,-0.239155,-0.7627704,-0.6830807,-0.047507484,0.9278464,0.12323668,1.0417204,0.1486137,-0.8774992,-0.18320782,0.41376737,0.55026436,-0.5555429,-0.10194905,-0.60474634,-0.6970199,-0.33126017,0.31971154,0.058563706,0.2014681,-0.13549817,-0.5753819,-0.54527926,-0.09859783,0.07731468,-0.4606423,-0.47311884,-0.60664964,-0.2591665,0.27884495,
analysis,-0.09812309,-0.040956076,-0.5887658,0.38768128,-0.35374743,-0.47806117,0.63331115,-0.26147553,0.56593263,-0.055145074,0.18355387,0.16848005,-1.0094761,-0.51420826,-0.5543108,-0.17412437,-0.68288547,0.2292886,1.1249285,-1.0974896,0.67154527,0.38612738,-0.6456676,0.43160883,0.645373,-0.38510296,0.13043553,0.2623487,0.16156828,0.9567083,
getNextSibling(),-0.99580944,-0.5757064,0.54867965,0.5258917,0.41384897,-0.23171765,-0.02684585,-0.13175873,-0.5737622,-0.41453645,1.2900876,-0.008803106,-0.75317544,-0.0033246083,-0.7739407,-0.013477143,-0.09687895,-0.19298854,1.1099672,-0.8316234,0.25270736,0.21407253,-0.34846088,-0.04973761,0.26683608,-0.21848302,0.1704713,0.5523555,-0.22258057,0.5759693,
appendChild(),-0.776924,-0.43124372,-0.26238078,-0.051481154,0.63810915,-0.15347251,0.23749231,-0.19807321,-0.6899717,-0.31328171,0.16248573,0.36583033,-0.3082832,0.16041219,-0.20280242,-0.20510058,-0.19672725,0.44239822,0.08182006,0.09215843,-0.085975945,-0.4691748,-0.50996953,-0.1743003,0.28071576,-0.30828843,-0.27954808,0.2244306,-0.51043564,0.35847795,
reset,0.15268543,-0.07606374,0.1945951,0.20038518,-0.13520871,-0.117098965,-0.02810148,0.06340978,-0.10585356,-0.3384012,0.67259383,0.031658486,-0.60123485,0.20353782,-0.14685549,-0.39278105,0.098350585,-0.44724098,0.9992465,-0.6975055,0.26878965,-0.25230604,-0.74424434,0.07352606,-0.09033621,-0.4494845,0.37941012,0.38777247,-0.49680975,0.79664487,
MethodType,-0.80513275,-2.1000984,0.17658436,0.66686875,0.17709057,-0.1113685,0.370621,0.77377766,-1.1439738,-1.1260078,0.9845144,0.00813501,-0.6528674,0.103901476,0.54310477,0.047177378,0.7366521,-0.006103154,-0.10257435,-0.23756385,0.3270949,0.0042879265,-0.34177518,0.5743011,-0.09952576,0.1601455,-0.3642036,-0.53257126,-1.2273239,1.092151,
getClass(),-0.24999356,-0.69557804,-0.23029834,0.14428589,0.68916047,-0.016358148,0.10287068,0.5938222,-0.9336957,-0.4405548,0.59216213,0.124962755,-0.10326938,-0.049454894,-0.22265008,-0.007798188,0.19121295,0.089355424,-0.10982443,0.028859288,0.18545265,-0.29439488,-0.838949,-0.051753532,-0.579489,-0.17412,-0.48476517,-0.30223775,-0.8762451,0.3615966,
getFirstChild(),-0.82297486,-0.67188996,0.5876109,0.4035386,0.5428764,-0.17352115,0.043293033,-0.34175083,-0.55786157,-0.30714586,1.0944567,0.045670822,-0.7050875,0.13688204,-0.5642934,-0.1190414,-0.08353102,-0.109779984,1.0198328,-0.6682806,0.16548374,-0.041362252,-0.3328144,-0.16397324,0.26139456,-0.2675562,0.12157047,0.51799315,-0.12484457,0.58292574,
item(),-0.65167207,-0.8291816,0.5694578,0.07395316,0.19658563,-0.16132785,0.42329398,-0.27799964,-0.602338,-0.6857888,0.90500355,-0.1007555,-0.47770378,-0.12728517,-0.17979333,-0.30247304,0.27647185,-0.12632936,0.6956496,-0.6078842,0.10799343,0.2519962,-0.014359508,-0.25494784,0.10662096,-0.12147531,0.1355888,0.28438452,-0.3995617,0.390466,
callVisitors(),-0.30732563,-0.4092681,0.19799848,0.6320731,-0.2666248,0.09487502,0.8044044,0.20353083,-0.3869956,-0.5680275,0.5424879,-0.3357227,0.02333995,-0.4654556,-0.46760038,-0.1246556,0.15976174,-0.28813556,0.58677566,-0.5685766,0.10850045,0.53755385,0.28139976,-0.00094909547,0.15590753,-0.42435715,0.059849557,0.48959813,-0.410679,0.60029167,
visitor,-0.25053212,-0.42000562,0.08122145,0.4702116,-0.21228692,0.1703806,0.9500791,0.16070177,-0.23307458,-0.5205722,0.24823676,-0.17573911,0.068686076,-0.5095586,-0.48252508,-0.3598027,0.110690154,-0.26801908,0.5098647,-0.47971392,-0.05899039,0.4932622,0.18154353,-0.18669789,0.055215634,-0.50461054,-0.0034948224,0.36542267,-0.2518841,0.3376264,
setTarget(),-0.6686983,-1.0339155,-0.27039224,0.50268525,-0.44661346,-0.20729786,-0.34202337,0.6393693,-0.21252766,-0.78718454,0.33795565,0.20842245,-0.2089742,-0.5598631,-0.17241216,0.7193158,0.26758435,-0.0019517137,-0.22372663,-0.5155095,1.1522523,1.0743884,-1.2335637,0.42603067,0.32570323,0.10329017,-0.5183678,0.27445585,-1.1787099,1.006079,
runTimeError(),0.06799838,0.023292474,-0.30393556,-0.020494891,0.6795549,-0.23067561,-0.09833601,0.13643403,-0.7420568,-0.3654997,0.7581765,0.23043972,-0.6047964,0.17541865,-0.22714207,-0.028737593,-0.0095644165,0.20048079,0.43121687,-0.16750634,0.059869535,-0.53291243,-1.3026333,-0.123406075,-0.08282623,-0.31246772,-0.13339852,0.23678765,-0.42193255,0.5069468,
DoStatement,-0.61914563,-0.42729324,0.54367286,0.072454736,0.3909868,-0.0056449403,-0.09687078,-0.1372308,-0.55259514,-0.3979898,1.1660107,0.18563221,-0.6608419,0.13905045,-0.45424095,-0.23203214,0.24436885,-0.09809025,0.6257916,-0.6546391,0.44579276,0.20226444,-0.3452179,-0.2801147,-0.089642204,-0.20073378,0.08023797,0.29596782,-0.49136266,0.5395695,
returnNode(),-0.4669519,-0.33480343,0.35218784,0.7842958,-0.122220285,-0.1739749,0.022869855,0.20403641,-0.03090571,-0.45874175,1.1922065,-0.1389,-1.0028708,0.021386635,-0.3944859,0.12657252,-0.08299419,-0.3566571,1.3210331,-1.2261963,0.43347493,0.2591141,-0.62888324,0.15885359,0.32360935,-0.10135714,0.3536708,0.74532247,-0.1754885,0.90236384,
systemId,0.14023384,-0.43940967,-0.94681114,0.3021873,-0.15124117,0.6034201,1.1828759,0.5483254,-0.4441971,-0.11041066,-0.20241076,0.15954402,-0.31712997,0.08428761,0.1337272,-0.4316405,-0.04309674,0.91832995,-0.32137153,0.079463415,0.07982335,-0.14583959,-0.7200056,-0.22459884,0.43877715,-0.20657714,-0.47992262,0.07241666,-0.6244933,0.24517155,
namespace,-0.07726321,-0.6917214,-0.12531152,0.44474512,-0.37914246,0.56811243,0.795773,0.34448218,-0.446434,-0.4748518,0.07814338,-0.19895081,-0.26620063,0.20257777,0.6317699,-0.120597884,0.45393094,0.7341993,-0.123136155,-0.46731973,0.1238475,-0.103356,-0.42928287,-0.20565014,0.4424358,0.10577339,-0.08361641,0.37512243,-0.77718997,0.36853668,
parse(),-0.48986906,-0.3119551,-0.41741493,-0.14888121,0.76366353,-0.14172728,-0.01748426,0.21939738,-0.68119174,-0.19164424,0.38652745,0.66299826,-0.3018352,0.018041003,-0.5675975,-0.3749625,-0.3350108,0.34063193,0.06844609,0.31897226,0.14629279,-0.46342823,-0.84309065,-0.10933423,0.033960596,-0.5791197,-0.5317122,-0.09544008,-0.5016563,0.49323332,
setProperty(),-0.44225332,-0.35637805,-0.35749757,-0.0016284394,0.62104505,0.23082693,0.07824969,0.5140246,-0.98330206,-0.35278866,0.40916857,0.24834925,-0.17258906,0.22831665,-0.033187132,-0.19473289,0.08865804,0.6301464,-0.12676772,0.32963198,0.062734045,-0.3211434,-0.8320762,-0.5175817,-0.12322686,-0.28912547,-0.6166435,0.3634558,-1.2052429,0.382694,
peek(),-0.43172944,-0.41420597,0.29938272,-0.15151808,0.25495178,0.24169831,0.65120953,-0.2041118,-0.79898214,-0.46071854,0.41756773,0.18170695,-0.37842116,0.4169212,0.2428316,-0.42825997,0.26266512,0.5736823,0.114901625,-0.06335119,0.18782136,-0.12008867,-0.3531146,-0.42495915,0.4819945,-0.13010311,0.18326221,0.44899952,-0.6740087,0.3700223,
createXPATHMessage(),-0.10699601,-0.50323355,-0.544072,-0.4011932,0.6755654,0.17356414,0.6257365,0.51178074,-0.903761,-0.3623789,0.7416154,0.613899,-0.6347174,-0.17453644,-0.39131075,-0.7626727,-0.053024232,0.25735164,0.038579985,0.0034743217,-0.089121744,-0.31749997,-0.58822423,-0.352021,-0.014714013,-0.31571284,-0.51101977,-0.52043027,-0.16934434,0.28780177,
getErrorListener(),-0.68619597,-0.8434403,-0.5105933,-0.1548628,1.0188421,-0.34778085,0.63840026,0.04186661,-0.77702904,-0.25161362,0.3937199,0.645743,-0.547891,-0.048980463,-0.6103535,-0.4385942,-0.46190375,0.41564956,0.13072997,0.42035508,-0.21622512,-0.61108273,-0.6698838,-0.06112757,0.21702093,-0.4357647,-0.5550285,-0.3641379,-0.113199525,0.43668017,
setAttr(),-0.88752353,-0.9337262,-0.20023322,0.5113005,0.41408953,0.1304319,0.557154,0.20498535,-1.6732395,-0.8624176,1.1574048,-0.11774558,-0.733139,1.1368937,0.22864237,-0.22029726,0.008746935,1.0690416,0.28946897,-0.02874906,0.087624714,-0.79354256,-0.85944706,-0.2083497,0.6687787,0.30359888,-0.054238364,0.68632627,-1.6088672,1.2039677,
exprSetParent(),-0.017748827,-0.039049704,-0.16877599,0.5828614,-0.37899435,0.16846986,0.6669698,0.31555775,0.07982858,-0.32765475,0.22297972,-0.16572838,-0.33100042,-0.44563186,-0.5129789,-0.13295403,-0.10008661,-0.29938444,0.6546219,-0.6070022,-0.00969067,0.42339006,-0.1045005,0.028530275,0.06370273,-0.38894996,-0.0470554,0.41650608,-0.12264418,0.6510231,
TransletException,0.06248292,0.08343391,-0.63746226,-0.62314105,0.45586205,0.26076075,0.6721676,0.16314518,-0.8492221,-0.32222494,0.5987087,0.7546092,-0.7086242,0.02242927,-0.22186367,-0.8522582,-0.17830342,0.80579716,0.12188719,0.17834952,0.23628636,-0.48964086,-0.8889838,-0.3309024,0.3895034,-0.5834149,-0.44401035,-0.20251656,-0.50798476,0.5843794,
getNamespaceURI(),-0.81447417,-0.6951658,0.087920435,0.13994028,0.70268553,-0.05954055,0.23522253,-0.2233959,-0.8598323,-0.38232356,0.98306715,-0.07308256,-0.71722865,0.05956611,-0.3166765,0.2784575,0.087802626,0.31076404,0.46353444,-0.421861,0.04794129,0.09313545,-0.5916827,-0.4351297,0.29441866,0.033577062,-0.08391578,0.4742232,-0.33815587,0.08908971,
getNodeName,-0.330108,-0.7155712,-0.16327952,0.47235823,-0.02789575,-0.10124269,1.2017311,-0.16055827,-0.15438865,-0.36177385,0.53875893,-0.3427459,-0.983528,-0.031595316,-0.10169193,-0.4108587,-0.26032797,-0.13080153,0.99317914,-0.78088045,-0.31069252,0.022056434,-0.0035672358,0.013921305,0.2605834,-0.14455129,0.19063793,0.29311237,0.007993882,0.33615667,
data,0.019689718,0.102724135,-0.33106315,-0.39146167,0.12254876,0.45175698,0.80183697,0.04232338,-0.4993517,-0.16304384,0.5765041,0.540741,-0.8698464,0.031665016,-0.27390328,-0.8763435,0.07138814,0.90090823,0.20877747,-0.13306375,0.28791994,-0.20052516,-0.55014914,-0.5882257,0.75826436,-0.44261038,-0.24672888,-0.006818521,-0.11864105,0.39168918,
startElement,0.14562893,-0.41797093,-0.72671986,0.027233627,-0.0033828558,0.68420064,0.98242044,0.35890102,-0.641069,-0.1787377,-0.13909793,0.36011147,-0.30189243,0.15123793,0.1973249,-0.4182715,0.03493129,1.0177623,-0.29429495,0.008410653,-0.08192552,-0.40844068,-0.7395024,-0.30057216,0.4828376,-0.37411055,-0.52514225,0.08491102,-0.4923323,0.34127066,
s,-0.29609296,-0.36172527,0.28260747,-0.40753478,0.3082772,-0.06533613,0.32358086,-0.2610608,-0.855485,-0.6879006,0.88260823,0.21272424,-0.38920602,0.15942544,0.038595792,-0.6167931,0.35778457,0.068005025,0.4310375,-0.42946425,0.41520026,0.028307438,-0.16472492,-0.4309191,0.00018533168,-0.20724487,0.12971714,0.2105278,-0.79605454,0.49477503,
close(),-0.6274159,-0.08405784,0.016315736,-0.2908955,0.6850773,-0.02114294,0.26890916,0.042080477,-1.1705272,-0.42934066,0.5309121,0.54902035,-0.14111042,0.23151621,-0.51793826,-0.7612426,0.004465611,0.33166826,0.19645046,0.19589739,0.29907733,-0.4033257,-0.5308285,-0.26358438,-0.1233396,-0.6505338,-0.25115344,0.1970777,-0.94337183,0.5283775,
ex,-0.40544403,-0.46609,-0.3852795,-0.28741193,1.0239307,-0.17622568,0.46076542,0.25370848,-0.94285244,-0.28711104,0.5394482,0.5747103,-0.38264644,0.25064614,-0.36496013,-0.67859834,-0.25397125,0.3985724,0.18014532,0.45047596,0.057535633,-0.7357061,-0.84927446,-0.07018785,-0.004632302,-0.5208099,-0.48248628,-0.17458612,-0.5793066,0.6303995,
INVOKESPECIAL,-0.683297,-0.9197667,-0.33032233,0.46064058,-0.41900292,-0.32045025,-0.42696637,0.48024443,-0.24913622,-0.7292535,0.36901736,0.22565405,-0.3358813,-0.48178634,-0.16667312,0.5979433,0.22961542,0.12293112,-0.11442088,-0.4599375,1.2552648,1.0379229,-1.2578521,0.43388695,0.4834681,-0.005993747,-0.4992697,0.38046527,-1.3342302,0.9974796,
loadHandler(),-0.8225436,-0.70273614,-0.35132867,0.3854535,-0.31834912,-0.32555324,-0.45948678,0.5614274,-0.23106031,-0.66907364,0.24286762,0.25841227,-0.29279566,-0.4632403,-0.32431233,0.67768854,0.13343628,0.26372033,-0.21111436,-0.32518268,1.2037324,1.0054039,-1.4097748,0.40294933,0.52541995,-0.03607461,-0.6407042,0.5014017,-1.3493781,1.0909747,
addFieldref(),-0.75689846,-0.53461313,-0.56798345,0.4327036,-0.49390173,-0.22453216,-0.2701404,0.5985827,-0.14866439,-0.54656714,0.16075733,0.3020323,-0.3983159,-0.70328116,-0.39017844,0.7053377,0.034987703,0.2688448,-0.1831492,-0.3265074,1.0523952,1.1284783,-1.256879,0.38175252,0.64478904,-0.11641641,-0.68536305,0.4286688,-1.1315694,1.0152031,
makeNodeHandle(),-0.76136136,-0.44590533,0.4615988,0.2887472,0.2964942,0.03387202,0.6283584,-0.4279034,-0.57554984,-0.42152712,1.026242,-0.078853674,-0.58416975,-0.083685346,-0.66485405,-0.31030536,0.057501454,-0.26369828,1.0765561,-1.0167283,0.2561178,0.30811822,0.06942951,-0.23328939,-0.03711509,-0.3302106,0.26701874,0.5129828,-0.1542681,0.2728678,
compiler,-0.10146994,-0.23282611,-0.38586167,0.39010316,-0.109119676,-0.4279578,0.62305856,-0.39316693,0.3732241,0.011662342,0.02854957,0.25689015,-0.63964695,-0.4982956,-0.53843683,0.07216029,-0.49827725,0.18674518,0.73502624,-0.5372961,0.33491248,-0.032231584,-0.5472539,0.40557066,0.4785681,-0.4915288,-0.06250588,0.13809074,0.3290016,0.78580815,
org.apache.xpath.functions,0.033678997,-1.1662468,-0.025811244,0.4309888,-0.17723338,0.2215709,1.102731,0.1535719,0.090583675,-0.41119134,0.23624168,-0.15839842,-0.75159407,-0.18193944,0.071908765,-0.7724289,0.13387573,-0.07467879,0.5719601,-0.5617583,-0.46912035,-0.22810873,-0.33064446,-0.3103596,-0.19818163,-0.34605747,-0.075810656,-0.2538512,-0.25255215,0.37899783,
elements(),-0.83107907,-1.7487833,0.35311618,0.3765715,0.2602754,0.1757158,-0.41666886,0.13927576,-0.5774945,-0.29013547,0.2633016,0.2478734,-0.06135162,0.18784347,0.040348925,0.27009013,0.29106876,-0.24337217,-0.06407396,-0.011270772,0.27665272,0.12917973,-0.97257787,0.06588742,-0.19864522,-0.24295916,-0.32196972,0.20363495,-0.92966604,0.6392161,
namespaceURI,0.34341985,-0.69467336,-0.6509577,0.18028152,0.12620965,0.61773103,1.1888568,0.3464836,-0.7434303,-0.22273536,0.43845555,0.098825306,-0.6845723,0.1620916,0.2055946,-0.5099471,0.035294637,0.7115752,0.11950448,-0.32824314,-0.327573,-0.33901793,-0.7665552,-0.4149228,0.30381557,-0.14742595,-0.27664417,-0.154156,-0.21731396,0.112933174,
indent,0.028538337,0.19364107,-0.060667776,0.08557808,-0.078296,0.52196777,0.5696709,-0.39725915,-0.56473535,-0.31984255,0.25133115,0.2155982,-0.018167935,0.04247766,-0.26780444,-0.7154776,0.5915839,0.36926362,-0.02009915,-0.75908643,1.3000054,-0.014764887,-0.08440589,-0.121755004,-0.20259197,-0.6153583,0.012613868,0.15524559,-1.2690176,0.41912314,
getClassName(),-0.5229199,-0.85714406,-0.30584034,0.3276544,-0.2256114,-0.23913206,-0.32228515,0.39225802,-0.14204036,-0.40754107,-0.003796484,0.29328865,-0.2215314,-0.4053759,-0.10910772,0.59875643,0.10246717,0.18509081,-0.15789637,-0.16532797,0.73131776,0.60184085,-1.1545576,0.37246937,0.26183632,-0.16578574,-0.5332587,0.16986917,-0.98095816,0.8756078,
expr,0.03563494,-0.3912556,0.057103936,0.485508,-0.27371198,0.10815424,0.4750738,0.2820009,-0.02744812,-0.2926148,0.50645703,-0.24431683,-0.447109,-0.31326348,-0.2750903,-0.13577615,0.11437921,-0.26028594,0.6224671,-0.71126527,0.027228337,0.33603206,-0.24819064,-0.14170457,-0.080250196,-0.30200863,0.06656175,0.30177385,-0.21452188,0.42288142,
getLineNumber(),-0.4825311,-0.48363173,-0.2551386,0.00057898957,0.6592518,-0.07286828,0.14723827,-0.22976805,-0.71375954,-0.06017408,0.16963154,0.18571605,0.0597237,-0.04678855,-0.58420664,-0.10257715,-0.00927502,0.05992864,-0.02477761,-0.022244077,0.22826792,-0.08453737,-0.7344713,-0.1642229,-0.19918491,-0.63713735,-0.35161972,0.050652012,-0.6462772,0.059054613,
endElement,0.01927216,-0.2238584,-0.6415474,-0.16407447,0.15174247,0.64262676,0.8021817,0.26057598,-0.7137211,-0.2040281,0.07825901,0.38425863,-0.35647464,0.23776926,0.0009733968,-0.44090354,0.016292892,1.0013207,-0.28950894,0.00075726357,0.03092227,-0.27550572,-0.75648487,-0.3782404,0.5665014,-0.27775285,-0.5341131,0.0789657,-0.48203653,0.29740208,
setStartNode(),-0.27509898,-0.34335995,0.3632055,0.58191997,-0.23818548,0.004648406,-0.39946523,0.4464061,0.18791418,-0.2777004,0.64313334,-0.12933551,-0.46996576,0.043573476,-0.16223323,0.18027991,0.12675762,-0.39277467,0.8215409,-1.0005984,0.6308243,0.25884035,-0.9026005,0.14783485,-0.01841238,-0.13369752,0.1514579,0.65260637,-0.47923914,0.90660155,
args,-0.34567648,-0.90779275,-0.27156475,-0.080001116,0.78321624,-0.09666132,0.8838561,-0.09959587,-0.7286511,-0.25045997,0.2911461,0.38685274,-0.2803525,-0.06736025,-0.37529323,-0.59593964,-0.16008583,0.16456531,0.13338521,0.080904156,-0.07921308,-0.47935557,-0.36865014,-0.049542826,-0.014884245,-0.38760462,-0.32483122,-0.5046686,-0.25635803,0.2645438,
publicId,0.19481534,-0.51526386,-1.013837,0.4089395,-0.2282837,0.65109706,1.3427585,0.50594753,-0.44554913,-0.12343629,-0.22240934,0.17601739,-0.37029386,0.020479456,0.12161239,-0.39360008,-0.09769906,0.9496019,-0.28026563,-0.090575814,0.06873503,-0.014081562,-0.8214828,-0.28731057,0.54809713,-0.17414503,-0.44082382,0.105525896,-0.5365984,0.26250103,
error,-0.22052397,-0.65323675,-0.541572,-0.2036537,1.0064664,0.07334576,0.9088854,0.1407651,-1.1581928,-0.256449,0.5696265,0.54352605,-0.3898101,-0.06364836,-0.57083243,-0.652179,-0.21149099,0.1709337,0.11078466,0.11640788,-0.08679959,-0.516668,-0.5561801,-0.09952796,-0.04675267,-0.5041367,-0.45470706,-0.49216262,-0.23922703,0.28188774,
axis,-0.07732623,-0.16281132,-0.43810064,0.76294583,-0.44311526,-0.17554145,0.3974169,0.0016944158,0.27336928,-0.13582337,0.18849838,-0.049183846,-0.7146243,-0.43966544,-0.21294597,0.19532746,-0.3626044,0.24263345,0.68842554,-0.8583104,0.33711284,0.061985184,-0.519254,0.34718525,0.38100845,-0.23379524,0.112947874,0.2722507,0.1115115,0.6821123,
ILOAD,-0.51260185,-0.6030213,-0.47914287,0.38982204,-0.4833594,-0.22965713,-0.121441044,0.55529684,0.09689534,-0.47909245,0.032041088,0.22602595,-0.39263088,-0.5774197,-0.3131733,0.5366066,0.037843596,0.17134848,-0.124187075,-0.33824927,0.98873365,1.0073849,-1.1632819,0.39902496,0.5284087,-0.07137273,-0.5378675,0.35685474,-1.0132539,0.9297314,
ALOAD,-0.31832927,-0.23092882,-0.64414805,0.3225048,-0.5340606,-0.14802441,-0.08635284,0.6056353,0.18316834,-0.39649522,-0.13870862,0.10730266,-0.36074853,-0.5546037,-0.2545157,0.46543378,-0.116537325,0.19238637,-0.04860218,-0.34465876,0.80472517,0.9853719,-1.1010749,0.2956628,0.57656807,-0.10065152,-0.48129836,0.4494923,-0.858898,0.8527537,
FuncLoader,-0.24895814,-0.41544166,-0.354618,0.6126075,-0.26202106,-0.46635288,0.17392348,0.23551595,0.07790667,0.007355994,0.22446546,0.12223277,-0.07519187,-0.15464613,-0.36391938,0.06596285,-0.3551748,0.20903124,0.32325438,-0.025667412,0.857586,-0.55355823,-0.4306988,0.946861,0.7429629,-0.6469698,-0.5108676,0.33200932,-0.6745261,1.8942083,
IllegalArgumentException,-0.074826345,-0.38765183,-0.47124743,-0.410882,0.7980789,0.14003213,0.37350294,0.5086787,-1.1666641,-0.36446345,0.83542335,0.50684524,-0.46042553,0.04663679,-0.29194874,-0.57125926,0.10504511,0.42758933,-0.05785873,0.04079865,0.137075,-0.35592553,-0.83347845,-0.3786472,-0.03922379,-0.33142197,-0.5501086,-0.33678764,-0.55546385,0.29616827,
getURI(),-0.7591601,-1.1876295,0.4486859,-0.02343944,0.54082024,0.19433056,0.14396015,-0.10326123,-0.8581385,-0.55947906,0.93438107,-0.023452781,-0.6069277,0.15211996,0.061863605,-0.056176964,0.412873,0.12796874,0.30717018,-0.3347501,-0.057574548,0.14866911,-0.46762428,-0.57487744,-0.07204985,0.07877377,-0.10266345,0.25058073,-0.7214811,0.108767085,
fatalError(),-0.30651543,-0.5917685,-0.58644366,-0.17391995,0.9295698,-0.0844612,0.4697851,0.43746996,-1.1334047,-0.3564818,0.6513194,0.663109,-0.5160657,0.13024364,-0.4721765,-0.77417266,-0.30777636,0.43209425,0.022614283,0.57065225,-0.04896609,-0.5930805,-0.860533,-0.10989896,0.103913985,-0.47283307,-0.5353361,-0.35607323,-0.6073202,0.54361826,
invoke(),-0.37247735,-0.5522187,-0.38790953,-0.1400999,0.76752406,-0.26874655,0.34069794,0.31445256,-1.070855,-0.47350287,0.56838316,0.5054701,-0.18319078,0.20707849,-0.105531745,-0.5310109,-0.050682288,0.4232285,-0.111832194,0.4447285,0.34206653,-0.67853606,-0.5940811,0.14381544,-0.023928156,-0.34888798,-0.3959311,-0.26600796,-1.0433583,0.6355193,
String,-0.44956875,-0.14563015,0.032363005,-0.20591249,0.22292897,-0.029692912,0.27354562,-0.28377482,-0.23533161,-0.30196425,0.59188527,0.253942,-0.70731956,0.01945862,-0.18847299,-0.22626641,0.03436595,0.38292673,0.44840607,-0.58971983,0.5214562,0.10684582,-0.4522713,-0.24459761,0.44806835,-0.18244317,0.0066863755,0.20882204,-0.15489125,0.33783442,
target,0.055304732,-0.08069965,-0.25957868,-0.4501257,-0.054236464,0.51522845,0.87096786,-0.035763875,-0.41670376,-0.25157169,0.2845001,0.5111141,-0.66088384,-0.0665409,-0.10894054,-0.86478156,0.12640586,0.77507144,0.10444523,-0.19696707,0.2881065,-0.053966742,-0.3696405,-0.47152638,0.47022793,-0.44061247,-0.23977415,-0.07760084,-0.2830715,0.39763954,
attributes,0.08916029,-1.0767244,-0.563066,0.30934435,-0.38088056,0.64219743,0.95379984,0.437297,-0.3695483,-0.3420924,-0.09108678,0.11035684,-0.3112229,-0.0058715483,0.45798343,-0.37604955,0.27338707,0.78254324,-0.35889024,-0.17936417,-0.122613065,-0.13787386,-0.5372396,-0.24679027,0.28850046,-0.16762345,-0.43056208,-0.07404272,-0.60522467,0.31442124,
comment,-0.19658335,0.2907599,-0.20115694,-0.6893823,-0.06479444,0.56945544,0.6715404,-0.214085,-0.43226543,-0.39538246,0.43962756,0.57213646,-0.7834116,-0.046975296,-0.09674418,-0.7589878,0.19531682,0.9449744,0.110487394,-0.35660288,0.60029614,0.27583954,-0.5269163,-0.7557471,0.75132895,-0.39839453,-0.17215529,0.24698423,-0.5143779,0.3512718,
parseContents,0.012201651,-0.4651562,-0.11063843,0.24800347,0.16496101,0.6646423,0.3376368,0.22933125,-0.8454096,-0.60660845,0.49941128,0.040213384,-0.18021585,-0.037217017,-0.16513926,-0.28225103,0.68969077,0.14757618,-0.25611317,-0.49719822,0.69549465,0.3098284,-0.41660118,-0.44838935,-0.6511295,-0.24263501,-0.19381809,-0.11114889,-1.5291476,-0.08944164,
endElement(),-0.38462582,-0.22912556,-0.25773102,-0.069359094,0.22037837,0.32915705,0.17273404,0.066740185,-0.6339188,-0.2953191,0.258186,0.21416354,-0.18054225,-0.034804992,-0.1603306,0.08055171,0.12347429,0.57678276,-0.14724986,-0.18783943,0.20707783,0.12035246,-0.56449026,-0.3176116,0.33563346,-0.14679037,-0.43283418,0.34079418,-0.35877421,0.25431976,
init(),-0.42343298,-0.07595639,-0.17836322,0.08708023,0.28316575,-0.11666951,0.4551607,-0.061759755,-0.23527896,-0.13744672,-0.16145816,0.20672075,-0.102404155,0.04168164,-0.2044476,-0.15193592,-0.25720003,0.47042876,0.20036387,0.15166111,0.09455128,-0.41515332,-0.4660578,0.013203786,0.30176434,-0.4093931,-0.21499391,0.348533,-0.44421533,0.62637955,
locator,-0.11521041,0.025251009,-0.53765416,-0.10380575,0.1903623,0.26932427,0.77486974,0.13802752,-0.47052747,-0.16376501,-0.004909579,0.3211995,-0.21209359,0.033997856,-0.21336572,-0.6527956,-0.15997721,0.47871104,0.012173061,0.05670545,0.036273684,-0.28694028,-0.41785452,-0.2428108,0.15430838,-0.50681525,-0.3155017,0.02377993,-0.55668604,0.30520943,
NEW,-0.75201017,-0.76715344,-0.35643968,0.39125508,-0.47766328,-0.35686737,-0.38889098,0.449641,-0.060320303,-0.69634223,0.19589712,0.19414988,-0.32538393,-0.50294346,-0.21100584,0.6510179,0.16209108,0.19497937,-0.07277522,-0.50761235,1.2915156,1.0407709,-1.3177348,0.40537384,0.5241059,-0.04205466,-0.53943336,0.4965527,-1.3114585,1.0779581,
argument(),-0.31120726,-0.91677076,-0.09658262,0.62017566,0.047574885,-0.25955293,-0.02930213,0.874072,-0.8273064,-0.968666,0.6996999,0.063604206,-0.08392291,-0.4446605,-0.30132478,0.7650647,0.42906502,-0.1498283,-0.19198579,-0.43007964,0.38703343,0.5817523,-1.0936507,0.38196358,-0.2993012,0.1350991,-0.4754143,-0.056650255,-0.77771467,0.6321151,
current,-0.3757363,-0.95914215,0.43876502,0.54271686,-0.19871804,0.04192506,0.385347,-0.18503359,-0.24867822,-0.69532114,1.2179686,-0.11557993,-0.99071413,-0.1051203,-0.04520845,-0.33042797,0.15945159,-0.38584882,1.3063356,-1.4191719,0.36279607,0.35284635,-0.15174112,-0.19216284,0.008519852,-0.10609568,0.45749432,0.4567988,-0.26522413,0.8251293,
org.apache.xml.utils,-0.08455264,-0.5627388,-0.100890085,0.09680854,-0.23955178,0.08593777,0.62699014,-0.2302338,0.12480626,-0.15530181,-0.12185211,0.14456843,-0.36366177,-0.20420238,0.039254032,-0.40082404,-0.009987552,0.27876586,0.18762888,-0.21403843,0.17138033,-0.118218966,-0.26097405,-0.07185029,0.18576498,-0.3315298,-0.026038894,-0.072088346,-0.31745532,0.44679996,
bool(),-0.36644235,-0.39132994,0.11900237,0.24351047,0.77853066,-0.12063154,0.60339046,0.14402114,-0.4361976,-0.37665287,0.839734,-0.073108695,-0.96304077,0.013484585,-0.3773596,-0.24153511,-0.1999341,0.08594164,0.83371586,-0.28428465,-0.63247395,-0.30267447,-0.7310127,-0.49056005,-0.057860278,-0.14916827,-0.16839942,0.14683558,0.090103865,0.1442072,
setContentHandler(),-0.41479626,-0.12010366,-0.5254834,-0.10608563,0.4374074,-0.06362592,0.38020325,0.22246793,-0.48755687,-0.18104024,-0.014559691,0.5482631,-0.17983897,-0.012445707,-0.39032626,-0.5628717,-0.32918102,0.45795125,0.006718986,0.3151589,0.1358764,-0.52088785,-0.5801339,-0.011773991,0.11390342,-0.6433803,-0.49315494,-0.072369605,-0.6316364,0.5785041,
encoding,-0.3106219,-0.18571158,-0.22319897,-0.10444613,0.28547028,-0.055169858,0.44198722,-0.13424702,-0.4457388,-0.116556734,0.060561303,0.40692753,-0.13706884,0.14218222,-0.17281932,-0.51001436,-0.13160153,0.6563017,0.13194437,0.048431896,0.33155182,-0.54604626,-0.44067898,0.052714955,0.46698087,-0.47045365,-0.31530574,0.083491616,-0.40473825,0.823903,
setMark,-0.27466357,0.14191703,0.22347076,0.65528345,-0.40510806,-0.18152131,0.14940846,0.13487992,0.27846402,-0.42228517,0.71873665,-0.13822481,-0.8148689,-0.11363261,-0.52732325,-0.036809508,-0.12855902,-0.35413983,1.2939162,-1.201049,0.35408375,0.3097426,-0.5979517,0.17534018,0.21820849,-0.35033122,0.37003475,0.7947722,-0.33338144,0.9552475,
gotoMark,-0.25361863,0.057850495,0.17601241,0.72894555,-0.5238275,-0.18257852,0.13553682,0.1536715,0.41814584,-0.38032678,0.5429136,-0.16060688,-0.72106963,-0.13053015,-0.4315349,-0.08812352,-0.1305824,-0.32033774,1.2427927,-1.1672218,0.3913074,0.14223115,-0.54363394,0.2153667,0.25905448,-0.35826358,0.3342665,0.7410947,-0.33545408,1.0070921,
TypeCheckError,0.1902438,-0.9940389,-0.28663623,-0.026284186,0.3482398,0.03261873,0.2549745,1.2092937,-0.99997944,-0.86273485,0.8574415,0.22235736,-0.064960346,-0.334941,-0.13977934,-0.1047242,0.5834676,-0.27620608,-0.20460325,-0.30629092,0.2528305,0.20142691,-1.1249828,0.057555992,-0.78374076,-0.04363017,-0.5128673,-0.59956914,-0.8923017,0.38597238,
fname,0.28511557,-0.906327,-0.4821953,0.7152614,-0.70156723,0.3625081,0.6461755,0.9406369,-0.16562957,-0.8474325,-0.008405662,-0.032748118,-0.08164492,-0.546116,0.15910567,-0.106270604,0.48453894,0.052103844,-0.39023715,-0.3787129,0.3158435,0.13365807,-0.6490623,0.26321265,-0.5687076,-0.07900581,-0.29159704,-0.41764265,-1.2437335,0.5914629,
INVOKESTATIC,-0.49409187,-0.77303874,-0.51969,0.43991548,-0.36345348,-0.23012556,-0.35448012,0.6938391,-0.29268605,-0.67651063,0.24844897,0.19393475,-0.2583559,-0.5331608,-0.1529424,0.64604694,0.19069414,0.17339672,-0.27400342,-0.35257694,1.063883,0.8709473,-1.3027359,0.4035066,0.29505053,-0.0099979155,-0.6243979,0.25141793,-1.3142899,0.94365346,
initAttrTable(),-0.7098716,-0.30838025,-0.4861327,0.5310083,0.5815089,0.20410058,0.21760233,-0.16011298,-1.1937524,-0.68083376,0.1308754,-0.035554573,-0.45827916,0.6166286,-0.19211777,0.53642184,0.105280526,0.49554667,-0.15864179,0.19311896,0.47391227,-0.5526773,-1.0831211,-0.09358492,0.8758534,-0.02636996,-0.030087968,0.5235558,-1.7205803,1.1356128,
initStdClass(),-1.1105267,0.75127983,-0.6688651,0.20748538,0.19699214,-0.08086733,0.43347764,-0.18393356,-0.62926376,-0.39225292,-0.09779431,0.5328637,-0.48438996,0.14258428,-1.047829,-0.25295496,-0.55871266,0.7803313,0.3578989,0.23122033,0.46747664,-0.48057586,-1.1523703,-0.23709154,0.92044103,-0.76647574,-0.3592251,1.0587666,-1.5564089,1.1210239,
startElement(),-0.48351607,-0.45787174,-0.06368074,-0.06680406,0.33938694,0.1056377,0.0059979055,-0.022604859,-0.6978482,-0.30745915,0.4730674,0.13629843,-0.22453949,0.04352511,-0.21383327,0.13912466,0.17746228,0.506064,-0.014171149,-0.17306474,0.29085308,0.254724,-0.6136957,-0.25645915,0.31210932,-0.091145284,-0.39186734,0.36414036,-0.53104395,0.2536771,
Stack,-0.3382493,-0.59008723,0.14376086,0.03735947,0.2208151,0.15665363,0.49381962,0.059937105,-0.789733,-0.50972885,0.116242684,0.15156293,-0.13708097,0.4739678,0.52618355,-0.2682019,0.24007566,0.6833481,-0.10609017,0.10546396,0.41355252,-0.5197182,-0.4481095,-0.01891866,0.4102777,-0.07068098,0.007983287,0.385603,-1.1334682,0.84386176,
b,-0.074983805,-0.18181913,-0.26276472,-0.22968023,0.20743096,0.11537615,0.822212,0.024586339,-0.37414888,-0.27692777,0.16841751,0.27322626,-0.37446588,-0.14690448,-0.18957762,-0.74140996,-0.20373182,0.07181712,0.41171625,-0.26928806,0.034285944,-0.08408439,-0.19705474,-0.23406854,0.021102035,-0.39028773,-0.09114109,-0.10114957,-0.20907496,0.2953728,
getExpression(),-0.61875755,-0.5494104,0.36710396,0.35828638,-0.043541178,0.034504585,0.45407906,0.024859589,-0.4269975,-0.52638584,0.496907,-0.036818873,-0.09391477,-0.29755914,-0.3645336,-0.21153228,0.19363037,-0.23392603,0.49807543,-0.5191443,0.27243894,0.403977,0.14534791,-0.13216846,0.035267085,-0.3355007,0.028736364,0.39340317,-0.51915425,0.4475645,
getXSLToken,-0.103004076,-0.75165874,-0.1613919,0.5121909,-0.37975365,-0.028886547,1.2402517,0.09034149,-0.119839616,-0.48103827,0.2840294,-0.3708219,-0.7849965,-0.059764847,0.16424958,-0.6143261,-0.10113063,-0.20100462,0.8668798,-0.87004274,-0.20654522,0.12876508,0.036384378,0.059973184,0.14282192,-0.09962349,0.24883991,0.18710089,-0.32186896,0.4537593,
dtm,-0.17054969,-0.64121366,-0.010331767,0.36393663,-0.12053483,0.077520445,0.5974569,-0.052168358,0.0087651415,-0.23244455,0.2011203,0.027060436,-0.5668938,-0.17241806,-0.06990964,-0.36056536,-0.08737186,0.060906507,0.5646235,-0.44596335,-0.17844214,-0.09509838,-0.24573849,-0.1466608,4.9315655e-05,-0.30096316,0.035060097,-0.021472335,-0.025540039,0.31868294,
dom,-0.093555465,-0.67047024,-0.106534824,0.23387127,0.22235514,-0.026829615,0.023125635,-0.016056543,-0.14086072,-0.055459812,0.56211805,0.02556757,-0.6865862,-0.026026666,0.00929518,0.0212062,-0.027641552,0.23489392,0.49672067,-0.43217394,0.14163044,-0.35210997,-0.84161794,-0.118383944,0.08909562,-0.22873886,-0.07187474,0.108339995,-0.058257796,0.49131995,
org.apache.xalan.xsltc.dom,-0.013503034,-0.8242112,-0.081501916,0.17574762,-0.2503011,-0.029324362,0.40183395,-0.13530275,0.19761978,-0.15998507,0.03968685,0.22712514,-0.5426781,-0.20477833,0.19506268,-0.304387,0.013552177,0.2693635,0.28886965,-0.49787384,0.26654926,-0.20034064,-0.42130342,0.052906506,0.1342632,-0.27667364,-0.044487044,-0.23910621,-0.1939459,0.53827524,
closeStartTag(),-0.63329047,0.381892,-0.10704389,-0.4087644,0.35146514,0.0115495045,-0.027747849,-0.048552882,-0.64337295,-0.3159545,0.46005845,0.5576967,-0.5095467,0.085424274,-0.52795476,-0.27985787,-0.15567076,0.73036814,0.15209246,0.048097104,0.60726833,0.060370214,-0.79462796,-0.39096895,0.6810376,-0.46659255,-0.32850477,0.49230856,-0.5787781,0.5424029,
getNamespace(),-0.56145394,-0.7663253,0.21803868,0.16174208,0.45813257,-0.07277671,0.25985307,-0.028127829,-0.82000977,-0.6877876,0.5506104,-0.15429507,-0.27057892,0.014285578,-0.057180766,0.37295392,0.3318153,0.056823056,0.18067648,-0.37445632,-0.046619006,0.37046313,-0.7068066,-0.2856535,-0.06560143,0.12954955,-0.09317027,0.38323393,-0.68000644,0.013079505,
setRoot(),-0.23927422,-0.46879488,0.048739817,0.29192948,-0.025331998,0.11240839,0.4809384,0.06453061,0.112289734,-0.19260272,0.28119543,-0.0061941682,-0.602627,0.018206567,-0.13318458,-0.52444845,-0.07380151,0.00027859962,0.6281921,-0.37705275,-0.08511421,-0.2442486,-0.20117804,-0.14124359,-0.014316786,-0.30894747,0.0014524701,0.0936492,-0.25612503,0.54407054,
NodeSet,-0.42384583,-1.125604,0.34528238,0.17810889,-0.13582753,-0.3254644,0.49352837,-0.16345409,-0.12092469,-0.54826003,0.073695086,0.15601128,-0.092646204,-0.30331278,-0.1028337,-0.41148525,0.08524858,-0.15005259,0.42268106,-0.3359831,-0.01147955,-0.15618686,-0.037368156,0.12053553,-0.0034580205,-0.3270267,-0.012683362,-0.033483755,-0.270561,0.7801919,
XPath,-0.54449546,-0.5598217,-0.28825635,0.19412753,0.4424811,-0.24246387,0.6011616,-0.05376255,-0.2771299,-0.23502864,0.12936483,0.21025091,-0.4308589,-0.10087501,-0.36082262,-0.17709474,-0.41270873,0.14769027,0.3938126,0.09423372,-0.3221367,-0.30046272,-0.3607597,0.043542124,0.28203586,-0.28997254,-0.27005136,-0.0057205376,0.009448505,0.4933163,
intValue(),-0.5240211,-0.7968686,0.34508726,0.2444356,0.17484277,0.2244994,0.046306852,-0.08860266,-0.98208034,-0.5389623,0.56893647,-0.018052759,-0.38685885,0.48047638,0.41963804,0.06786623,0.29814878,0.44628984,0.12927154,-0.21595447,0.16597046,-0.124862246,-0.627611,-0.26361594,0.26278386,0.1262059,0.10770803,0.53030604,-0.9104315,0.617059,
isEmpty(),-0.338166,-0.45068935,0.24418055,-0.10569572,0.19388077,0.27696878,0.4745181,0.0021130948,-0.8031739,-0.47333708,0.26988748,0.15080193,-0.16556028,0.47026205,0.28698063,-0.3899113,0.30082718,0.50990117,-0.025464892,-0.09745392,0.23399138,-0.11772143,-0.46534207,-0.42066455,0.22771569,-0.10414073,0.024205975,0.44548258,-0.8694212,0.4109781,
detach(),-0.401152,-0.36550733,0.14060538,0.46353334,-0.11616698,0.01799288,0.42687953,0.09352298,0.12605807,-0.26488605,0.236123,-0.147399,-0.53256255,-0.2523147,-0.39501885,-0.20507534,-0.057158556,-0.1929881,0.6900663,-0.57287765,-0.21725038,0.086797744,-0.24316967,-0.21666433,0.004996621,-0.37464583,-0.07704453,0.33267307,-0.07831538,0.43979216,
addAttributeToNode(),-0.6539099,0.08775367,-0.4370375,-0.2637607,0.71499556,-0.24811697,0.3517927,0.3216514,-1.2877723,-0.74102217,0.43158233,0.57868254,-0.27612174,0.3738731,-0.21580067,-0.58287174,-0.28192174,0.6284278,0.1504378,0.5633769,0.24877337,-0.8091162,-0.8875261,0.053172186,0.17021833,-0.5649798,-0.3804481,0.3203964,-1.4603736,1.1443717,
setSystemId(),-0.28167766,0.05400288,-0.63338065,-0.18724473,0.5477076,-0.016668444,0.1928866,0.30612293,-0.746635,-0.28477904,0.07177409,0.526195,-0.042926144,-0.08013093,-0.53985757,-0.42287305,-0.14028412,0.36797464,-0.17705353,0.33657655,0.23920135,-0.3781,-0.73006046,-0.09611307,-0.09147313,-0.6218831,-0.5759578,-0.038611356,-0.88249946,0.5380435,
c,-0.19799879,0.046258286,-0.035472702,-0.39802215,0.007102304,-0.17666933,0.5618653,-0.44790125,-0.31105512,-0.49063063,0.7818002,0.12816893,-0.9560369,-0.045207344,0.10892323,-0.75355434,-0.0036777812,0.3286174,0.8092245,-0.8801092,0.610028,0.24586004,-0.16197772,-0.4540835,0.40149012,-0.09835772,0.28586936,0.271617,-0.46424747,0.5191471,
vars,-0.12035296,-0.91182834,0.057603266,0.565568,-0.580865,-0.022456981,0.96837795,0.20848471,0.28575942,-0.45270064,0.17735083,-0.25887483,-0.49296802,-0.4397127,-0.12538965,-0.40746117,0.119461365,-0.40092614,0.62312907,-0.681157,-0.012369112,0.30757654,0.04117765,0.12280117,0.04043473,-0.29348505,0.04775188,0.14268503,-0.32579684,0.60845774,
val,-0.21064311,-0.23902653,0.016061425,-0.028952911,0.09120477,-0.03552579,0.26389483,0.16963986,-0.34356862,-0.4268593,0.48172465,0.02636218,-0.42144638,-0.09589014,-0.08939284,-0.350353,0.20002435,0.10329736,0.39746174,-0.5419634,0.17635515,0.07152867,-0.2922471,-0.29223526,0.07332856,-0.13377629,-0.054837354,0.110125296,-0.35130945,0.34908828,
deepEquals(),-0.0633028,-0.5961547,0.20902075,0.42396602,-0.110358946,0.052529886,0.25150138,0.47352102,-0.34598762,-0.43831083,1.0692137,-0.26758185,-0.62868136,-0.23391265,-0.18588158,-0.14994758,0.26444203,-0.2570943,0.7259223,-0.91871154,0.24037981,0.4236365,-0.23530248,-0.12383677,-0.007062152,-0.11146196,0.11601898,0.28965178,-0.272488,0.36136627,
iterator,0.10166825,-0.53657395,-0.2535101,0.49519783,-0.25338215,0.15715523,0.27040705,0.24996774,0.18202151,-0.023782494,0.1274756,-0.0023235325,-0.46342134,0.0059666415,0.09864187,-0.17740315,-0.08834606,0.20508374,0.4566887,-0.4286927,0.022471212,-0.38207886,-0.768873,0.07141893,0.12521762,-0.3580572,-0.05884458,0.15553024,-0.15957953,0.69761103,
org.apache.xalan.xsltc.compiler.util,0.02497993,-0.64592767,-0.25436404,0.22267015,-0.28627008,0.0083019305,0.5121215,0.12693481,0.06519948,-0.37241194,-0.21173684,0.09473218,-0.20495686,-0.3346893,0.12813163,-0.055967692,0.075384066,0.07387117,0.05020395,-0.37112945,0.11040287,0.14836842,-0.56142986,0.036346506,-0.04772375,-0.19329497,-0.12986691,-0.14207788,-0.46163452,0.29447415,
sroot,-0.45642173,-0.8011601,-0.0896398,0.48778,-0.4637568,-0.12827122,1.0190998,-0.020529883,0.11343997,-0.4582961,-0.10965024,-0.14434429,-0.32842538,-0.23716678,-0.041798584,-0.47740424,-0.057943307,-0.1347391,0.44876263,-0.37912795,0.0034684783,0.18150496,0.22222245,0.14332773,0.2722839,-0.33757538,0.011273296,0.36605674,-0.6178574,0.50432557,
hasMoreTokens(),-0.9246757,-1.2025355,0.36996078,0.17845753,0.6588354,0.22603787,-0.56758606,-0.028469216,-0.84564143,-0.3383273,1.0597607,0.097742625,-0.62913966,0.30789998,-0.024509508,0.16156301,0.36386025,0.2044607,0.26596007,-0.36629492,0.31314188,-0.083390616,-0.9583354,-0.5951186,0.07464828,-0.023680221,-0.21977802,0.6217581,-0.8974239,0.5051388,
getType,0.2889978,-0.8011869,-0.15204278,0.31473023,-0.2711035,0.32211745,0.767945,0.45401022,-0.22910468,-0.5427054,0.42528892,-0.21068622,-0.5140017,-0.1808095,0.2777853,-0.20671287,0.33000293,-0.17795289,0.3584373,-0.8810403,-0.09619796,0.24449216,-0.5579691,-0.16719176,-0.2774423,0.034468777,0.06301518,-0.17637469,-0.2581098,0.20419925,
fixupVariables,-0.109032206,-0.8183476,0.04519748,0.5848786,-0.4965691,0.010765184,0.9004683,0.23113553,0.2919249,-0.40193745,0.14363138,-0.27151594,-0.53706384,-0.42102435,-0.10019064,-0.3372978,0.057764806,-0.3642786,0.6730168,-0.7495615,-0.093781576,0.25129306,-0.0792686,0.091210134,0.053824164,-0.2739509,0.05206861,0.115344666,-0.23309766,0.54708344,
globalsSize,-0.11480756,-0.7935653,0.04423556,0.5686184,-0.62486637,-0.030755837,0.9343587,0.19924699,0.29514456,-0.45330873,0.16157264,-0.28396797,-0.44458553,-0.51445526,-0.1284981,-0.38324484,0.06862233,-0.3864038,0.5933,-0.72643405,0.09751983,0.43486914,0.017839584,0.13638842,0.074014,-0.32779905,0.047637645,0.20609157,-0.3721107,0.6007169,
loadCurrentNode(),-0.6676273,-0.6278996,-0.32728767,0.3690752,-0.46051395,-0.29311863,-0.30845317,0.48829797,0.015298034,-0.60028595,-0.006408093,0.1554717,-0.20670915,-0.525248,-0.2778962,0.6213451,0.11315009,0.14652902,-0.08246447,-0.46001422,1.0945921,0.9603038,-1.2817087,0.35270348,0.4303663,-0.117484696,-0.55904746,0.49947932,-1.122453,0.9994416,
forName(),-0.16949795,-0.56793827,-0.30340979,-0.18579166,0.64178824,-0.0686428,0.37536764,0.21806449,-0.927526,-0.28473324,0.33359486,0.36195275,-0.22692873,0.3669348,0.09458473,-0.623307,0.091828465,0.6664476,-0.12350023,0.41452205,0.22687043,-0.76001984,-0.74244416,-0.13767833,-0.05720389,-0.35978824,-0.39983654,-0.14621434,-1.1323777,0.63150525,
element,-0.027341133,-0.4185931,-0.21907952,0.16690798,0.019101113,0.083805256,0.35890853,0.1402582,-0.44653437,-0.38981473,0.22689651,0.0063546263,-0.198523,-0.068946764,0.1296392,-0.13904682,0.13868038,0.07043207,0.23883249,-0.42036387,0.16285296,-0.012735195,-0.48049754,-0.11077417,-0.024474012,-0.113397025,-0.05612653,0.056154914,-0.46679944,0.28187367,
contains(),-0.6726886,-0.9556488,0.5152377,0.12779756,0.14495632,-0.031262826,0.2593174,0.02880532,-0.7186694,-0.739302,0.6162862,-0.10470862,-0.16607592,0.05507339,-0.040383738,0.009700514,0.39302552,-0.16550696,0.3195646,-0.51358455,0.17206024,0.37195274,-0.3019682,-0.063050665,-0.08479399,-0.0111918785,0.08482884,0.39283627,-0.72733355,0.46275538,
size,-0.040800147,-0.2032632,0.15758193,0.21843515,-0.4616871,0.08958557,0.18670696,-0.007923453,-0.11607431,-0.3362707,0.3936959,0.010215851,-0.42340794,0.019460479,0.15396497,-0.3832609,0.18420732,0.19876046,0.5647432,-0.80591476,0.60371774,0.09133045,-0.12780437,0.02950067,0.21139471,-0.28428343,0.19052838,0.35140702,-0.5132039,0.893993,
org.apache.xalan.processor,0.16953358,-0.66414195,-0.5258368,0.31809238,-0.42513013,0.44225916,0.8452003,0.36464423,0.0750049,-0.13323912,-0.3219145,0.058874827,-0.32722232,-0.15629934,0.24789809,-0.2523965,0.058165576,0.56533426,-0.06828671,-0.36183223,-0.03247526,-0.15432781,-0.58183473,-0.08037128,0.22322032,-0.29821286,-0.33366817,-0.07051458,-0.30688336,0.40137652,
