name,vector_0,vector_1,vector_2,vector_3,vector_4,vector_5,vector_6,vector_7,vector_8,vector_9,vector_10,vector_11,vector_12,vector_13,vector_14,vector_15,vector_16,vector_17,vector_18,vector_19,vector_20,vector_21,vector_22,vector_23,vector_24,vector_25,vector_26,vector_27,vector_28,vector_29
MemberReference,-0.4830863,-0.17034225,0.53158015,0.27172396,-0.20631488,0.09921397,-0.031879146,0.14765279,-0.5321693,-0.11707772,0.32366484,-0.41972193,-0.3525236,0.4971903,0.290939,0.083272144,-0.22444236,0.93460315,0.47647887,-0.7070301,0.14628041,-0.39950922,-0.69869316,-0.4511062,0.70802057,-0.5902582,0.12139687,0.090111665,0.052214608,0.26641423,
ReferenceType,-0.19357544,-0.50037014,-0.3348919,0.38127044,-0.26930878,0.03901251,-0.5234647,0.27138993,-0.30332142,-0.777054,-0.33136967,-0.033081602,-0.066002466,0.26650342,-0.20668904,0.17549288,0.20212008,0.18754706,0.19316402,-0.12602411,0.39748192,-0.04555998,-0.9192584,-0.21035787,0.60271996,-0.56998456,0.29044056,-0.17073503,-0.38520163,0.25533497,
StatementExpression,-0.21947584,-0.101839885,0.11289196,-0.21808241,-0.108860485,0.061795883,0.5798555,-0.51229376,-0.26784962,-0.6744486,0.39610237,-0.31059572,-0.28060228,0.7655063,0.44719535,0.43468463,-0.37291822,1.133171,0.24886332,-0.24405432,-0.17586507,-0.36541882,-0.29875156,-0.15402897,0.76223713,-1.0131339,-0.2272607,0.34772864,0.014609973,0.3996283,
VariableDeclarator,0.10595035,-0.69071734,0.42197132,0.8199459,-0.38103992,-0.023585076,-0.9642256,0.27168727,-0.40404627,-0.8152228,0.9917488,0.29621285,-0.47321787,-0.21216258,-0.13773045,-0.023995817,-0.21082516,0.26413673,0.24184959,-0.29709646,0.51755005,-0.0852769,-0.5367679,-0.109529406,0.207087,-0.62613726,0.013915833,0.33972695,-0.22045729,0.34933382,
BasicType,-0.031425983,-0.42471322,-0.058812432,0.60344785,-0.79362684,-0.033918902,0.016982382,0.94848555,-0.6434664,-0.25327843,0.31153336,-0.33009416,-0.59039414,0.056495424,-0.44663686,-0.18656932,0.33513185,0.12641966,0.9285697,-0.3063388,0.86497253,-0.36455908,0.32092565,0.3204693,0.39865315,-0.56507903,0.43384266,0.08852306,-0.19156829,0.70848894,
IfStatement,-0.48826715,-0.17118227,0.3832911,-0.12531875,0.04640993,0.589631,0.040832583,-0.077449165,-0.53804684,-0.20365337,0.87380767,-0.35816237,-0.15428755,0.00097381655,0.048832323,-0.06903886,-0.26065278,0.92593837,0.35426378,-0.4003626,0.17846206,-0.036056943,-0.5217993,-0.60546,0.16930902,-0.37122336,0.12370153,0.5593365,-0.09762629,0.70287,
BlockStatement,-0.45814377,-0.1440056,0.37962422,-0.24857467,0.20927908,0.50564814,0.08423173,-0.17872523,-0.5474018,0.014574954,1.1066666,-0.07869171,-0.23575027,0.41039678,0.08701402,-0.12686506,-0.14973427,0.6336486,0.516627,-0.26644805,0.3816449,-0.17446809,-0.71107495,-0.5324388,0.4634999,0.12865429,0.064225525,0.77358556,-0.21122359,0.5412809,
ReturnStatement,-0.0946042,-0.12985834,0.026905088,0.67508817,0.06061192,-0.08414568,0.22079387,0.91231865,-0.7766064,-0.36375478,0.40466437,-0.30601907,-0.71527326,0.238446,0.06556934,-0.040436845,0.15931489,-0.39778125,0.6905245,0.070687756,0.20685776,-0.5006596,-0.5846288,0.072194315,-0.057599097,-0.3108842,0.69985133,0.39166838,-0.34499228,0.30084717,
append(),-1.8056611,-0.062146306,-0.38615054,0.31072628,0.55063254,-1.1135272,-0.84444547,-0.84599894,-1.5959507,0.13422453,0.7244864,0.78322303,-0.33304206,-0.20912763,-0.6675642,0.5340597,-0.32527116,0.58825034,0.21730441,-0.11796245,-0.34699616,0.034424216,-0.9145118,0.5718764,0.8067258,-0.9518388,-0.09267561,1.3069031,-0.97518355,0.8897601,
CatchClause,-0.10412787,-1.1772268,0.109182104,-1.4296081,0.70378727,0.17282856,0.11415505,0.08037187,-0.70821065,-0.42142153,0.62927616,1.5208793,0.30388927,0.41527623,0.72978413,-0.14455925,-0.5081161,0.82116824,-0.004990043,-0.3504369,-0.08477985,-0.06839495,-0.76444125,-0.4193447,-0.57280385,-0.6170098,-0.56101596,-0.17021058,-1.2158581,0.9769348,
ForStatement,-0.78369564,-0.41346425,1.1319494,0.62417793,0.46988097,0.11208429,0.047702596,-0.6214256,-0.21498066,-0.7240474,0.65756494,0.26445347,-0.5324546,-0.33712846,-0.15471488,-0.12394915,0.49473244,0.2527304,0.35646176,-0.47140533,0.63470966,0.3062112,-0.093758486,0.1597118,-0.47489843,-0.86016387,-0.06552762,0.8638258,-0.37914163,1.3047462,
ForControl,-1.0176185,0.0031483734,0.55853385,0.9298569,-0.25357178,-0.2897408,0.38181654,-0.5005273,-0.5210811,-1.205586,1.1937327,0.66671866,0.15744497,-0.33066195,-0.4624195,-0.23274277,0.20063518,0.40824232,0.36589772,-0.54572475,0.3901332,0.14590298,0.33335742,-0.40125313,0.017375456,-0.31099415,-0.05423837,0.8860653,-0.54575163,1.2327768,
TryStatement,-0.28586277,-1.0074967,0.4697652,-0.5273364,0.14548545,-0.099955216,0.033923693,-0.06642181,0.26981246,-0.38291773,0.62340903,1.1186566,-0.1786088,0.0045876214,0.33046016,-0.54668486,0.26116186,0.68912,0.20109352,-0.12406789,-0.07189259,-0.48630258,-0.86799467,-0.11956744,-0.215745,-0.3937364,-0.65437794,-0.14321455,-0.6645537,0.5374178,
SwitchStatementCase,-1.1223173,-0.8984492,-0.99234116,-0.04047363,1.1407484,-0.81890124,0.24124597,0.075019106,-1.5702941,-0.06666003,0.11303962,-0.123939686,-0.3922113,-0.055881612,-0.23450695,0.85690075,-0.545345,0.82174283,0.2006261,-1.1870387,0.71913,-1.1306969,-0.6453176,-0.12667605,-0.19438207,0.9868489,0.25607085,0.49615586,-0.4089388,1.1589532,
BreakStatement,-0.98841727,-0.62721825,-0.22656627,0.32743394,1.2943053,-0.5254224,0.012931054,-0.1897394,-1.4531255,-0.12109888,0.5150173,-0.012453112,-0.44447285,-0.06412882,-0.29776192,0.5669267,-0.33062392,0.15647899,0.13753304,-0.7895819,0.453756,-1.0001848,-0.5178626,-0.2883047,-0.09014858,0.56264776,-0.024980372,0.45684573,-0.40764356,1.1243075,
ThrowStatement,-0.28094038,-0.9627454,0.18797757,-0.39380628,0.2942569,1.0306218,0.12503941,0.17919895,-0.6977144,-0.15127788,0.4105215,1.2633532,-0.24765119,-0.11043259,0.483856,0.05555586,0.9748302,-0.08416664,-0.7402457,0.29829934,-0.51083905,-0.41299474,-1.9242421,-0.6554056,0.12841421,-0.5427168,-0.3162639,0.5385327,0.10843634,0.6178082,
equals(),-0.7420506,0.19299977,0.052492503,-0.14531106,0.19056508,-0.53408927,-0.5575046,-0.49935597,-0.4041647,-0.254377,0.7122216,-0.4752442,-0.71488357,-0.6000136,0.13735208,0.2830552,0.5865028,0.7418095,0.6565025,-0.38789487,-0.25581175,-0.2424049,-1.4690862,-0.6821067,0.24719056,0.055698548,-0.08896646,0.6918906,-1.3009226,0.4705183,
put(),-0.8407777,-0.8005007,0.24248748,0.7050922,0.0845324,-0.49601537,-0.10538541,0.055317856,-0.065531164,-1.4412009,0.17529674,0.27434328,0.070826404,0.72689676,0.16324694,0.55742294,0.09090537,2.0015461,-0.810498,0.049000688,-0.23102994,0.048340417,-0.99198705,0.07874252,0.30890572,-0.4995601,-0.061065186,0.56714934,-2.04137,0.9735706,
println(),0.064400956,-0.27163664,-0.3459458,0.8081826,0.6610857,0.6583862,0.6237998,0.104661025,-1.6136873,0.09243801,1.0818112,0.490657,-0.56206894,-0.25262296,-0.51869196,-0.26399794,0.5081357,0.53806275,-0.42685625,-0.17630705,0.69000185,-1.1624203,-0.17434283,-0.6718455,-0.12715508,-0.63034695,-0.98384905,0.56961834,-0.30597323,-0.73936933,
elementAt(),-0.74988675,-0.3204698,0.521167,0.6444111,0.83873004,-0.2396084,0.61979485,-0.4413806,-1.1434593,-0.61633223,0.89950806,0.09064012,-0.5734008,-0.11798331,-0.5908956,-0.2697011,0.7355841,0.41241518,0.5275532,-0.4578178,0.66401494,0.8087859,-0.12247622,-0.39089403,0.11887774,0.06291618,0.008720832,0.7189578,0.14124109,0.9386123,
WhileStatement,-0.8571106,-0.7963827,0.277017,0.4666203,0.024065793,0.32330358,0.37477475,-0.615585,-0.7152191,-0.5598199,1.463881,0.34984705,-0.7170858,-0.24378984,-0.2763347,-0.037215665,-0.6161949,0.299518,-0.37914994,-0.045022,-0.024011752,0.4301482,-0.39957958,-0.17022154,0.15414438,0.6290932,0.62168866,0.1968571,-0.5846167,1.5084105,
e,-0.38041964,-0.82848346,0.29420435,-0.96379393,0.45082352,-0.26572555,0.61057985,0.11428337,-0.6746792,-0.70475245,0.47901043,0.923596,0.11476844,0.39416236,0.3212953,-0.6244728,0.08247009,1.152228,-0.17192572,-0.038379896,0.35531643,-0.47458944,-1.092427,-0.40723252,-0.40463886,-0.5747383,-0.549956,-0.0565667,-0.69523066,0.3880484,
size(),-0.5534639,-0.367285,0.7029615,0.4834689,0.35016367,-0.32224017,0.101743355,-0.6369624,-0.8983541,-1.1297625,0.7049214,0.51166785,-0.20331275,0.21160062,-0.43698096,-0.035073318,0.56701964,0.44728473,0.40471655,-0.4845231,0.5462264,0.77208763,-0.23827091,-0.4235108,0.32364684,-0.69586164,-0.4006725,0.66112983,-0.13346457,0.36667588,
toString(),-0.39630744,-0.25145558,-0.050064027,-0.85743797,-0.06664911,-0.12601134,-0.46438578,-0.21538846,-1.2347306,-0.9999665,0.5385351,0.33698717,-0.19041626,0.3104724,0.06257426,-0.5584912,-0.2369989,0.51912284,0.09153902,-0.09149344,0.45682958,-0.5298894,-1.0042019,-0.2120028,-0.2960754,-0.8160237,0.45271206,0.25649944,-0.8340947,0.43986663,
length(),-0.0316916,-0.041398004,0.13101362,-0.4799872,-0.38818616,-0.1767636,-0.41446236,-0.49438158,-0.6863637,-0.038475525,0.87726253,0.22406176,-0.5140966,-0.67405206,0.00070595776,-0.6377913,0.29973754,-0.092316486,0.2208398,-0.8082486,0.19258793,-0.7323964,-0.5104282,-0.18020517,0.21298866,-0.56944096,-0.052352168,0.46406025,-1.3622469,0.9685126,
name,0.046525184,0.3841886,-0.25093317,0.23192453,-0.33553433,-0.00440784,-0.057481304,0.38513026,0.031853292,0.33885333,-0.3054669,0.13265696,0.12868313,0.07771186,0.010834145,0.1378493,0.56407404,0.56348115,0.11347169,-0.34706077,0.36865976,-0.2319034,-1.226707,0.053537644,0.5949752,-0.7666995,-0.060645375,0.7087809,-1.5226551,0.43093148,
addElement(),0.1792774,-0.9751778,0.6232328,0.5775149,0.41706,-0.6238051,0.32294297,-0.74747044,-1.0277017,-0.86016697,0.29137972,-0.104382895,-0.19716439,0.0146256825,-0.2608995,0.37270042,0.6368819,0.5713003,-0.26512858,-0.5173731,-0.1800658,-0.039712366,-0.640348,-0.58622104,0.6872829,-0.38370273,-0.14574195,0.46372622,-0.19950272,0.5412323,
node,-0.5135769,-0.43631542,-0.10203827,0.7092001,-0.052545045,-0.1577978,0.71821153,1.8167119,-0.5974639,-0.048556224,0.9409905,-0.12300696,-0.061867893,0.30585077,0.1641625,0.09937719,-0.095207855,-0.27974492,0.25551262,-0.47709438,0.14377159,-0.27283287,-0.94317967,0.81743217,0.06636776,-0.11342505,0.3846774,0.30078584,-0.30644894,0.21153049,
substring(),-0.23941931,-0.5009137,0.030949024,-0.57568324,-0.45873445,-0.68643206,-0.20507897,-0.4771189,-0.7576014,-0.03612831,0.8604465,-0.18564893,-0.88410074,-0.54464394,0.38662243,-0.6079211,0.6169382,0.16285181,-0.069400035,-0.76021636,0.033176973,-0.8210647,-0.8714336,-0.68329895,0.15208462,-0.13717873,0.012953028,0.5285936,-1.6389326,1.1201724,
classGen,-1.7506156,-0.39696172,-0.86562914,0.02032469,0.20328066,-0.43716595,-0.9878141,0.3697824,-1.7075266,-1.1214166,0.38213962,0.10591751,-0.6515109,0.6710451,-0.38281077,-0.2170889,-0.014735804,0.9184037,0.458464,0.10472844,0.365552,0.9897827,-1.4771242,0.39726952,-0.3439547,-0.5139711,-0.10105544,1.2444574,-0.7268233,0.24643019,
methodGen,-1.8409882,-0.3719499,-0.8724537,0.15429503,0.14680557,-0.5832675,-1.0694351,0.34522033,-1.6947024,-1.0684413,0.5979569,0.19306923,-0.8269978,0.66938555,-0.42597243,-0.29744717,0.010591202,0.91966987,0.51597226,0.050086726,0.4033954,1.0409195,-1.4527706,0.59090734,-0.14992228,-0.45560473,-0.27280402,1.2117282,-0.74932164,0.26665807,
get(),-0.19528656,-0.6725164,0.028160006,0.5237993,-0.2179121,-0.42397767,-0.35593206,-0.5431184,0.032364395,-0.88362914,0.39263907,0.155827,0.1000242,0.26007217,-0.15718457,0.15428516,0.37528682,1.1043351,0.30798864,-0.64392734,-0.09760633,-0.22030522,-0.8915289,-0.03575217,-0.03978274,-0.08480161,0.104962006,0.103668526,-1.1997831,0.7742724,
write(),-1.5193956,-0.5545832,0.9146466,-0.95429903,-0.67138195,0.023085155,0.8614195,0.24000263,-0.8981077,-0.049510475,1.0297632,0.91104716,0.33479583,-0.10516474,0.4760748,-1.0534364,0.7704863,1.157642,0.6946389,-0.1577749,0.11757785,-0.9735195,0.23153828,-0.0058947853,0.5894014,-2.0916033,-0.6016567,0.45956296,-1.5744687,0.8615125,
nodeHandle,-0.8056194,-0.461193,-0.8772493,1.2609087,0.052341573,0.37436038,1.4600719,0.8990908,-0.9446018,0.7675065,0.62418896,-0.5560126,-1.3259814,-0.29508597,-0.24003783,0.19239864,0.20422223,-0.75975525,0.460296,-0.84132874,0.9656006,-0.46770966,-0.072272316,0.78007853,0.193496,0.3798482,0.07071959,0.63145363,-0.73054737,0.42827606,
charAt(),-0.993006,-0.21703707,0.28151155,-0.6031132,0.017647821,-0.43445778,-0.041657414,-0.8731747,-0.9411956,0.1440373,1.242989,0.48094028,-0.61276335,-0.66153073,-0.07473309,-0.681612,0.22110458,0.0780357,0.44724238,-0.9006556,0.35850275,-0.66700226,-0.16489264,-0.18199567,0.052189156,-0.39187178,0.13656177,0.6211864,-1.2801011,1.3980857,
value,-0.05336108,-0.23677266,0.04149537,0.4252125,-0.8725754,0.030437583,-0.10533765,0.81379104,-0.19590165,-0.24727432,0.29702696,-0.50575465,0.29104966,0.22256535,0.20416486,-0.15777041,0.2938928,0.2525718,0.3168354,-0.36651275,0.16908817,-0.079264924,-0.92791986,0.21307367,0.34234682,-0.68784857,0.36239484,0.39573938,-1.180851,0.5656511,
uri,0.46912342,-0.24078584,-0.56510925,0.7621729,-0.3033957,0.31611654,0.07035927,0.46778178,-0.42654097,-0.04456357,0.1906216,-0.2322765,0.26887685,0.2940138,0.10476285,0.37555602,0.86854064,0.42996728,-0.19881333,-0.87065923,0.1416777,0.27241972,-1.3147582,-0.082180955,0.46483755,-0.38026497,-0.6124117,0.7744238,-1.797489,0.49710482,
getInstructionList(),-1.8567276,-0.7663499,-0.9184508,0.5828181,0.2179937,-0.7399769,-1.2372813,-0.02946382,-1.4303765,-0.8727851,0.6807502,0.14786328,-0.92314476,0.14772592,-0.8012551,0.12846394,-0.1721578,1.0481113,0.4399993,0.031554393,0.38509625,0.67178386,-1.1815735,0.69161344,0.14601023,-0.37164778,-0.3640669,1.0215212,-0.6942143,0.12458916,
ErrorMsg,-0.7426138,-0.087930255,-0.64648116,-0.46363735,0.8007099,0.018416459,-0.59207875,0.07509933,-1.6690212,-0.99009603,0.79970825,0.5768877,-0.3483029,0.3387977,-0.10291431,-0.28195354,0.30039197,0.94750434,-0.50614464,0.21956065,0.5196114,-0.35390654,-1.2082069,-0.48246986,-0.5701704,-0.8523036,-0.4998269,0.50903094,-0.60081214,0.25645462,
addMethodref(),-2.109821,-0.3238029,-0.5398947,0.37969726,0.22443038,-1.014053,-1.0089298,-0.7060576,-1.1812121,-0.421592,0.8003405,0.26729786,-1.0605053,-0.37436795,-0.420751,0.36727628,-0.23560551,1.2697161,0.6728755,0.1906991,0.25206754,0.27790573,-0.79385185,0.60919464,0.6291446,-0.8065308,-0.123146646,1.6191294,-1.0723057,0.6350532,
getConstantPool(),-1.7831491,-0.67271054,-0.7502347,0.62887514,0.003924856,-0.6450486,-1.3281285,0.061468415,-1.2132496,-1.0139133,0.4871692,0.1955697,-1.0401776,0.37889045,-0.66909677,-0.09200074,-0.14765996,0.8690528,0.68764496,0.09565472,0.39281544,1.0223892,-1.145812,0.6309719,0.14408953,-0.3728609,-0.3268147,1.1760138,-0.6234306,0.31198558,
xctxt,-0.16142768,-1.1841859,-0.5194432,0.75161827,0.11270069,0.17909782,0.17417622,0.68702024,0.011409834,-0.62637264,0.004679432,0.57398915,-1.0976722,-0.06046053,0.40133548,-0.41973072,-0.037821416,-0.6566283,0.4043172,-0.4873866,0.23402357,0.43007687,-0.7159852,-0.28274554,-0.12141092,0.9921981,-0.6296542,-0.37027222,-0.3416204,0.9154832,
getOp(),-1.4936125,-1.4383296,-0.08127843,0.7483171,0.43558878,-0.31065574,0.7564079,-0.55266774,-0.78185755,0.48642,0.80098635,0.46214208,-0.47708467,-0.9321997,-0.35558015,0.60675013,-0.49842906,0.79690886,-0.012112495,-0.58999836,0.44694284,-0.81632304,0.21843415,0.36797285,0.91579735,0.19232444,-0.1749701,0.09161068,-0.5481107,1.4863805,
handler,0.31997836,-0.6707345,-0.36064893,0.5507759,-0.39053082,0.48884076,0.59308964,0.90548104,-0.23027244,0.3014482,0.18364033,0.14904393,0.14181392,-0.17466046,0.25451064,0.100832604,0.5360861,-0.07830795,-0.37222317,-0.8520623,-0.059272237,-0.20226945,-1.3490186,0.34494853,0.562229,-0.04565811,-0.5596957,0.015661279,-1.0075475,0.7327479,
type,-0.7641407,-0.3955906,-0.872653,0.6464856,-0.46285877,-0.004794079,-0.74063826,0.7495686,-0.77950746,-0.44700786,0.35764372,-0.5796811,-0.23281129,0.5855702,-0.08369066,0.5038958,-0.4144391,0.112305984,0.5449515,-0.31948483,0.3281228,0.10154701,-1.3176936,0.9538818,0.2420858,-0.5787803,0.4462727,0.73657197,-0.5018901,-0.1008325,
translate(),-2.0212574,-0.40882212,-0.28663927,0.31369627,0.6709536,-0.55999905,-0.82030624,-0.5176147,-1.6832589,-0.71601766,0.96484333,0.21065125,-0.5926592,0.29221857,-0.5879785,0.20941395,-0.22603434,1.2037731,0.32049558,0.22378823,-0.02527009,0.30812922,-0.8413327,0.4051145,0.29057866,-0.7583563,-0.22141486,1.2192168,-0.8147523,0.51185095,
indexOf(),-0.05360532,-0.34649348,0.12836286,-0.21894194,-0.5551189,-0.25638762,-0.030915104,-0.35775313,-0.56899905,-0.14091142,1.0489525,0.075249314,-0.9522719,-0.453821,0.32892776,-0.7080833,0.6584308,-0.18804428,0.06628391,-0.8716935,0.2443581,-0.39379835,-0.5946549,-0.5112272,0.1185638,-0.19870107,0.001641781,0.34200823,-1.5445622,0.97480476,
TransformerException,-0.31611985,-0.85782003,-0.3557623,-0.5017141,0.9039711,0.076473415,0.14627302,0.32944617,-0.761085,-0.3093176,0.30218026,1.181796,-0.1736803,-0.12045557,0.23515226,-0.32090557,0.4178731,0.4677704,-0.5999849,-0.33108976,0.23381166,-0.7056946,-1.1346533,-0.6427292,-0.14547983,0.01496699,-1.0558294,-0.24757154,-0.6781823,1.1979798,
org,-0.10298512,-0.6048915,-0.13033971,-0.22639908,0.33045554,0.10802062,0.172209,0.6197982,-0.5305805,-0.36854267,0.1772248,1.1624331,-0.16257882,-0.1576076,0.40210342,-0.54324377,0.4803463,0.28976828,-0.584748,-0.36326462,0.18458673,-0.020626687,-1.4912525,-0.28711924,-0.11541158,-0.0080487635,-0.7554814,-0.09421524,-0.48598814,0.9805372,
prefix,0.69002724,-0.14121972,-0.40611687,0.6150329,-0.20737572,0.21546462,0.53998595,0.41227242,-0.32963422,0.038298655,0.17030108,-0.37994564,-0.23532003,0.03914527,0.1558307,0.35533842,0.853924,0.49421847,-0.07676955,-1.0095295,0.25571802,0.036068235,-1.0294622,-0.2414353,0.52113324,-0.20461494,-0.38703293,0.69516504,-1.8154484,0.25286287,
getName(),-0.38075012,-0.048062753,0.17654642,-0.13264956,0.4780016,-0.30064297,-0.5505383,-0.3960656,-0.5076868,-0.934812,0.66827464,0.16916208,-0.3412894,0.32843122,-0.25550324,0.2354547,0.19927415,1.1512831,0.27384168,-0.16023166,0.27870336,-0.05618616,-1.237886,-0.43888116,-0.20916866,-0.4233683,0.0918479,0.497736,-0.72114193,0.38749504,
error(),-0.034600534,-0.7320176,-0.08369974,0.14757138,0.6325915,-0.012952445,0.8845452,0.17494154,-0.6716678,0.27924743,0.2385618,0.6232326,-0.3491688,-0.70480317,0.26784152,0.16783106,0.25990227,0.6827903,-0.41831663,-0.64523655,0.22279456,-1.078929,-0.7631139,-0.40606365,0.3663467,0.35887408,-0.5241628,-0.14962554,-0.5315317,0.8908579,
getNodeType(),-0.45171776,-0.84954435,-0.2336785,0.71951413,0.42707655,0.17309447,0.41738874,0.4109245,-0.81417024,0.06890442,1.0382675,-0.012457439,-0.5653814,-0.041269902,-0.022647059,0.20663229,0.14933202,-0.09765698,0.011971408,-0.94066125,0.65667695,-0.6038421,-0.40919507,0.098163255,0.08418499,0.5225906,-0.16766816,-0.0058561126,-0.39415866,0.71901643,
ch,0.27490005,-0.32205752,-0.14047365,0.41734484,-0.6200235,0.50720906,1.3782562,0.5887763,-0.24222675,0.63038385,0.44123754,0.17952016,-0.83343637,-0.71046185,0.22774088,-0.55317086,0.5467863,0.26418412,0.070117444,-0.77844363,0.8415954,-0.82945454,0.17782803,-0.07705875,0.9227443,-0.49781662,-0.48762897,0.31762055,-1.2480291,0.6150951,
execute(),-0.31699094,-1.0617006,-0.28178865,0.37705553,0.3363647,0.059414186,-0.03944988,0.28664085,-0.20222704,-0.6078774,0.55633265,0.3857093,-1.1284434,-0.17159782,0.31277153,-0.6901119,0.14705864,-0.6997647,0.41837034,-0.47838432,0.06752312,0.022400208,-0.47107515,-0.63760173,-0.26540196,1.0393287,-0.88887775,-0.30989334,-0.8661323,0.9767314,
Vector,0.24767873,-0.9355771,0.55888176,0.7265797,0.0977242,-0.23175877,-0.3896895,-0.61511743,-0.38767654,-1.0508788,0.11030714,0.089593835,-0.3310251,0.1598708,-0.5413637,-0.30175966,0.31046972,0.37485614,0.086958155,-0.11729902,0.1853439,0.7543783,-0.38829857,-0.3555438,0.5040967,-0.32428244,-0.3856871,0.53166056,-0.77485436,0.6673321,
org.apache.xalan.xsltc.compiler,0.0065774033,-0.26159632,-0.7221167,0.6356701,-0.48807365,0.4661219,-0.33313125,0.31682488,-0.574,-0.9231566,0.044908177,-0.105580784,-1.00726,0.208578,-0.47016165,-0.43415806,-0.17331652,0.47465578,0.14013083,0.40871406,1.0470252,0.6447098,-0.34428394,-0.0946949,0.029104864,-0.7937172,-0.36988133,0.76527655,-0.5679913,-0.54893714,
localName,0.36543185,-0.29984936,-0.73156255,0.72765636,-0.4660198,0.35425836,0.09287062,0.75683933,-0.5277534,0.24209863,-0.14747873,-0.062483776,0.1992977,0.17088294,0.109860264,0.21803558,0.79588777,0.4160055,-0.2975907,-1.1162447,0.32992068,-0.018243052,-1.4703938,0.19639176,0.5329876,-0.38705254,-0.7608055,0.78834397,-1.6934284,0.48945242,
nextToken(),-0.68334883,-0.88606685,0.060327023,0.09902028,0.3592602,-0.3971483,-0.22293234,-1.0009121,-0.7251624,-0.027561948,1.0213412,0.025541902,-0.59306043,-0.9276469,-0.44766605,0.10497777,-0.29496506,0.9521534,-0.04328195,-0.43641648,-0.0555483,-0.9268998,-0.422225,-0.27845934,0.46194237,0.17377539,-0.10526643,-0.027609957,-1.1437544,1.5978315,
PUSH,-1.8445506,-0.43411967,-0.39592382,0.45090318,0.64692134,-0.91742474,-0.94134545,-0.6473882,-1.7253741,-0.61896855,0.7304419,0.2844242,-0.5932461,-0.04257095,-0.5075577,0.23730372,-0.37998116,1.3644567,0.2967582,0.08875903,0.10568466,-0.22082531,-0.747909,0.51871306,0.4585556,-0.6802122,-0.21505913,1.324614,-0.72381705,0.8628018,
getType(),-0.9309595,0.10330425,-0.29892257,0.25620195,0.43727607,-0.2291829,-0.4120823,0.16972688,-0.96102124,-0.4213328,0.9974921,-0.5939249,-1.1875192,0.18501712,-0.040711254,0.019212095,-0.067450084,-0.0003321278,0.9137349,-0.4575143,-0.01369903,0.10478868,-0.95557076,-0.22364357,-0.31650284,0.5119748,0.07050572,0.5440599,-0.5060126,0.37987325,
SwitchStatement,-0.7567596,-0.79452467,-0.585679,0.54192996,0.4976146,-0.35988528,-0.14876433,0.07730285,-0.9476447,-0.34505716,0.59223914,-0.080652386,-0.5079443,-0.056587387,-0.13502134,0.78706545,-0.50348884,0.33383122,0.3018212,-0.6503598,0.5723573,-0.7964231,-0.6502108,0.17480555,-0.0012116517,0.42230585,0.23687093,0.20471841,-0.049463306,0.595061,
getDTM(),-0.36723292,-1.1693499,-0.10455907,0.43455446,0.42525068,0.29712865,0.122755565,0.1919905,-0.37048754,-0.3898482,0.7083414,0.5266746,-0.77174133,-0.07737866,0.09114083,-0.40125766,0.006831525,-0.49475354,0.09422098,-0.34748387,0.2888444,0.03459433,-0.3309771,-0.3311665,-0.020480348,0.6255408,-0.61568433,-0.37101972,-0.28370723,0.84371126,
reportError(),-0.7817162,-0.13605677,-0.48402956,-0.5006728,0.5173604,-0.14173599,-0.6896008,0.07931015,-1.5237621,-1.3001119,0.9374253,0.3424036,-0.57930636,0.40954408,-0.14482161,-0.5617673,0.25988165,0.8283442,-0.069678105,0.40327963,-0.03377787,0.050719295,-1.277997,-0.40041232,-0.60854495,-0.9223765,-0.3260492,0.6360463,-1.1544302,0.1879286,
makeNodeIdentity(),-1.1560371,-0.90432835,0.051339164,0.760656,0.18245608,0.379386,1.017514,0.35131556,-1.1775348,-0.0589313,1.4374393,-0.34615368,-0.70772463,0.21476737,-0.24521622,-0.00522435,0.32702592,-0.38940135,0.75532395,-0.9872709,0.91164863,-0.008952021,0.19404097,0.1494839,0.090109095,-0.028171986,0.18289067,0.53529775,-0.7438479,0.39193356,
Hashtable,0.1761453,-1.0894306,0.22265287,0.77445906,-0.42496464,-0.13361104,-0.51794034,0.16741817,0.13751121,-1.3125029,0.37831843,0.24688528,-0.36600626,0.4983038,-0.11161352,-0.048618745,0.27116475,0.9344038,-0.11893178,-0.2373875,0.24140723,0.53864115,-0.74676836,-0.10098199,0.28246257,-0.18226592,-0.27489004,0.15474203,-1.3965263,0.4339693,
next,-1.4614918,-1.0946132,-0.015314212,0.58332527,-0.016022423,0.01610067,0.45142978,0.5448278,-1.0282313,-0.43511698,1.3886317,-0.18174557,-0.7959928,0.602927,-0.012722295,0.029926816,-0.27286297,-0.24446774,0.8635975,-0.5799265,0.44129515,0.48451835,-0.24935077,0.3505251,0.045798253,0.13042377,0.53821087,0.32686505,-0.5128142,0.28713936,
Integer,-0.10350773,-0.86686456,0.43349397,0.51178706,0.17867109,-0.2908516,-0.09268206,0.3397324,-0.52811253,-0.9442916,0.50474334,0.38816574,0.07891391,0.5950239,0.4214077,0.32559446,0.5249123,1.739217,-0.57790786,-0.6351403,0.29712284,-0.35010844,-1.1232941,-0.109931275,0.24298526,-0.17070824,-0.32656518,0.34519574,-1.6774589,1.1936882,
length,-0.12989675,-0.6890493,0.034402896,0.25990057,-0.63183594,0.46732295,1.2198396,0.39593887,-0.14678381,0.62167376,0.40093002,0.3918725,-0.46227157,-0.63720506,0.17185707,-0.34282103,0.5967558,0.6197698,0.15004498,-0.6966434,0.817838,-0.92293584,0.3249043,0.05779487,1.091232,-0.80723995,-0.52403456,0.24852458,-1.1824223,0.53475666,
translate,-1.2785507,-0.36046895,-0.5546276,0.1382839,0.06698615,-0.19957638,-0.6971124,0.47717035,-1.584419,-1.2858601,0.46329236,-0.12054487,-0.73330325,0.6749327,-0.15471067,-0.17543481,0.15620129,0.6307309,0.40674093,0.07695221,0.2547259,1.0919709,-1.4924299,0.092365064,-0.30353335,-0.57380503,0.0745738,1.1437802,-0.70909023,0.13117301,
Long,-0.50745106,-1.2127353,0.18058807,0.5371254,0.34501296,-0.13818184,-0.11105092,0.5051038,-1.2140739,-1.2683622,0.67351174,0.48947674,-0.27912974,0.76600003,0.51618433,0.2043426,0.6738846,2.4001622,-1.0010247,-0.65258354,0.5036632,-0.4494392,-1.4884745,-0.20089246,0.30275366,-0.38846162,-0.72455066,0.63219064,-2.439061,1.2989744,
getNodeName(),0.14662844,-0.44733548,-0.065708004,0.5052859,0.54316586,-0.04750406,0.42949387,0.015026775,-0.6993111,-0.017250767,0.886316,0.096018046,-0.5433326,-0.27958304,-0.043033116,0.17847317,0.3766856,0.25276393,-0.072670564,-1.1677105,0.8062757,-1.031359,-0.52719945,-0.41438952,0.09518506,0.45589986,-0.3257681,0.16726802,-0.67470044,0.95152783,
getMessage(),-0.04139175,-0.71159494,-0.33883476,-0.3812716,0.54005724,0.42976347,0.17312697,0.4092298,-1.1008078,-0.3691976,0.65837175,1.0527713,-0.3068268,-0.1328886,0.26502985,-0.38468674,0.29481742,0.83745325,-0.7645229,-0.07692454,0.4412449,-0.76004046,-0.97968626,-0.5841793,-0.25701055,-0.57376236,-0.8402726,-0.12657425,-0.6128328,0.56737244,
typeCheck(),-1.27301,-0.40184885,-0.092789605,0.2973492,0.5565253,0.053509172,-0.3193105,0.6293581,-1.9398271,-1.1325736,0.9767825,-0.23773341,-0.69278944,0.868958,0.10511927,-0.12012165,0.69485235,0.47495335,0.06435805,-0.27909818,0.15510377,0.72793883,-1.505898,-0.27225497,-0.51548463,-0.23987709,-0.07181146,0.8845836,-0.7489924,0.20205544,
start,-0.16763769,-0.5964196,-0.004194568,0.35705763,-0.723689,0.42145783,1.1679326,0.46765718,-0.11335173,0.38014385,0.35430357,0.35275045,-0.47583082,-0.5173633,0.30202955,-0.22571412,0.4989687,0.70596576,0.1248441,-0.6498972,0.7753258,-0.74577206,0.2551557,-0.0051045204,1.1248198,-0.7786451,-0.50781626,0.3606153,-1.1600732,0.42001674,
equalsIgnoreCase(),-0.3655073,0.041328546,0.36585552,0.04632111,0.38103682,0.16227257,0.3087175,-0.5323115,-0.4227038,-0.1598823,1.2176355,0.29225236,-0.5433031,-0.20732814,-0.1198268,-0.08709423,0.6756336,0.82010436,-0.28278646,-0.74152493,0.1631953,-0.62881577,-0.5311973,-0.6073707,0.09600569,-0.2648142,-0.5455237,0.41335455,-1.5910954,0.8299967,
arraycopy(),-0.8590842,-1.0490019,0.7012122,0.5987238,-0.47742948,0.19005643,0.4900447,0.6475719,-0.48737508,-0.22876416,0.83971477,-0.13217923,-0.07603903,0.6371702,0.28097,-0.15341946,0.35991642,0.3085257,0.4720266,-0.44241673,0.35613653,0.37354282,-0.027248273,0.2607755,0.50119126,-0.4241616,0.14673704,0.25845397,-0.9584547,0.62647045,
context,-0.40238357,-0.84582895,0.05973785,0.8295485,-0.018843291,0.17494369,0.8985582,0.4442779,-0.4538117,-0.38813287,0.9676951,-0.04081325,-0.8499784,0.19041367,0.100081235,-0.21697484,-0.052024327,-0.48523936,0.6982631,-0.7828529,0.32492244,0.44819507,-0.2200829,-0.07518617,0.17417842,0.44436997,0.06222752,0.18537943,-0.53563756,0.62732047,
clone(),-0.396306,-1.4641478,0.6094544,0.0712228,-0.23002318,-0.037615873,0.628206,0.7648916,-0.13900328,-0.8908419,0.41169298,0.886498,-0.29053304,0.4322002,0.33248484,-1.0274367,0.034303043,0.36379173,0.1694571,0.077043205,0.093714036,0.6480165,-0.35821497,-0.09306725,-0.14630857,-0.15705022,-0.5501701,-0.4907894,-0.76679176,0.5608816,
ElemDesc,-0.9038221,-1.1992826,-0.025350172,0.9962315,0.13976155,-0.4706664,-0.12765789,0.69718784,-0.6175571,-0.9974411,-0.3002343,0.117094226,-0.12139946,0.85261744,0.57963544,0.57288045,-0.055547327,2.5116093,-0.48953003,-0.23542827,0.41898614,-0.4253794,-0.7864128,0.5837395,0.8609721,-0.24409881,-0.44033113,0.7833288,-1.8957964,1.1663485,
setOp(),-1.4374475,-1.4434633,-0.068523504,0.5342602,0.6290941,-0.14686757,0.9535981,-0.38887337,-0.8902627,0.34297082,0.8560484,0.25723335,-0.31138626,-0.73836213,-0.15808247,0.55167174,-0.49545178,0.87007964,-0.0634044,-0.47494352,0.1871068,-1.1746936,0.14204852,0.11864447,0.8259133,-0.0034060269,-0.2764934,0.084685065,-0.805537,1.6162606,
makeNodeHandle(),-0.9794253,-0.7475269,0.049835894,0.6971162,0.41498083,0.19012466,1.1921083,0.23596558,-1.2767421,-0.14073229,1.3250216,-0.54527456,-0.66327417,0.30184406,-0.24765903,0.3460223,0.0045885067,0.083592266,0.558491,-1.0067341,0.85399663,-0.19163625,0.15180764,-0.024339221,0.14624129,0.22297601,0.38463572,0.49532828,-0.49533257,0.5397392,
stable,-0.7125558,0.010865892,-0.21039404,0.2741749,0.15561369,0.12345173,-0.36414963,0.41586828,-1.516698,-1.0668864,0.77627957,-0.50695235,-0.78803456,0.6586797,0.09837735,-0.27831987,0.5154241,0.4534971,0.19661386,-0.16113602,0.18153498,0.78593725,-1.4870704,-0.44554016,-0.43053147,-0.37900898,0.059513066,1.0724088,-1.0115325,-0.024852213,
INVOKEINTERFACE,-1.8990215,-0.3185627,-0.590679,0.27688885,0.5633442,-0.9962321,-0.9149483,-0.42780134,-1.6226376,-0.35095108,0.67603487,0.0799091,-0.8385202,-0.076071486,-0.37986103,0.36010984,-0.44299117,1.5374653,0.45926166,0.045257222,0.29449987,-0.43528387,-0.7817363,0.5877917,0.5075527,-0.5713975,-0.16069302,1.2793955,-0.66345775,0.762091,
getLength(),-0.16659994,-0.6159961,0.57435185,0.74353135,0.10779566,-0.20043977,-0.14946537,-0.5247399,-0.31872866,-0.58454436,0.75734293,0.5434922,-0.29586306,-0.18348135,-0.3797358,-0.34325126,0.34461573,-0.05446809,0.5341592,-0.81192446,0.42827946,0.11769678,-0.10972428,-0.4157793,0.26158848,-0.062980294,-0.475007,0.39429274,-0.6065149,0.893028,
execute,0.07292049,-1.2468499,-0.32192394,0.78785926,-0.003547613,0.17892008,0.20442507,0.6740807,-0.1347633,-0.80029577,-0.009564719,0.42082843,-1.1992723,0.13497083,0.37905544,-0.55582535,-0.019172287,-0.6404975,0.6226106,-0.7378796,0.35873336,0.6320985,-0.6844263,-0.25994894,-0.014203204,0.86206365,-0.6640357,-0.16248696,-0.5366757,0.7423438,
addInterfaceMethodref(),-1.9976863,-0.40056244,-0.55222154,0.5015488,0.26025763,-0.9673033,-0.87829334,-0.38791353,-1.3595773,-0.3989143,0.9006782,-0.017009273,-1.0564964,-0.08266891,-0.29279688,0.5024316,-0.39498755,1.2934933,0.6415274,-0.07674756,0.4722396,-0.14575213,-0.7191276,0.6111347,0.5918359,-0.50741094,0.040232517,1.375174,-0.5866139,0.541943,
setElementAt(),-0.75403136,-0.4465813,0.80631256,0.2924607,0.8354518,-0.21828188,1.3198137,0.055348407,-1.2527466,-0.6787569,0.70270973,-0.21442197,0.121827684,0.19679905,0.062045418,0.2932219,0.49509472,0.62719727,0.27930588,-0.3181324,-0.08741728,-0.04217118,-0.27277753,-0.6842454,0.5394637,-0.1334341,-0.009192857,0.6986137,-0.3061234,0.7038245,
nextNode(),-0.8343377,-0.9413883,-0.15158924,0.20309128,0.32892108,0.12421541,-0.083424196,-0.36553174,-0.6960877,-0.59083796,0.752894,0.17447828,-0.8784197,-0.01466079,-0.2339348,-0.324655,-0.49442887,-0.053012926,0.43832776,0.05268406,0.25696912,0.07218316,-0.14600721,-0.21400635,-0.0040698736,0.2544772,0.06318941,-0.19126233,0.06992116,0.7502879,
getExpandedTypeID(),-0.7926688,-1.066369,0.32340258,0.70163685,0.17095643,0.24601294,1.2139038,0.740934,-1.1555527,-0.077067316,1.1284859,-0.43027383,-0.4361795,0.3386081,0.21803841,0.060797036,0.35370898,0.102108516,0.25105426,-1.0805379,0.73599225,-0.13007832,-0.022689853,-0.06155986,0.32010666,0.109354675,0.06497998,0.36509728,-0.7511244,0.40431982,
v,0.035874862,-1.075059,0.37260148,0.45693204,-0.19776668,-0.05757973,0.29433364,0.52015954,-0.5396845,-0.8098311,-0.25326502,0.22865282,-0.4432955,0.33145747,0.35345954,-0.33624738,0.5918868,0.10818844,0.44887218,-0.5872375,0.5008923,0.9062131,-0.5114681,-0.2963228,0.20721422,0.07721356,-0.18198802,0.41603413,-0.73146045,0.323972,
next(),-1.0128747,-0.83791405,0.19208843,0.4022513,0.3924276,-0.057234596,0.58279926,0.5005939,-0.869377,-0.27551216,1.281453,-0.3061203,-0.59721774,0.44887462,-0.02881602,0.002350154,-0.29687703,0.017415682,0.69997084,-0.53228253,0.12831038,-0.013100113,-0.5181249,0.20324172,-0.07731783,0.4098189,0.40801778,-0.08618506,-0.37010878,0.8767419,
INVOKEVIRTUAL,-1.8249652,-0.3094626,-0.42581427,0.30641285,0.3488311,-0.84097135,-0.7955904,-0.6729256,-1.400712,-0.4486365,0.6077596,0.27510267,-0.7966573,-0.09827977,-0.36256638,0.10957076,-0.5720354,1.3247371,0.50007683,0.15380225,0.23154093,-0.17033285,-0.58513397,0.5428973,0.5753674,-0.7387876,-0.13965848,1.395167,-0.7476468,0.79703623,
translateTo(),-1.9276855,-0.17835268,-0.62344897,0.057808664,0.38640198,-0.33211347,-1.1662604,0.23874232,-1.8602622,-0.72819954,1.1536903,-0.10565004,-0.46846354,0.518026,-0.29235005,-0.007973146,0.21146102,1.0411278,0.12347239,0.08610921,-0.025634427,0.34228382,-1.2686865,0.37204915,-0.07477707,-0.763533,-0.22667165,1.0976099,-1.3614054,0.54301274,
push(),0.29671755,-0.7216959,0.8131697,0.39056188,0.05707828,0.11132301,0.82153744,0.33087778,-0.26748076,-0.7788462,0.16950122,0.18483622,0.11671394,0.20063145,-0.057196565,-0.22412412,1.0810806,0.9304329,-0.087698564,-0.37175885,0.15082005,0.5964287,-0.4343191,-0.5248213,0.3316265,-0.8354266,-0.6052218,0.49104938,-1.2207391,0.34472066,
typeCheck,-0.6108154,-0.065623865,-0.17171265,0.15686764,0.13388796,0.18541418,-0.31688914,0.5258044,-1.458774,-1.0555803,0.65386534,-0.4758774,-0.7612913,0.5982897,0.10261921,-0.32828292,0.4208807,0.5710685,0.17974114,0.08311382,0.24856988,0.6711781,-1.2950319,-0.3781812,-0.5127678,-0.5490537,0.17698815,1.0317228,-1.0911256,-0.12465651,
loadDOM(),-1.9772936,-0.4666044,-0.46694055,0.23824435,0.61311525,-0.8609702,-0.74186003,-0.56488436,-1.5731447,-0.43735376,0.7039829,0.118934624,-0.7532351,-0.105515026,-0.6157407,0.26912984,-0.49074143,1.3889102,0.47100115,0.13455576,0.2725262,-0.32838282,-0.5886857,0.49170786,0.5105543,-0.6754141,-0.14981641,1.1853337,-0.6846244,0.670831,
str(),0.10718015,-0.23197499,-0.42494202,0.0916066,-0.12061721,-0.13651614,0.14975558,-0.106522866,-0.24200104,-0.1268411,0.70227844,0.1251754,-1.346655,-0.5458857,0.1742747,-0.5149375,-0.0053567346,-0.66687685,0.49919778,-0.8469368,0.25737402,-0.63611126,-0.530411,-0.37206206,0.034155715,0.517066,-0.14394023,0.020485943,-0.96538335,1.2144657,
getParent(),-0.70879275,-0.287679,-0.1978278,-0.101317585,0.41070276,0.053494524,-0.11512187,0.023489451,-1.0508215,-0.40659916,1.1838555,-0.19731317,-0.7135707,0.35534805,-0.084226124,-0.22847097,-0.26897344,0.16969623,0.33809903,-0.1534008,0.13545199,-0.13765979,-0.6502343,-0.011559241,-0.20183454,-0.06644741,0.2845308,0.30499274,-0.42341164,0.35054004,
startsWith(),-0.037415348,-0.09126396,0.13325809,0.09216608,-0.06923682,-0.22423153,-0.007390984,-0.3472367,-0.37694976,-0.36657616,1.0686859,-0.086779304,-0.6496758,-0.24180357,0.11766123,-0.19377284,0.64925426,0.37215653,0.1483362,-0.8368873,-0.003822256,-0.24821515,-0.9201575,-0.53412896,-0.014177159,0.15747789,-0.06855112,0.41534752,-1.7047356,1.0092117,
getSystemId(),-0.050027885,-0.42556986,-0.4222453,-0.24169262,0.3441036,0.07162392,-0.13898139,-0.41049194,-0.6560039,-0.2871564,0.542425,0.5790721,-0.4123443,-0.1597419,-0.27324024,-0.21536192,0.108303964,0.68478,-0.36241776,0.05235001,0.29060438,-0.6852498,-0.5143362,-0.43450695,0.07123133,-0.76532245,-0.758987,0.0733686,-0.32385305,0.26380053,
getParser(),-0.8538112,-0.12205855,-0.3155174,-0.1062892,0.4258667,-0.3027532,-0.949732,0.021874068,-1.5359166,-1.2480386,0.82407355,0.1914935,-0.6095172,0.44434464,-0.23149866,-0.38194466,0.18454985,0.7824214,0.12890124,0.15993196,0.1628559,0.33894134,-1.3127974,-0.28943157,-0.37524605,-0.7560319,-0.1928009,0.72801733,-0.9345792,0.28410083,
newInstance(),-0.20638019,-0.87829125,0.095183246,-0.20496345,0.2557549,0.053245097,-0.23608632,0.21576713,-0.32268462,-0.6187855,0.50139654,1.1441956,-0.15968479,-0.037815623,0.02729566,-0.6359317,0.18115464,0.72069526,-0.22486487,0.18336855,0.08260466,-0.029431526,-0.6834377,-0.45255092,-0.19442002,-0.6015522,-1.0990932,-0.3176949,-0.61592627,0.50305015,
n,-0.015148351,-0.72017497,0.42207122,0.47480276,-0.020228973,-0.03395999,0.63878703,0.444557,-0.53698844,-0.6453965,0.3370348,0.14908352,-0.26540568,0.28729972,0.07367505,-0.14929885,0.137775,0.043274906,0.3909334,-0.47533408,0.46335328,0.16067275,-0.26432282,-0.126609,0.1343596,-0.19743018,0.07128576,0.14099008,-0.18164414,0.35072806,
getXPathContext(),-0.029052835,-1.2560697,-0.0020619754,0.4148918,0.12861942,0.076681346,-0.05474373,0.13178904,0.069235705,-0.7083154,0.4330683,0.480816,-0.70375377,-0.09090455,0.068027765,-0.4901689,0.04374027,-0.19864339,0.29969248,-0.43702438,0.23857771,0.011012109,-0.4622069,-0.39128307,0.02631151,0.5137684,-0.783121,-0.44605863,-0.56177336,0.78935605,
throwUnimplementedException(),0.022897195,-0.37167668,-1.0471383,0.34766033,-0.17402722,0.043762997,1.0784585,1.0264256,-0.34087622,0.37711117,-1.2888532,0.29130095,-0.19342478,-0.2059188,0.009296045,-0.0775859,-0.2650881,0.7617969,0.1541141,0.009135479,0.08690042,-0.1348412,-0.8798374,0.50927407,1.012639,-0.8090472,-0.9577859,0.87358814,-0.81289077,-0.16952993,
getNodeValue(),-0.015016806,-0.37857798,-0.24279399,0.43694293,0.37433195,0.0135245975,0.299891,-0.028854022,-0.6548911,0.1142524,0.6273119,-0.18841971,-0.36698908,-0.21422029,-0.147542,0.35019648,0.2059005,0.42950848,-0.14197299,-0.9436987,0.5219919,-1.2080524,-0.6568107,-0.13006203,0.26726708,0.3203898,-0.08139592,0.08618722,-0.77800965,1.0964799,
XSLTAttributeDef,-0.6543879,-1.2934152,-0.22940268,1.4602077,-0.3614845,-0.22011417,-0.60708225,0.9934856,-0.5320608,-1.013024,0.13992089,0.53505796,-0.4685438,0.7393119,0.8236078,0.22322968,0.4658055,1.2509904,-0.4795881,-0.8756025,1.0890958,0.41345167,-1.363371,0.4289816,0.61632705,0.26119715,-0.7130018,0.7648498,-1.3480766,1.1720735,
i,-0.17332157,-0.5223962,0.7776635,0.17404152,-0.15572302,0.03405027,0.83321446,0.20145501,-0.69038033,-0.6428779,0.34441295,0.20051752,-0.24741745,0.19525746,0.021002445,-0.56548643,0.6521618,-0.07424984,0.6324694,-0.63624305,0.5422587,0.63865376,-0.25415868,-0.4390657,0.3036512,-0.43318307,0.07549606,0.49418795,-0.3605865,0.57469565,
getIndex(),-1.4237577,-0.10419599,-0.5050724,0.38105693,0.24817707,-0.66878664,-0.72299814,-0.52062976,-1.0616542,-0.14133973,0.043197438,0.002580285,-0.57297546,-0.08778544,-0.62961197,0.10210333,-0.5079372,0.9436252,0.7017822,0.066460475,0.06550837,0.0046546436,-0.62376326,0.58991694,0.6797995,-0.733608,-0.22000468,1.2667795,-0.5542416,0.4815176,
index,-0.38488078,-0.43786067,0.17932265,0.4927628,-0.36009476,0.20850395,0.6750537,0.52406305,-0.33748767,-0.104190804,0.29481727,-0.0039964216,-0.424822,0.11337445,0.07989824,-0.33820197,0.2610413,-0.60247713,0.82850814,-0.6289947,0.2511378,0.56423384,-0.34874558,-0.0020308846,0.48321205,0.0012931303,0.042537678,0.49676168,-0.38439304,0.70612234,
parser,-0.14087209,0.28423923,-0.07521494,0.05780129,-0.048629865,0.28397357,-0.12368848,-0.02466337,-1.1051788,-0.94921976,0.5937016,-0.1874628,-0.7534454,0.24295029,-0.22985817,-0.876461,0.1563825,0.6341781,0.30175036,0.25821403,0.5361596,0.5617258,-0.29512477,-0.44621328,-0.17070642,-0.9789783,-0.08602243,1.1255269,-1.3122877,-0.2189093,
CastExpr,-1.4939756,-0.31454667,-0.14467782,0.23111033,0.504917,0.013645267,-0.04465359,0.8532858,-1.8387134,-0.92529106,0.8846103,-0.31155923,-0.41273502,0.91740537,0.2629647,0.024240829,0.7977728,0.6810934,-0.12551412,-0.18836084,-0.14137955,0.7864155,-1.5247841,-0.11535437,-0.39532456,-0.19549616,-0.087558195,0.945154,-0.9201055,0.36589837,
ContinueStatement,-0.75937456,-0.4830909,0.36612138,0.38408968,0.72624177,-0.27707076,0.10734306,-0.39047703,-0.9250249,-0.5252467,1.3007556,-0.034750246,-0.76379985,0.18683414,-0.13271971,0.10692154,0.055828277,0.29597726,0.41810137,-0.5375719,0.09697192,-0.0745982,-0.7065425,-0.30063704,-0.036325973,0.5021044,0.21709508,0.36074555,-0.51696384,0.8966296,
source,-0.20307584,-0.81789315,-0.43801773,0.100952655,-0.25582245,0.18034892,0.21986963,0.88864195,-0.110005,-0.27922636,-0.13605699,0.7124665,-0.32962945,-0.022044571,0.15329973,-0.36413994,-0.11224144,-0.06594625,0.17132759,0.040091578,0.3975364,0.12617806,-0.60256016,0.12768257,0.20128997,-0.48917592,-0.53255796,-0.15261701,0.11386505,0.084275976,
hasMoreElements(),-0.46887782,-0.94924164,0.17264417,0.67318827,0.22613782,0.008864135,-0.9923093,-0.9914624,-0.5425495,-0.854782,1.1634189,0.12599465,-0.9524123,0.15689707,-0.5965644,-0.35306838,-0.28400683,0.6722349,-0.08664324,0.19471738,-0.12499025,0.48010296,-0.7598097,-0.007833167,0.1512412,0.08173289,-0.29720685,0.10085336,-1.1891019,1.2943023,
num(),-0.31909388,-0.5861847,-0.5729024,0.19331639,0.3378543,0.0849199,0.2914252,0.6874381,-0.65597564,-0.43378237,0.7077033,0.05888956,-1.3603319,-0.033647753,0.5033317,-0.25799128,0.12383753,-0.52772105,0.42647478,-0.61255014,0.12239784,-0.17124549,-1.12235,-0.4573765,-0.38647065,0.9487841,-0.25031322,-0.1855029,-0.48725152,0.8090129,
getLocalName(),-0.17823698,-0.19092557,0.002084841,0.44259396,0.3654754,-0.17172348,0.30324143,-0.02351962,-0.7301006,-0.15736747,0.99019414,-0.42168355,-0.6634229,-0.14779079,-0.005427364,0.3093291,0.5166689,0.24377175,0.2102238,-1.1174747,0.5144185,-0.49266446,-0.7993155,-0.3266436,0.037128445,0.46672362,0.031900994,0.46953052,-1.0116644,0.6919501,
print(),-0.4760945,-0.49782193,0.06598363,0.3784821,0.63938266,0.29264933,0.42090714,-0.4426644,-1.124832,-0.03315777,1.1860529,0.3490409,-0.53105,-0.20240553,-0.50419056,0.006273622,-0.13170631,1.0116539,-0.263573,-0.29941103,0.94080615,-1.1763314,0.29221466,-0.39021328,0.21287012,-0.73097295,-0.5173154,0.3502136,-0.5309105,0.44218606,
nextElement(),-0.3646041,-0.9112398,0.21699849,0.5166681,0.35113972,-0.02970213,-1.0030155,-0.93387026,-0.48483416,-0.9015013,1.1801481,0.19253919,-0.8267068,0.3455993,-0.47517413,-0.35059044,-0.22070065,0.84364104,-0.07349504,0.18426678,-0.11490913,0.18917738,-0.6603805,-0.1397019,0.117304005,0.037509516,-0.36408728,0.19271688,-1.2380161,1.1725563,
addPrimop(),-1.5294102,-0.93526596,-0.45203787,0.6947807,0.51000375,-0.7920949,1.1091659,0.18977825,-1.3930572,0.4284636,-0.32635838,-0.23445728,-0.4758154,-0.3112603,-0.10703101,0.30523068,-0.6898576,1.4165621,0.8031491,-0.35504788,0.22942987,-1.3390429,0.1595714,0.3856353,1.3106978,-1.0335461,-0.22346582,1.051843,-0.59686244,0.7740855,
opPos,-0.53217953,-0.7531635,-0.23420452,0.7627018,0.19427308,-0.27811056,0.9454722,0.2504762,-0.83329785,0.07931528,-0.060515698,0.26640135,-0.5219836,-0.2647258,-0.21308723,0.425805,-0.51626045,0.2989758,0.44071138,-0.65029067,0.6123231,-0.21980172,-0.14362194,0.27979216,0.59984195,0.2987312,0.17368613,0.33047736,0.37836424,0.6646243,
transformer,0.23750965,-1.0743486,-0.102549165,0.50652605,0.015354083,0.041680876,0.17258655,0.48407623,-0.0045311176,-0.66940784,-0.021985395,0.5050373,-0.54631877,-0.03974298,0.2608695,-0.35690543,0.250844,-0.26583967,0.22436468,-0.59311944,0.19472356,0.26844493,-0.5624102,-0.23688674,0.0830375,0.4009342,-0.82580155,-0.17588654,-0.65487087,0.69628894,
str,0.22408523,-0.023460096,-0.3159996,0.02512401,-0.4917963,-0.10964667,0.29899523,-0.007956282,-0.056524206,-0.069479086,0.41823614,0.412303,-0.94088084,-0.5777068,-0.013404569,-0.7995071,-0.0016416961,-0.64577025,0.5309254,-0.56200105,0.33702174,-0.13623695,-0.24365869,-0.17457543,0.24516153,-0.038093448,-0.12705842,0.29500136,-0.80654174,1.0608394,
rawName,0.35757235,-0.47341245,-0.6843502,0.7047694,-0.57567394,0.26383594,-0.17652121,0.74561274,-0.16260003,-0.14026083,-0.068537496,0.14219698,0.084890455,0.10635182,0.28824282,0.037292328,0.63639486,0.37698883,-0.24999233,-0.8223905,0.0906065,0.110235915,-1.6173781,0.15784456,0.46478584,-0.22588845,-0.75246435,0.5448214,-1.5390688,0.8371268,
toString,-0.35673872,0.18154922,-0.36466795,-0.03077833,0.073843725,-0.07121285,-0.11825557,0.28657517,-1.1327499,-0.78472924,0.27654806,-0.0999959,-0.72099507,0.362125,-0.019822346,-0.39356154,-0.06142597,0.25027382,0.5383549,0.019417906,0.37488946,0.4115086,-0.89652836,-0.048202,-0.323838,-0.50586855,0.3301268,0.76901734,-0.42698735,-0.0825649,
item(),-0.106542334,-0.6346658,0.5139072,0.65634346,0.21906392,-0.04963224,0.14666843,-0.34215218,-0.3650061,-0.4697046,0.8569774,0.3042026,-0.39824703,-0.1064781,-0.2302201,-0.2750013,0.37142777,-0.017577218,0.3687826,-0.76172066,0.39417082,-0.006012407,-0.21238515,-0.32808214,0.13166536,0.15489005,-0.39406595,0.20285073,-0.6467507,1.0315571,
loadTranslet(),-1.5566071,-0.3473639,-0.38039503,0.09356366,0.4303934,-0.7961274,-0.6499072,-0.45616442,-1.1250479,-0.68319756,0.48804,0.45087227,-0.47093716,-0.115342,-0.49376932,-0.10580552,-0.54270744,1.1348023,0.38180253,0.51927316,0.039794862,-0.2520584,-0.54597455,0.25923002,0.3394732,-0.9221418,-0.35567456,0.7634675,-0.33891732,0.63591665,
getNode(),-0.21761213,-0.8307318,-0.22193153,0.31499922,0.36873776,0.20191239,0.28921697,0.41475818,-0.48518723,-0.18449081,0.6232881,0.3309198,-0.71061087,-0.043022186,0.16857179,-0.10918061,0.097017914,-0.20775564,0.05860517,-0.60713625,0.5752973,-0.39799312,-0.6009103,-0.27786744,-0.031780317,0.5194538,-0.26595077,-0.22076765,-0.09990202,0.8459034,
characters(),-0.096390426,-0.6995075,-0.12682849,0.22880533,-0.1023119,0.20092647,0.8179336,0.45307437,-0.3678044,0.5830494,0.29321486,0.18617147,-0.08637134,-0.6005578,0.21100575,0.029441465,0.2962943,0.10385408,-0.04195611,-0.9709785,0.3559336,-1.4231633,-0.19330637,0.12982787,0.72283447,-0.23494616,-0.3705342,0.021923559,-1.006924,1.067497,
se,-0.06769905,-0.5683198,0.16106802,-0.3638893,0.61098576,-0.029941317,0.35809985,0.24731606,-0.5436039,-0.54301333,0.46601355,0.7499952,-0.13484536,-0.104943275,0.26813352,-0.4641109,0.3550568,0.6569,-0.29167458,-0.32324824,0.016827697,-0.7539383,-1.0130898,-0.70693934,-0.07334232,-0.049420446,-0.7166733,-0.2672899,-0.7098592,1.1296679,
createMessage(),-0.073318295,-0.37038255,0.026741868,-0.27822095,0.6626892,0.202446,0.0005123113,-0.12888199,-0.9955932,-0.30281684,0.7498703,0.916778,-0.2798993,-0.18673904,0.016855184,-0.27581716,0.46105447,0.7329149,-0.54857945,-0.44719446,0.5339863,-0.8340038,-0.7330763,-0.7516294,-0.07233734,-0.37251616,-0.7034788,0.097984836,-0.582593,1.0240673,
getAttribute(),-0.39341822,0.2653093,-0.17531931,-0.53181744,0.14740466,-0.06148804,-0.6164089,-0.4833095,-0.68356043,-0.7580759,0.94131863,0.034382567,-0.89964885,-0.25597736,-0.20826072,-0.76716596,0.21533723,0.56763095,0.14960603,0.3533163,-0.10709813,-0.02488616,-0.72851413,-0.6187909,-0.26945856,-0.8037914,-0.38561878,0.70831215,-1.7308257,0.4893838,
returnNode(),-1.2270076,-0.7648899,-0.21199353,0.46078694,0.19280839,0.06423116,0.9572961,0.6878505,-1.0151459,0.01705818,1.1694943,-0.46142152,-0.67311895,0.32836205,0.094616964,0.32095864,-0.089459985,-0.110611245,0.592618,-0.86432064,0.38330108,-0.0069427523,-0.4094479,0.38470924,0.043640826,0.358295,0.5242492,0.319635,-0.5713686,0.54683286,
StringBuffer,-0.39597952,-0.21247366,0.23520237,-0.01751037,0.0099551715,-0.29345956,-0.6951311,-0.53979754,-0.8868788,-0.5632937,0.9408288,0.35978025,-0.6351924,-0.06704655,-0.2492047,-0.65144044,0.053260457,0.2861209,0.5218204,-0.33497435,0.49332872,-0.33099976,-0.318854,-0.07979544,0.017842822,-0.48293054,0.08717945,0.44990477,-0.6731944,0.76734847,
lastIndexOf(),-0.101523094,-0.39116937,0.10401822,0.038092203,-0.54533577,-0.32597718,0.06901692,-0.12057036,-0.52339196,-0.19180532,0.9770499,-0.05450107,-0.8175229,-0.37387934,0.34625867,-0.34443098,0.7434253,0.068916544,0.08348272,-0.9725967,0.22851908,-0.40545088,-0.6978511,-0.5156064,0.2041937,-0.031459823,0.038395137,0.40208504,-1.5573965,1.0192255,
parm1,-0.61178875,-0.5124126,-0.5193876,0.614118,0.39818734,0.54281473,1.4340448,0.40992835,-1.207417,0.39219373,0.78152317,-0.018207142,-0.82582796,-0.20550348,-0.25681645,0.13970307,-0.096690945,0.09715833,0.11834497,-0.34973887,1.0116261,-0.5519886,0.2641669,0.081506826,0.30362716,-0.4484797,-0.22089031,0.59103084,-0.2752447,-0.21897137,
getTraceManager(),-0.01180373,-1.3515393,0.04824221,0.2532235,0.6050218,0.16729629,0.3132905,0.38310507,-0.18839072,-0.37685212,0.25486735,0.58685166,-0.5747642,0.017908117,0.41172647,-0.35601327,0.2538469,-0.13493845,0.15698904,-0.6476225,0.016417533,-0.47506565,-0.5142193,-0.4293096,0.15839534,0.7626184,-1.1956316,-0.4854571,-0.77890867,1.0037817,
DoStatement,-0.9248597,-0.6940476,0.3396069,0.48612338,0.20491466,0.13502361,0.6030573,0.057785984,-0.9190773,-0.2546828,1.4976264,0.004739725,-0.6042688,-0.0034081368,-0.053918988,0.029357975,0.20980105,0.17570214,0.18866827,-0.7183474,0.34099993,-0.08209423,-0.18046398,-0.08750528,0.0150814755,0.005174571,0.1922917,0.15590888,-0.5161762,0.8137862,
qname,0.4305067,-0.20723306,-0.024067085,0.5079325,-0.41655663,-0.05567022,-0.012952622,0.23485547,-0.28434348,-0.3789083,0.3219668,-0.22058417,-0.3514535,0.15925151,0.13735478,-0.063193895,0.7053479,0.19494301,0.06509327,-0.88473606,0.16324186,0.0638674,-1.0977677,-0.2601769,0.24877217,0.0035115,-0.0904313,0.53784573,-1.3156604,0.7617696,
getDocument(),-0.6111687,-0.8095783,-0.10600839,0.35394078,0.14839533,0.2767311,1.0903288,0.8647482,-0.6692671,0.018077334,0.8689721,-0.18036683,-0.46813184,0.19575903,0.11183383,-0.03248025,0.09290729,-0.36609286,0.3547488,-0.7232988,0.38044998,-0.22326165,-0.3619546,0.1409364,0.07584078,0.2642606,0.067756005,-0.0936256,-0.49360916,0.39244837,
getProperty(),-0.062240295,-0.4986874,0.09279117,-0.18835002,0.1313431,-0.05544181,-0.26083285,-0.2215975,-0.010669957,-0.6467495,0.46021757,0.4352762,-0.2458884,0.02961732,0.0008008691,-0.32712674,0.29372656,0.82969517,-0.23912103,0.06861918,-0.059852246,-0.21898758,-0.82104534,-0.5411887,-0.03706994,-0.260528,-0.50471276,-0.07854303,-1.308784,0.8498835,
org.apache.xalan.templates,0.053225845,-0.7635988,-0.27889878,0.5936346,-0.34653875,0.090670235,0.28772214,0.5184759,0.07798715,-0.52873886,-0.23727578,0.24079475,-0.62580824,0.07544014,0.029549506,-0.24425408,0.027405743,-0.25747067,0.5422478,-0.40793383,0.41246504,0.61527336,-0.5255247,-0.004266008,0.26299235,0.0061876676,-0.32323286,0.22680917,-0.4071567,0.29668516,
setParser(),-0.5502115,0.027445141,0.18846144,0.26963982,0.2622521,0.232602,0.3237592,0.5432812,-1.5257229,-0.9915863,0.28081873,-0.4221114,-0.3790857,0.5908029,-0.05852732,-0.74448884,0.25148976,0.471801,0.51102823,0.11543891,0.28733754,0.8395641,-0.5312441,-0.34001938,-0.1938908,-0.8292084,-0.0026446811,1.018746,-1.0530924,-0.21948367,
translateTo,-1.3108618,-0.19607161,-0.9370958,0.21657288,0.07699004,-0.5239283,-1.0467423,0.13225763,-1.481472,-1.0088366,0.3209991,0.15274812,-0.8221713,0.4003277,-0.43321735,-0.32552603,-0.4496603,0.7772136,0.5843301,0.25683928,0.25946993,0.64020777,-1.2728842,0.65631014,0.02830194,-0.7127028,-0.13722812,1.1859294,-0.6600478,0.33752048,
arg0,0.096243255,-0.28037068,-1.0523726,0.4434679,-0.09567954,0.11904343,0.9200013,0.9810649,-0.34509286,0.34654054,-1.1327343,0.41574326,-0.30734146,-0.15781966,0.12889227,-0.003508423,-0.11737317,0.7955708,-0.062369794,-0.05695208,0.26877168,-0.31270748,-0.8879167,0.50000197,1.0225481,-0.62251866,-0.97368085,0.799471,-0.78989434,0.15887068,
ConversionInfo,-0.7429656,-2.0684447,-0.20679992,1.4881133,-0.23328097,0.38150263,0.03382107,0.71830535,-0.34625083,-1.4939743,-0.28098452,0.9276976,0.097214095,-0.41088825,0.35910565,0.37467468,-0.35042384,0.8315633,-0.2834146,-0.53935415,1.1040944,0.18500409,-0.68111295,0.3470341,0.8235895,-0.55267876,-0.59812313,-0.026158692,-0.031156324,0.87987626,
te,-0.03824573,-0.61484337,-0.063805066,-0.22914769,0.32655618,0.11684563,0.33269733,0.69436383,-0.48353678,-0.6061312,0.11859014,0.7717756,-0.09252371,0.021749107,0.3447444,-0.5537972,0.64901584,0.50598496,-0.30412054,-0.29128748,0.11951116,-0.21919091,-1.2896479,-0.61213267,-0.10941048,-0.09848482,-0.79583013,-0.1645772,-0.7009704,0.9412274,
getValue(),-0.16966894,-0.0036522278,0.41455492,0.18856297,0.06875427,-0.07921672,-0.21345678,-0.33604494,-0.3166195,-0.67850006,0.7432237,-0.2509011,-0.43767893,0.028351806,-0.18608007,-0.20568904,0.7144721,0.4900595,0.3563389,-0.6080097,0.009111962,0.12860508,-0.87002194,-0.6622493,-0.014046997,-0.07601353,-0.29727983,0.5871357,-1.3958526,0.67536616,
startElement,0.44050476,-0.3405301,-0.7584442,0.5747451,-0.2529745,0.19928333,0.49947998,0.7888345,-0.23123817,0.15299132,-0.71736354,-0.077702224,0.29951566,0.0836651,0.1675415,0.29643434,0.3720542,0.8226352,-0.24372295,-0.59838617,-0.033134814,-0.3393651,-1.3279681,0.16973588,0.7816559,-0.53863573,-0.82372576,0.72943187,-1.4664228,0.5036196,
getQName(),-0.2516846,0.14200021,0.31169608,0.14611876,0.029670408,-0.33253396,-0.36282742,-0.59506476,-0.2919377,-0.7496464,0.5376904,-0.2625683,-0.3805691,0.0473147,-0.30557576,-0.20170555,0.46653885,0.62660474,0.5511264,-0.3726307,0.06908411,0.22562042,-0.5908901,-0.5092723,0.1871343,-0.3472708,-0.15967982,0.80951935,-1.4501116,0.58767927,
getStylesheet(),-0.27138266,-0.28906947,-0.45714217,0.0013648402,-0.07599249,0.019492326,-0.9246967,-0.052398022,-0.3788384,-0.56382006,0.2196846,0.06425125,-0.16754246,0.06066306,-0.33977672,-0.2202922,0.09878892,0.3616246,0.06707635,0.088623494,0.007719989,0.07260621,-1.113977,-0.22610483,0.0103105195,-0.56992227,-0.47751987,0.29264185,-0.5938897,0.2629888,
resetPosition(),-1.2445046,-0.9525685,0.3406086,0.3405044,0.12663777,0.014651469,1.1718967,0.7173952,-1.0272646,-0.42523968,1.2291093,-0.2736935,-0.43381095,0.61871314,0.07219132,-0.042861965,0.014581089,-0.06515454,0.78606015,-0.7287078,0.14483604,0.24458236,-0.23773982,0.18769059,0.021771323,0.032676846,0.5040796,0.24252476,-0.72390634,0.41846782,
getJCRefType(),-1.5537173,-0.63626146,-0.7687323,0.6857085,-0.0019672422,-0.61533326,-1.0674105,0.100016885,-0.99604785,-0.52468246,-0.2003383,0.29285574,-0.6040626,0.18470156,-0.349054,0.12283948,-0.51372856,1.0478936,0.4372087,0.2666755,0.36948013,0.4529546,-0.5870499,0.79749304,0.5996936,-0.5664843,-0.45962447,1.2320524,-0.51169556,0.5136665,
getCurrentNode(),-0.19290377,-1.3433423,-0.014879705,0.5915536,0.05942843,0.21123701,0.03253872,0.28460148,-0.05719549,-0.67391586,0.64315104,0.53939,-0.9622865,0.014451348,0.23721567,-0.4048266,0.14643064,-0.30993572,0.28374323,-0.5584615,0.4660215,0.196219,-0.47334972,-0.31397837,0.0072606523,0.6329145,-0.56952864,-0.3881972,-0.52030593,0.77103305,
appendChild(),0.16906212,-0.53984326,-0.12083576,0.0772982,0.13274698,0.079966694,0.20592915,-0.065470934,-0.27942967,-0.078510985,0.3885607,0.5594563,-0.16012394,-0.309959,0.0791031,-0.1815757,0.25323302,0.41619018,-0.3994843,-0.44247702,0.14333504,-0.68889076,-0.6376196,-0.2901066,0.1514539,-0.2312723,-0.58755165,-0.048292976,-0.9240118,0.73399454,
reset,-0.50200486,-0.75493836,0.21615608,0.2063567,-0.06786338,0.0115352385,1.0029675,0.7198909,-0.45547503,-0.3911868,0.55077046,-0.019251464,-0.3336731,0.45623538,0.11350666,-0.21120468,-0.14389119,-0.052504003,0.5223708,-0.32436353,0.16246763,0.25880226,-0.21452504,0.25292215,0.07847865,-0.17261982,0.30028743,0.07378707,-0.46497193,0.34389454,
reset(),-0.54206157,-0.94672877,0.32550964,-0.15487806,0.3291695,-0.13303053,0.8343543,0.4266777,-0.65451765,-0.62605536,0.8863174,0.28415018,-0.3275327,0.43834376,0.15919702,-0.38939658,-0.20270175,0.08349119,0.4056147,-0.15730582,-0.19781485,-0.058762744,-0.5829434,-0.12975304,-0.2460583,0.0058712265,0.17058636,-0.36192146,-0.31484604,0.4613083,
fixupVariables(),-0.5645943,-1.1165684,0.2986996,0.96449995,-0.058524214,-0.18330598,0.60235447,0.31071916,-0.1578951,-0.6493911,-0.41660628,0.15247706,-0.36564496,0.26613566,-0.2866986,-0.27993682,0.06577111,-0.34434584,0.7666902,-0.47203478,-0.037083857,1.2017406,0.022829657,0.18101987,0.55690134,-0.20817648,-0.7745572,0.9227902,-0.6917183,0.31417215,
setStartNode,-0.80778736,-0.8823621,-0.06425359,0.32479817,0.1508363,0.12756073,1.1074396,1.1983999,-0.7992897,-0.17840639,0.7667263,-0.22675572,-0.23084392,0.6232646,0.31430346,0.12473611,-0.06109979,-0.20182955,0.47107282,-0.6050653,0.20882612,-0.058652688,-0.52446526,0.5013545,0.11445533,0.045225713,0.25408614,0.15993667,-0.491948,0.3086763,
printStackTrace(),-0.23193139,-0.5289844,0.009993557,-0.35373944,0.68725365,0.15929838,0.098253354,0.045226607,-1.1319716,-0.76949364,0.7139848,0.75955707,-0.26506016,0.14287503,0.0068570003,-0.4890041,0.17970115,0.982965,-0.42006904,0.22957872,0.14346138,-0.54997087,-0.7964074,-0.53308976,-0.3271003,-0.86387694,-0.6691638,0.11242897,-0.79225904,0.3491107,
getMethod(),-0.6151632,-0.5100378,-0.1821409,-0.08451033,0.10381624,-0.25826132,-0.7167961,0.21644601,-0.42808565,-1.1311713,0.04371339,0.7983541,-0.033381104,0.47783506,-0.05062004,-0.44436088,-0.35436073,1.3646228,-0.054780986,0.8516503,-0.12622695,0.11267531,-0.7898691,0.012145362,-0.023552697,-1.0202615,-0.7192727,0.31492388,-0.5648915,0.40124932,
elem,0.19905348,-0.6782743,0.36532035,0.46563506,-0.35602117,0.04652752,0.48223534,0.20253955,-0.22905473,-0.26717606,0.64183277,0.2929584,-0.33541435,-0.042688243,0.25841674,-0.28946126,0.5595662,-0.0025621927,0.41973928,-1.0040288,0.40918565,0.17945734,-0.56933206,-0.21450676,0.28572455,0.094023466,-0.15115306,0.26863486,-0.8774256,0.7275222,
XSLTElementDef,-0.17430255,-1.0898246,-0.2263272,1.3214327,-0.20935275,-0.0335715,-0.5506127,0.9232624,-0.5253352,-0.80908906,-0.11566685,0.41584915,-0.3564466,0.5536838,0.7411863,0.21630381,0.51367193,0.79724956,-0.2831191,-0.8009387,0.6378351,0.5775237,-1.5690116,0.25431436,0.40763113,0.16123992,-0.578986,0.74232787,-1.1405776,0.7932874,
addClass(),-1.8025752,-0.5773572,-0.19121018,0.4824001,0.354389,-0.76275486,-0.6109627,-0.604248,-1.4071448,-0.5060785,0.454327,0.18736967,-0.65978235,-0.0053110346,-0.70192236,-0.04446504,-0.53578913,1.0630313,0.843157,0.13621606,0.2596781,0.18751387,-0.2554539,0.53992265,0.62920225,-0.78328675,-0.17340033,1.2833352,-0.52815527,0.49799109,
indent(),-0.3265609,-0.3472285,-0.16325559,0.08823565,0.03317104,0.4714794,0.35548964,-0.14937642,-1.3391494,-0.5093226,0.8187798,0.33081016,-0.4623182,-0.1299693,-0.47211295,-0.43020523,0.011698208,1.3474618,-0.32273117,0.35780683,0.9664671,-0.6243788,0.34863046,-0.40990788,0.17255962,-1.7559572,-0.5768075,0.64201665,-0.9920092,-0.39602622,
tokenIs(),-1.261229,-1.178738,-0.030335434,0.33038548,0.65570563,-0.1119971,0.693422,-0.48502243,-0.977409,0.2299595,1.0992547,0.18527198,-0.5303931,-0.7434346,-0.31931552,0.3600994,-0.31008244,0.70145446,-0.017587548,-0.5109491,0.14322087,-1.1227413,-0.038157225,-0.061835423,0.55856466,-0.0639764,-0.22606409,-0.067366816,-0.7473655,1.4045076,
key,0.026710346,-0.34257263,0.5423817,0.36258778,-0.30144063,-0.34109676,0.038889855,-0.018798923,0.0954512,-0.63686377,0.38982975,0.17970878,-0.07291241,0.2772583,0.19540396,-0.13792066,0.4342318,0.60413337,0.45751482,-0.55675125,0.040090118,0.20762728,-0.81125927,-0.22159632,0.27033648,-0.22229286,0.11633001,0.43354475,-1.359289,0.8253146,
RuntimeException,-0.09946993,-0.35366735,0.08760827,-0.36879453,0.46757147,0.18726502,0.34930366,0.36329553,-0.79619265,-0.4031383,0.49347258,0.7577277,-0.23945269,-0.06674636,0.22397955,-0.42473727,0.541541,0.20883118,-0.24774706,-0.30633485,0.20634906,-0.37420923,-0.9764381,-0.6974005,-0.10962284,-0.25513533,-0.4614529,0.025228918,-0.37714097,0.8251735,
owner,0.27556986,-0.40503848,-0.1172037,0.7467596,-0.33498007,0.08987598,0.35374174,0.3922396,0.0908934,-0.51931465,-0.22397013,0.3206061,-0.06473959,0.08315304,-0.012676814,-0.19425373,0.15391174,0.09373328,0.4640691,-0.28337535,0.16045618,0.4625163,-0.65010345,0.105890386,0.4307993,-0.37906522,-0.37002304,0.2522231,-0.43642142,0.46740687,
compile(),-1.0240728,-0.697434,0.120841675,0.46801695,0.54353964,-0.33961788,-0.11236964,-0.13287637,-0.89198226,-0.4452689,0.6054621,0.18955359,-0.22701414,0.21006925,-0.29280862,0.22805417,-0.34188136,0.90746886,0.18711254,-0.02029758,0.20154583,-0.38441417,-0.13294995,0.1545492,0.2274911,-0.19317643,-0.07506545,0.34486136,-0.19321853,0.67562395,
DTMDOMException,0.06857277,-0.39932567,-0.9113844,0.2573881,0.28335387,0.1856317,0.46616125,0.9943492,-0.5650679,0.190745,-0.46598887,0.49636817,-0.17895752,-0.25128332,0.34951952,0.11628011,0.17402172,-0.012699853,-0.31565234,-0.6153573,0.44851238,-0.65157235,-1.4866369,-0.08479174,0.39842033,0.108341105,-0.58888835,0.22441024,-0.34587333,1.0126394,
characters,0.082020216,-0.45324552,-0.35465598,0.21099515,-0.473861,0.380324,0.9684751,0.5699899,-0.17267714,0.4296173,-0.061553646,0.21637733,-0.09123147,-0.3447287,0.2537303,-0.07089923,0.34952927,0.33666718,0.04781628,-0.7010409,0.51823115,-0.8397913,-0.23297949,0.1922608,0.85708153,-0.6013901,-0.44622925,0.3195232,-0.94721705,0.6294318,
QName,0.30298436,-0.5219444,-0.14217287,0.3561949,-0.21168512,-0.06560261,-0.24760137,-0.04905478,-0.09910255,-0.4050119,0.14175051,-0.02891238,-0.1898585,-0.07310169,0.05177268,-0.088525556,0.383902,0.37717643,-0.09206381,-0.51544654,-0.044941634,0.0012998849,-0.9886033,-0.31779844,0.18941556,0.14654595,-0.35100964,0.20423354,-1.2651576,0.7632187,
getClass(),-0.49820557,-0.38539088,-0.21734488,-0.20340765,0.37834337,0.024226598,-0.2998576,0.27438837,-0.9504354,-0.9020823,0.696014,0.32835028,-0.4095884,0.3456354,0.009229883,-0.12012068,0.095802926,0.88468546,-0.12416377,0.08983641,0.23972963,-0.14537726,-1.0262712,-0.37837878,-0.45982927,-0.36957887,-0.19781862,0.093832225,-0.52716213,0.21030228,
startElement(),0.04174761,-0.27810162,-0.3728918,0.46203765,-0.17164509,0.05818002,-0.031586185,0.042455703,-0.32393315,0.20838282,0.07940157,-0.3837207,0.23799232,-0.021838332,-0.054374535,0.44920844,0.3284914,0.5773551,-0.103249215,-0.7069956,0.020791223,-0.7752472,-0.7774214,-0.10246506,0.6808138,-0.43706724,-0.40775892,0.46777993,-1.1742225,0.6545059,
msg,0.21035394,-0.60009867,-0.74374866,-0.01538653,0.5834175,0.4091953,0.41943508,0.6303629,-0.50807947,-0.19809166,-0.17451757,1.0371581,-0.38481086,-0.23220712,0.1883754,-0.1069694,0.19027506,0.47989574,-0.719889,-0.044844013,0.34706464,-0.5529049,-1.0030899,-0.37566411,0.02764785,-0.14825284,-0.9569146,-0.107595354,-0.44033408,0.67822206,
getFirstChild(),-0.47071382,-0.7912436,0.07359455,0.7308437,0.3714587,0.065538235,0.38615888,-0.1657911,-0.5736791,0.06755823,1.0357362,-0.03142107,-0.5767673,-0.13163264,-0.24116196,0.3755412,0.044209126,0.14479387,0.18224299,-0.91067374,0.52842003,-0.6422453,-0.22657456,-0.070093006,0.3170849,0.28179052,-0.031556316,0.08737217,-0.62553626,0.8571224,
peek(),0.41099566,-0.5021808,0.5898228,0.4579027,-0.14282118,0.16976586,0.71909016,0.24280664,-0.36138692,-0.5848638,0.34780923,0.13585535,-0.06789147,0.12003217,0.00958734,-0.26976466,1.0195291,0.57889843,-0.085681155,-0.59769326,0.29536697,0.3355366,-0.48791376,-0.47389245,0.4121344,-0.54710394,-0.4333054,0.3861528,-0.95078313,0.4487629,
getContents,-0.73291713,-0.98983717,-0.004693785,0.7465753,-0.30767024,-0.17082538,-0.30621353,0.55205685,-0.7205818,-0.7527842,0.54596,0.39455292,-0.5710423,0.35370395,0.51508135,0.010463379,0.30896884,0.5462242,0.09012326,-0.6717137,0.8489539,0.4549669,-0.5306343,0.23066261,0.109524205,0.23979159,-0.017076004,0.49040046,-0.7087726,0.72920424,
add(),-0.8729826,-0.19651857,0.011385295,0.32662028,0.13371263,-0.45234543,-0.5985761,-0.4721297,-0.7245078,-0.56124973,0.44341618,-0.18668522,-0.37322325,0.2851873,-0.4805373,-7.0641036e-05,-0.36275208,0.6808836,0.6008764,0.0675207,-0.07946442,0.298744,-0.55539304,0.24004829,0.35742447,-0.4791748,0.09948811,0.8761496,-0.71566075,0.47811237,
s,-0.053936794,-0.4160858,0.793203,-0.04970176,-0.109272,-0.08955046,0.5738913,-0.15353757,-0.60544443,-0.5032343,0.7947873,0.5178117,-0.26965353,-0.032488808,0.11378006,-0.540582,0.44442222,0.34628668,0.44982272,-0.56185234,0.3714962,-0.091152,-0.13616687,-0.43677917,0.13537015,-0.5851098,0.03860514,0.38024843,-0.71644443,0.5944628,
parse(),-0.20663305,-0.69783103,-0.0932766,-0.39209512,0.5881674,0.10495127,0.17936912,0.15316968,-0.66428673,-0.31393203,0.5739735,0.6151073,-0.13317205,-0.10394267,0.0626582,-0.302445,0.02723661,0.61886096,-0.39674178,-0.076939866,-0.043423235,-0.7718482,-0.84894097,-0.41604963,-0.0857904,-0.25366497,-0.6059778,-0.26061907,-0.6806759,0.7578622,
callVisitors(),-0.6466499,-0.6389292,0.30802295,0.8526046,0.20984855,0.03635686,0.5008417,-0.13693403,-0.16126335,-0.42346314,-0.05978133,0.2722515,-0.101468675,0.037483297,-0.38778564,-0.21953169,-0.17568132,0.035868973,0.85572976,-0.0185898,0.016389348,0.4823388,0.35033414,0.1861366,0.6545927,-0.4704416,-0.48125884,0.518246,-0.2492704,0.56433135,
namespaceURI,0.32876003,-0.28668073,-0.637993,0.5409137,-0.21439,0.2287219,0.3839909,0.9067359,-0.4492054,0.20828871,-0.25411057,0.0064626955,-0.0313422,0.037586633,0.34661382,0.17173502,0.5641287,0.3344456,-0.2767714,-0.84829336,0.32873982,-0.37315938,-1.3377656,0.07234515,0.46224993,-0.067664325,-0.5105042,0.48530045,-1.1231658,0.6405505,
getString(),-0.33561438,-0.52479297,0.075940154,0.2403312,0.3775078,0.3142429,0.87979925,-0.0825819,-1.2937933,-0.391693,1.2352862,0.31366947,-0.63491005,-0.16787449,-0.23224513,-0.08983184,0.2800687,0.5645423,-0.02405251,-0.4964354,1.1805402,-0.6673543,0.18257153,-0.60242164,-0.00741097,-0.5663174,0.037117116,0.22972631,-0.332318,0.31267235,
MethodType,-0.80118847,-1.1631635,0.15374875,1.4685498,-0.009676914,-0.1981222,-0.8639179,0.33417794,-0.9518869,-1.1912458,0.22274685,0.007227296,-0.67210853,0.7936387,0.013327131,0.039957974,0.55175984,0.53982604,0.06863805,-0.3775273,0.5327466,1.1618848,-0.8619844,0.14573626,0.3251824,0.041228667,-0.55070037,0.82234,-0.84896684,0.9480276,
analysis,-0.9546646,-0.82883817,-0.7804342,0.6480173,-0.060589653,-0.11974779,1.0206679,0.38823417,-0.6018813,0.2346576,-0.115869485,0.11585644,-0.69651186,-0.26247033,-0.18586005,0.37673992,-0.65813726,-0.030118039,0.7705625,-0.49157125,0.63133615,-0.21561547,0.017865453,0.58697766,0.59621483,0.03982182,0.17839265,0.5312615,0.16289638,0.37311327,
SAXException,0.013907611,-0.43940857,0.11808497,-0.3360958,0.036866996,0.33085403,0.6829464,0.6135497,-0.50197476,-0.07017834,0.22659987,0.61942947,0.26981294,-0.06248372,0.41789097,-0.46084338,0.51283574,0.7111581,-0.3210248,-0.22714058,0.051261958,-0.71369475,-0.81865716,-0.41204366,0.35474354,-0.86514336,-0.7320001,0.01588877,-0.97864074,0.732722,
visitor,-0.48273575,-0.5660319,0.1603864,0.73676705,0.15528624,0.06696153,0.6119779,0.033168346,-0.109990336,-0.4191895,-0.12398543,0.4031941,-0.08867321,-0.038660526,-0.3805688,-0.30795082,-0.17779332,-0.08070345,0.85411704,0.015165373,0.023482379,0.4517811,0.16682847,0.16990864,0.6220984,-0.47231805,-0.4500486,0.41570225,-0.090491906,0.42763984,
loadHandler(),-1.7759422,-0.5293585,-0.4317115,0.27515727,0.42001492,-0.7202956,-0.72785497,-0.57573116,-1.3276345,-0.5424823,0.512625,0.029674476,-0.6898236,0.021025442,-0.59685826,0.14801554,-0.6113124,1.1640546,0.64238465,0.2453428,0.17406718,-0.2318125,-0.5318368,0.51507187,0.49657142,-0.797743,-0.14784893,1.1004812,-0.52841884,0.6243936,
getNextSibling(),-0.66639936,-0.7275902,0.06228767,0.684298,0.52267915,0.053811006,0.5694857,-0.11992423,-0.9179774,0.09140653,1.1663429,-0.06506191,-0.58476305,-0.028720085,-0.1684762,0.36738446,0.085897684,0.12206638,0.3121717,-0.9792601,0.5211623,-0.5181169,-0.2428145,-0.012557958,0.25699896,0.36754265,0.06904553,0.27256647,-0.5155755,0.95356697,
close(),-0.21160239,-0.657047,0.42754886,-0.14765318,0.503995,0.1696966,0.6679007,0.002198718,-0.5934889,-0.55690926,0.67169785,0.7004929,-0.13597687,-0.084584504,-0.08465255,-0.5187987,0.2992993,0.78602135,-0.1715945,0.174213,0.06852298,-0.56635416,-0.31742877,-0.72309434,-0.021215204,-0.7873214,-0.7062568,-0.0909676,-0.646822,0.45105672,
getErrorListener(),0.0104210805,-0.8176811,-0.54398054,0.054509424,0.73251927,0.06904709,0.11236365,0.5450222,-0.54157406,-0.29490146,0.26256114,0.8789708,-0.3772891,-0.11506746,0.22681852,0.033705868,0.15211402,0.5672479,-0.58645844,-0.2609826,0.1625379,-0.9091089,-1.1103777,-0.37911367,-0.07476416,0.15713248,-0.989223,-0.37448275,-0.40284112,0.93571466,
pop(),0.42934933,-0.6825026,0.5334222,0.35770324,-0.2025379,0.2281597,0.9112842,0.4068081,-0.30729043,-0.57766724,0.034482494,0.21994312,0.06939513,0.253807,0.07578638,-0.21359558,0.80214745,0.744425,-0.0589386,-0.46886876,0.25206757,0.34140655,-0.44149345,-0.37000978,0.49916872,-0.7689139,-0.51953983,0.46130842,-1.0185534,0.1839578,
exprSetParent(),-0.5577165,-0.6987089,-0.060729537,0.7440208,0.1119457,0.000166838,0.4949023,0.23777352,-0.244415,-0.35153857,-0.23923221,0.14725538,-0.35230514,0.09077795,-0.28530774,-0.13340494,-0.47643074,-0.10530077,0.8232594,0.0052705435,0.03428981,0.32279438,0.11217394,0.30670953,0.5046596,-0.12531394,-0.2679098,0.341167,0.11192815,0.5130585,
systemId,0.08930044,-0.14965792,-0.5443005,0.20304453,-0.1961692,0.17981006,0.2593469,0.55573785,-0.1192442,0.05936872,-0.41425583,0.07930657,0.043275915,-0.12427283,0.054980196,-0.12417751,0.5186642,0.2131643,-0.25755864,-0.20164524,-0.08307448,-0.16456908,-1.1056964,-0.042025093,0.42088225,-0.5970974,-0.68652374,0.47501954,-1.2759852,0.4779376,
getNodeName,0.10346062,-0.9644691,-0.24149927,0.67379326,-0.13736784,0.12182747,0.6676357,0.74762475,-0.3195214,-0.5250826,0.15846996,0.09196995,-0.7071091,0.18216965,0.2562218,0.0076688332,0.13559784,-0.4131662,0.5130645,-1.0297077,0.5766614,0.26140115,-0.5902483,-0.045437455,0.06324317,0.47032556,-0.11696159,0.124972194,-0.4236063,0.5002247,
toCharArray(),0.105459265,-0.37587988,-0.104036346,0.15534881,-0.10839649,-0.15017755,0.3038972,-0.098550536,-0.313946,0.20858774,0.39531222,0.31828183,-0.40396953,-0.7008246,-0.16294937,-0.13125823,-0.05321896,0.16092114,0.17656845,-0.8730304,0.60661,-1.3397194,-0.077634454,0.048112355,0.5156007,-0.20181212,-0.20416833,0.10615199,-0.69426215,1.1304142,
setProperty(),-0.30913717,-0.116429,-0.022619268,-0.42433918,0.25299463,-0.13059768,-0.18294434,-0.20319717,-0.21009621,-0.2960908,0.25321996,0.14674672,-0.19381946,-0.19640665,0.13113114,-0.38223794,0.17592965,0.64262825,0.03997598,0.25762752,-0.5308735,-0.18875006,-1.017418,-0.4894905,0.052165676,-0.39519373,-0.47121558,0.37970102,-1.4082022,0.7649163,
setTarget(),-1.5802206,-0.4182568,-0.38260788,0.30621627,0.3628274,-0.58748496,-0.7892706,-0.38799518,-1.2657753,-0.66000044,0.35700935,0.1467745,-0.60512567,0.1377144,-0.5832344,-0.0748812,-0.5157576,0.97646046,0.52644503,0.28916356,0.1393729,0.33577392,-0.6054483,0.46230316,0.39613727,-0.7178344,-0.23456672,1.124688,-0.52351797,0.48176813,
expr,-0.35888866,-0.5380548,0.002066735,0.33250502,0.08078082,0.10455067,0.29939798,0.20940436,-0.27253878,-0.36321396,-0.020246357,0.22800036,-0.37649575,0.26060337,-0.10113559,-0.27698356,-0.1931527,-0.104256086,0.6350446,-0.11053603,0.14180586,0.4505183,-0.22627106,0.07294778,0.25004026,-0.24974552,-0.21495615,0.27702948,-0.052001104,0.2980071,
endElement,0.37954235,-0.27495867,-0.6264436,0.42637545,-0.24743377,0.3144272,0.43439516,0.7121612,-0.304403,0.081981845,-0.4421869,0.088134095,0.18942957,0.10840791,0.17151244,0.098788455,0.4095616,0.6446903,-0.2513654,-0.57070255,0.15722594,-0.29781282,-1.1404675,0.12675047,0.6042253,-0.5482659,-0.774697,0.56098014,-1.1481007,0.47695446,
axis,-0.6190755,-0.62964517,-0.91016215,0.7806902,-0.048965123,-0.096934244,0.5541936,0.7935801,-0.485602,0.022442326,-0.11312924,-0.1684753,-0.52244484,0.0056067384,-0.030750118,0.6537274,-0.6848969,-0.038834855,0.53265965,-0.49826568,0.53734076,-0.26685077,-0.53154695,0.7468922,0.44817024,-0.006691796,0.26819187,0.49237898,-0.022872666,0.09512908,
setAttr(),-0.31465065,-1.1715667,0.31729814,0.9016234,-0.13513047,-0.3480215,-0.21290095,0.090974115,-0.22675216,-0.95057803,0.09269447,-0.13712214,0.036322992,0.75376123,0.33065373,0.118290134,0.4382236,1.6205564,-0.049275666,-0.7653373,0.15493408,-0.30370685,-0.7758599,-0.11210759,0.5368216,0.17559941,-0.39600673,0.524242,-1.9150271,1.5293595,
org.apache.xml.utils,0.09233889,-0.48005897,-0.3266248,0.2596604,-0.24922109,0.123175494,0.28976497,0.1700402,0.15180358,-0.24723466,-0.21594949,0.3674343,-0.4234081,-0.20143943,-0.15428908,-0.23145403,-0.15631403,-0.030804351,0.25608873,-0.03642261,0.38998172,0.12337276,-0.259067,0.034519482,0.36140755,-0.35598776,-0.41147566,0.21714285,-0.28233087,0.24758883,
getNamespaceURI(),-0.0668481,-0.2953016,-0.15369193,0.59729934,0.26549205,-0.036290873,0.3735352,0.17737938,-0.5751592,-0.007757211,0.8089954,-0.3354794,-0.5920194,-0.10851472,0.02582864,0.44283774,0.3352234,0.18269467,0.12380886,-1.0372431,0.5236402,-0.64508075,-0.64280105,-0.15608893,0.19423589,0.37473541,0.023798,0.30983582,-0.81173533,0.82381535,
addFieldref(),-1.9392731,-0.37671357,-0.615207,0.17358424,0.474104,-0.60651284,-0.40545368,-0.47740105,-1.2732329,-0.22340085,0.46234328,0.10518537,-0.5749735,-0.1010634,-0.5691592,0.24221176,-0.6230598,0.9407817,0.5360498,0.25647596,0.07898875,-0.17382139,-0.3798826,0.5078626,0.4960795,-0.71636754,-0.16418575,1.0762857,-0.5609512,0.633085,
args,0.27128646,-0.5670776,-0.47858876,0.10062673,0.47098303,0.21501607,0.1780742,0.41138208,-0.37973362,-0.39591065,-0.07531815,0.96461004,-0.412505,-0.1644236,0.014398071,-0.23986812,0.09662941,0.32861677,-0.39179733,-0.10506202,0.3953404,-0.4550115,-0.79940677,-0.41805813,0.05188129,-0.074802816,-0.874973,-0.1419663,-0.18218967,0.6197092,
ex,-0.015054123,-0.8180411,-0.053235427,-0.29856792,0.40198603,0.069100216,0.2412705,0.4071579,-0.49683046,-0.7292834,0.3561652,0.8914994,-0.21605693,-0.027123475,0.1997574,-0.57326496,0.2530779,0.6097874,-0.34180576,-0.010666957,0.090368144,-0.4475781,-1.0446507,-0.5680159,-0.22813725,-0.2488378,-0.781361,-0.36472452,-0.6190629,0.7707204,
startPrefixMapping(),0.35031593,-0.24937823,-0.10096364,0.5081104,-0.061601456,0.11153017,0.2982018,0.19805494,-0.31434602,-0.08707934,0.38018048,-0.3478914,-0.025115808,-0.06306685,0.14479454,0.31164995,0.8257893,0.5691059,-0.28753212,-0.9121194,-0.015110426,-0.38413206,-1.0561377,-0.43335077,0.44940907,-0.09503529,-0.41406912,0.4101824,-1.5604802,0.83119446,
data,0.23717692,-0.35752726,-0.42214563,0.41503847,0.026784584,0.105139166,0.84008825,0.5096186,-0.35693347,0.4257364,-0.3604741,0.17019534,-0.20348698,-0.55927205,0.1381327,0.093090355,0.46018946,0.47000557,-0.29746112,-0.6545476,0.37059215,-0.7637249,-0.62527394,-0.051946122,0.8696239,-0.17693976,-0.5596022,0.33499038,-0.855139,0.7904708,
INVOKESPECIAL,-1.493453,-0.4288668,-0.24594787,0.3183527,0.34256998,-0.6453304,-0.6815738,-0.56859916,-1.2467022,-0.60502887,0.4861623,0.20324752,-0.75475407,-0.0040821293,-0.61994565,-0.15183948,-0.4896359,0.9397959,0.7164095,0.19966811,0.2724365,0.14853935,-0.41877365,0.4111197,0.43421093,-0.75620854,-0.17326865,1.1058322,-0.4897569,0.50719494,
runTimeError(),-0.2086704,-0.37978563,-0.18046705,-0.15574972,0.21918486,-0.12977949,0.5477479,0.7525236,-0.7148665,-0.5532587,0.6945451,0.20428762,-0.2506652,0.3265389,0.44353977,0.008903779,0.07977697,0.42027715,0.0011035581,-0.29986575,0.0735881,-0.68357205,-1.1939002,-0.12945768,-0.27256554,-0.15314122,0.24325928,-0.14211409,-0.5183969,0.37929857,
org.apache.xpath.functions,0.28286704,-0.73109245,-0.47949982,0.651608,-0.23873512,0.15487368,0.24990048,0.5290074,0.11711658,-0.5519906,-0.20098215,0.28636676,-0.8698707,0.009292417,0.014677194,-0.44207022,-0.06127611,-0.442366,0.52150714,-0.5017027,0.34321135,0.41418517,-0.72803456,-0.07525076,0.24985561,0.30746767,-0.5306137,0.024183016,-0.38124725,0.60519207,
namespace,0.1846312,-0.49329218,-0.1192619,0.89182484,-0.4354863,0.006094929,0.059381913,0.51505274,-0.03273117,-0.37046894,-0.24305317,-0.2402367,0.032169253,0.299439,0.034287635,0.18864012,0.37483734,0.3298383,0.24129857,-0.6214873,0.28592813,0.2927854,-0.85655415,0.11861857,0.5718795,-0.14344813,-0.22976097,0.6071668,-1.0259824,0.31192166,
attributes,0.26916775,-0.40674022,-0.48621824,0.6521248,-0.37902254,0.16218384,-0.067415,0.53246033,-0.126617,-0.20615949,-0.27014443,0.16439584,0.0849125,0.094965994,0.03318159,-0.022645477,0.45940274,0.37522438,-0.13111328,-0.5184717,0.1386809,0.22429311,-1.1207943,0.069397904,0.50260144,-0.397692,-0.7927759,0.49389228,-1.1491835,0.5249644,
fatalError(),-0.03209808,-0.8019449,-0.25860023,-0.2352473,0.5206913,0.19086438,0.20722698,0.58091277,-0.7149352,-0.39214307,0.3264045,0.9261723,-0.1925591,-0.050031785,0.32807055,-0.37108517,0.31330815,0.7134775,-0.6013306,-0.096417315,0.040662035,-0.55692875,-1.1470137,-0.50329816,-0.07695052,-0.1669394,-0.9571846,-0.2681175,-0.70998776,0.8397141,
getClassName(),-1.0634812,-0.371033,-0.46655932,0.27066445,0.24795105,-0.5711355,-0.75472844,-0.4623241,-0.8141769,-0.54172325,0.36655578,0.22589044,-0.65676624,0.038587995,-0.536227,0.13605317,-0.5200373,0.8229039,0.42243764,0.19237487,0.18866612,0.028031396,-0.52671534,0.35264862,0.33453262,-0.49505737,-0.14372325,0.6437654,-0.28327194,0.5571609,
arg1,0.07489459,-0.36657903,-0.76127094,0.5982184,-0.14009598,0.034567256,0.66196036,0.7132363,-0.2664818,0.0906598,-1.0419978,0.3203929,-0.31297076,-0.042172763,0.026511451,-0.02968216,-0.13861161,0.63932097,0.03910312,-0.00045404217,0.19062133,-0.00775295,-0.7130569,0.4824546,0.9528445,-0.60906446,-0.8516285,0.8097458,-0.70950556,0.19051218,
createXPATHMessage(),-0.06081279,-0.54535925,-0.26148915,-0.10926872,0.3659126,0.31571794,0.2755204,0.52439845,-0.38731775,-0.306359,0.17471235,0.7876409,-0.23495115,-0.108325616,0.14611973,-0.27164632,0.23908614,-0.02314738,-0.29138494,-0.2771058,0.1910923,-0.06881761,-0.8740056,-0.42444906,-0.13252604,0.010357451,-0.6100942,-0.17235024,-0.29558238,0.87939274,
compiler,-0.40540305,-0.6442125,-0.61619943,0.64069784,0.16467005,-0.0838981,0.72550434,0.26888174,-0.32668978,0.17659447,-0.21167819,0.17331888,-0.57243323,-0.37220913,-0.34364542,0.32910627,-0.718597,0.13118723,0.35472032,-0.23705122,0.48314533,-0.3743614,-0.07392324,0.4337194,0.50095063,0.04041085,-0.10074768,0.20061271,0.2014037,0.4590453,
getNamespace(),-0.04644907,-0.040215857,0.1041478,0.2932366,0.26861858,-0.22389704,-0.13027073,-0.37312403,-0.66429394,-0.6900895,0.76545954,-0.3846332,-0.67723054,-0.0678937,-0.3084742,0.051092487,0.21506509,0.26855502,0.41115165,-0.51226014,0.27437544,-0.17096834,-0.7633548,-0.44666716,-0.046890814,-0.023544513,0.20641212,0.48387748,-0.66195613,0.61314404,
endElement(),0.1523302,-0.19975667,-0.4791777,0.6093696,-0.0004897895,0.13896279,-0.010362625,0.07118652,-0.37788144,0.02678083,0.08659721,-0.36597195,0.022650994,0.059945002,-0.13832565,0.47848317,0.1958983,0.48074332,-0.09172719,-0.51381224,0.08609691,-0.45168114,-0.7857332,0.07742803,0.5630656,-0.28359622,-0.3699376,0.5844026,-0.857492,0.32683998,
IllegalArgumentException,-0.07641095,-0.33276948,-0.190627,-0.46812418,0.27199808,0.2118951,-0.08329298,0.29727584,-0.61067224,-0.35246056,0.3865625,0.7059464,-0.078614965,-0.113756165,0.16108066,-0.4187406,0.5134408,0.42572406,-0.4037912,-0.25966993,0.104117796,-0.44402453,-1.1829778,-0.6159057,-0.06210421,-0.53316385,-0.6743654,-0.06335664,-0.773593,0.8559789,
JavaType,-0.42242303,-1.0043229,-0.11266888,0.614711,0.21195588,-0.3118368,-0.27644268,0.659548,-0.6829735,-1.041179,-0.086464174,0.26016593,-0.10204773,0.6785258,0.45271772,0.28650144,0.25842527,1.9901192,-0.62715185,-0.3225051,0.22980665,-0.3044336,-1.2745117,0.08491225,0.44923553,-0.2909939,-0.6243464,0.5568992,-1.8699697,1.0750161,
getStringValueX(),-0.581864,-0.5398849,-0.28300306,0.28863275,0.45131716,-0.026444873,0.5713894,0.35474452,-0.9290749,-0.13445134,1.1233141,-0.27840734,-0.6104125,0.12123865,-0.043339547,0.3531838,-0.1599033,0.127809,0.34517208,-0.77328646,0.25982696,-0.5983579,-0.9414441,0.03412759,-0.053467512,0.34530357,0.39725685,0.017810088,-0.42694402,0.7568923,
invoke(),-0.2519411,-0.67287254,0.1808774,-0.41698164,0.28995565,0.03259132,0.12699416,0.3504598,-0.64701915,-0.7193046,0.49823594,0.8121205,-0.017164132,0.20361152,0.30781254,-0.4826122,0.40372702,1.0747122,-0.33438715,0.013600672,0.011495412,-0.3004165,-0.873196,-0.44853222,-0.2275403,-0.60324305,-0.6402982,-0.12623005,-0.86839,0.4992026,
XPath,0.10043815,-0.79875714,-0.36286154,0.35849047,0.33756113,-0.095112875,0.07300382,0.23604605,-0.16903894,-0.31211707,0.07618295,0.51667917,-0.46260452,-0.18457802,0.09937902,0.0044686343,-0.20162542,0.07201221,-0.02357857,-0.40771553,0.29031053,-0.50803727,-0.59744215,-0.11367126,0.10623087,0.4386882,-0.58762366,-0.23904167,-0.21054748,0.87429094,
getLineNumber(),-0.097422116,-0.34788907,-0.36369863,-0.102717526,0.46952924,0.12741576,-0.12114957,-0.31452528,-0.76973575,-0.3796818,0.55024403,0.50352895,-0.35717937,-0.14577709,-0.3070753,-0.26270026,0.03759766,0.61293745,-0.38879803,0.106239036,0.47185734,-0.648955,-0.3987874,-0.38955092,0.0078254435,-0.70909685,-0.63818777,0.18507418,-0.38003868,0.3180582,
error,0.21606885,-0.58429444,-0.5485028,-0.1308891,0.60949117,0.3265895,0.549622,0.5986852,-0.7472009,-0.26882493,-0.06355314,0.8645382,-0.21392001,-0.2032427,0.18225475,-0.11509205,0.12073669,0.5474907,-0.6302818,-0.1359124,0.42293525,-0.812098,-0.9615208,-0.507023,0.05736164,-0.30707705,-0.7940188,-0.09773156,-0.32682818,0.6641277,
elements(),-0.3809229,-0.85722524,0.13079517,0.40205202,0.2645858,0.007080975,-0.87239295,-0.7002481,-0.6174639,-0.88765436,0.8751521,0.2355759,-0.7236281,0.2740088,-0.4947178,-0.36304158,-0.24518257,0.5559441,0.05189582,0.16522159,0.19034298,0.39904854,-0.50234497,-0.18742049,0.1020614,-0.061669517,-0.29368696,0.20992357,-0.7413997,0.9419913,
ILOAD,-1.4324937,-0.24775203,-0.6430815,0.24390565,0.24359299,-0.58270705,-0.40508628,-0.1665511,-1.087271,-0.2213074,-0.07882621,0.10252501,-0.58429813,0.0068662306,-0.4973794,0.078234166,-0.5942461,0.8665959,0.61450326,0.26394764,0.13623483,0.07109263,-0.540336,0.651372,0.5615288,-0.72596955,-0.18943188,1.1139163,-0.32919508,0.32113072,
indent,-0.030412853,-0.43704614,-0.30357397,0.36752954,-0.08959835,0.41408792,0.47890502,-0.0012050725,-0.82939464,-0.4902277,0.23979655,0.3433733,-0.6096716,-0.11370929,-0.4506285,-0.3156938,-0.1624408,0.80556995,-0.016683258,0.1594128,1.1149751,-0.28482544,0.33907127,-0.1821496,0.28861025,-1.2157207,-0.50330865,0.56959033,-0.3902031,-0.43721074,
setStartNode(),-1.2230514,-0.697029,-0.082302645,0.055163648,0.12310142,-0.11332177,0.3933428,0.31476715,-0.86271703,-0.322301,0.8908158,-0.38301778,-0.44104072,0.48846626,-0.17864473,0.12600052,-0.54419225,0.017940702,0.9522168,-0.37367198,0.17413865,0.038923606,-0.384292,0.42241636,0.13436633,-0.20505401,0.6140355,0.28333533,-0.16709967,0.3178332,
createXMLMessage(),-0.08118355,-0.32134494,-0.13273266,-0.47450197,0.2924996,0.2835622,0.21326797,0.2818795,-0.6394125,-0.2163792,0.5361402,0.639183,-0.1639711,-0.11928104,0.27418867,-0.33311665,0.5112032,0.39529306,-0.4813636,-0.21983223,0.18472755,-0.68695045,-0.96170425,-0.5992676,-0.031508952,-0.5109398,-0.55984783,-0.056906592,-0.68322,0.8369676,
FuncLoader,-1.0910778,-0.9167215,0.102921866,0.66615945,0.4758647,-0.12711586,0.4810745,0.8564899,-1.2066715,-0.30510992,0.070865415,-0.055221602,0.004294406,0.4772838,0.38748276,0.5266249,-0.2453856,1.1766866,-0.07821409,-0.20670554,0.30657926,-0.7745849,-0.43107012,0.35609654,0.43532738,-0.4142932,-0.17793961,0.44540972,-0.033447366,0.6498245,
org.apache.xalan.xsltc.dom,-0.15923901,-0.6475154,-0.2616994,0.4819398,-0.39568236,0.03390595,-0.038099688,0.39999363,0.0055130715,-0.4776237,0.07026082,0.34496975,-0.5320025,0.04217562,-0.09489057,-0.20420653,-0.11789404,-0.058781717,0.31336236,-0.25386608,0.6205693,0.3468708,-0.39232516,0.19819565,0.27065596,-0.21587516,-0.24557418,0.18686587,-0.2538797,0.307273,
NodeSet,-0.08460927,-0.77509254,0.53689665,0.22289595,0.05362815,-0.023648402,0.015225523,-0.14116862,-0.30096593,-0.5135725,0.3966482,0.66022503,-0.23020363,-0.073809594,-0.20285018,-0.5589177,0.110890284,0.06611804,0.24946757,-0.3567705,0.24842049,-0.09330396,-0.07031809,-0.2750242,0.24606486,-0.3255707,-0.5395814,0.07737237,-0.31803018,0.939256,
getPrefix(),0.045823976,-0.034525223,0.1724668,0.23905751,0.26927617,0.0063259206,0.21766973,-0.059675068,-0.58589315,-0.407479,0.75486845,-0.2780098,-0.5108953,-0.1416971,-0.17533399,-0.06944021,0.60384274,0.06009339,0.19884685,-0.7301886,0.2948976,-0.10040044,-0.857352,-0.5887051,-0.05701627,-0.0063612475,-0.05845084,0.36195526,-0.88672405,0.73798513,
detach(),-0.46503967,-0.7744229,-0.21434277,0.49429035,0.17798361,0.02837279,0.32935748,0.15870321,-0.29011276,-0.26379752,0.2951478,-0.13358438,-0.7609438,0.0689359,-0.09385671,-0.07873485,-0.32670048,-0.2823469,0.59492856,-0.3343588,0.013757458,0.082988545,-0.25568116,-0.06364107,0.22660658,0.44136027,-0.17325373,0.0054969825,-0.19910707,0.630634,
flush(),0.056298774,-0.39886814,-0.16365466,-0.032831453,-0.012517504,0.47929454,0.7765532,0.26775098,-0.40649465,0.21938154,0.22241263,0.35736004,0.08803794,-0.15130039,0.07898979,0.0014684943,0.38282162,0.74051386,-0.29551384,-0.30708957,0.35682082,-0.842705,-0.28729025,-0.21144605,0.5342172,-0.89376146,-0.6092031,0.19169344,-0.8520391,0.31771442,
parseContents,-0.088493414,0.10205243,-0.17042378,-0.054369844,-0.0025396983,0.26784247,-0.21766874,-0.27173802,-0.9268753,-0.90806943,0.62278754,0.080640055,-0.7059799,0.112826556,-0.37821665,-0.68294984,-0.009037397,0.6219849,0.12002595,0.3376987,0.52232236,0.19682191,-0.309793,-0.51071435,-0.14928271,-1.0691217,-0.24325919,0.78135127,-1.0798851,-0.047831595,
INVOKESTATIC,-1.4356859,-0.20257434,-0.48408857,0.20183353,0.30569607,-0.64012647,-0.85965437,-0.28511336,-1.287531,-0.6429613,0.44815364,0.006851178,-0.6947071,0.1215643,-0.48584837,-0.0053448793,-0.4190553,1.0184547,0.518227,0.24820276,0.17454466,0.068764135,-0.7298508,0.4197524,0.24133027,-0.6351596,-0.07292955,1.0723219,-0.6091238,0.4629076,
bool(),-0.09098057,-0.59338224,-0.40849724,0.14175798,0.43339193,0.015530706,0.34888816,0.46423608,-0.38846925,-0.3976751,0.5772423,0.07228203,-0.84383637,-0.06347242,0.3476517,-0.012462381,0.096408926,-0.15261948,0.22917573,-0.67590827,-0.012670883,-0.5335254,-1.1014924,-0.47457322,-0.22210346,0.75190896,-0.30068886,-0.34128788,-0.5878536,0.9233162,
flushPending(),0.086604804,-0.37438604,-0.39431894,0.26416793,-0.008833462,0.21502395,0.7247912,0.40199664,-0.114170596,0.39087102,-0.04980633,-0.072091475,-0.019952377,-0.2834091,0.039452795,0.16196468,0.18428211,0.5436296,-0.14643326,-0.4126097,0.009396347,-0.7861919,-0.5042676,-0.052089244,0.6808264,-0.36005935,-0.5924729,0.1816813,-1.0775081,0.53788525,
publicId,0.14586572,-0.21872737,-0.67731947,0.39092678,-0.2662973,0.168104,0.43373832,0.67607176,-0.008996564,0.018747043,-0.6946544,0.06022584,0.021201298,-0.1081687,-0.00698565,-0.04532396,0.31741762,0.3652842,-0.078295246,-0.21932259,0.012314501,-0.13123515,-1.12897,0.029380912,0.5785206,-0.63376915,-0.7042069,0.53767437,-1.1547562,0.347831,
locator,0.20141804,-0.37764493,-0.43739855,0.07623221,0.11950616,0.14071476,0.26922578,0.33449692,-0.2410046,-0.06775233,-0.20570035,0.44421598,-0.14991683,-0.1151033,0.058095023,-0.18887495,0.077680275,0.52548033,-0.2925843,-0.011462964,0.1327167,-0.48587093,-0.62028265,-0.155514,0.35267863,-0.53527194,-0.8204951,0.14544594,-0.5902708,0.3817555,
b,-0.1426084,-0.43273056,-0.16836032,-0.09369396,-0.08232321,0.24624039,0.7698152,0.48080227,-0.15239334,-0.17335027,-0.14504273,0.6043613,-0.28328058,-0.17907892,0.17658532,-0.2783647,0.15606382,-0.07719959,0.17758635,-0.14035681,0.31340325,0.12870015,-0.49649617,-0.25979403,0.21050039,-0.46597502,-0.36266643,0.21272707,-0.2506813,0.08456668,
dtm,-0.22479081,-0.7391311,-0.19830592,0.5967457,-0.06352264,0.068762444,0.36242777,0.40658653,-0.09027393,-0.37621614,0.26019153,0.24125567,-0.5449296,-0.04996285,-0.006751389,-0.032166217,-0.135004,-0.22831604,0.4286534,-0.43139842,0.4234043,0.110212035,-0.32670283,0.041528706,0.18606503,0.14850816,-0.17959194,-0.011247073,-0.16053201,0.44461197,
argument(),-1.0451462,-0.24815302,-0.31045878,0.36622345,0.4522283,-0.24954544,-0.72488916,0.22815238,-1.4276261,-0.9521398,0.568939,-0.3770506,-0.64394164,0.605063,-0.27250403,0.1484973,-0.08879599,0.6434015,0.42802128,-0.038967285,0.16771808,0.31521302,-1.1576607,-0.003792254,-0.21300824,-0.28559372,0.090517625,0.8666505,-0.31291428,0.21285544,
current,-1.024618,-1.0312866,0.33564907,0.6888341,-0.07384354,0.13729127,0.90399253,0.13873345,-0.70866287,-0.36823636,1.2103899,0.06513951,-0.84739685,0.11857391,0.024113178,-0.1498936,0.032384917,-0.45145008,1.0328859,-0.88687956,0.5697675,0.35223302,-0.1378412,-0.05380888,0.30507302,-0.059431657,0.3299842,0.49098793,-0.55401623,0.6490378,
forName(),-0.06355423,-0.6068866,0.028593639,-0.17137714,0.0074190884,0.0045659556,-0.15790337,0.36235666,-0.26635256,-0.7524964,0.3421417,0.7457059,-0.08404141,0.08868018,0.23189916,-0.5640155,0.3612079,0.92824966,-0.284967,0.08608197,0.09410523,-0.25242007,-0.88384444,-0.52983814,-0.19227347,-0.5623667,-0.76694393,-0.10285664,-1.0792457,0.63340133,
qName,0.35667327,-0.29360616,-0.51838785,0.81711143,-0.28193977,0.2668409,0.30166295,0.6295318,-0.25586122,0.012382163,-0.26774728,-0.14737265,0.085802115,0.15308942,0.06843661,0.2963642,0.50876343,0.5851769,-0.18145283,-0.67730755,0.21604063,-0.14403185,-1.1128769,0.08354572,0.65696305,-0.44119263,-0.6352578,0.69019866,-1.1920393,0.42375877,
dom,-0.12174232,-0.4821347,-0.18521112,0.17967372,-0.119228125,-0.026279671,0.06379453,0.57577926,-0.4154598,-0.42022544,0.61576086,0.012414186,-0.3963811,0.22205004,0.11756985,0.016284171,-0.013338702,0.119864345,0.2628852,-0.44415477,0.34510484,-0.093183786,-0.9156684,0.059861023,-0.010133828,-0.008734293,0.17364517,-0.0005507009,-0.4626185,0.39858478,
ALOAD,-1.2460343,-0.2536272,-0.6828349,0.08816738,0.12168871,-0.51725125,-0.28643113,-0.1199185,-0.8521356,-0.14460479,-0.31952426,0.18507084,-0.5694067,-0.122540765,-0.3354479,0.05285246,-0.6976876,0.80107087,0.64841557,0.28253934,0.15442827,-0.0026631367,-0.44133407,0.58386797,0.56612945,-0.76743776,-0.114379205,1.0252378,-0.2217251,0.2021814,
initAttrTable(),-0.7533914,-0.4990156,-0.76305616,0.08731728,0.4883075,-0.400724,0.48221678,0.25671375,-0.82442826,-0.24891576,-1.219947,0.29169816,-0.5268364,-0.33631665,-0.37304732,-0.47160545,-0.5501768,0.91224223,0.3140887,0.6414228,-0.36050752,0.16661516,-0.3353947,0.41251162,0.7995489,-0.81540424,-0.9652608,0.7995823,-0.800557,0.11791346,
initStdClass(),-0.9901637,-0.49898598,-0.9832832,-0.13932018,0.56230617,-0.20264032,0.9426516,0.04953197,-0.8283643,-0.0061233374,-0.6977791,0.27165955,-0.5195039,-0.48757923,-0.7595139,-0.18763305,-0.91422427,0.95071423,0.6088813,0.7205275,-0.2882317,-0.7987772,-0.4248244,0.122420475,0.95076144,-1.3382899,-0.8482049,0.8309834,-0.81854945,0.26548702,
String,-0.07213234,-0.3242261,-0.048675444,0.22687954,-0.07248494,0.030328736,0.37060603,-0.11365759,-0.33754936,-0.16256738,0.47185284,0.15844232,-0.47894135,-0.26541167,-0.105939515,-0.05715973,0.10842828,0.34198368,0.17910029,-0.4208789,0.5400281,-0.51327163,-0.097019754,-0.08666042,0.30369344,-0.34753487,-0.053556114,0.19225603,-0.4150314,0.5584807,
XString,-0.07737037,-0.19291884,-0.23371461,-0.0019661342,-0.005279985,-0.068407655,0.25331834,0.09351795,-0.2790059,-0.16958596,0.4911319,0.16795288,-0.73291385,-0.18470556,0.13338135,-0.35545683,0.059343815,-0.21679862,0.25909787,-0.4737274,0.07681759,-0.32781324,-0.52361786,-0.20715101,0.058395363,0.15034202,-0.14919592,0.025705017,-0.6972426,0.88115305,
hasMoreTokens(),-0.5385288,-0.7152227,0.06386672,0.18050575,0.3422732,-0.19361733,-0.60403043,-0.9192485,-0.68231034,-0.3877604,1.2785175,-0.06495575,-0.7709504,-0.38335508,-0.47252342,-0.12853467,-0.028467799,0.53722966,0.13703473,-0.34854415,-0.066523604,-0.33821493,-0.7514477,-0.33317894,0.23634352,0.09918516,-0.16560967,0.18420641,-1.3386786,1.426733,
size,-0.42033765,-0.8567294,0.34624064,0.44681913,-0.4000119,-0.017161079,0.30399913,0.3309461,-0.17880617,-0.41001543,0.26710716,0.09578959,-0.18583257,0.18541518,0.14761615,-0.07920166,0.12764694,0.2903348,0.45323682,-0.34210166,0.41780356,0.27038166,-0.0978656,0.04570286,0.4574562,-0.34965652,0.02993485,0.291228,-0.52427256,0.30673102,
setSystemId(),-0.1101257,-0.45459634,-0.20184034,-0.46006462,0.44740364,0.10450631,0.07073366,0.10831721,-0.659689,-0.4283225,0.18011025,0.60330474,-0.10412928,-0.023984456,-0.10270826,-0.54064107,0.063561745,0.8586968,-0.30133402,0.3593734,-0.0893703,-0.52342093,-0.64198977,-0.43986875,0.008553315,-0.8368126,-0.8652787,-0.01902339,-0.7379532,0.32114166,
val,-0.116523385,-0.43411526,0.065767325,0.11260891,-0.07976885,0.06380652,0.19051383,0.19845262,-0.20096187,-0.35523346,0.32929137,0.21493763,-0.4292274,-0.009842396,0.12982722,-0.21994983,0.10157292,-0.012277639,0.37273744,-0.39946786,0.30570585,0.042967945,-0.48552686,-0.2227407,0.18508035,-0.1128309,-0.07755489,0.105112456,-0.2923752,0.56364006,
getExpression(),-0.5159787,-0.63985133,0.31462014,0.61558115,0.19527704,0.029552525,0.24605604,-0.091840774,-0.2614243,-0.48986036,0.23585747,0.2862124,-0.2331411,0.019894239,-0.28560445,-0.15921895,-0.0037286163,0.16282812,0.5062889,-0.14890273,0.14550228,0.3010362,0.0023527755,-0.055294544,0.37473956,-0.2270522,-0.32540792,0.27499866,-0.2966417,0.59133613,
getXSLToken,-0.052360043,-1.0789458,-0.063667424,0.66519845,-0.29054996,0.065265626,0.5670888,0.636808,-0.22419693,-0.6389272,-0.108914524,0.18989494,-0.6272947,0.28109914,0.25646636,-0.14376363,0.18262754,-0.3664512,0.69426984,-0.7988042,0.4272501,0.7243201,-0.5931519,-0.06416125,0.17158167,0.24341929,-0.17130949,0.30183896,-0.51598775,0.28731796,
NEW,-1.5817976,-0.52127296,-0.3583,0.4003414,0.32469848,-0.63990015,-0.5718981,-0.49884614,-1.2269456,-0.49829543,0.41544968,0.0296357,-0.73821205,-0.038545612,-0.63583505,0.041966792,-0.5813826,0.9484018,0.67934114,0.18828094,0.25282446,0.031213684,-0.32742837,0.5017206,0.5223302,-0.6383507,-0.14483468,1.0710958,-0.42787075,0.5150278,
TypeCheckError,-0.68029314,-0.1604242,-0.3116063,-0.19377875,0.4724785,-0.018758431,-0.49938968,0.6565889,-1.2488544,-0.9391354,0.41168892,0.13285345,-0.30323592,0.53569806,-0.10358474,-0.3091521,0.38854125,0.3076211,0.067306906,-0.080145195,0.2036691,0.50196564,-1.4928691,-0.36256757,-0.405794,-0.3543736,-0.24121468,0.4610514,-0.29774135,0.4232422,
contains(),-0.36775193,-0.5396894,0.50402594,0.50871223,0.26575407,-0.12499263,0.013121922,-0.46058464,-0.6283434,-0.6924651,0.7490432,0.096843965,-0.3023973,0.1289725,-0.35446346,-0.17288971,0.31604648,0.1599392,0.3880192,-0.44664457,0.167707,0.19012597,-0.2838899,-0.38309905,0.24224038,-0.1469274,-0.17126662,0.4473729,-0.5721473,0.7727158,
setRoot(),-0.20038599,-0.857872,-0.02190436,0.36075357,0.0887294,0.16081698,0.44264203,0.32418218,-0.12128938,-0.3830617,0.23584193,0.21360688,-0.5135936,0.09320814,0.05831785,-0.3278469,-0.20597792,-0.14106573,0.38352272,-0.17914444,0.18307082,0.0881191,-0.18986855,-0.119812086,0.18593892,0.15094446,-0.31545994,-0.14022495,-0.3381565,0.57061166,
getInstance(),0.11523993,-0.7840232,-0.011669229,0.35098982,-0.22302213,-0.050390787,-0.14236802,0.32425788,0.08234353,-0.65310633,0.17160042,0.52803695,-0.32897344,0.08855085,0.12193546,-0.33063975,0.09630453,0.29951447,0.17110194,-0.34026816,0.3676606,-0.035801977,-0.5875409,-0.1194278,0.11482097,0.02558436,-0.3202585,-0.10826807,-0.59260076,0.7443222,
addNode(),-0.18749255,-0.6570983,0.6218088,0.40204227,0.18203774,0.038768988,0.6355034,-0.2041647,-0.48822993,-0.40706313,0.7484375,0.052948542,-0.17118663,-0.04807571,-0.14687791,-0.16809268,0.4488211,0.14533457,0.19805369,-0.61623293,0.27230337,-0.15737374,-0.066532105,-0.46808052,0.34246278,-0.26572445,-0.20005886,0.25617182,-0.75540555,0.8222249,
setContentHandler(),-0.0666362,-0.6222667,-0.096482806,-0.28219065,0.31246832,0.10862438,0.2988752,0.36825314,-0.3640126,-0.2371574,0.07882911,0.6025608,-0.08138786,-0.10280178,0.11222735,-0.48924676,0.1011157,0.5075545,-0.20500883,0.07851854,-0.10975545,-0.37811384,-0.6818552,-0.33914468,0.06372502,-0.4395218,-0.7805831,-0.16339211,-0.68132395,0.43489546,
lookupNamespace(),0.03199131,-0.16164638,0.04051074,0.095380194,-0.068484396,-0.16047528,-0.2792362,-0.24236156,-0.45124635,-0.43542013,0.7396306,-0.3249137,-0.4441972,0.043932,-0.013866971,0.013428849,0.45409533,0.56642604,0.08065858,-0.5919218,-0.021624645,-0.086078465,-1.0223485,-0.37807766,0.12923446,-0.03373737,0.007242053,0.4973572,-1.4598674,0.7180387,
contextNode,0.1458916,-0.5122092,-0.3969813,0.42753917,-0.18165456,-0.023888795,0.13745409,0.27455357,0.09682183,-0.33015692,-0.10845888,0.35586837,-0.6726012,-0.16386731,0.021244857,-0.41488013,-0.17181921,-0.33644268,0.4013206,-0.2976355,0.14978443,0.23762223,-0.5691051,-0.032828268,0.23272997,0.19781536,-0.41562894,0.16978431,-0.4461786,0.6383643,
fname,-0.45710668,-0.4406426,-0.6242547,0.60474396,-0.112707585,0.22897676,-0.44254082,0.5047477,-0.76684123,-0.9560301,-0.13754769,-0.20951962,-0.663855,0.48895973,-0.34083802,-0.25279948,-0.25398493,0.390576,0.33664122,0.4438419,0.31377405,0.84906685,-0.84273446,0.16011089,0.0045362175,-0.62195027,-0.28318453,0.9345551,-0.59344465,-0.2653619,
_exptype2(),-1.0712473,-0.9200845,0.18118116,0.48024446,0.2728711,0.11135442,0.39922577,-0.045712043,-0.95177096,-0.12889361,1.4228729,-0.20177452,-0.6117626,0.09822814,-0.021988194,0.23299056,0.09077858,0.20809639,0.31569818,-0.7202019,0.43406928,-0.37870625,-0.19981092,-0.020672424,0.19800484,0.122982726,0.19718426,0.17157988,-0.67570156,0.87623143,
org.apache.xml.serializer,0.084350176,-0.3407249,-0.40779814,0.3051047,-0.27264655,0.062487796,0.17986041,0.28501117,0.127632,-0.194378,-0.32784036,0.26710495,-0.37023798,-0.11743997,-0.17372341,-0.20855348,-0.15633222,0.15390994,0.19183724,-0.06319134,0.33314845,0.09694847,-0.41206086,0.123251565,0.3903843,-0.33846852,-0.43865556,0.27451557,-0.41798642,0.27981585,
popCurrentNode(),-0.11030522,-0.7615662,0.020426711,-0.16869046,0.31888604,0.10402147,0.55982363,0.34076554,-0.37957275,-0.28703582,0.19606346,0.52819455,-0.20626958,-0.016601726,0.20401248,-0.3976887,0.035186864,0.17549574,0.08108298,-0.18941894,-0.059589423,-0.36296213,-0.43648833,-0.42764017,-0.009762258,-0.04532712,-0.56374586,-0.2719645,-0.44707572,0.5980684,
addAttributeToNode(),-0.6070186,-1.0333745,0.38579297,-0.11095078,0.570556,-0.20239004,0.49532613,0.6234325,-0.8197361,-0.8780678,0.5268368,0.83194506,0.13233112,0.25356138,0.46509567,-0.45792785,0.1628853,1.2341882,-0.16563259,0.11259465,-0.20368525,-0.895323,-0.88735867,-0.51250434,-0.04385624,-0.6237884,-0.86331034,-0.20730302,-1.0012597,1.1783808,
identity,-0.90664804,-0.83339345,0.18201683,0.42114162,0.009479056,0.10894133,0.7789883,-0.021830624,-0.8484503,-0.27728918,1.1767927,0.020149631,-0.76953065,0.029099045,-0.048483547,0.0340319,0.081975915,-0.24374221,0.73603237,-0.6565782,0.47837782,0.21044648,-0.15758567,-0.07095903,0.17906651,0.0043640826,0.40370962,0.3492235,-0.38508284,0.47877944,
processingInstruction(),-0.09570013,-0.5622391,-0.45245633,0.2773324,0.3976691,0.06501611,0.86856943,0.31346855,-0.30336607,0.25131252,0.056663632,0.06042862,-0.08125038,-0.3514266,0.011475328,0.42322797,-0.1276731,0.53822476,-0.15432459,-0.41561326,0.07549098,-1.2520723,-0.48559606,-0.09609274,0.5472386,-0.089052446,-0.45680702,-0.069046006,-0.59622157,0.6735782,
vars,-0.24295689,-0.75136477,-0.02498401,0.8782685,-0.16603072,-0.08736157,0.23846763,0.36368862,-0.16664147,-0.5414604,-0.1529274,0.16577944,-0.671544,0.19402236,-0.11975447,-0.2511887,-0.045840234,-0.35610127,0.75143653,-0.48790357,0.36561638,0.843268,-0.33510917,0.16942196,0.40437084,0.0815851,-0.30549353,0.5919507,-0.22923765,0.49210992,
deepEquals(),-0.56380844,-0.46928304,0.08433534,0.44602314,-0.017963253,0.043757856,0.21708198,0.17887682,-0.56277084,-0.32252505,0.4796315,0.063234,-0.53738725,0.32672092,-0.05109397,-0.09522982,0.1503424,-0.008787096,0.72085595,-0.4690497,0.3112139,0.5296221,-0.3718932,0.22378518,0.14181453,-0.12888601,0.028865073,0.47152057,-0.20966552,0.28580835,
setParent(),-0.30909485,-0.1499157,0.15315339,0.14621419,0.26457724,0.13654059,0.07905417,0.19554739,-0.7961173,-0.80343527,0.2882042,-0.29744074,-0.27719983,0.39632732,-0.12825683,-0.34202376,0.0012902647,0.21062998,0.35858852,0.04421513,0.047566954,0.39759356,-0.52182364,-0.35078636,-0.08048813,-0.46159092,0.0051810034,0.5087416,-0.6219739,0.20360333,
