name,vector_0,vector_1,vector_2,vector_3,vector_4,vector_5,vector_6,vector_7,vector_8,vector_9,vector_10,vector_11,vector_12,vector_13,vector_14,vector_15,vector_16,vector_17,vector_18,vector_19,vector_20,vector_21,vector_22,vector_23,vector_24,vector_25,vector_26,vector_27,vector_28,vector_29
MemberReference,-0.19074686,0.15718791,-0.057838637,-0.15172233,-0.18995199,0.028064482,-0.1608117,-0.12258829,0.03806166,0.08162439,-0.09432616,-0.4622149,0.20415874,-0.07847466,-0.1389793,-0.21758765,-0.25066972,-0.1711291,-0.13490978,-0.37715772,0.37770435,0.39454642,0.11920413,0.17088972,-0.076112725,0.10854532,-0.19020627,-0.11190128,0.009150082,-0.1320065,
MethodInvocation,-0.027822835,0.12548277,-0.16111402,-0.1587028,0.19150285,-0.18389319,-0.039267253,-0.044699606,0.05357417,0.055880412,-0.020230025,-0.07306683,0.09265467,0.11583719,0.08545081,-0.17746282,-0.18331492,-0.12038412,-0.23350269,-0.44737887,0.33954355,0.4427482,0.034469087,0.59445727,-0.05198429,0.2043662,-0.17341426,-0.121627055,-0.1008815,-0.014566496,
StatementExpression,-0.08040858,0.18368651,0.11136499,-0.22617933,-0.072744235,-0.005373487,0.059675977,0.042384233,-0.02581474,-0.15053664,-0.13832478,-0.02129979,0.09158386,-0.03273715,0.036229033,0.015121459,-0.014998512,-0.20733586,-0.17851202,-0.35338223,0.4857142,0.3789195,0.016554108,0.7298311,-0.16485974,0.13342291,-0.124620005,-0.026426313,-0.041442294,0.004401007,
ReferenceType,-0.011999112,-0.13258779,0.18090951,0.17201227,0.27260908,0.23882627,0.06758139,-0.10373993,0.1181214,0.3274111,-0.24774097,-0.33442795,-0.07930125,0.053732384,0.098551124,-0.20253731,0.026631327,-0.10189279,-0.0909522,-0.39404628,0.34200892,0.38853592,0.17524172,0.55885047,-0.26165572,0.2318616,-0.10325826,0.16026442,-0.15416496,-0.25510076,
VariableDeclarator,-0.14717779,0.038987767,-0.09957974,0.40356347,-0.048169237,0.1911865,-0.1574907,-0.4715536,-0.18219128,0.034305017,-0.022770893,-0.13544345,-0.09088624,0.21777156,-0.10154609,-0.32192868,-0.07833686,-0.072743714,-0.41727996,-0.30575177,0.33700213,0.14834628,0.4254407,0.5691996,-0.21834119,-0.014209851,-0.13683717,-0.20727675,-0.08614026,-0.36868086,
IfStatement,-0.272623,0.4362511,-0.39271158,-0.30014917,-0.0070145326,0.14131877,-0.03744912,-0.22541071,0.19517343,0.18936083,-0.057471145,-0.58647597,0.25880155,-0.16610487,-0.016041636,-0.27683035,-0.042092234,-0.11904537,0.17684993,-0.44804654,-0.08679555,0.52139103,0.047647506,0.2911774,-0.05622963,0.07806303,-0.37758473,-0.079034686,0.17984049,-0.29207376,
BasicType,-0.119134285,-0.2397012,-0.23724215,0.14663456,-0.3003039,0.49011117,-0.3603119,-0.43198028,-0.06482264,0.253056,-0.15907778,-0.32602602,-0.102288455,0.07462791,-0.31907496,-0.46652246,-0.16085456,-0.112955794,-0.051631566,-0.35657793,0.32544836,0.2792082,0.17910646,-0.003491598,-0.49227157,0.11047458,-0.28098464,-0.020980993,0.116920374,-0.13384129,
ReturnStatement,-0.25617853,0.19996378,-0.50166416,-0.33266833,-0.13534652,0.34989613,-0.17029603,-0.017269116,0.17974323,-0.034068692,-0.20179304,-0.5593634,0.4502079,-0.07402698,-0.121986166,-0.43906996,-0.2443946,-0.114829,0.09862221,-0.13335495,-0.21324447,0.41075572,-0.11669563,0.3525183,-0.5504194,0.29860228,-0.6543879,-0.2415138,0.44102708,0.11069,
FormalParameter,-0.35199833,-0.28852063,0.2273701,0.2657362,0.23621796,0.31461126,-0.26051638,-0.21122639,-0.0072570285,0.27167773,0.015838541,-0.4128201,0.12530786,-0.008782741,-0.28407872,-0.48378623,-0.06344695,-0.007437111,-0.3502609,-0.13506448,0.17690384,0.2917724,-0.13872203,0.49482474,-0.6710664,0.24510051,0.033341546,0.13607208,0.24357241,0.16904469,
BlockStatement,-0.2639854,0.14071625,0.06168248,0.09208006,-0.33858496,-0.021127354,-0.10398738,-0.121176064,0.051025238,0.11261443,-0.011684958,-0.5573563,0.18629809,-0.1712324,0.04559509,-0.024281796,-0.14580601,-0.36323315,0.0072242287,-0.3965036,0.25034997,0.4065431,0.41606,0.3452164,0.1555732,0.044234168,-0.35577855,-0.18280366,-0.19577911,-0.3186729,
MethodDeclaration,-0.03624201,-0.16006036,-0.135019,0.043444596,0.19890232,0.08110335,-0.305767,-0.12804057,-0.09501432,0.23630907,-0.06828438,-0.50742686,0.32071513,-0.0004617325,-0.24623829,-0.4057887,-0.14332606,0.044734273,-0.048805702,-0.35816684,0.12172781,0.50721586,-0.09070491,0.24682717,-0.3316151,0.30672732,-0.17748764,0.02713594,0.07209983,-0.035636574,
SwitchStatementCase,-0.060248684,0.47708517,-0.46637517,-0.49465066,-0.04806026,0.5465042,-0.2786314,-0.25324935,0.15529297,-0.08612408,0.1253452,-0.26127735,0.8905612,0.6707108,0.39947146,0.12701875,-0.69909674,-0.06418569,0.08159714,-0.7467391,0.07127793,0.41439658,0.1023356,0.5543833,0.192948,-0.47783852,0.12388042,0.25602496,0.15052688,0.70221806,
BreakStatement,-0.1407638,0.5163292,-0.32496688,-0.41023192,-0.52441454,0.3918719,-0.18610434,0.13211031,0.270173,0.048992995,0.08832794,-0.13772042,0.63380706,0.24566208,0.37296173,0.18414459,-0.68327016,-0.5805845,-0.15728545,-0.4668317,0.44734803,0.3911733,0.07133422,0.4853663,0.11298267,-0.4575107,0.007129636,0.030851869,-0.08505746,0.5789657,
CatchClause,-0.20648137,-0.45633513,0.12887348,-0.09034025,-0.072314836,0.11238002,-0.1535965,-0.4112557,0.20400496,0.26092583,-0.26187065,0.19486116,0.072245285,-0.2326419,-0.39139763,0.39820114,-0.1418086,-0.24864934,0.2032257,-0.514585,-0.070168175,0.6984388,0.33677465,1.1036338,0.37976027,0.19503894,-0.23281933,-0.51994896,0.098592885,0.41263583,
CatchClauseParameter,-0.33134824,0.014177441,0.11417801,0.17915662,0.17673282,-0.24239385,-0.47762346,-0.18536697,-0.23636554,-0.34231046,-0.5260331,-0.34525102,-0.21691501,-0.009885475,-0.44141826,0.14755133,-0.20506679,-0.005994413,0.23810504,-0.5133558,0.18495345,0.57314456,0.39781907,0.90454566,0.4613707,0.21925028,-0.22244394,-0.06793377,0.3429254,0.6552122,
ThrowStatement,-0.12684952,0.2107885,0.40914908,0.18288082,-0.16742127,0.41974202,-0.120631404,0.1272945,0.04977596,0.18026093,-0.59162384,-0.73030585,0.30500206,-0.21749048,-0.06417531,-0.042544827,-0.21538438,-0.15096882,0.351586,0.0013053517,-0.18302335,0.1914746,0.18950407,1.1120614,0.54364043,0.17976756,-0.2035215,0.06870179,0.18119818,0.13364458,
ClassDeclaration,0.19946104,0.041388717,0.2907585,0.18663141,0.1441451,0.6215533,-0.04273655,0.2024791,-0.4439162,0.1648253,-0.27764687,0.0069143726,-0.2803328,0.16907975,-0.22765304,-0.59304845,-0.14445786,0.112145975,-0.19756158,-0.3740785,0.4589714,0.17848083,-0.096566476,0.72711235,-0.86730707,0.4590453,-0.121772796,0.41747472,0.18328111,-0.19566105,
ForStatement,-0.6972081,0.22278321,-0.20168844,0.18304755,-0.24601953,0.29631495,-0.33534256,-0.5100976,-0.037200775,0.2444155,-0.1243219,-0.15619761,0.045489203,0.25753364,-0.17793913,0.2089034,0.12925906,-0.24479346,0.09362069,0.17353384,1.0055237,0.28686756,0.1870596,0.4607857,-0.23541151,-0.2519303,-0.12199332,-0.265015,-0.24472164,-0.46694413,
ForControl,-0.2255005,0.13049667,0.10652509,-0.20262636,-0.6723684,0.023068568,-0.21793714,-0.9055128,0.09047089,-0.2781119,-0.32478228,-0.55697703,0.054657273,0.089196876,0.12272152,-0.25944594,0.03383484,-0.011063483,-0.5547602,-0.4560687,0.72722596,-0.083694465,0.29791468,0.24568672,-0.0566663,-0.06859727,0.1141681,-0.087466724,0.113397345,-0.2811655,
TryStatement,-0.16035321,-0.17020634,0.09018295,0.038549256,-0.11433635,0.121042885,-0.30940807,-0.33041376,-0.081424184,-0.08831452,-0.31539425,0.028255193,-0.28026232,0.024535503,-0.3073509,0.17552046,-0.1179635,0.09054752,0.20046633,-0.7937921,0.12204052,0.33741447,0.41244024,0.8980969,0.35434687,0.19487303,-0.28672248,0.05842389,0.13578051,0.45470604,
ConstructorDeclaration,-0.24843757,-0.11024934,0.38424787,0.51810426,0.5265825,0.5175156,-0.116473965,0.1845623,-0.11756361,0.29119426,-0.13244098,-0.29259458,-0.027778625,-0.038928766,-0.11448244,-0.39216167,-0.17255816,-0.065069586,-0.5013807,-0.5149761,0.42884314,0.35970625,0.043421887,0.4035928,-0.7395492,0.2911177,0.104482174,0.57416767,-0.23415077,-0.19424729,
PackageDeclaration,-0.3999569,-0.32612014,0.24224672,0.7321115,0.36728492,0.5888462,-0.13092479,0.00273076,0.08267007,0.25372875,0.06460114,-0.05468672,-0.4639778,-0.2839088,-0.2974409,-0.61645323,-0.06377098,-0.3042011,-0.81256586,-0.5054782,0.31119722,0.4237738,0.043123484,0.7434093,-1.079497,0.4679671,-0.06730022,0.31081408,-0.22910252,-0.21064539,
SwitchStatement,0.033000905,0.096398935,-0.22734153,-0.19411986,-0.40380874,0.46935096,-0.20402573,-0.21401812,0.14365166,0.32012802,0.07378757,-0.28238994,0.37736505,0.32145974,-0.028719705,-0.07858207,-0.48908848,-0.40907982,0.058711033,-0.24168904,0.3887385,0.57578087,0.086913474,0.47263724,0.14995186,-0.63692516,0.13329616,-0.07542578,0.25794414,0.7198651,
WhileStatement,-0.069959,0.51002395,-0.32567945,-0.28129873,-0.3705787,0.1802581,-0.13112597,-0.38672733,-0.07750965,0.07103476,-0.0021964116,-0.2482388,0.13814786,-0.0057876697,-0.006557483,-0.27269664,-0.07034851,-0.37185177,0.18669267,-0.42435327,0.11881962,0.28385857,0.07491233,0.46604538,0.16623312,0.05474859,-0.041235797,-0.05932317,0.026654607,-0.21253489,
ContinueStatement,-0.30329868,0.44431412,-0.23999919,-0.1280984,-0.5615279,0.19685498,-0.13618682,-0.5210113,0.31091002,0.026674863,-0.113866635,-0.18488033,0.30537903,0.47840598,0.372975,0.31108394,-0.439244,-0.13929269,-0.45472047,-0.25883076,0.9520905,0.08748194,0.4156937,0.5772176,0.16260841,-0.64911294,0.033825815,-0.27399057,-0.12237367,0.011355176,
SuperMethodInvocation,0.05436458,0.10427369,0.09307774,-0.016707378,0.31620154,0.34696692,0.007813858,0.18384722,-0.008014101,0.1918435,0.14819033,-0.11779051,0.245341,0.18360773,0.19079994,-0.39167392,-0.18863118,-0.17214893,-0.27002355,-0.33219823,0.12954542,0.26004696,-0.29144475,0.7375233,-0.53076774,0.2127184,0.10943022,0.3259011,0.029500661,0.22377798,
SynchronizedStatement,-0.18180159,-0.027092485,0.13537623,0.12099399,-0.06512159,0.20350294,-0.15043965,-0.1726055,-0.032809123,0.13365193,-0.16499624,-0.36953315,-0.05691157,-0.101600245,-0.20577227,-0.27820215,-0.08056854,-0.11680893,-0.15673596,-0.34287095,0.3595294,0.35404992,0.10012796,0.41580012,-0.2381754,0.19914828,-0.116221406,0.089429095,0.03921249,-0.09221872,
InterfaceDeclaration,-0.16892892,-0.28893143,0.15758036,0.3454463,0.24609444,0.5026523,-0.22343914,-0.06288132,-0.16663586,0.23748398,-0.12735929,-0.28429663,-0.23876466,-0.04822994,-0.3689095,-0.67098534,-0.03913701,0.038783994,-0.2626883,-0.33536792,0.23063406,0.36845776,-0.068336,0.46639812,-0.91919816,0.45966282,-0.19339311,0.25120068,0.21556996,-0.077155836,
DoStatement,-0.17933655,0.15025517,-0.27149537,-0.14206497,-0.36257225,0.26352313,-0.2603684,-0.37294886,-0.002892695,0.032371603,-0.058697365,-0.27596506,0.09444088,0.040813003,-0.1356719,-0.1986415,-0.14618891,-0.19535096,0.05801828,-0.33024424,0.20622163,0.2866283,0.13601333,0.2913235,-0.11081235,-0.0029873976,-0.21403912,-0.09983441,0.17461683,0.032632425,
