name,vector_0,vector_1,vector_2,vector_3,vector_4,vector_5,vector_6,vector_7,vector_8,vector_9,vector_10,vector_11,vector_12,vector_13,vector_14,vector_15,vector_16,vector_17,vector_18,vector_19,vector_20,vector_21,vector_22,vector_23,vector_24,vector_25,vector_26,vector_27,vector_28,vector_29
MemberReference,-0.2980823,-0.09561641,0.36832312,0.2805914,0.35597125,-0.57275254,0.10305828,-0.32658193,0.05671382,-0.11123501,-0.09399758,-0.11077226,-0.10277998,-0.15878479,0.03940786,0.0016246143,-0.08121708,0.38460597,0.20959231,0.09707081,0.29619682,-0.22842725,-0.17085114,-0.25951383,0.049245946,0.33560136,-0.09788166,0.14811079,-1.0647874,0.2837213,
ReferenceType,0.05673477,-0.055805907,0.4721226,0.28990522,0.18268242,0.11405963,-0.8364736,0.37282112,0.01421144,0.15015212,-0.09021308,0.10302185,-0.6336704,0.023675373,0.19234228,0.17537047,0.19305322,0.35872757,0.11738391,0.1902389,0.15541805,-0.1246815,0.62594956,0.11128543,0.1695292,0.5008718,-0.4325513,0.3492663,-0.71077096,0.18230727,
StatementExpression,-0.35999057,-0.17648861,0.22404556,0.17789315,0.23422238,-0.4333429,0.18402402,-0.36509848,-0.25096843,-0.30640736,0.006954692,0.22864763,-0.25879344,-0.15312651,0.113890074,-0.2633379,-0.3053411,0.42826077,0.32106882,-0.013451719,0.37941873,-0.086947784,-0.3014756,-0.4019667,0.041644894,0.26900712,-0.016265301,0.1471504,-0.9696242,0.19096911,
IfStatement,-0.53224826,0.087388165,0.035234187,0.167462,0.75682247,-0.59321445,0.16882743,-0.61490524,-0.44854626,0.043351173,-0.2281845,0.04949461,-0.41064468,0.44620284,0.09368703,-0.46581364,-0.21099012,0.6796231,-0.017574094,-0.13272126,0.22341059,-0.04641241,-0.85503393,-0.59869426,0.097993664,0.22352286,0.09724251,0.1668215,-1.1474965,0.71745396,
VariableDeclarator,-0.63648534,-0.27368215,0.5995367,-0.2030756,0.1480277,-0.557388,-0.64219314,-0.34118783,0.038047675,-0.15062128,0.52732223,-0.000787086,-0.5330292,0.4596353,0.024611728,-0.3855853,-0.098037414,0.39353624,0.21518874,0.19613539,0.11326571,-0.1242912,-0.11010368,0.07863428,0.3799018,0.34410724,0.34587923,-0.024021119,-0.93868756,0.123658426,
BasicType,-0.47206172,-0.344785,0.37393793,0.54312444,0.1600177,-1.0341178,-0.5341175,-0.3160305,-0.2183122,0.09183999,0.79659194,-0.17678201,-0.7911473,0.3740272,-0.25406733,0.13809668,-0.31932518,0.06592697,-0.049141604,-0.09784392,0.2977837,-0.2668566,-0.11747535,0.18994474,0.1809545,0.45626763,0.5381696,0.279575,-0.5390258,0.32411802,
ReturnStatement,0.05918914,0.05556075,0.08321408,0.4481459,0.21575274,-0.48317578,-0.28153703,0.11956745,0.1164379,0.20684165,-0.095015734,-0.1751433,-0.11360376,0.059235595,0.13812786,-0.12601689,-0.2748057,-0.26462844,-0.051877484,-0.04335376,0.23815817,-0.3010435,-0.4241233,0.13501655,0.075582795,0.8320193,-0.022546165,0.33162755,-0.8354633,0.2727688,
BlockStatement,-0.44810778,0.05448219,0.17339881,-0.08932308,0.71447164,-0.3091759,-0.18147591,-0.38276696,-0.2672358,-0.20244537,-0.12490765,0.11150306,-0.37542188,0.28355992,0.10542275,-0.560511,-0.30232403,0.42343885,0.22528858,0.19499525,0.07064308,-0.13468471,-0.48714787,-0.49895447,0.12283264,0.30284947,-0.22162977,0.183791,-1.0777097,0.43076316,
SwitchStatementCase,-0.9626444,-0.4033216,-0.34036836,0.676484,0.9381679,-0.79836816,0.35573587,-0.4626356,-1.2675563,-0.050332822,0.29080966,0.6044347,-0.50737524,0.43530944,-0.057304725,0.07639372,-0.6721483,1.0166314,-0.124660134,-0.11392873,0.3716104,-0.6914492,-1.1439184,-0.6617855,0.47333112,0.6910777,0.28386867,0.57553595,-0.45261356,0.7242039,
BreakStatement,-1.2299572,-0.4801474,-0.14821836,0.671967,1.0493482,-0.7553891,0.57427245,-0.45102778,-1.4374259,-0.30132776,0.14636777,0.76678073,-0.414443,0.32369566,0.15450764,-0.061876956,-0.5781045,1.2031237,0.044644512,0.04347483,0.21532859,-0.59408194,-1.2381271,-0.8526013,0.49478334,0.6746447,0.08731923,0.5466138,-0.81886387,0.5144178,
ThrowStatement,-0.096350074,0.078921914,0.3003739,-0.04425119,0.4445543,0.07426326,-0.26030457,0.10920685,0.0073272143,-0.55575126,0.13332559,0.14871694,-0.73376787,0.29081213,0.4237888,-1.0005667,-0.12657282,0.9919071,0.31842107,0.22396153,0.008046204,-0.47442475,-0.71443033,-0.8975502,0.29599664,0.3444331,-0.55459195,-0.04693115,-0.919052,0.5569435,
CatchClause,0.1889981,0.1027296,0.13541907,-0.012402695,0.45194337,-0.018343844,-0.24682623,0.09719434,0.12633914,-0.49275953,0.415096,0.5546994,-0.35835135,0.41332403,0.44177,-0.7799208,-0.33996105,0.7767937,0.89163524,-0.008052863,0.45746017,-0.3773618,-0.40153515,-0.7763144,0.23172952,0.49809948,-0.45363787,0.095284544,-0.43312407,0.47806624,
TryStatement,-0.08183041,-0.038957212,0.34242553,-0.06368614,0.236656,-0.31464025,-0.27115127,-0.09880331,0.13244627,-0.4905286,0.6693059,0.28444526,-0.5715195,0.43272233,0.11993278,-0.6281887,-0.2919338,0.65338486,0.44340014,0.08691875,0.33322796,-0.51140606,-0.3470568,-0.3892306,0.20112255,0.39559138,-0.092902005,-0.04391403,-0.45670584,0.44684765,
append(),-1.111296,-0.31618974,0.20140111,-0.11818656,0.4386336,-0.32439053,0.14028491,-0.87984526,-1.1749355,-0.25865266,-0.5771995,0.9564282,0.271917,0.38213402,-0.033060502,-0.29310393,0.07659227,0.83480406,0.46679053,0.72318,0.23670864,0.5033791,0.026337542,-0.30069926,0.6624943,0.15986153,0.22548188,0.73122615,-1.1755291,0.45945397,
data,0.10710481,0.19316883,0.6354693,1.2138026,-0.12631026,-1.0784627,-0.6547526,0.25401393,0.32578528,0.84235966,-0.23433277,-0.07696198,-0.6374275,0.62292296,0.2520698,-0.05521904,0.88461596,0.98911506,0.30996978,0.3756022,0.21889919,-0.2045582,0.70143753,0.8983541,1.0232621,0.9944996,-0.38909498,0.9832964,-1.431193,-0.61308545,
e,0.27328533,0.13634299,0.35886005,0.09552582,0.45506608,-0.10322115,-0.19168404,0.13979214,0.27754617,-0.46889022,0.48583418,0.39521253,-0.29094765,0.37098625,0.404251,-0.7837593,-0.22671354,0.74511045,0.85471123,0.022572212,0.2794673,-0.5321942,-0.41756514,-0.6915132,0.24054468,0.584729,-0.3614896,0.06717408,-0.30272162,0.54063374,
SwitchStatement,-0.64026594,-0.28654316,-0.0557211,0.3758524,0.67411613,-0.6869506,-0.00417664,-0.3485479,-0.798892,-0.3714154,0.79638445,0.44947597,-0.6947495,0.6032721,-0.07141141,-0.24697101,-0.7621035,0.7321146,0.06856949,-0.075458296,0.23744883,-0.8090761,-1.0006839,-0.60008454,0.4098854,0.5732401,0.2957069,0.2700457,-0.35161614,0.6395913,
error(),0.10702703,0.015366735,0.51934004,0.08181269,0.7481862,-0.18463638,-0.28809044,0.091745965,0.25364608,-0.46746704,-0.13511361,0.30801684,-0.029021382,0.3356197,0.6502818,-0.85690874,0.053239964,0.8397669,0.9868244,0.083299205,0.045718055,0.08961586,-0.043699246,-0.7233711,0.281129,0.36707956,-0.7785572,0.36781526,-0.6872745,0.25908658,
context,0.079560034,-0.002568582,0.48099488,0.44678152,0.158749,-0.74755,-0.7851938,-0.055854123,0.4560842,0.31466687,-0.19021644,-0.13009141,-0.32920167,0.5331915,0.013814981,-0.36694795,0.20064326,0.50200635,0.43123457,0.17781593,0.035727277,0.37061605,0.6575882,0.18090862,0.27908754,0.5511709,-0.64290553,0.5976246,-0.9814747,-0.27473754,
node,0.19196263,0.25407198,0.63480264,1.2328365,0.1758289,-0.9516423,-0.6745437,0.54674405,0.3528251,0.757098,-0.44329956,-0.055682827,-0.5072899,0.5037281,0.51558584,-0.32000682,0.8459648,1.1606449,0.46825352,0.2591559,0.14312086,-0.26778674,0.47802317,0.82406396,0.97396654,1.0468885,-0.6956125,0.9937314,-1.5917145,-0.62240154,
ForStatement,-1.2710651,-0.06725239,0.89881295,-0.039711934,0.51218706,-0.77097243,-0.5143505,-0.6324023,-0.3768576,-0.028120937,0.13777456,0.04405749,-0.36773652,0.5577251,-0.13368434,-0.3681301,-0.020322436,0.43091297,0.29963946,0.43332565,0.16139232,0.18785395,0.12053788,0.0005538232,0.42768267,0.085167155,0.13505222,0.42230928,-1.012317,0.38226014,
ForControl,-1.3141886,0.09881565,0.80245775,0.04621249,0.32343233,-0.9816014,-0.7794117,-0.5937638,-0.49585676,-0.1785489,0.15464595,0.13470171,-0.33485508,0.5490264,-0.11255513,-0.50164044,0.0467712,0.39473194,0.24451181,0.4283647,0.017507669,0.20942846,0.107431605,-0.17310868,0.4230191,0.16320655,0.0359279,0.38781115,-1.0579021,0.28624293,
visit,0.3444356,0.28512466,0.4803408,1.5540996,0.22041017,-0.9304411,-0.51034164,0.6667391,0.25075635,0.90047276,-0.6215281,0.015358998,-0.54043794,0.42582923,0.5949554,-0.20443107,0.9463312,1.4004564,0.4307937,0.21026316,0.19983351,-0.43412784,0.39360633,0.898142,1.1367025,1.260148,-0.71912736,1.1947716,-1.6757821,-0.72066146,
jj_consume_token(),-0.8850799,-0.41584325,0.12203694,0.20077644,0.64894193,-0.5496605,0.06586832,-0.29072848,-0.71396786,-0.6730164,0.8588522,0.48161575,-1.044826,0.67828405,0.05101167,-0.34977803,-0.5673441,1.2513089,0.10554098,0.21929717,0.1502516,-0.9450029,-0.8088559,-1.0259326,0.5425743,0.4129499,0.039827906,0.113592006,-0.5354352,0.6467581,
toString(),-0.21246111,-0.07256363,0.2449846,-0.21860673,0.3195953,-0.051493898,-0.2016453,-0.5120382,-0.3087633,-0.28527585,-0.5639781,0.61987865,0.18638317,0.29694507,0.1732179,-0.5238973,0.12453604,0.39678025,0.8012314,0.53116375,0.20377836,0.4457409,0.36335358,-0.24607183,0.3376634,0.20506324,-0.17064638,0.53115416,-0.9534841,0.38078222,
key,0.38817504,0.3286325,-0.26348656,0.87212193,0.3967404,-0.18774483,-0.11930521,0.12889765,-0.078332335,0.6678096,-0.25742048,0.08077069,-0.22248262,0.08787959,0.17797342,0.16164856,-0.052976057,0.4517467,-0.5361103,-0.389905,0.30398032,0.5314823,-0.055438455,0.3233958,-0.14080437,1.120972,-0.03057597,1.0417167,-1.0491434,-0.30938414,
put(),-0.22586574,0.6090661,0.271084,0.4667644,0.6512934,-0.1842153,-0.4798183,0.040393464,0.03016291,0.06989009,-0.42825323,0.23157349,-0.11017935,0.4557837,0.24305779,-0.28696784,-0.14704853,0.7242192,-0.098496325,0.20065254,0.3257807,0.551739,0.18536791,-0.0016155301,-0.078967914,0.4800112,-0.48380136,0.61771154,-0.80333495,0.24841379,
message,0.6981546,-0.56443554,0.1367438,0.9583316,0.57136786,0.2563245,0.1104026,0.40241447,-0.35925558,-0.32152882,0.5178486,0.18234822,0.072026104,-0.3088513,0.6519441,-0.25223583,-0.07372149,0.92583853,0.7958307,-0.7019722,-0.39979902,-0.13495713,-0.48558572,-0.29320905,0.9782702,0.8922235,0.5207289,0.9402968,-0.045403924,-0.6028072,
jjtGetChild(),-0.3719889,0.0046681105,0.67117465,0.30661145,0.50838405,-1.0001115,-0.6874844,-0.24542768,0.4853499,0.10029228,-0.5479205,-0.13122517,-0.1432153,0.70409507,0.2595729,-0.86478126,0.25135404,0.62606484,0.8177805,0.49634382,-0.06087525,0.5163501,0.5123202,-0.28044865,0.3399059,0.2761571,-1.1115438,0.700289,-1.3408768,-0.06199531,
id,0.038995266,-0.16016275,0.20385866,0.99619883,-0.7862256,-0.72216135,-0.06993509,-0.2673478,0.0018376589,0.35460374,0.79379046,0.017040743,-0.97004354,0.23841132,-0.38979945,0.6095015,0.23506631,0.6028559,0.027534287,0.22364795,0.5102079,-0.4657479,0.54943144,0.3767652,0.7479107,0.81055516,0.75779986,0.66736376,-0.45390123,-0.19569488,
jjCheckNAddTwoStates(),-1.5894936,-0.50056076,0.019482994,0.6497254,1.2583838,-0.9610562,0.49805653,-0.5224476,-1.462413,-0.28610986,0.09408222,0.59083426,-0.54121286,0.36255404,0.1803102,-0.102496274,-0.58102936,1.2677145,-0.04889718,0.1313424,0.2443577,-0.6326565,-1.5344967,-1.0675083,0.44225925,0.64597195,-0.09383963,0.47785354,-1.1158144,0.730365,
get(),-0.4263547,0.3577528,0.31586978,0.16942346,0.47190577,-0.38830313,-0.558776,-0.117949605,-0.1645873,0.1627589,-0.3189501,0.16658202,-0.14299434,0.47449815,0.16357677,-0.36999834,0.0436325,0.45899725,-0.041649245,0.2282244,0.179437,0.5465595,0.07181177,0.097610205,0.053250484,0.33199513,-0.22160806,0.5907597,-1.0278016,0.22174269,
StringBuffer,-1.1531484,-0.28135645,0.33058462,-0.13683437,0.3856809,-0.53722876,-0.086684205,-0.7979116,-0.9900159,-0.27128184,-0.15255319,0.6379222,-0.056307033,0.36331376,-0.12544279,-0.2374263,-0.05093208,0.5769173,0.2231645,0.49555612,0.14251661,0.30471602,-0.012556907,-0.14028737,0.52735776,0.10632234,0.41566664,0.44867787,-1.0430211,0.33207047,
getLog(),0.30991042,-0.06432198,0.4231696,0.32137603,0.60302323,0.046485215,-0.24774554,0.22804318,0.08010705,-0.39016014,0.008084144,0.36022368,0.13858451,0.07181989,0.5459327,-0.6131859,0.04189178,0.7833754,0.94897574,-0.19724628,-0.12073913,0.2308489,-0.018569713,-0.47261542,0.40190575,0.53505963,-0.38931352,0.6539453,-0.40142086,-0.114462815,
debug(),-0.09662411,0.055473182,0.28470457,0.25476244,0.63017005,0.117435895,0.053918544,0.04539504,-0.3901122,-0.4786097,-0.009368828,0.36814156,0.035293467,-0.16069052,0.45215508,-0.40416253,-0.08406784,0.80198616,0.5065703,-0.23632148,-0.042303808,0.21450901,-0.18918893,-0.5811994,0.30676952,0.482826,-0.06096214,0.55021536,-0.4333677,0.10501753,
value,0.26314217,0.28211325,0.17429924,0.6735858,0.2848069,-0.48845932,-0.4928112,0.063943535,0.29940063,0.5160855,-0.32118276,-0.100671865,-0.24219605,0.37626234,0.10167402,-0.25223967,0.20269065,0.43866614,0.02257115,-0.0345896,0.22107005,0.46769765,0.3372115,0.29403394,0.09957219,0.69867885,-0.47280493,0.81979805,-1.0645299,-0.20159566,
WhileStatement,-0.7345903,-0.109987855,0.19607542,0.016253758,0.4436478,-0.5406294,-0.32489175,-0.4571755,-0.43323442,-0.26707295,0.30933508,0.1668668,-0.6470591,0.5600603,-0.054386996,-0.43132707,-0.44628054,0.4592359,-0.016059635,0.20506047,0.12605265,-0.2778146,-0.47849172,-0.38044304,0.30516568,0.21848343,0.14421926,0.17952578,-0.7703988,0.57755315,
jjCheckNAddStates(),-1.3767315,-0.48417398,-0.035306647,0.72529024,1.2042557,-0.7749435,0.6515582,-0.44572702,-1.4505163,-0.289377,-0.024685483,0.61965567,-0.5091972,0.19013746,0.22338416,-0.08384301,-0.5209552,1.3069522,0.0065720933,0.033880185,0.24489869,-0.6122372,-1.4430712,-1.1242859,0.39290756,0.7029589,-0.08096577,0.5291923,-1.0805422,0.68759847,
getClass(),0.12341871,0.085349,0.2727489,-0.17887984,0.24525128,0.26219448,-0.327698,-0.17161676,-0.035994947,-0.37760133,-0.18011154,0.49178776,-0.14832856,0.23125023,0.25525546,-0.57817584,-0.0015215424,0.5053581,0.7576934,0.29784343,0.26417035,0.22059932,0.3379427,-0.39048302,0.21019603,0.39038253,-0.21855338,0.35275066,-0.69779795,0.46339014,
name,0.26621482,0.09789064,-0.14932385,0.61081463,-0.13475104,0.079794794,-0.20790873,-0.09725211,-0.06988937,0.15534034,-0.46693996,0.37146124,-0.21657632,-0.027834287,0.061140966,-0.08450541,-0.019296251,0.50980425,0.13875331,-0.18410183,0.2005791,-0.057383016,0.2860123,0.30434415,0.38526693,0.80942744,0.16809538,0.48004314,-0.5986337,-0.16162187,
init,0.08272091,-0.00044256065,0.5160178,0.5236133,-0.081863634,-0.5370728,-0.4546671,0.12067588,0.2879045,0.25232556,0.18361391,0.04601776,-0.47272503,0.22702688,0.09810315,0.030788453,0.3328962,0.54949445,0.31303507,0.047592334,0.1965539,0.06696929,0.5968426,0.27943844,0.4009949,0.63794047,-0.09164914,0.5590363,-0.6740323,-0.29013708,
jj_ntk(),-0.95157653,-0.3999684,0.010014549,0.3457253,0.804417,-0.6028722,0.09438416,-0.40746275,-0.90439695,-0.6507348,0.69248134,0.529342,-0.8917922,0.57162404,0.044512827,-0.34116235,-0.81983984,1.0911576,0.107187,0.06562936,0.2903359,-0.8713945,-1.01376,-1.0456831,0.4613293,0.56940144,0.13276331,0.2776212,-0.5715612,0.7937627,
length(),-0.70725316,-0.031880636,0.41325715,-0.2073663,0.27469283,-0.28905186,-0.42153874,-0.4543028,-0.46292493,-0.33465526,-0.16817977,0.44714,-0.18098341,0.2943472,0.09482485,-0.49679005,0.026759071,0.46493995,0.46933514,0.522336,0.07753832,0.2488733,0.2123712,-0.3245794,0.31438425,0.049744625,-0.055778198,0.4344001,-0.94617814,0.44401112,
substring(),-0.7705893,-0.062138166,0.27471286,-0.15035152,0.20959637,-0.4884833,-0.5200367,-0.5769662,-0.39335427,-0.16812123,-0.43533754,0.2550916,-0.36614308,0.26290193,-0.012652567,-0.3836472,0.08447236,0.17748752,0.3242135,0.5874961,-0.023939464,0.28896415,0.39766824,-0.25295725,0.27062967,0.0697599,-0.033557273,0.6112816,-1.2025925,0.37605935,
getCurrentTemplateName(),0.2610418,-0.046593104,0.27700827,0.28584754,0.7290426,-0.33158174,0.034902584,0.0055065188,0.36985865,-0.20864417,-0.62064874,0.1901786,0.0010571348,0.24752554,0.61787486,-0.7871442,0.21035255,0.6847681,1.0473175,0.15336822,0.04352721,0.10450565,0.1501476,-0.7740034,0.24911875,0.49228746,-1.0138822,0.598198,-0.867386,0.22037975,
getName(),-0.24071181,0.17961785,0.4615228,-0.09532552,0.42496064,0.0016408995,-0.4242083,-0.14796866,-0.044646293,-0.3467396,-0.18588616,0.45442212,-0.123477384,0.35255593,0.30637577,-0.60934114,-0.004288282,0.69276416,0.57733226,0.3841456,0.21902138,0.29804283,0.19937572,-0.33420253,0.20048358,0.26246965,-0.34127602,0.30348226,-0.800528,0.3556986,
getLine(),0.33208868,-0.07840777,0.30127746,0.30511206,0.64292043,-0.25531012,0.12322173,-0.09115489,0.33251357,-0.27580884,-0.6687406,0.19763927,-0.02573996,0.21854624,0.5784604,-0.74932086,0.26024923,0.76588535,1.0846999,0.2136581,0.07365098,0.10583944,0.18912742,-0.76473427,0.28344777,0.503962,-0.9958755,0.5902783,-0.94383794,0.18175897,
getColumn(),0.356068,-0.047781035,0.26988456,0.3109119,0.64829314,-0.22994134,0.026808815,-0.05268748,0.3473206,-0.21889749,-0.6626553,0.17938162,-0.050384838,0.26229793,0.5750644,-0.7053317,0.21079624,0.6588139,1.0192899,0.10082881,0.060650874,0.09475851,0.24649845,-0.71812797,0.2832007,0.47575822,-0.946207,0.6448301,-0.81530476,0.14223333,
init(),0.28042394,0.06929083,0.5025653,0.39542177,0.007621239,-0.22267424,-0.24195018,0.26188445,0.3936953,-0.09382706,0.08590794,0.19738522,-0.3517668,0.09385502,0.31121662,-0.19433708,0.32189924,0.73442787,0.6543299,0.12554136,0.20927149,-0.05419899,0.6039162,-0.21059607,0.2726804,0.531442,-0.48403704,0.4315222,-0.49824145,-0.06271066,
jj_scan_token(),-0.7026678,-0.10867159,0.15041627,0.59511006,1.1082909,-1.1964748,-0.33649147,-0.20322405,-0.54157615,0.54118586,0.20648234,-0.16066886,-0.60860336,0.76428246,0.047266636,-0.12896183,-0.45308673,0.23089741,-0.3413292,-0.16559762,0.24155267,-0.48134583,-1.501551,-0.1232199,0.31541914,0.9311014,0.062446132,0.5050428,-0.851537,0.62258494,
jjCheckNAdd(),-1.2700752,-0.47336388,-0.07326149,0.6547532,1.0776265,-0.7581258,0.5580113,-0.42907146,-1.2997026,-0.26899335,0.10994979,0.5491866,-0.50400597,0.19854642,0.14741333,-0.07898549,-0.5870012,1.0963486,-0.033543453,-0.022013158,0.23619899,-0.6314866,-1.3756466,-0.99074286,0.35828054,0.66275567,0.0046425886,0.46826,-0.91968274,0.6528318,
log(),0.31238532,-0.3112352,0.1766884,0.68944967,0.311008,0.06030987,-0.12255915,0.23008704,-0.3087248,-0.15000056,0.35907564,0.12500648,-0.14561614,-0.070991114,0.31055322,-0.1399668,-0.055905286,0.58349895,0.5184357,-0.32157618,-0.13450277,-0.10420524,-0.16389193,-0.085701324,0.6798235,0.6095453,0.34881026,0.6853787,-0.1646926,-0.23906639,
p,0.16338164,-0.064746805,0.3479456,0.8803859,-0.6071501,-0.60356754,-0.22295214,-0.19638968,0.08287713,0.33950597,0.5811762,0.032384977,-0.83283556,0.21225125,-0.24445836,0.3718872,0.2902174,0.6222016,0.1865633,0.149994,0.4556221,-0.23419604,0.5397225,0.36141324,0.67596173,0.75900185,0.57448685,0.62826663,-0.63962847,-0.19338746,
jjAddStates(),-1.2845746,-0.50537825,0.017941974,0.54148495,1.0151162,-0.8638262,0.3230214,-0.50072396,-1.2269816,-0.27771708,0.32639176,0.48715407,-0.55680084,0.34917086,0.1049673,-0.0708455,-0.62872666,0.9938733,-0.023734504,-0.0029917979,0.25485107,-0.65337384,-1.3450727,-0.8409232,0.3792142,0.6582326,0.16511953,0.37040398,-0.92090064,0.65833074,
visitor,0.2042333,0.08188084,0.4090178,1.005009,-0.50509435,-0.84795487,-0.5261083,-0.119066805,0.33272028,0.5649009,0.302974,-0.14336754,-0.749437,0.39544487,-0.19661906,0.14841953,0.4704697,0.67695373,0.19247665,0.24434245,0.34723905,-0.105126396,0.6393001,0.6517978,0.7513372,0.8037692,0.24595672,0.7791282,-0.96533275,-0.37272587,
closeNodeScope(),-0.59996706,-0.08137654,0.31079224,-0.016053803,0.616704,-0.28825974,-0.24024692,-0.11363864,-0.36380658,-0.44541314,0.46595383,0.10223843,-1.0015768,0.48312873,0.17765228,-0.61152273,-0.3795882,0.9645117,0.04105849,0.22039658,0.10559685,-0.61630195,-0.78105986,-0.9388618,0.31936204,0.23998366,-0.26984218,-0.024683725,-0.7734785,0.71490514,
equals(),-0.4948443,0.12635396,0.26151127,-0.079707235,0.31256425,-0.22489055,-0.45093256,-0.471301,-0.3140119,-0.089545935,-0.5687869,0.20531927,-0.23269019,0.122241735,0.061673645,-0.40204358,0.10745845,0.23291977,0.2473142,0.42241704,0.0095403185,0.4880918,0.24951243,-0.19695207,0.189042,0.2589272,-5.3722084e-05,0.6484898,-1.2160938,0.39227992,
jjtAccept,0.18962462,0.031234689,0.3757359,1.0092198,-0.6082222,-0.73794955,-0.37526777,-0.13601612,0.23289424,0.5120757,0.42951742,-0.06439584,-0.80956745,0.32127765,-0.17792378,0.29656112,0.40354759,0.6152214,0.20580629,0.21754268,0.43907654,-0.222149,0.66606563,0.5811406,0.707802,0.85945636,0.37323135,0.75476533,-0.7795536,-0.32657066,
visit(),0.2679337,0.091820404,0.42705616,0.9319801,-0.2974066,-0.88922447,-0.6715038,-0.08187873,0.44188353,0.61580193,0.14312716,-0.19309545,-0.6518846,0.50426346,-0.106855676,-0.018046604,0.3982623,0.6192915,0.23647763,0.19071665,0.3097018,0.021280343,0.6440046,0.56881917,0.6055139,0.80986917,-0.013793344,0.7833184,-1.0425403,-0.33628434,
openNodeScope(),-0.6148068,-0.3056438,0.27300677,-0.0077499505,0.32167473,-0.42005372,-0.2816792,-0.20580111,-0.29962617,-0.4655658,0.89827335,0.26073828,-0.9528439,0.57404995,-0.03268683,-0.33117455,-0.43429846,0.75227845,0.14809173,0.1851571,0.22304007,-0.74691504,-0.4166831,-0.5890614,0.40058032,0.39124927,0.15402351,-0.017165009,-0.42343697,0.53163695,
childrenAccept(),0.27817103,0.20983934,0.42747462,1.190746,0.1099635,-0.741985,-0.46134502,0.44291714,0.2883069,0.683236,-0.3768441,0.005050607,-0.43144625,0.33619875,0.4017177,-0.08562661,0.69003177,0.99784654,0.37162128,0.18841343,0.20933878,-0.17133334,0.50323105,0.61972845,0.7880459,0.988947,-0.5668067,0.9612476,-1.2353036,-0.54601425,
readChar(),-0.07969818,-0.11731188,0.014702796,0.36411408,0.56399924,-0.42354253,-0.061606057,-0.036126748,-0.18180425,-0.30226976,0.9187495,0.36375412,-0.58325773,0.49896416,0.08420021,-0.32531095,-0.63027894,0.60272,0.40520442,-0.20531803,0.4274203,-0.9715144,-0.98495364,-0.6831484,0.30519548,0.78415924,0.04610573,0.07534683,-0.051703393,0.65624464,
log,0.31501144,-0.34718308,0.03539353,0.5899976,0.22861159,0.057885453,-0.0300974,0.08404241,-0.30591878,-0.07542136,0.23656149,0.16385895,-0.19783603,-0.15171985,0.17126636,-0.00661374,-0.15881836,0.4407247,0.31427637,-0.35729295,-0.01754096,-0.14542471,-0.07819014,-0.006496277,0.4876076,0.67735213,0.42223954,0.57440287,-0.24226393,-0.14700072,
level,0.29248735,-0.376814,-0.06495121,0.6880745,0.34013584,0.036947314,0.037709694,0.038922902,-0.47213247,-0.090002395,0.40212408,0.18601221,-0.18960758,-0.08493905,0.14364174,0.011760157,-0.27823266,0.4517803,0.2842548,-0.47082707,-0.028293103,-0.29965106,-0.42396456,-0.048709836,0.56733155,0.75534564,0.6262355,0.6235064,-0.17929326,-0.087685645,
write(),0.043171838,-0.2176663,0.10085542,0.41917267,0.37147954,-0.12663788,0.053668544,-0.25560245,-0.29151538,-0.15852089,-0.5768291,0.18425928,-0.24961756,0.10572113,-0.0059958748,-0.2554906,-0.10825996,0.36212635,0.35475147,0.22378737,-0.022190157,-0.053591065,0.15339723,-0.24312703,0.22185662,0.4261086,-0.45118284,0.4631597,-0.6714766,0.028229833,
showNode(),0.581524,0.21667711,0.3993513,1.2593461,0.08717376,-0.6316012,-0.5809328,0.3706434,0.35556725,0.6766602,-0.4352858,0.00837397,-0.5165737,0.35145515,0.40288082,-0.24593647,0.62137467,1.0299284,0.44979596,0.04038315,0.24825288,-0.15780956,0.53772104,0.70129746,0.84897023,1.2240437,-0.41918924,1.102995,-1.4853436,-0.5387417,
add(),-0.4964401,0.068416856,0.43679217,0.09076467,0.22133534,-0.4361545,-0.45940784,-0.31798682,-0.2037289,0.044851013,-0.101533644,0.020318024,-0.273074,0.28297433,-0.01717958,-0.22855076,0.10150204,0.28632635,0.10967781,0.2666746,0.06857389,0.16714007,0.34312165,0.10501394,0.27626997,0.32060593,0.12409672,0.4020944,-0.8872761,0.18496019,
o,0.32587564,0.072690055,0.12907948,0.33459765,0.18144844,-0.119432025,-0.29363978,-0.022376187,0.19769676,0.07916381,-0.008014823,0.087925754,-0.27562955,0.22204979,0.08844181,-0.25192705,-0.0718008,0.28396708,0.2767464,-0.067386776,0.21511306,0.03170866,0.14389372,-0.0047688554,0.102796935,0.6044732,-0.11844229,0.43780503,-0.5684387,0.0997093,
getString(),-0.010881794,0.09738282,0.27746066,0.35970408,0.20044093,-0.31702408,-0.35179743,0.057823986,0.07036541,0.09292046,0.026499944,0.21835032,-0.26865312,0.23738392,0.13989747,-0.16794138,0.0976146,0.48255295,0.26572755,0.0041981046,0.24859244,0.108659774,0.26007658,0.052519433,0.1766708,0.52375746,-0.19333257,0.488273,-0.6194822,-0.05051727,
active0,0.024666747,-0.16644615,-0.10364388,0.4410916,0.4417634,-0.527023,-0.1495585,-0.17599842,-0.24747714,-0.06867257,0.9286457,0.21625741,-0.6505778,0.44844666,-0.07828781,-0.175951,-0.74152887,0.30804107,0.17203103,-0.38557085,0.42834434,-0.96009934,-1.0053155,-0.353129,0.2663123,0.92689306,0.41147295,0.15034492,-0.15193756,0.5977013,
info(),-0.03582809,-0.17589015,0.23839788,0.28748012,0.5072429,0.11336801,0.05374331,-0.057007343,-0.35889655,-0.4224507,-0.0945157,0.34290162,0.047952738,-0.12885363,0.37112164,-0.34340313,-0.06485546,0.7026516,0.567751,-0.12653264,-0.07903,0.12148797,-0.066437334,-0.51203656,0.3579463,0.4685616,-0.01778002,0.5751547,-0.48955345,0.051587332,
writer,0.03834141,-0.015907308,0.41517434,0.41014355,0.16890916,-0.49233872,-0.49789116,-0.08523703,0.23861521,0.14183079,-0.24467385,-0.07663581,-0.30913,0.31536528,0.019134153,-0.34214154,0.14466764,0.35932195,0.38627058,0.1609082,0.033276003,0.18685816,0.43021676,0.14780018,0.30653572,0.4316207,-0.4043401,0.48921746,-0.80278134,-0.17949967,
value(),-0.20802596,0.09040514,0.55500364,0.35299537,0.4267567,-0.74329895,-0.60653883,-0.030210909,0.3885148,0.07459817,-0.36987132,-0.08704901,-0.18325825,0.52344507,0.29861474,-0.7296294,0.17817308,0.6320309,0.625227,0.3217358,-0.02568685,0.36534965,0.33674318,-0.24640381,0.26997605,0.2971966,-0.9331252,0.55315244,-1.1346123,-0.034476858,
jjStopAtPos(),0.03911956,-0.37210375,-0.5503522,0.6563272,0.62496823,-0.3115808,0.33488172,-0.22105817,-0.6748223,-0.1442273,0.4824674,0.45117724,-0.45118997,0.11164334,-0.039622262,0.038074292,-0.81574845,0.5294891,-0.017081128,-0.48326048,0.32636073,-0.93285745,-1.1042354,-0.48402596,0.22286941,1.0774211,0.5428739,0.37891507,-0.36283642,0.5922579,
info,0.5870749,-0.17825064,0.13151078,0.630613,0.15816717,0.07224555,-0.12478291,0.1656277,0.070403256,-0.0010654164,-0.020293074,0.13841794,-0.13268769,-0.055243194,0.25289768,-0.1935809,0.15433684,0.57561916,0.5293178,-0.28366935,-0.060994934,0.01756599,0.23494714,0.031135324,0.5420505,0.69671786,0.05773864,0.6780081,-0.4268608,-0.35277742,
rs,0.07576054,-0.07074817,0.39930296,0.35241893,0.10273526,-0.33224016,-0.42487198,0.062799916,0.15342551,0.08166581,0.14344892,0.051671363,-0.3375903,0.22054079,0.13283265,-0.1499514,0.10841507,0.40521303,0.33366576,-0.028883554,0.07964586,-0.03139477,0.27481976,0.17104624,0.35975704,0.50930035,-0.01884105,0.40377983,-0.5536088,-0.12674414,
t,0.21916522,-0.27503726,0.087227345,0.6589624,0.3421871,-0.03502249,-0.031628,0.13488036,-0.32374397,-0.06750624,0.25421557,0.14251024,-0.1475812,-0.045796465,0.2923182,-0.13087687,-0.07680278,0.59818584,0.41014388,-0.32601306,-0.13372627,-0.12355953,-0.29675856,-0.10136774,0.604564,0.6137435,0.30205232,0.6400152,-0.28041205,-0.22462498,
popNode(),-0.5926084,0.10808377,0.32974994,0.08924633,0.83974034,-0.24252285,-0.16040923,-0.06618985,-0.41792393,-0.4039005,-0.086618155,0.18975243,-0.68789554,0.39718553,0.34997922,-0.8578765,-0.23271826,0.9663289,0.20079394,0.26383215,0.04040423,-0.36133695,-0.8917958,-1.027236,0.29918414,0.29616037,-0.57379496,0.20056061,-1.0477114,0.7805293,
clearNodeScope(),-0.5343642,0.03922043,0.25955272,0.118067145,0.80507994,-0.20793788,-0.063698806,-0.105491154,-0.40448284,-0.46870604,0.08200563,0.2351693,-0.7112664,0.4205384,0.29945698,-0.75245786,-0.33594376,0.9807246,0.25092202,0.2131755,0.10329434,-0.47195205,-0.86573523,-1.0615139,0.2663135,0.36067185,-0.49871588,0.15510438,-0.823758,0.8108013,
DoStatement,-1.2225497,-0.36744478,0.21577121,0.25250506,0.67355865,-0.78652024,-0.09137843,-0.5328554,-0.89091045,-0.2845107,0.4333093,0.2596855,-0.54522324,0.41249797,-0.034397863,-0.20251764,-0.55958426,0.5791532,-0.051573284,0.089923255,0.18599111,-0.37462378,-0.8422694,-0.54252917,0.2788214,0.35145736,0.2585682,0.24901442,-0.77924174,0.58308786,
warn(),0.14949006,-0.19848855,0.10983667,0.2984896,0.42532548,0.14774674,-0.0293488,0.014673212,-0.28337434,-0.36165002,0.07366619,0.33839905,-0.08167844,-0.065320976,0.3152145,-0.2912999,-0.13924377,0.6001254,0.5194044,-0.17605618,-0.046449833,-0.016556354,-0.13338901,-0.4142854,0.38247564,0.46723107,0.08689007,0.4768861,-0.30736786,0.07425038,
pos,-0.026139192,-0.086224206,0.030984443,0.4325957,0.34025273,-0.5275241,-0.2005004,-0.16227648,-0.1671581,0.011176904,0.80623597,0.06713302,-0.58324444,0.47304922,-0.11598335,-0.13243878,-0.5737875,0.22299325,0.086782485,-0.2781755,0.38750327,-0.7516325,-0.82420343,-0.16684328,0.31074178,0.76776236,0.40497208,0.17582645,-0.19567464,0.44986436,
templateName,0.4035571,-0.015296019,0.07575912,0.4940148,-0.020378537,-0.1296774,-0.29632077,-0.0031626918,0.12757063,0.16772436,-0.04899645,0.1364984,-0.37611553,0.09140588,0.058256898,-0.105935626,0.06565192,0.38362807,0.23813389,-0.16064548,0.20298639,-0.10976111,0.27368078,0.23109607,0.31248057,0.761049,0.08876063,0.48282844,-0.5702486,-0.10940613,
iterator(),-0.7229194,0.13521047,0.6806168,-0.0039186827,0.29724118,-0.5950027,-0.7650694,-0.49344236,-0.16212487,0.055317312,0.07603443,0.010930054,-0.42085698,0.47427613,-0.110803485,-0.35999355,0.044355787,0.17031579,0.14872469,0.2969014,0.09588952,0.20626174,0.2791267,0.17155075,0.30689818,0.29570872,0.19513911,0.4249443,-1.0550436,0.31924808,
hasNext(),-0.80751675,0.089414395,0.69700307,-0.023910455,0.30796316,-0.5402354,-0.6765343,-0.4428803,-0.23654126,-0.110899776,0.07001901,0.06741144,-0.40492436,0.4506129,-0.03375987,-0.37633526,0.02161445,0.32318884,0.19093223,0.37177348,0.12143487,0.22762573,0.26937115,0.004775263,0.3160193,0.24545807,0.091551095,0.38535792,-1.0415498,0.35923246,
next(),-0.75141317,0.1204368,0.647742,-0.072479814,0.31525612,-0.4416599,-0.6373026,-0.40022448,-0.20421247,-0.12825489,0.059045967,0.10612412,-0.4047168,0.4014709,-0.012266285,-0.4414595,0.025064945,0.33479285,0.2529394,0.3512407,0.085047424,0.17138119,0.2166689,-0.1235753,0.2616716,0.18663755,-0.00010212712,0.313671,-0.93281484,0.3589015,
encoding,0.18890266,0.042251434,0.04353528,0.47305134,-0.02267257,-0.032399494,-0.23948704,-0.020716885,-0.015711833,0.079613976,-0.24177982,0.19857483,-0.24738711,0.044452112,0.09299763,-0.14949718,0.0712027,0.46545997,0.21027395,-0.05554715,0.14095211,-0.034649227,0.2568748,0.1322955,0.33886102,0.6452454,-0.005270429,0.47257352,-0.6223131,-0.0657447,
GetSuffix(),-1.1728616,-0.37395695,0.08782566,0.17677131,0.6628846,-0.5083214,0.24870975,-0.7178863,-1.2499214,-0.303335,-0.18274468,0.78442115,-0.17890468,0.2503089,-0.05504887,-0.13445885,-0.316059,0.7589198,0.18506446,0.34178737,0.24380745,0.017527025,-0.4336305,-0.5712358,0.44523975,0.33500165,0.20858695,0.5870449,-0.95349216,0.56596243,
getFirstToken(),-0.19180298,0.01542525,0.39110065,0.14902449,0.15279607,-0.3976608,-0.39481255,-0.23257613,0.07307884,-0.04136666,-0.35910228,0.15999615,-0.17476086,0.29456338,0.12906353,-0.43591267,0.21330957,0.40877452,0.52333003,0.3477772,0.07415331,0.32622954,0.547529,-0.094460726,0.28747484,0.24662268,-0.36685187,0.5227396,-0.95848715,0.04486824,
ContinueStatement,-0.87036866,-0.35759705,-0.02330065,-0.009998463,0.36837107,-0.17120565,0.1530686,-0.8402184,-1.1419926,-0.4342883,-0.17940703,0.82995874,-0.05734647,0.17600833,-0.13656858,-0.12547868,-0.29109055,0.5788083,0.36231175,0.432218,0.24951473,0.13064851,-0.07770269,-0.5017128,0.44455853,0.35746992,0.48118144,0.6224643,-0.9246391,0.6272872,
close(),0.06775395,0.0118491305,0.22299676,0.10606578,0.32433367,-0.026262525,-0.21303837,0.010840858,0.03738364,-0.3610151,0.21863738,0.320763,-0.35883462,0.20247929,0.21658003,-0.5081019,-0.16537601,0.55889463,0.5458217,0.020676482,0.21838826,-0.2626113,-0.10723256,-0.5408041,0.1746057,0.40810174,-0.21615766,0.22083208,-0.39758536,0.3795278,
ResourceNotFoundException,-0.0473712,0.048206527,0.32108068,0.056673013,0.32889873,-0.042554032,-0.36782044,-0.031082379,-0.014570945,-0.24035181,0.045315918,0.14501765,-0.37989753,0.20077345,0.21613894,-0.49496466,-0.05323395,0.53227115,0.4043034,0.08011896,0.093092084,-0.061215173,-0.060907293,-0.39023882,0.20250252,0.32184005,-0.21335097,0.22639628,-0.6507666,0.35081476,
getProperty(),-0.1288002,0.029587878,0.25137377,0.29301292,0.17202348,-0.31657362,-0.35674146,-0.11595472,-0.072248586,0.090418026,-0.06529917,0.112268984,-0.28851897,0.22903399,0.069710165,-0.11951355,0.0596402,0.34092566,0.13936418,0.089930415,0.11467108,0.1353294,0.20070478,0.09528464,0.20196718,0.43223983,0.0009786765,0.44407672,-0.71079755,0.036548402,
evaluate(),0.14201872,0.051113766,0.26285285,0.3095865,0.23195104,-0.37557772,-0.41561818,-0.09741605,0.22597416,0.12600969,-0.31793135,0.047864456,-0.16091618,0.3101184,0.11825087,-0.425516,0.14510909,0.4127764,0.4354713,0.11731646,0.09447697,0.25213987,0.39927545,0.031647734,0.2263933,0.44067505,-0.43209508,0.54872024,-0.8746195,-0.020683384,
isDebugEnabled(),-0.15751082,0.015905643,0.16158982,0.24030381,0.4389241,-0.06378452,-0.039566826,-0.073832825,-0.26922795,-0.27524292,-0.021422358,0.27717432,-0.20072272,0.018539172,0.25317413,-0.3407288,-0.15187605,0.5799081,0.32557872,-0.027288,0.06754269,-0.047181807,-0.18111536,-0.42185685,0.20278223,0.4211141,-0.08295423,0.4010972,-0.50601876,0.25606534,
clazz,0.117610745,-0.09795235,0.097620025,0.29972517,0.074301295,-0.109657824,-0.16460451,-0.1060775,-0.14754182,-0.01378672,0.0032599159,0.18921721,-0.2690021,0.04873163,0.028539106,-0.103349805,-0.008599496,0.35784557,0.25521058,-0.036898233,0.15627255,-0.078350164,0.24830304,0.08338958,0.29788694,0.48559865,0.15343097,0.41105184,-0.46485877,-0.028008481,
execute,0.24138895,0.07077173,0.24698943,0.27311796,0.21563737,-0.10361263,-0.28042936,0.07340613,0.21439156,-0.068925306,-0.022652932,0.11424803,-0.25558123,0.20090479,0.22695497,-0.3821898,0.018944796,0.48163542,0.42637655,0.02511755,0.11810217,-0.027680473,0.16012248,-0.1699244,0.19201984,0.44791204,-0.31686893,0.31449926,-0.5443538,0.078788415,
evaluate,0.31595817,0.07498777,0.3832315,0.6013601,-0.088936366,-0.5276455,-0.62148416,-0.06299955,0.4442152,0.3539356,-0.10709494,-0.13684921,-0.40023288,0.33116123,-0.029244756,-0.23948725,0.2661917,0.39776284,0.34347588,0.13099743,0.15766484,0.20537521,0.64131385,0.39255154,0.39058423,0.61292905,-0.24692559,0.6364352,-0.90563655,-0.25700012,
literal(),0.013308173,-0.004922889,0.3786521,0.17119214,0.49237937,-0.31206796,-0.23638801,-0.1169413,0.25691724,-0.21019545,-0.5491556,0.13052908,-0.066898845,0.24040213,0.3662289,-0.68882424,0.15082957,0.5193571,0.8096725,0.25993183,0.0069253948,0.2546381,0.33178884,-0.5004463,0.20591345,0.331185,-0.75869185,0.5629366,-0.9739896,0.1399631,
ParseException,-0.49582183,-0.28801748,0.05431903,0.14338644,0.5954195,-0.22440252,0.072066955,-0.28603685,-0.5965847,-0.5145822,0.37021044,0.38986462,-0.5953533,0.24760543,0.09575237,-0.32182986,-0.5005442,0.80618054,0.2111197,0.0508622,0.16319843,-0.5134671,-0.5680284,-0.8264469,0.30386943,0.41078606,0.044258766,0.23018458,-0.5955841,0.58499026,
HashMap,-0.18365353,-0.00831268,0.3596943,0.21233988,0.14419311,-0.3274813,-0.45155743,-0.14310075,-0.01207902,0.04161677,0.055070896,0.08314487,-0.32347292,0.25471848,0.050713446,-0.17829487,0.022373514,0.36705,0.1663066,0.07087201,0.10895181,0.10600122,0.27456772,0.14250216,0.25030813,0.42212301,0.08391813,0.38146672,-0.7001057,0.013851448,
getTemplate(),0.087454,0.061081763,0.11488951,0.37410387,0.15416849,-0.114407405,-0.34273094,-0.023630783,0.040281452,-0.0013087395,-0.19244699,0.20918472,-0.23168106,0.14206123,0.1517283,-0.23966058,-0.05698585,0.41909578,0.27846977,-0.029784966,0.18668894,0.0040256456,0.17969866,0.024786325,0.2289441,0.58912283,-0.12807792,0.4199025,-0.59098136,0.059813578,
println(),-0.22238877,0.01787495,0.16226809,0.15833086,0.27513498,-0.11265765,-0.110938504,-0.15912351,-0.30548504,-0.21154988,-0.0637106,0.37883863,-0.16120511,0.18891549,0.1300694,-0.34101185,-0.046346392,0.52224314,0.39070055,0.19671738,0.20416367,0.0027881828,0.03803813,-0.296593,0.24809183,0.26421183,-0.13285078,0.38117453,-0.56896394,0.25961056,
getMessage(),-0.37001044,-0.08812669,0.26450723,0.0072357156,0.3112256,-0.06180333,-0.11518656,-0.33845347,-0.45385912,-0.29467022,-0.15613769,0.4323478,-0.12441982,0.18414567,0.0873148,-0.3638267,-0.059156954,0.52759856,0.44149414,0.27210855,0.1378114,0.1466867,0.0942367,-0.36285463,0.27916265,0.21610433,-0.021290433,0.3949118,-0.6404019,0.3969389,
charAt(),-0.7304831,-0.11965719,0.2767597,-0.06785586,0.26144224,-0.35268548,-0.28386226,-0.5430212,-0.56255895,-0.23025751,-0.10115035,0.3770393,-0.20576674,0.2611498,-0.09511946,-0.26856104,-0.120474175,0.35012656,0.25546944,0.36450487,0.16726576,0.17630754,0.11531341,-0.18832374,0.31053576,0.16379265,0.19008069,0.42866993,-0.827358,0.41791686,
getMethod(),0.12182055,0.03105556,0.19034941,0.040648706,0.1854609,0.022084108,-0.2284748,-0.10764973,0.013721098,-0.24281552,-0.09404524,0.30812737,-0.18822622,0.15858045,0.18313204,-0.44409156,-0.044333123,0.41267443,0.5280119,0.14185278,0.17338423,0.02210637,0.1637272,-0.26625314,0.17304295,0.36802384,-0.13780746,0.29331836,-0.58998805,0.32082504,
size(),-0.7003645,0.017988449,0.5355217,0.00245181,0.32253888,-0.51644266,-0.48018974,-0.4397411,-0.3145667,-0.14321475,0.027794871,0.15334141,-0.29196241,0.37493813,-0.029337237,-0.3127443,-0.026764294,0.33390132,0.24426754,0.28646815,0.10092731,0.23093039,0.15893123,-0.04667017,0.2907267,0.20463538,0.11763247,0.40538788,-0.85393167,0.27309215,
c,-0.031314537,-0.020564219,0.09482393,0.35930505,0.17528057,-0.23445131,-0.13672215,-0.09906592,-0.115393244,0.055065505,0.035300232,0.08856145,-0.26381665,0.15007068,0.03246202,-0.09142054,-0.09241012,0.32561234,0.11789923,-0.0011952275,0.16505703,-0.08421786,-0.017357063,-0.034534674,0.22078073,0.5115197,0.085666016,0.40342247,-0.48422936,0.13573073,
indexOf(),-0.29868,-0.03491185,0.2569454,0.10507518,0.09638291,-0.33290896,-0.41587442,-0.29978815,-0.16095701,-0.021204911,-0.16394281,0.16049561,-0.29101828,0.26926208,0.003982217,-0.26536444,0.051010836,0.2375028,0.25389656,0.27272606,0.08097533,0.18766002,0.312167,0.0003204636,0.27418223,0.28890273,0.033241875,0.45921275,-0.8532058,0.18420312,
ArrayList,-0.3553254,-0.10418565,0.38402173,0.14628594,0.060627036,-0.47137952,-0.5833842,-0.21231061,-0.059293333,0.09721392,0.14901736,0.015190741,-0.41815022,0.33925563,-0.057648443,-0.08180453,0.031334423,0.25296435,0.09249841,0.14594732,0.12109964,0.08026597,0.33188397,0.2826101,0.28156844,0.36032072,0.14683676,0.3117012,-0.6939368,0.009292155,
getBoolean(),0.018983245,-0.029939763,0.2502431,0.2467838,0.30003232,-0.15776193,-0.17049375,-0.09613121,-0.07386997,-0.111284375,-0.071304694,0.18475658,-0.19651642,0.095521316,0.1745589,-0.24430579,0.010877034,0.4556516,0.37143046,0.031509675,0.10187472,0.070350885,0.14718829,-0.22594751,0.2281695,0.4715391,-0.12610812,0.45834985,-0.58935845,0.095963836,
render,0.21746336,-0.014761208,0.3787814,0.48527306,0.032741114,-0.43748245,-0.4576024,-0.100340076,0.2945153,0.19255471,-0.20617126,-0.020675234,-0.30999953,0.2676388,0.02425113,-0.18375242,0.22122169,0.35218698,0.42025408,0.114330195,0.11348343,0.16372111,0.6383194,0.23409949,0.32238132,0.5436785,-0.25736535,0.60348,-0.8386336,-0.15018314,
stateStackPop(),-0.917624,-0.28612483,0.09192386,0.13750733,0.58511156,-0.42327002,0.15481146,-0.621478,-1.0094641,-0.2943545,-0.13100608,0.60869235,-0.193529,0.20802234,-0.05562553,-0.14553349,-0.3199136,0.6225907,0.14114107,0.23717166,0.21698643,-0.010018351,-0.38381526,-0.48714224,0.35891414,0.31513804,0.2415513,0.47903642,-0.8410544,0.50239474,
remove(),-0.026402367,0.12345283,0.15608102,0.36596933,0.24405584,-0.30617025,-0.25622913,-0.048601463,-0.027192935,0.17301871,-0.07464215,0.03415476,-0.2886263,0.21086764,0.07687096,-0.15980545,-0.049511347,0.32561162,0.071448654,0.039998077,0.16448908,-0.027456397,-0.056535505,0.0068790927,0.15507877,0.51567143,-0.111046284,0.4540659,-0.6257622,0.14599286,
NodeList,0.14529957,-0.050574467,0.043273754,0.44004527,0.012056109,-0.17181684,-0.17297843,-0.07328854,-0.027686954,0.08810017,-0.03255564,0.11895847,-0.26466796,0.085962735,0.009058152,-0.014509217,0.008938074,0.34533203,0.20137207,-0.07312462,0.14254539,-0.073568724,0.18030952,0.11455025,0.28513858,0.5514218,0.0993599,0.4465577,-0.46907347,-0.04492524,
BuildException,0.019933643,0.14382467,0.27448878,0.08979081,0.4079431,0.025093464,-0.29055443,0.0042269453,-0.013135614,-0.31733993,0.03516673,0.20554921,-0.40026498,0.17293307,0.26929626,-0.57230127,-0.14088672,0.5650352,0.44615167,0.08277388,0.12132392,-0.13616006,-0.14361311,-0.56278294,0.1431037,0.33978018,-0.3572881,0.19838618,-0.59228665,0.44453305,
startsWith(),-0.35239103,0.009631043,0.21688917,0.06835963,0.30967477,-0.29757968,-0.32549775,-0.23970255,-0.24387692,-0.123611026,-0.21009342,0.20222086,-0.25967562,0.21505077,0.100226074,-0.30369905,-0.003319616,0.3317022,0.2691697,0.25680056,0.059428766,0.09305116,0.10446075,-0.23208022,0.20679063,0.2510056,-0.14760312,0.42502534,-0.77522594,0.28222075,
trace(),-0.14152297,-0.036306545,0.21478339,0.20282422,0.3052408,-0.11075561,-0.14831005,-0.14718826,-0.20624955,-0.21434285,-0.06263195,0.25476444,-0.18758443,0.033300687,0.16889264,-0.24390392,-0.057281762,0.5258172,0.31626192,-0.0020966353,0.10620799,0.07453931,0.05386683,-0.22260655,0.22435093,0.41969484,0.0051573296,0.41210806,-0.6031146,0.13878673,
ParseErrorException,0.26025233,-0.0138770025,0.18406463,0.15068339,0.2921186,0.1164117,-0.14036827,0.06029932,0.06323586,-0.29243416,0.030615637,0.2215914,-0.35969058,0.06662795,0.2778078,-0.48770404,-0.033836663,0.6318097,0.487865,0.014502639,0.12263823,-0.2282564,-0.0836645,-0.5310282,0.21526936,0.4544098,-0.31300178,0.2512185,-0.48368576,0.32224867,
rsvc,0.10905261,-0.04964004,0.21305835,0.28884226,0.13257052,-0.17150906,-0.27450278,0.0043659103,0.03296158,-0.03255934,0.05962276,0.12056777,-0.2917109,0.1562763,0.109477155,-0.22481182,0.02409506,0.4185622,0.29614085,-0.013062145,0.09637553,-0.035095964,0.14985515,-0.033944417,0.27324998,0.45749304,-0.083806865,0.3446213,-0.5270649,-0.017802201,
jjtGetNumChildren(),-0.3113758,0.032624137,0.4115227,0.15419178,0.23769015,-0.49127802,-0.4764688,-0.19829181,-2.5184941e-05,0.05423088,-0.13653894,0.0316922,-0.218117,0.32825187,0.02387136,-0.30459684,0.08829181,0.33616838,0.26803097,0.2129123,0.08043848,0.21686204,0.27091563,0.025919838,0.25454262,0.26573533,-0.17992051,0.41679674,-0.8130341,0.073870115,
SwitchTo(),-0.8379213,-0.29158363,0.07283696,0.17122841,0.5410267,-0.36214992,0.15741566,-0.5486543,-0.9050889,-0.27173722,-0.090584055,0.5606613,-0.18895213,0.18422732,-0.028439812,-0.099102445,-0.28355476,0.61341447,0.15765646,0.25121143,0.2280665,-0.037543636,-0.34423366,-0.48183912,0.29860976,0.3255552,0.16135414,0.45696044,-0.72333163,0.47320074,
toBigInteger(),-0.120379925,-0.28027803,-0.14409703,0.39277244,0.24428865,-0.30360162,-0.043460578,-0.23883565,-0.43274373,-0.0033011013,0.32231417,0.17164758,-0.40088603,0.14850554,-0.11092375,0.061080135,-0.45478496,0.2111152,0.007635359,-0.16767849,0.24368711,-0.43942255,-0.36239433,-0.08524733,0.23776294,0.64440435,0.43181485,0.3321207,-0.39724177,0.296294,
ioe,0.1136166,0.030592779,0.25089848,0.06816217,0.3184681,0.032278705,-0.2454646,-0.017574303,0.044888653,-0.41522804,0.1586932,0.27205807,-0.3038752,0.12692676,0.26504874,-0.51431787,-0.16981669,0.5708577,0.55445176,0.024751287,0.16776478,-0.16255154,-0.033718776,-0.5030647,0.15458135,0.43207255,-0.18078502,0.24070697,-0.47368756,0.367402,
property,0.16821009,-0.10689402,0.069920704,0.35573712,0.07392837,-0.04507717,-0.13357176,-0.057036355,-0.119528,0.014614023,-0.043965198,0.21833622,-0.24342132,-0.0036614167,0.045042086,-0.052828684,0.017950539,0.41051096,0.26996377,-0.05685964,0.16339874,-0.025072007,0.28465453,0.0403586,0.31694844,0.52463293,0.08392156,0.43781486,-0.49560714,-0.0459018,
isAlive(),0.13296267,-0.033236317,0.105420776,0.18563548,0.17428787,-0.040614534,-0.18694513,-0.13663517,-0.05942949,-0.12368854,-0.06754049,0.21110924,-0.22173697,0.08623936,0.11655951,-0.26735812,-0.048184674,0.3084774,0.3693752,0.05714489,0.1537917,0.007264895,0.15972084,-0.14861625,0.19216819,0.44481897,-0.027238961,0.3749981,-0.56193644,0.19346078,
resource,0.06228425,0.02642452,0.2191009,0.23374464,0.106167026,-0.159444,-0.32594714,-0.08545592,0.0002489242,-0.045701627,0.08051655,0.119967915,-0.35658768,0.17108482,0.08042426,-0.22964692,-0.02767142,0.36693445,0.2414719,0.038421705,0.17017436,-0.017436761,0.08091411,-0.07120564,0.21264778,0.45390877,0.0087431185,0.35150194,-0.5708113,0.14833185,
parse(),0.22495641,0.02654736,0.16046725,0.35869065,0.11919456,-0.11417866,-0.25662613,0.021098467,0.09011754,-0.019646918,-0.033761688,0.17542367,-0.3139683,0.121585704,0.11824956,-0.23943263,0.0038811942,0.47022063,0.31684086,-0.03410275,0.17704962,-0.09403468,0.1529739,-0.059106693,0.24583754,0.5700977,-0.11271486,0.39608917,-0.5232493,0.035851695,
namespace,0.040016934,0.048263844,0.07565518,0.4465225,0.19544421,-0.27629507,-0.20765528,-0.03091998,-0.06966362,0.19964759,-0.008227932,0.094319426,-0.28726012,0.21517034,0.058924638,-0.06227694,-0.018477201,0.39045498,0.0378277,-0.056314148,0.20150314,-0.034659296,-0.04735,0.1354,0.26621825,0.58926445,0.067922726,0.4563593,-0.58369666,-0.017100003,
get,0.037514295,0.12841839,0.17644677,0.41587493,0.2807843,-0.22944498,-0.32072034,-0.057208396,-0.032130696,0.15451728,-0.15369777,0.07318728,-0.24550311,0.17978644,0.11067634,-0.13176982,0.012589213,0.38360006,0.07148818,-0.009708006,0.17333296,0.20593636,0.12727034,0.078125834,0.15131123,0.56447214,-0.07351291,0.57356495,-0.7565223,0.035561297,
Exception,-0.04576032,0.03177207,0.35955054,0.10836204,0.36968905,-0.07390338,-0.2810017,0.043041363,0.0686389,-0.2596725,-0.02236991,0.23061077,-0.31495422,0.22014077,0.30744204,-0.50497854,0.010131202,0.69137657,0.518494,0.16089246,0.058944486,-0.03635962,0.0044648913,-0.46946117,0.254237,0.335498,-0.41668525,0.235403,-0.6131589,0.26036042,
File,-0.17070948,0.012331341,0.21164723,0.13996246,0.27645144,-0.19904234,-0.23106599,-0.09118026,-0.14642948,-0.14406574,-0.021546964,0.19680811,-0.28773078,0.15835285,0.13230357,-0.29957107,-0.058063738,0.39376026,0.29389942,0.10774396,0.106333084,-0.046511475,-0.002713593,-0.22193858,0.20831338,0.3190206,-0.12611859,0.33438456,-0.5823201,0.22569515,
getLastModified(),-0.14616759,0.022023315,0.22288653,0.23888648,0.3051051,-0.22035857,-0.28018603,-0.08094783,-0.09442871,-0.1231347,0.09155984,0.17594935,-0.29672492,0.20180786,0.14182556,-0.3014606,-0.112266935,0.4499475,0.279265,0.03446745,0.13828549,-0.05653646,-0.065088525,-0.19997507,0.19799821,0.42879224,-0.11835827,0.31648177,-0.5289066,0.21467479,
vmName,0.15174572,0.010495721,0.07607912,0.40509382,0.11136609,-0.17021261,-0.21052213,-0.055952184,-0.016379558,0.13986516,-0.026081838,0.1304476,-0.2885155,0.14545454,0.048458986,-0.08848578,-0.003559636,0.3565031,0.15191573,-0.08596762,0.19504747,-0.02138663,0.11829109,0.11337732,0.27092716,0.6350098,0.11487795,0.48193747,-0.6023286,-0.003945018,
getTemplate,0.34523755,0.045156658,0.022482939,0.52008176,0.011142871,-0.060582787,-0.3072288,-0.045225564,0.08875931,0.12708533,-0.24065135,0.22810802,-0.24508552,0.052161485,0.12516859,-0.14027084,0.035110112,0.46103436,0.25644597,-0.11578709,0.23021817,-0.06704804,0.26829866,0.1848772,0.3358688,0.77067,0.03387735,0.53554356,-0.6428814,-0.038845167,
resourceName,0.16808397,-0.007573412,0.1034145,0.3953247,0.10977118,-0.15364039,-0.23590071,-0.038611107,6.256212e-05,0.049831584,-0.015288944,0.1622487,-0.26598772,0.107915595,0.089542285,-0.12853304,-0.016156403,0.37743995,0.25398615,-0.10132092,0.16533428,-0.05461909,0.14340109,0.06977737,0.28160855,0.5949473,0.01929386,0.452674,-0.5381095,-0.028654566,
method,0.08132993,-0.005431911,0.22853626,0.28953466,0.09597401,-0.20156364,-0.30158356,-0.05782725,0.05630591,0.0731077,-0.027981082,0.09122793,-0.2862699,0.17303854,0.10071505,-0.22102733,0.08189054,0.42751387,0.25701246,0.01713632,0.09922468,0.027737036,0.23257588,0.10772638,0.29113868,0.45008075,-0.023275008,0.38633358,-0.60742855,-0.039694447,
doubleValue(),0.25021866,-0.14530237,-0.19237149,0.56823516,0.17939188,-0.10492088,0.011842276,-0.06479002,-0.24079265,0.090441205,0.118783124,0.11991892,-0.33190158,0.023231946,-0.0034190402,0.07691341,-0.264299,0.28154585,-0.024944935,-0.262498,0.17595464,-0.3731194,-0.27534163,-0.035512008,0.20506871,0.7145221,0.3148875,0.42702678,-0.38433373,0.20169164,
configuration,0.10707878,-0.011311408,0.2230539,0.38050166,0.13352373,-0.2414614,-0.31680793,-0.028595632,0.029529702,0.11094727,0.027653806,0.109420516,-0.31386033,0.124751724,0.10001044,-0.07211723,0.048040733,0.36540133,0.20234604,-0.037898447,0.16759546,0.044387676,0.26230916,0.07848119,0.2025929,0.60107565,-0.03417164,0.48431197,-0.65977514,-0.033543874,
put,0.09027093,0.15138903,0.17882809,0.45885468,0.23409693,-0.214461,-0.31519538,-0.028095046,0.002693501,0.19617535,-0.13860682,0.074398264,-0.2708745,0.20577748,0.125786,-0.14160495,0.062140673,0.43911198,0.09417395,0.0033207035,0.18682116,0.14385967,0.17704298,0.1208776,0.20548213,0.5974833,-0.07352215,0.58109,-0.79474974,-0.0083941575,
getAllowRendering(),0.15452214,-0.050862476,0.15919106,0.3685453,0.17001905,-0.13862963,-0.15036552,-0.1271604,-0.03848441,-0.018635066,-0.27872524,0.10780005,-0.24141243,0.1040899,0.057863127,-0.20975615,0.036105048,0.37343472,0.3421767,0.0823735,0.0812561,0.051868726,0.27281967,-0.066969976,0.2547321,0.4873535,-0.18477564,0.47747138,-0.65313256,0.009118467,
i,-0.038616907,-0.010601735,0.1775357,0.34458634,-0.00802731,-0.2633928,-0.25553212,-0.10460875,-0.026948113,0.119469434,0.036972605,0.07412661,-0.29079476,0.15348506,0.031969123,-0.064743534,0.09429805,0.3260979,0.169482,0.068911634,0.15822892,-0.02910092,0.19789678,0.12590766,0.29984164,0.43014824,0.101906195,0.41122308,-0.55364966,-0.01722695,
n,0.0075339857,-0.020210851,0.081990376,0.38251415,0.13701895,-0.22598615,-0.14013639,-0.08376027,-0.114213705,0.10153687,0.010270624,0.05855221,-0.30949166,0.1505459,0.00898995,-0.04598099,-0.069751754,0.3105825,0.059354987,-0.025168953,0.13694665,-0.12999558,-0.019053621,0.022738129,0.22822344,0.4940828,0.10523152,0.3625616,-0.5130502,0.08414675,
arraycopy(),-0.56096935,-0.12496034,0.12551454,0.36540583,0.46977702,-0.53761923,0.0111864405,-0.19396384,-0.45800132,-0.14329682,0.2501112,0.28081906,-0.37792435,0.33018523,0.066418536,-0.14328228,-0.29784513,0.6256337,0.1952499,0.029715406,0.21066093,-0.2721319,-0.4377786,-0.3914246,0.27703598,0.34162638,-0.09410606,0.27420422,-0.46801114,0.22105157,
jjCanMove_0(),-0.73721516,-0.3100041,-0.009742495,0.32153893,0.640052,-0.53964615,0.1273099,-0.3271143,-0.72515523,-0.25442436,0.3383813,0.31066978,-0.4546079,0.28633586,0.050593268,-0.10917694,-0.51140964,0.6300657,0.02108427,-0.03703558,0.19393897,-0.46315372,-0.8272261,-0.5609583,0.2575233,0.42930716,0.14324531,0.21505138,-0.53804284,0.4849201,
setProperty(),0.109141305,0.010108931,0.1305155,0.4266322,0.18461016,-0.14948584,-0.16138099,0.014408118,-0.08965021,0.09131132,-0.07275832,0.12229479,-0.22082886,0.07642967,0.110533856,-0.08194603,0.047455803,0.4094657,0.18073584,-0.021945685,0.1550993,0.061354425,0.17363074,-0.00935036,0.2138688,0.5136969,-0.060139947,0.5364181,-0.5868521,-0.010879181,
render(),-0.11569979,-0.0014521315,0.31276432,0.1889115,0.30435827,-0.33404607,-0.3072394,-0.12468713,0.035184395,-0.10130881,-0.12959906,0.1371449,-0.15816173,0.26551086,0.14064755,-0.40119985,0.00894585,0.44182813,0.4109427,0.13557573,0.08482436,0.0998579,0.15501645,-0.23517165,0.19827117,0.2803388,-0.30432135,0.37532023,-0.66157395,0.14149292,
error,0.3615042,-0.18581901,0.2201781,0.5197085,0.36259383,0.006939195,-0.15320478,0.08189507,-0.09821825,-0.19475107,0.114164665,0.23295566,-0.16518942,-0.0045078844,0.32895088,-0.32683665,-0.049225904,0.623452,0.61715704,-0.23072174,-0.02661251,-0.04759373,-0.060995057,-0.22782932,0.51383746,0.6971814,0.049181998,0.63590264,-0.46876696,-0.087930284,
reference,0.20842446,-0.04387189,0.17803575,0.4210841,0.0531226,-0.2323363,-0.3418992,-0.027857063,0.09545774,0.14544873,-0.013387614,0.03957695,-0.30162778,0.14759682,0.04479587,-0.1494762,0.05121956,0.35438308,0.20055367,-0.048832424,0.12033861,0.0675005,0.310076,0.17020112,0.29552257,0.572753,-0.0027519807,0.50401235,-0.6599297,-0.09848019,
nullTrim(),-0.17056699,0.002096668,0.2933746,0.24838822,0.25120643,-0.2860808,-0.29654843,-0.13188373,-0.11675914,-0.028591517,-0.008157852,0.15224229,-0.27805865,0.20241342,0.0764746,-0.18116307,0.01447098,0.40101814,0.22904615,0.054271337,0.19001545,0.05898839,0.1524391,-0.051162597,0.23124544,0.4351194,-0.0061274627,0.45458227,-0.67836887,0.12792315,
parse,0.29661107,0.01980789,0.18261516,0.4592696,0.009628025,-0.15793766,-0.29139447,0.0046466743,0.11683487,0.12993208,-0.05170692,0.13482058,-0.34225595,0.08725386,0.11554403,-0.1383763,0.1226736,0.45526993,0.2735267,-0.05413724,0.16594921,-0.05147717,0.31985062,0.17888322,0.31048074,0.6851757,0.013358495,0.48606837,-0.62733996,-0.09576233,
valueOf(),0.030443354,-0.029497892,0.12708429,0.42749286,0.26284724,-0.1421328,-0.21626441,-0.05876279,-0.14367868,0.038543344,-0.029048366,0.11024909,-0.20706467,0.10674265,0.07310766,-0.09728344,-0.111260325,0.39000025,0.142312,-0.051415235,0.13413891,0.018480005,0.04324623,0.0033709488,0.25033,0.50960624,0.07856124,0.4869971,-0.513119,0.042586062,
jjte000,-0.3609228,-0.07616421,0.12796636,0.08328177,0.5831712,-0.14266184,0.005693715,-0.18852739,-0.3952097,-0.4454935,0.12658681,0.31215477,-0.5025625,0.26520595,0.16056001,-0.5011273,-0.33407083,0.7115917,0.26480296,0.1406313,0.12384597,-0.38678032,-0.577187,-0.83490974,0.17854102,0.34374094,-0.21257055,0.17623341,-0.6047254,0.6498587,
xla,0.14260863,-0.13224867,0.05463983,0.19935451,0.27251002,-0.12846282,-0.08929908,-0.119557045,-0.05447171,-0.34551042,0.53023237,0.32461223,-0.4427197,0.1829444,0.05201236,-0.28548723,-0.395658,0.4279657,0.431672,-0.113676906,0.3108473,-0.481444,-0.28510305,-0.42692363,0.22143444,0.6231425,0.16261663,0.23492768,-0.22009234,0.41121706,
ls,0.10092949,-0.12918532,0.029219914,0.26464614,0.2636745,-0.18102911,-0.06794591,-0.14888968,-0.1417413,-0.27964738,0.50845647,0.30800888,-0.47489825,0.18501833,0.032710213,-0.21163042,-0.44853753,0.37846637,0.3456841,-0.170042,0.32655948,-0.49929836,-0.31845263,-0.35677812,0.20680617,0.6201258,0.18681397,0.24529912,-0.22984214,0.40736455,
kind,-0.24376422,-0.10052573,0.17953588,0.23005272,0.20625906,-0.43544766,-0.23462117,-0.23569225,-0.19103697,-0.055124596,0.50460386,0.09231136,-0.43869686,0.3343213,-0.08207297,-0.11289266,-0.31748465,0.27799672,0.14526089,-0.021590268,0.26746482,-0.38120532,-0.3075792,-0.13423458,0.27214736,0.47780213,0.29498476,0.23481278,-0.35959807,0.301039,
longValue(),-0.12537928,-0.22984152,-0.10880133,0.39092055,0.22754955,-0.2676852,-0.025900427,-0.22856192,-0.41654044,0.00062395266,0.2527705,0.17678393,-0.3590195,0.1245517,-0.07786109,0.06909243,-0.41111204,0.22097434,-0.007974436,-0.14406812,0.18877509,-0.34826127,-0.34558308,-0.11029389,0.22847022,0.6157136,0.3805279,0.31954393,-0.4025368,0.29304662,
floatValue(),0.12803479,-0.1944704,-0.21864925,0.5771579,0.2368319,-0.1542458,0.078462906,-0.11636666,-0.345032,0.069834806,0.13078564,0.20229332,-0.31718683,0.050361723,-0.038474903,0.08226622,-0.30654636,0.3313859,-0.01592515,-0.2715236,0.18133752,-0.38790467,-0.34521878,-0.073475674,0.22722153,0.7197742,0.32769048,0.40829992,-0.37006822,0.19414453,
printStackTrace(),-0.09769,-0.02500834,0.15120108,0.13694143,0.28446618,-0.0883165,-0.12637489,-0.17222078,-0.2150508,-0.23369285,0.0078026466,0.30667204,-0.2528113,0.16479303,0.10343329,-0.31812927,-0.10928681,0.45367354,0.35455257,0.0899955,0.1726075,-0.075575195,-0.050460227,-0.30171978,0.20868047,0.33741373,-0.03205793,0.33359668,-0.51680243,0.32555,
SynchronizedStatement,-0.09220738,-0.055345576,0.14372902,0.30521104,0.16360089,-0.18440643,-0.18852736,-0.1217416,-0.20694463,0.020820877,-0.024149645,0.16692686,-0.24564053,0.13719012,0.055653177,-0.10779241,-0.05132768,0.35745507,0.14078647,0.012920039,0.12631732,0.039612982,0.07867877,0.011137579,0.25657237,0.41406456,0.08345643,0.4532703,-0.5934733,0.09350409,
s,0.047409218,-0.060631488,0.16397184,0.3206133,0.14384656,-0.21133745,-0.21822737,-0.1093867,-0.08526913,-0.017168874,0.070795015,0.14226815,-0.3073876,0.15886113,0.041005988,-0.1306325,-0.069164194,0.33444852,0.22600916,0.0069037126,0.17533867,-0.07084712,0.12053146,-0.055032965,0.2177847,0.5136873,0.06391451,0.41826248,-0.5649425,0.12072226,
warn,0.35761985,-0.14804012,0.11306395,0.56188387,0.29595223,0.00062121684,-0.105464034,0.09420985,-0.1087115,-0.10671098,0.13624442,0.19175686,-0.20894831,0.0038518507,0.25313932,-0.20781012,-0.03435274,0.60399014,0.45223114,-0.26300207,0.012582566,-0.11538022,-0.06782222,-0.11307397,0.4942465,0.7169172,0.13891043,0.6108587,-0.46406412,-0.10270908,
debug,0.36637437,-0.12876251,0.19550009,0.5471702,0.34064534,-0.005950761,-0.12864517,0.13986827,-0.07337782,-0.1451018,0.09190821,0.19419299,-0.16272983,-0.02016794,0.3489887,-0.28067905,0.008974587,0.66607714,0.56903005,-0.24387412,0.0021264027,-0.040003825,-0.027665716,-0.20439817,0.4892187,0.684802,0.0329921,0.6370027,-0.48273736,-0.12170743,
getTemplateName(),-0.08127147,-0.128191,0.12485857,0.14563449,0.27519977,-0.03824378,0.03679583,-0.25895503,-0.24414706,-0.20238449,-0.2993273,0.33977714,-0.07847379,0.052051425,0.13820699,-0.27259856,0.033271607,0.46893117,0.45228454,0.16479628,0.10135776,0.09421167,0.13140889,-0.33790427,0.26533565,0.33875528,-0.10199107,0.42738163,-0.6229729,0.2205375,
Integer,-0.21569598,-0.008540676,0.16637352,0.25635588,0.2970893,-0.24157949,-0.12970915,-0.13676588,-0.20021744,-0.043412585,-0.041770153,0.13463123,-0.21853258,0.16851132,0.05389118,-0.15044299,-0.098643705,0.4362127,0.14209357,0.072527744,0.12122666,-0.0108951265,-0.06413603,-0.13421376,0.20045392,0.3452579,-0.041696858,0.35864878,-0.543381,0.17653614,
getLogChute(),0.1513699,-0.18425345,0.11113459,0.52814853,0.24817109,-0.12988651,-0.139624,0.017280573,-0.20322825,-0.013194589,0.16317715,0.11430426,-0.23145638,0.028868243,0.14815111,-0.08532763,-0.08108966,0.42824554,0.31082836,-0.16152066,0.048274145,-0.13932231,-0.08222587,-0.043321345,0.4234275,0.5945473,0.20005016,0.5304516,-0.41885293,-0.03720396,
doLogging,0.15940002,-0.21814443,0.18865545,0.6036957,0.2814722,-0.18356301,-0.24061671,0.035530675,-0.1624656,-0.033025604,0.28481877,0.13611233,-0.31408268,0.085556164,0.18651126,-0.16950561,-0.07770257,0.54947734,0.4063947,-0.18498534,0.037406567,-0.16276212,-0.10689925,-0.029966448,0.57443225,0.7067463,0.24895483,0.6297475,-0.51664513,-0.09351491,
jj_save(),0.20597565,-0.11286807,0.04091617,0.23746218,0.23219627,-0.12809917,-0.09136952,-0.0891314,-0.03200994,-0.2744239,0.48195845,0.27263346,-0.43111464,0.17539409,0.05033299,-0.2887121,-0.3971404,0.36570802,0.4414958,-0.14926572,0.29595754,-0.46153823,-0.27631938,-0.35098946,0.22079013,0.68727934,0.16178106,0.25586098,-0.23607002,0.3856743,
old0,-0.14338523,-0.21704775,-0.09311549,0.32214695,0.37527844,-0.31528637,0.05092149,-0.24476737,-0.394601,-0.18291195,0.4855312,0.28297943,-0.42843273,0.18226774,-0.046455503,-0.09591942,-0.53288156,0.3824008,0.12610668,-0.19615485,0.27122623,-0.554489,-0.64159507,-0.3914777,0.22253808,0.6456581,0.3500547,0.24803826,-0.32027662,0.44039747,
VelocityContext,0.06549753,0.010433409,0.19931136,0.29287088,0.16036071,-0.19236518,-0.2787854,-0.08443084,0.03887679,-0.005536193,-0.04802973,0.13136126,-0.2647516,0.14658155,0.07424825,-0.21379757,0.029840877,0.40294054,0.23498918,0.03643573,0.12571539,0.0501377,0.221872,0.00094607705,0.1973448,0.46164873,-0.084652245,0.41339576,-0.637178,0.063202485,
lastIndexOf(),-0.23614478,-0.052310485,0.22229321,0.14205593,0.15562691,-0.29231364,-0.36856404,-0.24458799,-0.17322712,-0.033020563,-0.019831834,0.13850248,-0.3391508,0.2143708,0.014328882,-0.19336273,-0.06410032,0.21634269,0.19607984,0.16208152,0.096669674,0.054321308,0.16942978,-0.05848973,0.23004155,0.33477715,0.09649957,0.42383686,-0.70269763,0.20174128,
object,0.2699308,-0.016715337,0.13711882,0.44322056,0.09045696,-0.10069604,-0.25264537,-0.032399174,0.05196644,0.09458134,-0.1158709,0.10977827,-0.25896046,0.06810847,0.0706513,-0.15779535,0.08097906,0.41201806,0.27047688,-0.060592566,0.1274812,0.031744685,0.308861,0.11797756,0.32491165,0.6151312,-0.009020399,0.5057243,-0.603624,-0.08447707,
remove,0.16210374,0.01251705,0.09320997,0.483735,0.17069733,-0.21869367,-0.2324693,-0.034683283,0.0022582079,0.18740204,0.018136317,0.060228966,-0.329192,0.12460545,0.06609239,-0.041565575,-0.045709357,0.3076863,0.102510534,-0.08567961,0.21015993,-0.05536762,0.046569582,0.11741967,0.22483456,0.6433538,0.07132929,0.5008278,-0.6153743,0.031693857,
reader,0.3197409,-0.015934696,0.1545648,0.4617886,0.033562772,-0.14914453,-0.2903756,-0.00034520612,0.092933014,0.091362685,-0.0046802275,0.13916014,-0.35226166,0.07652635,0.07521452,-0.14655836,0.05745811,0.4334577,0.2914915,-0.08221464,0.19364071,-0.07713746,0.28264332,0.12607333,0.33020726,0.69838285,0.059199065,0.48507547,-0.60503405,-0.03475364,
params,0.0650808,-0.012739344,0.16305484,0.2834003,0.12689096,-0.17272094,-0.22838356,-0.0752235,-0.017448789,0.006763742,-0.06479134,0.11424289,-0.23890372,0.14494704,0.085448205,-0.17063864,0.019111767,0.35985824,0.24388699,0.013551082,0.1368045,0.011147201,0.1366489,0.015779013,0.22456326,0.44765577,-0.020184508,0.38963312,-0.5508,0.046583917,
getInt(),0.16568595,-0.023731861,0.1356947,0.45001954,0.13102162,-0.23946752,-0.24189012,-0.0672289,0.015643014,0.18249531,-0.016040973,0.07759155,-0.28153816,0.11510755,0.043594446,0.004673599,0.032631565,0.2917106,0.14778943,-0.07682954,0.22572844,0.05635204,0.22168542,0.14815362,0.20387469,0.6435728,0.075677834,0.5590403,-0.6694011,-0.03168818,
jjte001,-0.3581823,-0.12277279,0.1059626,0.16142209,0.52192354,-0.20662758,-0.026638374,-0.19814165,-0.39718,-0.37538368,0.20226039,0.3081531,-0.50603944,0.25022128,0.13339427,-0.37344217,-0.34347084,0.65007013,0.23733501,0.053479612,0.1604197,-0.39249,-0.49932703,-0.6800663,0.20385444,0.4217928,-0.08651578,0.19752474,-0.5991623,0.53455,
state,-0.121530816,-0.09703974,0.08707496,0.28488064,0.28076786,-0.33554152,-0.15134983,-0.14682837,-0.18045975,-0.07088347,0.3872815,0.15526527,-0.39950293,0.27505124,0.008409713,-0.1524624,-0.2740109,0.31549138,0.20514795,-0.055969045,0.22591256,-0.39185452,-0.33093828,-0.21495377,0.23728077,0.51410145,0.15899096,0.22304453,-0.33307698,0.31977534,
toBigDecimal(),0.18997833,-0.1424165,-0.106379,0.522669,0.171029,-0.15097997,-0.04307254,-0.07656468,-0.20928909,0.065092206,0.095420755,0.12785898,-0.32216507,0.036946073,-0.01916388,0.048747655,-0.20108637,0.31503925,0.07991769,-0.17594467,0.209242,-0.27332774,-0.12804537,-0.005339538,0.21459118,0.7035207,0.23420592,0.44616112,-0.42252612,0.14297226,
BufferedReader,-0.03667165,-0.04989579,0.17880192,0.23931068,0.13934416,-0.23383237,-0.23977433,-0.07851293,-0.031236146,-0.05457001,0.11176257,0.1303091,-0.3115404,0.17826514,0.07052283,-0.20161797,-0.05973338,0.37848178,0.2550044,0.0052416385,0.13501664,-0.11834472,0.051113207,-0.09011895,0.24908957,0.43900102,-0.00081585394,0.30235493,-0.49936935,0.11410792,
pex,0.1878339,-0.003834996,0.15818974,0.17018618,0.26536456,0.070448816,-0.14437164,0.026144706,0.0072676865,-0.2978521,0.060715936,0.23079163,-0.35278708,0.08203756,0.24797495,-0.41602793,-0.10523924,0.595344,0.48029855,0.021632945,0.14114773,-0.21271792,-0.065702215,-0.48298135,0.20721288,0.4762737,-0.21931446,0.25765815,-0.4788356,0.32034758,
containsKey(),-0.047946602,0.11042679,0.15922746,0.33134234,0.24344507,-0.24312836,-0.3040214,-0.08296482,-0.051020358,0.10383069,-0.14679748,0.11242028,-0.23120277,0.21050416,0.09690991,-0.18935719,0.0063563953,0.37465784,0.10633498,0.04410605,0.16014631,0.13748592,0.075574435,0.0294522,0.16671713,0.45627147,-0.046410378,0.48673543,-0.7200836,0.07275619,
toString,-0.03803965,-0.05375214,0.15941988,0.21514745,0.12282467,-0.18505011,-0.19439183,-0.1854335,-0.0868261,-0.034345523,-0.067888536,0.14618093,-0.20735118,0.15547296,0.03427174,-0.1829876,0.01313865,0.32275146,0.27135128,0.07039448,0.12962906,0.022020468,0.1730622,0.013172219,0.23598894,0.38345706,0.036153875,0.36773196,-0.5779943,0.07278671,
getLastModified,0.046660423,-0.032628924,0.14521274,0.3002774,0.08473065,-0.21259004,-0.2598408,-0.08355827,-0.029214194,0.020085558,0.08472594,0.10422321,-0.32747585,0.16655362,0.054102752,-0.10604141,-0.043785855,0.33418044,0.20557477,0.002946144,0.17029689,-0.07281222,0.107451595,0.028982611,0.26502752,0.5217637,0.08115545,0.3671767,-0.54083204,0.075696014,
isVelocimacro(),-0.01448531,-0.038411234,0.13820922,0.19431753,0.23275723,-0.1454591,-0.17826438,-0.15675087,-0.118191354,-0.12590706,-0.114710435,0.17687675,-0.23583885,0.07189423,0.12266238,-0.23458052,-0.039454725,0.31400985,0.32126528,0.06389106,0.094378114,0.018090282,0.058837,-0.20398897,0.21975678,0.41088635,0.004260798,0.4342982,-0.6117719,0.17496939,
createRuntimeException(),0.13685222,0.014207695,0.2161822,0.092786685,0.34695482,0.041147266,-0.20018879,-0.02141343,0.039188955,-0.35827324,0.13124971,0.2514123,-0.31441322,0.16160044,0.26410145,-0.52939796,-0.13817655,0.56957847,0.5401676,0.010326841,0.13960738,-0.18944456,-0.1250542,-0.5165312,0.20411086,0.39427748,-0.2544538,0.22127157,-0.47932085,0.36288047,
sourceTemplate,0.03686637,-0.040822666,0.09070166,0.32488725,0.11532932,-0.16218592,-0.18749931,-0.123573266,-0.10512161,0.061640512,-0.06392694,0.18050775,-0.2395301,0.12787656,0.05275936,-0.114420645,-0.02942666,0.3331178,0.20895371,-0.01622744,0.17242332,-0.03892986,0.1355269,0.046868965,0.2713224,0.5392919,0.13530575,0.45394465,-0.61141336,0.06335179,
getNewInstance(),-0.20479785,0.0023368895,0.29201794,0.10727485,0.35573864,-0.1772793,-0.2594112,-0.07957707,-0.089281686,-0.27157092,0.11774115,0.23418774,-0.31303763,0.22110617,0.17521553,-0.43089017,-0.1234999,0.51318496,0.39066872,0.12853198,0.13289501,-0.093713894,-0.0773158,-0.379765,0.18257065,0.32645723,-0.22139545,0.24987715,-0.52791893,0.310041,
getResourceAsStream(),-0.031322416,-0.020112257,0.20164593,0.13068439,0.18587981,-0.06588778,-0.23230866,-0.0941942,-0.06540377,-0.2058095,0.032585446,0.21947727,-0.3077286,0.14946641,0.10719672,-0.28716168,-0.0644515,0.41794348,0.3839854,0.112242304,0.14454423,-0.06156459,0.11282023,-0.24506417,0.22855169,0.37950158,-0.047778435,0.3209563,-0.54488003,0.24768607,
getType,0.19901077,-0.01789895,0.1915127,0.43739375,-0.016381972,-0.31002223,-0.36682084,-0.032274857,0.13014469,0.24512663,0.046084344,0.00314595,-0.329528,0.19867222,-0.0060735177,-0.021878598,0.10682598,0.23929453,0.16249894,-0.023186797,0.15005732,-0.011806208,0.28613183,0.3083941,0.31115416,0.54839057,0.088527165,0.44621265,-0.5654696,-0.10877486,
print(),-0.4753458,-0.20449407,0.039845232,0.15736361,0.382661,-0.18046694,0.13313021,-0.3828241,-0.64700663,-0.20101406,-0.13820918,0.4423466,-0.15304185,0.06915461,-0.009784292,-0.10023064,-0.17576061,0.5027144,0.15807255,0.15449008,0.15919782,0.0012373922,-0.15554076,-0.36254016,0.26059836,0.31735075,0.118616685,0.39822093,-0.6016243,0.33684102,
ReInitRounds(),-0.71750826,-0.163091,0.3135441,0.06548939,0.38172656,-0.49148068,-0.26737338,-0.3811106,-0.42115217,-0.19085388,0.18603456,0.1449815,-0.37448797,0.31800172,-0.06139884,-0.22604129,-0.23964396,0.3189515,0.09887768,0.15627012,0.1418714,-0.077758625,-0.22363849,-0.27033246,0.20415033,0.24275477,0.16267131,0.23380496,-0.64971864,0.40811124,
getTargetException(),0.20079961,-0.059875447,0.1610608,0.11203258,0.27339086,0.04528299,-0.12828709,-0.13503195,0.022386266,-0.26501504,-0.13448766,0.2884677,-0.19378705,0.09085622,0.20686446,-0.3958695,-0.060592733,0.46453154,0.6224791,0.08553563,0.18588988,-0.025113488,0.1646046,-0.39796513,0.22946598,0.49129707,-0.17843996,0.4126472,-0.6080368,0.29192623,
setMethod(),-0.0003652331,-0.026057348,0.17999259,0.042107277,0.17450589,-0.02032155,-0.18649185,-0.17657281,-0.08547902,-0.24599761,-0.01354248,0.3059267,-0.21083724,0.11178618,0.09312185,-0.33180946,-0.050357662,0.375937,0.44025925,0.14437555,0.16059206,0.001306552,0.17771202,-0.24246614,0.21150838,0.37507105,-0.008625351,0.32118148,-0.5268512,0.2493591,
pushCurrentTemplateName(),0.10604612,-0.0105339475,0.14346671,0.26988325,0.17044346,-0.10046272,-0.17187648,-0.022307951,0.012836095,-0.096514925,0.010044188,0.18868251,-0.29886085,0.12044318,0.13831562,-0.26074588,-0.029636247,0.45214784,0.33433077,0.012191298,0.15604246,-0.12022727,0.09556355,-0.1921529,0.24051908,0.47689798,-0.10603298,0.3483192,-0.504341,0.124375045,
AnakiaElement,0.26950893,-0.05242067,0.060780834,0.46160126,0.00748702,-0.038848247,-0.1650372,-0.058499508,5.3760305e-05,0.05924417,-0.07307926,0.18586104,-0.2504861,0.0210127,0.08412844,-0.09457564,-0.011652171,0.37874383,0.26975664,-0.074898355,0.19608395,-0.09301319,0.21723394,0.07464593,0.3015994,0.64736825,0.09649235,0.4683489,-0.54002124,-0.029383998,
getContent,0.31341407,-0.012319055,0.04294153,0.5495617,-0.02544536,-0.07273793,-0.24831113,-0.05325547,0.024349885,0.107974276,-0.14256111,0.21306053,-0.30047664,0.03141627,0.062170822,-0.06248944,0.022025518,0.41169348,0.25633276,-0.115704246,0.23242654,-0.11589736,0.28462753,0.15931666,0.34003636,0.74674845,0.0887922,0.5084537,-0.5831562,-0.049684446,
exists(),-0.14423135,-0.029415196,0.17079097,0.16031483,0.24590293,-0.17226689,-0.19116136,-0.11839968,-0.15155642,-0.11153141,-0.03262397,0.1649492,-0.27585915,0.1142546,0.1065237,-0.21734361,-0.057420943,0.35488358,0.24460956,0.09558097,0.11730718,-0.02490462,-0.007837905,-0.2116272,0.20439838,0.33299538,-0.0539827,0.3255138,-0.54875433,0.20517804,
lastModified(),-0.018502533,-0.044133708,0.16432004,0.19907895,0.17754142,-0.1433668,-0.27087924,-0.15993786,-0.097058244,-0.076203905,0.002637691,0.13400961,-0.30341372,0.10116011,0.046460688,-0.18931155,-0.07392517,0.29314703,0.2583179,0.06647717,0.11477892,-0.0025089337,0.15107714,-0.12464397,0.21030036,0.42457324,0.030418022,0.41173482,-0.57565635,0.16232483,
file,-0.09058251,-0.06786289,0.20063469,0.15346783,0.23223113,-0.16577931,-0.2261037,-0.14941211,-0.12672083,-0.1415657,0.09375639,0.20428771,-0.29392886,0.18046762,0.09379945,-0.2505803,-0.08555153,0.37336558,0.3055059,0.06465198,0.13795604,-0.08092806,0.018136661,-0.16600098,0.25030622,0.3844132,0.028024629,0.31721967,-0.53361505,0.22514622,
getName,0.102197066,-0.040896982,0.17454503,0.35224998,0.016783413,-0.27764285,-0.27776426,-0.096808136,0.0058293045,0.13818564,0.0597083,0.034176994,-0.31150416,0.17135467,-0.011339664,-0.07116779,0.014861364,0.2852594,0.15583453,-0.0025127397,0.15794231,-0.0560052,0.16925985,0.20617284,0.27485293,0.52999413,0.12952971,0.40574682,-0.5554563,-0.04850506,
IllegalArgumentException,-0.07600487,0.019715762,0.15960968,0.21749395,0.23212323,-0.17383948,-0.1973704,-0.10278608,-0.11226386,-0.060336456,-0.05936298,0.1345843,-0.2651803,0.14439611,0.09092013,-0.21548535,-0.031227397,0.39315668,0.20060997,0.06190311,0.12654415,-0.023485426,0.0071616876,-0.16350931,0.20427872,0.36273378,-0.0809422,0.33173692,-0.54964936,0.15835804,
isEmpty(),-0.010099556,0.011834863,0.20077406,0.22940885,0.17715481,-0.14636645,-0.25448748,-0.097577594,-0.050211005,-0.030569477,-0.07290997,0.11692211,-0.27522486,0.14808989,0.07945191,-0.2458508,-0.015831465,0.3715287,0.21831892,0.05733901,0.13543288,-0.029476883,0.09775246,-0.08201401,0.2277626,0.41617203,-0.027730396,0.36272028,-0.6137586,0.16595827,
StringWriter,-0.20226263,-0.05650197,0.23447615,0.11104197,0.18111092,-0.23512156,-0.29672423,-0.20463873,-0.11280215,-0.09580573,-0.014033191,0.20072518,-0.27196798,0.22718185,0.07392133,-0.2544794,-0.029150516,0.36499882,0.2732505,0.13441072,0.12032336,0.04306143,0.10949786,-0.10377644,0.21548313,0.3002104,-0.0025633671,0.3191923,-0.6137142,0.20068194,
output(),-0.18544424,0.00995975,0.20744886,0.24558972,0.18855636,-0.22358717,-0.14916897,-0.113204785,-0.1639289,-0.037231497,-0.055786364,0.06379113,-0.26499024,0.17203318,0.120307915,-0.23417506,0.03723197,0.4523811,0.13675234,0.07142614,0.045990404,-0.0072922893,-0.045150243,-0.13941085,0.2574178,0.27700198,-0.06543176,0.32265556,-0.5750936,0.13387625,
clear(),-0.11251055,0.01287162,0.20582674,0.23394614,0.20639214,-0.24510008,-0.24906026,-0.13993163,-0.09338003,-0.00465751,-0.01181375,0.11481388,-0.26924795,0.17786348,0.043124467,-0.18520509,-0.033397548,0.36377436,0.21591869,0.06675793,0.1261727,-0.010804429,0.081057765,-0.040246747,0.23415744,0.3924851,-0.0032624837,0.3530277,-0.5565975,0.15581605,
execute(),-0.11522939,-0.007014333,0.23743223,0.2461564,0.24009463,-0.2677456,-0.21402508,-0.10896432,-0.026057249,-0.032247692,-0.12507395,0.09625267,-0.21985132,0.1832373,0.08686598,-0.24160835,0.03262155,0.3635035,0.24058063,0.12675928,0.06387015,0.057875466,0.10858524,-0.12200153,0.2151511,0.34906912,-0.1873192,0.3815869,-0.6299912,0.08945335,
getConfiguration(),-0.018284565,-0.05239344,0.1609563,0.24260855,0.10890557,-0.1610181,-0.19133489,-0.16469315,-0.13797829,-0.06328487,-0.030402485,0.20329903,-0.22998486,0.08197149,0.034125242,-0.116868265,-0.0016780583,0.35907128,0.27116442,0.044236474,0.14847979,0.042704936,0.20309314,-0.03302048,0.23744032,0.47038355,0.09825221,0.43878052,-0.58864486,0.111399055,
IllegalStateException,0.114348955,0.025607754,0.2514192,0.20871761,0.19969547,-0.101374574,-0.273876,-0.007602518,0.052281544,-0.12337069,0.050089158,0.15360387,-0.30590543,0.13527696,0.19216016,-0.3201786,-0.013724151,0.47018752,0.37761682,0.00014443768,0.11968959,-0.056999736,0.06388429,-0.21964537,0.20948769,0.4356942,-0.12678312,0.31603506,-0.52928317,0.1612687,
load(),0.098665215,-0.04305186,0.15167893,0.16132888,0.23736155,-0.017916065,-0.15098086,-0.079952955,-0.051465075,-0.22091162,0.09127611,0.24403845,-0.29663306,0.07488773,0.125005,-0.29150328,-0.10410469,0.4227281,0.39594543,0.021075381,0.14932223,-0.15009257,0.032602098,-0.31476766,0.21308392,0.46150365,-0.04905242,0.32331517,-0.45841044,0.24724494,
getStringArray(),-0.52120644,-0.038458537,0.39321566,0.116429515,0.22859608,-0.46529895,-0.363691,-0.2678446,-0.23049466,-0.03972318,0.08447272,0.088588245,-0.31307358,0.27117467,-0.010564966,-0.20224145,-0.032002103,0.31623307,0.13693534,0.16965708,0.08625338,0.079021595,0.09140055,-0.017846605,0.23931812,0.22118178,0.036532234,0.32110506,-0.6821401,0.15937173,
isAssignableFrom(),0.01856882,-0.03223972,0.1846141,0.1299103,0.2414414,-0.011738152,-0.17887813,-0.1617817,-0.08560341,-0.1654567,-0.14589578,0.28454328,-0.18990608,0.11843719,0.12214492,-0.32044917,-0.02961545,0.43054384,0.43320015,0.12989417,0.17046034,0.092203535,0.14304397,-0.23918213,0.22674826,0.44012183,-0.061953012,0.42533952,-0.65889317,0.2518829,
Hashtable,-0.0980416,-0.04038554,0.25983492,0.2395804,0.12786192,-0.29434067,-0.33502483,-0.07455218,0.010948593,0.034478806,0.08896065,0.07377671,-0.3427252,0.21700045,0.04611197,-0.15489727,-0.0038363286,0.37172005,0.15949957,0.0380058,0.111484386,-0.017848898,0.12660335,0.07232182,0.26586127,0.4059113,0.052681085,0.32069847,-0.607808,0.026771052,
isInfoEnabled(),-0.21551736,-0.074768655,0.1967453,0.19275843,0.3368978,-0.2215067,-0.17078216,-0.18743914,-0.224055,-0.16047628,-0.035453506,0.18154639,-0.2219088,0.11812188,0.09997705,-0.26183078,-0.107604645,0.3472306,0.26721263,0.059278175,0.07448609,-0.010482465,-0.034588374,-0.2607899,0.18411547,0.37403423,-0.023293605,0.36882585,-0.59900016,0.23976521,
arg,0.025337068,-0.058795396,0.15504284,0.28721246,0.1824364,-0.19394793,-0.16941682,-0.07814934,-0.06034785,0.01176088,0.016050573,0.15446608,-0.269033,0.14562024,0.08853465,-0.16591446,0.0043725264,0.39205855,0.24446596,0.003624333,0.15053697,-0.08930425,0.09319256,-0.0351158,0.28093508,0.445258,-0.010254953,0.3667541,-0.5084632,0.071331866,
Info,0.13367692,-0.06325861,0.15755789,0.2873951,0.2012487,-0.17496566,-0.11353393,-0.07743589,0.05947488,-0.06713628,-0.15536475,0.14664921,-0.18966456,0.10099252,0.17403279,-0.23428847,0.051830202,0.38491943,0.43593392,0.040564884,0.118197136,-0.0012930324,0.22416519,-0.18303263,0.22129798,0.41596723,-0.1972807,0.44568574,-0.5954536,0.052531023,
getType(),-0.24361287,-0.03401462,0.21519406,0.13142955,0.329953,-0.24309877,-0.1702291,-0.19114743,-0.18004914,-0.14783682,-0.16833118,0.17933404,-0.16753404,0.18704548,0.10581352,-0.3450497,-0.07108018,0.40373287,0.31425387,0.14090317,0.058185045,0.110546894,0.017688032,-0.27460852,0.18724917,0.2542781,-0.1909716,0.3438724,-0.65977436,0.21967053,
org.apache.velocity.runtime.parser,-0.099540636,-0.11679993,0.19325121,0.1896263,0.081798024,-0.27378857,-0.3069226,-0.13274455,-0.060664285,-0.004319694,0.20506112,0.0703353,-0.3463778,0.1889465,-0.0059613204,-0.060676306,-0.09256854,0.17046757,0.15589683,-0.010589052,0.15233788,-0.093033634,0.083294824,0.040686492,0.18396918,0.4181847,0.17904626,0.26173928,-0.4411362,0.08431872,
jj_3R_20(),-0.21760303,-0.096837625,0.038632847,0.36052123,0.4664183,-0.50120705,-0.1786103,-0.17601502,-0.281711,0.1791021,0.1895495,0.051320627,-0.38657975,0.34080127,-0.0042735115,-0.085232824,-0.30541763,0.19570626,-0.03827068,-0.1350275,0.22368306,-0.30351204,-0.63022393,-0.08384909,0.2465862,0.64908147,0.17026486,0.3400747,-0.5511516,0.33423358,
startState,-0.41172752,-0.19984595,0.10786883,0.19740827,0.32988927,-0.4185618,-0.14770399,-0.28390718,-0.36690328,-0.1135572,0.33009857,0.18026236,-0.36778095,0.22466144,-0.069669366,-0.07401824,-0.32552212,0.29045236,0.039805025,-0.039714463,0.17786703,-0.27983323,-0.3781965,-0.17941451,0.2190742,0.42493707,0.29644066,0.23291296,-0.44637316,0.35193205,
curPos,-0.47811088,-0.22113949,0.14489275,0.15172012,0.2932126,-0.4389149,-0.20081364,-0.3214873,-0.37503037,-0.066154025,0.31738943,0.11857706,-0.3616491,0.25371003,-0.089022174,-0.052404955,-0.31228733,0.21040323,0.018495228,-0.012253277,0.18041511,-0.20014825,-0.28912836,-0.12718873,0.20011705,0.39353314,0.34116697,0.24239649,-0.49200383,0.29961428,
backup(),-0.42188764,-0.17494047,0.07012267,0.17469105,0.38930428,-0.22735408,0.099411495,-0.28985846,-0.5318158,-0.21818833,-0.015612647,0.3753328,-0.19447172,0.11001736,0.027193587,-0.11233773,-0.18275653,0.48412004,0.18966928,0.10182518,0.13196209,-0.1121788,-0.23347765,-0.3786666,0.23474362,0.33221623,0.060777973,0.32297438,-0.5395214,0.31707636,
invoke(),0.11512899,-0.031968493,0.12744208,0.25216636,0.22903977,-0.0845358,-0.15165074,-0.055228043,-0.003557135,-0.12085005,0.011318244,0.18693668,-0.26545295,0.12515226,0.14339583,-0.26782325,-0.058409892,0.4000203,0.34435958,-0.009151755,0.15311629,-0.11142493,0.01712801,-0.2035619,0.22269279,0.47580716,-0.084551275,0.34216893,-0.5147516,0.15859745,
request,0.12786835,-0.006500843,0.11968858,0.29832327,0.12614945,-0.04107588,-0.15469055,-0.05779198,-0.038427476,-0.04752147,-0.05383838,0.19636565,-0.23520428,0.060761612,0.112431005,-0.19163767,0.0036585142,0.42914605,0.28456104,0.007943581,0.11690153,-0.034412757,0.1378247,-0.08052332,0.2347649,0.4559775,-0.04972627,0.4011016,-0.5107608,0.06935794,
response,0.0637252,-0.030240696,0.166348,0.2693716,0.10650575,-0.09222517,-0.17659158,-0.08022914,-0.015889032,-0.010872712,-0.10390923,0.16689985,-0.21521103,0.08707405,0.10196595,-0.19306368,0.013675086,0.3965547,0.2566961,0.042116735,0.11695345,0.04172936,0.20223297,-0.037519455,0.24910966,0.42233667,-0.038096577,0.38551033,-0.59389836,0.0660901,
obj,0.16153085,-0.03249446,0.10644007,0.3482914,0.072766215,-0.11239806,-0.17061049,-0.06836979,-0.039691214,0.024633536,-0.0125176925,0.12425549,-0.26169804,0.070006974,0.068053566,-0.13354488,0.042287406,0.39398378,0.2585976,-0.015181223,0.12187283,-0.060023516,0.18791422,0.040484097,0.29633948,0.5242588,0.0813635,0.42958534,-0.52973557,0.0116739655,
rnfe,0.12185027,-0.015558077,0.17456198,0.17745335,0.3368902,-0.037467707,-0.123629466,-0.045901623,-0.008051663,-0.27652353,0.034001894,0.25451308,-0.248689,0.1068584,0.19641504,-0.37199366,-0.14088869,0.4853483,0.47932065,-0.0041778274,0.15370595,-0.15221508,-0.06868567,-0.4252757,0.16094774,0.4748162,-0.17267862,0.30035463,-0.44866818,0.32542342,
popCurrentTemplateName(),0.18930651,-0.010328994,0.11369873,0.32799718,0.14857198,-0.085086085,-0.14511338,-0.0348832,0.06605054,-0.045147307,-0.022558609,0.14571793,-0.26253885,0.09675494,0.14274769,-0.21009703,0.002725604,0.42484704,0.34343487,-0.013730384,0.12841769,-0.07344898,0.14011976,-0.10040656,0.24274018,0.48418704,-0.100592084,0.38137048,-0.5223958,0.059428457,
equalsIgnoreCase(),0.12865843,-0.058771323,0.02243154,0.33820003,0.22952846,-0.11011417,-0.11541792,-0.078447804,-0.0855039,-0.0068399045,0.040006936,0.14507079,-0.30435368,0.11321728,0.05754667,-0.12024174,-0.12579174,0.31816542,0.19272795,-0.1128001,0.15133291,-0.17077339,-0.08928445,-0.10757183,0.22441171,0.5325477,0.06250368,0.3811169,-0.46531463,0.19096611,
getAbsolutePath(),-0.17728025,-0.008751974,0.23873644,0.14286369,0.23099183,-0.19341356,-0.260173,-0.113989666,-0.13341282,-0.13057351,0.07187127,0.12953348,-0.3160689,0.20233428,0.085455835,-0.25485477,-0.07010536,0.3633174,0.25205648,0.089051455,0.08893303,-0.07044412,-0.016746124,-0.20785013,0.20914535,0.34833556,-0.034294937,0.2726653,-0.52930003,0.23389329,
index,-0.025517311,-0.08658029,0.13152847,0.28852424,0.113837086,-0.22295685,-0.17571923,-0.16372499,-0.12777051,-0.002703037,0.17286563,0.13703713,-0.29440686,0.16737689,0.006714912,-0.09215798,-0.11826562,0.30331174,0.17142226,-0.026877549,0.16679439,-0.14384682,0.023023197,-0.049477566,0.25105515,0.4848299,0.1431951,0.36204064,-0.4613595,0.12252529,
logTag,0.104733504,-0.02448391,0.1821541,0.35798544,0.107790746,-0.24461599,-0.3167301,-0.049131844,0.07927997,0.059970137,-0.006193703,0.06113707,-0.2844551,0.16843863,0.056514364,-0.16128966,0.027100084,0.35956213,0.26202077,-0.012522565,0.13927037,-0.027292093,0.20686328,0.06441909,0.23947014,0.5069449,-0.039859112,0.40080664,-0.5869548,-0.017596312,
getLoaderNameForResource(),0.122891,-0.04930478,0.11441284,0.3665141,0.18842973,-0.115748815,-0.17510843,-0.04216616,-0.078180924,-0.043349877,0.031128794,0.14601392,-0.24662131,0.084506966,0.1390683,-0.18421791,-0.04045281,0.40283817,0.27046728,-0.10499621,0.1160835,-0.08534979,0.013453901,-0.070904374,0.28280047,0.54379827,0.045015786,0.4483207,-0.4883672,0.038891237,
handler,-0.019788949,-0.016775707,0.15226173,0.3401369,0.15143272,-0.2318319,-0.115344435,-0.02355921,-0.08167455,0.0371145,-0.02312387,0.120006256,-0.23787002,0.1578735,0.08390723,-0.1136588,0.051429514,0.4229782,0.15930258,0.024098748,0.0877546,-0.07270316,0.004355998,-0.0137159135,0.27447963,0.39026725,-0.08121266,0.33476096,-0.49280614,0.016288875,
isDone,-0.0009087129,-0.01952069,0.1397926,0.2844541,0.11428289,-0.2418566,-0.19720678,-0.074459516,-0.02812808,0.078198075,0.012421171,0.08443695,-0.25207442,0.17019956,0.047002126,-0.112644285,0.027099779,0.35907558,0.15013681,0.005475214,0.09782007,-0.063425355,0.0632999,0.06791938,0.2759415,0.3906836,0.01703848,0.32338145,-0.4815132,-0.011895697,
getReturnValue,0.011701307,-0.038863797,0.13090773,0.3211599,0.09576538,-0.23548248,-0.14989729,-0.045643337,-0.03682685,0.057537742,0.014860818,0.113089465,-0.25796875,0.14311445,0.07125009,-0.12801172,0.014083013,0.4023823,0.16395347,0.023826793,0.09324352,-0.09888272,0.042974107,-0.0029729584,0.2573155,0.3950244,-0.023429407,0.32047898,-0.46675876,-0.023257468,
getEventCartridge(),-0.013130274,-0.06944481,0.16908343,0.28902605,0.12835188,-0.2507827,-0.2670356,-0.09221207,-0.05869051,0.006819232,0.08361243,0.114688545,-0.32130864,0.16389345,0.03129274,-0.1214275,-0.013532458,0.34285292,0.19934851,0.011289741,0.15010104,-0.0637575,0.13880964,0.017945405,0.24326968,0.45580053,0.059243474,0.3609899,-0.5605209,0.06881683,
match(),-0.20570084,-0.18409178,-0.03355549,0.27994025,0.36839083,-0.18197371,0.10314275,-0.19584234,-0.40493903,-0.19483496,0.13556027,0.2856721,-0.2542436,0.08431527,0.055264637,-0.082208425,-0.2834624,0.49006662,0.15663499,-0.07683748,0.16838016,-0.27642146,-0.31233853,-0.3830423,0.18503737,0.43283555,0.14980307,0.27607468,-0.41034722,0.30956802,
pop(),-0.048905626,-0.07907923,0.07765776,0.26631868,0.21258298,-0.2007835,-0.10905959,-0.10553245,-0.16687825,-0.0028903524,0.102752805,0.1434837,-0.32053038,0.16324335,0.025910493,-0.11309084,-0.13113703,0.32580015,0.10307514,-0.019237172,0.14550506,-0.16807435,-0.10856401,-0.11837679,0.2242295,0.41920444,0.068158366,0.30674416,-0.4341386,0.1685903,
getMethodName,0.10777622,-0.027934667,0.120423,0.3353707,0.12598903,-0.16493863,-0.17193797,-0.084893875,-0.036727082,0.03320014,0.03466242,0.12986253,-0.25752047,0.11885468,0.04548946,-0.12073568,-0.014349317,0.35234693,0.23639637,-0.022314794,0.1458673,-0.09102061,0.0948092,0.0094406055,0.2495065,0.4680179,0.028754698,0.3654688,-0.48820603,0.060342856,
VelocityException,0.021620251,-0.035601143,0.20979838,0.18231606,0.2299374,-0.116292164,-0.21384928,-0.040738665,-0.040718757,-0.16398242,0.10189684,0.18626407,-0.36075646,0.17356157,0.13641402,-0.32794696,-0.08498362,0.4584842,0.33034882,0.040419556,0.14507067,-0.15819103,-0.031102825,-0.25066563,0.23822501,0.39624372,-0.10233182,0.2648138,-0.49059024,0.21745533,
getEncoding(),0.0051417057,-0.0031519067,0.17330931,0.24760596,0.18794285,-0.14860094,-0.19341029,-0.11660552,-0.102536954,-0.07626762,0.0016740689,0.16414556,-0.29645288,0.1207013,0.08904813,-0.20503213,-0.072363526,0.38440013,0.2373028,0.0512068,0.13337529,-0.04726481,0.041317265,-0.130665,0.2324162,0.4594252,-0.008259087,0.36624336,-0.56593174,0.1898898,
getString,0.32641715,-0.010246947,0.06277685,0.53061724,0.19347668,-0.13256177,-0.1815564,0.012514387,0.029414311,0.11883411,-0.031867597,0.12949494,-0.26227945,0.07236174,0.15460107,-0.09741827,-0.011070798,0.42461324,0.23140956,-0.17221828,0.19748288,0.0034285667,0.11507887,0.07876719,0.253269,0.73989207,0.049235083,0.59065884,-0.62966985,-0.056368817,
defaultValue,0.2593314,-0.0050084367,0.0634716,0.52397937,0.13253972,-0.2068155,-0.21966203,-0.03028286,-0.02524559,0.19708239,0.02041551,0.10369524,-0.30737692,0.11465269,0.07501501,-0.012913658,-0.00368153,0.37803775,0.12873906,-0.15526296,0.23256743,-0.041317627,0.1175544,0.14934784,0.26830864,0.74272954,0.14917366,0.5887689,-0.6358401,-0.051651735,
argArray,0.093730696,-0.062126577,0.0775312,0.41109797,0.0618515,-0.19849114,-0.20593953,-0.102692276,-0.06572048,0.07865267,-0.017327484,0.13342069,-0.27305755,0.12116614,0.0530373,-0.08922362,-0.014646107,0.3650287,0.18811108,-0.058536153,0.16157247,-0.07501198,0.11484454,0.08566435,0.3140122,0.5621848,0.13924466,0.43863723,-0.57044345,-0.003891257,
getInt,0.30490518,-0.011643495,0.057943888,0.60490996,0.12530899,-0.24992862,-0.22944386,-0.054232024,0.018570082,0.2579412,0.04124641,0.08002227,-0.32545954,0.13367893,0.039710592,0.033006355,-0.010089536,0.32299975,0.09002787,-0.18917948,0.26015612,-0.016929744,0.14544979,0.19534107,0.24646911,0.8448931,0.13790645,0.6847521,-0.70513076,-0.04826669,
nextElement(),-0.18824749,-0.04244515,0.22583404,0.18969797,0.22192076,-0.2650903,-0.29261816,-0.1999828,-0.117797166,-0.078717515,0.015391671,0.15388036,-0.2807081,0.2202836,0.036484,-0.21282509,-0.06449957,0.33267885,0.20447202,0.11759112,0.12712127,0.04462492,0.12029197,-0.07773729,0.21011041,0.35999158,0.041442037,0.38787314,-0.6413637,0.17354883,
getNamespace(),-0.112668715,0.08448916,0.15965998,0.36432582,0.25844634,-0.2986346,-0.26368618,-0.08676246,-0.10626331,0.10846511,-0.12452791,0.070503645,-0.26765716,0.25645173,0.08904246,-0.16356325,-0.022726135,0.39522272,0.021384958,0.060010076,0.1533134,0.07961133,-0.02217856,0.040360704,0.19843018,0.43394876,-0.0644301,0.43826154,-0.6997065,0.11138855,
isLevelEnabled,0.014002546,-0.18209834,0.039951093,0.38539177,0.26450542,-0.14856733,-0.018288197,-0.10846679,-0.24411686,-0.08127654,0.13793635,0.1926408,-0.25895602,0.041390583,0.0970477,-0.08858461,-0.17661016,0.42391348,0.22056846,-0.13018563,0.105204634,-0.1679338,-0.14187749,-0.13314115,0.31982362,0.5390013,0.18428959,0.42231306,-0.4443078,0.10035533,
Parameter(),-0.4332706,-0.25636587,-0.019777931,0.16965127,0.46744755,-0.23494288,0.10153117,-0.33499962,-0.55267185,-0.39774042,0.30215573,0.36578822,-0.4582105,0.19149236,0.016347365,-0.17846724,-0.47332755,0.56771946,0.13703229,0.017784027,0.19149438,-0.42905056,-0.50635946,-0.5715342,0.24793948,0.4258465,0.18450794,0.23199959,-0.45848733,0.48537934,
jj_3R_25(),-0.14043969,-0.090061665,0.03313269,0.2895418,0.4521045,-0.42503163,-0.15943864,-0.18926626,-0.26251653,0.061055753,0.19174854,0.08671037,-0.36778864,0.30831665,0.004570974,-0.13121834,-0.34721988,0.22109027,0.049516827,-0.112625174,0.2216133,-0.30220073,-0.56270725,-0.14356102,0.20598592,0.5905005,0.15064226,0.2852685,-0.48652488,0.3537276,
jj_3R_36(),-0.094393566,-0.08587091,0.04342788,0.36902294,0.400437,-0.4416074,-0.20554765,-0.17465094,-0.22017357,0.16991831,0.18141906,0.057008125,-0.38524693,0.2625902,0.0019297247,-0.10546029,-0.27857634,0.20709676,0.019627923,-0.12522508,0.22302625,-0.30466694,-0.49646392,-0.036275953,0.21827978,0.6603177,0.21085271,0.37666056,-0.54762125,0.30857745,
ReInit,-0.25545043,-0.08639728,0.22171177,0.2665635,0.14747153,-0.29394796,-0.19114111,-0.20942922,-0.20334987,-0.039715987,0.11789624,0.17849958,-0.30248067,0.15972835,-0.037425388,-0.0898532,-0.050861806,0.346234,0.19924076,0.094092585,0.1524263,-0.024713077,0.11309626,-0.016332913,0.26592454,0.37498227,0.1332187,0.3671642,-0.5570204,0.11212374,
dstream,0.00736429,-0.103818215,0.094816536,0.39223525,0.035414096,-0.20616925,-0.14182423,-0.103754364,-0.13390762,0.01867172,0.14881486,0.14053781,-0.3334865,0.1132905,-0.03030082,-0.04233652,-0.07740968,0.3360479,0.18903092,-0.022231556,0.18088436,-0.13494006,0.12043589,0.04321721,0.28249136,0.49529237,0.17810954,0.4021761,-0.45823228,-0.00053035363,
startline,0.070072636,-0.0931859,0.09986432,0.39517066,0.029889852,-0.17935374,-0.13418755,-0.08403668,-0.096335925,0.005374113,0.1445564,0.16422004,-0.31588745,0.09571303,-0.006983521,-0.0137230335,-0.057678632,0.3224232,0.19395512,-0.03614811,0.17413138,-0.14586693,0.14394248,0.044496384,0.25005317,0.5226001,0.1671105,0.3986718,-0.4521832,0.008405079,
startcolumn,0.02619648,-0.103626035,0.10609802,0.37372008,0.044158872,-0.19586366,-0.13128123,-0.107437015,-0.12779386,-0.0092482995,0.16739383,0.13687482,-0.31725454,0.099110335,-0.01694101,-0.034972403,-0.062182814,0.33229506,0.19910994,-0.020032046,0.17031091,-0.14200905,0.09746155,0.03182839,0.2751104,0.50091124,0.18977667,0.3873376,-0.46993002,0.02672954,
introspector,0.24591859,-0.08829292,0.1037412,0.402679,0.033865992,-0.07049576,-0.1556716,-0.05445631,-0.071038775,0.02847401,-0.028953835,0.18198106,-0.26610813,0.02241248,0.043135803,-0.06395973,-0.003920359,0.36103314,0.27661365,-0.051276594,0.17568378,-0.04784204,0.26351056,0.0650142,0.31517282,0.57827777,0.11357927,0.47253677,-0.52003455,-0.037394613,
op1,0.09242374,-0.12169172,0.008405237,0.377356,0.13151802,-0.15128684,-0.090646416,-0.10798961,-0.13270573,-0.01898425,0.11581098,0.15141077,-0.32082698,0.09052404,0.013004564,-0.047955547,-0.15149303,0.30422536,0.16674908,-0.0912194,0.15886314,-0.18348087,-0.008262893,-0.0717127,0.24610624,0.5734925,0.17168413,0.39036033,-0.4413258,0.12016905,
op2,0.035131652,-0.13571742,0.033933293,0.34829044,0.15696228,-0.15834537,-0.12780459,-0.15428118,-0.18186572,-0.027750514,0.106443405,0.13687138,-0.32388136,0.09443932,0.0053069475,-0.0752894,-0.16558966,0.28914434,0.16835745,-0.07960325,0.18217039,-0.14749143,-0.01982745,-0.054099582,0.23838359,0.5613492,0.20927079,0.36770952,-0.49127418,0.17200494,
isSourceModified,0.078745775,-0.017090222,0.14504251,0.26956797,0.15177782,-0.12061958,-0.21565382,-0.058157552,-0.037731864,-0.041114878,0.037873384,0.119930394,-0.32905802,0.11425789,0.09473456,-0.19932368,-0.05543123,0.37025565,0.25029188,0.006389728,0.1485262,-0.07894598,0.054707427,-0.098996066,0.22123669,0.48386455,0.0011144911,0.34332293,-0.5262178,0.1595872,
InternalContextAdapterImpl,0.07975662,0.0149884885,0.15435028,0.23606735,0.18692437,-0.09559157,-0.1434748,-0.03790525,-0.0024757572,-0.11391198,-0.011865981,0.16109149,-0.26650205,0.10586607,0.13635552,-0.28059262,-0.034719635,0.4366923,0.33166665,0.022895003,0.13055257,-0.08413934,0.048540574,-0.22629629,0.19240902,0.41374525,-0.13559505,0.31355324,-0.4807924,0.1479523,
getContent(),0.25646204,-0.010715861,0.07641919,0.41822392,0.064669535,-0.0629389,-0.19575047,-0.048805296,0.015208861,0.019228421,-0.10011673,0.18730074,-0.24802648,0.061302982,0.11021481,-0.13697976,0.0036383057,0.37869263,0.30166826,-0.09230846,0.17267919,-0.08002161,0.18671304,0.02723077,0.29567403,0.6141682,0.014849573,0.46057406,-0.52321684,-0.0075072437,
ExtendedProperties,-0.15821086,-0.032823805,0.2321111,0.25782397,0.17446458,-0.29363623,-0.26104718,-0.09469423,-0.11996151,0.02013849,0.05041128,0.10079416,-0.279544,0.18124482,0.08359685,-0.17230636,-0.0062351967,0.36820778,0.1747946,0.0644408,0.09994793,-0.0083189765,0.062053032,-0.031403907,0.26374456,0.37130433,-0.005692414,0.36931658,-0.584585,0.06299359,
java,-0.074565254,-0.016302343,0.14792883,0.2771799,0.15551998,-0.25399363,-0.18604639,-0.11814079,-0.0763421,0.010088008,0.069689386,0.12030479,-0.29373896,0.20437205,0.053677287,-0.18049893,-0.038117625,0.41572863,0.18782865,0.032466277,0.13120566,-0.09090042,0.007450653,-0.015869863,0.27062747,0.42024288,0.051489357,0.32667837,-0.5432118,0.08240559,
merge(),-0.005494842,-0.023508742,0.18703252,0.24139835,0.19625814,-0.19347227,-0.270118,-0.1107534,-0.038732264,-0.06762134,-0.015311286,0.17924297,-0.22649057,0.1630325,0.11557414,-0.22460063,-0.05053537,0.38378298,0.29395097,0.045204867,0.15221786,-0.004067999,0.13547964,-0.07323967,0.21122278,0.42641208,-0.03267397,0.3859217,-0.5575981,0.14425214,
flush(),0.05721929,-0.07721846,0.11148369,0.18727529,0.23417631,-0.04138319,-0.16665184,-0.1215502,-0.10281848,-0.21121506,0.087082885,0.23827094,-0.30273318,0.09686183,0.08512786,-0.23307058,-0.16386066,0.3644146,0.34661356,0.010505874,0.19243504,-0.16650932,-0.0043748156,-0.2773877,0.19152571,0.4493403,0.013743512,0.2937284,-0.44448555,0.30361834,
toCharArray(),-0.008768425,-0.047758676,0.23721148,0.27781093,0.018161513,-0.26057953,-0.3234108,-0.19123404,-0.015709475,0.043632627,0.02220642,0.09748628,-0.29741916,0.16316725,-0.022450017,-0.0851339,0.01726525,0.2655932,0.2177127,0.074951,0.16204889,0.03072692,0.3112168,0.117664956,0.26043352,0.463087,0.1288129,0.4278102,-0.6219772,0.052641764,
contains(),-0.42168432,-0.0076779537,0.35727382,0.12117087,0.23435846,-0.35340905,-0.36590597,-0.28101292,-0.19855341,-0.042090602,0.025738295,0.10213346,-0.33019897,0.2566604,-0.0021921163,-0.25170583,-0.022518031,0.3153391,0.1704939,0.18803053,0.13028944,0.085360505,0.14628184,-0.047097035,0.2756659,0.31318173,0.073855445,0.38391232,-0.7429746,0.19233356,
ev,-0.111519635,-0.017139874,0.17998679,0.2380502,0.18663627,-0.2403006,-0.21469133,-0.12679881,-0.12907481,0.011072656,-0.052762095,0.083641656,-0.26441902,0.15345371,0.038138106,-0.15540233,-0.003270626,0.2974054,0.13450785,0.083735354,0.12212868,-0.029878315,0.11780343,-0.026503531,0.22329967,0.41369343,0.050937563,0.3817124,-0.587559,0.12073358,
initialize,-0.02430064,-0.049901538,0.17256153,0.27341482,0.08566348,-0.2244402,-0.2631671,-0.09460676,-0.03737132,0.025291761,0.05584098,0.109288,-0.2676723,0.13899933,0.018005583,-0.09301128,0.012063917,0.3169431,0.1924636,0.012098444,0.12989253,-0.022049854,0.16688466,0.056901563,0.25897267,0.4295396,0.084789105,0.36460945,-0.5202415,0.022957746,
setRuntimeServices,-0.0040805107,-0.028575985,0.17887488,0.25917718,0.2010625,-0.16855036,-0.18457666,-0.0741011,-0.052675057,-0.023949804,0.0329251,0.14283568,-0.2681138,0.12666903,0.10364262,-0.1673719,-0.051157724,0.36261144,0.23386168,0.027640356,0.12351996,-0.05033334,0.03925416,-0.099074714,0.20893043,0.43608683,-0.016924817,0.35150003,-0.53694874,0.11489252,
getTemplateName,0.0751989,-0.061820574,0.07829466,0.35293505,0.14176926,-0.20021617,-0.11039222,-0.08888524,-0.082922496,0.071440265,0.069642566,0.119236425,-0.25359142,0.102725506,0.03609847,-0.066728055,-0.05263696,0.3035749,0.18508083,-0.051634956,0.15313375,-0.1334998,-0.0210384,0.005433095,0.26091683,0.47468823,0.106147304,0.3743051,-0.42864802,0.04977087,
MethodInvocationException,0.17333181,-0.0615423,0.13768895,0.1748525,0.24036191,0.021493245,-0.1320785,-0.053373348,0.0040172585,-0.24404031,0.024785515,0.24947995,-0.25110242,0.07655606,0.19520319,-0.35054076,-0.08293942,0.42742348,0.48223725,0.02549839,0.13435328,-0.07161066,0.043958753,-0.33010316,0.2347029,0.46542403,-0.0859606,0.3353002,-0.50472087,0.21410596,
exceptionMessage,0.06336196,-0.079933725,0.13921595,0.26721358,0.19464108,-0.110613726,-0.15855095,-0.06352814,-0.0418067,-0.13414393,-0.0060906927,0.1868137,-0.26881093,0.095843665,0.12428472,-0.24881771,-0.024433201,0.4399644,0.35140902,0.014774011,0.11145823,-0.075702496,0.06607059,-0.20974663,0.24537204,0.4562635,-0.054948024,0.34377944,-0.50617605,0.11319542,
UnicodeBOM,-0.159438,-0.14016251,0.27142268,0.20727265,0.0060778097,-0.402893,-0.42894515,-0.22147354,-0.072199486,0.07327619,0.3596956,0.025610609,-0.4222411,0.28081366,-0.11294212,-0.029883426,-0.11704548,0.13651052,0.117182404,0.02364643,0.18413833,-0.11752986,0.07282748,0.16648644,0.2966328,0.49020138,0.3388494,0.29090962,-0.510952,0.06520441,
read(),-0.10117917,-0.078041784,0.15998228,0.2321722,0.18157949,-0.2428863,-0.18785495,-0.14757973,-0.1565305,-0.09325257,0.16642205,0.14054966,-0.34310764,0.20736676,0.021530604,-0.18165328,-0.15900947,0.3251016,0.21057157,0.002644584,0.17125641,-0.15373819,-0.08983156,-0.14451918,0.261487,0.42255235,0.096644275,0.3111151,-0.4933239,0.18328816,
Double,0.08046713,-0.11937862,-0.045831393,0.4048771,0.18721297,-0.13044469,-0.025842818,-0.123507254,-0.20445426,-0.004280872,0.058190167,0.1949242,-0.26375172,0.040104367,0.009435505,-0.039584346,-0.19448714,0.36149445,0.14456081,-0.10164865,0.17278825,-0.19580738,-0.08074756,-0.113583684,0.19953248,0.54731405,0.14964645,0.38650584,-0.44651192,0.14574143,
RuntimeLoggerLog,0.11519133,-0.04663574,0.10920531,0.33165854,0.08429814,-0.11576712,-0.16043459,-0.07278173,-0.0630125,-0.0013438314,-0.0013048663,0.13854362,-0.25877205,0.07103823,0.0639201,-0.09585797,0.01535645,0.3644373,0.22621386,0.005839239,0.14043698,-0.064508624,0.18687719,0.015229718,0.27129117,0.47479823,0.046552155,0.39187256,-0.4819728,0.021357566,
VelocityCharStream,-0.061665684,-0.10414581,0.18148172,0.3015598,0.08559184,-0.29123822,-0.24000937,-0.099248186,-0.0835077,0.027849995,0.19496822,0.10558835,-0.33025083,0.16790728,0.013823093,-0.09299761,-0.06212942,0.31097913,0.16696247,0.0066888854,0.15562117,-0.10921958,0.07952788,0.060428116,0.2776535,0.45397955,0.15789281,0.3410422,-0.4936869,0.01410304,
ReInit(),-0.009808954,-0.09341595,0.16503228,0.30391857,0.13020366,-0.18663755,-0.14649603,-0.13531113,-0.12794702,-0.065498784,0.10321637,0.16050139,-0.3004636,0.09641549,0.015161354,-0.123774834,-0.04366508,0.34919173,0.25879964,-0.014449043,0.1468222,-0.10356444,0.11262207,-0.061169006,0.2733344,0.4718102,0.13344273,0.36795038,-0.5022314,0.0834173,
Reference(),-0.32993296,-0.2894208,-0.08777481,0.25792426,0.44004136,-0.1805295,0.17419624,-0.2933302,-0.5710801,-0.31526753,0.25198764,0.34635618,-0.3796513,0.07261209,0.01593219,-0.102680184,-0.45651168,0.49137455,0.09423013,-0.07530389,0.2025255,-0.42539307,-0.52380514,-0.5234997,0.23000295,0.50109345,0.26436004,0.26175204,-0.457107,0.45213974,
ASTBlock,-0.044695362,-0.15135722,0.08409502,0.2784724,0.035161644,-0.2264837,-0.10372553,-0.17293487,-0.13686872,-0.096412174,0.34406003,0.15358458,-0.4833991,0.12599163,-0.0803355,0.005973255,-0.16293323,0.3784793,0.14229241,0.025258712,0.20600376,-0.2997783,-0.037787683,-0.12158241,0.26824743,0.45328656,0.24876589,0.26411158,-0.3837372,0.14940149,
