name,vector_0,vector_1,vector_2,vector_3,vector_4,vector_5,vector_6,vector_7,vector_8,vector_9,vector_10,vector_11,vector_12,vector_13,vector_14,vector_15,vector_16,vector_17,vector_18,vector_19,vector_20,vector_21,vector_22,vector_23,vector_24,vector_25,vector_26,vector_27,vector_28,vector_29
ReferenceType,-0.39788318,-0.41512483,0.31015417,0.5784806,0.12894708,-0.3866726,-0.5674427,0.2979362,-0.3038025,0.48961744,-0.06790273,-0.24345376,-0.38522294,0.32652143,-0.09737872,0.030478526,-0.15836464,0.11304854,0.36166,0.08753332,0.075311586,-0.04872942,0.07581289,0.39607686,-0.020408154,-0.22406021,-0.03770924,0.17800274,0.10642175,-0.14332324,
MemberReference,-0.5539113,-0.17224488,0.28455323,0.16060069,0.25033098,-0.5306607,-0.41803733,0.2778304,-0.5140774,0.2872938,0.103479914,-0.40034994,-0.49700394,0.35324442,-0.01811458,-0.16147959,-0.27475363,0.17033249,0.66012704,0.11089823,0.05005027,-0.27005067,-0.35983768,0.22855137,-0.011473207,-0.27480972,0.026352756,0.21389446,0.16831191,0.124048896,
StatementExpression,-0.45431572,-0.15490098,0.18303177,0.00027162203,0.118808836,-0.54795766,-0.27560347,0.2612705,-0.62928045,0.28559518,0.1658728,-0.2049094,-0.5501687,0.35037452,-0.092939615,-0.09552846,-0.1610634,0.16118665,0.8295634,-0.005213357,0.18536928,-0.13087353,-0.3500659,0.27413642,-0.1395703,-0.18880577,0.034257844,0.20741089,0.13289809,0.069964066,
VariableDeclarator,-0.3836199,-0.55441856,0.4133251,0.39439997,0.23794532,-0.366151,-0.6026892,0.010322219,-0.22219028,0.49890348,0.11521583,-0.035495166,-0.61492395,0.04396896,-0.1141931,0.31528068,-0.2823878,-0.07128071,0.7048421,0.025280008,-0.09432615,-0.13544825,0.11542969,0.46579546,0.031447183,0.035749123,0.13822556,0.31151512,0.21273807,-0.04227933,
ReturnStatement,-0.34971514,-0.036129285,0.042747315,0.52820486,-0.021678276,-0.5300537,-0.4487547,0.38894796,-0.38924566,0.3596483,0.08234069,-0.4997549,-0.48442978,0.5486386,-0.07790265,-0.22018676,-0.28701493,0.37453288,0.44750232,0.04687341,0.18331154,0.024868043,-0.16651583,0.30595797,-0.016565574,-0.36051273,-0.027816152,0.23195861,0.17717762,-0.018098867,
BlockStatement,-0.7103395,-0.12427951,0.28215584,0.10014833,0.56700385,-0.5165315,-0.4630982,-0.028841544,-0.7885668,0.6854157,0.36941022,-0.26491198,-0.8413795,0.4254343,-0.037818354,-0.10611525,-0.4362512,0.05179023,0.7296265,0.015599458,0.07861462,-0.5323345,-0.5660008,0.18603665,0.09254479,-0.16332527,-0.011769245,0.12769307,0.070938975,0.3376903,
IfStatement,-0.76455337,-0.10642191,0.303261,0.109496005,0.5113712,-0.5969918,-0.34292397,-0.12026808,-0.76248413,0.61815476,0.32628655,-0.20484936,-0.7572973,0.4978496,-0.0115534635,-0.044385582,-0.36484885,0.1708806,0.6044677,0.04276809,0.10870486,-0.48541695,-0.572635,0.23453695,0.044350382,-0.1549351,0.09168111,0.12507004,0.012787358,0.38394344,
BasicType,-0.5776748,-0.09852361,0.29918098,0.2867426,-0.35735032,-0.47436047,-0.510635,0.52080625,-0.28692678,0.26904207,0.15021814,-0.6897875,-0.74289393,0.42961693,-0.18680674,0.21363592,-0.29310733,-0.022302862,1.1996884,-0.1334145,0.03714252,-0.059113424,-0.108743265,0.6208213,0.09498882,0.24778019,0.17703749,0.44991633,0.29750347,0.32575372,
exchange,-0.48484826,-0.54024243,0.2899072,0.4126074,0.2302364,-0.3776162,-0.78250873,0.25523013,-0.51379585,0.42162973,0.15182272,-0.36010665,-0.6396746,0.46691373,0.004716306,-0.105065115,-0.3145367,0.423723,0.3056342,0.010310449,0.080893554,-0.10948778,-0.087902375,0.10078092,-0.11455589,-0.50160193,-0.09874939,0.09033888,0.20254657,-0.109216124,
ThrowStatement,-0.42245716,-0.37139803,0.38584086,0.19173631,0.80717504,-0.37414253,-0.3030677,0.3411751,-0.84017885,0.4755843,0.5374523,-0.068027206,-0.7114881,0.41826004,0.30771622,-0.5690048,-0.33897576,0.35602,0.5028602,0.12026022,0.22254325,-0.50467885,-0.8170949,-0.28596273,0.057730895,-0.38932854,-0.24898896,0.022877742,0.07932356,0.14739378,
CatchClause,-0.5329474,-0.39932564,0.36141777,0.015671043,0.9390851,-0.3354673,-0.064270236,0.4725227,-1.0547425,0.47456396,0.6756135,0.11579906,-0.7384955,0.2676357,0.43807894,-0.6850082,-0.3671043,0.17977652,0.8918942,0.058092996,0.48172283,-0.5306189,-1.147109,-0.32717067,-0.047946706,-0.3244401,-0.26797494,0.017457297,0.12576139,0.19177061,
ForStatement,-0.8338005,-0.616585,0.6574941,0.31310838,0.44958085,-0.47245795,-0.9223263,-0.18179692,-0.4717593,0.8024406,0.20995183,-0.30038053,-0.9262604,0.33149734,-0.20610061,0.58127886,-0.47256482,-0.09996567,0.76605326,-0.1103036,-0.13510013,-0.42372546,0.050571013,0.4853993,0.12146015,0.057145353,0.23426737,0.23412238,0.2423866,0.32203028,
e,-0.53885883,-0.36161253,0.46651137,0.10909837,0.9586382,-0.47644266,0.07466033,0.4935785,-1.0137947,0.42122722,0.5981049,0.02808665,-0.6131436,0.2638364,0.40974963,-0.8229476,-0.22061664,0.29246294,0.71544033,0.1681379,0.394147,-0.52104825,-1.0724554,-0.33275184,-0.045089543,-0.36492795,-0.2688711,-0.048808474,0.12480232,0.19110732,
TryStatement,-0.5398031,-0.41860282,0.4457171,0.07410068,0.76921755,-0.39054698,-0.14787641,0.24814789,-0.8058421,0.4003623,0.5024382,0.010787168,-0.6900976,0.24047555,0.2950372,-0.43992555,-0.27645263,0.16797093,0.65325594,0.089618295,0.2626265,-0.5424453,-0.8109863,-0.1580349,0.0015993256,-0.2101348,-0.16331013,0.044813413,0.082110494,0.2006864,
EnhancedForControl,-0.782183,-0.61954933,0.60301656,0.18400459,0.5827498,-0.6405369,-0.94599926,-0.20961216,-0.6268297,0.69132143,0.23719771,-0.07852322,-0.88266623,0.26183686,-0.03374435,0.5420749,-0.5007948,0.035205748,0.58943844,-0.070041455,-0.12066485,-0.54717845,-0.03290953,0.41742694,0.22932199,0.037128612,0.27909356,0.12512001,0.21288896,0.14289169,
processor,-0.19818503,-0.4617815,0.2729023,0.40403268,0.21113853,-0.455137,-0.6468968,0.19954152,-0.33328542,0.3438577,0.0624713,-0.19760807,-0.32498196,0.23565532,-0.06562431,-0.07911462,-0.10596952,0.32875255,0.35476694,0.016276227,0.049668808,0.18851951,0.050910886,0.22955316,-0.23010814,-0.55061036,0.013861484,0.14317283,0.19649725,-0.4456974,
toString,-0.49932802,-0.3307919,0.22317448,0.5117596,0.12114785,-0.46938267,-0.8531147,0.2448314,-0.4351109,0.4695031,0.07920924,-0.514289,-0.63860536,0.6239797,-0.07846573,-0.0049446686,-0.36315688,0.4170507,0.29954803,-0.007540362,0.07786441,-0.08486482,-0.029875094,0.32898894,-0.020977216,-0.44253772,-0.008635495,0.1214207,0.15168072,-0.06157121,
endpoint,-0.17313112,-0.547923,0.25322732,0.38744718,0.14639765,-0.3891287,-0.7435447,0.18401653,-0.29122913,0.36963445,-0.000368691,-0.11409088,-0.4015064,0.23232295,-0.044858355,0.13037823,-0.15510677,0.22806214,0.3788519,0.006676536,0.0074446243,0.0715075,0.19646424,0.30443048,-0.14903612,-0.3525993,0.06573647,0.22892073,0.23566924,-0.40591982,
value,-0.4468649,-0.16022481,0.15378763,0.4794927,0.14492649,-0.55292976,-0.77421737,0.1676501,-0.42358863,0.63471687,0.032793906,-0.3443159,-0.63887507,0.53540146,-0.12860034,0.11654514,-0.37027395,0.18852803,0.436208,-0.010287129,0.07543386,-0.09068936,-0.029348837,0.42647728,0.05823807,-0.23407358,-0.008876007,0.27829427,0.07249582,0.05561848,
add(),-0.60861444,-0.37563473,0.38685772,0.22391282,0.39842775,-0.57118964,-0.6975212,-0.0015674185,-0.5756628,0.61597365,0.19276491,-0.24854648,-0.7130426,0.36928657,-0.054220818,0.24403398,-0.34213373,0.07317504,0.57013565,-0.0013793691,-0.030751321,-0.33936766,-0.12465673,0.35587645,0.09894822,-0.12810914,0.16064681,0.16614483,0.11685507,0.13285996,
uri,-0.042776015,-0.28794244,0.10878073,0.401192,0.16795188,-0.5389197,-0.6415047,0.18556693,-0.35366008,0.38553783,-0.12902161,-0.023618909,-0.28378612,0.19572787,-0.11443488,0.15744083,-0.15047288,0.1865902,0.45215368,0.051519394,0.012799393,0.1959168,0.18296464,0.4168241,-0.10222514,-0.31797963,-0.0502288,0.3094803,0.10466859,-0.35013792,
name,-0.22204947,-0.19818042,0.08731674,0.49792904,0.19809175,-0.51611793,-0.5251564,0.1431284,-0.32803065,0.46076286,-0.024284445,-0.10344624,-0.4205799,0.36908534,-0.04953099,-0.08885323,-0.25873968,0.2617494,0.28876832,0.07238361,0.13215561,0.052178804,-0.039166722,0.34024307,-0.058500014,-0.34844676,-0.031343047,0.17943306,0.068828486,-0.19823538,
getIn(),-0.45051405,-0.4854605,0.32771713,0.44974387,0.32645658,-0.4311617,-0.6363119,-0.005102704,-0.3900024,0.5091331,0.07479342,-0.22866143,-0.5642153,0.42579308,-0.05645831,0.04295937,-0.22926791,0.43992588,0.18540622,0.02482989,0.032127663,-0.083454974,-0.0399155,0.27615562,-0.13017638,-0.41229337,-0.06550323,0.14036258,0.13290747,-0.106513344,
get(),-0.568172,-0.20088232,0.28957212,0.21047056,0.33647302,-0.49970695,-0.49140438,0.06678787,-0.5595276,0.5261655,0.2177741,-0.18559581,-0.67597175,0.4080989,-0.047108203,0.055550963,-0.39479434,0.1046806,0.62588423,0.007708022,0.06666256,-0.32179677,-0.317041,0.2566735,0.050044388,-0.1088582,0.06255189,0.19341674,0.08172514,0.22901873,
process,-0.46208295,-0.58033484,0.39419708,0.40295178,0.3051728,-0.435471,-0.89499015,0.10148139,-0.46559203,0.48139355,0.16880415,-0.302587,-0.59482837,0.42577526,0.068272084,0.039738733,-0.30357406,0.33933303,0.24072084,-0.04127588,0.0020135753,-0.15278132,-0.054340787,0.19822979,-0.021909785,-0.48867145,0.007752026,0.022731967,0.18114136,-0.11580048,
put(),-0.61893207,-0.101453744,0.3034696,0.12746364,0.40306222,-0.63476783,-0.5837151,0.2703199,-0.8200518,0.51156723,0.18765917,-0.20356435,-0.75888485,0.6050766,0.043768223,-0.12908253,-0.45335862,0.13092247,0.68295974,0.07395431,0.20076796,-0.38620362,-0.46880147,0.22106878,0.04209363,-0.19039452,0.015799113,0.19191036,0.030490978,0.28987712,
getContext(),-0.1963411,-0.20352212,0.1392003,0.4503964,0.18119194,-0.5709885,-0.35585716,0.2511385,-0.33240032,0.3083993,0.02441595,-0.21308164,-0.21381322,0.3616275,-0.027539682,-0.30364797,-0.060157727,0.38198885,0.24847686,0.15708032,0.15039666,0.15682322,-0.07951667,0.24451694,-0.18741944,-0.51764685,-0.06267981,0.16707897,0.20541357,-0.34511858,
getName(),-0.53149295,-0.20726511,0.3040663,0.26349443,0.3765695,-0.4121222,-0.4003122,0.13082248,-0.5400986,0.5097463,0.25328848,-0.1817149,-0.6609055,0.36681518,0.02163629,-0.0834144,-0.34535375,0.13072963,0.6124084,0.061422274,0.14975539,-0.35452393,-0.38506332,0.19626094,0.032601357,-0.12677814,-0.02382143,0.15449427,0.071979105,0.18427798,
getLog(),-0.07375428,-0.5600849,0.26304013,0.5390972,0.059555918,-0.3483356,-0.5451633,0.013163843,0.034513377,0.36278373,-0.109139964,0.05645691,-0.33491498,-0.026113063,-0.18495853,0.32760936,-0.12181354,0.08484244,0.50227964,0.034866873,-0.07047991,0.2086005,0.38346744,0.57064635,-0.109855935,-0.06579805,0.06034131,0.39468732,0.23949368,-0.3696039,
debug(),-0.7425267,-0.19276272,0.34114254,0.023207575,0.76915437,-0.48933718,-0.052092757,0.112467244,-0.97230697,0.4950778,0.56180984,-0.063321516,-0.7687426,0.33974063,0.25231215,-0.37160608,-0.36143497,0.13255198,0.7690708,0.05613302,0.28455225,-0.58546996,-0.9317595,-0.026244396,0.076790154,-0.14583313,-0.06274267,0.026497437,0.09202368,0.392764,
message,-0.24900234,-0.35741475,0.25266662,0.2268845,0.415087,-0.43817323,-0.09636521,0.20790534,-0.42945078,0.30084527,0.18183307,0.0033003762,-0.29807174,0.12000902,0.08107501,-0.33324686,-0.03992375,0.21690232,0.50056195,0.14065616,0.18221058,-0.04501169,-0.3573823,0.121635556,-0.124058515,-0.3129394,-0.062025186,0.1712806,0.18776084,-0.1892535,
type,-0.23791708,-0.25123116,0.11443256,0.48256648,0.14060523,-0.44658986,-0.5404964,0.12199241,-0.2583571,0.45942208,0.008595885,-0.16037287,-0.40887278,0.33213136,-0.070600934,0.05020694,-0.20753163,0.20900331,0.31978217,0.077339515,0.09216987,0.04667071,0.050697662,0.4075928,-0.035258964,-0.29623598,0.008338731,0.2197806,0.12719093,-0.17606883,
IllegalArgumentException,-0.54533315,-0.22387743,0.3465115,0.13676162,0.70894504,-0.4145935,-0.38271916,0.2429074,-0.76781386,0.52650195,0.46253708,-0.17262623,-0.6918941,0.34718376,0.16426633,-0.35360727,-0.39993948,0.1791445,0.57715243,-0.015461491,0.19279905,-0.47517365,-0.6921531,-0.11339737,0.038748574,-0.26533854,-0.11982,0.027629092,0.13347726,0.21531484,
process(),-0.5438956,-0.44278115,0.46717373,0.112094276,0.69352,-0.42936385,-0.31239486,0.25406057,-0.836683,0.40289128,0.44003457,-0.10017588,-0.6492323,0.35759476,0.24971108,-0.40783662,-0.26710543,0.2576405,0.5593378,0.07320896,0.22090249,-0.46058866,-0.6729654,-0.17215669,-0.05633528,-0.38346344,-0.12618254,-0.02222226,0.10992916,0.1363422,
context,-0.07805479,-0.2982198,0.0761285,0.32447618,0.12937751,-0.53249323,-0.25533256,0.19073027,-0.29274672,0.2637499,-0.10759684,0.012826151,-0.1664169,0.092050344,-0.12757435,-0.05704513,-0.003653928,0.20171142,0.47396564,0.110634774,0.1250958,0.20565897,0.05881798,0.43180245,-0.21409115,-0.2635685,-0.037799884,0.27136278,0.12352081,-0.3489082,
doStart,-0.46265814,-0.25207895,0.31491473,0.06987076,0.43417066,-0.47155347,-0.22923847,0.26146084,-0.6954016,0.38494304,0.28658324,-0.06381409,-0.5244978,0.3721159,0.06443511,-0.3016879,-0.1766888,0.19362721,0.62813103,0.06613693,0.28179443,-0.29445043,-0.55414236,0.040549606,-0.05846718,-0.3411684,-0.012679749,0.09022112,0.102500476,0.016505728,
doStop,-0.50828904,-0.2585568,0.34719208,0.005843262,0.49927327,-0.44335988,-0.08283264,0.19919606,-0.7050046,0.34266138,0.27968097,0.032854248,-0.4993644,0.32737845,0.06257109,-0.3502974,-0.10310428,0.18352553,0.68297523,0.14681709,0.32538262,-0.26752597,-0.64512146,0.026416782,-0.13737738,-0.31068733,-0.009370748,0.018307434,0.08312206,0.055500295,
ArrayList,-0.41364077,-0.5637507,0.41677642,0.38982117,0.2125494,-0.44857427,-0.9258831,-0.03269535,-0.25818846,0.5622047,-0.013348268,-0.18701904,-0.65594965,0.21983811,-0.13696031,0.5319062,-0.36319998,0.033171795,0.50678194,-0.044423334,-0.16705164,-0.102147646,0.29328838,0.52713585,0.10270583,-0.02191053,0.15382372,0.2828767,0.21594203,-0.089274086,
getBody(),-0.501934,-0.38834274,0.30067983,0.3831008,0.41618076,-0.4812793,-0.5636377,0.06863241,-0.54055434,0.48633522,0.17199887,-0.28534397,-0.55301535,0.46616307,0.026130822,-0.11112521,-0.3062306,0.41898054,0.21049163,0.035258,0.104723364,-0.19320281,-0.2383163,0.16791044,-0.04841127,-0.45074415,-0.08034508,0.09443655,0.11978136,0.002396979,
getConfiguration(),-0.5454861,0.14170827,0.21433115,-0.20011275,-0.24018867,-0.77838933,0.12847759,0.5947154,-0.63728833,-0.02686275,0.15175574,-0.49680826,-0.44177592,0.16180156,-0.259951,-0.096948914,0.0773561,0.03111338,1.6337688,0.03505987,0.16574928,0.030529233,-0.6026047,0.5173617,-0.38460007,0.28058577,0.17560202,0.4763824,0.37428793,0.3827884,
toString(),-0.570811,-0.19350868,0.26081213,0.17349896,0.3935545,-0.47647864,-0.4368609,0.031214269,-0.6227763,0.49410817,0.1751494,-0.14239211,-0.5969204,0.41390762,-0.007011962,-0.029149668,-0.31709,0.11671124,0.55727106,0.07426807,0.15700094,-0.30019313,-0.3887973,0.23471211,0.01863538,-0.2268108,0.018052252,0.1207739,0.07758685,0.15284671,
SwitchStatementCase,-0.609966,0.014728524,-0.06300141,0.24629934,0.5724168,-0.6184436,0.47039926,0.05793201,-0.82265043,0.4131712,0.50443375,-0.10003628,-0.5288053,0.28548962,0.16602536,-0.571017,-0.24560778,0.320568,0.7516542,0.15172796,0.47658488,-0.4334189,-0.9198913,0.24590878,0.016656324,-0.21508461,-0.061512735,0.12242095,0.13267769,0.35448518,
append(),-0.98075217,-0.21373425,0.50030446,-0.07050014,0.37387648,-0.57715183,-0.5539859,-0.121833265,-0.7763303,0.6210044,0.1323881,-0.13141762,-0.6927064,0.43144023,-0.14334214,0.25493386,-0.3155517,-0.07083713,0.84346026,0.13446955,0.11492867,-0.45221472,-0.45824942,0.4117091,0.117268115,-0.06310449,0.15619548,0.18393673,0.13748243,0.36958492,
equals(),-0.6436533,-0.15236239,0.29693827,0.19557656,0.36698225,-0.5378886,-0.43736005,0.10435089,-0.6095637,0.50897306,0.2873373,-0.27592614,-0.7305925,0.39850616,-0.019744165,-0.043252174,-0.33033943,0.13820358,0.6743116,0.055801377,0.061267726,-0.34005752,-0.4579948,0.22061025,0.050026063,-0.13863343,0.06756496,0.18513566,0.066663064,0.28230295,
ForControl,-0.6387425,-0.3455028,0.41326,0.2306404,0.2528334,-0.49029788,-0.63647884,-0.051414818,-0.4760204,0.5171224,0.20586625,-0.15223056,-0.7080059,0.2581183,-0.106390186,0.31966934,-0.36292893,-0.035958648,0.7183217,-0.049839556,-0.04560344,-0.3503747,-0.095520645,0.3964547,0.11233015,0.112674795,0.1730782,0.22662072,0.16161114,0.20688769,
substring(),-0.6575217,-0.10503887,0.25337428,0.057361245,0.374198,-0.51269376,-0.33931538,0.05846287,-0.6905482,0.45615977,0.28765273,-0.19036716,-0.70246536,0.39434472,0.021088516,-0.11476966,-0.3104329,0.073908925,0.6857268,0.06445033,0.10532802,-0.4482384,-0.48584768,0.14996684,0.040532194,-0.110376865,0.041201558,0.15966272,0.02472496,0.32642072,
getEndpoint(),-0.44313347,-0.28762314,0.31075275,0.18897754,0.40609905,-0.45749596,-0.3216119,0.18172751,-0.5997568,0.4217882,0.22583325,-0.13242847,-0.5149248,0.33587384,0.035006873,-0.19032882,-0.23309368,0.15414706,0.58011293,0.047413856,0.14851029,-0.24389003,-0.40524337,0.15435524,-0.06392109,-0.25027195,-0.023957284,0.1226694,0.09797587,0.044074424,
createExchange,-0.09264835,-0.29778078,0.099514015,0.49353942,0.24060744,-0.55984807,-0.24293324,0.29118544,-0.34006888,0.2505133,0.0318475,-0.1325591,-0.14604749,0.2591509,0.01474291,-0.37087414,-0.02136729,0.41444933,0.310277,0.17301741,0.17686024,0.20677094,-0.12623994,0.20499252,-0.19492243,-0.55242807,-0.08247319,0.2210625,0.24646744,-0.454518,
getClass(),-0.4569545,-0.21627091,0.22273739,0.24381256,0.24098119,-0.41278514,-0.42077667,0.10765573,-0.458498,0.4512203,0.16044706,-0.21217139,-0.5335083,0.3491743,-0.054762725,0.014740118,-0.28874904,0.11794293,0.52365196,0.037968248,0.09638719,-0.1872608,-0.20221217,0.28175947,-0.014429764,-0.15045536,0.004634043,0.16793454,0.12174981,0.068249255,
expression,-0.19875854,-0.3371568,0.09087143,0.5620806,0.061307255,-0.51019424,-0.6685364,0.20417418,-0.2551883,0.43221143,-0.04269489,-0.24186064,-0.42817038,0.39698026,-0.09470978,0.0054164184,-0.2223923,0.3619917,0.2719849,0.06870386,0.09522415,0.14628108,0.14891183,0.44683734,-0.081817746,-0.45155242,-0.024656586,0.23781012,0.14905168,-0.2834173,
RuntimeCamelException,-0.47097453,-0.33123392,0.36697677,0.09602349,0.74166256,-0.39587012,-0.099452004,0.3619331,-0.7930719,0.40605554,0.46454623,0.02261082,-0.55811834,0.21272165,0.24908893,-0.5146929,-0.23563449,0.15882118,0.64490825,0.09528974,0.3086789,-0.39516288,-0.7688581,-0.18090793,-0.025756225,-0.25998855,-0.18061185,0.04273696,0.153572,0.10126771,
getOut(),-0.18175009,-0.37109658,0.18224354,0.49575624,0.20827648,-0.44839936,-0.1971608,0.15784176,-0.24503472,0.32422036,0.028869879,-0.06993952,-0.2771072,0.20439756,-0.07322232,-0.19680299,-0.037792042,0.40323922,0.2872374,0.11582051,0.18418539,0.07197192,-0.029333891,0.32460165,-0.20686916,-0.41472396,-0.11312128,0.20875943,0.16476199,-0.22075114,
BreakStatement,-0.6208988,-0.086991966,0.13291642,0.1351518,0.63761634,-0.58868927,0.25378162,-0.022883138,-0.79972035,0.40847725,0.4831932,0.020636613,-0.5685361,0.23697354,0.13740996,-0.40498406,-0.25582594,0.16915989,0.77074164,0.16475531,0.33233342,-0.4866748,-0.84270835,0.20468526,-0.010116988,-0.15122256,-0.014471881,0.097041145,0.12262063,0.33125225,
evaluate(),-0.42974898,-0.3621639,0.22963314,0.44008034,0.22664724,-0.44941926,-0.6385585,0.16324998,-0.4376056,0.49565926,0.13704166,-0.28888908,-0.625422,0.43679184,-0.039291196,-0.019952416,-0.28964737,0.2931289,0.4150558,-0.002598795,0.073292695,-0.14388002,-0.08498728,0.32173598,-0.027665704,-0.3131264,-0.029150274,0.1843306,0.12941886,-0.018924627,
WhileStatement,-0.52646464,-0.31471565,0.32496846,0.21480149,0.43022785,-0.39194754,-0.29813835,0.060006045,-0.5425502,0.45498157,0.28591508,-0.054845847,-0.634331,0.23783118,0.06285763,-0.044916578,-0.2911405,0.05875672,0.62363714,0.06822974,0.094709724,-0.32152036,-0.4000145,0.1780792,0.038514353,-0.11134965,0.022859735,0.16313316,0.112706654,0.17136012,
isDebugEnabled(),-0.67412764,-0.2587147,0.32136893,0.07290127,0.6967603,-0.46347916,-0.111310326,0.0705007,-0.8313266,0.5008084,0.47591498,-0.012533992,-0.72057754,0.29442286,0.2189269,-0.3268824,-0.33693618,0.14182341,0.67659104,0.09520822,0.24178126,-0.56919575,-0.8028748,-0.01671866,0.013915995,-0.18837741,-0.049868718,0.062975705,0.071927115,0.3297466,
getBinding(),-0.16026025,-0.26273808,0.13199762,0.3097091,0.36643267,-0.49703625,-0.09250342,0.22551255,-0.4086928,0.26523846,0.12196152,0.0020769509,-0.20869349,0.17551726,0.063139975,-0.42232576,-0.051018547,0.32042342,0.36311093,0.19090141,0.24882063,0.03691069,-0.3126961,0.14095311,-0.21167436,-0.41447455,-0.10357714,0.17628856,0.17920032,-0.27750877,
org.apache.camel,-0.11094975,-0.3180622,0.112829626,0.39488676,0.18621925,-0.42528108,-0.107811116,0.12301984,-0.19319159,0.2930873,0.03082589,0.0461684,-0.24704212,0.06843965,-0.09593112,-0.14853549,-0.026614558,0.1834452,0.46357852,0.1546447,0.17759795,0.091685034,-0.036643226,0.3660483,-0.15524645,-0.27934596,-0.03522466,0.22118111,0.18337141,-0.24515472,
notNull(),-0.26167077,-0.28710884,0.09108948,0.4535386,0.1459431,-0.5217776,-0.49356073,0.24192096,-0.40988475,0.4180573,0.0051423525,-0.16414139,-0.44729105,0.35001475,-0.047527984,-0.07015697,-0.20808767,0.25261158,0.4113618,0.059392955,0.1635385,0.01191783,-0.045000274,0.3410871,-0.08267675,-0.3373789,-0.04714425,0.22546422,0.09691137,-0.13596405,
org.apache.camel.builder,-0.14691535,-0.38717875,0.1899926,0.43783382,0.1270152,-0.42511004,-0.25715584,0.11653924,-0.17305304,0.34224963,-0.017396232,-0.016505513,-0.32339907,0.086996935,-0.104445755,0.018682156,-0.059123263,0.15871151,0.51426363,0.11981987,0.08082,0.08456078,0.08148172,0.46131706,-0.1155202,-0.19930351,-0.00827872,0.288859,0.19246107,-0.20955105,
ScriptBuilder,0.13827099,-0.3774049,-0.026749058,0.6291852,0.110195376,-0.49779215,-0.1370957,0.16979432,-0.1772773,0.4099159,-0.11312452,0.112679295,-0.2247546,0.08018279,-0.12847377,-0.2520731,-0.06791759,0.4067547,0.45365375,0.23991361,0.3193972,0.31174767,0.1074427,0.47312608,-0.15403402,-0.43160105,-0.126123,0.25377515,0.19543889,-0.5219901,
getExchange(),-0.21695442,-0.26581776,0.11465774,0.3985314,0.2401387,-0.49459028,-0.31140882,0.18478686,-0.33736038,0.3565097,0.029618964,-0.10083101,-0.35934106,0.2704504,-0.03887057,-0.21174112,-0.14259207,0.30407557,0.35686922,0.14145873,0.20559876,0.052208956,-0.10179262,0.2946632,-0.1576718,-0.39625466,-0.07712243,0.21836357,0.14375563,-0.23437467,
HashMap,-0.20582847,-0.4042131,0.23285209,0.39790154,0.20064473,-0.40609482,-0.4643833,0.063824296,-0.2235199,0.39756677,-0.0015180327,-0.017920744,-0.4071287,0.11526797,-0.07506768,0.12766849,-0.18135606,0.14144495,0.45478886,0.052762493,0.0105636185,0.01958018,0.11379835,0.39016354,-0.060458332,-0.18370637,0.035459492,0.25666046,0.16994388,-0.20741138,
setBody(),-0.25116593,-0.34580702,0.2080866,0.37709427,0.2416479,-0.4675112,-0.33144772,0.116162695,-0.3292572,0.35528398,0.052085575,-0.10284316,-0.35491043,0.25261512,-0.02911107,-0.11789537,-0.10541715,0.32237002,0.35686734,0.09792928,0.14057308,-0.006291512,-0.08112762,0.29081622,-0.13385507,-0.34182915,-0.065121576,0.16272281,0.16731021,-0.14236312,
size(),-0.47639796,-0.26389316,0.31680834,0.23662724,0.2799896,-0.47176436,-0.47186184,0.07636559,-0.45749143,0.43579143,0.17241594,-0.21457899,-0.6114819,0.32495064,-0.037894055,0.08345234,-0.29145113,0.09073756,0.6158345,0.020365866,0.04217903,-0.21598741,-0.19480748,0.31835574,0.045820195,-0.12125772,0.08292099,0.1974942,0.1548522,0.10435277,
evaluate,-0.28807905,-0.37248993,0.19876796,0.5429181,0.18992494,-0.4566222,-0.713915,0.11899697,-0.29057926,0.44401512,0.045967568,-0.28910452,-0.5182061,0.40521008,-0.08727007,0.008732147,-0.2906644,0.34788668,0.25736272,0.057887923,0.066908196,0.020529874,0.04521989,0.3389761,-0.014878725,-0.39703152,-0.040527925,0.1731552,0.17954221,-0.18274806,
getValue(),-0.5207944,-0.3289525,0.31937557,0.27765027,0.3579395,-0.45609623,-0.47369584,-0.022028413,-0.43758446,0.52573925,0.16385795,-0.07518918,-0.61124766,0.22740054,-0.0814932,0.16969264,-0.27764225,0.06940083,0.56201774,0.022788035,0.03687128,-0.24844426,-0.16725843,0.32881364,0.028470987,-0.09859444,0.065121256,0.17965803,0.120369025,0.11608215,
org.apache.camel.impl,-0.1600436,-0.35090172,0.16667815,0.37064344,0.18937421,-0.4140789,-0.2131903,0.08875906,-0.20701437,0.33133838,0.029573362,0.020669926,-0.32102463,0.095915176,-0.07007805,-0.059596896,-0.072031066,0.17524283,0.46726364,0.11553585,0.11043167,0.06068204,-0.0022041718,0.381333,-0.13166505,-0.24144755,-0.016370788,0.23322006,0.18000457,-0.20688628,
createEndpoint,-0.03992922,-0.3297555,0.13341907,0.42387706,0.15016003,-0.5575515,-0.3787961,0.15833843,-0.27900034,0.30441722,-0.14545427,0.075185545,-0.2520583,0.11703758,-0.13820744,0.019880215,-0.05428477,0.20419785,0.50588185,0.12597388,0.0979683,0.173102,0.15513332,0.4953723,-0.20199215,-0.34288055,-0.034636118,0.32264328,0.13575122,-0.34036523,
isSingleton,-0.40192366,-0.1596725,0.1612933,0.31949773,0.03317136,-0.45421392,-0.38680395,0.30543265,-0.39454347,0.28191978,0.07631462,-0.39996457,-0.4118249,0.38463008,-0.08353092,-0.10144721,-0.17070143,0.1998598,0.5503699,0.053926587,0.10769056,-0.025561217,-0.14802334,0.3148654,-0.024110444,-0.21094555,0.013656066,0.21575326,0.15825869,0.004992611,
matches,-0.28802526,-0.32724997,0.15449214,0.49505547,0.049173977,-0.45464656,-0.46852395,0.21052742,-0.29647824,0.3842942,0.045378156,-0.25729972,-0.4849988,0.3058115,-0.07912562,-0.028006783,-0.19540925,0.24624309,0.44759303,0.03803322,0.08798918,0.01888535,0.022309195,0.3751667,-0.05648476,-0.3141758,0.007961533,0.25206587,0.16324972,-0.09323046,
newInstance(),-0.36499327,-0.22854073,0.22997674,0.27434212,0.27512062,-0.41713703,-0.33745813,0.15227255,-0.4278053,0.41407424,0.18159695,-0.13644008,-0.4929332,0.29028866,0.0016153242,-0.09479253,-0.23741446,0.1605723,0.47878164,0.028608587,0.12311234,-0.15053076,-0.23816323,0.20780946,-0.00648946,-0.20463865,-0.03608427,0.15653034,0.112976484,0.03246655,
binding,-0.22661476,-0.26594943,0.13740306,0.296122,0.17113242,-0.44772166,-0.24773417,0.1946031,-0.34075028,0.3154728,0.024474489,-0.10473611,-0.31542528,0.23721683,-0.055080906,-0.16976425,-0.07428779,0.2192042,0.479852,0.08345933,0.1440804,0.029186668,-0.11983844,0.32563636,-0.14750512,-0.28760806,-0.05066406,0.21870536,0.13069567,-0.19882122,
newInstance,-0.26162282,-0.22608268,0.1210684,0.33969006,0.20669599,-0.44857067,-0.25884458,0.17731228,-0.36948,0.35508522,0.0685229,-0.11022272,-0.36614537,0.2719326,-0.024311204,-0.17891589,-0.15368187,0.24003057,0.39884812,0.07312852,0.18129721,-0.02524862,-0.16244437,0.25513235,-0.10751226,-0.2970988,-0.058083598,0.1956876,0.123745285,-0.09824865,
warn(),-0.48257297,-0.21421807,0.22518986,0.15399538,0.43836465,-0.4552227,-0.16801108,0.113573566,-0.60662407,0.38012645,0.29695106,-0.08589421,-0.5469523,0.28446174,0.06975002,-0.22620557,-0.23534347,0.18816847,0.61147094,0.0843243,0.19151683,-0.30285874,-0.48989254,0.13119304,-0.029858338,-0.18525426,-0.005395752,0.10932222,0.10516104,0.15503182,
createExchange(),-0.3655735,-0.32366297,0.28094676,0.14843152,0.5698501,-0.42466408,-0.040405195,0.21665812,-0.62999696,0.32311088,0.32600346,0.052700605,-0.470829,0.18259357,0.16678445,-0.44622013,-0.1429692,0.20319854,0.56590277,0.114963375,0.28660858,-0.26533663,-0.58919215,-0.01462801,-0.09764644,-0.3336392,-0.13921447,0.04483438,0.12850896,0.009906361,
length(),-0.45963672,-0.18108335,0.24140999,0.12766856,0.33428964,-0.45484737,-0.2662368,0.08099638,-0.5561474,0.38612962,0.23767361,-0.091548584,-0.5164643,0.2539511,0.030588875,-0.11145325,-0.24062365,0.076978445,0.59165144,0.074132755,0.116675146,-0.29583538,-0.37751502,0.20451313,-0.025758808,-0.14642808,0.029107066,0.16550775,0.06366196,0.16821438,
component,-0.29497913,-0.32924986,0.24112356,0.33282602,0.13348283,-0.46514943,-0.49076307,0.12693277,-0.32935724,0.3493413,0.011493451,-0.13356121,-0.41250795,0.21743113,-0.10963408,0.10083226,-0.15233569,0.15150228,0.5112458,0.020788148,0.038364127,0.009339994,-0.0012741736,0.3677438,-0.07094422,-0.17511699,0.057763405,0.2279311,0.14818403,-0.10777819,
start(),-0.39855358,-0.28269717,0.3008562,0.14336677,0.4471989,-0.45213902,-0.18185805,0.16389629,-0.58853567,0.37139407,0.22318529,-0.009508196,-0.47974947,0.2398314,0.04136308,-0.23743539,-0.14160274,0.15242587,0.61340964,0.0885284,0.2281895,-0.21801895,-0.44211718,0.12165576,-0.071871646,-0.20825018,-0.010307565,0.12860246,0.12562282,0.05638305,
createProducer,-0.25507182,-0.30460295,0.20954077,0.3521091,0.16193612,-0.46302924,-0.4800841,0.20045017,-0.39044565,0.33704504,0.05319892,-0.18421587,-0.38130134,0.2786803,-0.030104596,-0.06237545,-0.14722915,0.24870703,0.43791765,0.06463697,0.108559646,0.047884844,-0.049380027,0.26138783,-0.11562686,-0.3314116,-0.03678873,0.20487085,0.19530231,-0.19904499,
createConsumer,-0.23065081,-0.38422996,0.20762095,0.39636338,0.24075165,-0.5051115,-0.45591024,0.22599573,-0.35863844,0.3251108,0.09862676,-0.14113031,-0.3513396,0.2927639,-0.020063007,-0.1379024,-0.12183943,0.3253852,0.3914772,0.08187685,0.1123464,0.055582073,-0.063231826,0.24597275,-0.13754845,-0.44735855,-0.007196277,0.20935173,0.19878286,-0.2776968,
getEndpointUri(),-0.42624894,-0.29221675,0.30026063,0.20908779,0.3790883,-0.44548503,-0.34809342,0.09761871,-0.51905787,0.41334194,0.23730044,-0.110742986,-0.5525125,0.26373094,0.00954792,-0.06986102,-0.23701003,0.123836994,0.5775069,0.03725324,0.12904042,-0.24422546,-0.305018,0.19754584,-0.05181649,-0.19585203,0.020896325,0.16539356,0.13837877,0.05563337,
startServices(),-0.41649944,-0.25029713,0.27820417,0.13220297,0.38971093,-0.4404805,-0.20271303,0.169222,-0.582201,0.39419833,0.21553618,-0.043850873,-0.48944545,0.31299824,0.017524537,-0.23140524,-0.14528562,0.18809925,0.5680068,0.101029396,0.24677558,-0.22294252,-0.43145195,0.13803795,-0.06535119,-0.25638548,-0.046024747,0.085224256,0.09715872,0.05829612,
parameters,-0.122794956,-0.3444298,0.14046147,0.39773834,0.15844722,-0.48976588,-0.49483934,0.13081919,-0.30850977,0.3545201,-0.05491614,-0.016528051,-0.34757084,0.17645422,-0.13048156,0.0888891,-0.16157952,0.192141,0.46464854,0.05213965,0.07034402,0.10809843,0.11571268,0.4331457,-0.13170727,-0.2753443,-0.03388259,0.29288372,0.15342738,-0.2677561,
getProcessor(),-0.4155586,-0.3065166,0.30503112,0.09255673,0.51357895,-0.43646464,-0.056295745,0.16625004,-0.64746505,0.33046824,0.30042773,0.0488106,-0.48231524,0.215252,0.095195435,-0.34203017,-0.14765781,0.16251743,0.61720634,0.12178928,0.25081396,-0.2887427,-0.5459937,0.047821105,-0.100689,-0.27846694,-0.0753108,0.06737324,0.10924678,0.041754723,
cause,-0.13224906,-0.30874002,0.15914829,0.28085956,0.24021411,-0.43059295,-0.013208212,0.1539763,-0.27755073,0.27952346,0.055817347,0.08869754,-0.21957211,0.025359046,-0.052016005,-0.27305356,0.02314935,0.17864305,0.48684624,0.14233316,0.2122445,0.06323565,-0.18210317,0.29695994,-0.18690628,-0.27380824,-0.046221588,0.20746423,0.18834199,-0.26122272,
SynchronizedStatement,-0.37647262,-0.21453936,0.20927177,0.20428894,0.30435845,-0.41292807,-0.27770627,0.1615247,-0.5117707,0.3986435,0.19942594,-0.09334434,-0.50052124,0.3059626,0.014913214,-0.13144347,-0.24263264,0.14744994,0.523618,0.048768356,0.14709158,-0.20510136,-0.32776535,0.1971333,-0.02877332,-0.21127146,-0.032306705,0.16307923,0.072800495,0.0839757,
stopServices(),-0.35063308,-0.2540892,0.23400062,0.16894051,0.35600215,-0.43994388,-0.20409785,0.13308412,-0.4974374,0.37021145,0.17629142,-0.0047082347,-0.41760916,0.2693979,-0.008488515,-0.21071862,-0.11938697,0.21314831,0.51816726,0.099186264,0.21750651,-0.1425881,-0.3204476,0.17551176,-0.07277446,-0.2904393,-0.016559023,0.11143513,0.12688199,-0.023864917,
log,-0.12791888,-0.33679777,0.07884269,0.4345424,0.20290548,-0.4058752,-0.08046681,0.1884345,-0.28437304,0.30918783,0.02915514,0.030249504,-0.27773347,0.0975781,-0.036482695,-0.19943781,-0.043963112,0.25618863,0.47903746,0.15647295,0.22667079,0.13218163,-0.099836476,0.36134666,-0.14221068,-0.2686694,-0.048925903,0.23322031,0.18111536,-0.19350709,
iterator(),-0.4191247,-0.29510507,0.28043503,0.32871315,0.3343386,-0.4460053,-0.37493035,-0.012780056,-0.38022074,0.47417188,0.159335,-0.068918936,-0.55542535,0.21468739,-0.06607257,0.07260564,-0.22919263,0.086452655,0.5444567,0.060741756,0.034480225,-0.18968353,-0.1554702,0.33668542,-0.015718935,-0.14664508,0.06349931,0.22812618,0.13308795,0.04256744,
doStop(),-0.33376056,-0.25244623,0.2636138,0.15597545,0.38137242,-0.467629,-0.14152841,0.16560896,-0.52890205,0.34908372,0.20763226,0.026137143,-0.40188763,0.19511917,0.029890137,-0.23826149,-0.13041891,0.1712363,0.57895315,0.103610426,0.22919154,-0.16988151,-0.39038774,0.13796355,-0.08697504,-0.2515063,-0.040368274,0.15523213,0.11204765,-0.025557676,
method,-0.2534902,-0.27101156,0.18672378,0.29232597,0.2489475,-0.39747214,-0.28556025,0.06766976,-0.30743727,0.37526456,0.071307465,-0.05558293,-0.39667577,0.16993423,-0.03850533,-0.05293655,-0.16429232,0.17450322,0.45233506,0.06388886,0.094463274,-0.07018479,-0.084471725,0.2982912,-0.07164503,-0.22226703,-0.002662963,0.17384355,0.14525618,-0.0813392,
getEndpoint,-0.2300669,-0.27513957,0.13338682,0.3647202,0.17042904,-0.4386878,-0.300659,0.18152843,-0.32751477,0.30928,0.05365888,-0.12073328,-0.34320942,0.20727843,-0.077727154,-0.12081822,-0.12354866,0.22628953,0.44518897,0.07401882,0.12537311,0.059935186,-0.07837665,0.30376667,-0.14339972,-0.330738,-0.029523576,0.21221383,0.16031834,-0.1986946,
stop(),-0.39764866,-0.2740995,0.27653104,0.17809026,0.42917407,-0.43726653,-0.12836805,0.12990628,-0.5319069,0.3554684,0.20732607,-0.001696344,-0.436647,0.21322028,0.015714666,-0.20571214,-0.12638608,0.1608999,0.5778796,0.10616662,0.21729681,-0.20420259,-0.40991536,0.16480882,-0.09916022,-0.21785712,-0.045066673,0.13020237,0.14339525,0.02460057,
log(),-0.27011818,-0.28916445,0.16245595,0.296566,0.27449787,-0.43759495,-0.14374994,0.17871466,-0.40926847,0.3185084,0.12917265,-0.052064445,-0.34080744,0.19106242,-0.0026746185,-0.18812671,-0.11272043,0.19981055,0.5422404,0.12766936,0.21637575,-0.037453867,-0.2616635,0.27122995,-0.09088102,-0.26031274,-0.04115923,0.18404324,0.15521869,-0.065689094,
endpointUri,-0.27717423,-0.3319159,0.22155854,0.33085445,0.13672951,-0.4308782,-0.42152643,0.09830345,-0.28584874,0.33367148,0.028370585,-0.10127857,-0.3737028,0.18125066,-0.070928976,0.038686268,-0.15163992,0.14753439,0.48639226,0.075437166,0.052593518,0.01891395,0.0134048015,0.37814796,-0.09424056,-0.20780526,0.023479277,0.21801557,0.17215416,-0.14263812,
entrySet(),-0.42513055,-0.49240464,0.36700612,0.33748993,0.31709185,-0.4800672,-0.6595168,-0.073438644,-0.3501577,0.53346014,0.08280665,-0.06655183,-0.6081758,0.18251221,-0.122212835,0.34181702,-0.273901,0.073725685,0.5196073,0.0155329155,-0.05845845,-0.15721409,0.09511829,0.414125,0.03202132,-0.061304152,0.10231341,0.2108932,0.19017015,-0.01293783,
source,-0.3531295,-0.19479641,0.17535765,0.24246056,0.24384546,-0.39919457,-0.23897147,0.10692709,-0.3947254,0.3695429,0.14007914,-0.12581743,-0.45163143,0.2494857,-0.008166053,-0.09889719,-0.16488345,0.1596032,0.50696826,0.05198431,0.13680701,-0.14230405,-0.23647891,0.22488818,-0.030272894,-0.1718561,-0.014429225,0.16828655,0.12255542,0.047755413,
Expression,-0.3262574,-0.37267438,0.20547757,0.4990428,0.20051488,-0.47364256,-0.7034577,0.13349935,-0.3192079,0.43081373,0.046285164,-0.26236182,-0.5082448,0.41375393,-0.085829936,0.007343708,-0.29764146,0.34751347,0.2865059,0.04554992,0.07177001,0.018894985,0.040324703,0.31336772,-0.0577173,-0.40221545,-0.025691753,0.18058437,0.17586845,-0.16624154,
getLogger(),-0.28096288,-0.3031194,0.15769437,0.2910012,0.24783482,-0.41964093,-0.15265588,0.15653273,-0.3654043,0.33419207,0.1183444,-0.042852186,-0.35634,0.1508956,-0.057141718,-0.15010609,-0.092657045,0.19185457,0.5557633,0.13634586,0.20726252,-0.035343528,-0.24870607,0.29709017,-0.12332991,-0.25224844,-0.053233523,0.20475225,0.1356175,-0.0604779,
getProperty(),-0.36907694,-0.20436442,0.19021572,0.26825508,0.35309216,-0.43300352,-0.24246159,0.15189601,-0.5162505,0.38852146,0.19714753,-0.0802484,-0.49992606,0.31729817,0.03824961,-0.19130544,-0.2065157,0.18921226,0.515073,0.08984532,0.18023069,-0.1963233,-0.37211338,0.17010625,-0.07216386,-0.23414579,-0.04358517,0.12960148,0.08837656,0.044081505,
convertTo(),-0.32535192,-0.25876564,0.18868229,0.35336205,0.21711567,-0.4681984,-0.40081987,0.085409515,-0.3513288,0.42689967,0.089983985,-0.1307319,-0.45100805,0.308051,-0.058971275,-0.04485306,-0.19130342,0.20636463,0.43307364,0.04890198,0.11940407,-0.06714534,-0.08239406,0.33880708,-0.061821368,-0.25971124,0.008801071,0.20278755,0.12637901,-0.09175613,
matches(),-0.31336552,-0.29596645,0.16265552,0.36199364,0.22160088,-0.39791396,-0.39571178,0.15142268,-0.3740232,0.3780685,0.119371116,-0.18590981,-0.47183087,0.30417514,-0.0297846,-0.11738963,-0.21979183,0.25777805,0.43302006,0.057849493,0.12458349,-0.104059234,-0.16941178,0.2653678,-0.069190346,-0.2989125,-0.045426283,0.14859782,0.12999503,-0.046193615,
hasNext(),-0.49879724,-0.29817808,0.31041315,0.2872908,0.3674333,-0.4675898,-0.31356695,-0.01585993,-0.47591102,0.45716417,0.22387856,-0.048279118,-0.56428945,0.22941704,-0.018860437,0.037286066,-0.22828296,0.08709658,0.5720655,0.091511235,0.08604892,-0.230455,-0.27362806,0.2965565,0.013677264,-0.11853825,0.06543788,0.19374329,0.10452742,0.098119706,
next(),-0.4542436,-0.25306618,0.2705965,0.25558677,0.35166007,-0.434458,-0.27815592,0.0020453224,-0.45616156,0.44807202,0.19287626,-0.036891557,-0.54300785,0.21844763,-0.037192427,-0.034612134,-0.18633083,0.11164082,0.5649865,0.09579795,0.09879924,-0.21415323,-0.2854969,0.27375755,-0.028072271,-0.15972255,0.05126799,0.17951433,0.10571027,0.07255182,
startsWith(),-0.3934937,-0.15297183,0.17513712,0.1621131,0.33330682,-0.44968477,-0.19867642,0.046139542,-0.4893055,0.35473374,0.17887686,-0.05702841,-0.46162924,0.23937942,-0.012110546,-0.1298502,-0.17315586,0.114840224,0.56337446,0.10035723,0.123820886,-0.23602122,-0.3189392,0.21271048,-0.051109772,-0.16987716,-0.004178813,0.17461883,0.07829935,0.11621968,
remaining,-0.0780798,-0.36242542,0.15106583,0.46477282,0.20441785,-0.52278876,-0.42848653,0.13822691,-0.3030152,0.38429216,-0.07278892,0.015912024,-0.27850017,0.123594664,-0.1424893,0.05973419,-0.07854849,0.20360754,0.47195673,0.0888874,0.09025446,0.16785903,0.13455623,0.4627713,-0.16092509,-0.29484478,-0.025033917,0.28421652,0.16524379,-0.32237574,
URI,-0.27616525,-0.28234822,0.23000146,0.3313458,0.18010302,-0.4582112,-0.43656102,0.113138266,-0.35885456,0.38859704,0.041355547,-0.08032667,-0.42996252,0.19471484,-0.071833424,0.098175265,-0.19019039,0.13491209,0.52068985,0.03897819,0.061486635,-0.017926289,-0.020816464,0.36370105,-0.080343,-0.17520025,0.0015223394,0.22900678,0.15250996,-0.10591732,
doStart(),-0.34513164,-0.2721039,0.25060713,0.17114794,0.34780183,-0.41176715,-0.15403563,0.20445175,-0.5292947,0.3292948,0.21496631,-0.047402672,-0.39722213,0.24042217,0.029063875,-0.27239758,-0.08596715,0.1994501,0.620074,0.0955369,0.2534371,-0.13563347,-0.3942555,0.16071628,-0.13237141,-0.24828075,-0.038415056,0.14447401,0.11892939,-0.022901,
getKey(),-0.4961623,-0.404039,0.3244348,0.2866069,0.31079173,-0.47246945,-0.53790295,-0.039385702,-0.40379146,0.50696117,0.12532291,-0.08449476,-0.5608638,0.23416246,-0.112688825,0.23298979,-0.26204425,0.050835796,0.51426667,0.0049455236,0.009910497,-0.21720903,-0.058665536,0.39067242,0.010786474,-0.10425455,0.10523124,0.19702491,0.16620624,0.04396518,
isEmpty(),-0.41124153,-0.2810497,0.27043608,0.25004572,0.29521453,-0.4358368,-0.33783102,0.083238155,-0.41369665,0.41544405,0.1367267,-0.12421555,-0.49567664,0.25932744,-0.05411244,-0.017112039,-0.23177296,0.12615918,0.54955536,0.0708288,0.11213598,-0.21316332,-0.20243077,0.2853937,-0.023212694,-0.15845087,0.016519263,0.1910867,0.1390039,0.07362578,
endpoints,-0.32735366,-0.3723589,0.2361021,0.33472258,0.19876632,-0.45920867,-0.37958393,0.04720556,-0.27812475,0.39072236,0.06193394,-0.08757186,-0.439942,0.15706004,-0.100847594,0.08237382,-0.15504977,0.12926877,0.539134,0.03708245,0.049447197,-0.048951425,-0.016412737,0.40159318,-0.029586324,-0.1449129,0.069468416,0.20774907,0.18384114,-0.07245412,
close(),-0.3822285,-0.24624002,0.2449888,0.16402456,0.40959194,-0.39310694,-0.1020795,0.14927033,-0.5042167,0.34622234,0.2355584,0.009722805,-0.4518485,0.16475257,0.033384826,-0.24928248,-0.14062025,0.1416794,0.56711847,0.0871349,0.21672586,-0.23646568,-0.41262174,0.11633057,-0.06906588,-0.1981835,-0.031800106,0.13434158,0.1098448,0.04315351,
remove(),-0.28596857,-0.23241492,0.17925613,0.25764635,0.24055173,-0.47158822,-0.21574935,0.14105883,-0.39988193,0.35089695,0.112524636,-0.046368945,-0.39764813,0.18226452,-0.054007646,-0.10970955,-0.14228484,0.15131703,0.53763545,0.115256436,0.1448296,-0.08438209,-0.2132723,0.27386892,-0.10978136,-0.21410632,-0.02963861,0.21381745,0.13015307,-0.045361985,
getPort(),-0.28713873,-0.21649352,0.17857993,0.23130646,0.27724764,-0.41216138,-0.21483363,0.1356176,-0.4192274,0.3506003,0.14140448,-0.035986077,-0.3900329,0.19997115,-0.041179314,-0.13122284,-0.15327393,0.15157965,0.5024337,0.10476269,0.14670455,-0.124992624,-0.2501945,0.2285704,-0.07205491,-0.19704233,-0.03569265,0.17933138,0.12249826,-0.019682221,
org.apache.camel.component.jms,-0.17139277,-0.3695491,0.17424266,0.3598227,0.21149449,-0.38787386,-0.16717283,0.09379285,-0.19928096,0.30062816,0.030994795,0.03464564,-0.28782207,0.052682556,-0.07287794,-0.05311169,-0.07045749,0.1269902,0.5192099,0.13356294,0.110595554,0.05516183,-0.016800728,0.37926424,-0.13077308,-0.19861992,-0.0018015921,0.2568212,0.16150564,-0.19608174,
org.apache.camel.processor,-0.11471454,-0.3079875,0.13334899,0.36319897,0.12598379,-0.36328322,-0.160073,0.109671965,-0.16986805,0.272616,0.014798993,0.04050444,-0.25386268,0.040185288,-0.09776968,-0.056487806,-0.052030683,0.13431606,0.4780405,0.12871923,0.113469884,0.06309022,0.026938153,0.38375163,-0.12414975,-0.17738903,0.0017632195,0.22303952,0.18572251,-0.18479025,
org.apache.camel.util,-0.1661699,-0.28059486,0.12362248,0.3135834,0.16763525,-0.3614062,-0.16062066,0.10078436,-0.22513194,0.30060694,0.036658324,0.011493828,-0.29939649,0.09377339,-0.06579618,-0.091670595,-0.07858468,0.14707342,0.41820103,0.105340764,0.12402685,0.030287921,-0.06647055,0.30678046,-0.10767125,-0.2097708,-0.004896185,0.21731608,0.1243335,-0.14849915,
getExchange,-0.24148497,-0.26443228,0.15522951,0.3595648,0.20337154,-0.4334086,-0.33897498,0.16712463,-0.3675484,0.33099908,0.06655379,-0.122056805,-0.3696861,0.26143703,-0.043471076,-0.1403488,-0.17114149,0.24841547,0.37247828,0.09261621,0.13863504,-0.002602957,-0.11388182,0.2710388,-0.10641583,-0.29173714,-0.045799825,0.18133365,0.1453572,-0.12955014,
error(),-0.4312834,-0.20957373,0.2022552,0.18680309,0.48437098,-0.49352336,0.047804162,0.11880917,-0.5921801,0.36101788,0.3078037,-0.0012251064,-0.4674631,0.1797653,0.09986767,-0.31142637,-0.15574066,0.164122,0.6451447,0.120053776,0.27624732,-0.27188924,-0.5442021,0.17256424,-0.054928053,-0.20279504,-0.05131263,0.1350139,0.13272282,0.11148058,
ValueBuilder,-0.20589818,-0.317737,0.13786903,0.43431973,0.16719908,-0.44914395,-0.40523362,0.10990974,-0.2628551,0.3900955,0.023361595,-0.087563656,-0.3647859,0.23635493,-0.08779013,-0.019335603,-0.17115363,0.23198792,0.35615638,0.07019744,0.12079604,0.08664042,0.05840673,0.38792437,-0.09699753,-0.3079022,-0.028922603,0.22579564,0.16637523,-0.19792564,
parent,-0.2644347,-0.3292232,0.18942773,0.3531288,0.22173251,-0.4458185,-0.3450698,0.114451624,-0.3059996,0.35964075,0.041085757,-0.07680427,-0.4017196,0.17581427,-0.07131671,-0.019577434,-0.12794094,0.15254726,0.5024862,0.069186024,0.08215572,-0.032043412,-0.02714613,0.36755422,-0.0660809,-0.21439503,0.004510723,0.21119848,0.14233662,-0.1474622,
getBinding,-0.2087819,-0.2581054,0.126345,0.38162678,0.22188196,-0.47799474,-0.16194217,0.17714475,-0.3195577,0.31152827,0.05387724,-0.056773104,-0.2553009,0.18735345,-0.032259967,-0.21078697,-0.05908859,0.27910167,0.4329569,0.14484173,0.16381064,0.054164935,-0.11800119,0.29339787,-0.17393394,-0.3278211,-0.045348316,0.2110315,0.15133618,-0.22382341,
send(),-0.19659163,-0.3786216,0.16837363,0.3953988,0.18519437,-0.44362995,-0.34235132,0.14153916,-0.284406,0.34599602,0.05069541,-0.07692567,-0.36008343,0.15935557,-0.09005603,-0.10775776,-0.082845114,0.25680283,0.43415055,0.09782975,0.13516815,0.0414644,-0.03042327,0.35662794,-0.17732547,-0.34884357,-0.008848224,0.21064754,0.19244054,-0.21992302,
getOut,-0.09190367,-0.36148092,0.11572721,0.5356644,0.1554068,-0.47771662,-0.065602936,0.14945073,-0.18298808,0.2843886,-0.044083674,0.029373983,-0.2118951,0.09090424,-0.11666598,-0.22801238,0.029350389,0.35180873,0.42783612,0.19937085,0.20760415,0.16022155,0.053122044,0.44608518,-0.2229132,-0.40273985,-0.09886775,0.2972197,0.20492214,-0.31302288,
text,-0.23409429,-0.27335623,0.14133176,0.36227077,0.22811548,-0.4054085,-0.23759422,0.121325426,-0.29346502,0.32608455,0.10849225,-0.055925693,-0.35719553,0.1710968,-0.03421431,-0.13626301,-0.11526511,0.20263661,0.45764223,0.104113705,0.1312276,-0.03652298,-0.111981586,0.29956955,-0.09702401,-0.2749621,-0.030624188,0.2052386,0.1412026,-0.12739263,
createProcessor,-0.31632566,-0.30100316,0.21021755,0.30405366,0.22204794,-0.41038743,-0.32059756,0.1346115,-0.35048068,0.36209282,0.11622046,-0.12185962,-0.41380176,0.22768107,-0.04181817,-0.03856923,-0.17674597,0.15179822,0.47414818,0.04983156,0.09394901,-0.081703216,-0.12103678,0.28593716,-0.028762655,-0.21217582,0.017493289,0.16490394,0.13905975,-0.042785875,
file,-0.23411788,-0.24732208,0.1687632,0.25084302,0.2750416,-0.3772081,-0.12733611,0.14747377,-0.36666766,0.28447783,0.13993526,-0.003172966,-0.35510466,0.15803468,0.01581212,-0.16503613,-0.10088978,0.17148885,0.4920077,0.10269395,0.17172234,-0.075222865,-0.21128114,0.21734391,-0.08583218,-0.19996652,-0.046696205,0.17419784,0.13061838,-0.050778013,
consumer,-0.2589552,-0.24076511,0.17440227,0.2411182,0.2682032,-0.42125875,-0.11049203,0.15193324,-0.35387632,0.30155134,0.10237038,-0.0028390135,-0.32738227,0.13536043,-0.04474429,-0.15513007,-0.09869196,0.1336539,0.55856216,0.1263851,0.15213448,-0.07739108,-0.20518222,0.26766473,-0.10709648,-0.1936293,-0.035702337,0.19028981,0.15097825,-0.057961244,
logMessage(),-0.42643327,-0.18429172,0.10552543,0.21295923,0.48985508,-0.5382006,0.16197382,0.065297864,-0.6167394,0.3796574,0.33867145,0.041477483,-0.45962664,0.18223518,0.08937994,-0.37873253,-0.14014436,0.22502775,0.66023815,0.17166154,0.31348056,-0.26207116,-0.60943323,0.22268547,-0.06780829,-0.23331867,-0.06050284,0.14156483,0.12003832,0.106333286,
builder,-0.18768172,-0.27895913,0.1426261,0.33244216,0.13829185,-0.39231515,-0.19510359,0.117853545,-0.22880323,0.2798673,0.049345765,-0.039631154,-0.32438162,0.103424326,-0.07830767,-0.07931305,-0.09040074,0.1591655,0.50625134,0.085526794,0.10838197,0.038929377,-0.036750957,0.36309522,-0.0844379,-0.1646946,-0.0022877986,0.22024943,0.1560001,-0.1347947,
body,-0.09325055,-0.33551672,0.104640454,0.3985004,0.19790712,-0.40987012,-0.18580876,0.09556651,-0.21339375,0.3132741,0.020967597,0.038524467,-0.25565886,0.079765536,-0.06118519,-0.10187649,-0.06532772,0.24056092,0.4135849,0.1394423,0.12995349,0.089525014,-0.009193891,0.36491835,-0.17802617,-0.28512287,-0.047359765,0.19857629,0.17148565,-0.25383508,
Processor,-0.26133016,-0.42483616,0.20607822,0.41694978,0.1902274,-0.4575221,-0.49858224,0.13476533,-0.32055336,0.3907964,0.043216355,-0.12537818,-0.44850463,0.24779594,-0.063887276,-0.029355299,-0.19171008,0.3015797,0.39198783,0.08196381,0.10295836,0.0135971345,0.0036613727,0.34999636,-0.12239445,-0.35701132,-0.02593436,0.196583,0.16974692,-0.16496012,
setHeader(),-0.36104077,-0.28204268,0.20832144,0.30991587,0.2606427,-0.45239425,-0.36828232,0.116026185,-0.44564283,0.42120233,0.13663752,-0.12679218,-0.49577454,0.2988378,-0.025620697,-0.036441382,-0.1948939,0.21678296,0.44469094,0.031147256,0.1043306,-0.13244574,-0.19912374,0.2607969,-0.07288484,-0.24538666,-0.019366251,0.17411914,0.12665705,-0.0010868518,
convertTo,-0.26334348,-0.28747556,0.16852495,0.35802686,0.21551122,-0.45154083,-0.3297046,0.10921184,-0.32647297,0.38235837,0.03937737,-0.101921365,-0.3945584,0.20920359,-0.06047671,-0.07307036,-0.1488316,0.20977132,0.42762232,0.107916854,0.13551909,-0.006097476,-0.081736974,0.31054634,-0.066964574,-0.24845004,-0.028361673,0.1880329,0.12728351,-0.115097836,
activityRules,-0.32752374,-0.18294354,0.14435236,0.23292664,0.18353684,-0.41475058,-0.3036738,0.1461827,-0.37957257,0.30805278,0.1073827,-0.1485661,-0.38913402,0.25174236,-0.05606403,-0.08497538,-0.15343806,0.17030008,0.4515456,0.06540269,0.13133375,-0.071825154,-0.17481603,0.26010418,-0.03092464,-0.20891972,0.017100254,0.17495868,0.1306783,-0.008992125,
template,-0.20782141,-0.29256806,0.15102442,0.3325795,0.17020382,-0.4077708,-0.24267823,0.09522613,-0.2828846,0.32596788,0.06906654,-0.032733943,-0.3254264,0.14273608,-0.07391804,-0.058148123,-0.11599739,0.17613648,0.4670568,0.095945574,0.12263887,-0.013692218,-0.07063503,0.3130442,-0.12011682,-0.2143844,0.009645091,0.19688855,0.15852498,-0.118738435,
key,-0.23590274,-0.24152668,0.14407718,0.3037681,0.20699546,-0.40702188,-0.21889949,0.13265955,-0.30688635,0.32638678,0.1009914,-0.04226894,-0.34841353,0.18124399,-0.018691452,-0.10957038,-0.11318335,0.1817504,0.4242143,0.092793465,0.14202873,-0.012586003,-0.1485771,0.26496917,-0.09758572,-0.20283283,-0.023530455,0.19166975,0.11868157,-0.11032124,
predicate,-0.21309654,-0.29763433,0.16158877,0.33459336,0.205352,-0.416398,-0.32768643,0.11825193,-0.29917195,0.38023838,0.057010293,-0.07516664,-0.36274207,0.18157575,-0.07087279,-0.037567437,-0.14869015,0.16514164,0.44123492,0.069731444,0.10508418,-0.0007883205,-0.039764833,0.3578294,-0.05369169,-0.24240579,-0.01543332,0.20369783,0.13956764,-0.14425217,
getHeader(),-0.379816,-0.1824374,0.17687975,0.2614785,0.3078883,-0.43016297,-0.3169739,0.12555183,-0.48245838,0.39893478,0.17026094,-0.1670838,-0.47614998,0.33174074,0.0226419,-0.13767675,-0.24431412,0.21667841,0.44188416,0.061296593,0.14527991,-0.19296667,-0.31511307,0.18953982,-0.050637856,-0.24109966,-0.027190529,0.13576058,0.087066524,0.04670322,
addProcessBuilder(),-0.20190258,-0.32487884,0.17986275,0.35313982,0.21908242,-0.44180313,-0.31362495,0.105232924,-0.31192237,0.3604556,0.071324565,-0.062070195,-0.37622672,0.17292553,-0.056635384,-0.02545929,-0.124921404,0.20089717,0.44710857,0.06900793,0.119124964,0.022495652,-0.015995871,0.3435489,-0.07869727,-0.27824244,-0.0107580125,0.21869425,0.14177145,-0.1885282,
getHost(),-0.30196247,-0.2241691,0.17056644,0.25809324,0.25545102,-0.39436188,-0.24170284,0.11786407,-0.42414314,0.3717337,0.14264707,-0.079767965,-0.4033891,0.21226926,-0.03154154,-0.13595648,-0.18580721,0.16175698,0.47442898,0.07238457,0.12110716,-0.13064642,-0.20647159,0.21040128,-0.05776795,-0.22216803,-0.045737945,0.15406576,0.104268506,0.0008578871,
applicationContext,-0.18867059,-0.26482248,0.12952694,0.32577673,0.18617654,-0.39430475,-0.20614573,0.12510476,-0.29085827,0.32399294,0.041577846,-0.015066518,-0.31516382,0.1384408,-0.07326739,-0.07651155,-0.09912791,0.18472077,0.4529958,0.07995699,0.13416855,0.02256865,-0.09111568,0.3079962,-0.08698181,-0.22320625,-0.0145846065,0.20457485,0.15033813,-0.14542776,
println(),-0.2677672,-0.25086534,0.15163729,0.24071853,0.2788701,-0.4095287,-0.040308926,0.03141741,-0.36884,0.3204623,0.13165967,0.061208904,-0.32948026,0.059430797,-0.06971815,-0.12955518,-0.058881555,0.13363604,0.54966706,0.12282914,0.18994357,-0.10631539,-0.18194753,0.30749694,-0.09992515,-0.16540846,0.00650959,0.20103,0.12106221,-0.062799916,
createProcessor(),-0.31818026,-0.275599,0.20435812,0.2450026,0.2712414,-0.40584955,-0.329175,0.1012024,-0.36984447,0.38183975,0.13880682,-0.10214668,-0.43046156,0.22237222,-0.04463481,-0.060109884,-0.17582774,0.16754512,0.47422865,0.06397917,0.08161989,-0.14697671,-0.1717731,0.2521324,-0.04330872,-0.20139943,0.02186378,0.15018952,0.1341769,-0.009110107,
onNewPredicate(),-0.26975027,-0.35514706,0.18086326,0.54970944,0.13826609,-0.51872134,-0.46941796,0.11318094,-0.25759512,0.53120327,0.0068582897,-0.11027688,-0.4432755,0.2801064,-0.12112339,0.032732923,-0.16075642,0.22632255,0.46963778,0.11837511,0.13868357,0.02693107,0.10803,0.4868315,-0.09314581,-0.25258788,-0.027390145,0.27210438,0.14474057,-0.15493353,
CxfMessage,-0.10498013,-0.3025696,0.09162201,0.3380685,0.22647478,-0.47765854,-0.09440667,0.13007274,-0.30191752,0.279206,0.03555153,0.056016523,-0.22487257,0.092523836,-0.075104766,-0.23840034,-0.015546594,0.23259476,0.46671057,0.15687418,0.20100155,0.080536105,-0.07645674,0.33752456,-0.17789659,-0.3072653,-0.047003508,0.21999437,0.17320988,-0.2408974,
indexOf(),-0.4455379,-0.15943143,0.19133571,0.16931249,0.23394431,-0.40902948,-0.23794799,0.12088117,-0.48121202,0.34317914,0.19806555,-0.13860172,-0.49822533,0.27358034,-0.01276735,-0.09606612,-0.21601497,0.08384888,0.5750147,0.04363611,0.105047025,-0.22277984,-0.30184498,0.21622536,-0.014016917,-0.1190216,0.034353457,0.15271738,0.086310305,0.15118524,
invoke(),-0.30212572,-0.29027307,0.20896581,0.2527371,0.36226535,-0.36476597,-0.17929761,0.16476533,-0.42863584,0.3275965,0.18549445,-0.043596763,-0.41707757,0.21185134,0.052611966,-0.24887672,-0.14026043,0.19627684,0.4684392,0.07700695,0.17835447,-0.1533721,-0.31699288,0.12693428,-0.069192685,-0.2688808,-0.084979765,0.11892667,0.105945304,-0.04001683,
org.apache.camel.component.mail,-0.15017796,-0.34391937,0.1545021,0.36381894,0.18696208,-0.39429578,-0.12876761,0.13311735,-0.20519194,0.29496384,0.029517764,0.055657126,-0.25786957,0.07560968,-0.08305358,-0.10241027,-0.056047287,0.19035232,0.49924517,0.14537387,0.129274,0.08444289,-0.039898824,0.35615927,-0.16073728,-0.22016253,-0.035533514,0.25505185,0.18764085,-0.20503025,
getClassLoader(),-0.26562098,-0.24285357,0.16104032,0.26034677,0.2581521,-0.40410188,-0.18281001,0.13141349,-0.35889038,0.3268665,0.12232139,-0.018622892,-0.35731637,0.18521449,-0.011474827,-0.17591986,-0.11807494,0.16377494,0.47326937,0.08200365,0.1709028,-0.08283744,-0.2114346,0.22777413,-0.090105705,-0.22629462,-0.029121745,0.16564184,0.1350594,-0.06746959,
getParameterTypes(),-0.34062302,-0.23281148,0.20573495,0.25074065,0.23741835,-0.36519694,-0.31130382,0.06646596,-0.3643155,0.35570735,0.12984923,-0.103507236,-0.43673214,0.21092047,-0.021884691,-0.0067056115,-0.20939592,0.1272823,0.44435126,0.045665246,0.07549753,-0.14877926,-0.17576654,0.24876602,-0.011147152,-0.1486488,0.000945011,0.16397083,0.12023401,0.023738636,
copy,-0.16434132,-0.31839663,0.15672034,0.33580476,0.24302542,-0.38607544,-0.14380439,0.1656618,-0.2747402,0.2874839,0.09342144,0.013365697,-0.28087524,0.11869109,-0.013787378,-0.19257277,-0.06914663,0.18121907,0.4860799,0.13770542,0.16197,0.03556298,-0.14365445,0.29564878,-0.15401818,-0.25711367,-0.03971175,0.20764674,0.15594901,-0.18199977,
getMessage(),-0.17386207,-0.31148544,0.15305634,0.3702744,0.21338746,-0.44503474,-0.07150913,0.122996084,-0.3053806,0.3170488,0.049285892,0.026918856,-0.2793634,0.11146655,-0.07308657,-0.21515337,-0.03496393,0.23559107,0.49791887,0.15343156,0.18196979,0.04658845,-0.10887177,0.35112587,-0.16947673,-0.28884807,-0.052884627,0.22753727,0.17256202,-0.17568189,
getTypeConverter(),-0.31008926,-0.25972158,0.15221314,0.3167507,0.25036412,-0.45180756,-0.3245106,0.10230259,-0.38225052,0.37035522,0.09664569,-0.09103075,-0.40319777,0.26716384,-0.03676154,-0.10120405,-0.1825601,0.20806542,0.43937996,0.080666095,0.13461062,-0.052785296,-0.16198185,0.2743807,-0.07063261,-0.22875033,0.0031933936,0.18231355,0.13867842,-0.060726535,
regex,-0.19334233,-0.3521803,0.16310045,0.49518725,0.21449669,-0.48128375,-0.36526823,0.12426925,-0.26834136,0.40843776,0.022865735,-0.057018127,-0.37118378,0.21412393,-0.080366366,-0.07120865,-0.13030194,0.25468126,0.42232358,0.122221455,0.1468274,0.07031173,0.0087836925,0.4085765,-0.11164792,-0.33251035,-0.044254534,0.23857933,0.1821295,-0.22612248,
left,-0.17398767,-0.3167303,0.1071831,0.44613862,0.12129061,-0.4718395,-0.30147654,0.1835093,-0.27078184,0.33502614,0.008112791,-0.055326372,-0.332709,0.17981699,-0.075218596,-0.08863163,-0.10876817,0.24807,0.4239318,0.101857334,0.14766103,0.102393635,0.013590652,0.38344157,-0.1109609,-0.30219844,-0.024859048,0.235019,0.15122357,-0.19856502,
right,-0.19160013,-0.29101694,0.13580719,0.4414753,0.12142777,-0.43395346,-0.32023934,0.17253815,-0.27545762,0.32818058,0.016084773,-0.12530176,-0.33279485,0.22192986,-0.081628,-0.11898827,-0.11889803,0.23738,0.4451716,0.1090769,0.1480573,0.061314162,-0.008518315,0.36045635,-0.1091985,-0.29495034,-0.026766682,0.23711242,0.14332762,-0.19218957,
parse(),-0.21666591,-0.26150253,0.17991596,0.2865167,0.23405112,-0.40279257,-0.18862076,0.12704493,-0.30854586,0.31821504,0.103059374,-0.0016289514,-0.34427625,0.14992315,-0.050295085,-0.14262168,-0.0919035,0.18882526,0.48108372,0.11332038,0.15499291,-0.02451541,-0.16738512,0.27228153,-0.09781319,-0.22884297,-0.02189115,0.19424841,0.15424432,-0.115455076,
map,-0.20120375,-0.3225021,0.19197051,0.32855588,0.2907353,-0.42967966,-0.2683635,0.10192838,-0.31858832,0.34834465,0.0977584,0.025249796,-0.35552993,0.13928059,-0.013311906,-0.089074686,-0.13604417,0.1745372,0.4437078,0.08773899,0.13118319,-0.024835322,-0.10778726,0.282195,-0.11562458,-0.23763983,-0.023770504,0.19317159,0.15547122,-0.14124472,
element,-0.24967077,-0.2624089,0.18282963,0.2933856,0.22160223,-0.37053195,-0.22636028,0.095912136,-0.2738899,0.31196412,0.072272055,-0.018404275,-0.3417443,0.15595116,-0.047676116,-0.06371798,-0.10927892,0.12821084,0.45858636,0.09382167,0.10395625,-0.032370593,-0.10175738,0.27880058,-0.0829612,-0.18369931,-0.017672079,0.17712934,0.123180635,-0.07526654,
org.apache.camel.component.cxf,-0.11258311,-0.36224025,0.15160607,0.37532175,0.21785337,-0.39295653,-0.1578702,0.08773619,-0.18983112,0.2996577,0.034044847,0.09080972,-0.24456902,0.048562307,-0.08493951,-0.1242182,-0.04148521,0.19818182,0.47097248,0.12711246,0.15277739,0.09844689,-0.011913642,0.34605274,-0.17097817,-0.25166294,-0.023919899,0.23952433,0.17585887,-0.242421,
setIn(),-0.15011963,-0.2809372,0.13590012,0.3281824,0.18882588,-0.4444598,-0.10452351,0.13604379,-0.28044295,0.2847684,0.029581435,0.031688925,-0.24775791,0.11461079,-0.061190765,-0.21404004,-0.0056667677,0.22048193,0.46604148,0.15119062,0.19286487,0.08490147,-0.11519831,0.3082009,-0.1947693,-0.28408608,-0.041172132,0.1993531,0.15435469,-0.20390907,
camelContext,-0.19726059,-0.254753,0.1310542,0.30407983,0.19316311,-0.38445097,-0.20958693,0.12574714,-0.29002956,0.28643638,0.05896019,-0.0067045074,-0.28514355,0.13426258,-0.056193475,-0.11366794,-0.080404244,0.17438586,0.417863,0.09127805,0.14036822,0.018046502,-0.075247236,0.30753264,-0.09544733,-0.22559299,-0.017252207,0.17937008,0.14924724,-0.15710029,
setProperties(),-0.25273746,-0.19031873,0.14622992,0.2345685,0.1740622,-0.4175017,-0.18599528,0.15123115,-0.35236728,0.28542653,0.10689874,-0.050539564,-0.35574028,0.19666287,-0.034182694,-0.113439746,-0.10147982,0.17067264,0.5260443,0.0775402,0.1504775,-0.04646266,-0.17516029,0.25932595,-0.12163331,-0.17907473,-0.02273383,0.17368554,0.11636381,-0.047375742,
org.apache.camel.spring.xml,-0.12642609,-0.2627211,0.1222858,0.30491525,0.17136474,-0.35019496,-0.147234,0.08549392,-0.20945394,0.25693205,0.033723213,0.031133683,-0.24336836,0.06755779,-0.049633462,-0.08936341,-0.050463296,0.17016008,0.39471623,0.11688178,0.13481827,0.024883803,-0.03543552,0.26649854,-0.1107838,-0.18812443,-0.023903843,0.1687697,0.13330133,-0.14873831,
getContext,-0.23655237,-0.27599323,0.15379322,0.33953655,0.22971892,-0.4506343,-0.22932288,0.15940978,-0.3170946,0.31744072,0.05123324,-0.05363902,-0.31583884,0.16187043,-0.034365084,-0.13507167,-0.10320725,0.21445282,0.45729232,0.11461537,0.13831732,0.025290187,-0.10278606,0.3153276,-0.122397706,-0.25184423,-0.022428256,0.18782733,0.14451945,-0.13936335,
setBody,-0.07775548,-0.33203828,0.090153724,0.42789242,0.19564004,-0.44828796,-0.07381424,0.1106245,-0.17178383,0.30016762,0.0046898145,0.09282662,-0.22134838,0.038630378,-0.07491785,-0.19548038,-0.0022203485,0.24893892,0.433028,0.18630162,0.17282487,0.13019468,-0.033324186,0.38523456,-0.19003795,-0.32823983,-0.06450464,0.25808704,0.1758484,-0.27966192,
setProperty(),-0.25708717,-0.31296068,0.1981918,0.3451626,0.2530589,-0.4277122,-0.28561866,0.09806957,-0.33144352,0.37061152,0.07447044,-0.03128807,-0.37603822,0.17692071,-0.05582444,-0.06892269,-0.12409045,0.1849335,0.45630515,0.10129661,0.13021535,-0.027239561,-0.09185771,0.3195667,-0.10884509,-0.24622783,-0.011034134,0.21685931,0.14393242,-0.11295487,
target,-0.3011726,-0.2345845,0.18775423,0.2542142,0.22873762,-0.40058434,-0.23514798,0.122200176,-0.3833195,0.32900903,0.124180324,-0.100460485,-0.40765435,0.21466829,-0.0401083,-0.10154575,-0.14508969,0.15870634,0.48868224,0.06372498,0.11480854,-0.113618374,-0.18472499,0.25279748,-0.066593744,-0.17056708,-0.024259876,0.16745982,0.115073204,0.00712292,
getHeaders(),-0.2608454,-0.37039405,0.21548979,0.38421085,0.27133283,-0.43991962,-0.37729144,0.06905606,-0.319631,0.39132988,0.05805985,-0.041200694,-0.40342212,0.16462322,-0.07669612,-0.0071216673,-0.16796415,0.22890833,0.42777422,0.08517578,0.10831145,-0.029145902,-0.02131322,0.3492603,-0.10530539,-0.2690279,0.0036500061,0.21876921,0.16654763,-0.15577586,
org.apache.camel.builder.xml,-0.1101827,-0.30228892,0.14020433,0.362839,0.18597427,-0.37855396,-0.10141257,0.067861535,-0.18671373,0.25842753,0.044748135,0.0940468,-0.24104941,0.03359281,-0.06891595,-0.108597174,-0.024862876,0.16704041,0.43638107,0.12120979,0.12710227,0.059255023,-0.019486623,0.3201511,-0.13930407,-0.20825665,-0.055531334,0.23643231,0.14926131,-0.22824067,
getLength(),-0.30967152,-0.26940906,0.21605957,0.25190198,0.1860559,-0.3713486,-0.288106,0.0624888,-0.31990334,0.34904397,0.118504465,-0.064987406,-0.41675633,0.17176914,-0.06271081,0.022866225,-0.15573557,0.1024271,0.47181788,0.03324895,0.080928564,-0.121749595,-0.12946422,0.2752028,-0.008229155,-0.07835902,0.034394644,0.1873052,0.11200575,0.025165077,
getPath(),-0.23836099,-0.26166874,0.16757978,0.26737428,0.24121691,-0.39898545,-0.1648282,0.11557408,-0.32826042,0.33440748,0.112794064,0.011009377,-0.3538099,0.14940128,-0.043314423,-0.14488941,-0.120748356,0.17147313,0.50426173,0.11749605,0.15678494,-0.062372617,-0.20081486,0.28260398,-0.12274099,-0.21289852,-0.027227929,0.19768143,0.13621174,-0.053301156,
isAssignableFrom(),-0.34920442,-0.25230333,0.22318032,0.22948878,0.3334506,-0.3707522,-0.2160282,0.104870826,-0.39876854,0.37429067,0.15947433,-0.045627747,-0.41314092,0.19881919,-0.014158138,-0.11613088,-0.17171569,0.15088926,0.47058123,0.07231691,0.14186789,-0.15622929,-0.27115428,0.2027623,-0.038556196,-0.17163245,-0.017619299,0.15254423,0.10489193,0.034342844,
getComponent,-0.22969753,-0.19691548,0.11765167,0.30126318,0.13745002,-0.38794163,-0.15301271,0.18510546,-0.29027897,0.27725387,0.089546636,-0.09086892,-0.31723955,0.2113789,-0.057330854,-0.18649721,-0.110553905,0.1915483,0.46184546,0.09276572,0.1483824,0.015208831,-0.15811674,0.27248725,-0.10398548,-0.24204068,-0.030604955,0.20086983,0.13909054,-0.085501246,
routes,-0.22355026,-0.28847623,0.17865676,0.27407485,0.21169913,-0.39390197,-0.19558613,0.08831773,-0.27203643,0.29768887,0.07400776,0.007192941,-0.3278279,0.12786561,-0.073980495,-0.067232385,-0.096519604,0.14393972,0.4750657,0.08221256,0.12909973,-0.051929787,-0.08313594,0.31420168,-0.079869345,-0.15386333,-0.0068392986,0.1848588,0.14241938,-0.09096582,
getHeader,-0.21663736,-0.27335423,0.13045503,0.35794094,0.28192443,-0.4456073,-0.20510189,0.1197583,-0.3381455,0.3475272,0.0856338,0.0015492658,-0.35215217,0.16661772,-0.033411123,-0.16393946,-0.13986523,0.20501104,0.44753858,0.13084297,0.16317512,0.0008563937,-0.16147378,0.2953345,-0.12672621,-0.289729,-0.068371184,0.20389773,0.118474804,-0.14370355,
transactionTemplate,-0.19977193,-0.27440146,0.1627435,0.29160336,0.1674836,-0.3933641,-0.23271659,0.08181815,-0.24648072,0.31067824,0.041499063,0.0033308766,-0.32321405,0.11197698,-0.075502284,-0.03366626,-0.10642096,0.15479311,0.45232812,0.07946473,0.11191784,0.0075417347,-0.036287706,0.32135576,-0.11122174,-0.19700433,-0.0015603706,0.18632402,0.1533553,-0.14240572,
HashSet,-0.20178275,-0.27145573,0.13623323,0.29992768,0.20274991,-0.37799454,-0.2055283,0.07105169,-0.2573744,0.297524,0.08032407,-0.003177953,-0.3079577,0.12366592,-0.0632716,-0.06300605,-0.12110869,0.1483063,0.43030506,0.09776475,0.11911252,-0.02534717,-0.09031848,0.28842068,-0.07876418,-0.20998268,-0.0017087846,0.1770479,0.13963625,-0.10301335,
run,-0.34517857,-0.27891296,0.23751803,0.20862089,0.26606354,-0.40065157,-0.25291935,0.13399445,-0.4315268,0.34110257,0.16284196,-0.07088483,-0.4223285,0.18601397,-0.013606267,-0.10772464,-0.15495886,0.1176726,0.53531194,0.088252746,0.13225387,-0.13769302,-0.23135462,0.22340293,-0.06074254,-0.18669634,-0.008952782,0.16214265,0.14462273,-0.017629435,
currentTimeMillis(),-0.41609755,-0.23118465,0.25928676,0.19440648,0.23418707,-0.38961628,-0.2861512,0.10959732,-0.39954326,0.339152,0.17809063,-0.13271013,-0.48629907,0.20740397,-0.050648693,-0.001886154,-0.1773013,0.060430743,0.5748434,0.017368875,0.09887134,-0.18594395,-0.23255771,0.25537783,-0.02444607,-0.07652644,0.05581621,0.18791142,0.13095702,0.085245565,
BinaryPredicateSupport,-0.19514276,-0.3133656,0.11102383,0.4240484,0.111745745,-0.44650438,-0.26911414,0.16807036,-0.25992012,0.30741832,0.021687893,-0.09027044,-0.34814012,0.1873592,-0.064244166,-0.08937248,-0.11599977,0.22439405,0.454623,0.10629683,0.15290861,0.06454239,-0.026274292,0.3516572,-0.13064645,-0.28954428,-0.013719915,0.25110805,0.14966153,-0.18386318,
leftValue,-0.1751546,-0.31256723,0.14495537,0.4381806,0.124460824,-0.43278423,-0.28919828,0.16169818,-0.26554003,0.3194943,0.049110316,-0.059011485,-0.3454213,0.17019716,-0.08774184,-0.10279059,-0.12044297,0.22872797,0.47529292,0.09706646,0.15286711,0.05290944,-0.022583352,0.3721197,-0.1070757,-0.30324653,-0.014576372,0.24400763,0.15180202,-0.18536404,
rightValue,-0.18054816,-0.31437936,0.10945276,0.41944402,0.122497715,-0.46417043,-0.23880853,0.16519317,-0.25672445,0.30651712,0.036721308,-0.05923027,-0.349287,0.16041802,-0.06376532,-0.12298013,-0.10555725,0.23032804,0.48569208,0.100417554,0.17594592,0.07087916,-0.016520344,0.3812526,-0.1378823,-0.30722553,-0.034021065,0.25338748,0.15833232,-0.18334338,
in,-0.13254298,-0.29832733,0.12208249,0.33376402,0.2617198,-0.43166995,-0.093532346,0.12564294,-0.26217273,0.29819673,0.0738391,0.07498957,-0.26409686,0.07303935,-0.040082797,-0.18192258,-0.027752133,0.20365267,0.45961502,0.15695362,0.17754288,0.044472173,-0.13957728,0.31250286,-0.15826248,-0.28625184,-0.06438182,0.20834401,0.15974665,-0.18720035,
xslt,-0.13815868,-0.316694,0.10895901,0.45879057,0.19953576,-0.49386355,-0.16437355,0.16921227,-0.2810603,0.35447437,-0.008504037,0.039702866,-0.30866462,0.120866604,-0.0761713,-0.18933775,-0.031351905,0.25867093,0.45166537,0.15072262,0.18533729,0.10547373,-0.052121617,0.37193432,-0.17482206,-0.31394064,-0.053245522,0.23998214,0.14492588,-0.23799776,
configuration,-0.17656955,-0.24747032,0.13711205,0.2825029,0.14431597,-0.43532813,-0.09967266,0.13880305,-0.28902686,0.26407692,0.05277695,0.018191425,-0.28638238,0.07389162,-0.09257211,-0.123155154,-0.023924788,0.14687343,0.5770062,0.12398351,0.15640922,0.043196134,-0.10461338,0.35195854,-0.17082079,-0.17652781,-0.032977946,0.23971811,0.16269985,-0.1512693,
inMessage,-0.17170735,-0.28268147,0.15079638,0.32653603,0.24189521,-0.47390205,-0.12201102,0.12263643,-0.2998922,0.3231783,0.081341885,0.02461102,-0.2704888,0.14211953,-0.05925925,-0.20990536,-0.070377,0.22610307,0.49131727,0.16125414,0.18666516,0.03243801,-0.14609115,0.31134734,-0.14829779,-0.3063633,-0.054366264,0.21886149,0.17187554,-0.19794077,
IllegalStateException,-0.28972742,-0.27332366,0.22024243,0.24232566,0.34634724,-0.40414217,-0.16201,0.09898014,-0.42071125,0.36597013,0.17427921,-0.00038643452,-0.40487158,0.1567154,0.0137069775,-0.19149336,-0.12883896,0.1921577,0.4887438,0.08826268,0.16787325,-0.14374201,-0.30235982,0.17704935,-0.10700967,-0.24847376,-0.03816053,0.13381071,0.13733277,-0.018704606,
org.apache.camel.component.http,-0.13431384,-0.31380007,0.15669414,0.33348688,0.20552701,-0.39821056,-0.10720451,0.092766955,-0.23131691,0.28281304,0.03601731,0.069532394,-0.26549947,0.061490923,-0.06419647,-0.15011436,-0.025308201,0.17172763,0.4495244,0.12651241,0.15218793,0.0584144,-0.085147284,0.34534413,-0.16263196,-0.23396559,-0.03427332,0.22452705,0.16376127,-0.18183137,
org.apache.camel.component.jbi,-0.15149148,-0.28582424,0.14032784,0.30803925,0.1944539,-0.36489823,-0.09262418,0.105482966,-0.21741979,0.29072955,0.033959236,0.06522655,-0.2589017,0.04398236,-0.06262421,-0.116428845,-0.051172026,0.16447502,0.43021065,0.11683625,0.1332196,0.026776023,-0.06995017,0.3307639,-0.12607354,-0.20372784,-0.033523705,0.22110894,0.15416102,-0.1759376,
JbiMessage,-0.111527726,-0.25854564,0.093858406,0.34099507,0.19574799,-0.41613078,-0.0316,0.12940663,-0.22646102,0.24787222,0.03966103,0.072631836,-0.20626362,0.06803464,-0.073780484,-0.20577045,0.018615687,0.20294973,0.4495481,0.14931248,0.2043525,0.06509927,-0.097722024,0.33660275,-0.15874162,-0.2576847,-0.04803327,0.20469157,0.1558514,-0.18565668,
JmsConfiguration,-0.16562033,-0.2405712,0.15683661,0.26729667,0.13100632,-0.34457654,-0.09010206,0.14305013,-0.24833351,0.23648645,0.07314224,-0.010053141,-0.28154728,0.08582375,-0.06262718,-0.11219981,-0.056820307,0.11560526,0.5373881,0.09401797,0.12229725,0.009902531,-0.09035794,0.32653883,-0.13930757,-0.13287593,-0.0033976103,0.22136714,0.16232108,-0.08842966,
pojo,-0.1850202,-0.30759227,0.16893378,0.31156218,0.2391537,-0.4026188,-0.19419916,0.13387638,-0.2689045,0.315199,0.07749466,-0.010724491,-0.30376396,0.11421838,-0.058537595,-0.15160662,-0.093175486,0.21437527,0.43059906,0.099530175,0.13363734,0.009960963,-0.11089455,0.28424546,-0.11948296,-0.25195813,-0.02498806,0.19214022,0.14397316,-0.17595695,
org.apache.camel.component.xmpp,-0.1199289,-0.3092873,0.12219165,0.3532881,0.1736503,-0.3693351,-0.08019612,0.10434201,-0.18813026,0.2712253,0.020874176,0.09194154,-0.23667057,0.0418286,-0.07624894,-0.12766121,-0.018884668,0.1891097,0.45321095,0.15769154,0.14934275,0.072792366,-0.038682893,0.344005,-0.15943441,-0.24872774,-0.025954837,0.23017368,0.16994633,-0.23299345,
org.apache.camel.impl.converter,-0.16562825,-0.3050731,0.120360464,0.3398604,0.18819584,-0.39532492,-0.12102477,0.10599394,-0.23897272,0.31263334,0.06425096,0.0319872,-0.28438547,0.09650955,-0.05866584,-0.13174807,-0.06080883,0.17739193,0.4353062,0.115200125,0.13852948,0.028235344,-0.055389196,0.3350919,-0.13067695,-0.22378898,-0.021685012,0.20398046,0.12809846,-0.16305017,
toType,-0.2952012,-0.21058391,0.16920078,0.2717202,0.25700212,-0.37629274,-0.25545081,0.09748298,-0.3756,0.365165,0.11272542,-0.08740192,-0.40805662,0.21340913,-0.010937688,-0.106629476,-0.15803291,0.1670493,0.44621652,0.07286846,0.12326897,-0.09082979,-0.20953792,0.22979333,-0.07013286,-0.20736071,-0.025851257,0.16129844,0.106371656,-0.021156603,
org.apache.camel.spi,-0.08842981,-0.26823607,0.08755358,0.34614736,0.17920251,-0.36495873,-0.023492185,0.08654222,-0.19353855,0.23170409,0.027307056,0.08233898,-0.19997762,0.026586343,-0.069225624,-0.17226174,0.006469771,0.17654921,0.41624618,0.15375337,0.16138582,0.07168773,-0.06961132,0.32552505,-0.17584725,-0.24335866,-0.035491955,0.22598471,0.14413138,-0.2292303,
bean,-0.21570948,-0.26321948,0.15499483,0.2928312,0.2105424,-0.38033333,-0.1651207,0.11461101,-0.26858547,0.29452652,0.07097268,-0.013677192,-0.30096924,0.13746195,-0.055128437,-0.08955126,-0.10594201,0.15430304,0.43825445,0.09849474,0.14971581,-0.031147659,-0.12589686,0.2829282,-0.101321146,-0.20079514,-0.004649065,0.18215783,0.10676975,-0.10900986,
clazz,-0.2652516,-0.22252525,0.16178259,0.25873604,0.23002592,-0.38633075,-0.24526344,0.07946999,-0.323919,0.3286737,0.093656,-0.06308279,-0.3796507,0.17833129,-0.048522912,-0.06375438,-0.15537126,0.12301961,0.44075024,0.07019924,0.11783579,-0.09409906,-0.11822615,0.2833915,-0.06637592,-0.16904657,0.00097634614,0.18266095,0.13033304,-0.03474751,
getLocalName(),-0.21530278,-0.26978782,0.1625583,0.25013417,0.24232472,-0.38263962,-0.18762799,0.08915491,-0.28598142,0.2920523,0.092629455,0.0025324891,-0.32563266,0.10375986,-0.04092998,-0.11937741,-0.1164024,0.1300094,0.42559883,0.07999527,0.13217789,-0.04091085,-0.13701646,0.26706704,-0.07334843,-0.17932457,-0.030501775,0.17811939,0.11463052,-0.086102955,
Time,-0.3096857,-0.23583405,0.18019846,0.35730466,0.15103036,-0.43241104,-0.34353435,0.16918859,-0.3356376,0.3846668,0.06546228,-0.15163271,-0.44632626,0.27460632,-0.056572217,-0.06593014,-0.17469154,0.15929636,0.5218941,0.04907966,0.11394615,-0.049249,-0.09549194,0.32853732,-0.061184473,-0.20651266,-0.0010167646,0.22353284,0.15616679,-0.02012994,
send,-0.16627914,-0.33157757,0.15624526,0.34370103,0.20815752,-0.4242503,-0.17057234,0.14863516,-0.287628,0.31926426,0.06552193,0.012443293,-0.3129503,0.10521299,-0.037812233,-0.20144841,-0.068635,0.23251171,0.46487233,0.113811955,0.19232151,0.0514963,-0.102039576,0.32381955,-0.15941213,-0.2907237,-0.047683284,0.20306748,0.1766119,-0.19365788,
getCamelContext,-0.19629292,-0.2077833,0.11500213,0.2941328,0.18723248,-0.38607094,-0.17037015,0.112604566,-0.25839397,0.26072577,0.04369542,-0.020486986,-0.27600613,0.13478792,-0.06373023,-0.13262808,-0.084049515,0.17826866,0.40353194,0.08377592,0.12879646,0.022249257,-0.1030415,0.2698754,-0.10509382,-0.21994126,-0.018120507,0.18535578,0.1148199,-0.11210902,
setCamelContext,-0.19829555,-0.20367163,0.13416128,0.2572082,0.1758,-0.36220565,-0.18358345,0.11649036,-0.2967901,0.27580464,0.07222117,-0.029271167,-0.30730864,0.15125199,-0.054954797,-0.122106805,-0.08138603,0.16188988,0.40234858,0.095869556,0.14533073,-0.019983359,-0.11258172,0.23986432,-0.075349405,-0.21558546,-0.037729885,0.17917068,0.13584512,-0.119612895,
getIn,-0.14234954,-0.35065055,0.1272049,0.4367229,0.2363494,-0.5015081,-0.084893525,0.11790519,-0.2565371,0.3078961,0.005112081,0.07755233,-0.24101791,0.065609746,-0.109620646,-0.18809335,0.0037199156,0.2644569,0.46943077,0.17557497,0.19842519,0.10110107,-0.052260756,0.39923215,-0.19310169,-0.33444458,-0.056657407,0.2598701,0.18242626,-0.2601163,
services,-0.21928146,-0.27014542,0.18466786,0.24498636,0.22925167,-0.36954802,-0.2292792,0.05441502,-0.27901682,0.32459962,0.08671688,-0.014926104,-0.34461874,0.15787295,-0.05100876,-0.043358542,-0.1040726,0.13177137,0.39825502,0.06778874,0.10390316,-0.072810374,-0.08683883,0.26448402,-0.0816375,-0.17692506,-0.004256655,0.17335592,0.13021395,-0.0711616,
find(),-0.29054552,-0.2622231,0.20935585,0.2900727,0.22029689,-0.40854532,-0.22839296,0.097036555,-0.32618698,0.35098407,0.10562613,-0.028677939,-0.39313534,0.17030631,-0.040332068,-0.05852835,-0.1444358,0.1520313,0.5058395,0.09141398,0.119337104,-0.10464797,-0.11488982,0.30036443,-0.050898384,-0.1678323,-0.012493153,0.20906948,0.12924637,-0.03485119,
getId(),-0.15040919,-0.25866628,0.120437846,0.35817114,0.16055048,-0.365543,-0.1567162,0.09696806,-0.20058547,0.28393984,0.037459694,0.023779683,-0.24965775,0.10485127,-0.07040666,-0.11465744,-0.077966064,0.1727329,0.44222692,0.11294198,0.14506118,0.054207925,-0.030793428,0.34689054,-0.12196205,-0.2359857,-0.023430571,0.2258937,0.16202332,-0.18369296,
activityState,-0.30872756,-0.2929087,0.19161025,0.2663267,0.24857026,-0.38044405,-0.2889994,0.07332295,-0.34506106,0.34967005,0.104021095,-0.074123494,-0.38935843,0.18684821,-0.041876037,-0.05356834,-0.17138647,0.14649288,0.44482556,0.06891944,0.09464396,-0.08291618,-0.13770026,0.27444306,-0.059855066,-0.19503357,0.008295499,0.18214248,0.14490156,-0.039928284,
info(),-0.3582784,-0.2027767,0.2045233,0.18194464,0.30230266,-0.36979505,-0.13970591,0.122405484,-0.46295148,0.32204178,0.20107853,-0.05834216,-0.39882767,0.21927209,0.027939428,-0.18228099,-0.1497489,0.14285299,0.50389117,0.07897909,0.16412114,-0.18817262,-0.31923425,0.15344374,-0.069585375,-0.16296174,-0.040698018,0.13855186,0.09365253,0.042279813,
FromBuilder,-0.31591913,-0.25163916,0.19853425,0.27030057,0.21751799,-0.40181285,-0.28904414,0.13090023,-0.34430212,0.3451095,0.11363102,-0.11807369,-0.3893647,0.18831855,-0.03569741,-0.06381244,-0.14221656,0.13100594,0.45918804,0.05053103,0.1077499,-0.098792374,-0.14197972,0.27479702,-0.043395624,-0.1954651,0.009310493,0.15071936,0.11516107,-0.038335174,
DefaultExchange,-0.20473093,-0.29430732,0.16449487,0.38234,0.21981849,-0.44450638,-0.24312703,0.14041536,-0.2855794,0.30295202,0.041552223,-0.044366505,-0.29044878,0.18346426,-0.03822057,-0.15291972,-0.08600251,0.22156225,0.43188766,0.12787682,0.13460378,0.052854642,-0.07443428,0.3258057,-0.13827077,-0.2903703,-0.04603373,0.19758464,0.16576225,-0.18708852,
bodyExpression(),-0.13265692,-0.29977638,0.10541047,0.34406024,0.18810612,-0.37007865,-0.20758815,0.08527505,-0.19839531,0.30946723,0.0076080514,0.0074357423,-0.28864023,0.086840354,-0.08571645,-0.07492973,-0.06560881,0.18189366,0.4042976,0.09944315,0.11558537,0.06529846,-0.013911502,0.34784916,-0.108891115,-0.23578846,-0.04054943,0.19665633,0.1395518,-0.20399272,
copy(),-0.22042933,-0.28277788,0.16312113,0.28813502,0.19924493,-0.43392816,-0.19620706,0.13440408,-0.30776507,0.29334,0.08516487,-0.04714437,-0.33181074,0.13809381,-0.07652377,-0.12188932,-0.08400718,0.17536975,0.49014288,0.09363263,0.14565705,0.014959873,-0.11121386,0.31090623,-0.11073292,-0.22128823,-0.033808675,0.19614787,0.1657141,-0.10748368,
LoggingErrorHandlerBuilder,-0.09407562,-0.36259037,0.09699436,0.4282776,0.1614611,-0.40832114,-0.060667455,0.14426996,-0.19707596,0.2723286,0.007052852,0.11458188,-0.22164188,0.02506123,-0.07440832,-0.16980043,0.034365438,0.18919948,0.47955117,0.19849972,0.19588965,0.15339486,-0.017063145,0.41854966,-0.17315091,-0.26156163,-0.02730628,0.25663346,0.17897749,-0.25177217,
level,-0.15468414,-0.29925054,0.11426359,0.37126118,0.18561585,-0.39453185,-0.15386033,0.15696074,-0.29091674,0.2871613,0.052234832,0.004770082,-0.27320448,0.14203086,-0.06426972,-0.17034951,-0.043836508,0.2181165,0.48011383,0.12967955,0.16931291,0.056621403,-0.098168775,0.3257355,-0.12006534,-0.25867894,-0.023310132,0.22208247,0.17236866,-0.17608115,
DeadLetterChannelBuilder,-0.14275862,-0.30571234,0.116448484,0.35181665,0.1808522,-0.40678927,-0.12153042,0.113710545,-0.23855405,0.28861618,0.060299665,0.046644192,-0.28229955,0.10660237,-0.08374176,-0.1723975,-0.058741145,0.19160844,0.44464493,0.15227255,0.14486963,0.077387884,-0.059367754,0.3465935,-0.14791492,-0.27428263,-0.049666986,0.21724838,0.16705254,-0.19936258,
getRedeliveryPolicy(),-0.21779004,-0.2516572,0.14090298,0.3434579,0.17663045,-0.42962074,-0.10821313,0.17887822,-0.28441572,0.27226606,0.083263144,-0.05336753,-0.3219035,0.1226538,-0.058388855,-0.16512172,-0.04845648,0.19714023,0.55211616,0.10877752,0.15568487,0.029683843,-0.13390656,0.34173933,-0.13612914,-0.21775623,-0.009705735,0.210151,0.14336404,-0.12767768,
addProcessorBuilder(),-0.19288462,-0.32189924,0.14526822,0.38698265,0.22800966,-0.48203602,-0.25767463,0.15948194,-0.30877882,0.34807485,0.034060214,-0.028932234,-0.30872864,0.1883603,-0.07740005,-0.13612482,-0.10142275,0.25392675,0.42712268,0.13391784,0.15051265,0.05637331,-0.067982845,0.36005753,-0.1499439,-0.3176985,-0.024583936,0.19951627,0.1750983,-0.21363029,
getOperationText,-0.17903878,-0.3333529,0.1251678,0.43316865,0.16532673,-0.46629983,-0.26276436,0.16764095,-0.27111715,0.34090766,0.026850048,-0.04069945,-0.35648534,0.16430175,-0.07744673,-0.12085423,-0.12998344,0.23108453,0.43602797,0.12624574,0.1465307,0.07682696,-0.015075244,0.3713192,-0.11610502,-0.31564513,-0.041199766,0.23632929,0.15479057,-0.183382,
asExpression(),-0.24804689,-0.27182063,0.15164283,0.45112893,0.15329972,-0.44615373,-0.42210245,0.08811308,-0.27461863,0.46668208,0.028254963,-0.11506729,-0.43984827,0.2481338,-0.097941056,0.0037802518,-0.17147063,0.17269637,0.4228631,0.07157473,0.11212489,-0.019904166,0.029760383,0.41161692,-0.05336655,-0.22146167,-0.026410421,0.24969111,0.1436904,-0.09071777,
scriptText,-0.13467298,-0.3092486,0.11730531,0.4531679,0.17775811,-0.45293024,-0.12665196,0.16125235,-0.2516248,0.33982164,0.025362898,0.024192767,-0.28851748,0.1164604,-0.08099666,-0.21780673,-0.08319343,0.2645145,0.46848217,0.14547157,0.21223557,0.08688056,-0.052931037,0.3786195,-0.13026603,-0.292245,-0.055537194,0.20638959,0.17510433,-0.24029613,
scriptResource,-0.1340572,-0.32177868,0.12264688,0.42103675,0.20792645,-0.444868,-0.15040192,0.12175757,-0.27879748,0.34428635,0.05466158,0.031518687,-0.28595686,0.14907524,-0.053494222,-0.19605963,-0.08825697,0.26083812,0.46878815,0.14040542,0.20003721,0.07500091,-0.08604432,0.31890646,-0.11170181,-0.30007058,-0.043406468,0.20594102,0.16217835,-0.2271372,
setAttribute(),-0.21878423,-0.32731727,0.17350274,0.4094866,0.21530189,-0.4487087,-0.15765624,0.11544125,-0.30498898,0.34538278,0.051911965,-0.010182319,-0.33616224,0.15988654,-0.057063393,-0.17275345,-0.062591754,0.24780503,0.49232402,0.119902916,0.15794699,0.024616309,-0.10299904,0.34088048,-0.14565577,-0.26012072,-0.05684348,0.23368229,0.15513657,-0.18411887,
item(),-0.24412754,-0.24023655,0.18662088,0.25988448,0.20980838,-0.3566103,-0.19171552,0.054773573,-0.29722568,0.2936895,0.11605628,-0.045692563,-0.3565668,0.15727419,-0.052661452,-0.04345315,-0.13611592,0.110629,0.43004328,0.09037713,0.10764405,-0.058048364,-0.13510844,0.2674773,-0.049020138,-0.16166158,-0.005463927,0.16249104,0.113157935,-0.034096103,
CxfExchange,-0.10643074,-0.36097044,0.116950616,0.43459138,0.22756109,-0.50186414,-0.14371778,0.13435881,-0.23659001,0.29231983,0.007699995,0.051377166,-0.19533025,0.08296092,-0.060959768,-0.22558263,0.0092994785,0.2535517,0.4386135,0.16684899,0.16681965,0.16067512,-0.030268207,0.37049603,-0.22812717,-0.3779057,-0.06211159,0.26644763,0.20063433,-0.34626693,
setBinding,-0.2370261,-0.19399513,0.13850695,0.2761782,0.18546905,-0.4006047,-0.17011207,0.15192662,-0.32458377,0.28149256,0.07235554,-0.0826439,-0.3087269,0.20736599,-0.060077984,-0.16282192,-0.09608419,0.19293192,0.4495738,0.09844471,0.13264716,-0.026012633,-0.17953286,0.2566107,-0.11905019,-0.23428303,-0.017773774,0.1813616,0.14140116,-0.07747738,
DefaultProducer,-0.18313742,-0.36398354,0.17492758,0.37951636,0.21434781,-0.43370685,-0.270529,0.12576166,-0.28922585,0.32723257,0.07034083,-0.012003431,-0.33575743,0.14598662,-0.053215228,-0.15138134,-0.07124777,0.24128674,0.44854644,0.107069016,0.14430028,0.044459566,-0.059168234,0.2971108,-0.1575648,-0.34997693,-0.04771211,0.20970955,0.16463183,-0.23034953,
handleException(),-0.2727728,-0.2712418,0.19809076,0.21507,0.3361049,-0.37572312,-0.041276928,0.14994685,-0.41648036,0.2757698,0.16488244,0.030306272,-0.35313362,0.1060193,0.018958058,-0.24610488,-0.08014928,0.16787198,0.51808196,0.1283998,0.205344,-0.11397954,-0.3164523,0.15180194,-0.10486811,-0.21002628,-0.068112716,0.13254659,0.12562819,-0.043586805,
createProducer(),-0.2539557,-0.25134057,0.16550472,0.25033373,0.2871652,-0.38379177,-0.14841767,0.114448264,-0.36232105,0.30379865,0.11863777,-0.0016783604,-0.34285495,0.12317156,-0.0067296796,-0.19669628,-0.081546135,0.1522181,0.46251896,0.10652934,0.1472,-0.074309655,-0.23705485,0.21261789,-0.08688844,-0.21252221,-0.05816159,0.14634232,0.13569911,-0.06647677,
connectionFactory,-0.16475266,-0.19466881,0.11453663,0.22460842,0.15983227,-0.3752109,-0.009560131,0.15706694,-0.254659,0.20899713,0.07054048,0.027308889,-0.24565141,0.076453105,-0.06669455,-0.16545756,-0.020147182,0.15355349,0.5324225,0.110443115,0.16217564,0.038558446,-0.1601375,0.29198882,-0.14815968,-0.18050358,-0.04041827,0.18933846,0.14754508,-0.09832255,
toByteBuffer,-0.21581595,-0.22991268,0.15087561,0.2788636,0.15631533,-0.3763009,-0.2327681,0.11272103,-0.24463901,0.31900305,0.040950097,-0.04962946,-0.29967344,0.15853871,-0.0628676,-0.06914879,-0.1181553,0.13344474,0.3819857,0.074126646,0.08828956,-0.018390523,-0.07729993,0.2795493,-0.06430257,-0.16244297,-0.016864456,0.18424018,0.11155342,-0.06545915,
isArray(),-0.28029504,-0.24711588,0.18052953,0.24742891,0.24895859,-0.39049798,-0.22533563,0.085725725,-0.34092763,0.327659,0.12629308,-0.042813916,-0.3855585,0.19022825,-0.038841147,-0.07421689,-0.14805306,0.12950037,0.47141996,0.083552405,0.10514865,-0.11176369,-0.16758376,0.24882703,-0.054834835,-0.14550628,-0.010114399,0.1631179,0.1290144,0.0017833036,
cast(),-0.28350824,-0.23915635,0.17762971,0.26505736,0.30551404,-0.4001068,-0.18526056,0.110219516,-0.37618893,0.33850947,0.14109008,-0.04400882,-0.39439806,0.17195989,-0.040399436,-0.14349389,-0.15077175,0.17659956,0.4673254,0.088333696,0.13303521,-0.08611036,-0.22637558,0.26394913,-0.06874175,-0.2148708,-0.028208025,0.15524238,0.107665606,-0.042016346,
set(),-0.328567,-0.22502442,0.18430187,0.24528493,0.21392128,-0.40787363,-0.13861817,0.12180452,-0.3727081,0.28298086,0.13584948,-0.070644595,-0.38007936,0.16266523,-0.04175103,-0.1154548,-0.12638453,0.1431954,0.550803,0.085250296,0.14223921,-0.10661141,-0.23781879,0.25495708,-0.0676431,-0.14146554,-0.016142698,0.17274721,0.12049755,0.007872165,
MethodInfo,-0.18856075,-0.27343807,0.1593902,0.28691962,0.2200955,-0.37547734,-0.2612318,0.069614224,-0.24470308,0.319134,0.044279628,-0.016798994,-0.30017236,0.12421527,-0.03354444,-0.053915907,-0.095506,0.14390738,0.41021764,0.10053975,0.09451064,-0.018645931,-0.068071336,0.2959991,-0.0818478,-0.19522135,-0.020590674,0.18737076,0.13623412,-0.11623152,
LinkedHashMap,-0.22834584,-0.25852612,0.1690837,0.24804544,0.24961123,-0.37903392,-0.22407262,0.10057165,-0.29883683,0.3123287,0.11421503,-0.04884397,-0.331057,0.16997954,-0.04289069,-0.08009749,-0.14567222,0.16450593,0.41619894,0.08402641,0.113920175,-0.06632504,-0.11507588,0.2494638,-0.050138675,-0.18630072,-0.024622956,0.16686714,0.10972159,-0.061569124,
keySet(),-0.24556777,-0.2826037,0.19957028,0.27456793,0.22019985,-0.37285462,-0.2219054,0.08050213,-0.3003308,0.32249635,0.073673844,0.010740052,-0.3349741,0.13499883,-0.048574187,-0.043976918,-0.106319524,0.13252246,0.4598357,0.08498011,0.10617757,-0.04084673,-0.09911483,0.271753,-0.06663485,-0.1770126,0.004395381,0.16913946,0.14364554,-0.08781416,
componentName,-0.13021165,-0.25763586,0.12868191,0.3226273,0.2013463,-0.36501032,-0.09479563,0.09583917,-0.23232399,0.27671108,0.06655708,0.055897653,-0.26801717,0.08387688,-0.054552607,-0.16430792,-0.044591278,0.16410764,0.437274,0.1461368,0.1431274,0.04653265,-0.09832924,0.30414572,-0.14175767,-0.25379345,-0.04472366,0.18248594,0.12204291,-0.17089505,
toExchangeType(),-0.245477,-0.3834671,0.19993266,0.34010842,0.22461925,-0.4092092,-0.31785607,0.13454942,-0.3279571,0.35136163,0.11376569,-0.06373675,-0.3924045,0.18727586,-0.052521676,-0.14397593,-0.107537255,0.26529655,0.4303863,0.10388161,0.14347418,-0.009013763,-0.10538133,0.2860525,-0.1597581,-0.3463043,-0.050903678,0.15936384,0.15629534,-0.16809936,
headerValue,-0.19134028,-0.24617249,0.14453946,0.28123936,0.20187609,-0.37467757,-0.13375914,0.13054176,-0.26095098,0.25621602,0.08784695,-0.010407755,-0.27781352,0.12874272,-0.028250553,-0.14553922,-0.050155796,0.1710157,0.3993234,0.11284248,0.13891743,0.0120738335,-0.12744127,0.27033788,-0.105003335,-0.23017183,-0.042642266,0.17249095,0.14269648,-0.13142197,
lazyCreate,-0.13649845,-0.34112948,0.13182746,0.43248338,0.17806208,-0.47129038,-0.058934215,0.16728796,-0.22199328,0.31352863,0.028408453,0.07125181,-0.2385791,0.06759064,-0.1045276,-0.21167147,-0.003226011,0.26484346,0.48865074,0.1854498,0.20434317,0.0979083,-0.04143736,0.4135989,-0.18378574,-0.33889055,-0.06855453,0.2658908,0.1766481,-0.23729263,
getFault,-0.12671486,-0.30767193,0.13627835,0.40222713,0.21328712,-0.4379873,-0.11311359,0.15859462,-0.2364468,0.28535947,0.0532301,0.037677042,-0.24540657,0.098359354,-0.071190506,-0.1948601,-0.0364653,0.268675,0.47417995,0.16151986,0.18051058,0.09800044,-0.08122755,0.3659083,-0.1883148,-0.31336132,-0.06517281,0.24028042,0.16044025,-0.2095089,
timeout,-0.24993303,-0.2406197,0.18438934,0.27129883,0.20862868,-0.37757018,-0.17132509,0.1353413,-0.31441748,0.28944713,0.12504391,-0.06372906,-0.3739714,0.15000483,-0.041013278,-0.10552241,-0.10558371,0.10400532,0.5790057,0.066978365,0.12488238,-0.05967788,-0.18554708,0.2732785,-0.100183494,-0.15261497,0.0041756066,0.21523967,0.16104029,-0.027293729,
instance,-0.14455712,-0.24161224,0.12403688,0.33749774,0.19486703,-0.37221256,-0.13311379,0.10648435,-0.24111758,0.29029274,0.070702195,0.0036401704,-0.27774653,0.11978899,-0.05461921,-0.1612819,-0.08107764,0.20226645,0.3774206,0.12355992,0.14893709,0.023278944,-0.10535247,0.27876645,-0.11761089,-0.2414695,-0.04523016,0.19714156,0.123090036,-0.15195923,
setName(),-0.23382576,-0.2357352,0.15620084,0.27258098,0.2167883,-0.36049446,-0.14636174,0.07698326,-0.32601756,0.3161893,0.08783347,0.01274254,-0.33478886,0.14232816,-0.037098546,-0.12547618,-0.09909525,0.14294492,0.46336308,0.12062115,0.13947888,-0.07567781,-0.15899965,0.2721758,-0.10675701,-0.19705261,-0.026891463,0.16555639,0.12938109,-0.043228563,
Date,-0.2143168,-0.27062705,0.17860045,0.31945947,0.21111089,-0.4253791,-0.18813941,0.096100815,-0.29083595,0.31775296,0.05770086,-0.03610592,-0.34485662,0.1457637,-0.045074854,-0.111381344,-0.10623865,0.17199112,0.50448966,0.11010172,0.12462604,-0.0063451487,-0.10346983,0.32688612,-0.11260883,-0.22002785,-0.03250593,0.20741679,0.14112076,-0.10362841,
evaluateStringExpression(),-0.32152015,-0.27773532,0.18109281,0.3946573,0.21412162,-0.45286357,-0.4204914,0.12725884,-0.3516742,0.3846501,0.0775165,-0.14474848,-0.45025855,0.2915284,-0.06388446,-0.08374941,-0.1816996,0.23449701,0.4276279,0.05994507,0.13509727,-0.026363885,-0.08714366,0.30941588,-0.077934496,-0.29172298,-0.016030984,0.18191966,0.14861771,-0.10908474,
compile(),-0.2856152,-0.28065264,0.19207427,0.28152844,0.3047638,-0.37799066,-0.24303189,0.1476385,-0.39518082,0.35227427,0.14150311,-0.05499682,-0.40719613,0.23151265,-0.0027467394,-0.14914341,-0.15727359,0.21602084,0.4238286,0.087756895,0.15828545,-0.10991364,-0.20684256,0.19631845,-0.06433072,-0.23226936,-0.04506303,0.16514768,0.12682855,-0.04339645,
asList(),-0.26096228,-0.24216567,0.17592885,0.2615117,0.24467203,-0.38596088,-0.18055254,0.09111226,-0.33047375,0.32128465,0.11232576,-0.04895966,-0.36212188,0.15264218,-0.030886592,-0.09703393,-0.12154608,0.14730106,0.45397446,0.07286806,0.13620128,-0.06834178,-0.1597926,0.26548615,-0.07925777,-0.19422816,0.003873415,0.18079865,0.13282886,-0.052419,
to,-0.14271581,-0.33409324,0.13171473,0.38304463,0.20352612,-0.4431325,-0.10877404,0.12748812,-0.25968596,0.30527073,0.05476523,0.04630279,-0.26615644,0.08774608,-0.102499954,-0.15800264,-0.015239282,0.2107798,0.52326405,0.13273996,0.20380685,0.07614051,-0.062379625,0.38707304,-0.19021437,-0.2778531,-0.03692354,0.24118507,0.15032694,-0.22697505,
trace(),-0.27311355,-0.25210544,0.12614022,0.26924792,0.276041,-0.43494722,-0.09251172,0.08568208,-0.36883304,0.30307803,0.15021591,-0.0031946122,-0.36021632,0.1490373,-0.02453246,-0.1936131,-0.098013565,0.2030598,0.51429015,0.1236713,0.1999428,-0.0832141,-0.24103634,0.28309205,-0.085574284,-0.23170479,-0.023572361,0.17268881,0.1504123,-0.056945276,
contains(),-0.2885421,-0.28753892,0.17810689,0.28051242,0.28597566,-0.39880913,-0.20705035,0.10837957,-0.35846123,0.34951836,0.124655865,-0.039222784,-0.3959578,0.1707937,-0.01896222,-0.13370061,-0.14317039,0.16526152,0.44414723,0.09799466,0.15723057,-0.07379083,-0.1678041,0.24469477,-0.062805064,-0.2294725,-0.017283767,0.18188529,0.130297,-0.070514604,
isInstance(),-0.23819385,-0.26377514,0.16808751,0.28867328,0.23185188,-0.41793445,-0.18194142,0.115307115,-0.33116227,0.3408972,0.092656255,-0.01939999,-0.34448388,0.17364383,-0.034341164,-0.16103713,-0.09524808,0.1954978,0.4653066,0.110965505,0.15667893,-0.066675,-0.17594709,0.26469654,-0.08738354,-0.23645262,-0.034353785,0.16708858,0.13698965,-0.07887912,
AssertionError,-0.29068354,-0.24317177,0.19102055,0.27472705,0.29410583,-0.40257898,-0.20777884,0.15711257,-0.38585448,0.3655944,0.16605237,-0.05357703,-0.3948003,0.19229452,-0.008727011,-0.174033,-0.13141786,0.19036134,0.47523442,0.067626566,0.17200038,-0.10717374,-0.22437568,0.2259991,-0.086979315,-0.2422172,-0.047529545,0.14318196,0.14545052,-0.06179627,
prefix,-0.18537495,-0.3066874,0.14556892,0.33981818,0.22603722,-0.45423573,-0.17510147,0.1291175,-0.28285742,0.30775568,0.04758138,0.035621192,-0.30963957,0.11110912,-0.06345099,-0.1026275,-0.07261565,0.176551,0.5102091,0.13280298,0.16312735,0.0059681535,-0.07086283,0.34573984,-0.12970509,-0.24683069,-0.013372129,0.2258416,0.12720867,-0.15907817,
InputSource,-0.23025998,-0.2515434,0.15766867,0.25680462,0.21502574,-0.3639558,-0.15589364,0.11358087,-0.3157227,0.2900696,0.11792075,-0.01708795,-0.33321244,0.15373974,-0.0369875,-0.11488265,-0.08676444,0.1511849,0.4584516,0.081309885,0.15209262,-0.035167158,-0.17069036,0.24029768,-0.08205352,-0.19580147,-0.019656733,0.16000706,0.11922682,-0.056884192,
getFault(),-0.1542865,-0.32429042,0.14061639,0.4196102,0.21247979,-0.46333024,-0.09393844,0.14099365,-0.25605443,0.31685695,0.023142712,0.025523541,-0.25813523,0.115791865,-0.062991545,-0.20720299,-0.030784724,0.2556285,0.4616273,0.1426589,0.19601576,0.069382295,-0.054524228,0.36662573,-0.16879465,-0.30535963,-0.06149853,0.24182436,0.17354457,-0.22564177,
createBody,-0.18519282,-0.27075222,0.13186955,0.3225089,0.24016686,-0.43163696,-0.118435435,0.12048005,-0.2810466,0.30816403,0.071109764,0.011932902,-0.28698993,0.131789,-0.03872794,-0.21287936,-0.07614377,0.21280247,0.4254183,0.14607449,0.18684465,0.01924259,-0.12587687,0.2828417,-0.14728878,-0.28510347,-0.033557944,0.1968432,0.14692068,-0.15486193,
hasMoreElements(),-0.25439942,-0.30474263,0.19407876,0.30206677,0.28461602,-0.38756776,-0.17277662,0.065523185,-0.33668852,0.3380136,0.11504092,0.053243935,-0.37272653,0.101834014,-0.018094616,-0.105853476,-0.12134333,0.13772501,0.46939352,0.12120625,0.12716338,-0.056585807,-0.16210848,0.25997669,-0.0842268,-0.20075455,-0.03355176,0.1824146,0.1529091,-0.08716301,
nextElement(),-0.26865292,-0.29948533,0.19721612,0.2740706,0.3265417,-0.38670823,-0.1848313,0.08334825,-0.3391751,0.32969636,0.14458895,0.024295023,-0.3709428,0.14492536,-0.0064482596,-0.10832171,-0.13364442,0.13654675,0.45595646,0.11461544,0.12488673,-0.094288066,-0.18244311,0.23411132,-0.08653468,-0.21269526,-0.018187255,0.18627977,0.13368069,-0.06763407,
JmsExchange,-0.106880814,-0.31540138,0.12423129,0.34909967,0.24268562,-0.43138224,-0.021126796,0.13869275,-0.25546867,0.27498007,0.05775909,0.094703175,-0.20111817,0.07666897,-0.062162068,-0.26313916,-0.008288931,0.22243747,0.4704871,0.18400577,0.21084261,0.07577206,-0.124504015,0.334981,-0.17731471,-0.28618446,-0.07135925,0.23486678,0.15799288,-0.23604019,
session,-0.2479397,-0.3007983,0.17222753,0.2796634,0.2760449,-0.40383822,-0.21544568,0.11532684,-0.3582332,0.32154703,0.111646414,-0.010596714,-0.36885014,0.15443562,-0.03436926,-0.14024058,-0.10771537,0.19823082,0.4676547,0.11326281,0.14687507,-0.054348383,-0.15504336,0.24898085,-0.0986259,-0.2368326,-0.015259702,0.17543642,0.12568972,-0.0956627,
SwitchStatement,-0.25681496,-0.21159826,0.13691057,0.28976274,0.27939904,-0.43776837,-0.018185785,0.1331065,-0.39220864,0.29825222,0.18195403,-0.0027607249,-0.3533313,0.13422938,-0.0020813742,-0.2296441,-0.108351566,0.19869667,0.53246814,0.13806418,0.20698062,-0.09153516,-0.30203825,0.26474586,-0.09937678,-0.21350275,-0.06294887,0.17700927,0.1445784,-0.036566343,
JmsMessage,-0.115416005,-0.32388926,0.11752865,0.38100243,0.19716498,-0.40731594,-0.07648704,0.09047644,-0.21079077,0.29150587,0.014909775,0.08156342,-0.23677705,0.064458385,-0.074676245,-0.16941084,-0.012352223,0.19752488,0.4245014,0.14751533,0.17643079,0.083115086,-0.036730736,0.36192966,-0.17887692,-0.2647417,-0.036399797,0.22699015,0.15778436,-0.24543737,
data,-0.19212617,-0.2257765,0.14452845,0.2942399,0.18401103,-0.38967738,-0.08204682,0.118120395,-0.28348935,0.25802365,0.10247166,-0.017888455,-0.30035087,0.13404134,-0.036632195,-0.17170781,-0.049457755,0.15060015,0.480747,0.13176362,0.15556207,-0.020047234,-0.15346299,0.27314377,-0.101289704,-0.19682182,-0.016793761,0.19614059,0.1559459,-0.09237353,
MailMessage,-0.120146416,-0.29304713,0.10122837,0.38761154,0.22164199,-0.4418473,-0.056166302,0.12882939,-0.2596427,0.28453267,0.017977225,0.07690355,-0.23330745,0.08707219,-0.08524238,-0.23851444,0.0020073985,0.23473996,0.44950908,0.16634208,0.18699588,0.07673722,-0.078965716,0.34844747,-0.19617447,-0.30446494,-0.046742316,0.22557487,0.16207404,-0.24628982,
object,-0.19671488,-0.26518127,0.15660405,0.29861596,0.26918796,-0.3883411,-0.10759907,0.09576799,-0.29979354,0.30375573,0.074006885,0.030211732,-0.28615582,0.09786997,-0.04094196,-0.18212882,-0.058933288,0.19262604,0.45424291,0.12986302,0.16995901,0.0007019452,-0.14639856,0.2698699,-0.10683859,-0.24094965,-0.04893047,0.1730039,0.15737325,-0.1323717,
PredicateValueBuilder,-0.1472756,-0.33747572,0.12777022,0.39019156,0.17069584,-0.42413837,-0.2103489,0.08453917,-0.20956112,0.3229093,0.03196775,0.023363275,-0.30080608,0.08262083,-0.066085234,-0.07166737,-0.055129856,0.17639084,0.4246386,0.12162658,0.15032598,0.06496115,0.01639323,0.35672888,-0.10853653,-0.24505393,-0.017662607,0.21842016,0.15682147,-0.21271496,
PojoExchange,-0.1429763,-0.29039642,0.12250187,0.40468672,0.20292738,-0.4704734,-0.11249091,0.18295778,-0.24903162,0.2665181,0.028421067,0.014843558,-0.22903708,0.12008535,-0.06440316,-0.24803603,-0.018614748,0.253477,0.45064262,0.1638146,0.20126233,0.080816016,-0.08870771,0.34453994,-0.18365547,-0.3261986,-0.052179463,0.2373635,0.1662311,-0.24575518,
getComponent(),-0.27419335,-0.23780619,0.20683497,0.20586413,0.28223976,-0.36947247,-0.24078982,0.11788923,-0.39003104,0.3382759,0.13083522,-0.0652973,-0.3947962,0.22015485,-0.010519138,-0.11130041,-0.14075868,0.15874144,0.42651203,0.080648586,0.13283625,-0.14028747,-0.21977611,0.17119116,-0.060408883,-0.17763314,-0.028377462,0.13484624,0.12287762,0.0035081203,
replace(),-0.24664824,-0.22030506,0.15913226,0.19940582,0.24102463,-0.38076577,-0.086302064,0.11873623,-0.36408752,0.28092864,0.14538151,0.019983785,-0.3359591,0.13657367,-0.03000404,-0.17311858,-0.07194083,0.13460043,0.4601857,0.1107517,0.16584656,-0.07192704,-0.22099799,0.23903558,-0.10851609,-0.17702666,-0.040565897,0.16881266,0.121197075,-0.038346093,
XmppMessage,-0.14230795,-0.29289883,0.11957477,0.3436318,0.22681274,-0.40514833,-0.039630122,0.11035511,-0.2576352,0.28868604,0.04410293,0.06771129,-0.2578235,0.08388615,-0.06459491,-0.1976204,-0.023457112,0.19907051,0.4753735,0.14450683,0.17187658,0.058358837,-0.10077734,0.32909074,-0.15845907,-0.2588733,-0.033677075,0.23491003,0.14073089,-0.19409679,
StringSource,-0.17944948,-0.23319161,0.118368864,0.28169027,0.19586118,-0.33765453,-0.13957292,0.0877822,-0.2702312,0.2540295,0.08429526,-0.018763164,-0.2601992,0.104864985,-0.053699017,-0.14719263,-0.054735076,0.1718271,0.3815304,0.10438694,0.14539813,-0.013848638,-0.11542928,0.22951244,-0.087610126,-0.21052258,-0.0443086,0.17993131,0.121618725,-0.1067112,
toDOMDocument,-0.15259452,-0.28119722,0.12937966,0.33267203,0.21106707,-0.4090875,-0.059509054,0.12559056,-0.2640508,0.29126793,0.062042996,0.06515533,-0.29376048,0.06327315,-0.043799903,-0.17887063,-0.055252478,0.18266803,0.48064357,0.16730566,0.17694616,0.03732653,-0.11780227,0.32298335,-0.1560507,-0.24669638,-0.033404242,0.20486937,0.16107933,-0.17925742,
LoggingExceptionHandler,-0.16650572,-0.27259585,0.1228593,0.29792717,0.20209065,-0.36641756,-0.15701666,0.09893784,-0.2469624,0.26897308,0.041498806,-0.005857786,-0.25902882,0.108515434,-0.056703694,-0.1100994,-0.074570514,0.15485266,0.39864513,0.12246095,0.12617406,0.011698982,-0.06793361,0.29172873,-0.11837055,-0.21518812,-0.022320734,0.19993299,0.1416461,-0.15163782,
Logger,-0.11104546,-0.32675546,0.14224479,0.38331315,0.17530853,-0.3846697,-0.13101594,0.088166244,-0.18827994,0.2909507,-0.010339026,0.08174567,-0.24322201,0.04556625,-0.07385004,-0.09190144,-0.04536448,0.17472449,0.40815797,0.13393229,0.12117944,0.10021608,0.02069509,0.3725112,-0.14070712,-0.22279918,-0.018431978,0.24283145,0.17737834,-0.24760589,
