name,vector_0,vector_1,vector_2,vector_3,vector_4,vector_5,vector_6,vector_7,vector_8,vector_9,vector_10,vector_11,vector_12,vector_13,vector_14,vector_15,vector_16,vector_17,vector_18,vector_19,vector_20,vector_21,vector_22,vector_23,vector_24,vector_25,vector_26,vector_27,vector_28,vector_29
MemberReference,-0.14792003,0.38324314,0.30364543,0.04115768,-0.017505037,0.011615623,-0.15798402,0.055663005,0.07782771,0.13436182,-0.23185755,-0.34531286,0.16205497,0.20598686,0.07819908,0.09003079,-0.15703227,0.011145312,-0.29392973,-0.1510662,0.36335337,0.17282939,-0.051160704,0.50333524,0.09206196,0.22185552,0.118744135,0.077431954,-0.029504893,0.047408577,
ReferenceType,0.20716566,0.1512834,0.4888875,0.14676747,0.47747913,0.1374005,0.04075604,-0.010362234,-0.03972442,0.088394254,-0.41791502,-0.124801755,-0.27795666,0.21147677,-0.09804595,-0.080959804,-0.023524947,0.45153958,-0.44506952,-0.23531488,0.15307155,0.18394476,0.26451394,0.30823404,0.023053098,0.6653416,0.052366342,-0.05772167,0.018855823,-0.14864086,
MethodInvocation,0.10381948,0.39738914,0.35004818,0.09380131,0.019234026,0.2071103,-0.017752102,0.17591327,0.0452243,0.01959442,-0.22397877,-0.10369682,0.006328403,0.12247218,0.11410984,0.09198909,-0.20742086,0.15019633,-0.2515473,-0.17334853,0.25926763,-0.020603215,0.04802938,0.60268223,0.19722681,0.043230794,0.18453275,0.24053536,-0.020530716,0.07038421,
StatementExpression,0.09580426,0.33020008,0.40985468,-0.034479365,-0.18388277,0.16849543,0.05248999,-0.037027527,0.008992637,-0.007189585,-0.34594682,-0.39449057,0.09257776,0.09198973,0.25834328,-0.018312266,-0.19906725,0.076119095,-0.1667472,-0.23562874,0.32482225,-0.0002668645,0.17453933,0.5615826,0.08326302,0.00508292,0.10393305,0.33932367,0.08653471,-0.023037735,
FormalParameter,0.055355087,-0.006562246,0.6223616,0.34342083,0.44625285,0.3613128,-0.1325802,-0.12629144,-0.23848762,0.21657436,-0.34928444,-0.114366926,-0.33412668,0.19228257,-0.30687326,-0.28786325,-0.06633177,0.3340153,-0.27521288,-0.43307343,0.2495649,0.41242373,0.026946584,0.33475724,-0.39267936,0.6340612,-0.004991737,0.22612368,0.257103,0.1593412,
IfStatement,-0.17261782,0.6809194,0.41486585,0.11193337,-0.07092027,-0.12166675,-0.24591017,0.14796591,0.14101632,0.2833772,-0.15554713,-0.39274678,0.2980377,0.07153443,0.045637388,0.0042334087,-0.12563741,-0.36514947,-0.110070944,-0.3223719,0.34722653,0.18674535,-0.37682143,0.59902567,0.22689964,0.29310945,0.25878084,0.09731856,-0.15263465,0.109244235,
VariableDeclarator,-0.18631358,-0.044979654,0.3276098,0.4674706,-0.10455781,0.22037245,-0.2780494,-0.44654545,0.16980666,0.06400875,-0.3900082,-0.22484477,-0.18346658,0.036030658,-0.20443448,0.0651648,-0.012600373,0.39069667,-0.19313438,-0.17290351,0.30679303,-0.037012268,0.5020042,0.39752415,0.118380226,0.17157559,-0.31903985,-0.19779934,0.31465968,0.09349491,
ReturnStatement,-0.275614,0.13184589,0.47029877,0.103106305,0.14605846,0.10639738,-0.21764377,0.14990741,-0.1982732,0.23794428,-0.27710566,0.03395602,-0.23457697,-0.047103975,-0.29743478,0.13336712,-0.21482168,-0.26095715,-0.12378211,-0.2596279,0.34015602,0.48095295,-0.26212427,0.5145078,0.08809285,0.53764427,0.2972037,0.09589076,-0.1489474,0.3071852,
MethodDeclaration,-0.050742388,0.027648557,0.4912966,0.3397779,0.46676102,0.1980257,-0.20361766,0.0015829023,-0.14800882,0.19202133,-0.28626844,-0.03364861,-0.29024753,0.1400082,-0.31596357,-0.061425008,-0.100674555,0.21974258,-0.34017563,-0.344754,0.25704297,0.37937132,-0.030234098,0.36088458,-0.14315923,0.60338885,0.031271424,0.045430083,0.05250687,0.21696065,
BasicType,-0.3008763,-0.08581217,0.2360009,0.26021197,-0.15373345,0.43388668,-0.49209785,-0.35368696,-0.059151884,0.26633355,-0.5488682,-0.19419742,-0.31055483,0.09460991,-0.33701807,-0.034092546,-0.06497974,0.042734675,-0.11840318,-0.035901476,0.3788659,0.41021755,0.24563302,0.37470052,-0.2931944,0.5167824,-0.123268545,-0.27851513,0.021463588,0.107937336,
BlockStatement,-0.17453325,0.48767546,0.32119864,0.09287547,0.10594835,-0.32851118,-0.03936459,0.18900524,0.33846855,0.062681235,-0.15616795,-0.3998765,0.28870362,0.14187375,0.18007047,0.28596082,-0.1782367,0.07764681,-0.52828217,-0.22273189,0.4118252,-0.016982468,0.037176516,0.5316227,0.56712395,0.27401456,0.008251553,-0.07223686,-0.096047506,-0.029890625,
SwitchStatementCase,-0.12533684,0.7728659,0.017987868,0.10294531,-0.37109682,0.3530222,-0.35422966,0.33202925,0.28021377,0.2594415,-0.27498332,-0.36168897,0.50822604,0.23043355,0.2745798,0.13813074,-0.50117296,-0.48952693,0.02740508,-0.2781542,0.5493377,0.12900952,-0.15323833,1.0056297,0.19244316,-0.16483092,0.21784699,0.369206,-0.17385872,0.44687787,
BreakStatement,-0.08141024,0.62269354,-0.08323938,0.0057062274,-0.33818918,0.23280086,-0.20357443,0.27909064,0.33219144,0.25961345,-0.31264147,-0.4641194,0.6396647,0.26866466,0.4565708,0.17092454,-0.5601015,-0.52855146,-0.18374206,-0.36737835,0.69161725,0.11417129,-0.10550074,0.998425,0.22324675,-0.15996172,0.15906112,0.418118,-0.19815966,0.38063064,
CatchClause,0.15579991,0.45729682,0.6706114,0.05223137,-0.11542003,0.22262324,0.18848328,0.2953008,0.08157489,-0.077939406,-0.31601384,0.09624664,-0.19772005,0.1554758,0.041274495,0.41710904,-0.16649857,0.3624142,-0.0953793,0.031686857,0.110673085,-0.18774816,0.38074493,0.76315117,0.7413184,-0.002602857,0.4408688,0.20030738,-0.014044363,0.20706736,
CatchClauseParameter,0.051721964,0.7850132,0.6312226,0.104994245,-0.009384446,0.05290308,0.04036225,0.42924732,-0.07151526,-0.28629756,-0.3467524,-0.102475464,-0.21980155,0.21387823,0.037955668,0.36267906,-0.19390252,0.4314855,-0.1922295,0.11322414,0.23299791,-0.16878812,0.21660043,0.5055326,0.59969336,-0.0126795955,0.4615041,0.3149621,-0.023809139,0.2474273,
TryStatement,0.06435846,0.39468527,0.5670923,0.18060383,-0.20110004,0.2730212,0.009775589,0.15934093,-0.027330605,-0.12703878,-0.3500641,-0.006590046,-0.31603384,0.079620846,-0.06851887,0.23304953,-0.124829076,0.37640965,-0.0804879,-0.0015827264,0.18310271,-0.16326271,0.3658218,0.5385358,0.4982747,0.009617193,0.25159562,0.23131572,0.02950174,0.2722146,
ThrowStatement,0.020352926,0.5777156,0.7460511,0.040271774,0.14795697,-0.43902302,0.1520875,0.3043386,0.18266264,0.012840957,-0.22274499,-0.29462358,0.028930986,-0.06881472,0.09733172,0.29266167,-0.042484287,0.11174498,-0.36439764,-0.26710966,0.2612923,-0.07084049,-0.043571055,0.5863906,0.8969433,0.39283934,0.30496034,0.083208576,-0.12739122,-0.10962946,
ConstructorDeclaration,0.15838663,-0.11309623,0.42683938,0.39441985,0.4996394,0.6130583,-0.12230041,-0.12794049,-0.1611893,0.04468935,-0.55861074,-0.09658723,-0.37750876,0.40599754,-0.1918685,-0.17384045,-0.16416122,0.7203062,-0.36598992,-0.23725894,0.20145418,0.28205103,0.50133777,0.3294039,-0.42963645,0.49217305,-0.14794339,0.19941011,0.28893042,0.23401743,
ClassDeclaration,0.11983378,-0.0466539,0.5142836,0.4233765,0.2134569,0.5827991,-0.19431514,-0.32776967,-0.13409096,0.09276259,-0.6045938,-0.12567613,-0.5548706,0.28376356,-0.32241207,-0.20035717,0.015784603,0.746421,-0.3079259,-0.16286562,0.23909473,0.16716695,0.5590714,0.26300952,-0.3229763,0.48778504,-0.1895023,-0.016696675,0.32909253,0.03404972,
SwitchStatement,-0.20012055,0.5030634,0.21297462,0.10444375,-0.54171276,0.26341134,-0.313074,0.06325529,0.153527,0.15306881,-0.3469859,-0.30651045,0.20191973,0.13245359,0.07685559,0.22838034,-0.2762836,-0.298388,0.09021841,-0.038148925,0.41901135,0.04078268,0.038633447,0.8011753,0.31663793,-0.12707882,0.26771578,0.15120235,-0.057347823,0.3782479,
ForStatement,-0.43918058,0.2183977,0.31391886,0.24872465,0.05750615,-0.19207738,-0.19203837,-0.5363532,0.21793258,0.20461047,-0.2837149,-0.5994152,0.2339301,0.43834144,-0.0317087,0.25236052,0.08694801,0.34437144,-0.25761577,0.03266355,0.5226459,0.046942182,0.48239267,0.41290623,0.049069513,0.2040618,-0.23142055,-0.3275943,0.32539505,-0.46124226,
ForControl,-0.45661205,0.12111823,0.3809085,0.09840707,-0.15249592,-0.28201875,-0.18029757,-0.6383937,0.23918086,0.0032794604,-0.31540498,-0.62069285,0.14138894,0.24118488,0.02497548,0.10636586,0.0059174825,0.3693674,-0.48313382,-0.14096856,0.43093765,-0.13767327,0.49145538,0.4085339,0.14731473,0.24989617,-0.24607015,-0.32050636,0.34539413,-0.2909595,
WhileStatement,-0.09261926,0.3591315,0.26369122,0.13841516,-0.1922141,-0.0030818372,-0.12392366,-0.13003246,0.20903584,0.09296419,-0.24481356,-0.33744663,0.15119773,0.14091654,0.09549933,0.11224209,-0.122018054,0.04231411,-0.17107612,-0.1677151,0.36057296,-0.061451383,0.24273947,0.54634714,0.2940962,0.077273704,0.01003463,0.007589344,0.08041929,-0.021834692,
DoStatement,-0.40291977,0.37750608,-0.045047633,0.117102236,-0.74533474,0.16954666,-0.45454544,-0.26628798,0.40227127,0.2881008,-0.37667963,-0.58661926,0.4645728,0.0964349,0.1841746,0.22618784,-0.26889122,-0.47122258,0.096949235,-0.10595331,0.6339915,0.04048839,0.18118791,0.8366456,0.24675323,-0.14942524,-0.090782024,-0.031426676,-0.0071873665,0.16377102,
InterfaceDeclaration,-0.074955136,-0.08871183,0.50978243,0.35035393,0.2560702,0.3291135,-0.23877156,-0.23508817,-0.10054216,0.17735632,-0.45259264,-0.13411672,-0.40074524,0.111286156,-0.31135094,-0.12487592,-0.010909251,0.3459855,-0.2672104,-0.21067125,0.25885552,0.3437554,0.24902189,0.3250918,-0.21270074,0.59918654,-0.10185691,-0.10183204,0.17375898,0.06507801,
SuperMethodInvocation,0.022848742,0.049992826,0.5346852,0.28159425,0.33851552,0.17943537,-0.08613436,-0.07315581,-0.082114406,0.09589953,-0.35959718,-0.143314,-0.29635975,0.16128635,-0.17658027,-0.05711516,-0.05523183,0.4311503,-0.3789672,-0.22326328,0.22232778,0.1891017,0.2059752,0.3189493,-0.06673422,0.51852405,-0.04442127,0.026190983,0.13341378,0.04222785,
ContinueStatement,-0.28344098,0.53232175,0.0033692583,0.16910264,-0.6576542,0.4262365,-0.31543764,-0.11875742,0.34363773,0.18750401,-0.4364005,-0.41337258,0.37571833,0.18842685,0.21367604,0.30285767,-0.4031448,-0.16306047,0.064533524,-0.09134897,0.58218163,-0.1069621,0.3048913,0.9960127,0.25383952,-0.35064787,0.010856749,0.14310735,0.028172614,0.25389364,
PackageDeclaration,-0.110538565,0.0065729124,0.3919768,0.32071993,0.09842666,0.3161964,-0.2334455,-0.26533073,-0.008876784,0.15758735,-0.43423912,-0.19570118,-0.2586514,0.1531519,-0.2305631,-0.04139106,-0.053645805,0.31316584,-0.24291505,-0.17237951,0.29333234,0.21760708,0.31186897,0.38116154,-0.13337918,0.41933477,-0.10990126,-0.07187839,0.16626848,0.0561848,
SynchronizedStatement,-0.09787629,0.16375516,0.35978034,0.20646451,0.091215976,0.12370853,-0.13992997,-0.13261226,0.0651355,0.14996502,-0.33763248,-0.2688242,-0.0370897,0.16555181,-0.06959134,0.0019259106,-0.09256745,0.18334496,-0.2546808,-0.18532239,0.3081292,0.16002357,0.16277274,0.42823946,0.029946256,0.34721565,-0.054044332,-0.01045842,0.08586463,0.0012603321,
