name,vector_0,vector_1,vector_2,vector_3,vector_4,vector_5,vector_6,vector_7,vector_8,vector_9,vector_10,vector_11,vector_12,vector_13,vector_14,vector_15,vector_16,vector_17,vector_18,vector_19,vector_20,vector_21,vector_22,vector_23,vector_24,vector_25,vector_26,vector_27,vector_28,vector_29
MemberReference,-0.097908504,0.07690913,0.25373882,0.3373295,0.38141796,-0.9614383,-0.2453834,0.14507523,0.17847991,-0.46059018,0.13814408,0.12954853,-0.60166466,0.03999483,0.1759079,-0.6957124,0.0047768885,0.23631184,0.39808762,0.14204904,0.13822903,-0.45662615,-0.16073202,-0.17724332,0.25186896,0.15155514,-0.40596554,0.23341551,-0.22030044,0.17348944,
ReferenceType,-0.18990773,0.1476426,0.09322273,0.7339058,-0.135494,-0.26927274,-0.36645636,0.3712059,0.06772156,-0.16615711,0.3393615,0.13453698,-0.60975844,0.39069495,0.18564256,-0.09195412,-0.08588172,0.4648563,0.050446812,0.21990003,0.47563747,0.0720266,-0.096656494,0.056972906,0.58602107,0.2779493,-0.22404891,0.16896866,-0.64890283,0.21859343,
StatementExpression,-0.013853094,0.03565404,0.20679314,0.23668975,0.23640533,-0.9159144,-0.047864728,-0.050500408,-0.06747674,-0.5895245,-0.1350294,0.35483196,-0.43280822,-0.2773967,0.15504344,-0.49912354,0.09001203,0.32112402,0.43976673,0.049244564,0.37053192,-0.31189647,0.021406794,-0.15936287,0.060446635,0.18745704,-0.2676022,0.19007926,-0.45190135,0.09554374,
IfStatement,-0.45468602,0.24035904,0.21323048,0.12020793,0.88308316,-0.77863824,0.08578212,-0.14061148,-0.43857336,-0.24834731,0.41387555,0.08693174,-0.424184,0.20870484,0.2920986,-1.0677904,-0.15061556,0.79909563,0.13197944,-0.22602214,-0.21818356,-0.4717059,-0.5468135,-0.43364102,0.07818972,0.23170905,-0.04326525,0.38011122,-0.45737547,0.5775258,
VariableDeclarator,-0.19866715,-0.35831603,-0.1624591,-0.45365718,0.00032712996,-0.38527846,-0.34005702,-0.16254029,0.38604313,-0.4532458,0.45217764,0.69839084,-0.60688937,0.055010185,0.09815137,-0.7328784,-0.33980182,0.70056355,0.54330313,0.004584715,0.18414208,0.21475789,-0.21019873,0.3452843,0.2439629,0.13395736,-0.07605582,0.09772306,-0.6664525,0.3503567,
ReturnStatement,-0.2547021,0.32515842,0.21793719,0.7726016,0.1509174,-0.9900252,-0.37542275,0.16385902,0.101397336,-0.03954442,0.72793144,-0.17879981,-0.18806396,0.319255,0.40104586,-0.15189461,-0.5165659,0.08927437,-0.06458054,-0.31718624,0.0402947,-0.11179099,-0.33516607,-0.11005004,0.020282224,0.6905955,-0.18738225,0.2429929,-0.18166748,0.119823724,
BasicType,-0.6483322,0.05252357,-0.0023866172,-0.093141116,-0.04907121,-0.59955764,-0.5004895,-0.28479385,0.44254425,-0.17811476,0.7740584,0.105142325,-0.32239446,0.33898777,0.024769522,-0.5311227,-0.30481258,0.3904028,0.3305828,-0.3031934,-0.17628492,-0.13048074,-0.07958834,0.75207454,0.08884618,0.5838771,0.11526607,0.19784887,-0.75991106,0.42360502,
BlockStatement,-0.05695035,0.07456935,0.055977106,-0.03288269,0.67029184,-0.33374986,0.03260504,-0.21619542,-0.31963116,-0.14826843,0.167269,0.05237126,-0.45062402,0.1956084,-0.010431718,-0.8560903,-0.3455608,0.7074828,0.24624212,0.029887712,0.05496108,0.06471821,-0.44200784,-0.82767165,0.24679007,0.22273208,-0.10271234,0.34622452,-0.58852243,0.5914373,
SwitchStatementCase,-0.89853036,-0.37224072,-0.010193133,0.35168982,1.0759509,-0.9041947,0.2902871,-0.3986419,-0.8221031,-0.2755912,0.16470957,0.1723014,0.138499,-0.2508245,0.13295443,-0.69723916,-0.052211456,0.86669344,0.36349687,-0.809611,-0.2786644,-1.1388754,-0.1776637,-0.1967073,0.2363697,1.0970383,0.5713364,0.77556974,-0.8998579,0.89833885,
BreakStatement,-0.9643389,-0.32472667,0.14450496,0.34181157,1.2771045,-0.8123463,0.1387124,-0.46072096,-0.8735464,-0.43073475,0.116135396,0.26365206,0.041250862,-0.24414538,0.2236316,-0.86935633,-0.11384751,0.9432447,0.43105245,-0.6731367,-0.3887156,-1.068017,-0.34659222,-0.2958375,0.22934608,0.9312837,0.3469162,0.7303861,-1.1837122,0.92741925,
CatchClause,0.466112,-0.016397407,-0.17455061,-0.3443244,0.35443607,-0.27784786,0.49690726,0.01183964,-0.28675976,0.052352693,-0.14172065,0.050357766,-0.35911,-0.2390314,-0.23054731,-0.49955788,-0.14182493,0.5277483,0.42658958,-0.59156483,0.7734751,-0.17161335,-0.14524812,-1.008514,-0.33519655,1.0824465,-0.110349536,0.32021835,-0.61447346,0.5333207,
TryStatement,0.13564317,-0.22469856,-0.15649109,-0.41425624,0.14294437,-0.22893666,0.3263665,-0.020983007,0.21349674,-0.14557825,-0.03245411,0.15405029,-0.50422955,-0.19496438,-0.23300582,-0.49795157,0.010147175,0.59692913,0.3666242,-0.41526106,0.4618708,-0.3515686,0.042217128,-0.13463026,-0.17814852,0.80821615,-0.113789335,0.15169814,-0.6998115,0.37616548,
ThrowStatement,0.106129974,-0.03252337,-0.019072035,-0.049929254,0.60816085,0.0027066541,0.3380179,-0.0787089,-0.48924097,-0.08465649,0.35678554,0.16655172,-0.81236607,0.18927345,-0.15203966,-0.87110555,-0.3154129,0.8257335,-0.06417071,-0.19363454,0.14151,-0.21429403,-0.6070012,-1.2919275,0.12242247,0.6288254,-0.13040657,0.24150948,-0.4983728,0.72950375,
data,-0.2038711,-0.19701418,0.3499139,1.3394696,-0.23043798,-1.3501896,0.3405789,0.28488138,0.263318,-0.27561954,1.6514336,0.5395981,-0.70586574,0.8344962,0.5937358,-0.45142213,-0.8216203,0.6816229,0.44956,0.081313044,0.5904297,-0.31306818,0.14165491,0.65349257,1.413194,0.54469806,0.044048436,0.23172832,0.087351635,-0.29947135,
e,0.3629916,0.030378243,-0.05895934,-0.18273748,0.25532657,-0.5444884,0.6242427,0.0085163135,-0.17454246,0.05270031,-0.1968422,-0.024362752,-0.0946328,-0.21044241,-0.19185443,-0.39863038,-0.08969467,0.44287607,0.48891833,-0.49421903,0.7175789,-0.2658714,0.015431171,-0.7172608,-0.27532682,1.069412,-0.07124767,0.29861626,-0.50435406,0.44572663,
put(),-0.0044711265,0.5362227,0.21470194,0.43121743,0.55445975,-0.49075243,0.09953952,0.40629396,0.13742542,-0.16636045,-0.24920756,0.07690163,-0.47369394,0.3478278,0.23920889,-0.40130144,-0.2575994,1.4860226,0.058000617,0.40505055,0.7275253,0.3050467,0.007122536,-0.059720322,0.6676015,-0.19986327,-0.24771088,0.3844429,-0.754601,0.27942917,
SwitchStatement,-0.69902784,-0.171813,-0.050753895,-0.20635146,0.74882793,-0.5183938,0.20387277,-0.52344406,-0.4408094,-0.3751625,0.27001393,0.2916835,-0.059650116,-0.26082194,-0.14498754,-0.78496665,-0.15229006,0.772284,0.4047099,-0.7990976,-0.17609806,-0.9484918,-0.21855876,-0.23721986,-0.093968876,1.1139297,0.2749578,0.44533366,-0.8667777,0.7664784,
append(),-0.6566528,0.28585967,0.15679593,0.28314042,0.44688115,-1.0469536,0.029005352,-0.41362047,-0.9873355,-0.7274721,-0.3283672,0.8554739,0.4224193,-0.26150826,0.2247253,-0.7586352,-0.014893488,0.76140726,1.0510336,0.16977246,0.24609396,0.062886626,-0.10665658,-0.2925443,0.9290245,-0.10283521,0.32530886,0.7985171,-1.0867581,0.54713196,
ForStatement,-0.7042318,0.10973624,0.174927,-0.27528805,0.20505162,-0.4644444,-0.3556227,-0.5064066,0.06549834,-0.39746433,0.46497613,0.35031113,-0.13425162,0.120366365,-0.036195673,-1.0165225,-0.7818187,0.7148842,0.9522089,0.08027936,0.19365224,0.4265104,0.04105805,0.03369601,0.41084364,-0.20032234,0.021844428,0.33926633,-0.8258556,0.6915963,
ForControl,-0.62887096,0.1513278,0.029423416,-0.33172512,0.04610605,-0.40036312,-0.5509349,-0.43680653,-0.024643902,-0.49857858,0.49694526,0.42986292,-0.12262756,0.0024515823,-0.07018836,-1.0785898,-0.7392843,0.71621716,0.920314,0.06169629,0.049010437,0.28852296,0.06544619,-0.17176792,0.34964022,-0.045404993,-0.06799738,0.35304454,-0.88886076,0.68137616,
node,0.2003496,-0.21415766,0.3592016,1.3821933,0.0966557,-1.2080623,0.6159218,0.63940346,0.06847025,-0.3177942,1.0679554,0.4898104,-0.6412129,0.6823234,0.64295375,-0.47525686,-0.6798035,0.5946442,0.5474736,0.13415922,0.7660546,-0.33405504,0.18741159,0.2417044,1.3922291,0.37177908,-0.28467155,0.23505537,0.18409742,-0.41748464,
key,0.01759211,0.102322444,0.21441655,0.5689204,-0.009694301,-0.31127933,-0.014709257,-0.1051932,-0.20816462,0.4766421,0.82942307,-0.01628792,-0.4619974,0.63252145,0.12929326,0.1508671,-0.31488553,0.55439925,-0.48755735,0.02174899,0.5246084,0.8543676,-0.39303648,-0.12010022,0.06296749,0.4527999,0.09754012,0.44884878,-0.5881628,0.08054303,
error(),0.47180477,0.050126486,0.098107316,-0.031309582,0.5572277,-0.60478425,0.40575272,0.25516298,0.20127648,0.023201259,0.13999505,-0.43829197,-0.33146784,0.28336826,0.17679359,-0.79396755,-0.60427487,0.5585395,0.6476235,-0.18162742,0.51643825,0.090285175,-0.03357993,-1.151843,0.22456177,0.40270263,-0.5584818,0.3669278,-0.41659206,0.3493652,
context,0.18882994,-0.01700201,0.17308694,0.41484725,-0.060816787,-0.8315333,-0.1186855,0.361974,0.46283254,0.10721989,1.0147873,-0.16530694,-0.630752,0.76873076,0.2472132,-0.5143614,-1.0120258,0.71646756,0.37980023,0.1713828,0.5237426,0.33795488,0.15118112,0.06714046,0.6858536,0.28668746,-0.4842735,0.16404787,-0.32621843,-0.06975527,
visit,0.031440355,-0.28661194,0.3696078,1.8572915,0.23132716,-1.474527,0.82684815,0.6096318,-0.24390167,-0.3668171,1.2666727,0.81084293,-0.68871427,0.7576804,0.75977266,-0.3918202,-0.55362993,0.8116857,0.45196626,-0.025287976,0.88293594,-0.6079071,-0.022545815,0.39206955,1.6903961,0.686757,-0.015437547,0.39148962,0.20004788,-0.4221383,
jj_consume_token(),-0.6833788,-0.5316699,-0.1100121,-0.3231538,0.9212063,-0.114221826,0.33976442,-0.47168154,-0.484263,-0.38108277,0.33529496,0.4902584,-0.75579,-0.20390813,-0.2706737,-0.99601704,-0.018615864,1.0805277,0.1468019,-0.67352915,-0.2538811,-1.0124981,-0.24292548,-0.43914956,0.1392996,1.0558296,0.3283455,0.3586428,-0.95947766,0.82959497,
get(),-0.18548688,0.38408175,0.13607194,0.23196717,0.17764148,-0.37519726,-0.09259747,0.01401149,-0.21948743,-0.07354546,0.31445682,0.27966017,-0.100107804,0.4454216,0.18786244,-0.44174793,-0.45661154,0.86374575,0.28151414,0.2624363,0.49072024,0.68436116,-0.22471143,-0.15191555,0.3937688,-0.17125525,-0.09872925,0.44738096,-0.7657067,0.3507553,
write(),0.82400006,-0.11591557,0.5422803,0.53747207,0.580582,-0.5327794,0.005259472,-0.350741,-0.7137419,-0.24799405,-0.45855418,0.08519489,-0.3730338,0.47735646,-0.22010471,-0.590609,-0.5836171,0.22902904,0.7222619,0.47021592,0.5380592,0.489875,0.59913814,0.0634283,0.56722426,0.366607,-0.3408479,0.57841897,-0.56811666,-0.11541264,
toString(),0.2652716,0.3311325,0.15385449,0.27210864,0.17413448,-0.7109045,-0.011678643,-0.19309613,-0.56875163,-0.4479419,-0.42598698,0.395529,0.033665203,0.107210346,0.053637654,-0.46822834,-0.209109,0.35759082,0.81224996,0.38574997,0.5859928,0.4876868,0.097550154,-0.3033245,0.5797191,-0.0435464,-0.065510176,0.49930593,-0.67781687,0.14428277,
println(),0.4139639,0.23278368,-0.04282006,0.16086231,0.117485516,-0.32071012,0.6170544,0.23176794,-0.37425318,0.044326626,-0.3573061,0.15193212,-0.19164583,-0.18998681,-0.12759796,-0.22441131,0.06954798,0.6212015,0.49176034,-0.17370239,1.0019747,0.0018144735,0.1481509,-0.67750293,0.11801221,0.6010995,-0.106332175,0.40029317,-0.7655245,0.2749121,
id,-0.43938103,-0.6949699,-0.016792435,0.19691816,-0.67124873,-0.5483594,-0.12548336,-0.56055987,0.55945766,-0.0082213925,1.4092386,0.3993407,-0.9980359,0.34533733,-0.26439497,-0.17827715,-0.4592572,0.37550443,0.22535674,-0.25313216,0.31146795,-0.1364678,0.24045259,0.92961293,0.4430591,1.0445437,0.54826266,0.1799385,-0.4419267,0.14391519,
equals(),0.019153826,0.4229604,0.1982025,0.53576374,0.16774596,-0.73996127,-0.027596565,0.22374557,-0.31610468,-0.24746402,-0.113739125,-0.08523247,-0.3112925,0.120206594,0.39314413,-0.46066612,0.16561891,0.7221418,0.48751894,0.5581732,0.23591192,0.45311704,-0.4003574,-1.0243565,0.86148757,6.178627e-05,0.1716361,0.52373093,-0.76996326,0.27845278,
jjtGetChild(),-0.009817132,-0.014407369,0.055911645,0.12076152,0.1885935,-0.69757295,-0.004664926,0.2566244,0.6828765,0.016839465,1.034518,-0.3872375,-0.434817,0.73643994,0.36221588,-1.1007744,-1.3975207,0.954152,0.7911795,0.16935834,0.47621676,0.55424994,0.10807803,-0.57112664,0.73814136,-0.047772203,-0.6972041,0.29763225,-0.63000333,0.23739025,
WhileStatement,-0.5547823,-0.029469347,0.010094022,-0.14016676,0.3796414,-0.25071874,-0.17146759,-0.37214214,-0.23316877,-0.40518346,0.28146324,0.3763862,-0.38469198,0.016911596,-0.0150572,-0.82218665,-0.3566174,0.6932901,0.3564931,-0.08368088,-0.12841214,-0.14382859,-0.18386953,-0.18872766,0.31780878,0.23161635,0.086888425,0.31677994,-0.74060374,0.55525994,
StringBuffer,-0.71203136,0.1216196,0.1844967,0.2052726,0.42225695,-0.87925804,-0.119151786,-0.34401277,-0.6161592,-0.7602148,0.009774058,0.9022174,-0.02319339,-0.122476794,0.20013371,-0.8037993,-0.047528904,0.70779306,0.745909,0.18194453,-0.008494673,-0.046653464,-0.22350372,-0.032750618,0.8342653,-0.22206153,0.2695116,0.5213201,-0.81074566,0.53091836,
length(),-0.14906871,0.17488585,-0.014732509,-0.14937873,0.024099946,-0.45745674,-0.22549808,-0.31626242,-0.34159932,-0.36904576,-0.085190855,0.33672798,-0.115096025,-0.07812796,0.01734385,-0.6627779,-0.2033041,0.49705982,0.64173985,0.18537845,0.23286164,0.35193998,-0.08454366,-0.40975803,0.36080807,0.0019052017,0.12609847,0.4558578,-0.86849034,0.48003626,
init(),0.4690217,-0.2517236,0.08975463,0.0808824,-0.25099263,-0.38134766,0.52087337,0.39530006,0.40961683,0.25710866,0.35496616,-0.10651518,-0.56465995,0.11044236,-0.066005774,-0.076287046,-0.21975832,0.43174165,0.4579352,-0.15726878,0.96097714,0.04452624,0.48387262,-0.078177474,0.15984407,0.7208123,-0.3141356,0.123756364,-0.5522842,-0.015828189,
name,0.29934523,-0.20568109,0.00027295656,0.65182036,-0.37262535,-0.40018973,0.020794423,-0.096672826,0.14851294,0.07527309,0.20767058,0.20818044,-0.42998695,0.38918853,-0.019482812,-0.035533834,-0.15806405,0.25428322,0.092995554,-0.23910184,0.73401964,0.25179723,-0.035551593,0.24884628,0.46488968,0.7708944,0.21257378,0.16984165,-0.23438329,-0.1200034,
substring(),-0.26659653,0.29791245,0.041666504,0.053276077,0.073237486,-0.61725676,-0.31553167,-0.18746403,-0.25756603,-0.40526474,0.0059560277,0.19461006,-0.2870129,0.07201658,0.18945026,-0.7632536,-0.21117483,0.6118112,0.62152505,0.43267286,0.026902247,0.3426158,-0.10378682,-0.57278544,0.64407086,-0.16971993,0.09360968,0.5159987,-0.8697726,0.4022566,
p,-0.35161838,-0.4412484,0.0561131,0.13515103,-0.6652235,-0.662083,-0.23834576,-0.43048996,0.5662885,0.01490201,1.3852379,0.35811827,-0.9080775,0.40791097,-0.15238248,-0.252759,-0.51272863,0.44023624,0.2752827,-0.15355673,0.32389507,-0.020401556,0.10105832,0.8289647,0.41143423,0.8640159,0.4233329,0.1295559,-0.40721947,0.16761355,
value,0.28977165,0.11035,0.15739247,0.5400605,-0.19039975,-0.6781074,0.07822625,0.2708379,0.32531598,0.2860674,0.9424559,-0.1365957,-0.6044399,0.7073065,0.18996084,-0.26024404,-0.60711825,0.5591851,0.030865671,0.10333466,0.7044566,0.5255008,-0.119973615,-0.1504925,0.4597083,0.33654925,-0.24887462,0.26942345,-0.27471608,-0.012204169,
fail(),0.5575538,0.24970643,-0.02249112,0.26376125,0.47871253,-0.53092355,0.6319642,0.30020165,-0.44085053,-0.05355541,-0.7262194,-0.041329984,-0.2626538,-0.26055175,-0.08533194,-0.36333784,0.16791964,0.78641677,0.48676658,-0.1635093,0.9521379,-0.14705515,0.036312878,-1.0615447,0.11682724,0.79898554,-0.16291477,0.5094453,-0.8331016,0.38408846,
getClass(),0.48458776,0.1203089,0.046059825,0.002420294,0.25162935,-0.38506716,0.32942072,0.16567798,-0.026056418,0.1025239,0.1871633,-0.3326728,-0.46643043,0.32206666,0.053808957,-0.53189826,-0.44146737,0.4775435,0.49327162,-0.019025661,0.64512724,0.40006205,-0.20927438,-1.2790351,0.11448785,0.6229824,-0.3042475,0.41782278,-0.45653796,0.4523707,
init,0.24353914,-0.19775154,0.17460883,0.31442577,-0.31469738,-0.509018,0.16031836,0.28523016,0.45160276,0.1476229,0.66963094,0.06884357,-0.6727778,0.3524464,0.054620024,-0.12470414,-0.39900157,0.44227627,0.32129475,-0.00080336456,0.7371518,0.21411967,0.32821378,0.29286084,0.44121575,0.5006942,-0.21731426,0.13542223,-0.45849118,-0.11282757,
jj_ntk(),-0.79460335,-0.41778752,-0.046032395,-0.08432338,0.9135555,-0.42977786,0.26811236,-0.53572524,-0.62050253,-0.47656685,0.1464308,0.4491471,-0.3542134,-0.33220935,-0.15550528,-0.8643657,-0.051004928,0.9234601,0.25550544,-0.76381636,-0.14440438,-1.005082,-0.29299062,-0.4253926,0.10808958,1.1402547,0.381775,0.5066575,-0.9368185,0.8216137,
jjCheckNAddTwoStates(),-1.0395132,-0.26083747,0.17408778,0.424556,1.355548,-0.9478464,0.080932565,-0.46499136,-0.93154347,-0.46575007,0.07950592,0.18862437,0.107331514,-0.29380554,0.27830365,-0.9544421,-0.09881706,1.0214913,0.4717497,-0.62620854,-0.41671973,-1.042745,-0.41194588,-0.4020026,0.22020568,0.8598056,0.30355507,0.7549328,-1.2866435,0.99068075,
GetSuffix(),-0.7693548,0.1478484,0.31840628,0.88509744,0.99333674,-1.2757757,0.38627997,-0.15537806,-1.3000841,-0.73578614,-0.24998443,0.9052723,0.23703016,-0.23288867,0.42053103,-0.76499027,0.117848314,0.954662,0.70721364,-0.01057312,0.10439146,-0.5125847,-0.3626095,-0.5346052,1.1447432,0.09331602,0.35716885,0.89361876,-0.93164396,0.6786121,
jjCheckNAdd(),-0.94550395,-0.38175642,0.19430606,0.4075373,1.2797855,-0.83350635,0.14128529,-0.4531672,-0.8529361,-0.3781936,0.027790856,0.14171869,0.06320919,-0.35941648,0.19143529,-0.85563594,-0.04072986,0.86546594,0.4214089,-0.669477,-0.37270665,-1.0571997,-0.2800297,-0.32713845,0.11964469,0.90531594,0.32818633,0.7255119,-1.1872593,0.91695935,
o,0.2282659,0.06650205,0.13360459,0.5031038,-0.10505975,-0.54430205,0.014278278,0.045273755,0.07681455,0.17194983,0.49344712,-0.060362455,-0.41849288,0.46892548,0.023885243,-0.023042342,-0.31695208,0.28644487,-0.0997447,-0.1285976,0.40467992,0.20113944,-0.15820265,-0.01864077,0.11863681,0.65420574,0.070195936,0.31354254,-0.18921295,0.033421535,
readChar(),-0.23389547,-0.24658841,-0.15462968,-0.30880183,0.39687178,-0.69533783,0.2458445,-0.36837155,-0.07817041,0.03280036,0.22122733,-0.04692245,-0.023742458,-0.27144763,-0.27533013,-0.3403067,-0.10475213,0.3956409,0.37124354,-0.9772815,0.24019372,-0.80212706,-0.07681,-0.21106198,-0.53668386,1.6646953,0.20824851,0.35038245,-0.6320022,0.6461364,
setProperty(),0.47351784,-0.25312805,0.050142605,-0.03231864,-0.12915565,-0.24514028,0.42167118,0.10873808,0.06958323,0.21511205,0.00040091516,0.033667546,-0.43558538,-0.03608624,-0.1808453,-0.06910892,0.025925724,0.37370017,0.37576374,-0.20424148,1.0171151,0.3318284,0.31247988,-0.15270948,-0.107620165,0.79630274,-0.15282989,0.34483936,-0.8499803,0.12799503,
add(),-0.3124248,0.29342058,0.16673006,0.24999228,0.16672406,-0.48959154,-0.23035163,0.09003455,-0.005073623,-0.22163539,0.355513,0.19119662,-0.41217098,0.41024837,0.268796,-0.6142966,-0.33895797,0.92879885,0.41631368,0.4311352,0.18268634,0.42170936,-0.18372408,-0.117173426,0.79080987,-0.2221603,-0.0021583233,0.30262607,-0.7709677,0.35541928,
evaluate(),0.446235,0.25453842,0.06271547,0.2623696,0.16957042,-0.6555755,0.25639647,0.48174316,0.18453401,0.029922066,0.198936,-0.13329297,-0.40029046,0.35893977,0.19244526,-0.5174524,-0.45261642,0.7776428,0.41001382,0.1502573,0.71929985,0.2667731,0.051747784,-0.57322395,0.46089655,0.15376535,-0.48991492,0.26636314,-0.44509006,0.11927342,
getCurrentTemplateName(),0.5901271,-0.06661867,0.20141904,0.26387447,0.5341258,-0.74146426,0.41690454,0.31108865,0.22454189,0.18980387,0.3676023,-0.6070482,-0.3926383,0.5011341,0.29834646,-0.7118826,-0.74609506,0.46774396,0.62089044,-0.04877315,0.595561,0.3120617,0.02201624,-1.1901108,0.32546675,0.49336496,-0.5541054,0.5001735,-0.3701485,0.30207622,
jj_scan_token(),-1.1302046,0.2343114,0.11207835,0.19784537,0.6596967,-1.1630574,-0.33514768,-0.18938196,-0.21142544,-0.24090143,1.2930349,0.10399268,0.09561661,0.48438787,0.4884247,-1.0140102,-0.7877014,1.0385953,0.21980733,-0.38702208,-0.5608492,-0.646017,-0.7530032,0.010919245,0.38472882,0.59467095,0.24284299,0.48031422,-0.548203,0.83316934,
jjCheckNAddStates(),-0.8178077,-0.33755255,0.21149832,0.5283102,1.3392489,-0.9544232,0.19076355,-0.42413467,-0.9994472,-0.39472222,-0.13290364,0.16014107,0.025871614,-0.3615462,0.21715507,-0.7755985,0.1030981,0.8474404,0.38428277,-0.67854804,-0.31824562,-1.074091,-0.35346922,-0.43497723,0.11873907,1.0236169,0.34780064,0.7752286,-1.2371615,0.8982787,
visitor,-0.25240216,-0.29430628,0.12634523,0.58872616,-0.56655806,-0.9819027,-0.15534925,-0.08440578,0.6242426,-0.06107918,1.6673164,0.34469262,-0.85862756,0.69611764,0.14151978,-0.38601577,-0.82030416,0.6068744,0.37069345,0.0030273066,0.5014538,0.062871344,0.07352396,0.80192196,0.83024585,0.62010306,0.14766814,0.15891187,-0.22204567,-0.054124992,
getLine(),0.6301802,-0.035726838,0.2709813,0.4183154,0.48868203,-0.82161236,0.4684207,0.3425038,0.19586149,0.18973483,0.46436888,-0.6224079,-0.43890098,0.5694335,0.35594317,-0.62907463,-0.7263953,0.4572694,0.5759694,0.011327973,0.62755966,0.2288175,-0.03187086,-1.1452686,0.4164491,0.5016373,-0.5800682,0.46922407,-0.27300224,0.20733613,
getColumn(),0.65092075,0.026971545,0.25939876,0.3680351,0.46409956,-0.8005148,0.38375986,0.37213165,0.21943444,0.13293861,0.50276685,-0.5678634,-0.49321967,0.65557545,0.37591898,-0.62639123,-0.7891148,0.4571821,0.5424532,0.0066096443,0.60418594,0.2579049,-0.053434275,-1.1609607,0.46073726,0.4476935,-0.5368083,0.48960698,-0.16967124,0.22579172,
closeNodeScope(),-0.50813395,-0.16671018,-0.08268731,-0.2905191,0.7106508,-0.021913495,0.08262404,-0.30238062,-0.44288635,-0.25131428,0.38968766,0.31582573,-0.69758534,-0.043808993,-0.17985262,-1.0074759,-0.26658663,0.9879418,0.061254565,-0.33831507,-0.18248811,-0.5166187,-0.48755428,-0.7589066,0.13824445,0.5597318,0.11372949,0.24054864,-0.81393224,0.8750656,
getString(),0.38329703,-0.05815187,0.16979373,0.3192883,0.019952413,-0.43570966,0.0830381,0.013644128,-0.02430226,0.04185247,0.10132297,0.02107881,-0.35127527,0.29438585,0.00441996,-0.19298704,-0.22731595,0.37223276,0.36383906,0.12997624,0.6410386,0.47169915,0.16059014,-0.0676139,0.33894423,0.3609712,-0.14251964,0.330711,-0.5675128,-0.044588875,
active0,-0.45337045,-0.2882513,-0.12159778,-0.16458666,0.3116268,-0.9241371,-0.0026290661,-0.55893105,-0.12191426,-0.05330247,0.5192989,0.068372786,-0.062904924,-0.18494993,-0.20137976,-0.3276819,-0.18545811,0.3084782,0.21527578,-1.0271431,-0.04977936,-0.9031658,-0.23283423,0.06815458,-0.52733546,1.6937679,0.38897827,0.360924,-0.49223912,0.6256621,
jjtAccept,-0.30579802,-0.37895405,0.12507278,0.5151728,-0.6023187,-0.8887476,-0.12316917,-0.21268833,0.5771026,-0.053258188,1.5835773,0.36446792,-0.8836257,0.59900963,0.08157405,-0.29072168,-0.7275622,0.5087565,0.340189,-0.083091624,0.49435845,-0.03331529,0.14257239,0.839506,0.6555084,0.80701405,0.2403464,0.15779842,-0.21735947,-0.008440148,
message,0.40550634,-0.39398536,0.1974512,0.342756,0.21116109,-0.28949752,0.1566658,-0.28275818,-0.21976258,-0.112555645,-0.040391937,0.12831758,-0.3607204,0.06591618,-0.07355562,-0.1590814,0.0089941025,0.11235633,0.26966035,-0.19151513,0.38385487,0.12747702,0.15339851,-0.07147528,0.2098585,0.7464185,0.132319,0.39752737,-0.39200398,-0.054395612,
visit(),-0.008914044,-0.17049024,0.17114234,0.66956204,-0.4306179,-1.0386233,-0.066297546,0.1466887,0.6024915,0.029977066,1.5181271,0.1818022,-0.824068,0.839721,0.25099215,-0.4496549,-0.91703105,0.68761903,0.34788436,0.10322777,0.6417245,0.20439622,0.05513475,0.49680057,0.84533274,0.47810733,-0.09750341,0.18828726,-0.19368675,-0.08382025,
info(),0.07910017,-0.08391094,0.15310846,-0.037969492,0.23471951,-0.2545484,0.0006874778,-0.14781992,-0.056849446,-0.1196384,-0.07320193,-0.025193488,-0.26895553,-0.011554699,-0.057113584,-0.45418188,-0.14277488,0.43156672,0.43885982,-0.09177549,0.3188558,0.1198975,0.1335423,-0.34045553,0.059199497,0.40290576,-0.091453,0.36069572,-0.6768076,0.3061621,
String,-0.5529136,0.1505684,0.21161951,0.5530639,0.71839666,-0.95022416,0.21626331,-0.026756193,-0.75900865,-0.58763945,-0.0961924,0.74090296,-0.011703098,-0.057770055,0.36623043,-0.6139049,0.08152402,0.8815946,0.450261,0.08592482,0.117959656,-0.30463013,-0.3645687,-0.25527886,0.85256016,-0.071916856,0.2018786,0.58469903,-0.6675563,0.49515945,
openNodeScope(),-0.4561903,-0.44836497,-0.20052035,-0.5064782,0.34763095,-0.060739484,0.04110692,-0.4486203,-0.13100618,-0.2816763,0.29949245,0.4381744,-0.6350748,-0.15363134,-0.30231944,-0.7162813,-0.049098305,0.69640416,0.19981623,-0.47654063,-0.07535109,-0.514622,-0.17236093,-0.19504069,-0.05637144,0.91275245,0.20996904,0.24636066,-0.8057628,0.69726574,
getTemplate(),0.39326644,-0.2375496,-0.034213867,0.31826398,-0.1701464,-0.31607428,0.091307685,0.116226435,0.28317857,-0.07637629,-0.0012313722,0.066900015,-0.38437936,0.21060592,-0.018785167,-0.18970893,-0.11574296,0.39572018,0.3800435,-0.03067038,0.9133418,0.26919073,0.19888361,0.056674127,0.36743596,0.57035375,-0.11907683,0.1653899,-0.5314012,0.0011252849,
jjStopAtPos(),-0.29690966,-0.21570635,0.05787985,0.5374371,0.6776684,-1.1704501,0.19098,-0.33538014,-0.51350033,-0.1575717,0.2079225,0.11465342,0.03447535,-0.08425563,0.026213322,-0.19714905,0.14619194,0.2691781,-0.031538136,-0.9184155,-0.1685214,-1.1347284,-0.3409585,0.10375525,-0.20999277,1.591886,0.5212265,0.59329504,-0.49329263,0.42581812,
writer,0.20072007,-0.08165528,0.20451586,0.36258054,-0.031105109,-0.6125604,-0.10074383,0.07496951,0.31677458,-0.04943222,0.7245852,-0.034400098,-0.5212907,0.5372181,0.10937805,-0.49978054,-0.8198789,0.43821773,0.4297036,0.1462343,0.4526798,0.34622872,0.17676349,0.0966002,0.5345836,0.2307455,-0.3200287,0.16336548,-0.23427741,-0.049244,
childrenAccept(),0.08289963,-0.19642822,0.30884,1.4355083,0.007586018,-1.1836054,0.5012484,0.46791178,0.015242912,-0.19510046,0.962054,0.44809887,-0.552174,0.61917174,0.54937345,-0.18880314,-0.4351534,0.5699834,0.39019626,0.06121938,0.8014105,-0.3308233,0.13886899,0.40965006,1.2617757,0.5948672,-0.05272023,0.30963343,0.04482853,-0.36863777,
VelocityContext,0.41060632,-0.049671493,0.06433304,0.34118205,0.15410277,-0.4227332,0.31889498,0.31767496,0.097638115,-0.13064985,-0.13957472,0.2192948,-0.50639886,0.085837305,0.077452414,-0.25676778,0.0050736936,0.736574,0.2957042,0.14191194,0.7630915,0.16528918,0.19259122,-0.13445318,0.46605897,0.1720554,-0.22160485,0.28293476,-0.5842534,0.059287705,
value(),-0.023639193,0.06900218,0.053015977,0.113607936,0.22338323,-0.5705949,-0.051142693,0.21353944,0.41853452,0.026038399,0.8887486,-0.26218048,-0.39425978,0.6333051,0.27659288,-0.9750928,-1.1159427,0.90996706,0.60105264,0.1067237,0.41527283,0.46794838,-0.060443044,-0.5892506,0.5559942,-0.0035667336,-0.5519254,0.26869482,-0.6635744,0.3786809,
getFileName(),0.4884209,-0.6067853,-0.10894752,0.26861322,-0.25192636,-0.30641806,0.114076674,0.05296686,0.45882285,-0.20754924,0.18517604,0.33708444,-0.545945,0.18710065,-0.06681402,-0.1044392,-0.04142378,0.3628752,0.48235548,-0.049713835,1.1022776,0.33566803,0.34382284,0.40580517,0.4445222,0.65056545,-0.03259668,0.20113198,-0.5968762,-0.038549203,
close(),0.6042238,-0.20844965,0.040056005,0.3447947,0.29160482,-0.3497692,0.4201319,0.088715956,-0.23564963,-0.015964022,-0.4830558,0.03396862,-0.46830538,-0.15883479,-0.19913344,-0.20654207,0.13800131,0.42485258,0.26483256,-0.22548255,0.84333664,-0.0789489,0.25224495,-0.4503547,0.037655115,0.7705154,-0.043347407,0.46263805,-0.6410656,0.15422422,
showNode(),0.31801593,-0.21792227,0.32437155,1.4597405,-0.114588514,-1.2484808,0.50926584,0.44343415,0.06419255,-0.15574299,1.0362264,0.46541008,-0.7473553,0.77723736,0.4932153,-0.19226256,-0.50317186,0.56689024,0.347752,0.04668523,0.9782676,-0.15983775,0.08435311,0.39687043,1.2581459,0.72614104,-0.03239564,0.34712958,0.034072023,-0.39207974,
size(),-0.38332507,0.2641395,0.15984167,-0.13409355,0.09358008,-0.49779773,-0.38231006,-0.30361608,-0.02960574,-0.3854106,0.3301755,0.32699195,-0.24060754,0.23111865,0.045918573,-0.8225145,-0.5494203,0.7058888,0.73656857,0.2671636,0.21851328,0.51145357,-0.040715083,-0.08139174,0.47501102,-0.16668573,-0.02670474,0.3860138,-0.79826266,0.49498165,
popNode(),-0.3493572,0.0986106,0.029638715,-0.09031167,0.86824894,-0.19747894,0.12676467,-0.066393025,-0.564695,-0.17749381,0.24346559,0.07900533,-0.56608355,0.0759061,-0.05463508,-1.109748,-0.41226143,1.0565456,0.16349779,-0.17498453,-0.038056813,-0.30362585,-0.570344,-1.1524915,0.19200984,0.36711997,-0.10432004,0.364341,-0.88555616,0.9785937,
jjAddStates(),-0.81104904,-0.32593122,0.09701498,0.2713022,1.03744,-0.8639592,0.07841621,-0.527379,-0.7778903,-0.43710616,0.06253099,0.2596804,-0.0038791166,-0.34638587,0.13255467,-0.7498609,0.022906447,0.73892915,0.3790496,-0.67799747,-0.3076489,-0.9548725,-0.37143365,-0.3021311,0.009958328,1.0222267,0.35671726,0.63544905,-1.0601319,0.83933765,
getMethod(),-0.068468325,0.20826472,0.17433706,0.5033707,0.24177861,-0.5971084,0.13931449,0.16682829,-0.2721804,-0.20783065,0.046432775,0.15401384,-0.20593293,0.18021464,0.2812951,-0.42128283,-0.07951914,0.6724193,0.440748,0.2535427,0.29541773,0.1816582,-0.1845418,-0.45601532,0.7254739,0.027352983,0.06017604,0.3377138,-0.552067,0.23190862,
clearNodeScope(),-0.30264705,0.0024604513,0.009345231,-0.18163677,0.7670856,-0.20888102,0.20243338,-0.1787774,-0.4616377,-0.16580503,0.085559785,0.071346745,-0.4860715,-0.022754367,-0.12948151,-0.93981576,-0.26523083,0.9226279,0.23924185,-0.262991,0.042788245,-0.387735,-0.37435672,-0.92561865,0.0646373,0.57992584,-0.052639868,0.36043125,-0.85851294,0.89995164,
DoStatement,-0.9440185,-0.23991783,0.021045512,-0.127865,0.7233623,-0.5563348,-0.15889446,-0.57184255,-0.43725616,-0.4531907,0.27273795,0.28604147,-0.06800815,-0.2670853,0.034155898,-0.8723839,-0.21932507,0.75860167,0.42351443,-0.51342964,-0.3125589,-0.59852624,-0.28710803,-0.1322167,0.010060092,0.6594763,0.30201998,0.48132688,-1.0260152,0.8547477,
StringWriter,0.29550102,0.11695141,0.053211764,0.234956,0.18002976,-0.4296779,0.23653458,0.2661371,-0.035861284,-0.14745256,-0.19421855,0.15887292,-0.37855145,0.07481602,0.119975016,-0.38493758,-0.084613964,0.7317962,0.44753888,0.17234437,0.6588846,0.2073843,0.055502277,-0.43437803,0.44750005,0.13099743,-0.22055618,0.2931057,-0.6211244,0.19540851,
pos,-0.4576187,-0.18467887,-0.04770803,-0.15709361,0.24883966,-0.74376893,-0.048722822,-0.4929907,-0.05751886,-0.10783965,0.4941177,0.058521267,-0.08523527,-0.09839879,-0.15951465,-0.38769224,-0.21127184,0.3238025,0.22074498,-0.7820134,-0.06871026,-0.66766006,-0.22349592,0.13023126,-0.32899764,1.3035764,0.33454373,0.3177369,-0.49489543,0.54103494,
isMatch(),0.47648785,-0.099951245,0.01065733,0.42336997,0.5135369,-0.48650053,0.5801166,0.124420926,-0.45263872,-0.059452903,-0.5015388,-0.08769804,-0.26601595,-0.21912934,-0.091794446,-0.29015613,0.06629736,0.5445324,0.24787675,-0.4000655,0.8754561,-0.2625836,0.06334178,-0.80218273,-0.05955638,0.9844867,-0.10791437,0.5022749,-0.6958574,0.32691842,
rs,0.1653955,-0.2523967,0.11142238,0.16997734,-0.19585419,-0.36598802,0.0152722765,0.07267487,0.33528876,-0.0065838443,0.43029004,0.13272062,-0.57582146,0.27155825,0.020927284,-0.19455843,-0.31332824,0.35688093,0.3429604,0.003543662,0.5002261,0.21829338,0.21635818,0.28050002,0.36379734,0.4018122,-0.10968714,0.16378535,-0.46910414,-0.004822802,
message(),0.8594546,-0.19657123,0.3240643,0.57197696,0.13762651,-0.59576607,0.22044003,-0.18594937,-0.40166867,-0.1466785,-0.4446624,0.17118354,-0.48854217,0.23858806,-0.18534869,-0.13003658,-0.094054736,0.1631561,0.53860587,0.21705644,0.8953912,0.4781354,0.4864241,0.048172016,0.44959462,0.7069662,-0.070482716,0.56516063,-0.5936515,-0.12610647,
ContinueStatement,-0.5528224,0.20532785,0.07831826,0.12612246,0.53037876,-0.898988,-0.02950208,-0.47859448,-0.91964716,-0.6038568,-0.38255194,0.5850081,0.17590335,-0.30317014,0.09081973,-0.6562706,0.18607213,0.64778835,0.70867926,-0.06870103,0.088827685,-0.123679556,-0.30351722,-0.48300135,0.47803876,0.3159683,0.37647286,0.7358506,-1.1579192,0.6481624,
Integer,0.20250487,0.09329171,0.20322378,0.39022547,0.24308963,-0.52217704,0.13244587,0.14892355,-0.05649109,-0.12882818,0.15595554,0.08971018,-0.41194952,0.3650823,0.1926712,-0.4185634,-0.31090903,0.5964116,0.34664243,0.2494313,0.4480065,0.26248625,-0.056721546,-0.22349283,0.59654427,0.062067136,-0.19495058,0.3054508,-0.4016738,0.10232081,
flush(),0.65631694,-0.19446793,0.07221925,0.49024752,0.29410386,-0.439316,0.37580353,0.13302273,-0.2325782,-0.05803872,-0.47681275,0.041511357,-0.43215752,-0.083474085,-0.085432015,-0.16205053,0.11930452,0.4164949,0.27714372,-0.111327164,0.844252,-0.019719917,0.23871224,-0.33404815,0.19771262,0.654677,-0.055062767,0.46177152,-0.5858802,0.11989362,
ArrayList,-0.14432907,0.05101247,0.07212367,0.08131217,-0.002306822,-0.33439684,-0.22367258,-0.017831685,0.16366132,-0.21017964,0.37427205,0.26969364,-0.5433218,0.35159445,0.095714316,-0.53020024,-0.40634832,0.70255995,0.3746592,0.2680086,0.29248306,0.38843757,-0.025265606,0.122730255,0.5638088,-0.07035042,-0.099581316,0.19722466,-0.59683114,0.2357514,
charAt(),-0.46276158,0.17526756,0.041365646,-0.023618534,0.2121434,-0.5673576,-0.24933629,-0.35012338,-0.35261163,-0.44413123,-0.023071606,0.40726328,-0.017977368,-0.08966941,0.043276414,-0.6720556,-0.22169074,0.58923095,0.6384567,0.07560667,0.13766073,0.17918907,-0.11387572,-0.18645868,0.44408733,0.002630484,0.14267135,0.4717257,-0.8595734,0.5162369,
getName(),-0.06277947,0.07901224,0.06989582,0.14473315,0.12808795,-0.38506004,0.007197609,-0.04035509,-0.040541366,-0.1362352,0.21438041,0.15952279,-0.27782103,0.14597623,0.07388413,-0.39021656,-0.26195794,0.50107527,0.31865564,0.017349277,0.32267082,0.1417294,-0.0997894,-0.2497955,0.28788337,0.24202937,-0.026782429,0.2637954,-0.46133828,0.2436883,
getMessage(),0.28473523,0.021806374,-0.014050212,-0.02386378,0.2307938,-0.3044753,0.26899928,-0.04615936,-0.24530502,-0.033461448,-0.15107964,0.013108368,-0.3740959,-0.033553533,-0.15711994,-0.42836502,-0.105205305,0.47513136,0.37226275,-0.17608775,0.53640413,0.05389875,-0.084973864,-0.72829926,0.0022426292,0.65284806,-0.08047416,0.34408346,-0.58708304,0.43030706,
getProperty(),0.05855384,-0.08378914,0.044611838,0.108435854,-0.08438592,-0.29308033,0.03653771,-0.01559367,0.104656875,-0.05789767,0.30651736,0.18402633,-0.4343073,0.18530008,0.015794493,-0.28152463,-0.23603132,0.42168444,0.29350215,0.033931077,0.43329567,0.2332939,0.05353181,0.004608943,0.24598034,0.2953372,-0.050616097,0.19724493,-0.5394956,0.15640628,
merge(),0.59419733,-0.22376357,0.079768844,0.48793694,0.1498529,-0.40785405,0.3057948,0.15834756,-0.04906714,-0.06135075,-0.28323457,0.048096444,-0.41470966,0.012141981,-0.019281818,-0.13540763,0.034331,0.44207546,0.27722114,-0.04097518,0.85730106,0.091315046,0.3140407,-0.15004276,0.28311473,0.49927333,-0.06901366,0.39750615,-0.5319994,0.01715005,
templateName,0.30516487,-0.19892661,0.093139455,0.39004806,-0.20707814,-0.46880475,0.02978597,-0.057888575,0.17843963,0.02810783,0.34126714,0.11450114,-0.500272,0.35426164,-0.017677182,-0.1553526,-0.2348647,0.28210476,0.2257753,-0.10420968,0.6103348,0.25672984,0.07805517,0.13984597,0.34438533,0.61138165,0.006317192,0.22368158,-0.29914275,-0.051130738,
i,-0.12167961,-0.08245424,0.01057531,0.115347944,-0.19638725,-0.4347231,-0.17399089,-0.2162736,0.12663823,-0.055431012,0.5514799,0.18304038,-0.39314616,0.24227831,-0.008084165,-0.28863284,-0.2961945,0.28017104,0.2275092,-0.10153838,0.25571057,0.098332465,-0.033161364,0.16854891,0.19513382,0.50346154,0.14656365,0.24674048,-0.34933552,0.19419166,
defaultValue,0.04616091,0.07711087,0.15907335,0.4061387,0.049202465,-0.5034314,-0.06298194,-0.039358463,-0.06090818,0.10737594,0.5335398,0.056242716,-0.37177038,0.47369626,0.14431344,-0.16979727,-0.33307114,0.5174451,0.0025916854,0.058378577,0.44050565,0.4198169,-0.19319485,-0.06465156,0.29211307,0.33831146,0.005938385,0.35789567,-0.4600056,0.122289605,
ParseException,-0.3840544,-0.21332902,-0.038352218,-0.19259354,0.7185654,-0.24234582,0.139269,-0.39493033,-0.49897233,-0.2660407,0.033750504,0.2308385,-0.44528535,-0.20058599,-0.20354486,-0.7690172,-0.03042348,0.7343437,0.20017047,-0.45160246,-0.08556151,-0.54751116,-0.27908424,-0.58987284,0.0137261795,0.78891563,0.19980454,0.4286515,-0.86182636,0.759297,
suite,0.43942618,-0.24270914,-0.007566847,0.263974,-0.16693108,-0.42303103,0.31047487,0.07521478,0.09853076,0.011623063,0.12042172,0.20840034,-0.554275,0.114349514,-0.10577129,-0.04000678,0.041198928,0.25537685,0.1734559,-0.21092364,0.66725945,0.006803946,0.0801695,0.048702553,0.15434627,0.7800238,0.041681148,0.21808694,-0.32035854,-0.016986448,
s,0.0071043684,-0.11461328,0.046556495,0.11593187,-0.2957792,-0.48035052,-0.21781388,-0.22794981,0.15730394,-0.050485548,0.47336832,0.16655979,-0.4510989,0.24590717,-0.0813548,-0.19820277,-0.25583977,0.25093287,0.23380908,-0.04147612,0.3500154,0.24114442,0.04726778,0.22497134,0.18392028,0.5304778,0.16295642,0.261497,-0.4360492,0.17107064,
evaluate,0.09540145,-0.026526403,0.1455213,0.4510128,-0.24754135,-0.75255364,-0.123408556,0.12427504,0.5058174,0.0012342319,1.0553727,0.040651802,-0.6569253,0.6590132,0.1659144,-0.4750653,-0.7994007,0.573419,0.33256584,0.16090213,0.53816843,0.37645847,0.05159636,0.18798247,0.6299241,0.26562974,-0.25965524,0.17021175,-0.27654436,-0.01987587,
getFirstToken(),0.13692023,0.08069811,0.15425397,0.2967816,-0.018154373,-0.5662233,-0.011311166,0.1268118,0.1896028,-0.089929804,0.40914425,-0.034819636,-0.39255255,0.37345135,0.16304299,-0.5212374,-0.52056736,0.46480775,0.49084312,0.22371534,0.43221584,0.3563842,0.15471913,-0.23289376,0.57397133,0.02977107,-0.23699528,0.2859404,-0.44248983,0.07109946,
invoke(),-0.0016503234,0.21840872,0.16112988,0.41447604,0.20790417,-0.57450384,0.097907074,0.17226698,-0.12721364,-0.17215513,0.11269469,0.06998425,-0.36748248,0.2430273,0.23924641,-0.42852807,-0.04799075,0.6235895,0.3187794,0.23789452,0.29361647,0.16808778,-0.25691468,-0.51164305,0.62561977,0.1315611,-0.0011435181,0.3291475,-0.51403594,0.21438,
runTest,0.4769418,-0.21384156,-0.0030886077,0.28693047,-0.11694421,-0.40588495,0.27369985,0.10885851,0.0981739,-0.0069190906,0.028437892,0.1928067,-0.5242286,0.1285288,-0.041965708,-0.07560787,0.050168976,0.2997731,0.1874083,-0.10194729,0.7053031,0.13571057,0.07613936,-0.008185478,0.1947251,0.69294596,-0.020335026,0.24076442,-0.39575213,0.0028974735,
File,-0.060989134,-0.0008904255,0.021251708,0.040216997,0.061973587,-0.33010924,-0.050080758,-0.08654525,-0.09628016,-0.19487558,0.12819335,0.27017632,-0.37605187,0.06684715,0.017930275,-0.43915772,-0.15227124,0.4823644,0.34015962,0.044427168,0.25591028,0.17199749,-0.061290946,-0.15046851,0.30260766,0.20141758,0.0015509834,0.28302836,-0.612974,0.2621223,
OutputStreamWriter,0.5027105,-0.40086326,0.014580415,0.4273555,-0.08665952,-0.37615713,0.20271465,0.09395737,0.188974,-0.13338996,0.053733684,0.28348172,-0.5593045,0.16806307,-0.0030632298,-0.1133936,-0.030135198,0.35978776,0.2914943,0.014740938,0.867002,0.25212204,0.28982255,0.18251176,0.42405117,0.46249187,-0.0020361373,0.28363457,-0.46739626,-0.095071,
printStackTrace(),0.46501142,-0.03844018,-0.018008657,0.1310493,0.079660326,-0.43027523,0.35356802,-0.004116206,-0.18516812,-0.019428767,-0.2972112,0.0996033,-0.33986473,-0.1219997,-0.17806529,-0.16573714,0.106847085,0.30930376,0.37020838,-0.24975428,0.7286982,0.0052035963,0.11167945,-0.38218495,-0.03152786,0.79739016,-0.013483268,0.39776063,-0.60307384,0.20815966,
indexOf(),-0.20278285,0.13727939,0.05692927,0.108723305,0.09471509,-0.4966757,-0.19229202,-0.11192237,-0.12923855,-0.23776811,0.20797068,0.13846248,-0.30356833,0.1547587,0.09431084,-0.55722415,-0.29389986,0.5001486,0.3706605,0.13401908,0.12827249,0.16857876,-0.09647998,-0.27995047,0.35990396,0.0978433,0.019507676,0.34436575,-0.6239523,0.35916576,
encoding,0.2182002,-0.08357563,0.041273274,0.43979573,-0.23141915,-0.42274952,0.01450342,-0.005990827,0.11034769,-0.010172197,0.25774297,0.12755422,-0.42709443,0.3298626,0.0046610977,-0.17411985,-0.19157474,0.30604166,0.19972764,-0.020922137,0.60423917,0.25339398,-0.006201897,0.07727332,0.42393816,0.49906206,0.02559371,0.21205102,-0.32546204,0.01725755,
getBoolean(),0.21050748,0.017714366,0.21516448,0.3248098,0.16603161,-0.45175543,-0.0050204922,-0.084237315,-0.18169232,-0.03068225,0.08966333,-0.0058422247,-0.3911894,0.24647129,-0.005941734,-0.28714305,-0.20648453,0.332673,0.18364781,0.11314943,0.36986345,0.26762486,0.057955097,-0.19731937,0.2605325,0.320211,-0.06672534,0.33460584,-0.4547001,0.11302701,
Hashtable,-0.12255377,0.028972827,0.086752035,0.09976993,0.060335897,-0.36313236,-0.1180025,0.016210388,0.15401629,-0.19415227,0.2773254,0.22330543,-0.45340446,0.2382019,0.08397322,-0.42182782,-0.2931682,0.6477656,0.31417143,0.13867666,0.2906887,0.24638402,-0.023461135,0.06605138,0.43156344,0.06573035,-0.06083977,0.23629759,-0.58140993,0.21612789,
addElement(),-0.3336932,0.15397376,0.18790668,0.30530888,0.3284758,-0.5827653,-0.07436107,-0.020789739,-0.23775466,-0.28284797,0.16887571,0.31517872,-0.26576933,0.19508514,0.21402767,-0.5096408,-0.19276321,0.7420996,0.26801926,0.17121619,0.14493276,0.08147793,-0.21535492,-0.09384956,0.5534626,-0.08821091,0.0061181933,0.38839594,-0.6010789,0.36204976,
literal(),0.4120285,0.0040189694,0.17350185,0.25876153,0.26543543,-0.63592046,0.15349075,0.2037523,0.21855868,0.027378514,0.31402028,-0.33015686,-0.43023717,0.4471607,0.19297358,-0.6096019,-0.6301092,0.4637053,0.5580087,0.11201198,0.55237216,0.38905942,0.07470075,-0.72025746,0.390746,0.25665376,-0.4507066,0.39966303,-0.46010625,0.16802645,
NodeList,0.14402927,-0.10889457,0.048754215,0.33588845,-0.19731016,-0.45489243,-0.062415756,-0.069726884,0.14059846,-0.039278977,0.315624,0.11091291,-0.4711801,0.3094268,-0.043441575,-0.12293059,-0.21001714,0.24590708,0.15833665,-0.030857438,0.42179152,0.20457351,0.019363912,0.17537668,0.2875016,0.48138183,0.05360082,0.2313368,-0.29556724,0.033755086,
BufferedWriter,0.39363414,-0.379127,0.018964458,0.3721202,-0.17165838,-0.37477794,0.1031211,0.05191503,0.30006468,-0.14083926,0.21554117,0.32242373,-0.6118999,0.20441343,-0.018109718,-0.14753415,-0.09873072,0.39066774,0.3562779,0.057223313,0.79794264,0.280905,0.27819577,0.3156223,0.44387266,0.4125891,-0.027765611,0.2505205,-0.505323,-0.051942967,
getIntrospector(),-0.13360527,0.21146183,0.16554017,0.46638614,0.26672277,-0.59838736,0.072567545,0.15323398,-0.21132384,-0.21845593,0.13720296,0.1707675,-0.29458445,0.23529728,0.2781658,-0.495953,-0.057296414,0.717798,0.37110782,0.27084723,0.25457317,0.16995043,-0.27283674,-0.47260812,0.70104015,0.016578585,0.045506913,0.3584152,-0.5651318,0.25255877,
render,0.23576269,-0.07504421,0.18251021,0.41781682,-0.14457785,-0.6592025,-0.033946794,0.13061912,0.37211055,-0.013423119,0.76047075,0.022519244,-0.5763892,0.5743192,0.14275184,-0.3722433,-0.68967485,0.40902558,0.33018324,0.12073162,0.48569962,0.29499686,0.14707004,0.17060319,0.5422617,0.26892692,-0.2573328,0.16832982,-0.20245212,-0.071166016,
Exception,0.26309067,0.03702287,0.00096759177,0.031490445,0.3062407,-0.15591875,0.21427068,0.045227755,-0.20371576,0.020316342,0.06439189,0.0560373,-0.5560627,0.13959344,-0.105123386,-0.522057,-0.22366746,0.58885056,0.17753513,-0.072790615,0.40054283,0.10641676,-0.21287726,-0.7891434,0.16312069,0.43702486,-0.14562038,0.242069,-0.49427295,0.4323611,
FileOutputStream,0.38077363,-0.37701324,-0.0047553936,0.34959695,-0.24887721,-0.4308825,0.055681933,0.012515965,0.3351805,-0.1745777,0.24496004,0.29673702,-0.54368114,0.26305103,-0.016232967,-0.18182628,-0.13606162,0.31200597,0.41761318,0.037449703,0.86926574,0.34652883,0.24707577,0.31430268,0.45805994,0.5196945,-0.033539537,0.21847066,-0.51241344,-0.054790135,
stateStackPop(),-0.53163356,0.09139682,0.17978695,0.378051,0.74351233,-0.78686786,0.14899684,-0.20235915,-0.76433605,-0.44974083,-0.118495725,0.40885037,0.069673225,-0.15965332,0.18108271,-0.62776405,-0.0051603857,0.69414353,0.42277774,-0.15603584,-0.0048315395,-0.4113945,-0.2826148,-0.43687177,0.4989576,0.2774641,0.2313199,0.5819657,-0.771231,0.5822225,
SwitchTo(),-0.47535792,0.06600172,0.17993577,0.4524477,0.64416885,-0.7852995,0.119516574,-0.21979746,-0.72902346,-0.44088238,-0.17681348,0.43212348,0.067553066,-0.16627364,0.18582465,-0.5150284,0.080175385,0.6147305,0.4215324,-0.08860954,0.054408766,-0.33743465,-0.22368702,-0.3251762,0.4942415,0.25975832,0.24706228,0.5958795,-0.6910992,0.5154782,
parse(),0.23818341,-0.104097284,0.09781808,0.23048982,0.0042984663,-0.41347796,0.106961146,0.004163678,0.06882431,-0.011902833,0.18336533,0.060028873,-0.38884842,0.17885311,-0.049777463,-0.25450435,-0.19027947,0.35775894,0.26368225,-0.13009287,0.5131099,0.09826677,0.06044739,-0.12448653,0.21393162,0.5584635,-0.039284542,0.2534943,-0.3676313,0.09004083,
c,-0.06753199,-0.065360576,0.07417993,0.23048069,0.0059101623,-0.44869387,-0.05678719,-0.12290361,-0.024240337,-0.09544649,0.29166657,0.14431904,-0.29989773,0.17275865,0.0307409,-0.28952262,-0.24580573,0.33328936,0.21894391,-0.036374807,0.24154451,0.104499914,-0.031150648,0.041768666,0.24611208,0.37446734,0.07161095,0.27099073,-0.37830308,0.18286787,
exit(),0.47621134,-0.12273795,0.0026267213,0.15645404,-0.09690282,-0.4473465,0.33517835,0.031437717,-0.024173915,0.030247243,-0.073549226,0.073050864,-0.45511913,-0.02322955,-0.16642687,-0.06376982,0.03263424,0.26232612,0.3101148,-0.20603867,0.7195318,0.041518692,0.13494551,-0.18859094,0.01128693,0.8274701,-0.02276763,0.32689872,-0.48378178,0.09342315,
logVMMessageInfo(),0.05820672,0.023475062,0.18677188,0.2016044,0.4089507,-0.38260332,0.043127663,-0.060899578,-0.24320221,-0.08504595,-0.1407891,-0.08741382,-0.30495057,0.061850715,0.0039364332,-0.47093368,-0.08660673,0.4993627,0.29498315,0.033477023,0.22044028,0.05885282,0.024521893,-0.3963431,0.1912149,0.33222997,-0.05143762,0.38109306,-0.65588146,0.37099984,
startsWith(),-0.057722446,0.11311091,0.06472564,0.1478775,0.159577,-0.44876447,-0.08993122,-0.03594982,-0.1132102,-0.20095925,0.15328695,0.10239081,-0.28952387,0.1656479,0.1169656,-0.49859563,-0.2607471,0.49447837,0.36906344,0.14480439,0.20872518,0.15421912,-0.06600732,-0.3443647,0.38604984,0.09261561,-0.06566887,0.33257574,-0.54278743,0.2993173,
getTargetException(),0.487804,-0.071169764,-0.0030360438,0.08630028,0.17792374,-0.3449366,0.40199584,-0.0016474708,-0.10404696,0.102332674,-0.07270487,-0.1757822,-0.4428581,0.079617225,-0.18521486,-0.22515278,-0.1305236,0.3306522,0.3213748,-0.22738115,0.712342,0.10128487,-0.051362026,-0.83734024,-0.035814382,0.9403127,-0.09025155,0.39695176,-0.46232057,0.3566771,
namespace,-0.020967703,-0.040863585,0.06495299,0.20818618,-0.034086708,-0.38934246,-0.06881109,-0.06077646,0.08217628,-0.058756646,0.34423923,0.16863361,-0.35342613,0.2679697,0.047776487,-0.22345151,-0.2476285,0.41867453,0.18643826,0.014485701,0.37309498,0.24304798,-0.061516825,0.11879876,0.3076521,0.3094934,0.039282314,0.23976927,-0.40335917,0.10413942,
BuildException,0.051264502,0.05793616,0.018592363,0.05461936,0.25429454,-0.25217685,0.062823854,-0.083840124,-0.18000004,-0.048412092,0.10093954,0.048391547,-0.36242822,0.06664535,-0.06395684,-0.4530685,-0.22023286,0.46945587,0.22755139,-0.11334172,0.29501984,0.06436315,-0.14362867,-0.48931542,0.10289051,0.39603394,-0.053747468,0.25656104,-0.5280909,0.38422108,
hasNext(),-0.04475936,0.039476838,0.10150617,0.046644315,0.059968926,-0.32381555,-0.11841806,-0.1380692,0.0012785718,-0.22655088,0.15888721,0.19193242,-0.39692935,0.17845039,-0.019541869,-0.49326724,-0.30668113,0.51690793,0.40318796,0.13605998,0.35515153,0.3306386,0.013936655,-0.10034957,0.32898107,0.17234753,-0.061201256,0.3067784,-0.6657865,0.2908848,
next(),-0.006894024,0.059655726,0.121303335,0.08434484,0.11557575,-0.32147503,-0.12875609,-0.13321024,-0.045158323,-0.1952507,0.11835636,0.18674158,-0.41211367,0.19401823,0.0025277187,-0.5088314,-0.27892202,0.5131991,0.3996849,0.15917908,0.32409257,0.31075448,-0.0019071662,-0.12831338,0.3546616,0.12431573,-0.06263431,0.3059569,-0.63265157,0.27075246,
warn(),0.119809106,-0.14952992,0.11817654,0.20610456,0.21181536,-0.3847568,0.03598334,-0.18700182,-0.1214283,-0.12365601,-0.004342679,0.042803995,-0.24327007,0.040893026,-0.017469019,-0.26034755,-0.09241521,0.25794253,0.30471176,-0.14677745,0.26990718,0.04401813,0.091297984,-0.15899819,0.14286895,0.5341256,0.062205836,0.35956517,-0.47209796,0.16461842,
jjtGetNumChildren(),-0.006849764,-0.0067802095,0.09346382,0.11820136,-0.045105003,-0.51581186,-0.14105114,0.040949456,0.29614037,-0.086951874,0.56813323,0.0620279,-0.4216508,0.36235854,0.09488386,-0.5124148,-0.5889129,0.5040937,0.40275395,0.09934564,0.33627862,0.28058547,0.044928662,0.003590433,0.43126938,0.11734995,-0.19347435,0.1953151,-0.3782725,0.13027333,
old0,-0.36632663,-0.24343218,-0.022715732,0.045896057,0.36451402,-0.71623915,0.047731824,-0.4322576,-0.25327927,-0.15368667,0.22855885,0.15903872,-0.085558355,-0.19054021,-0.10004364,-0.3074879,-0.021102691,0.29662913,0.17693664,-0.6709898,-0.045624524,-0.62674016,-0.18383211,0.012128149,-0.22351308,1.1132604,0.34074613,0.38515428,-0.51768726,0.4563564,
log(),0.16072904,-0.103526235,0.060656525,0.14779766,0.10333699,-0.33954844,0.07013508,-0.095531285,-0.09930308,-0.061519735,0.015748385,0.04991616,-0.34135965,0.06900963,-0.064788036,-0.28771937,-0.10496218,0.35338715,0.31490394,-0.07339772,0.43963808,0.14609183,0.050878104,-0.1817547,0.16001476,0.48807317,0.0056909225,0.33465067,-0.5792806,0.22030817,
vmName,0.07803485,-0.11836051,0.0655583,0.30755806,-0.048525054,-0.42838055,0.036419008,-0.061801076,0.04989728,-0.026904326,0.36269128,0.18321519,-0.38644016,0.29022422,0.038525704,-0.19866751,-0.19410017,0.3201029,0.17578202,-0.09207491,0.38742074,0.14587268,-0.043537002,0.07910771,0.31157413,0.49046043,0.081630826,0.26113883,-0.30976805,0.062899835,
getTemplate,0.34187078,-0.16489545,0.060627084,0.46334833,-0.2057751,-0.51598054,0.07626959,0.027936127,0.20200506,0.009748357,0.26072416,0.112176366,-0.4499673,0.3259032,0.035833903,-0.16210777,-0.21679322,0.3490564,0.25335476,-0.0822764,0.76976854,0.19424875,0.07836205,0.08042313,0.42390132,0.61250347,-0.03228764,0.22453225,-0.30735007,-0.019780641,
nextElement(),-0.10817385,0.02799991,0.054760583,0.053568713,0.10199187,-0.37122846,-0.11015837,-0.12454609,-0.05117055,-0.24789876,0.12383057,0.25764504,-0.30431852,0.10367054,0.007629805,-0.4648212,-0.22933497,0.47984493,0.39373037,0.10589741,0.28300586,0.24674822,0.0019675565,-0.08992278,0.30716115,0.10515562,-0.016043313,0.3357099,-0.63174444,0.28546432,
trim(),-0.14585459,0.2329987,0.1467875,0.23648027,0.15819535,-0.58638304,-0.13721898,-0.12033692,-0.3028769,-0.31800738,-0.037633844,0.21009429,-0.26320025,0.04538688,0.19017595,-0.5544826,-0.07297133,0.6101889,0.4891588,0.32500947,0.20005238,0.36838517,-0.19087595,-0.4487518,0.6141702,0.014821997,0.110058285,0.4801368,-0.78618824,0.32540616,
HashMap,-0.03268834,-0.00026365963,0.097163364,0.1838651,0.061893713,-0.38572475,-0.05841268,-0.0068650995,0.065528214,-0.13216434,0.20898937,0.1858294,-0.3923794,0.1850714,0.08595506,-0.31975314,-0.22061045,0.50953436,0.24138573,0.05956063,0.3028657,0.17664495,0.007830318,0.048612475,0.33569556,0.18983406,-0.016356647,0.25208053,-0.4909579,0.16086651,
addProperty(),0.2964347,-0.115896195,0.110346414,0.26999614,0.0068158354,-0.38347346,0.18822967,0.041222006,-0.006658741,0.13315506,0.1295969,-0.019592669,-0.39889,0.16479412,-0.028740166,-0.06384012,-0.074628405,0.3539819,0.16937272,-0.08040846,0.6397856,0.2766059,0.09537643,-0.11941374,0.10659456,0.57649547,-0.09178337,0.33504328,-0.58120865,0.076858416,
arraycopy(),-0.6793031,-0.005583309,0.07840721,0.08894703,0.42573106,-0.459127,0.02513821,-0.13669029,-0.12848909,-0.17998703,0.5283849,0.16542675,0.052885234,0.08712096,0.16359025,-0.6174263,-0.4951875,0.73520607,0.46106797,-0.21689472,0.045651183,-0.27365375,-0.05630055,-0.09352235,0.37189177,0.25574657,-0.0007470292,0.23472954,-0.52272815,0.397671,
parse,0.24345022,-0.12946612,0.12787166,0.38412023,-0.13109754,-0.5044498,0.06555198,-0.022595093,0.09882404,0.009685279,0.24542078,0.13491733,-0.40879354,0.25716153,0.0053068893,-0.1285933,-0.16303535,0.3089309,0.2493313,-0.059403915,0.60080284,0.20923667,0.12024687,0.1231164,0.3161421,0.5699408,0.0057408344,0.27017453,-0.35282016,-0.024016872,
getInt(),0.1500183,-0.05890633,0.13814588,0.20128414,0.0009820788,-0.4794734,-0.05566168,-0.13799262,-0.009243219,-0.043977454,0.19468717,0.09929101,-0.32397625,0.23703937,0.005071846,-0.22828765,-0.2613171,0.3213513,0.32909977,0.087368116,0.45893252,0.37719005,0.07944448,0.028610112,0.25937352,0.3221854,-0.03411284,0.32664073,-0.52733237,0.10969679,
jjCanMove_0(),-0.5917501,-0.20975873,0.031683575,0.05911614,0.660622,-0.5811282,0.058951817,-0.37603778,-0.46056652,-0.30789593,0.08836313,0.19718674,-0.027876703,-0.2279867,0.041213933,-0.5307962,-0.024309512,0.5619392,0.3071401,-0.5103602,-0.13554029,-0.6082192,-0.2066603,-0.19092573,0.0123278685,0.75447714,0.25443718,0.4144946,-0.76624525,0.6062996,
assureResultsDirectoryExists(),0.3352251,-0.25861362,-0.011724381,0.16437832,-0.07579735,-0.36961317,0.17198719,-0.037411153,0.08991447,-0.040697373,0.028475003,0.17294712,-0.4574995,0.073609985,-0.10811114,-0.13680832,-0.015253705,0.27378798,0.26354834,-0.15604022,0.63605106,0.103523254,0.12070845,0.019309554,0.12838778,0.6969879,-0.014770674,0.26115802,-0.49301222,0.08920848,
ResourceNotFoundException,0.08020764,0.03227001,0.04955122,0.11712132,0.1606816,-0.31412888,0.038455863,-0.048296925,-0.12646282,-0.0894145,0.12677439,0.09344283,-0.3667685,0.13204038,-0.026353965,-0.42487302,-0.18633406,0.4847817,0.28180006,-0.0097750835,0.34340146,0.149353,-0.08771504,-0.37761852,0.2581253,0.28855568,-0.030466981,0.2872164,-0.5085615,0.31039894,
remove(),-0.034323096,0.06931861,0.09891342,0.18781467,0.06103474,-0.4503192,-0.052648526,-0.04050878,0.013412855,-0.0381288,0.29099253,0.033679996,-0.33153385,0.22351068,0.04125845,-0.3051075,-0.28053787,0.43117395,0.18694781,0.012544689,0.28842276,0.14035103,-0.085030556,-0.10415824,0.20465407,0.3124854,-0.032515056,0.29720658,-0.42285037,0.23390502,
ignored,0.19959575,-0.069657646,0.058326166,0.38294622,-0.1697542,-0.6719155,0.055332147,0.012364723,0.12965383,0.061799664,0.5739432,0.099819876,-0.40601712,0.39448085,0.09319018,-0.07857559,-0.21853502,0.20580858,0.047101352,-0.16801876,0.36953226,0.015080841,-0.073895566,0.22296663,0.19311346,0.64283735,0.11176057,0.24509455,-0.09034203,-0.002253871,
iterator(),-0.09725174,0.13322443,0.10617687,0.1584741,0.108769216,-0.4084101,-0.11153925,-0.078928724,0.03779344,-0.21014561,0.24147092,0.22220558,-0.37153542,0.21400258,0.07688094,-0.4714608,-0.31371072,0.57235616,0.33745715,0.115106374,0.29355165,0.24400549,-0.056762412,-0.06526084,0.3860892,0.098564915,-0.033933718,0.29900017,-0.54527956,0.26520827,
configuration,0.2236731,-0.09679673,0.14737184,0.36282894,-0.0945075,-0.4444725,0.082641624,0.028651435,0.058819905,0.04218186,0.35048866,0.116548814,-0.4977931,0.28595206,0.04513838,-0.14027883,-0.20538424,0.3254152,0.19883634,0.015530945,0.5528512,0.26131445,0.07425252,0.009856438,0.32366157,0.438169,-0.06810687,0.26437873,-0.4078551,-0.0004046965,
resourceName,0.09321159,-0.11247169,0.053539366,0.26282832,-0.035736274,-0.41619894,0.010369917,-0.121868856,0.015642146,-0.06374567,0.19623569,0.14538787,-0.36488238,0.1660402,-0.025936421,-0.21086197,-0.17160428,0.2879132,0.23943725,-0.1160002,0.428088,0.12170005,0.036725532,0.02543375,0.24687567,0.5210005,0.042303406,0.2732313,-0.4224153,0.11032814,
load(),0.15102264,-0.0906897,0.021142209,0.066939,0.07684773,-0.35583052,0.10778756,-0.06775922,-0.022972992,-0.05966292,0.080590285,0.11620091,-0.40178713,0.037880644,-0.078696065,-0.29622212,-0.08608622,0.3518475,0.26881027,-0.10350681,0.41739947,0.03462055,0.01803779,-0.21035923,0.11398254,0.53544414,-0.03788022,0.28348997,-0.52301604,0.21488696,
hasMoreElements(),-0.1359391,0.032440223,0.056969836,0.03263448,0.09074726,-0.3511584,-0.11219941,-0.1476298,-0.060900565,-0.22420156,0.14464417,0.23721996,-0.33988574,0.095683165,-0.0010539963,-0.49691683,-0.2595819,0.48822746,0.36849177,0.089927346,0.2360974,0.22843842,-0.038189862,-0.11142208,0.29250807,0.13687064,-0.04065224,0.30411693,-0.59701294,0.32307664,
kind,-0.30129996,-0.13589491,-0.0478971,-0.18100157,0.12705131,-0.4933486,-0.1055476,-0.35818464,0.0048213517,-0.12153333,0.3766154,0.105108276,-0.1891289,-0.03370773,-0.11455849,-0.38637152,-0.22523917,0.36834493,0.2663184,-0.42221853,0.07055889,-0.29817933,-0.09040315,0.036638025,-0.1420585,0.78906083,0.19000746,0.26736885,-0.4903947,0.4249769,
assertTrue(),0.06515932,0.112639435,0.14560886,0.39655104,0.19556554,-0.60407287,0.115626894,0.090314485,-0.181622,-0.16452302,0.01684555,0.091952085,-0.323924,0.13598983,0.16713437,-0.38784638,-0.026067533,0.5921404,0.38084456,0.17210646,0.3739823,0.15521848,-0.10164528,-0.45569828,0.5499544,0.2551917,0.040194094,0.39810178,-0.6006495,0.22410081,
get,0.08516222,0.07889888,0.12405209,0.3106901,0.06872917,-0.42006072,-0.0059606037,0.021094836,0.009230438,-0.011515788,0.2961247,0.04685934,-0.33592707,0.30255234,0.090273924,-0.22986864,-0.27904522,0.47488892,0.15918398,0.06317003,0.42192137,0.29789785,-0.060934402,-0.1333978,0.29140192,0.2539914,-0.07487252,0.3014172,-0.40674806,0.13273454,
reader,0.1935018,-0.13304941,0.07948907,0.2771725,-0.10166028,-0.4923215,0.025631683,-0.038817264,0.11731567,-0.0271365,0.2957906,0.14041544,-0.44942108,0.23387715,-0.034202352,-0.23581885,-0.19983847,0.33768186,0.24768485,-0.09679995,0.52560884,0.15330745,0.052555766,0.07035472,0.29769975,0.5637941,0.031141171,0.24044146,-0.37311697,0.08033498,
render(),0.11552834,0.02474328,0.09748668,0.10414677,0.14086637,-0.44157296,0.015688289,0.042538438,0.10901489,-0.043564677,0.2849891,-0.04302846,-0.30728945,0.24497707,0.05464922,-0.47142842,-0.42790076,0.48087016,0.34068367,-0.012895061,0.36235103,0.15557125,0.03196369,-0.2865139,0.23366329,0.24656044,-0.19261685,0.23302193,-0.41487706,0.21117844,
info,0.21393168,-0.19603585,0.1120102,0.32574502,0.04470533,-0.42729637,0.09804032,-0.09392405,-0.017214041,-0.05815676,0.17557745,0.13600323,-0.38817933,0.18839759,-0.011377616,-0.19428824,-0.10999059,0.25315467,0.23042692,-0.11680028,0.390418,0.06893851,0.06541624,0.030597674,0.28336322,0.549698,0.05894982,0.30237862,-0.36962304,0.034570187,
getVector(),0.33698395,-0.06924961,0.18863893,0.30409217,0.04745496,-0.45755708,0.048210736,-0.08260959,-0.08169696,-0.069764175,-0.0039189826,0.092151515,-0.4154689,0.19807473,-0.056891527,-0.258261,-0.15697086,0.31498206,0.34622708,0.0538621,0.5762699,0.282609,0.17644504,-0.072576836,0.2957242,0.43101865,-0.05486763,0.36175162,-0.51086175,0.0788919,
jjte000,-0.18759169,-0.033735573,0.029705452,-0.04595921,0.5401213,-0.2898803,0.11912786,-0.18669888,-0.3684521,-0.17143169,-0.0036421344,0.06881663,-0.3497355,-0.051190265,-0.10923677,-0.6315316,-0.076789506,0.6330961,0.18617964,-0.22791179,0.014688031,-0.3237655,-0.24950382,-0.6175136,0.019111603,0.5491813,0.03789634,0.34796578,-0.68114537,0.6059845,
xla,-0.3712403,-0.1578101,0.0034699985,0.014389754,0.18063602,-0.484508,-0.08107227,-0.26546413,0.0018826994,-0.16660514,0.38332915,0.16751416,-0.15837172,-0.007377761,0.008773746,-0.3587002,-0.22086267,0.39477608,0.2604431,-0.28350466,0.05186095,-0.22712588,-0.039778985,0.1669419,0.09163041,0.58881944,0.17537059,0.27982327,-0.48243788,0.30580726,
state,-0.16874816,-0.144765,-0.036006212,-0.10243606,0.13929786,-0.52891576,-0.008155956,-0.3076094,-0.044966526,-0.094892316,0.2341544,0.10263103,-0.22370204,-0.06390956,-0.13282606,-0.32494453,-0.100646175,0.28658345,0.28838992,-0.39758298,0.14667238,-0.30460086,-0.05928594,-0.00065787986,-0.13679211,0.86729765,0.18213236,0.27203703,-0.47719148,0.3938707,
getMethodName(),0.39625153,-0.03753283,0.04986656,0.19148035,0.13264741,-0.39178914,0.314703,0.023267433,-0.126525,0.053802274,-0.07914709,-0.03162221,-0.3962294,0.049081437,-0.11275365,-0.20388491,-0.057433,0.3181545,0.28598222,-0.1587325,0.616304,0.07599972,0.019750906,-0.5438994,0.06189265,0.7287655,-0.06110584,0.33714572,-0.4697646,0.24052519,
BufferedReader,0.083598405,-0.079922505,0.048741437,0.13144238,0.004492288,-0.4478162,-0.0024243698,-0.058550294,0.06773991,-0.06455471,0.1870855,0.09361216,-0.3970788,0.13609661,-0.026925482,-0.29610237,-0.19549648,0.3611772,0.28333002,-0.084671885,0.37496385,0.09847467,0.039860427,-0.041108657,0.20779452,0.47770914,-0.03449249,0.26222047,-0.4787126,0.17399727,
containsKey(),-0.09844447,0.13003317,0.117293745,0.24066244,0.19361442,-0.4261182,-0.05052511,0.0042090816,-0.08031046,-0.12779953,0.2308342,0.13398726,-0.28478265,0.23401995,0.13745221,-0.42885974,-0.28217182,0.59520763,0.2414848,0.09754788,0.2991217,0.2450336,-0.13921762,-0.22600207,0.35475522,0.088154115,-0.043637753,0.31249315,-0.52333814,0.24314731,
exists(),-0.063301325,-0.020144576,0.033099823,0.038391642,0.17552227,-0.32790527,-0.019646613,-0.12026452,-0.14119968,-0.14760777,0.06602336,0.1317304,-0.2881432,0.015720861,0.007726338,-0.3890231,-0.12837185,0.41072267,0.29322568,-0.048228793,0.23048584,0.060793146,-0.06605753,-0.24751934,0.16659316,0.32501635,0.027290601,0.29870108,-0.5757111,0.3064132,
newInstance(),0.16781001,-0.030584231,0.058629036,0.09895697,0.12141437,-0.35598797,0.13720953,-0.002483929,0.0014565272,-0.067893006,0.06528715,0.06933889,-0.34763452,0.06905717,-0.017703118,-0.33892667,-0.15435925,0.40604562,0.29361188,-0.072015785,0.40701315,0.10991842,0.010078078,-0.29887074,0.17013675,0.38654533,-0.09464862,0.2674834,-0.46751723,0.22166508,
SynchronizedStatement,-0.054685794,-0.030721718,0.08001727,0.19587988,0.11171339,-0.3765123,-0.0065088007,-0.055256158,-0.06958914,-0.088154435,0.24628621,0.12856802,-0.27364644,0.18658656,0.054240275,-0.33606303,-0.24828294,0.41843158,0.23360659,-0.048550647,0.26091266,0.0790652,-0.050838623,-0.069259204,0.25661367,0.29362428,-0.012755305,0.28302023,-0.46049702,0.23339675,
method,-0.030302402,0.035246313,0.079836406,0.1826837,0.1355384,-0.40110755,0.0046621067,-0.05498353,-0.10371735,-0.11960554,0.17004107,0.13614391,-0.30356354,0.122585565,0.07102954,-0.36711404,-0.1825433,0.42710465,0.26756266,-0.0096024405,0.23786877,0.07583247,-0.09857007,-0.19841135,0.27173966,0.25892845,0.018416543,0.26498008,-0.42282072,0.24959494,
getKeys(),0.20396994,-0.079646744,0.1305677,0.24442045,0.017957171,-0.37066403,0.010155557,-0.11672408,-0.010719118,-0.098221354,0.08560881,0.12534156,-0.4102378,0.20101002,-0.06656005,-0.23857938,-0.17797029,0.3042408,0.3109994,0.027476521,0.47895327,0.2821981,0.1107006,0.015608939,0.28857887,0.42439258,-0.011584233,0.31865072,-0.5020559,0.098259725,
Properties,-0.012654669,-0.072240315,0.04107529,0.051070567,0.054648485,-0.3518405,-0.023509588,-0.08712991,-0.0065788333,-0.082734555,0.18207707,0.16129942,-0.35062686,0.09065327,-0.018848557,-0.3288323,-0.16001233,0.41161075,0.28622082,-0.04512552,0.33265817,0.15106848,-0.028274527,-0.06866254,0.155468,0.3791343,0.0045185406,0.288757,-0.5610269,0.2554235,
Vector,-0.13087903,0.07248573,0.131336,0.28032315,0.19423029,-0.4827794,-0.0147004,0.018494077,-0.11168899,-0.17268625,0.2428589,0.20640217,-0.321769,0.215544,0.16007034,-0.3856415,-0.20786926,0.5807718,0.22127897,0.095594935,0.23427916,0.10802909,-0.15881169,-0.109651126,0.4328447,0.10240015,0.00465757,0.3051322,-0.4674623,0.25364876,
FileInputStream,0.107165076,-0.12843281,0.030052934,0.10559808,0.029416753,-0.36998346,0.06807937,-0.07208194,0.0039733243,-0.098228395,0.09041895,0.15314122,-0.35986355,0.068023294,-0.04100636,-0.27819028,-0.091844015,0.3452368,0.29478365,-0.10639194,0.38990653,0.06788953,0.038616084,-0.05706554,0.1272608,0.50830936,0.024265671,0.28077266,-0.4921924,0.17687489,
Long,0.20972915,0.07507134,0.1696054,0.40501317,0.10902368,-0.5062783,0.027072474,0.021626107,-0.100040205,-0.14763474,0.13132921,0.17296748,-0.4296998,0.32504404,0.09275659,-0.35709843,-0.24834087,0.5394748,0.33045146,0.2212742,0.47482103,0.3072502,-3.5792153e-05,-0.079899825,0.5520724,0.20243222,-0.0982289,0.3338153,-0.489005,0.09897018,
getName,0.014341019,-0.10779229,0.06872107,0.1838201,-0.11425142,-0.42957944,-0.038738534,-0.054778587,0.165242,-0.06687061,0.42966726,0.13025562,-0.37764207,0.25797647,0.026510479,-0.2417821,-0.27644554,0.3210364,0.2097887,-0.022968873,0.30149862,0.09880037,0.02156271,0.23704395,0.2649467,0.38025433,0.007947237,0.1873984,-0.30807644,0.04760366,
jjte001,-0.23824365,-0.07584631,-0.00079405593,-0.04062676,0.49933368,-0.33186567,0.12248887,-0.2317791,-0.35729137,-0.20404576,0.038408015,0.15362354,-0.3285346,-0.0882804,-0.08372128,-0.5798695,-0.06942761,0.57952213,0.19880268,-0.30700168,0.046514057,-0.33980376,-0.2294262,-0.5111567,0.009305915,0.5965775,0.08081752,0.31464025,-0.6719024,0.56367,
jj_save(),-0.37066814,-0.118854925,0.007600211,0.036764227,0.13314489,-0.46118224,-0.060522746,-0.19486621,-0.0016142534,-0.12939312,0.39426973,0.117153324,-0.16297741,0.05595958,0.021504855,-0.36613432,-0.2678367,0.38142735,0.26252994,-0.22725433,0.04045302,-0.17256649,-0.050047062,0.16016422,0.13198988,0.50349295,0.13742234,0.25121957,-0.44451916,0.28177634,
find,0.37411308,-0.06926148,0.13989401,0.5595873,-0.20057015,-0.5540964,0.06960435,0.010996019,0.09647738,0.084491946,0.34170887,0.029265763,-0.48771617,0.34180894,0.006758415,0.05018137,-0.18614237,0.17875214,0.0023728115,-0.1132642,0.52204096,0.14684707,0.027742209,0.100960076,0.21516474,0.74262255,0.10720278,0.32292545,-0.20547551,-0.071596384,
execute,0.16684465,-0.043952182,0.108221166,0.27770704,0.040174205,-0.4295784,0.07419014,0.025151642,0.05896268,-0.008523309,0.27131778,-0.009932309,-0.37201673,0.25164053,0.054566752,-0.26323485,-0.29100335,0.33183023,0.21775575,-0.03531638,0.3863882,0.15803565,0.0084550725,-0.16738972,0.24162728,0.41311762,-0.07921526,0.24885516,-0.35149163,0.113040045,
lastIndexOf(),-0.07428686,0.00036733816,0.027502533,0.0755695,0.02568694,-0.38106248,-0.12826765,-0.14523494,-0.056502596,-0.16340566,0.18749811,0.1595886,-0.3335543,0.11040343,0.027697539,-0.40263775,-0.21793914,0.3989415,0.30665872,0.028367849,0.20072566,0.15297927,-0.04041048,-0.14064842,0.24521719,0.2609008,0.0470696,0.31386805,-0.548633,0.27246007,
remove,0.04945631,-0.04209812,0.10414926,0.2908211,0.009050131,-0.43792915,0.0051929513,-0.031430695,0.04224352,-0.008440262,0.3709817,0.10401421,-0.38923374,0.2601406,0.05524293,-0.2105942,-0.24771647,0.3499353,0.14033885,-0.021354482,0.37396172,0.1487635,-0.07768194,-0.0030690057,0.26230162,0.40313298,0.014365649,0.24819465,-0.33444154,0.13172778,
isVelocimacro(),-0.045670528,-0.007712634,0.08081969,0.1326932,0.18161982,-0.4619671,-0.043884974,-0.097841226,-0.08303012,-0.15140818,0.15286346,0.05552958,-0.26329586,0.09389958,0.0719319,-0.39348102,-0.19024758,0.37211847,0.3250781,-0.025335869,0.19052272,0.046108104,-0.084518075,-0.2490441,0.23974612,0.32590783,0.024106067,0.3422336,-0.49575466,0.2790993,
debug(),-1.5138881e-05,-0.12105558,0.10725874,0.1983467,0.37470356,-0.41097236,0.1613395,-0.14895841,-0.2881653,-0.13451472,-0.069928765,0.07078335,-0.1980185,-0.061841577,0.009741701,-0.27740848,0.041779656,0.3049078,0.20169483,-0.24449435,0.19820835,-0.16731057,-0.062452294,-0.2535506,0.0952579,0.57936585,0.0714344,0.35306588,-0.48733163,0.24994618,
getString,0.20000885,-0.10094473,0.1111029,0.38776407,-0.051853124,-0.5019478,0.066836864,-0.066191755,0.022881763,0.03928704,0.33905044,0.10708133,-0.45649302,0.3039375,0.038859334,-0.12417375,-0.19899867,0.3645286,0.14465564,-0.039474513,0.56705,0.30492935,-0.028091002,0.016824035,0.2662924,0.5455411,0.047078826,0.3301619,-0.450484,0.048247162,
sourceTemplate,0.05945286,-0.12607315,0.07199694,0.26540494,-0.029966034,-0.4109905,0.0072783213,-0.056710284,0.047742818,-0.07628777,0.296913,0.188774,-0.3661988,0.22977075,0.047757044,-0.25782093,-0.23197709,0.31372932,0.25424904,-0.057651915,0.38858643,0.11595935,0.025018947,0.051026706,0.2926049,0.428182,0.04421931,0.245851,-0.37466517,0.09727585,
getInt,0.21947291,-0.11143616,0.12765273,0.41243577,-0.13426903,-0.5519494,0.043413833,-0.067465425,0.09546084,0.08448055,0.45646927,0.070308596,-0.46197566,0.36656034,0.024105504,-0.06497488,-0.21384968,0.31691915,0.08895908,-0.05827068,0.57128865,0.31174675,-0.037487246,0.06111615,0.25994113,0.6038398,0.0245555,0.34021378,-0.39269835,0.031703103,
level,0.10579945,-0.1259831,0.06661064,0.21468253,0.07916933,-0.385137,0.056916352,-0.14013204,-0.13605458,-0.10890925,0.065785825,0.13832355,-0.30786127,0.06247836,-0.045157492,-0.22781312,-0.02914598,0.26901704,0.25186807,-0.11910851,0.30237514,0.011750353,-0.007772653,-0.09394914,0.19273788,0.54754406,0.10602369,0.31438315,-0.41678947,0.15198149,
stackTrace(),0.13368212,-0.02095547,0.055583794,0.04615673,0.21565227,-0.3771626,0.13551086,-0.062532514,-0.071317144,-0.068541944,0.07396799,0.03731868,-0.34447858,0.06667766,-0.05172001,-0.41838104,-0.21961471,0.4074156,0.32819694,-0.14005056,0.41111532,0.06472468,-0.053226158,-0.42830437,0.09559611,0.49003613,-0.102620326,0.28536412,-0.49991485,0.28454834,
ClassCastException,0.010097981,0.049947772,0.0665571,0.21352139,0.18249895,-0.33227882,0.042165246,-0.009906972,-0.16216706,-0.008931963,0.30398187,0.03730455,-0.38068965,0.22266254,0.024000987,-0.40406755,-0.2741012,0.5109748,0.10493953,-0.01295705,0.28499064,0.13707848,-0.16876383,-0.39039305,0.23154366,0.31602657,-0.026340613,0.2802589,-0.42964724,0.3005943,
Boolean,0.1712432,0.020381393,0.1575178,0.37085384,0.12601362,-0.50696075,0.05265285,0.027752973,-0.06193939,-0.07778613,0.15870799,0.061029613,-0.34286702,0.25199473,0.0965307,-0.28003377,-0.2028355,0.36891147,0.21518138,0.083715335,0.36053526,0.14545459,0.025224432,-0.08484666,0.34717175,0.25667098,-0.0941692,0.28898296,-0.3586351,0.07992045,
getType,0.08061931,-0.15392984,0.071630225,0.2762581,-0.14984328,-0.48149228,-0.0299356,-0.0034938974,0.22242321,-0.028168105,0.50454146,0.13311271,-0.43914726,0.3087911,0.051021036,-0.1682036,-0.29822493,0.27954954,0.18958512,-0.028596671,0.34540662,0.114019625,0.061133012,0.26910722,0.3221387,0.39864329,-0.008853941,0.16473964,-0.24592268,-0.005624107,
print(),-0.24425752,0.08881407,0.15248844,0.31933028,0.41616675,-0.63846827,0.0896699,-0.16568758,-0.51947904,-0.32953677,-0.14690194,0.33000255,-0.010079977,-0.09968043,0.09530526,-0.4326897,-0.010864559,0.47367296,0.40584257,-0.02100327,0.18757378,-0.07413352,-0.10743661,-0.30866277,0.412273,0.21024664,0.13935164,0.47692224,-0.61009854,0.38683513,
jjMoveStringLiteralDfa1_0(),-0.08901296,-0.1851356,0.04176989,0.26204082,0.35758108,-0.6236795,0.15513042,-0.2545535,-0.32866037,-0.101664744,-0.022591097,0.0989292,-0.1030955,-0.13376333,-0.044804912,-0.12267773,0.15055712,0.16592735,0.052852735,-0.5239024,0.030321777,-0.5671185,-0.109665625,0.01760549,-0.12248714,0.9861421,0.27922872,0.4083672,-0.4282702,0.24215633,
ReInitRounds(),-0.50818557,-0.06893111,0.02702585,-0.17491974,0.30176386,-0.39011082,-0.23546338,-0.34272996,-0.10853241,-0.3036719,0.20331763,0.19697462,-0.18008548,-0.0524949,-0.04055476,-0.6721131,-0.2593891,0.54446495,0.4209265,-0.16384576,-0.05592901,-0.104421444,-0.111797005,-0.09945191,0.08477188,0.29619434,0.11270459,0.30806887,-0.7201717,0.5755174,
resource,0.08850138,-0.07476103,0.07464231,0.25628307,-0.032708332,-0.4249231,0.013862348,-0.054865,0.020220602,-0.06708196,0.31007844,0.1536052,-0.3880593,0.19983093,0.01717453,-0.23023291,-0.18486392,0.32479998,0.18229882,-0.032034718,0.34279,0.106461965,-0.029649945,-0.014413288,0.2475923,0.40097195,0.013955978,0.24382676,-0.31624374,0.11824451,
AnakiaElement,0.2598665,-0.20727816,0.07877018,0.3860689,-0.2030457,-0.40160677,0.08176509,-0.08460412,0.077188246,0.028134452,0.20574686,0.1156107,-0.39343792,0.18833889,-0.048773926,-0.038896814,-0.09603297,0.12810093,0.14926882,-0.11155931,0.52914286,0.11445637,0.0694744,0.14132176,0.22763857,0.638078,0.08451212,0.22012408,-0.26380125,-0.048088145,
getContent,0.25528294,-0.1446399,0.0906484,0.54316103,-0.18238555,-0.5724291,0.053136908,-0.0045141345,0.1156941,-0.013453444,0.3170335,0.17073342,-0.5163976,0.34825033,0.027135149,-0.15762925,-0.21593964,0.32650512,0.20968279,-0.08329991,0.67158633,0.15553714,0.0326474,0.11652195,0.44893202,0.6466713,0.02400964,0.24863349,-0.30931777,-0.009765531,
getAbsolutePath(),0.029963206,-0.04550911,0.066995434,0.09692587,0.050993558,-0.3350387,-0.0024883742,-0.105225034,-0.062391434,-0.11625633,0.10818844,0.11466615,-0.34891695,0.090684295,-0.03034593,-0.32418475,-0.13786101,0.34339362,0.28980044,-0.030904148,0.29007939,0.10174547,0.0150830485,-0.14035435,0.17930545,0.38204354,0.01976706,0.26486737,-0.4932035,0.23115292,
output(),-0.05908908,-0.061904393,0.09993976,0.14111072,0.16084526,-0.30385134,-0.03137833,-0.13197318,-0.13414651,-0.11237347,0.15839387,0.01943727,-0.30371022,0.11476665,0.0018582155,-0.3479865,-0.17814672,0.37049958,0.17155054,-0.06552313,0.1342129,0.040693104,-0.042581122,-0.215139,0.16936024,0.2838011,0.033798873,0.2865173,-0.42727226,0.30729115,
b,-0.16697374,-0.09607274,0.06383169,0.13120481,-0.01502042,-0.46515888,-0.07766477,-0.16432741,0.05312778,-0.10981068,0.44427451,0.19910093,-0.2942346,0.19437954,0.02489765,-0.29887038,-0.25616717,0.33450162,0.22796749,-0.13420683,0.18437214,-0.029362516,-0.048370168,0.20201942,0.23032737,0.43928242,0.09752849,0.24079892,-0.34000516,0.17278677,
hasMoreTokens(),-0.120841555,-0.038257364,0.046116143,0.15299197,0.1480316,-0.42756778,-0.044873044,-0.13626541,-0.14516515,-0.22444229,0.15139541,0.24419948,-0.25168464,0.063701585,0.0410771,-0.38988614,-0.14462362,0.418276,0.31106517,-0.016746148,0.22456947,0.042284105,-0.06647862,-0.06535091,0.3265844,0.24964958,0.046410732,0.3099858,-0.5070138,0.2789731,
mie,0.27583104,-0.031521194,0.04117976,0.14816575,0.2681165,-0.4503003,0.27609864,0.022335393,-0.12804288,-0.024579406,-0.09560118,-0.030608127,-0.32686743,-0.011997677,-0.08235955,-0.32376218,-0.09168518,0.42987856,0.32604745,-0.19736579,0.5342132,-0.055877794,0.04196451,-0.4721068,0.066642664,0.66993296,-0.0921458,0.38040903,-0.5459108,0.2866624,
logVelocityMessage,0.07244444,-0.09922802,0.06779646,0.21238537,0.10362194,-0.38455814,0.08594684,-0.09068552,-0.11306703,-0.1125978,0.036598388,0.11771447,-0.31894228,0.05786924,-0.037091356,-0.24232598,-0.05488943,0.29402128,0.23235348,-0.10678371,0.30062655,0.008371529,-0.008919884,-0.12954055,0.2148338,0.5209312,0.080154516,0.32523137,-0.46639362,0.16122614,
org.apache.velocity.runtime.parser,-0.17468199,-0.1595395,-0.00023052342,-0.064812526,-0.06270118,-0.33931807,-0.18254076,-0.23899984,0.11005341,-0.12886904,0.36518723,0.18729284,-0.36106244,0.097004175,-0.042606726,-0.30019468,-0.2092451,0.27882886,0.24098471,-0.14741307,0.15345773,0.04011131,-0.024327626,0.16592081,0.062309403,0.4639481,0.11403607,0.18265438,-0.4437791,0.22502103,
n,-0.11037354,-0.05317169,0.071365096,0.16383526,0.1419289,-0.34730288,0.023785332,-0.06427961,-0.053657603,-0.09393582,0.25332573,0.1053059,-0.2858944,0.1389268,0.029705126,-0.33176598,-0.22133552,0.3827405,0.18963525,-0.08334467,0.16174684,-0.05054069,-0.06282978,-0.08685064,0.20514226,0.3326824,0.017067302,0.21465014,-0.36795422,0.21436125,
jj_3R_19(),-0.51866263,0.075267576,0.054977834,0.13588834,0.40189794,-0.67422605,-0.15228762,-0.20315497,-0.20424102,-0.16485502,0.5526139,0.090471014,-0.038502082,0.17517795,0.18239562,-0.60372573,-0.3879527,0.5928405,0.19115105,-0.2662304,-0.16197944,-0.3140417,-0.35282508,-0.17095184,0.15589364,0.49100825,0.14212821,0.3521981,-0.4572975,0.5161625,
startState,-0.45845476,-0.14241813,0.036736775,-0.04053747,0.24945399,-0.5228706,-0.16895747,-0.36300737,-0.1112817,-0.2650559,0.28027228,0.2259882,-0.14416912,-0.084914766,-0.02482353,-0.44752875,-0.12899758,0.39328718,0.28159967,-0.30373132,-0.094536476,-0.29636687,-0.11546209,0.14803948,0.04670041,0.5349615,0.23498705,0.30625317,-0.54646367,0.43236348,
curPos,-0.42640522,-0.1528555,0.00022699134,-0.124003194,0.18300949,-0.44507316,-0.22270708,-0.35028064,-0.01887991,-0.24476281,0.28744408,0.21274953,-0.18272217,-0.04416923,-0.018212946,-0.4773862,-0.2022134,0.3953816,0.3557289,-0.24740258,-0.026236193,-0.1536664,-0.06439137,0.15129401,0.03657083,0.4678898,0.18498221,0.29737893,-0.6126746,0.4199482,
jjStartNfa_4(),-0.23727949,-0.171907,0.004469973,0.070696525,0.33225834,-0.52106124,0.09389869,-0.26117334,-0.19778654,-0.13163424,0.1328361,0.10317667,-0.14627679,-0.13048454,-0.048175775,-0.29141742,-0.018548708,0.327296,0.19022575,-0.4876788,0.073721305,-0.45502788,-0.1306469,-0.06716811,-0.109779224,0.8464047,0.18297873,0.29332104,-0.46437362,0.3832286,
clazz,-0.08506391,-0.035751253,0.03953438,0.1438838,0.08850087,-0.35622528,-0.026720844,-0.09960927,-0.06287651,-0.12535374,0.21970433,0.15709777,-0.24458967,0.119664006,0.030658992,-0.32227695,-0.21375372,0.35067344,0.25655618,-0.041118175,0.24050426,0.05190522,-0.009589112,-0.027539006,0.24965025,0.26822552,0.033040725,0.24009721,-0.39900774,0.1938204,
request,0.15020075,-0.070793115,0.07735104,0.20131102,0.048096046,-0.36763668,0.06872588,-0.0678708,-0.050984275,-0.0687127,0.094470456,0.13366082,-0.35754326,0.11240842,-0.02773092,-0.25217944,-0.1148611,0.35631815,0.2772384,-0.031452738,0.40776408,0.124708205,0.031275675,-0.12779331,0.24119452,0.41220474,-0.018810306,0.29690465,-0.4276223,0.15160444,
response,0.17601809,-0.09995455,0.07047012,0.19427927,0.038979705,-0.3665385,0.106844574,-0.025805987,0.00082225073,-0.045844387,0.055988446,0.12340486,-0.33750704,0.11213881,-0.015245031,-0.22448921,-0.11857562,0.3283146,0.25207606,-0.041483138,0.419544,0.12889075,0.051313967,-0.11229316,0.2363097,0.40448833,-0.031413168,0.2536257,-0.42956808,0.14207444,
ParseErrorException,0.119713396,-0.05707588,0.05106653,0.15858687,0.13511829,-0.3360732,0.10568971,-0.025020745,-0.07641897,-0.03475213,0.13651302,0.0635939,-0.37438044,0.09063003,-0.041374885,-0.31193557,-0.13187669,0.37852573,0.17551523,-0.11025738,0.34363315,0.0024362695,-0.044066247,-0.27121064,0.15463358,0.45334828,-0.036234062,0.24788609,-0.3858537,0.22747317,
pushCurrentTemplateName(),0.15227038,-0.099187605,0.039107613,0.11482167,0.13959384,-0.3799265,0.13713782,-0.032837033,-0.040664006,0.0016268648,0.07009278,0.01950637,-0.35999978,0.0767355,-0.06634467,-0.28077865,-0.12568755,0.3400822,0.2304705,-0.16044892,0.41114154,-0.030201238,0.035054125,-0.24924581,0.09767524,0.5981009,-0.026902013,0.2771453,-0.45782164,0.2181272,
VelocityEngine,0.1923068,-0.11052189,0.03942055,0.16615626,-0.010548457,-0.3789518,0.100647,-0.011232949,0.046292726,-0.042424373,0.1533662,0.111542694,-0.3969863,0.10158448,-0.041433148,-0.21508797,-0.120220974,0.34560248,0.26726177,-0.080405876,0.45853212,0.112501316,0.047889665,-0.057479274,0.18881994,0.49690157,-0.02294517,0.24239962,-0.45168984,0.11368533,
index,-0.09190756,-0.07841867,0.061896257,0.17713526,-0.024482565,-0.45993146,-0.091342494,-0.1651562,0.026203921,-0.07092461,0.3684087,0.13199927,-0.26922742,0.19157062,0.023255419,-0.24151753,-0.22898078,0.32171282,0.18181717,-0.1177849,0.20666222,0.02265294,-0.030815452,0.09745609,0.19235839,0.46258447,0.08093582,0.25441256,-0.36075002,0.173097,
FieldMethodizer,0.072194986,0.06212219,0.09905431,0.27779397,0.15079644,-0.45375264,0.11484718,0.045641974,-0.029915322,-0.12949413,0.12664197,0.15752767,-0.37661374,0.18095261,0.07576036,-0.2935903,-0.16797361,0.5368484,0.21047024,0.016431186,0.4352108,0.09883077,-0.0435584,-0.12741359,0.32922924,0.29166985,-0.029677942,0.25410348,-0.40962702,0.17166796,
forName(),0.09966733,-0.062693164,0.047415424,0.0758543,0.11525035,-0.37882063,0.030963594,-0.08131811,-0.043738745,-0.08212579,0.073681995,0.08726339,-0.34094197,0.051646188,-0.02568143,-0.35385203,-0.12702915,0.4068456,0.31746528,-0.092071354,0.3530217,0.08309167,-0.0014428372,-0.24943382,0.12303476,0.4360377,-0.010680373,0.3008985,-0.5317585,0.26456186,
logTag,0.121359564,-0.04503351,0.07969491,0.29536,-0.03207169,-0.5006245,-0.00832706,0.023630021,0.14168812,-0.015231117,0.40680945,0.047102515,-0.41888472,0.31532958,0.043287393,-0.26556164,-0.33893713,0.36282355,0.21741515,-0.029251784,0.4112291,0.14796583,0.0013253555,0.0026579648,0.29033914,0.40088853,-0.076898284,0.21149716,-0.30667365,0.058690667,
params,0.090746135,-0.035551842,0.09390174,0.2538844,0.038251847,-0.43461096,0.032361697,-0.014612042,-0.0014696459,-0.060191162,0.23027365,0.06438423,-0.32292858,0.22373068,0.04212317,-0.24638195,-0.22536144,0.34016415,0.22534005,-0.024390569,0.36281073,0.12070584,-0.015854802,-0.07530002,0.26263782,0.34977737,-0.025515916,0.24190125,-0.33599886,0.12774533,
put,0.14726289,0.006484993,0.12416754,0.3406479,0.031999752,-0.42502242,0.07338723,0.012561146,-0.018697388,0.024373062,0.28158438,0.058537353,-0.3776455,0.2730781,0.051718187,-0.16046993,-0.19300398,0.36541831,0.13770847,0.0077924905,0.46540955,0.20046206,-0.013018051,-0.10327565,0.2534007,0.37657183,-0.03290345,0.27419433,-0.3569531,0.08309027,
pop(),-0.07603945,-0.059698027,0.06859394,0.12443018,0.18295881,-0.33340177,0.024307212,-0.085969396,-0.10809674,-0.09975679,0.18143974,0.12977251,-0.26088277,0.08543877,0.014517491,-0.334393,-0.15589833,0.36273193,0.17132059,-0.092718415,0.16166219,-0.046451196,-0.06547411,-0.122944,0.19057624,0.34108335,0.030382592,0.25498286,-0.393637,0.23094581,
MethodInvocationException,0.27307174,-0.06491698,0.012689046,0.10972528,0.1676548,-0.33801085,0.20510614,-0.025756665,-0.08552947,-0.0055746525,0.043046888,-0.034954946,-0.42610335,0.08077739,-0.100194834,-0.3014295,-0.15931661,0.34577572,0.27679408,-0.1365701,0.4964647,0.11859578,-0.04979811,-0.5316857,0.07356003,0.66933024,-0.053140473,0.32749063,-0.490454,0.28059816,
ExtendedProperties,0.06139058,-0.08870269,0.06260238,0.18574728,0.01180953,-0.3798771,0.030532595,-0.04571849,0.013144412,-0.04661346,0.24111275,0.13545738,-0.36236754,0.14438058,0.019524116,-0.26916888,-0.18727079,0.34583962,0.23488313,-0.044533316,0.3591488,0.11156284,0.004834847,-0.026596319,0.24063075,0.40669397,-0.011705427,0.26247942,-0.44565362,0.16245857,
getNamespace(),-0.09407694,0.05472946,0.074479386,0.15787247,0.11390182,-0.353398,-0.061497226,-0.057104416,-0.043731805,-0.15580076,0.2262362,0.1599693,-0.2904621,0.21333958,0.086508825,-0.39015847,-0.24713504,0.5280513,0.22803098,0.067507364,0.25769788,0.18865977,-0.12557186,-0.10717039,0.3106263,0.14900364,-0.026610848,0.26446947,-0.5110798,0.26785246,
Configuration,0.053174935,-0.11694975,0.077186264,0.16318469,0.053648315,-0.37022316,0.050449803,-0.06298807,-0.011807643,-0.11552489,0.14593452,0.18179007,-0.34693143,0.10089964,-0.009229901,-0.2447759,-0.12566553,0.35856688,0.24905424,-0.05223364,0.31263834,0.07917704,0.038417157,-0.0168066,0.26243266,0.37760034,0.03577798,0.26527694,-0.43385878,0.14635406,
NoSuchElementException,0.026555913,0.023209212,0.075153306,0.23573196,0.15546659,-0.40452257,0.006978329,-0.06898195,-0.09858379,-0.0073228036,0.30422118,0.016752983,-0.37596545,0.23838066,0.019681977,-0.3416131,-0.26573753,0.46680665,0.13415612,-0.0538454,0.34677193,0.18096577,-0.14491418,-0.27417433,0.19120075,0.41566244,-0.022370258,0.3141805,-0.4875616,0.25495893,
getType(),0.030938653,-0.019003324,0.08986047,0.12041616,0.14053503,-0.4272007,0.004255132,-0.002054358,0.04101126,-0.12665728,0.26071134,0.041312397,-0.34095883,0.21141091,0.06273757,-0.4977309,-0.3767193,0.4507381,0.37331668,0.020935949,0.2802022,0.18792565,0.005424104,-0.25730214,0.31817445,0.18210915,-0.14063075,0.25464493,-0.4355227,0.21212131,
jj_3R_41(),-0.46923536,0.07947413,0.074434616,0.15712726,0.42176262,-0.74172294,-0.15600443,-0.17198083,-0.21859181,-0.16542871,0.5139412,0.07439911,-0.06853746,0.16163416,0.18218972,-0.58229786,-0.3370476,0.57310635,0.16783233,-0.27042508,-0.17208709,-0.36315984,-0.39884457,-0.13952182,0.13775323,0.55170184,0.15012787,0.36809164,-0.47284985,0.53718793,
ReInit,-0.08493515,-0.10861144,0.07935005,0.20039833,0.08059934,-0.42301655,-0.00016270421,-0.10161661,0.022128994,-0.115885936,0.25927478,0.16263312,-0.30418932,0.10140326,-0.003196612,-0.29935345,-0.19050114,0.362877,0.31658456,-0.05469346,0.2764765,0.035813823,0.063856296,0.068422906,0.25246337,0.38480434,0.029046327,0.262572,-0.4556684,0.2091656,
backup(),-0.18188076,-0.011461625,0.09059022,0.23354535,0.36906517,-0.54179144,0.08467891,-0.16529636,-0.41834778,-0.22971188,-0.08918232,0.22928077,-0.092394836,-0.08636515,0.013848935,-0.317499,0.027061779,0.38792595,0.27692416,-0.14790188,0.142872,-0.17304683,-0.122256875,-0.2529428,0.21003301,0.42837003,0.13156787,0.3956825,-0.5774068,0.3763534,
dstream,0.040469963,-0.14713147,0.078820154,0.30757222,0.013318905,-0.45173538,0.043375198,-0.06057855,0.010376099,-0.06872234,0.2704031,0.13500725,-0.37060085,0.16555418,-0.009592155,-0.24123386,-0.18321241,0.29953828,0.23508532,-0.07589088,0.3449381,0.014615572,0.07687314,0.09171336,0.2633809,0.48051232,0.044225793,0.27209693,-0.36049247,0.094110064,
startline,0.0061155953,-0.16245982,0.0826989,0.28585556,0.01725877,-0.45966223,0.029168641,-0.09087103,0.028623689,-0.10027673,0.30322042,0.1821228,-0.35847884,0.15459424,0.0059207547,-0.22111228,-0.16205603,0.30202332,0.23501168,-0.10170176,0.29621714,-0.022372127,0.052644677,0.105999544,0.22829445,0.5248716,0.054106496,0.2702311,-0.37561402,0.13080862,
startcolumn,-0.034340106,-0.15706465,0.067901105,0.21272705,0.009855365,-0.4703403,0.0017222647,-0.13598874,0.018504893,-0.095902435,0.30720374,0.15204535,-0.33605197,0.13701895,-0.028125945,-0.24958119,-0.17160136,0.29919344,0.24563302,-0.10247367,0.29152477,0.0048214067,0.028773742,0.13376166,0.20934841,0.5093411,0.09020895,0.26571432,-0.41434535,0.1668915,
obj,0.12537196,-0.09443474,0.07005316,0.27378824,0.024716763,-0.4004713,0.08877632,-0.014527424,-0.0035968728,-0.056813747,0.25682193,0.13342802,-0.36804166,0.18591659,0.031011393,-0.23106991,-0.1714771,0.30467418,0.22131896,-0.028866315,0.3585374,0.064787775,0.022318512,-0.032061048,0.2887618,0.40715772,3.0223848e-05,0.23719142,-0.2927955,0.09908818,
InternalContextAdapterImpl,0.07691024,-0.054426648,0.054336973,0.12908062,0.09190112,-0.3436371,0.07777719,-0.054236107,-0.0210905,-0.058012802,0.16046447,0.08200234,-0.3630664,0.1088337,-0.026883962,-0.324094,-0.16486022,0.36355582,0.23029922,-0.07555614,0.32682344,0.04361332,-0.017840968,-0.1966619,0.16458377,0.4109936,-0.029546846,0.22516872,-0.40571487,0.20068511,
popCurrentTemplateName(),0.06553715,-0.07296242,0.054436516,0.22142553,0.12320406,-0.40050375,0.10418447,-0.044829473,-0.0021526357,-0.027119866,0.23239236,0.01324751,-0.29793125,0.15289275,0.030464591,-0.25605705,-0.21391414,0.3400659,0.222146,-0.123758994,0.31496826,-0.00922905,0.0043748557,-0.12677735,0.17607598,0.4713595,-0.028777024,0.24980702,-0.37182257,0.16535413,
toArray(),0.10408382,-0.024220655,0.101090625,0.29730597,1.5413229e-05,-0.44709453,0.017997239,-0.050173394,-0.0053531,-0.0482628,0.29538083,0.12678145,-0.36078638,0.2597568,0.029963007,-0.24833651,-0.20053641,0.31975824,0.1906938,-0.010628571,0.35226053,0.14435631,-0.028683186,-0.006842321,0.28281754,0.38061553,0.016158028,0.25977644,-0.32759634,0.11001797,
toString,-0.0039458587,-0.04495444,0.073174305,0.24904117,0.017065687,-0.4146595,0.019310478,-0.054405734,0.0038745818,-0.10386953,0.32160053,0.13962261,-0.32201293,0.22302206,0.038148887,-0.27187258,-0.2185341,0.34610218,0.20015906,-0.04682642,0.30575243,0.04858181,-0.047877133,0.03308535,0.27508265,0.3613853,0.03727242,0.20359099,-0.31060424,0.121415645,
getContent(),0.25790963,-0.12582284,0.08606283,0.3958646,-0.11340013,-0.50182086,0.0862451,-0.035129767,0.0722497,-0.010287481,0.23922297,0.0893832,-0.43282747,0.27246168,0.0049125007,-0.15451826,-0.18493713,0.24707773,0.23063828,-0.097395256,0.57016706,0.14005883,0.047276728,0.015433401,0.3331578,0.5887811,0.008153461,0.2692559,-0.31995437,0.015583676,
ioe,0.16169265,-0.0636822,0.03767914,0.1889573,0.08561602,-0.40332523,0.11004945,-0.052498393,-0.088247344,-0.06373657,0.06767806,0.06965634,-0.33463237,0.061908882,-0.03731041,-0.21791899,-0.09437093,0.3418701,0.21255356,-0.1327729,0.41809174,0.008162842,0.014731206,-0.17524897,0.1081556,0.5551162,0.028328132,0.29626662,-0.4278689,0.19124596,
lastModified(),0.06611453,-0.057702024,0.045591667,0.18995303,0.024275918,-0.3473732,-0.0010190757,-0.10154191,-0.01833132,-0.07046907,0.17699958,0.08314735,-0.31462327,0.11092682,-0.013798331,-0.22799356,-0.1687959,0.29230553,0.20358528,-0.028662447,0.3024145,0.12254943,0.018052313,-0.09872061,0.1941659,0.37820414,0.012924948,0.26810992,-0.39457855,0.14260468,
getLastModified(),0.054758675,-0.040525105,0.06525221,0.20467162,0.18492325,-0.39520815,0.1000667,-0.045330137,-0.093503,-0.06883064,0.08320165,0.04053695,-0.24122512,0.049317736,0.0051400685,-0.28918827,-0.13799736,0.37080583,0.26228738,-0.10133064,0.33330983,0.01532965,0.0073807146,-0.2024094,0.17415437,0.4531314,-0.021210305,0.2920079,-0.44668964,0.20855737,
java,-0.001991102,-0.08934943,0.030539313,0.15903169,0.030211754,-0.40599003,0.0096185515,-0.07670483,0.046162803,-0.09921297,0.2881124,0.19325934,-0.37880072,0.16724299,0.0077039483,-0.31916514,-0.2082603,0.38842344,0.26513237,-0.04606611,0.30241472,0.048699047,0.01101394,0.020832973,0.2609848,0.3794459,0.020951362,0.22743519,-0.39309907,0.1771452,
file,0.027198482,-0.053699873,0.06288338,0.18764843,0.1090342,-0.38759768,0.046146043,-0.070091836,-0.07224925,-0.12370641,0.13978639,0.16825247,-0.28939784,0.089932434,0.03368922,-0.28338197,-0.13138926,0.35409066,0.2690731,-0.050445493,0.2892068,0.022320893,0.0031313184,-0.07313226,0.23734216,0.3530081,0.019290874,0.27677783,-0.41039097,0.19449875,
toCharArray(),0.011245675,-0.042381343,0.094363876,0.19397375,-0.07178598,-0.44299337,-0.084207155,-0.07989614,0.0924332,-0.11876385,0.34230083,0.16533054,-0.34642982,0.2281549,0.05134233,-0.292275,-0.29346853,0.3318521,0.28895932,0.042739183,0.32103384,0.18772018,0.05187964,0.09285578,0.32301077,0.27835,0.0033903872,0.2319758,-0.39071172,0.12608287,
setProperty,0.2580587,-0.07576421,0.12495526,0.35221574,-0.06965785,-0.49950033,0.1236475,0.06186754,0.049235776,0.05790849,0.28043213,0.021502808,-0.4564412,0.25429142,0.019175084,-0.13266896,-0.20448375,0.35424662,0.19044311,-0.052232638,0.58312255,0.23167582,0.0904363,-0.0565752,0.2575983,0.5478095,-0.054375205,0.3173091,-0.45268738,0.061177507,
addProperty,0.18803369,-0.033951055,0.12164535,0.31224683,0.0067224302,-0.4537593,0.071693994,0.04419501,-0.0030473757,0.05290184,0.29322496,0.006101555,-0.3863866,0.2575116,0.041552402,-0.16948242,-0.20379968,0.38962933,0.15132368,-0.013293725,0.50026935,0.25805515,0.0004582007,-0.13863017,0.24040322,0.4257067,-0.08085606,0.31107402,-0.47067544,0.105000325,
clearProperty,0.19964747,-0.052017067,0.12090667,0.39178476,-0.009698944,-0.49139482,0.084838904,0.009553736,-0.010926904,0.06671064,0.32333273,0.06511842,-0.4226443,0.27644837,0.047279872,-0.13091306,-0.1962481,0.3710097,0.15281099,-0.012148887,0.5700613,0.2823601,0.020604385,-0.060618334,0.2785741,0.45784426,-0.045765918,0.34477225,-0.45372698,0.06118522,
clearProperty(),0.12665914,-0.057334177,0.12367602,0.36080122,0.008107751,-0.47415736,0.06537243,0.022051735,0.0025702978,0.020003226,0.30079812,0.034352418,-0.36562422,0.24839725,0.057159275,-0.17917044,-0.22410482,0.37139922,0.18819126,-0.031905264,0.49130052,0.22668783,0.007427664,-0.08282541,0.25007063,0.41692823,-0.039819192,0.2944655,-0.43757477,0.10331417,
getProperty,0.1892218,-0.044893235,0.13309957,0.37417966,-0.0500658,-0.5114561,0.05839047,0.014254922,0.036070563,0.041710787,0.33999753,0.061988235,-0.44784063,0.28119284,0.041145485,-0.1278045,-0.21053317,0.34691134,0.14757401,-0.02687695,0.49533546,0.21209571,0.008124133,-0.005073416,0.25265783,0.49856678,-0.012388444,0.30781206,-0.42320684,0.05519992,
error,0.23487408,-0.17263797,0.12124598,0.28075463,0.116234876,-0.42244318,0.12272141,-0.11231561,-0.1018616,-0.05023244,0.07034419,0.07787721,-0.35725507,0.12159158,-0.038901724,-0.22665785,-0.11435269,0.27369374,0.26742876,-0.12252031,0.40904498,0.076735236,0.06400854,-0.10729408,0.22969595,0.6018775,0.018355044,0.33861306,-0.43687958,0.106604725,
getInstance(),0.04843131,-0.06127942,0.067081675,0.1698817,0.12212839,-0.3855062,0.0615307,-0.063218504,-0.059188887,-0.090287484,0.11470992,0.10331475,-0.27296802,0.10326333,-0.009736622,-0.26426837,-0.11287645,0.3418852,0.26218456,-0.064220436,0.2826271,0.03080919,0.010570672,-0.10502198,0.19232348,0.4344863,0.020399598,0.2922519,-0.46577913,0.20763737,
push(),-0.013592728,-0.082240105,0.058311094,0.1369561,0.08534629,-0.35387895,0.015836537,-0.05881203,-0.022539387,-0.104156524,0.21961553,0.16857488,-0.3446843,0.13173689,0.031064838,-0.30109507,-0.15199369,0.37752083,0.20663065,-0.018137237,0.23576745,0.051116798,-0.047706373,-0.0048698583,0.24464701,0.28224108,0.027146332,0.2452608,-0.39594662,0.18217932,
getMethodName,0.11887571,-0.03961442,0.08489155,0.28903043,0.04098279,-0.4023135,0.06977117,-0.02570847,-0.009941306,-0.029962748,0.22383147,0.093488805,-0.3056153,0.17348278,0.016138848,-0.19524164,-0.16738029,0.31643063,0.2014558,-0.048062854,0.35185358,0.06695978,0.0119217485,-0.04244782,0.24417695,0.3764254,-0.011656714,0.23108482,-0.31349403,0.100503035,
argArray,0.11131408,-0.16490676,0.060288623,0.32432434,-0.06764207,-0.44473472,0.046849716,-0.0569216,0.029297475,-0.078879364,0.2547234,0.16912846,-0.39603215,0.19680828,0.026427792,-0.21014696,-0.16821383,0.30370787,0.21667188,-0.091336176,0.41746566,0.09944257,-0.00023497012,0.032917235,0.30321765,0.48027414,0.053245008,0.24195227,-0.34669715,0.06027622,
getBoolean,0.07090839,-0.07132832,0.11729774,0.28275436,-0.01239275,-0.47742537,-0.01755988,-0.11279616,-0.0045807785,0.017216427,0.3948442,0.06468375,-0.37053013,0.26188937,0.020644512,-0.18346016,-0.22014618,0.37961382,0.14402278,-0.071221165,0.41488495,0.20590588,-0.031394172,-0.014819201,0.18631834,0.48823863,0.025047444,0.32960397,-0.44551516,0.13066782,
Info,0.09187641,-0.08454034,0.07455773,0.19787405,0.093504,-0.42892322,0.08294973,-0.019366315,0.031814035,-0.051600467,0.22804455,0.027433764,-0.2923536,0.17288125,0.05516234,-0.2840444,-0.25776586,0.32394952,0.29306147,-0.038448688,0.33165163,0.083223425,0.044601385,-0.16422091,0.2388958,0.32382327,-0.070249,0.27120963,-0.37087965,0.12468905,
execute(),0.07227276,-0.010411796,0.117254846,0.226071,0.11559732,-0.43246952,0.009288952,-0.012785117,0.015831072,-0.08063863,0.21732615,0.023535697,-0.3063303,0.21230565,0.034764454,-0.32452428,-0.29171187,0.35868922,0.25007233,0.045166213,0.2987695,0.15102553,-0.0018961397,-0.16717745,0.26342756,0.28505823,-0.108929634,0.2670566,-0.3917771,0.14573076,
VelocityCharStream,-0.03935475,-0.12624802,0.059407055,0.18318354,0.037167087,-0.42714664,0.007457703,-0.09528189,-0.009309628,-0.095599286,0.30973876,0.18979591,-0.3152303,0.141956,0.018746741,-0.28193578,-0.20050852,0.33198392,0.22589786,-0.08135456,0.28555098,0.035198487,0.0011191727,0.05190203,0.24156499,0.43390647,0.0684533,0.23741914,-0.3687977,0.13886468,
ReInit(),-0.052680362,-0.07336288,0.07523788,0.21373628,0.10644524,-0.45687005,0.049267787,-0.10329184,-0.06066288,-0.13876931,0.24258883,0.18703875,-0.2922463,0.10481425,0.008475334,-0.34935868,-0.17148516,0.35270745,0.29068592,-0.09957665,0.26960117,-0.026319247,-0.022253757,-0.045915466,0.27397683,0.40975767,0.04862067,0.25876325,-0.40144485,0.21140568,
Reference(),-0.2920715,-0.18070531,0.06310966,0.14912319,0.5114299,-0.49279124,0.14658566,-0.2737931,-0.4120376,-0.22158746,-0.075042725,0.17420797,-0.1472985,-0.21099226,-0.024047391,-0.36083552,0.1312751,0.36056617,0.17146038,-0.3979255,0.001688109,-0.520955,-0.12122236,-0.18329465,0.025675112,0.7171513,0.22224809,0.38818812,-0.58173984,0.40154094,
ASTBlock,-0.15103471,-0.19817403,-0.0055501633,-0.022973,0.051204767,-0.341901,-0.08889872,-0.26641726,0.028224537,-0.14175975,0.2967534,0.19332995,-0.39573243,0.017488658,-0.11235829,-0.29491764,-0.13477828,0.32839277,0.20989595,-0.17429717,0.10929242,-0.12100612,-0.044412054,0.084090576,0.07634983,0.5484826,0.14777024,0.22430113,-0.4615048,0.26084268,
jjStartNfa_0(),-0.13536043,-0.16880721,-0.002861791,0.08809042,0.20086521,-0.46979612,0.049111735,-0.2566754,-0.13785405,-0.11836465,0.109569445,0.106385395,-0.16592485,-0.10170582,-0.08127439,-0.21190506,0.0030902298,0.2198797,0.15020613,-0.37899366,0.08244278,-0.34560868,-0.093656294,-0.03601467,-0.07438911,0.7567212,0.20062271,0.2772508,-0.39654619,0.2838458,
jjStartNfa_5(),-0.1563002,-0.14263435,0.0071876165,0.03984351,0.24895746,-0.5620363,0.0028860234,-0.26533958,-0.1484826,-0.116323635,0.15422592,0.10030356,-0.16216682,-0.08614669,-0.069093525,-0.2470931,-0.028104767,0.24960284,0.20330502,-0.42470583,0.049545757,-0.38995072,-0.11175952,-0.02331175,-0.1006536,0.81688184,0.19209278,0.31954098,-0.4317212,0.3545278,
jjStartNfa_1(),-0.17792512,-0.20089707,0.0020624567,0.0914383,0.3174825,-0.57178724,0.08439018,-0.27316985,-0.22719035,-0.11383645,0.101212785,0.117468804,-0.10177646,-0.118423864,-0.051224854,-0.2525742,-0.002852763,0.26214415,0.22866343,-0.4684986,0.10135506,-0.4173068,-0.07639517,-0.026351545,-0.10115759,0.88009024,0.20243576,0.3328832,-0.489959,0.3694235,
jjStartNfa_2(),-0.1673017,-0.1797091,0.0048601935,0.091134004,0.2752562,-0.57712054,0.09679857,-0.30440757,-0.19390544,-0.11521714,0.14121261,0.115617916,-0.153871,-0.09280257,-0.052430857,-0.28475887,-0.023280965,0.30812836,0.21767691,-0.45885795,0.10583235,-0.39225006,-0.11822585,-0.031838812,-0.075105816,0.8927289,0.21405314,0.3390737,-0.50184155,0.36104035,
stateStackPush(),-0.26300362,0.0042706574,0.15303425,0.33808297,0.4555558,-0.613269,0.11782097,-0.1650994,-0.52525234,-0.2921657,-0.14743768,0.26798642,-0.005753021,-0.11891124,0.10887128,-0.35893726,0.057082493,0.4102439,0.32411426,-0.10111579,0.11319088,-0.2205028,-0.13082394,-0.221602,0.3654062,0.31279534,0.19276054,0.46861887,-0.5726619,0.3428331,
TestProvider,-0.02723638,0.007880017,0.11382891,0.3111823,0.047641646,-0.48869118,-0.042565215,-0.014202413,0.02563028,-0.13877803,0.27888563,0.14561102,-0.3725658,0.2496877,0.0801891,-0.3083838,-0.21539362,0.44589484,0.24719565,0.05438837,0.3226607,0.16797426,-0.030726409,0.0113766305,0.4016011,0.2800835,0.020318568,0.28363976,-0.42535424,0.16651651,
process,-0.016573198,-0.074850745,0.051331203,0.14529379,-0.004157168,-0.38832986,-0.029658835,-0.10009609,0.049110867,-0.09459086,0.23388651,0.13439307,-0.30447596,0.12428601,0.019090086,-0.28049645,-0.16297273,0.31844413,0.24568264,-0.03852028,0.2534451,0.07366865,0.006933471,0.039529,0.21929395,0.34310487,0.02737789,0.21898176,-0.4083755,0.16775392,
rnfe,0.20765807,-0.045594636,0.06402327,0.15590143,0.14926945,-0.39276728,0.16305922,0.0050743227,-0.02772918,-0.018063812,0.042929567,-0.014913293,-0.30447033,0.07583357,-0.026530743,-0.26937565,-0.14128265,0.35069194,0.29486334,-0.13149282,0.44255129,0.05303236,0.018474864,-0.32158148,0.115523316,0.53012645,-0.08362511,0.28763342,-0.42859462,0.22272958,
InputStreamReader,0.032256573,-0.0848216,0.028403403,0.09949243,0.082342856,-0.37714288,0.018523127,-0.080779605,-0.0022694771,-0.06982377,0.14390132,0.094211906,-0.33911327,0.074959256,-0.055441424,-0.29099047,-0.16012934,0.35829592,0.22534998,-0.09767584,0.31026265,0.039880257,-0.015921537,-0.09676732,0.14221272,0.48548782,0.012840613,0.24706985,-0.48161095,0.22173269,
prefix,0.07086011,-0.06556552,0.07166741,0.24175438,0.02031165,-0.44318652,0.011253373,-0.08033009,-0.033230066,-0.110473074,0.18114874,0.17339104,-0.3240803,0.14796501,0.015566775,-0.24789752,-0.1536253,0.3159984,0.26162353,-0.02852489,0.36634287,0.10440432,-0.0060903006,-0.03339339,0.26907906,0.3893743,0.061106514,0.2743296,-0.40529385,0.13518906,
element,0.20837842,-0.13951468,0.070425145,0.32583067,-0.104211494,-0.41027007,0.062265683,-0.06281229,0.07450737,-0.009892821,0.17507188,0.10838157,-0.37685958,0.19385235,-0.044570334,-0.1065068,-0.11097319,0.18505481,0.18097775,-0.09516462,0.46294162,0.11577683,0.062177494,0.045895357,0.19278109,0.582663,0.035428967,0.2337583,-0.32391834,0.040403184,
StringTokenizer,-0.06888882,-0.056419004,0.06288955,0.13338307,0.10196207,-0.36666408,-0.00822838,-0.110901654,-0.07468742,-0.17023097,0.15821214,0.18994077,-0.2663559,0.07223353,0.016390702,-0.323149,-0.16472223,0.369761,0.28286198,-0.018086636,0.24258819,0.045654744,-0.04524117,-0.03142604,0.25484064,0.27650312,0.034558784,0.2501445,-0.4492545,0.22215632,
chop(),0.06040099,-0.0015057082,0.08236083,0.26169187,0.09371618,-0.4775049,0.0747253,-0.055985086,-0.14142302,-0.12934437,0.03422228,0.08400886,-0.2836234,0.08042883,0.03479601,-0.28735128,-0.06430844,0.38913012,0.2737117,0.012628635,0.3431804,0.12853551,-0.043261345,-0.25518936,0.31435382,0.40225688,0.07027576,0.341484,-0.50032306,0.16237953,
