name,vector_0,vector_1,vector_2,vector_3,vector_4,vector_5,vector_6,vector_7,vector_8,vector_9,vector_10,vector_11,vector_12,vector_13,vector_14,vector_15,vector_16,vector_17,vector_18,vector_19,vector_20,vector_21,vector_22,vector_23,vector_24,vector_25,vector_26,vector_27,vector_28,vector_29
MemberReference,-0.38919717,0.015358746,0.8171284,-0.3796658,-0.08395561,-0.7843427,-0.15999398,-0.02530989,0.2045827,-0.9204263,0.36803785,0.184878,-0.831103,0.27844605,-0.29970568,-0.33034298,-0.022714937,0.413901,0.13400613,0.25026602,0.41217285,-0.16753796,0.25824293,0.17649458,0.08914009,0.38292113,-0.10126384,0.27900207,-0.27917925,0.4859201,
StatementExpression,-0.55883956,0.14372145,0.3963612,-0.48549804,0.2893087,-0.65351903,0.069797166,0.33998108,-0.19569787,-0.9037294,0.20660289,0.2289002,-0.66454345,-0.18106498,-0.005824263,0.08571886,-0.02762333,1.1113403,0.23031749,0.028186278,0.40109035,0.06384794,0.09765319,0.4081471,0.32387674,0.61769205,0.020143563,-0.25171536,-0.9947086,0.6159023,
BasicType,0.18705416,-0.008888008,0.6550718,-0.75726557,-0.28214833,-0.18353067,-0.092158034,-0.055879176,-0.1976258,-0.19654557,0.025313668,-0.15246232,-0.9570653,1.0232952,0.020363837,0.004056075,0.3435334,0.85343736,0.07786759,0.18516773,0.08158977,0.28546357,0.29490998,0.5885908,1.0766376,0.041240253,-0.38628408,-0.15505804,0.3778215,0.50072074,
ReferenceType,-0.017087834,0.38102198,0.25861615,0.14673841,-0.11381635,0.3095639,-0.16727956,-0.3814272,-0.91749877,-0.6265415,0.03487436,0.50999767,-0.5799371,1.4117664,0.48321426,-0.8818912,0.24660613,-0.03094569,0.7155447,0.35756844,0.5208062,-0.26983708,0.24521708,0.3095243,-0.09560354,0.31052604,0.09416853,0.37695703,-0.29079247,0.11360465,
VariableDeclarator,0.87366956,-0.055398785,0.95833707,-0.6225246,0.011792427,0.6803932,0.87128896,-0.50333613,-0.117156,-0.41750917,0.07921898,0.49216038,-0.37071222,0.7286566,0.43188986,-0.55187756,0.3324339,-0.15083925,0.7899241,0.5199042,0.21386933,0.47986647,-0.22492509,0.13351332,0.70041305,0.54296046,0.03345327,0.24035355,-0.27211913,0.20949617,
ReturnStatement,-0.04779219,0.06664024,0.6552138,-0.62286735,-0.41261974,-0.6830206,0.0041132984,-0.23284191,-0.34867197,-0.21571784,0.41102812,0.36417103,-0.41766712,0.69906414,0.6593876,-0.7628393,-0.87629706,-0.097725436,0.09255285,0.42110693,0.7739942,-0.26051933,-0.04789462,0.49887475,0.48265058,-0.6736281,-0.034885965,0.25814086,-0.36791843,-0.062125076,
append(),-1.5545956,-0.16667636,1.1045046,-1.0379741,0.33916742,-0.034949645,0.12704244,-0.6080187,-1.3950847,0.07740277,-0.24393302,0.042056132,-0.5958596,1.1859599,0.52504975,0.97878677,0.35261178,-0.3724611,-0.2026028,-0.42444623,0.8156465,-0.11919139,-0.7719755,-0.22524606,0.28718325,-0.8327928,0.23014979,0.83687747,-1.5205084,0.4925918,
BlockStatement,0.086544126,0.21422143,0.89859945,-0.339433,0.6353944,-0.3789977,0.38128558,-0.58132225,0.057408728,-0.8524374,0.99532914,-0.41001272,-0.7709873,0.31496263,0.006263072,-0.4254165,-0.35088527,-0.47346917,0.1451788,-0.2725851,-0.30489552,-0.60235596,-0.5063375,-0.2735997,-0.25681433,0.17611839,0.11297184,0.56873703,-0.5599919,0.48943153,
IfStatement,0.06502344,-0.011469837,0.62774646,-0.07531802,0.5190382,-0.6149914,0.18541326,-1.0812535,-0.18145761,-0.60575014,0.58330035,-0.35414755,-0.63643426,0.20851715,-0.026451208,-0.8074298,-0.012383825,-0.26061538,-0.39282572,-0.43555114,-0.020065911,-0.6286925,-0.2812556,-0.2813271,-0.16665968,0.27113846,0.56078297,0.30520508,-0.59970105,0.7348768,
Integer,-0.1511026,0.97809315,0.7996458,-0.41129088,0.047100447,-0.5415304,-0.36528563,-1.1227938,-0.8325547,-1.2137599,-0.20469889,0.6735735,-0.6607308,1.2198108,-0.9866389,-0.56742674,0.14298323,0.87958,1.3346163,0.55280215,0.76224107,-0.13633022,-0.097187154,0.966291,0.6119065,-0.4310334,-0.0530705,1.090253,-2.5536501,1.6425108,
put(),0.19663648,1.4720141,1.0526595,-0.038232487,-0.26066485,-0.3599497,-0.34179685,-1.2188605,-0.62223583,-1.1467419,-0.112231284,0.5663637,-0.6024992,1.3966429,-1.1244272,-0.63843644,0.28859183,0.73832977,0.858576,0.79459006,0.56308055,-0.24073178,-0.057245973,0.95738345,-0.0076208706,-0.45019737,0.13723049,0.89214814,-2.6681647,1.4531004,
putShort(),-1.0505424,-0.82502913,1.4509001,-1.5404215,0.51906323,-0.08300178,-0.3385328,-0.6932595,-0.23092492,-0.14659907,0.59461164,-0.086067654,-0.3471094,0.65564346,0.49436522,0.15657043,0.43045256,0.9613044,0.17586008,-0.3432635,-0.3505829,0.049859155,-1.0017016,-0.0947556,1.3918471,-1.3932542,0.60904545,1.4396526,-0.930962,0.15041867,
SwitchStatementCase,-0.28033412,-0.88007754,-0.39260072,0.7560192,0.49954107,-0.088716514,0.89551944,0.42915425,-0.25469345,0.26216647,0.22607395,0.3605124,-0.5469928,1.2694467,-0.0766275,0.9437401,0.0908401,0.30320328,0.6580721,-0.4398584,1.1491334,-0.44592977,0.19314156,0.69326735,2.2058482,0.81840557,0.58215654,0.5030382,-0.8783164,0.8393372,
ForStatement,-0.19499213,-0.04795831,1.2252938,-0.50332713,0.62710756,0.20202154,0.6826305,-0.65746367,0.27735248,-0.51439667,0.6319909,-0.031545483,-0.8467575,0.48972932,-0.15646356,-0.5278911,0.23575838,-0.22401607,0.38088024,-0.23828705,0.19805738,0.65819156,-0.40581548,0.25487375,0.16008793,-0.019548923,0.45277414,-0.17787494,-0.7602193,0.52082556,
ForControl,-0.26947993,0.49523005,1.1758564,-0.22987352,0.037079483,-0.2676397,0.6375605,-0.8163419,0.01866748,-0.2652007,0.76654625,0.24592498,-0.81383526,0.13509922,-0.043423213,-0.38380346,0.43870077,-0.2674871,0.73408335,-0.60007334,0.034096725,0.39600202,-0.4452766,-0.33071226,0.62386274,0.39211172,0.10674407,0.1742694,-0.93745553,0.24640645,
BreakStatement,0.026267044,-0.82463276,0.06279311,0.74347115,0.7227644,-0.13660358,0.74536484,0.1389719,-0.024218014,0.39605963,0.46514505,0.5376295,-0.32003394,0.6788692,-0.117211305,0.9390616,-0.08101622,-0.1415383,0.52984464,-0.20981865,0.75901234,-0.16088217,-0.3994878,0.9250456,2.0670478,0.89158803,0.56419724,0.18697263,-0.8604648,0.6179515,
ThrowStatement,0.29505968,-0.6103099,0.46952105,0.22142503,-0.16460024,-0.60161126,0.09699744,0.02086732,-0.23012517,-1.1375823,0.86701816,0.10312909,-0.24529174,0.7005265,0.49093702,-0.53748107,0.10314248,-0.09827829,-0.27538484,-0.01450961,-0.08391637,-0.73454237,-0.6004468,-0.09089033,0.7967965,-0.031020481,0.69695544,0.25965774,-1.0151196,0.5045058,
in,1.0913489,-0.8793117,0.45138314,-0.07874725,0.10580308,0.41313457,0.21373658,0.80390406,-0.5329151,-0.48130307,0.32453302,0.2251603,-0.15895927,1.4588891,0.23598148,0.68349963,0.900801,-0.47138786,-0.1799269,-0.21251476,0.54658365,-0.22890611,-0.9312495,0.30458733,1.5521308,0.38953617,0.4110711,0.5568472,-0.7947923,0.052492756,
add(),0.44935313,0.067638725,0.55837685,0.063128434,0.057133235,-0.30056167,0.6583736,-0.2535862,0.06499357,0.76366377,0.7357413,-0.47436273,-1.0228387,0.9622351,-0.4633375,0.15981364,0.6228194,0.033590138,0.40159982,0.34898922,0.5916177,-0.38018668,-0.44553062,0.22745638,-0.33093667,0.6891437,0.5409195,0.04990417,-1.6607958,0.48712218,
offset,-0.54107,-0.6493309,0.609313,-1.1565032,-0.12098265,-0.1724682,0.31754526,-0.3287055,-0.1465399,-0.46245128,0.37607956,0.026891477,-0.19352669,0.6597535,0.58845806,-0.119000345,1.0608917,0.65558547,-0.15855053,-0.09344201,0.044164862,-0.0011528633,-1.2413076,-0.13615572,1.0916688,-0.6714764,0.12759954,0.34812346,-0.9881034,0.22313301,
readShort(),0.45507988,-0.28978822,1.0264851,-0.5815144,0.19759473,0.113267735,-0.23379025,0.5987679,-1.2142495,-1.026892,0.5117485,-0.17806292,-0.705126,1.3403327,-0.07177233,0.69035584,0.5897699,-0.16484839,0.15797438,-1.0449754,0.97638077,0.035464358,-0.8718544,0.026537329,0.793781,0.3597656,0.042560544,0.55528754,-1.4594582,0.4645831,
toString(),-0.87869364,-0.4392876,0.5607019,-1.081512,0.2544126,-0.023979107,0.32806903,-0.5455221,-0.7018006,-0.27621368,-0.004307715,-0.024583155,-0.2836459,0.84914124,0.8484196,-0.057723735,0.69203025,-0.07472111,-0.09587837,-0.14483237,0.24031454,-0.51543486,-0.73350465,-0.4229012,0.70672756,-0.58638656,0.4064414,0.2807119,-1.2279595,0.29678127,
data,-0.4836579,-0.64051247,0.7854451,-1.3085556,0.19309333,-0.42233825,0.3629434,-0.4855096,0.10990498,-0.43010783,0.49558812,0.009230458,-0.491433,0.6517806,0.29057893,-0.06754,1.1069574,0.66655725,-0.07207381,0.30904967,-0.30505493,0.010864191,-1.0902541,-0.1999027,1.0384979,-0.68983006,0.074761964,0.34980768,-0.8445859,0.31245115,
PropName,-0.094883695,0.33145064,2.1747384,-0.54145426,-0.050521944,-0.5209455,0.48337674,-1.3305242,-0.14234743,-0.98129964,0.6147837,0.2626758,-1.8130049,2.3654227,0.28598997,-0.27022812,-0.22025555,1.108969,-0.4078052,-0.032130532,0.8306215,-1.0262032,-1.0668461,1.3409731,1.8283226,0.5480024,0.9505211,1.6196995,-2.2882335,0.58125633,
addProp(),-0.57406086,0.29838398,2.424574,-0.9004373,0.23773329,-0.49078658,0.5068506,-1.5556846,-0.52592754,-1.186511,0.46290657,0.42519122,-1.8625202,2.4385161,0.47488058,0.012408625,-0.12296491,1.2136161,-0.39011458,-0.068691805,0.9138403,-1.0847691,-1.2645936,1.1820819,1.7320564,0.39974082,0.83732444,1.7048175,-2.4771264,0.7220755,
data(),-0.55359995,0.2837534,2.4446397,-0.88478726,0.21746719,-0.49007866,0.51827216,-1.5326327,-0.48431498,-1.1774317,0.46346277,0.43243843,-1.8744015,2.4315436,0.49258748,0.0018908618,-0.14474152,1.2198218,-0.39682618,-0.07850076,0.89134276,-1.0796177,-1.2476937,1.2349802,1.7417814,0.41609663,0.8593795,1.6866208,-2.4884827,0.7071826,
StringBuffer,-0.45155445,-0.1079381,0.8442575,-0.85166436,0.19755013,-0.091811724,0.09391793,-0.01660499,-1.3680264,-0.39880547,-0.03905533,-0.06457103,-0.7138086,1.2023265,0.49880517,0.29087177,0.17082284,-0.62076646,-0.05399451,-0.3813533,0.9016393,-0.2519732,-0.15573189,-0.3311681,0.62553096,-0.24746066,-0.0054494785,0.46249634,-1.2354492,0.39142668,
Byte,-0.25934467,0.26514465,0.74715674,-0.6103736,0.10897831,-0.8011722,-0.33126736,-0.86277336,-0.65525895,-1.0098128,0.07459529,0.50159377,-0.8285864,1.3525777,-1.1177562,-0.28177226,0.2478539,1.0363429,1.3093098,0.56221443,0.8533488,-0.019722737,-0.065729834,1.1433501,1.2321538,-0.34622613,0.01802979,1.2361028,-2.4546518,1.7244791,
getRow(),-0.12584673,0.41526356,2.1800508,-0.99132144,0.97764814,0.3279847,-0.07594963,-1.2321056,-0.7687394,-0.349927,0.101118594,-0.35175234,-0.3704503,0.028372832,0.7531823,0.17984305,-0.85643613,-0.046557702,-0.18991822,-0.2733491,0.097495034,-0.8086374,0.23598813,-0.25428352,1.0914509,-0.5519038,0.58502316,0.8759289,-0.43941447,0.5175179,
getRecordSize(),-0.81969273,-0.90711164,1.133184,-1.291498,0.054853316,-0.3403929,-0.19304399,-0.3021787,0.11821621,-0.44100878,0.8624588,0.15190023,-0.67475533,0.87700266,0.57713705,-0.355605,0.30969533,0.41922337,0.55069274,-0.2735508,-0.22008716,-0.02830541,-0.29623395,-0.14386098,1.3170216,-0.7768872,0.8775987,1.3359433,-1.0353981,0.24930722,
get(),0.07982913,0.45413768,0.69989735,-0.100686096,-0.20733966,-0.62804115,0.82325524,-0.83756936,0.048960656,-0.2230672,0.6646033,0.04639648,-0.70094615,0.7959023,0.064152375,-0.6791811,-0.103083745,-0.20928147,0.30938458,0.14750704,0.28852814,-0.025773834,-0.20081694,-0.075936444,0.015711937,-0.3844621,0.3596861,-0.060456686,-1.006828,0.57703274,
size(),-0.11589664,0.28251582,0.7600182,-0.12676086,-0.09527081,-0.6133567,1.0316501,-0.69093376,0.19027884,0.29000542,0.77014416,-0.060099635,-0.9676128,0.8526618,0.025914602,-0.3275057,0.23812488,-0.08522296,0.50943696,0.17493954,0.35667557,0.1011415,-0.11941517,0.020131696,0.2799423,-0.2138936,0.36831856,-0.15478194,-0.86424136,0.42722845,
getProperty(),-1.15771,0.17634308,0.24329443,-0.9663443,0.07198134,-0.073870845,0.4644157,-0.68529516,-0.90096986,-0.55721843,-0.58719325,0.7223557,-0.5129149,1.5493706,0.17877138,0.64754015,0.6557876,0.40411833,0.315538,0.23534682,0.38829476,-0.08711588,-0.6557909,-0.012219183,0.23755312,-0.7272474,-0.2253119,0.2624968,-1.6338972,0.5269565,
toHex(),-1.4039357,0.12524568,0.68837506,-0.7683204,0.6678888,-0.10380689,0.41070375,-0.6311341,-1.4400531,-0.5680099,-0.46961483,0.6266971,-0.632744,1.2211509,-0.013952222,0.98970187,0.37741813,0.46324214,0.18485509,-0.4575625,1.19317,0.008619511,-0.7817665,-0.12310076,0.42785764,-0.4385793,-0.35938928,0.58084697,-1.9445766,0.7340339,
toString,-0.3716582,-0.24066922,0.7067017,-1.0349479,0.03679411,0.041663848,0.15978433,0.058488235,-0.9933519,-0.9628065,0.31836882,-0.020645391,-0.47503173,1.0774567,0.36042067,0.15213078,0.13550802,-0.30953288,-0.07293715,-0.692715,0.85760933,-0.09987508,-0.3624182,-0.35793105,0.43943197,-0.13805519,0.21344063,0.45476347,-1.3032095,0.52294993,
value,0.19635487,0.23072082,1.1066979,-0.85275126,-0.25373477,-0.8829896,0.03281948,-0.23556237,-0.06399978,-0.42124936,0.28971592,-0.3689103,-0.30342662,0.4999745,-0.2537987,-0.47051436,0.10018663,0.9485697,-0.85244966,-0.18017733,1.0554638,-0.13950756,-0.2447253,0.3981648,0.27971777,-0.84906745,-0.6161952,0.16758206,-0.79840267,0.30801445,
getInstance(),1.5264146,0.42569095,0.10847073,-0.3828306,-0.72656184,0.8535874,0.70601827,0.40812087,0.27658746,-0.27367148,-0.37442848,0.20048463,-0.66433054,1.3011763,-0.5360639,-0.58132416,0.40850624,-0.041482728,-0.03350957,0.29126465,0.21895991,0.321244,-0.53899276,1.0077891,2.5462935,0.8319303,0.34117615,0.8535161,-2.0283988,0.07254959,
toHexString(),-1.0054274,-0.2310393,1.4943256,-1.3382491,0.9418038,-0.005648104,0.08084469,-1.0530484,-1.258531,-0.23321736,0.089108996,-0.100644276,-0.3598661,0.73957926,0.56935585,0.95610076,0.11483096,-0.23044159,-0.27381927,-0.4449476,0.47428057,-0.3120157,-0.62446165,-0.26409745,0.5581381,-0.6850857,0.3135814,0.6943273,-1.1925015,0.5615408,
isSet(),0.12843646,-0.20487423,1.7739377,-0.7311508,-0.054677732,-0.6451393,0.34406793,-0.23066516,-0.7391914,-0.16813777,0.6857411,-0.13330452,-0.2882047,0.63877505,0.05586677,0.015781071,-0.09964541,1.1359948,-0.74338806,-0.5407271,2.1369731,-0.21556766,0.19903016,0.27142432,1.5992244,-1.328142,-0.26496255,0.79758805,-0.88622767,0.24680215,
id,0.9912877,-0.4008474,0.27089244,0.17173487,-0.39616573,0.021497376,0.1996086,0.23630907,-0.57516956,-1.1157736,0.9069677,0.12710541,-0.2414171,1.0264986,0.16818018,-0.26339477,0.70899785,-0.08887625,-0.5322442,0.046439867,0.4382185,-0.63898176,-0.6917057,0.1421491,1.4331863,0.0075004916,0.5887798,0.4214006,-1.1449412,0.37354317,
serialize,-0.7361529,-0.9586692,0.64682984,-1.5998096,0.14496537,-0.60438,0.63806474,-0.50332,-0.5211059,-0.54332,0.4262548,0.118737355,-0.30587137,0.8403944,0.5702418,-0.0684316,0.9105174,0.3364236,0.19515291,-0.10637011,0.14612032,-0.24711028,-1.1782397,-0.09445804,1.1933624,-0.72622305,0.3174254,0.35740298,-1.443548,0.57193226,
RecordFormatException,0.5649107,-0.5712997,0.7902557,-0.42907402,-0.0021117523,-0.31078452,-0.16536032,0.18954314,-0.91165614,-1.5561464,1.0620531,-0.10209137,-0.29778466,0.9633471,0.46859547,0.03123472,0.48676673,-0.23367247,-0.3369266,-0.457407,0.2383035,-0.45390397,-0.8100715,-0.050752267,1.3520178,-0.036442634,0.8616604,0.46419948,-1.2770728,0.5988805,
fillFields,0.8178574,-0.49995703,1.0020044,-0.6960934,0.011861179,-0.13589899,-0.16245404,0.19792125,-1.0419554,-1.4926767,0.88535357,-0.13241203,-0.4913464,1.1078475,0.20878188,-0.08125613,0.76313263,-0.2618785,-0.19181734,-0.4978404,0.2920473,-0.36829966,-0.9849327,-0.0828718,1.3087376,0.12559797,0.5394666,0.44705325,-1.5024499,0.6161831,
getColumn(),-0.41438246,0.23277298,2.1516883,-0.96950454,0.8504032,-0.030608186,-0.16099574,-1.4092621,-0.9104093,-0.6693311,0.14754413,-0.08599273,-0.23203038,0.15454672,0.8450739,0.21725106,-0.91101915,0.24192832,-0.27333057,-0.16772865,0.29329535,-0.98684865,0.5446048,-0.23045227,1.1385223,-0.63636816,0.7243807,0.9286047,-0.5295296,0.7459257,
getRecordSize,-0.4933655,-0.77393836,1.1456316,-1.0617721,-0.29176787,-0.24947006,-0.011566135,-0.12625633,0.24004394,-0.5439969,0.9543198,0.2962169,-0.36609116,0.7962831,0.7134793,-0.49126458,-0.01129969,0.32631508,0.46939728,-0.21250781,0.035093978,0.088388965,-0.08397187,-0.14933781,1.2954416,-0.6394785,0.94359446,1.5426373,-0.8434787,0.023874598,
clone,-0.3907464,-0.5354057,0.4339945,-0.86432314,-0.32092395,0.15046473,-0.18356538,0.20096871,-0.30270994,-0.4708559,0.21910983,0.31106925,-0.052546963,1.0740373,0.82832146,-0.081488885,-0.50126165,-0.08132966,0.23072945,-0.37468913,0.32640675,-0.10551181,0.04700643,0.17929266,0.9398628,-0.450081,0.73452246,1.3381313,-0.7300256,-0.16229145,
org.apache.poi.hssf.record,0.8330162,-0.10126336,-0.2932399,-0.17572393,-0.30407122,0.6505302,0.602356,0.41116476,0.24996455,0.29181314,-0.25493774,-0.014732871,-0.566718,0.6156217,-0.023987453,-0.10477461,0.13990785,-0.09709719,-0.55371314,-0.23388411,0.26621902,-0.057556517,-0.8420464,0.64651096,2.0125194,0.63977444,0.18145698,0.6156506,-0.843708,-0.55290216,
getSid,-0.17584309,-0.74415535,0.8328363,-1.0193664,-0.33208054,-0.2720373,-0.13069779,0.094357826,-0.09789747,-0.86253166,0.7073161,0.18882905,-0.22392486,0.8658312,0.8422047,-0.3972759,-0.1798409,0.28940362,0.20786603,-0.32751966,0.19067964,-0.11952013,-0.074189596,-0.09501453,1.3228858,-0.50482917,0.84684765,1.2846521,-0.7516051,0.13360958,
validateSid,1.3924448,-0.5721367,0.38592795,0.14832465,-0.16111721,0.17927113,-0.028855849,0.38354144,-0.36289293,-0.7675894,0.9135992,-0.08436675,-0.35719737,1.0744648,0.1562561,-0.04007281,0.52205604,-0.16376214,-0.4750018,-0.09738379,0.06416911,-0.61398435,-0.7411663,0.43306893,1.9751524,0.30251423,0.7467623,0.62374526,-0.9468301,0.28096431,
setShortBoolean(),0.75227886,-0.07808679,1.4909343,-0.5352925,-0.26146802,-0.7183565,-0.13182287,-0.20897207,0.0395345,0.18301813,0.653803,-0.58009887,-0.49957633,0.75606614,-0.6249999,-0.29115072,-0.07391534,1.6291916,-0.79838014,-0.40078774,1.7681165,-0.26726317,-0.12420029,0.92418426,1.2006593,-0.8936197,-0.41692254,1.2832409,-0.8249525,0.075945295,
WhileStatement,-0.027591998,0.16122627,0.90102327,-0.0940383,0.28213,0.3933152,0.40013736,-0.4451934,0.20033722,-0.08112443,0.5530984,0.09654469,-0.7451519,0.22522363,0.19417357,-0.56207454,0.059370853,-0.37773848,0.50161994,-0.1799548,-0.039628763,-0.13817848,-0.53834736,-0.120585956,0.23840198,0.47303912,0.530451,0.08493283,-1.0428667,0.203619,
index,0.33408478,0.3746745,0.7312432,-0.16594087,-0.53186506,-0.63318235,0.34382027,-0.6435492,0.5523227,-0.4041206,0.6268908,-0.10881742,-0.3258002,0.46255416,-0.0521202,-0.89612573,0.02360491,0.66690665,-0.14694661,0.24762157,-0.17989638,-0.14833872,-0.25322312,0.22810575,-0.030675458,-0.34682432,0.2790793,0.26361588,-0.56887126,0.14682281,
next(),-0.56941503,0.18909132,1.2413615,-0.3935013,0.085696675,0.32227567,0.35434553,-0.5503316,0.5446714,0.0012129627,0.66766346,0.36708027,-0.6789462,0.36286432,0.33789358,-0.4595768,0.060386427,-0.42848966,0.556797,0.13953362,-0.29056305,-0.013995757,-0.09605601,-0.11423024,0.2821511,0.11975808,0.9739723,0.40058815,-1.2316781,0.19947834,
arraycopy(),-0.23352118,-0.2944859,0.959817,-0.54910564,0.24866503,-0.4238038,-0.025668204,-0.51860946,0.44744644,-0.446415,0.8406319,0.1514509,-0.71305543,0.43090722,-0.053000025,-0.43832296,0.55908936,0.6595976,0.34172598,0.2169267,-0.59378946,0.1435461,-0.5856315,-0.022025233,0.63403237,-0.28043765,0.31774935,0.38970992,-0.61296844,0.3696164,
putInt(),-1.2530386,-0.69124293,1.7684034,-1.143632,0.544035,-0.42039418,-0.6552749,-0.59037346,0.2045678,-0.28234476,0.8917819,0.4440107,-0.7025367,0.5021485,0.13106683,0.044667657,0.19333337,1.1051785,0.7157387,-0.21318187,-0.07349034,0.44475403,-0.35426554,0.18187134,0.8223131,-0.7436857,0.48603413,1.6655637,-0.8836879,0.3422499,
hasNext(),-0.4581908,0.2544092,1.476274,-0.2542372,0.038849264,0.35202312,0.5537021,-0.56846774,0.5990237,0.017480258,0.82199466,0.34395078,-0.76179093,0.4288554,0.35534534,-0.5386818,0.13965859,-0.6229077,0.63951707,0.13136381,-0.27089962,0.15707399,-0.13822192,-0.08043018,0.5522603,0.24749874,1.055309,0.3910512,-1.3111551,0.14297125,
HSSFColor,-0.09311442,1.342939,0.7327577,-0.12487256,-0.11692943,-0.18622041,-0.6346856,-0.9583552,-0.8213846,-1.4011749,-0.494551,0.71951693,-0.40730718,1.1760337,-0.95608914,-0.26470178,0.06903663,0.77352214,0.7396462,0.47119862,0.37883478,-0.20765597,-0.248085,0.99252886,0.1838624,-0.10548088,0.1568974,1.0555854,-2.7025285,1.3384653,
iterator(),-0.44987002,0.19099268,1.2734964,-0.37051585,-0.14194623,0.21184088,0.8338173,-0.52220553,0.5996568,-0.038892623,0.7621668,0.37438443,-0.8601101,0.67783415,0.35762042,-0.64257896,0.2722149,-0.5745837,0.73884267,0.033932935,-0.036118828,0.237337,-0.13321257,-0.13804519,0.33888584,0.20378618,0.8148115,0.29801223,-1.2471617,0.116926104,
Long,0.2065728,1.315846,0.71840394,0.15579128,0.019977584,-0.34973338,-0.18501578,-1.0125694,-0.60241884,-0.9138537,-0.06413865,0.32829434,-0.6993936,0.8496446,-0.88344955,-0.47520575,0.11596775,0.2613919,0.61854285,0.41058856,0.44818154,-0.4503536,-0.29370797,0.66410816,-0.18033826,0.094695285,0.08763722,0.39819992,-2.2251432,1.3068029,
log(),-0.3391443,0.27750573,0.4938583,0.4899726,0.61166525,-0.5472306,0.5493564,-0.7059004,-0.65366876,0.3293665,0.16105682,-0.5335124,-0.74000114,0.841655,-0.23117717,0.6597258,-0.3458797,0.0320835,0.012454118,-0.059973326,0.7880218,-0.5676251,-0.07062916,0.35248774,0.105606295,0.118429266,0.33315185,-0.07061497,-0.63880837,0.7652581,
check(),-0.23800799,0.31184942,0.5078819,0.5268594,0.67455596,-0.48336926,0.43383968,-0.76156443,-0.6326002,0.37526843,0.18172313,-0.4936778,-0.7368047,0.76340157,-0.22572084,0.675351,-0.34456328,0.087011054,-0.03685618,0.119767256,0.6444962,-0.73936254,-0.16644996,0.37942582,0.0073965406,0.104399234,0.33866242,-0.077961326,-0.5932988,0.74324507,
length(),-0.22163148,-0.2845401,0.79179126,-0.23960818,0.63665193,-0.16304442,0.43865225,-0.31863633,-0.007825373,-0.2717416,0.6496889,0.19412729,-0.9371088,0.35743162,0.20486996,-0.1510913,0.07937698,-0.3213638,0.37936488,0.012172874,-0.11502536,-0.12588975,-0.4991886,-0.04647276,0.7135575,0.3460971,0.30114117,-0.06016042,-0.51702356,0.47889626,
getOptions(),-1.5457698,-0.120966494,1.113253,-1.1034948,0.5618522,-0.5334058,0.49696326,-0.7881693,-0.39355835,0.08292154,0.035170946,0.6331266,-0.75714266,0.5950171,0.13462889,0.44053847,0.0022248286,1.0334152,0.14650495,-0.11476294,0.9560476,0.24310318,-0.36351252,0.14021938,0.31834123,-0.8643747,-0.73084354,0.4468329,-0.700417,0.353416,
println(),-0.27498707,0.20563222,1.0529175,-0.43112874,1.184751,0.6243101,0.14195558,-0.6968018,-0.50550914,-0.30437893,0.14732242,0.14133249,-0.6670702,0.2335572,-0.14418504,0.3208502,0.42534533,-0.17532507,-0.10157902,-0.018230697,-0.16333203,-0.41864732,-1.3491215,-0.5289135,-0.07381986,0.30149612,-0.031666733,-0.0036543915,-1.360436,0.12858658,
ArrayList,0.34778765,0.095968746,0.4948944,-0.18355145,-0.3093946,0.07382056,0.39387468,-0.012415071,0.004375535,-0.07255917,0.35324728,-0.109765895,-0.70962507,0.88530976,-0.06690383,-0.23581834,0.5963344,-0.36232916,0.25243747,0.1036143,0.16523285,0.07901838,-0.6563444,0.15920947,0.037543893,0.43774605,0.29562503,-0.026199438,-1.2456253,0.16691081,
readInt(),-0.014834428,-0.2107379,1.0422397,-0.44196668,0.7698362,-0.13199605,-0.47948676,0.310816,-1.3436219,-1.3084195,0.6899594,-0.02794248,-0.97930104,1.099057,-0.098380975,0.5219131,0.4572914,0.028956339,0.024523403,-0.8176555,0.763901,-0.31764495,-0.9962885,-0.2740802,0.36293212,0.5166258,-0.08715328,0.39588314,-1.5209677,0.6960877,
getSid(),-0.236409,-0.31729373,0.92140484,-0.09177154,0.48325172,-0.41742158,0.3231129,-0.37046364,-0.1094799,-0.21217012,1.1374022,-0.048141513,-0.9614774,0.5211147,0.18731457,-0.20743944,0.19714311,-0.38816023,0.4222538,0.110603504,0.059945837,-0.26912495,-0.31345817,-0.09529868,0.6869461,0.30650988,0.7163022,-0.05309102,-0.9733944,0.78259426,
getRecordId(),-1.406726,-0.45609105,0.8685373,-0.83861405,0.31082132,-0.42609712,0.22166519,-0.46155185,0.24571127,0.08432182,0.64430875,0.6828629,-0.881861,0.59473944,0.31629327,0.072805144,0.1010934,0.659935,0.5304135,0.06444549,0.010940229,0.2224086,-0.27929103,0.044643372,0.5871445,-0.5165918,0.21394823,0.6673699,-0.62542963,0.18540987,
row,0.7689973,-0.020002278,1.1152524,-0.31604168,-0.046744116,-0.33357418,0.0019622156,-0.21417908,-0.11994259,-0.06696946,0.61230236,-0.7031119,-0.43201151,0.30893937,0.1898104,-0.19262134,-0.42853177,0.15406173,-0.34643897,-0.43650034,0.734092,-0.53515196,-0.22303808,0.16609192,0.10866176,0.024195554,0.37136677,0.57116675,-0.3495089,-0.012784664,
toFormulaString,-0.58434,-0.19705376,0.5931493,-1.2289939,-0.61463,-0.1906809,0.22356081,-0.23401962,-0.7973653,-0.8099681,-0.19224207,0.2002941,0.16040377,1.1934835,0.8531432,-0.25324062,-0.15728235,0.17193425,-0.3393735,-0.2363071,0.9367691,-0.26947585,-0.06845642,0.18042845,0.93765646,-0.99830663,0.3378842,0.81125975,-1.2350551,-0.004985231,
TryStatement,-0.08263022,0.20813793,0.3623213,-0.12417254,0.15692776,0.3552251,0.23578236,-0.30244112,-0.24767125,-0.6323119,0.1021613,0.27156767,-0.37217936,0.75006616,0.33442685,-0.21244602,0.4338274,-0.35882065,-0.15975012,0.123687945,-0.28772256,-0.37634385,-1.0101705,-0.21496022,-0.065583624,0.009955076,0.39322272,-0.12100851,-1.3239154,0.02069205,
readByte(),0.46573135,-0.3114983,1.1526563,-0.20774974,0.4192404,-0.07815986,-0.4762153,0.35094362,-1.1765132,-0.9212181,0.5213331,-0.31183872,-0.63779956,0.8325903,-0.13111445,0.6017983,0.28739733,-0.08805879,-0.3354303,-0.94740576,0.92608017,-0.31605285,-0.6919161,0.0010316755,0.50938797,0.3770602,0.1486121,0.56149954,-1.0250162,0.48473477,
CatchClause,-0.0870779,-0.041309305,0.2114773,-0.13904029,0.24423698,0.21124065,0.07384979,-0.32529756,-0.2914968,-0.7340029,0.3069511,0.20601487,-0.2131561,0.86658496,0.43492723,-0.034610838,0.39644158,-0.27758652,-0.33855715,-0.015103563,-0.37996244,-0.65846133,-1.2920108,-0.23351535,-0.2830018,-0.11537724,0.59642386,0.107665144,-1.2437446,-0.030585755,
getFirstSection(),-0.043550964,0.1830409,-0.17554434,-0.55926913,-0.66484356,0.17921266,0.5165543,-0.47162417,-0.35917014,-0.683132,-0.47046718,0.64931047,-0.36523637,1.616068,-0.16641296,-0.67890126,0.3679505,0.3395603,0.6589829,0.4707897,0.9147568,-0.07506871,-0.47776884,0.61201537,0.32639328,-0.46540552,-0.13499518,0.5184103,-2.0406907,0.47808254,
IllegalArgumentException,0.5356708,-0.05416781,0.50806296,0.29487196,0.10580847,-0.5877445,-0.04534004,-0.24752297,-0.121871606,-0.7602697,1.210776,-0.3271646,-0.65600467,0.86608505,0.06688871,-0.39610907,-0.17835103,-0.1742052,-0.010705859,-0.057710297,-0.04709612,-0.7657551,-0.2462038,0.22342701,0.61011124,-0.0139826285,0.89320374,0.42159662,-0.80723834,0.62823695,
getName(),-0.6266745,0.49401486,0.5282401,-0.26271915,-0.018157206,-0.0071528316,0.5822306,-0.65858454,-0.25527516,-0.3985432,0.12883669,0.5207333,-0.50133085,0.7389404,0.38773134,-0.3759058,0.06773221,-0.21272826,0.15209264,0.26244873,0.20342153,-0.1877797,-0.30820286,-0.26538813,-0.25115132,-0.33217236,0.17614071,-0.08010728,-1.1611233,0.16739485,
book,-0.31096166,0.008474824,0.5254286,-0.8596436,-0.5607653,-0.001194874,0.13497394,-0.1397524,-0.5013772,-0.57762456,-0.14652354,0.16815881,0.023726474,1.0808917,0.69291097,-0.271453,-0.29251742,-0.046663105,-0.2517252,-0.11118544,0.6390403,-0.17123367,0.026885517,0.18134692,0.6021202,-0.64234704,0.32714656,0.69088495,-0.9109858,-0.1469692,
getParent(),0.16631153,0.90960914,1.2659305,0.7699672,0.31177205,-0.34158972,-0.4436668,-1.1569431,0.52576554,-0.3944892,0.6849788,0.24353667,-0.4942025,0.106999554,-0.5332943,-0.4833144,-0.4018775,1.088405,-0.067148395,0.3718614,-0.5336179,-0.634356,-0.050129365,0.66208977,-0.24458136,0.21143746,0.4706306,0.7290645,-0.51375043,0.42949066,
name,0.19261508,0.72007185,0.42157227,0.07567554,-0.54672164,0.016021432,0.27329877,-0.48249993,0.3172488,-0.07265285,-0.000108485096,0.0025079132,-0.45642954,0.698807,-0.057387665,-0.5396981,-0.04385865,0.030673418,-0.07655343,0.25142983,0.012528594,-0.1388922,-0.14903918,0.30718574,-0.19069311,0.09130748,0.315937,0.15930775,-0.81702185,-0.10632364,
array,-0.11929393,-0.6598839,0.5289447,-1.0684131,-0.20210992,-0.017534046,-0.085097775,0.19041435,-0.3458918,-0.7356982,0.07335516,0.14786819,-0.03381568,0.73497814,0.44361162,0.16733986,0.6710515,0.634961,-0.3090442,-0.45672792,0.19523537,0.070090234,-1.049393,0.1514951,1.0813404,-0.31918433,-0.008668611,0.7006873,-0.7710497,-0.16417943,
equals(),0.10378469,0.1774147,0.7148077,0.057833847,0.16526774,-0.07008299,0.69412726,-0.5811693,-0.070775315,-0.16889426,0.56491053,0.0771963,-0.516655,0.549151,0.21925496,-0.40235683,0.027144171,-0.21132003,0.14020668,0.2140661,0.2669051,-0.3976868,-0.15650359,-0.17925663,0.39993742,-0.11299465,0.44480714,-0.020705912,-0.86386055,0.3735563,
org.apache.poi.hssf.record.formula,0.38921517,0.15712456,-0.011705058,-0.33412018,-0.24197999,0.6080189,0.21476966,0.12912239,-0.060797315,-0.13427246,-0.6502221,0.10518864,-0.33349836,0.61216664,0.14744695,0.1239205,0.07747371,0.15773308,-0.525014,-0.10211627,0.074714564,-0.06660701,-0.6721296,0.4530218,0.8342934,0.65372473,-0.08019963,0.36818996,-0.4243469,-0.4898064,
setOptions(),-0.559864,0.26911783,0.20358604,0.19495212,0.3445838,-0.20113672,-0.018975055,-0.5594634,0.29183337,0.34787196,-0.28820613,0.5171149,-0.7256974,0.31020978,-0.79427695,0.61085624,0.118145205,0.7335889,0.36820683,0.097227186,0.085382,-0.12028152,-0.4083347,0.9797207,0.12972637,0.6951047,-0.001998118,0.64669955,-0.64323574,0.44683024,
remove(),0.0070807957,0.5173887,0.69616145,0.15601721,-0.16845007,-0.27609497,0.53744555,-0.6591564,0.3559178,0.113396004,0.60894495,0.14368571,-0.88665783,0.64697963,-0.15702143,-0.63954616,0.097517006,-0.027546512,0.4267012,0.43054685,0.057366915,-0.109579764,-0.11561716,0.13384563,-0.014406921,-0.001416159,0.3679017,0.029171174,-1.0051606,0.3811082,
getIndex,0.12595451,0.6677507,0.5602087,-1.0632751,-0.79803085,0.16752289,0.71045184,-0.7173706,0.27129552,-0.2822921,-0.46011466,0.38666505,-0.6671862,1.118056,-0.08421441,-1.1934935,-0.08112234,0.65926766,0.5713479,0.46909463,0.58350575,0.3059372,0.4162306,0.5190909,1.1930155,-0.51833177,-0.23508014,0.73330563,-1.2078171,0.25024256,
getClass(),-0.3863971,0.25444263,0.7028275,-0.13533774,0.2360243,-0.10284472,0.60470253,-0.6047727,-0.6101023,-0.5844637,0.5377995,0.39482722,-0.53392845,0.9539894,0.45789853,-0.23675077,-0.06263533,-0.40002206,0.04287987,0.17393367,0.30526146,-0.450109,-0.14326699,-0.3696691,0.31819794,-0.5066239,0.3329594,0.0012426384,-1.0648946,0.41263098,
getSize,-0.38598835,-0.32706589,0.53260446,-0.98491645,-0.4513965,-0.10568195,0.14712355,-0.045269053,-0.13789958,-0.5768059,0.12008952,0.16524957,-0.13958146,0.8014683,0.56616783,-0.30966473,0.2717088,0.57867086,-0.11357612,-0.32486597,0.41602224,0.08309115,-0.4029506,0.11198972,0.8913766,-0.5681764,0.08818525,0.68076146,-0.71140337,-0.123625815,
print(),-0.6727397,0.023881504,1.4216217,-0.47586322,1.4759663,0.2563262,-0.16537522,-0.5692021,-0.8250724,-0.47945997,0.41805938,0.14011174,-1.0470215,0.41161835,-0.2608034,0.69122857,0.29454505,0.04611284,0.10535071,-0.41227493,0.21831708,-0.30776986,-1.0843581,-0.5071628,0.06648545,0.5044974,-0.11927367,0.16506766,-1.3274523,0.5140877,
level,-0.34257424,0.8393798,0.57378775,0.38897535,0.4885265,0.27412048,0.156616,-1.0483792,-1.029088,-0.14650646,-0.75992423,0.14583305,-0.22519843,0.823238,0.0123318,0.94272184,-0.44831657,0.21874921,-0.467953,0.057567265,0.4758844,-0.7137881,-0.34512886,0.41411093,-0.20384994,0.31020838,0.18693699,0.3051046,-0.75263685,0.33288762,
writeBytes,-0.13947725,-0.57169616,0.2951974,-1.0880643,-0.11784788,0.1696661,-0.10437874,0.22616827,-0.43953466,-0.7502361,-0.22793357,0.1922594,-0.06530911,0.6586818,0.52358913,0.25527322,0.48095134,0.57478523,-0.43875507,-0.4710477,0.20318122,0.017266966,-1.0338243,0.18544875,1.0847626,-0.053276923,-0.11875334,0.64133275,-0.71897274,-0.24641822,
getTriplet,0.18775775,0.60349023,0.5617727,-1.1578302,-0.8104554,0.18255995,0.81551075,-0.7172971,0.29345778,-0.2813468,-0.39855403,0.44872108,-0.69405544,1.1065828,-0.14224719,-1.2796468,-0.051576473,0.618954,0.6324828,0.49597314,0.5979185,0.37271616,0.3490031,0.5764643,1.3544233,-0.5200361,-0.26143986,0.78327245,-1.3440987,0.28008604,
getHexString,0.11262886,0.6594905,0.60461634,-1.1967185,-0.7947994,0.26458785,0.8016636,-0.7206373,0.26226252,-0.30601227,-0.4689821,0.42820922,-0.72783965,1.1621518,-0.05531496,-1.259642,-0.08690823,0.5242249,0.65500724,0.46800843,0.5535868,0.3867162,0.41049346,0.5078189,1.3299226,-0.4761013,-0.22663246,0.75739604,-1.2563652,0.24642992,
write(),-0.29362273,-0.18981458,0.5822682,-0.052076608,0.26054427,-0.24751756,0.21392524,-0.33173695,0.35300997,-0.22414139,0.36706153,0.25605866,-0.77287567,0.49633315,-0.13522388,-0.40956104,0.19220737,0.032863345,0.45141286,0.15269601,0.016344048,-0.08231601,-0.38700777,0.26472193,0.35731316,0.2534246,0.078238875,0.13538146,-0.56190926,0.29702717,
o,0.11604724,0.36926904,0.95071256,-0.16864547,-0.07884848,-0.26013622,0.6471999,-0.737021,0.26562467,-0.26575804,0.60059047,0.0015400337,-0.67650706,0.58105004,0.1916869,-0.80852604,-0.31892136,-0.07349074,0.18772773,0.30216262,0.09548883,-0.2061838,0.24138354,-0.02229139,0.48623142,-0.29959384,0.32384586,0.14869513,-0.4896861,0.3469815,
setProperty(),0.07450284,0.3693276,0.12518057,-0.2833804,-0.44905186,-0.025879636,0.4441838,-0.40399763,-0.475215,-0.8711329,-0.091945544,0.57693875,-0.34670413,1.2438712,-0.07303913,-0.718209,0.28274494,0.25841776,0.44569913,0.45772362,0.80528677,-0.15974455,-0.3412418,0.42439613,0.2745921,-0.47159946,-0.12874275,0.22792274,-1.7389332,0.53324276,
stream,-0.10341117,0.26449513,0.44655573,-0.2602173,-0.2797197,0.10428852,0.24744366,-0.311003,0.492004,-0.18295519,-0.093514085,0.095529355,-0.4154413,0.49620888,0.07855352,-0.30551445,0.21885991,0.22752012,-0.10356286,0.1970258,-0.35624614,0.06354533,-0.4366857,0.25227666,0.097512536,0.21103023,0.16549408,0.10777793,-0.5049798,-0.19117542,
setRecordId(),-0.34938172,0.42996615,0.16176014,0.18544067,0.19980696,0.11926532,-0.19399922,-0.5586375,0.26284868,0.3027851,-0.39007527,0.57415336,-0.6363617,0.5899465,-0.90659064,0.6179739,0.32311097,0.6298619,0.47246888,0.31006306,-0.07589206,-0.03953109,-0.4164244,1.0936564,-0.028600583,0.71911645,0.055798702,0.7382337,-1.0323112,0.4350496,
IntegerField,-0.25911024,0.28688425,0.86168534,-0.5571184,-0.28190023,-0.52402335,-0.6013986,-0.6566259,0.54678154,-0.95765543,0.30633482,0.3021769,-0.4760794,0.6672205,-0.40053177,-0.7028649,0.31773326,1.0508479,0.357518,0.3105277,-0.51140696,0.31153038,-0.32011712,0.43745276,0.010379858,-0.4052691,0.032369006,0.79044604,-0.81471324,0.5157888,
getInt(),-0.10771557,-0.59491503,0.66209805,-0.59618306,0.30578265,-0.8344859,-0.22642854,-0.21929361,0.28020784,-0.8675359,0.9381764,0.09271215,-0.81493264,0.66654164,-0.19863716,-0.41881433,0.83900595,0.6629904,0.55036515,0.11311434,-0.2901395,-0.001336191,-0.68717295,0.22092019,0.5807547,-0.14008182,0.17098479,0.31680438,-0.7699976,0.73373336,
size,-0.06288571,0.04192232,0.4902249,-0.3557568,-0.32734853,-0.25407898,0.40678,-0.30473,0.46120995,-0.1591199,0.27466464,-0.01195998,-0.49016213,0.5126143,0.05456073,-0.5464717,0.3665894,0.34625617,0.041360915,0.09625417,-0.077238716,0.05616483,-0.4550167,0.21170963,0.26352817,0.027739039,0.1931562,0.1165013,-0.5453077,-0.054266565,
RuntimeException,-0.21571326,-0.4802598,0.19278581,-0.21936041,-0.26209953,-0.55694,0.072621144,-0.0050974567,-0.20108335,-0.64439315,0.5914432,-0.027258016,-0.25016877,0.8673823,0.68421245,-0.23299831,-0.06598454,-0.07967312,-0.2067689,-0.13769668,0.14203629,-0.6069774,-0.19683804,0.20544638,0.7393868,-0.048951298,0.84230214,0.384696,-0.5584154,0.10239335,
indexOf(),-0.4390815,-0.1973962,0.9236691,0.39937496,0.91891736,-0.9596952,0.161677,-0.7522136,-0.25088778,-0.29695848,1.0623044,0.05917755,-1.3033975,0.5118661,-0.19083898,0.06705153,-0.37163118,-0.09757868,0.6349583,0.018414874,0.22752681,-0.7593616,-0.0556289,0.37225705,0.6928185,0.6307581,0.67467016,0.23266962,-0.7149089,1.2425711,
e,-0.41124794,-0.0027051978,0.36875573,-0.19740067,0.32833037,0.13783026,0.22684678,-0.28749898,-0.4147029,-0.6392705,0.17802227,0.293069,-0.31132066,0.81071955,0.45970145,0.0672156,0.42966038,-0.2332492,-0.2679899,-0.04974579,-0.17635253,-0.51372206,-1.127133,-0.27526522,-0.20788103,-0.025961736,0.47286886,-0.012262758,-1.3139552,0.06179637,
getValue(),-0.3859348,-0.00020146079,1.0072074,-0.77789277,0.08290154,-0.31727567,0.4183812,-0.64511317,-0.21101628,-0.3919121,0.2816278,0.1428463,-0.34436575,0.41735476,0.46569657,-0.39583942,-0.2728227,0.18989296,-0.105386235,-0.0032135379,0.49875146,-0.17938876,-0.01161902,-0.12524085,0.502455,-0.65458286,-0.004864294,0.27148536,-0.42276093,0.18031356,
set(),0.11242855,0.15965803,0.81930614,-0.3547288,-0.41121486,-0.5597309,0.31312478,-0.45986938,0.66390854,0.07637058,0.6292376,-0.15150648,-0.6937893,0.52004933,-0.1625969,-0.81371033,0.33520466,0.62213963,0.023187216,0.20889536,0.20092572,0.070430696,-0.37676504,0.31665796,0.03411606,-0.2642276,0.022594627,0.18263349,-0.6234469,0.06181094,
obj1,-0.4762055,0.91511214,0.54353136,0.2976306,0.4516101,0.34736225,0.15482353,-1.0695573,-0.97974455,-0.21036263,-0.9376334,0.1933841,-0.31657755,0.9772386,0.05409915,1.0656002,-0.5164358,0.051370375,-0.58610934,0.12062318,0.29092306,-0.7617016,-0.46649528,0.48120314,-0.25578374,0.52995133,0.27830982,0.32749805,-0.9824263,0.27317822,
SwitchStatement,-0.5275507,-0.34008867,0.15934367,0.13229986,0.38204652,-0.573598,0.41731626,-0.09543405,-0.20873737,-0.09023838,0.4414798,0.13972515,-0.90761703,0.6419324,0.069149435,0.1079471,-0.2645874,-0.11099041,0.45610103,-0.16796966,0.6003911,-0.34847078,0.10395914,0.34448016,1.0051453,0.5051895,0.23506728,0.08412022,-0.41925544,0.62295014,
getXFIndex(),-0.8824247,-0.081318,1.2614596,-0.6795282,0.8518958,-0.3015305,-0.002220173,-0.9629094,-0.39973482,-0.16729343,0.19904973,0.11183272,-0.4741999,0.10740006,0.48180106,0.3302816,-0.4213451,0.63083845,-0.104974754,-0.1336856,0.21952897,-0.44180334,-0.1354535,-0.015315512,0.46809912,-0.40360522,0.053699184,0.5061766,-0.063531525,0.3591081,
addChildRecord(),0.27092645,0.81377494,0.44214392,0.45928654,-0.008595458,0.079734206,-0.47095066,-0.2918995,0.17149238,-0.13389951,-0.0062408657,0.4462112,-0.54389524,0.7700518,-1.0872083,0.39413202,0.35757798,0.68160367,0.2432299,0.059148435,-0.3264338,-0.13854711,-0.44276527,1.0110239,-0.063962005,0.8042242,0.35289812,0.93210125,-1.2230741,0.5468516,
column,0.5552662,0.11532186,0.9575373,-0.074194,-0.14582749,-0.30430397,-0.027161378,-0.22087115,0.03877819,-0.07065039,0.5077115,-0.49057198,-0.3902948,0.33073556,0.030045168,-0.2137851,-0.4018088,0.4648665,-0.65244544,-0.29666325,0.67206776,-0.44297114,0.04820721,0.4134887,0.4946628,-0.18787794,0.13016808,0.60005724,-0.04810191,-0.12076806,
col,0.7860282,0.09199139,0.9910357,-0.08479176,-0.12779087,-0.3501079,0.12697117,-0.25355837,-0.042715073,-0.058596075,0.5953367,-0.58370245,-0.39423642,0.31536892,0.12117041,-0.2726206,-0.3363416,0.34917578,-0.39371166,-0.36578658,0.6773079,-0.5285906,-0.19339623,0.25707603,0.29468676,-0.039653055,0.311266,0.4770189,-0.3413175,0.032136958,
i,-0.1753639,0.17351021,1.2974638,-0.4645698,0.38349253,-0.030342435,-0.18831344,-1.0038487,-0.2979709,-0.27518666,0.044924513,-0.19338009,-0.07763887,0.17385201,0.69948894,0.10156358,-0.83009535,0.27808455,-0.44248444,-0.059222184,0.014067613,-0.865803,0.081372425,0.0934418,0.40413204,-0.28416654,0.607776,0.8981181,0.09164528,0.095566384,
height,0.16089112,0.15598835,0.52998513,0.17402029,0.14328511,-0.36735103,-0.04919329,-0.31781307,-0.12925757,-0.039436612,-0.10256293,-0.21435264,-0.40501454,0.27367973,-0.34324512,0.31952214,-0.2896395,0.91796756,-0.40919903,-0.08835301,0.6871207,-0.30902064,-0.09772713,0.7086031,0.39380056,0.17755467,-0.114261135,0.4904669,-0.066309065,0.21174118,
removeProperty(),-0.20406279,0.28488353,0.10426435,-0.48786005,-0.43964803,0.0075360625,0.48546526,-0.51787204,-0.3578981,-0.60928434,-0.2841007,0.62803614,-0.47589225,1.3432878,-0.13937853,-0.5899644,0.29770663,0.31054738,0.6598148,0.44250515,0.750829,0.02344158,-0.27990797,0.47134194,0.31340137,-0.41374096,-0.14771964,0.3331946,-1.7227662,0.5440684,
min(),-0.2518234,0.03467947,0.8852506,0.32830104,0.6534562,-0.4257389,0.061034456,-0.463759,0.13526723,-0.037115503,0.7841366,0.046042055,-1.0746846,0.3182408,-0.28886417,-0.025119575,-0.14755593,0.13194518,0.45471632,-0.011970856,-0.018419854,-0.2795728,-0.119470984,0.3043978,0.52128786,0.4732156,0.39255068,0.21014033,-0.40715393,0.6517437,
addEscherProperty(),-0.16482499,0.6236223,0.33683997,0.67505383,0.2977494,0.0301722,-0.6350896,-0.69015014,-0.28446132,-0.44457382,-0.2705172,0.32309255,-0.28047162,0.70912987,-0.86065155,0.7449072,0.082883164,0.7026676,0.10031876,0.1370413,-0.017355679,-0.30357313,-0.52007246,1.050781,-0.17142893,0.76834637,0.33678338,0.7994272,-1.0507331,0.4911892,
substring(),-0.36535385,-0.24086006,0.70958036,0.3831135,0.8486454,-0.78601706,0.04699397,-0.6261809,-0.10134212,-0.16568609,0.83910114,0.03310726,-1.2051908,0.48304668,-0.31126794,0.0780363,-0.28408092,0.016702421,0.6483646,0.0044430364,0.21781689,-0.68064934,-0.04425231,0.45152378,0.7026935,0.66262764,0.5064602,0.3563191,-0.5805417,1.1085553,
width,0.12966694,0.24958555,0.44621164,0.417581,0.18974695,-0.34477013,-0.11203187,-0.4940789,0.0031072,0.15755911,-0.1680749,-0.2383124,-0.40280682,0.26046866,-0.4468436,0.38188812,-0.39633882,0.95973206,-0.4087081,0.0055005015,0.43786174,-0.46091005,-0.09935552,0.85798615,0.39476356,0.2912047,0.041955158,0.5955588,-0.074276686,0.19048,
setColumn(),0.06203215,0.13569212,0.91230226,0.027763046,0.5964945,-0.1342754,-0.16123033,-0.68604267,-0.36907876,-0.15400054,0.13163161,-0.230795,-0.3547151,0.13374239,0.19662318,0.29306728,-0.6677199,0.18831417,-0.25557706,-0.16846849,0.2419428,-0.72587496,0.0058843074,0.29797363,0.35111254,0.23854926,0.2957457,0.55634844,0.0091758715,0.3189533,
getSize(),-0.21148987,-0.07076632,0.62913334,-0.3476279,0.039664965,0.00010162036,0.3735079,-0.28977552,0.11211428,-0.207549,0.48749352,0.17709494,-0.5588109,0.5876608,0.24456386,-0.2903102,0.26800853,-0.1339948,0.33514598,-0.03437906,0.007635537,0.05662886,-0.52892315,-0.02662435,0.24796027,-0.009958611,0.31148157,0.18575469,-0.7435498,0.07061911,
x,-0.006215981,0.2559621,0.4118637,0.49650332,0.36364678,-0.32158482,-0.10862538,-0.5910374,-0.027678836,0.21298814,-0.12841552,-0.17035367,-0.5022101,0.3119034,-0.46779993,0.501247,-0.36153397,0.90674347,-0.2407497,0.10293347,0.33113527,-0.4389702,-0.19386406,0.8507127,0.41451538,0.2957982,0.08775768,0.5138656,-0.19138557,0.35483792,
getFirstColumn(),-0.83554906,0.21202542,1.1033411,-0.22020726,0.7812134,-0.054345537,0.11861395,-0.892955,-0.5629631,-0.13512681,0.13637501,0.14407009,-0.42928255,0.36557734,0.36109018,0.5782312,-0.23947969,0.22786641,-0.13403918,-0.16164567,0.18870933,-0.3307929,-0.33345792,-0.12358884,0.021566862,-0.25007197,0.15448366,0.24110979,-0.43601453,0.31269166,
y,0.060207076,0.24328493,0.4265647,0.5221302,0.29742548,-0.44917515,-0.049776126,-0.6065797,0.011693855,0.20550722,-0.15700035,-0.2310376,-0.49642763,0.30821046,-0.5166867,0.42000583,-0.44794205,0.9198556,-0.25272557,0.16230886,0.39893034,-0.54294044,-0.084540345,0.9243861,0.455579,0.3163232,0.17606413,0.5673419,-0.20884079,0.41041946,
log,-0.5302592,0.6676752,0.5465938,0.2627684,0.56522614,0.2885471,0.20354553,-0.9202786,-1.0328543,-0.1877715,-0.71498746,0.20596081,-0.34892178,0.92695963,0.15830292,1.0290772,-0.38899627,0.08552727,-0.44350454,-0.039892692,0.42898875,-0.63557726,-0.4786458,0.3396476,-0.23675482,0.43880454,0.17009516,0.21792951,-0.82926416,0.3373001,
obj2,-0.44014332,0.9678155,0.5029919,0.34014338,0.33369017,0.24060483,0.07897684,-1.0652468,-0.7881053,-0.235267,-0.90844005,0.21669428,-0.33142936,0.9650049,0.02958146,0.93671566,-0.6135739,0.1468257,-0.5951752,0.17099012,0.21172401,-0.77317536,-0.38362312,0.61144775,-0.22508366,0.5816336,0.31335932,0.4222561,-0.96871185,0.27044055,
read(),-0.30957624,-0.054689214,0.5882797,-0.3208954,0.43488577,-0.05234325,0.35353634,-0.2784109,-0.16066122,-0.42080748,0.26561058,0.26093626,-0.79000384,0.49689183,0.087818466,-0.12463239,0.3021591,-0.17345037,0.24443911,0.014849732,0.021796124,-0.09724678,-0.5719803,-0.10765083,0.3386572,0.30541146,-0.040258136,-0.1356464,-0.64652187,0.29767367,
serialize(),-0.29772958,-0.45340997,0.9540995,-0.68239856,-0.05659084,-0.32526413,0.26137298,-0.24668401,0.2880573,-0.28700525,0.9978617,-0.023350058,-0.7164516,0.6784815,0.43640655,-0.6167992,0.36183804,0.06334614,0.28584754,-0.12364902,-0.1238657,0.029853528,-0.34212196,-0.17867075,0.7881094,-0.38650355,0.63395643,0.4564453,-0.76820743,0.22854048,
getLastColumn(),-0.9742277,0.15609504,1.0765133,-0.19582891,0.74117106,-0.06970687,0.14100377,-0.9793005,-0.4288729,-0.023400428,0.15025532,0.19015205,-0.47049397,0.35585764,0.29934797,0.62080204,-0.14368896,0.2545525,-0.07841643,-0.113806896,0.07073961,-0.2633453,-0.3906116,-0.10750606,-0.0903504,-0.1872767,0.23626797,0.32063568,-0.43767926,0.30070773,
org.apache.poi.ddf,0.41005778,-0.045171,0.16307186,-0.4937825,-0.2894298,0.17308982,0.17832687,0.10323703,-0.036129348,-0.4373159,-0.060245972,-0.010264313,-0.40120453,0.60630906,0.07494813,-0.3160113,0.39401007,0.037503175,-0.22759256,-0.009078091,0.0066345604,-0.027976166,-0.5932972,0.19934371,0.7936444,0.18118672,0.02584366,0.24794555,-0.63607407,-0.113120496,
dump(),-0.4628319,-0.026653333,0.7365478,-0.4238215,0.4956795,0.048049707,0.24902984,-0.43874705,-0.47687313,-0.48167682,0.3503448,0.31780815,-0.605407,0.68986315,0.26638496,-0.04210694,0.44203275,-0.15468103,0.14129336,-0.008891728,0.052054256,-0.18645191,-0.8149469,-0.29161686,0.12650415,-0.15266804,0.114496,-0.07055154,-1.1342124,0.33548242,
org.apache.poi.hpsf,0.19167562,0.22885086,0.2248448,-0.14313394,-0.18506579,0.034257203,0.121138655,-0.2227686,0.12456057,-0.100256555,-0.1988095,0.015476798,-0.2701307,0.35601676,-0.020567806,-0.121655576,-0.090009265,0.32783434,-0.29086867,0.084093615,0.1235779,-0.1924797,-0.242282,0.41172814,0.37676376,0.17451751,0.031204281,0.3653214,-0.3710083,-0.12594096,
setClass(),-0.38049474,0.043647647,1.1342597,-0.32214913,0.33851972,-0.123606265,-0.06329232,-0.52447814,-0.3885709,-0.56932074,0.39794576,0.20729378,-0.3613289,0.33799398,0.26624197,-0.1515507,-0.040927988,0.22832826,0.09534579,-0.10858918,0.24474595,-0.26970175,0.010713465,-0.06941021,0.3266027,-0.22321717,0.299845,0.40166897,-0.48120803,0.4499312,
findFirstRecordBySid(),0.3020392,0.4035965,0.56695664,-0.11411482,-0.5196413,-0.21330969,0.48105827,-0.16042608,0.41324523,0.254686,0.20408137,-0.06149709,-0.6187519,0.75031525,-0.15027802,-0.54139924,-0.15176742,0.32682204,-0.15614569,0.1761543,0.65504706,-0.050368343,0.30550176,0.5063336,0.49185732,-0.050670687,0.030583506,0.24514925,-0.6338672,0.0116029475,
setValue(),0.21509236,0.33988193,0.751112,-0.06133952,0.13040748,-0.19781834,-0.24202725,-0.36243606,-0.34449556,-0.42578188,0.03568524,-0.08123045,-0.22175644,0.2090966,-0.04791904,0.025287766,-0.32055372,0.59149534,-0.3958905,-0.10878043,0.5073821,-0.47599187,-0.04398861,0.44074214,0.24559115,-0.033786654,-0.055042554,0.44773927,-0.2852941,0.2121706,
org.apache.poi.hssf.usermodel,0.20975406,0.37951452,0.15340495,-0.3068564,-0.25876054,0.29136407,0.31220928,-0.21850683,0.22225578,-0.090622164,-0.47894177,0.1358262,-0.4093862,0.46373865,-0.0408566,-0.20214981,-0.027424958,0.059736628,-0.14591633,0.20923142,-0.07327048,0.04002158,-0.29080814,0.44117853,0.6006006,0.3745339,0.0019586424,0.2359416,-0.55688554,-0.14349738,
charAt(),-0.18118511,-0.13484041,0.86184055,0.060732808,0.64172614,-0.19598074,0.42452914,-0.47309554,-0.023374297,-0.1256347,0.7555276,0.14434253,-0.8703051,0.378853,0.1265518,-0.108737715,0.073096745,-0.15276967,0.3524878,-0.012161513,0.040831525,-0.24887694,-0.3626496,0.02047038,0.60719246,0.27385786,0.3210336,-0.01006105,-0.40717176,0.47844577,
setRow(),-0.062378332,0.13797414,0.91729826,-0.0337533,0.6099114,-0.07466796,-0.2524581,-0.72273374,-0.51064205,-0.24025625,0.017903104,-0.116913475,-0.26372072,0.1522603,0.29642674,0.270916,-0.76770544,0.26618984,-0.26699105,-0.21377622,0.33661214,-0.7900866,0.074881725,0.31372118,0.3712478,0.16800286,0.27381283,0.66916776,0.008585813,0.2702727,
equals,0.13139802,0.1887194,1.0172945,-0.29380476,0.1928986,-0.22444145,0.29625505,-0.78230256,-0.1586035,-0.45419687,0.51472056,-0.111538135,-0.44607216,0.4298373,0.47941124,-0.55959725,-0.5408607,-0.103412524,-0.0050466503,0.13405824,0.12907226,-0.6138176,0.29051262,-0.10662838,0.57541364,-0.2726488,0.52868366,0.37892538,-0.34631005,0.44105124,
getShortValue(),0.33413896,-0.14662115,0.99331915,-0.62593764,-0.35760206,-0.55245054,0.36624324,-0.23341145,-0.016243855,-0.10022775,0.48625302,-0.31636095,-0.3845854,0.6335282,0.046411276,-0.53271806,-0.2790482,0.84445834,-0.44815457,-0.2971434,1.3294568,-0.27755833,0.19754557,0.42646715,1.1048874,-0.6999655,-0.12148647,0.7597992,-0.38513732,0.04579077,
getDefaultOperandClass,-0.6686071,-0.09670307,0.5345392,-1.0035491,-0.30701378,-0.131634,0.12839356,-0.29538566,-0.47961673,-0.6492175,-0.24135338,0.34606287,-0.14830704,0.91412354,0.6887952,-0.24924788,-0.24053736,0.25444692,0.06312533,-0.029179435,0.50893146,-0.18020214,0.13511273,0.017327072,0.5443664,-0.52037287,0.201412,0.72749984,-0.77074254,0.12548062,
length,0.088396624,-0.1594635,0.5353693,-0.40954536,-0.15768133,-0.33122858,0.26386356,-0.2528302,0.25755444,-0.21097034,0.373295,-0.038982965,-0.3945457,0.43901366,0.038520798,-0.4260644,0.26213682,0.50539184,-0.061873972,0.063904084,0.13113183,-0.096013285,-0.5102271,0.2629928,0.53314203,-0.19381112,0.02467148,0.2648621,-0.3556275,0.014049014,
setFontIndex(),-0.5506876,-0.40340665,0.096554354,-0.052959666,0.32226565,-0.6028931,0.27754182,-0.612819,0.38686618,0.5344157,-0.31501117,0.22121769,-0.71601415,0.47172213,-0.4376796,0.4016252,-0.34019136,1.073538,0.3049761,0.220348,0.58996695,-0.50716865,-0.31389368,1.2711462,1.4403697,0.59410447,0.018873177,0.9863953,-0.40535796,0.42643398,
setFormatIndex(),-0.4771854,-0.365814,0.13354318,-0.16611996,0.24141392,-0.4819255,0.29702452,-0.6511189,0.44448036,0.5664217,-0.42922756,0.23137471,-0.68804395,0.5132542,-0.47605997,0.3854585,-0.266132,1.1456693,0.265452,0.26824865,0.52186966,-0.4447115,-0.32022196,1.2687941,1.4051682,0.52241606,-0.00570443,1.0028025,-0.44601035,0.3272099,
obj3,-0.39392504,0.8572723,0.45234948,0.3186721,0.26041895,0.2228738,0.048609428,-0.9371965,-0.74759454,-0.23504084,-0.8671051,0.16989803,-0.31116328,0.89929426,0.021707242,0.9097619,-0.5793746,0.16541736,-0.63008696,0.11718439,0.21515475,-0.76051295,-0.3655931,0.6032658,-0.16450495,0.6134466,0.33687153,0.41958952,-0.9055039,0.22387835,
listener,-0.5191188,-0.4033923,0.6021777,-0.870436,-0.07314468,-0.35681048,0.26299733,-0.33519906,0.17504811,-0.28204948,0.40759504,0.14827563,-0.49776953,0.54957384,0.38052592,-0.28136027,0.44651905,0.44239447,0.013059746,0.16670306,-0.20842026,0.0088916095,-0.6106092,0.01889598,0.5421405,-0.3150763,0.17210594,0.18385279,-0.6038891,0.09117947,
getType,-0.32970157,-0.28943083,0.53320616,-1.0624548,-0.4744863,-0.034913193,0.2228639,-0.13334745,-0.3735908,-0.51705134,-0.1414113,0.20867915,-0.0053106197,0.9581212,0.60501546,-0.2575314,0.15627363,0.6292017,-0.27974078,-0.26135394,0.71577567,-0.07758368,-0.26067784,0.1656809,0.93312675,-0.7645078,0.039058156,0.8114533,-0.78370285,-0.13454413,
setXFIndex(),-0.2016221,0.1426637,0.96938986,0.047979597,0.64153975,-0.20708796,-0.1355274,-0.74926394,-0.37155554,-0.006695791,0.07073033,-0.08402628,-0.38781625,0.08160359,0.14159584,0.41487062,-0.63099027,0.44240016,-0.18789755,-0.152475,0.34836063,-0.6968843,0.101910666,0.33780897,0.4092815,0.12423406,0.16169976,0.5529437,0.021804566,0.32610998,
Match(),0.21541186,0.27606854,0.5250718,0.17810006,0.24637157,-0.04656209,0.19321711,-0.30998915,-0.19340684,-0.00828932,0.31414,0.017117051,-0.6702139,0.5973417,-0.26552323,0.14263113,0.20899384,-0.11985409,0.2014297,0.35458633,0.13034518,-0.36750183,-0.30343604,0.28167984,0.069539316,0.55130726,0.38843527,-0.03953412,-1.1364894,0.5390633,
setCellOptions(),-0.47163045,-0.36194506,0.16236645,-0.2748647,0.2514107,-0.44003955,0.30716783,-0.7105229,0.4310693,0.58349276,-0.49433577,0.25115973,-0.58221954,0.45378265,-0.47653186,0.39030677,-0.18277207,1.2976098,0.22581291,0.28955886,0.5355867,-0.42984477,-0.48051453,1.3164904,1.4555222,0.46227056,-0.080123425,1.0880585,-0.50657177,0.28197634,
setAlignmentOptions(),-0.45402747,-0.31392244,0.16655436,-0.3238546,0.22736934,-0.38505718,0.25936463,-0.7464708,0.49866298,0.57097745,-0.56551176,0.2683588,-0.5687887,0.4341747,-0.51874447,0.4175949,-0.16209577,1.4054551,0.17363144,0.30770242,0.43150917,-0.39990819,-0.51562464,1.3468313,1.3952167,0.4526127,-0.096089415,1.1194541,-0.44703332,0.22633265,
setIndentionOptions(),-0.42736942,-0.3973675,0.23361808,-0.41742942,0.17661932,-0.33930773,0.26254115,-0.7501873,0.47446296,0.6131561,-0.5631439,0.20415464,-0.54751265,0.47626898,-0.48375675,0.4435033,-0.086047776,1.3933685,0.10848097,0.28581235,0.4353526,-0.35714573,-0.57448334,1.2988397,1.3963588,0.3783683,-0.098975606,1.1777788,-0.47594666,0.1451188,
setBorderOptions(),-0.48594555,-0.35494974,0.22765379,-0.34960672,0.21335165,-0.37790465,0.2643,-0.7466722,0.49466205,0.5798884,-0.5484238,0.24914648,-0.6049631,0.48634356,-0.48057273,0.4358248,-0.17333782,1.3835299,0.17827648,0.3061419,0.4213737,-0.39981046,-0.49410263,1.3451344,1.4358678,0.40281025,-0.14457516,1.1545138,-0.44188228,0.19362731,
setPaletteOptions(),-0.43226036,-0.3356252,0.22304052,-0.2241916,0.2970419,-0.42311797,0.29890707,-0.7600681,0.4440841,0.56095546,-0.48437852,0.23400761,-0.68793887,0.4730859,-0.5191099,0.4148603,-0.20418839,1.2992513,0.19342205,0.2819283,0.48753306,-0.4622991,-0.45392546,1.3628374,1.4536643,0.5726902,-0.088101104,1.0818367,-0.45505136,0.27643698,
setAdtlPaletteOptions(),-0.46847725,-0.37059805,0.16198586,-0.18682402,0.3019909,-0.5154791,0.3243839,-0.6719568,0.40406,0.5635517,-0.43678632,0.20533848,-0.67854726,0.44687837,-0.4927116,0.37842473,-0.25727296,1.2287639,0.32019055,0.27216464,0.55672204,-0.433148,-0.36306456,1.3078057,1.4907702,0.51215124,-0.06833616,1.0560029,-0.4340715,0.33827606,
setFillPaletteOptions(),-0.4740402,-0.37867337,0.17422105,-0.112279125,0.34565786,-0.5754393,0.33717984,-0.69520485,0.41744694,0.54924005,-0.28172693,0.20800081,-0.7711966,0.48952428,-0.53245777,0.37206304,-0.2846316,1.0855811,0.37686628,0.3084805,0.56594735,-0.51296246,-0.3188912,1.315869,1.4987535,0.5827087,-0.013416751,1.0243247,-0.46989238,0.45670173,
setShortValue(),0.42909655,-0.073698916,0.9737934,-0.38159555,-0.2720875,-0.5631983,-0.035903107,-0.18116288,0.20104942,-0.023483455,0.45626602,-0.33482543,-0.3868293,0.42448694,-0.25029472,-0.36272308,-0.20480314,1.2036862,-0.5410951,-0.23806033,1.0894293,-0.2181868,-0.03881155,0.6689939,0.85989285,-0.48600754,-0.21925102,0.77033025,-0.29734078,-0.01035678,
getLeft(),0.20685509,0.62969387,1.0559651,0.5867738,0.18837832,-0.32246888,-0.04004552,-0.8594664,0.37457925,-0.3154095,0.6876072,0.079345,-0.57843035,0.23845246,-0.18692929,-0.5132392,-0.3985526,0.5577309,-0.057601307,0.2758763,-0.24324432,-0.556883,0.0666481,0.4654316,0.06657141,0.19036436,0.49294993,0.38959178,-0.40946802,0.37977114,
getShort(),-0.27386302,-0.32110366,0.5939083,-0.5469585,0.24425688,-0.462832,-0.048130922,-0.23938285,0.18720128,-0.5963081,0.48676854,0.24646808,-0.6282628,0.4618622,-0.041516557,-0.3297819,0.54730195,0.6239325,0.2749747,0.12013457,-0.2565902,0.0373259,-0.59728205,0.2316375,0.6194016,-0.06549401,0.015898848,0.20488235,-0.53334236,0.37012216,
findFirstRecordLocBySid(),0.57275283,0.319879,0.6203643,0.18692473,-0.124065764,-0.25650164,0.4967055,-0.31911805,0.38936636,0.18693577,0.77626866,-0.110067524,-0.85019547,0.5458844,-0.32613826,-0.46158302,0.21967484,0.15796772,0.17438546,0.34244353,0.17603101,-0.17955741,-0.3021495,0.32328585,0.26033202,0.2665241,0.3412802,0.08274824,-0.9068372,0.24620652,
getOutlineLevel(),-0.21601714,0.20721409,1.243767,-0.13415615,0.622048,-0.124523826,0.24312627,-0.8498494,-0.22892079,-0.13929611,0.5362618,-0.046291683,-0.60882044,0.27452317,0.27444318,0.022313429,-0.22953555,-0.039499275,0.14553711,-0.1769503,0.119455755,-0.36633155,-0.14650321,-0.12490208,0.18410702,-0.03283838,0.32929692,0.28407094,-0.39492,0.41012025,
getData(),0.12396685,0.22272699,0.68700063,0.050784428,-0.087445766,-0.21194008,0.3379371,-0.4804294,0.41793808,-0.052527785,0.48231557,-0.09410728,-0.62528014,0.46200237,0.0015975871,-0.417558,-0.06223177,-0.01325324,0.06251568,0.13921629,-0.08633669,-0.22013123,-0.09946395,0.18465303,0.32698208,0.228033,0.46837407,0.21347986,-0.48722094,0.18048747,
getNumberOfOperands,-0.55606025,-0.30164203,0.6027262,-1.1839757,-0.41168705,-0.059619963,0.22567719,-0.22902238,-0.38635024,-0.60099244,-0.15756999,0.27823615,-0.03950035,0.9671979,0.71928203,-0.21924531,0.09655551,0.55880886,-0.19858058,-0.22994812,0.587442,-0.08610543,-0.2687517,0.0972275,0.8337501,-0.7282034,0.107064836,0.7979929,-0.7891013,-0.11992721,
org.apache.poi.util,-0.043952424,0.14465533,0.21220066,-0.36258954,-0.1386727,0.1599403,0.19127212,-0.16801094,0.14597906,-0.13154392,-0.20734532,0.12492072,-0.35406187,0.4315165,0.14621615,-0.105155356,0.11901164,0.16934457,-0.27559066,0.059628494,-0.16886267,0.0048484183,-0.4482594,0.23159696,0.40673056,0.19328362,0.025785571,0.1269718,-0.3596161,-0.23137139,
record,-0.17844489,-0.08923559,0.537261,-0.47808966,0.049998675,-0.0858887,0.34448054,-0.2409528,-0.018168993,-0.23025838,0.28502452,0.03909996,-0.45470712,0.545134,0.2235418,-0.19209544,0.278917,-0.033706706,0.012844296,0.055948775,0.016124628,-0.13550898,-0.41179067,-0.013728635,0.43866166,0.0044361847,0.24354543,0.060684714,-0.7643609,0.15322052,
getType(),-0.73205066,-0.13071145,0.7815488,-0.45488235,0.3718072,-0.2750005,0.16626377,-0.35743594,-0.47267064,-0.5781314,0.38692877,0.34966505,-0.55876976,0.5140547,0.38936144,0.07056298,0.059464738,0.20741904,0.12211464,-0.12090704,0.2644169,-0.09169866,-0.34248665,-0.12183574,0.31264177,-0.20943701,0.04399555,0.11105105,-0.58053136,0.3524368,
EscherSimpleProperty,0.04092275,0.46864703,0.21114989,0.5513412,0.22820358,-0.03272624,-0.4868127,-0.5031996,-0.31564668,-0.45268428,-0.16434501,0.23263498,-0.3210358,0.6582458,-0.6295634,0.53917104,0.092366666,0.49155602,-0.015333268,0.14766322,0.075513855,-0.40412867,-0.54895943,0.84656966,-0.15768845,0.7788898,0.19318652,0.5240222,-0.84025013,0.4282054,
getID(),-0.16900502,0.35333145,0.786885,-0.17297618,0.042559046,-0.038900305,0.45603055,-0.5847711,0.020764545,-0.22187923,0.41425842,0.23297693,-0.6982368,0.5650378,0.028490862,-0.46018693,0.08285275,-0.18832079,0.47170678,0.16504142,0.16527733,0.032203607,-0.0802373,-0.040582385,0.2596804,-0.1251717,0.17427753,0.11274129,-0.874351,0.33569837,
msg,-0.045616843,0.30435422,0.13102706,0.1109796,-0.13836312,0.07501446,-0.2020076,-0.3932072,0.037924044,-0.3099964,-0.3983932,0.12974188,-0.058552064,0.45053974,0.0772275,0.17506322,-0.29508156,0.45539168,-0.46488562,0.12091316,-0.015046878,-0.36498165,-0.23754606,0.5471447,-0.017774077,0.28438517,0.25919014,0.52997816,-0.39018175,-0.16903561,
c,0.12884489,0.18724594,0.8670217,-0.113549426,-0.035767116,-0.26553112,0.30153775,-0.4575195,0.36637,-0.15483767,0.47672507,-0.06113762,-0.63270843,0.33371082,-0.16170838,-0.4871172,0.048317485,0.27617183,0.15761821,0.07732448,0.104926825,-0.027151154,-0.10636619,0.2577401,0.3786155,0.07848821,0.15586808,0.34689814,-0.32684177,0.2220984,
getRowNumber(),-0.2873131,0.065993644,1.1713239,-0.21744978,0.2629308,-0.046380166,0.027062345,-0.6576682,-0.09813089,-0.21386884,0.4586999,-0.0005823284,-0.2800975,0.2755662,0.5682383,-0.106642,-0.3768852,0.11502341,-0.18233198,-0.10418028,-0.0065540657,-0.42425683,0.05990601,-0.11834178,0.3946596,-0.25747716,0.58808523,0.49448717,-0.20302673,0.14183432,
operands,-0.59040356,0.023697339,0.7059632,-1.0119892,-0.24297005,0.066827774,0.33194572,-0.28732178,-0.86115026,-0.6660859,-0.23854452,0.30751708,-0.192997,1.2024122,0.72692287,-0.007633255,-0.115822874,-0.019251633,-0.12431246,-0.21837614,0.8270662,-0.15845296,-0.07967451,-0.028745594,0.5429041,-0.57246214,0.10305212,0.49834007,-1.1222457,0.123291776,
getRight(),0.06727279,0.57984436,0.93979496,0.5720922,0.19387625,-0.30711687,-0.022074291,-0.82382506,0.4319286,-0.16258463,0.51951975,0.118417464,-0.5713675,0.186038,-0.29280308,-0.3209951,-0.33444858,0.5644111,0.012000664,0.25736064,-0.2080722,-0.49138635,0.030616753,0.51558644,0.07873531,0.29421234,0.43198803,0.40020576,-0.44045916,0.38719752,
HashMap,0.15134409,0.5788499,0.4319175,-0.044894632,-0.17854808,0.16146663,0.1916804,-0.35926262,0.08310053,-0.21309265,-0.046778876,0.17383337,-0.49252453,0.5747671,-0.17528167,-0.31940216,0.05043194,-0.06329974,0.18831973,0.21808101,-0.038907506,0.052691624,-0.12227454,0.27149948,0.15171067,0.16500035,0.18790387,0.16039829,-0.91202015,0.2073963,
remaining(),0.28445166,-0.1990555,0.8167048,-0.16588941,0.20484392,-0.051121682,0.05496848,0.16524172,-0.43898022,-0.7121824,0.7042563,-0.1693513,-0.762686,0.6806261,0.21094944,0.009207269,0.3060471,-0.35167196,-0.14266887,-0.4403546,0.20456171,-0.24834423,-0.6319452,-0.16477908,0.3688051,0.49768454,0.36690944,0.12367246,-0.7829269,0.26033968,
obj4,-0.28044966,0.7514658,0.43584147,0.33880663,0.26645565,0.19667962,0.00062272605,-0.82958215,-0.5986744,-0.15863621,-0.7831929,0.101060726,-0.3074207,0.78581625,-0.00770006,0.8297749,-0.554794,0.1380121,-0.57020354,0.105852306,0.21077757,-0.7035431,-0.30730727,0.6152027,-0.12949514,0.603743,0.32810205,0.42081583,-0.7625348,0.19894238,
getRecordName,-0.7088884,-0.30018878,0.5167873,-0.7374332,-0.20404711,-0.1587586,0.34181917,-0.14997877,-0.111981384,-0.42169064,0.21054691,0.3739193,-0.43010873,0.81177217,0.61032516,-0.24804835,-0.037405815,0.12421536,0.24413277,-0.14700714,0.3485643,0.046689034,-0.0771543,-0.117408484,0.4112622,-0.27807677,0.3053185,0.5525035,-0.7100449,0.022672357,
b,-0.03615068,0.038465817,0.3462555,-0.2475269,-0.2818529,-0.16605316,0.29361233,-0.049056966,0.33908483,-0.118912525,0.09784805,0.15986565,-0.55615455,0.52732253,-0.048050992,-0.42387396,0.028112145,0.4120134,0.039928827,-0.016169816,0.35871977,0.07777916,-0.0982934,0.41030276,0.5575474,0.120459385,-0.16348518,0.30307037,-0.32780406,-0.05697147,
getChildRecords(),-0.65760696,0.10212812,0.9798734,-0.48508912,0.10317626,-0.19496596,0.6567415,-0.4879918,0.1141715,-0.05230192,0.65362704,0.27640516,-0.872661,0.66810024,0.24910817,-0.29666662,0.24215229,-0.19405547,0.46169674,0.01938694,0.16918235,0.16997497,-0.27998012,-0.14873797,0.14072363,-0.09535942,0.34546176,0.045877486,-1.0466034,0.2924177,
toFormulaString(),-0.50785166,0.0532783,0.71079236,-0.5013459,0.08707939,-0.15337084,0.38935834,-0.4049215,-0.654032,-0.39184535,0.180901,0.24150406,-0.3769234,0.81905174,0.52792156,-0.01716127,-0.10231261,-0.19482908,0.027201574,-0.03511697,0.57913107,-0.25891793,-0.0434631,-0.13812606,0.3868098,-0.3925911,0.13493618,0.09897202,-0.77607745,0.2966917,
getHeight(),-1.1343433,-0.047371816,0.63003,-0.63261485,0.43850115,-0.16640267,0.07061749,-0.7144468,-0.39161626,-0.22196044,-0.34864074,0.44634217,-0.24809529,0.4012531,0.32508397,0.56432915,-0.07028191,0.73487973,0.0048215277,-0.02490512,0.110412806,-0.07891686,-0.44965893,0.15864143,0.17096604,-0.29377365,-0.07403688,0.4672046,-0.45758623,0.2101007,
setParent(),0.0034728053,0.54645896,0.9813343,0.529036,0.30205387,-0.323133,-0.123435445,-0.8798198,0.38375255,-0.23509085,0.5255267,0.12056917,-0.53138125,0.1551218,-0.25728586,-0.27140018,-0.33367494,0.6788348,-0.0085287355,0.23224239,-0.24519722,-0.55156463,-0.09554053,0.4997717,-0.09075863,0.2875615,0.3831832,0.47896257,-0.3512947,0.3469263,
ByteArrayOutputStream,-0.26882502,0.15010495,0.46494958,-0.3460365,0.041984778,0.067153946,0.25482458,-0.26834443,-0.26531035,-0.4897252,0.060682524,0.26638654,-0.4448907,0.6787593,0.22346671,-0.1262742,0.20718387,-0.23129049,0.12932874,0.09621577,-0.00023461861,-0.09097917,-0.4680761,-0.06690081,0.14989854,-0.06258246,0.17374264,0.029006876,-1.042143,0.23403123,
String,-0.07496125,-0.039227575,0.3593322,-0.06933646,0.13779393,-0.20275764,0.19304135,-0.10245553,-0.13605161,-0.38154328,0.30523542,0.14992693,-0.5634702,0.5913699,0.08711252,-0.10434654,0.121700995,-0.11459988,0.2082691,-0.020052863,0.20549154,-0.14527403,-0.31983328,0.13925202,0.38456684,0.27881172,0.21856786,0.10248363,-0.7056746,0.3890468,
reason,-0.095577426,0.3249893,0.1509999,0.08277291,-0.15124962,0.039786853,-0.21244203,-0.36661166,-0.0062879687,-0.35705256,-0.41727784,0.15336074,-0.05233185,0.5120587,0.10582706,0.20405282,-0.34226844,0.4132251,-0.39627874,0.108389236,-0.023758518,-0.3543819,-0.23045073,0.55266887,0.0076141297,0.33064878,0.250396,0.55948085,-0.43593678,-0.12463289,
getUInt(),-0.19104733,-0.22909628,0.41065347,-0.10466476,0.20970371,-0.38619125,0.27639174,-0.20446226,0.11090127,-0.14112069,0.51122814,0.11612374,-0.73054725,0.48627245,-0.08856033,-0.27907947,0.15165566,0.10519192,0.49663222,0.04766694,0.25159127,-0.09432903,-0.21218774,0.28438705,0.7371095,0.24842678,0.115097165,0.13578448,-0.46532738,0.45850974,
getRow,0.21119733,-0.08203158,0.64795464,-0.3250643,-0.13150774,-0.20083177,0.07769655,-0.14388917,-0.24051633,-0.3937797,0.27774408,-0.15346774,-0.2001872,0.41049352,0.3207564,-0.13615595,-0.16441277,0.38117892,-0.3495928,-0.31822926,0.5365437,-0.32996255,-0.14856549,0.08571961,0.4910328,-0.15337758,0.16178489,0.49482277,-0.27941406,0.036004175,
checkRange(),-0.23774868,0.273007,0.3712397,-0.20044309,0.1515766,-0.021286244,-0.51136684,-0.5130977,0.035557736,-0.24325363,-0.43601668,0.12252838,-0.22763558,0.30542946,-0.34426484,0.2775246,-0.12254143,1.0673074,-0.1955935,0.065397166,-0.13375218,-0.26528084,-0.35100907,0.7036328,0.08423634,0.27081454,-0.08075313,0.8963188,-0.17997438,0.06626374,
getRowNum(),0.17727812,0.50071144,0.9872574,0.15791944,0.12668727,0.041741133,0.10125839,-0.7758718,0.09039728,-0.14743075,0.28023294,-0.07001757,-0.38937142,0.25097132,0.14111215,-0.2488618,-0.43953484,0.14663428,-0.21632594,0.15486704,-0.059509244,-0.50648826,0.19443944,0.20298961,0.28332138,0.08372323,0.5020373,0.32351995,-0.19817382,0.19917437,
Short,0.078315355,0.39885262,0.53908813,0.06103003,-0.092370406,-0.16218072,0.1269875,-0.38214764,-0.07545382,-0.4610562,0.34789425,0.058419902,-0.47799128,0.57459885,-0.038202327,-0.25187317,0.08711294,-0.06587239,0.04211591,0.10477219,0.014169512,-0.20043579,-0.2643979,0.120165914,-0.0029960494,0.11106144,0.34403628,0.115527205,-0.8881007,0.36022905,
toArray(),-0.030050343,0.11294033,0.4838785,-0.02056096,-0.020731695,-0.28720093,0.3563781,-0.32612205,0.1111615,-0.17974256,0.45803148,0.046238936,-0.5730307,0.5453558,-0.015011563,-0.33066395,0.036378004,0.05210106,0.23721682,0.059397683,0.16429625,-0.11976582,-0.07049288,0.1631894,0.42188752,0.073841035,0.332714,0.167846,-0.68823445,0.35703155,
out,-0.037582606,-0.017125398,0.4731231,-0.3111862,-0.05674447,-0.24128173,0.24690834,-0.1817929,0.055079993,-0.4092014,0.27793804,0.08750745,-0.50771326,0.45940682,-0.027152495,-0.361012,0.09358933,0.17519267,0.14017387,0.01856584,0.22935343,-0.047998697,-0.24790092,0.17309222,0.57162535,0.01227162,0.111833066,0.2238283,-0.7000959,0.26074654,
IOException,0.12717307,-0.025273545,0.44388795,0.13790809,-0.0067093037,-0.2907153,-0.009180232,-0.22979546,-0.034010097,-0.4652309,0.6419955,-0.10809458,-0.54585356,0.6727225,0.06919764,-0.15513507,0.04942327,-0.049326822,-0.051304206,-0.02774745,-0.047554534,-0.4533327,-0.22204694,0.16488786,0.28255877,0.1735275,0.59434795,0.274986,-0.53544056,0.33383352,
getOptions,0.05620192,-0.26614538,0.8048339,-0.5814032,-0.18489203,-0.49578875,0.12253492,-0.08958951,-0.053435106,-0.2003795,0.42691758,-0.14871013,-0.36366653,0.5409807,0.019516103,-0.28713253,0.014394581,0.81431365,-0.19239688,-0.28296798,0.9747704,-0.10071098,-0.007965254,0.27265647,0.7425251,-0.55774957,-0.12626489,0.63378465,-0.4758853,0.13639908,
shapeId,0.3332251,0.5609718,0.13344972,0.13284338,-0.2727922,0.43747726,0.06399196,-0.1995198,0.06429795,-0.11997569,-0.39866418,0.19869399,-0.25960854,0.6693122,-0.21774943,0.042817943,-0.061691433,-0.024691934,-0.12952876,0.15239832,-0.07749846,-0.095686,-0.25761986,0.5786713,0.36700684,0.6022271,0.3197863,0.4338022,-0.8427299,-0.038173564,
getFirstRow(),-0.9320589,-0.13214403,0.8350587,-0.6657256,0.461737,-0.007282287,-0.095209934,-0.5528764,-0.5017164,-0.33688498,-0.121121705,0.31226414,-0.21146964,0.442343,0.5293181,0.52725273,-0.09892327,0.44352806,-0.22802763,-0.18652269,0.14570428,-0.1656619,-0.43990374,-0.018330954,0.0325596,-0.19483186,-0.0005389864,0.46081078,-0.33306113,0.06149389,
UnicodeString,-0.110622406,-0.09382043,0.5847374,-0.42096958,-0.07368441,-0.052354984,0.21127056,-0.14495638,0.0247327,-0.18297523,0.33655527,0.10864272,-0.50253254,0.61961,0.25787583,-0.23969358,0.14796889,-0.012105995,0.14093886,0.036984734,0.053127225,0.00043010802,-0.23599593,0.046544112,0.4513042,-0.022448106,0.2603612,0.2900163,-0.59132826,0.11183029,
anchor,0.31474885,0.42139456,0.15816349,0.07685115,-0.13824512,0.05709061,0.2391507,-0.2618415,-0.017803427,0.069138914,-0.008902485,-0.06883943,-0.5960486,0.7451071,-0.33334443,-0.057368148,0.120520055,0.092515506,0.15553403,0.30928013,0.20208935,-0.19219066,-0.13465302,0.4569233,-0.002830729,0.4750673,0.26445943,0.17919254,-1.1008688,0.300143,
getSheet(),0.07331448,0.1246184,0.31874716,0.008450827,-0.16494505,-0.10791877,0.19421026,-0.23495887,0.1805914,0.0023003165,0.1572903,-0.022932041,-0.384034,0.5310434,0.11089472,-0.10306646,-0.11997951,0.23658772,-0.30858237,0.04437139,0.14535372,-0.28287977,-0.17732835,0.32925704,0.25201172,0.18704121,0.24464706,0.27443802,-0.31090856,-0.06550255,
org.apache.poi.poifs.storage,0.09280658,0.2517842,0.2788058,-0.13662952,-0.16277437,0.15322323,0.19842674,-0.19390026,0.18836012,-0.0740678,-0.13532992,0.06402494,-0.3904029,0.44436055,0.07729472,-0.13153881,-0.05849182,0.11446894,-0.227104,0.08507641,-0.08625862,-0.081412196,-0.28670603,0.2921271,0.29796934,0.3017455,0.1500734,0.21768452,-0.38810486,-0.16876188,
node,0.11443281,0.48898193,0.77365047,0.19055222,-0.27139336,-0.33582914,0.17647415,-0.65864104,0.5006598,-0.20213519,0.46589372,0.047620054,-0.41909945,0.41588733,0.016246129,-0.578811,-0.2837514,0.6328262,-0.21811049,0.22587684,-0.10869776,-0.35339233,-0.04701954,0.39870557,0.04223845,-0.090704024,0.3243741,0.37311125,-0.26579297,0.006892715,
readHeader(),-0.0047715516,-0.38531685,0.6316859,-0.82226795,0.011200736,-0.26982462,0.08122188,-0.12463586,-0.017823573,-0.6144724,0.4658225,0.08699562,-0.51105154,0.6367451,0.13115042,-0.3994387,0.6167596,0.48317808,0.12988824,0.03112832,-0.090775505,0.0695192,-0.6637256,0.053525,0.8488554,-0.29456243,-0.011324266,0.27754816,-0.6541385,0.2854151,
close(),-0.12821345,0.09299484,0.4121366,-0.079134665,0.15645632,0.12808347,0.13233986,-0.31691483,-0.113292195,-0.34156057,0.046646867,0.21248725,-0.36736983,0.49403882,0.15752645,-0.030148506,0.19186215,-0.010287907,-0.11980516,0.01999617,-0.04366621,-0.30104062,-0.6487993,0.05884651,0.0083102565,0.19111396,0.22296788,0.12153433,-0.688557,-0.0045841886,
remove,0.09370545,0.20911174,0.54556346,0.078520015,-0.15462793,-0.2692536,0.30411583,-0.42050138,0.2582316,-0.21154757,0.46971393,0.01010953,-0.5095471,0.5043693,0.06971097,-0.4500261,-0.13295637,0.025929127,0.063296914,0.17513137,0.07079866,-0.28017753,-0.0037762653,0.20675647,0.29522258,0.07212858,0.42009676,0.20386176,-0.5003243,0.2482081,
writeUIntToStream(),-0.27354467,-0.09916059,0.7019888,0.0010217237,0.26567546,-0.37339944,0.35316116,-0.35717213,0.23043652,-0.10027301,0.6066351,0.14359063,-0.859037,0.4906054,-0.09320407,-0.26547033,0.061614487,-0.07082346,0.5052553,0.04966897,0.1827108,-0.058238138,-0.2174827,0.23850988,0.6394837,0.24405123,0.2601267,0.168454,-0.59444696,0.421796,
putDouble(),-0.6417282,-0.50873834,0.9566072,-0.90184224,0.082565136,-0.36970997,-0.16999653,-0.37178567,0.112672046,-0.44420207,0.48409224,0.22937183,-0.38685358,0.49296343,0.41115457,-0.29363325,0.047626182,0.82413864,0.16310306,-0.10963697,0.008621271,0.025937289,-0.3300722,0.12762012,0.77820396,-0.58211017,0.25206476,0.8525714,-0.40041953,0.09580304,
hssfShape,0.37240726,0.60142446,0.10727678,0.22972153,-0.22873814,0.34675938,0.021944195,-0.21493657,0.11339785,-0.13917165,-0.36210307,0.17951211,-0.31474173,0.6590226,-0.28171712,0.06369906,-0.051398203,0.024990344,-0.13025238,0.1534216,-0.0876326,-0.1619416,-0.253924,0.6054946,0.26755413,0.6523437,0.302506,0.47935325,-0.8507257,0.034520052,
getColInfo(),-0.34113282,0.049021672,0.907145,0.031447504,0.4821575,-0.16761954,0.083084255,-0.5923713,-0.14355329,0.020142272,0.4049001,0.0002620513,-0.50327325,0.32556733,0.002138352,0.27930623,-0.007045544,0.2251275,-0.03956966,-0.19971092,0.13958992,-0.22272037,-0.32428113,0.031438775,0.053869877,-0.020921,0.22676504,0.3424107,-0.39742264,0.22553673,
getString(),-0.13482054,0.02485575,0.6717163,-0.14798331,0.2149129,-0.113753036,0.26505187,-0.35708869,-0.08037118,-0.19824028,0.35672402,0.07470579,-0.43420523,0.40462336,0.19765198,-0.019566013,-0.007368831,0.010610385,0.033775922,0.0031685124,0.106544755,-0.21652304,-0.2486287,0.0022620382,0.30909204,0.028236594,0.30656248,0.17683886,-0.4903482,0.20607616,
obj,-0.020456692,0.17251138,1.1778355,-0.44587108,0.29597685,-0.092348106,-0.008820083,-0.73070025,-0.3161878,-0.45516583,0.29912746,-0.14992845,-0.29545835,0.3114184,0.5428239,-0.18537246,-0.6084086,0.030062096,-0.1833416,-0.008923036,0.076697335,-0.64648813,0.23488611,-0.04927378,0.56307256,-0.24443346,0.5194272,0.62366265,-0.2058838,0.30602992,
exception,-0.2370743,0.48793474,0.43165687,0.29913858,0.35309163,0.119224966,0.04707742,-0.57804173,-0.7869038,-0.34433147,-0.43045735,0.07255504,-0.35531715,0.8210257,0.15061027,0.74009335,-0.31440195,-0.060434096,-0.5724785,-0.018799026,0.20871082,-0.7166601,-0.41948748,0.30520475,-0.18238212,0.54753697,0.2587894,0.14267755,-0.601351,0.22485791,
getRoot(),0.059830178,0.4642852,0.42931098,0.19502312,-0.21262544,0.27775717,0.23809554,-0.40727532,0.26454702,-0.09846839,-0.031978335,0.13619207,-0.37349734,0.51680386,0.11034845,-0.15400656,-0.07463599,-0.08006968,-0.169368,0.11194455,-0.18127808,-0.23372707,-0.25191823,0.253326,0.043445192,0.44029632,0.5139067,0.20738466,-0.66899925,-0.112879515,
recordFactory,0.11105173,-0.39933044,0.5830834,-0.91656303,-0.12963906,-0.20965584,0.12576482,-0.039493356,-0.019050488,-0.69176495,0.36495745,0.01011832,-0.49241683,0.68436,0.23143695,-0.4648686,0.66719747,0.3807227,-0.076436214,-0.035583697,-0.12053182,0.025382975,-0.7591257,0.10816624,0.9057122,-0.16823381,0.043553036,0.28820083,-0.63851464,0.13963865,
outHex(),-0.6647379,0.1540991,0.9932171,-0.50137305,0.98090833,0.29839414,0.13172929,-0.8008095,-0.3753714,-0.043434516,0.025322936,0.20646806,-0.65700704,0.29952443,-0.15305376,0.4727574,0.24047168,0.21862938,0.071312726,-0.043582648,-0.005314176,-0.16199742,-0.88281965,-0.21417882,0.022605786,0.14484425,-0.1071181,0.15943284,-1.05895,0.21501501,
setOptions,0.26790288,-0.18714456,0.79165053,-0.43111515,-0.16809389,-0.50753987,-0.026935369,0.0039339103,-0.048875056,-0.2727175,0.45542625,-0.20443726,-0.39685473,0.47687957,-0.07871883,-0.28016087,0.031075971,0.8726714,-0.2998849,-0.28624606,0.94951046,-0.119731896,-0.08436088,0.36582926,0.6843637,-0.31408927,-0.16420883,0.6022923,-0.38176504,0.11560065,
clone(),-0.20904467,0.06643101,0.40770242,-0.38533413,-0.2357636,-0.036903374,0.14084186,-0.19093147,-0.039214883,-0.29925203,-0.007501641,0.18337134,-0.23150524,0.6635087,0.277046,-0.18121924,-0.10678978,0.13641353,-0.05158256,0.052318767,0.21192901,-0.122432016,-0.119074866,0.13475762,0.31196007,-0.18322207,0.24194854,0.40178558,-0.63266456,-0.015122528,
n,-0.046942484,-0.03259652,0.6774791,-0.24529865,0.08752022,-0.1938399,0.13037859,-0.30329332,0.18964608,-0.19293012,0.32026494,0.04458542,-0.48833555,0.34833676,-0.08418353,-0.29169324,0.09702233,0.29456717,0.15909606,0.046242747,0.089864396,-0.05538909,-0.22982849,0.2044804,0.48338377,-0.047013655,0.121098444,0.36897266,-0.4091574,0.16502248,
max(),0.03811975,0.21370171,0.6399226,0.11868335,0.12991226,-0.028105004,0.07140428,-0.39827806,0.19078018,-0.024767384,0.2023239,0.036295857,-0.50318265,0.26503348,-0.08670048,-0.0035387236,-0.07921449,0.17086309,-0.034449063,0.046640478,-0.044477418,-0.21633837,-0.2175499,0.3019545,0.1637299,0.34141675,0.2712919,0.30210638,-0.33248043,0.07935387,
getLastRow(),-0.9452937,-0.014602325,0.756635,-0.55094993,0.5011448,-0.043340795,-0.039752763,-0.66857296,-0.5057008,-0.251395,-0.20298964,0.30024293,-0.21734789,0.4414615,0.4600149,0.61640346,-0.14220464,0.48740196,-0.28520796,-0.12088433,0.14851929,-0.27086684,-0.48688987,0.0514451,-0.033432268,-0.14980793,0.0028554013,0.4463316,-0.3497107,0.06948433,
fill(),0.022483928,0.1286336,0.50535655,0.017946804,0.007270513,-0.09861338,-0.0027938236,-0.33258852,0.18036747,-0.10937708,0.18010917,0.053805117,-0.41247568,0.41163206,-0.20842934,-0.09902644,0.11958129,0.44184828,0.01922879,0.061875213,0.007021782,-0.08468,-0.25805137,0.34933737,0.29764256,0.10652751,0.15637258,0.3437354,-0.43918458,0.155112,
setRight(),-0.030080674,0.5118558,0.9418708,0.5766584,0.27769813,-0.3305581,-0.17733707,-0.8526437,0.28075507,-0.30912158,0.519615,0.17492658,-0.46612176,0.15251073,-0.21297902,-0.2290019,-0.2471576,0.6544397,-0.089615196,0.14871159,-0.20062526,-0.48526728,-0.09534521,0.42854097,-0.0565568,0.28819072,0.40887198,0.41356882,-0.3427832,0.330273,
setLeft(),0.02194132,0.53866076,0.93057317,0.5581719,0.2060669,-0.375184,-0.19253601,-0.8411047,0.28796777,-0.33626416,0.51505536,0.17921318,-0.48051423,0.18372466,-0.30019593,-0.25749755,-0.23894295,0.68021363,-0.058292642,0.21564977,-0.21632317,-0.52250564,-0.10633313,0.50289005,-0.08754868,0.31485778,0.39211917,0.4384498,-0.38842592,0.37349924,
holder,-0.005389321,0.23439269,0.59406894,-0.42277515,-0.35605204,-0.23686083,0.3074145,-0.5384585,0.382953,-0.009109465,-0.13109569,0.042628527,-0.36657292,0.38486025,0.07318015,-0.46679956,-0.19193827,0.80265766,-0.31350213,0.112570584,0.38099295,-0.13840848,-0.10651308,0.41410372,0.3889219,-0.10342524,-0.10690702,0.5060856,-0.12046865,-0.19971292,
beforeRecordSerialize(),-0.8360002,-0.57818437,0.85471106,-1.1639284,0.12271712,-0.458444,0.17142439,-0.4946964,0.117531955,-0.37070107,0.37130228,0.28054523,-0.5179728,0.5266091,0.4584969,-0.22204752,0.3465534,0.8017309,0.066750206,-0.0063285255,0.0144003965,0.030265927,-0.5806868,0.043359045,0.7447829,-0.5571557,0.011150851,0.526743,-0.44215545,0.11719217,
afterRecordSerialize(),-0.68654525,-0.44139534,0.9748078,-0.6580011,0.10961432,-0.43785647,-0.0182154,-0.33671775,0.32627565,-0.34923902,0.8263465,0.33617473,-0.62755626,0.49254712,0.3386668,-0.43020427,0.0059844553,0.6082457,0.49776545,-0.05498936,0.013292737,0.11410759,-0.11749841,0.06654531,0.61245525,-0.38062724,0.42560345,0.8385516,-0.48643243,0.22222419,
hashCode,-0.18531376,-0.03644944,0.7119631,-0.30147707,0.1109488,-0.24725911,0.41122752,-0.37958357,-0.17145741,-0.38581,0.47561413,0.18017162,-0.5302977,0.6099418,0.28194362,-0.31771874,0.026432723,0.012826165,0.21425153,0.0267035,0.34020132,-0.15301456,-0.09499476,-0.06696898,0.5153175,-0.19105384,0.19851945,0.18330842,-0.6057989,0.35132253,
printStackTrace(),-0.06619438,0.2722855,0.47183612,-0.11675759,0.21125653,0.29161066,0.07922127,-0.31048694,-0.3382404,-0.41973376,-0.08577819,0.2050021,-0.31456283,0.5657943,0.23755004,0.17279072,0.14870955,-0.12702353,-0.3883696,-0.012351845,-0.091526344,-0.34100854,-0.70064884,-0.022546917,0.029158818,0.15788466,0.254325,0.067134894,-0.85941327,-0.047007248,
main,-0.045349896,0.26418385,0.46861005,-0.010125119,0.1278829,0.08552836,0.20825325,-0.4110745,-0.06434539,-0.20791954,0.1040332,0.15339461,-0.3980345,0.4496371,0.05117415,-0.060321286,0.03654053,-0.12727584,0.027799655,0.14311738,-0.0045145815,-0.20229341,-0.30198798,0.10266596,0.13731,0.19119345,0.21921153,0.07613803,-0.67438453,0.17760211,
options,0.29993317,-0.14979729,0.730997,-0.3363045,-0.12421857,-0.4421719,-0.053388905,0.018444551,0.0047511905,-0.24333437,0.36533847,-0.16917108,-0.37420422,0.36741248,-0.15576677,-0.15468258,-0.033180654,0.8588403,-0.4346713,-0.2818496,0.79576445,-0.13279909,-0.27418992,0.44444537,0.58966154,-0.1462702,-0.21767901,0.5239688,-0.2560921,-0.027566662,
clear(),-0.02058159,0.36452696,0.54769593,-0.073957875,-0.24472411,-0.21774152,0.22064798,-0.4444037,0.24991496,-0.054269403,0.22967187,0.031102467,-0.45479915,0.49810222,-0.0066365055,-0.44725218,-0.13816755,0.27753323,0.10299283,0.1614433,0.16794868,-0.17233773,0.104108974,0.2551411,0.15291384,-0.06734959,0.27296767,0.32055905,-0.5716763,0.19145891,
setFlags(),-0.23854825,0.3493231,0.41709867,0.26017588,0.30557814,-0.06230366,-0.40863267,-0.4834191,-0.08107116,-0.18849283,-0.14857143,0.33639407,-0.34121665,0.34790987,-0.40541452,0.4395062,-0.06720233,0.71215045,0.047914185,0.110469416,-0.009245465,-0.32075062,-0.3460102,0.7248203,-0.08390575,0.38043904,0.056178328,0.57217085,-0.5315475,0.32234263,
push(),0.022997594,0.19187625,0.77927333,-0.011890967,0.09708864,-0.15432826,0.2655353,-0.33059758,-0.12219082,-0.27718318,0.49643737,-0.03570304,-0.5872209,0.51236475,0.120468505,-0.17246585,-0.05844583,-0.18405111,0.04736132,-0.06235211,0.20461431,-0.24309736,-0.032952152,0.0040811184,0.23044144,0.10785691,0.39610845,0.15988475,-0.6162771,0.34789398,
setColumn,0.45252547,0.10214067,0.78731793,-0.038765073,-0.012984908,-0.14607161,-0.18719761,-0.23736541,-0.14185108,-0.21221267,0.17945774,-0.34666166,-0.23052973,0.2547113,0.13838983,0.060626607,-0.41669577,0.57430863,-0.638986,-0.38306662,0.49933448,-0.5408003,-0.2029262,0.36422512,0.2945738,0.06420464,0.13348714,0.61593175,-0.055200078,-0.120295554,
string,-0.03200113,0.014013325,0.4007113,-0.046448935,0.028476743,-0.15153074,0.18868113,-0.27316868,0.036178023,-0.10982171,0.14375341,0.02734094,-0.37743407,0.39766142,0.08253124,0.03571845,0.04366793,0.20826764,-0.14442495,0.056069475,0.07005086,-0.24226166,-0.3194365,0.24854814,0.397553,0.16514637,0.25202757,0.20380078,-0.3914895,0.08463032,
getWidth(),-1.1620032,0.09109624,0.5899694,-0.5269551,0.45367694,-0.10067072,0.082020566,-0.6938925,-0.44076645,-0.30550915,-0.40870327,0.5425264,-0.27674663,0.4398074,0.30966312,0.5714651,-0.108394474,0.7012013,-0.042747613,-0.050534394,0.17788783,-0.03081089,-0.4006228,0.15300807,0.02407798,-0.15080996,-0.15214269,0.36611244,-0.46469206,0.15266354,
readDouble(),0.16650298,-0.08510623,0.62144434,-0.24150729,0.16679016,0.038538344,-0.15899405,0.1271741,-0.8948687,-0.98204994,0.23950188,0.005477913,-0.39751354,0.8440145,0.33361995,0.32515937,0.199954,-0.15495695,-0.34450737,-0.49139738,0.4394171,-0.38338783,-0.63062143,-0.054521058,0.24976063,0.34633163,0.21173555,0.25783336,-0.8337903,0.26535842,
getCells(),-0.18027541,0.36676222,0.66977817,-0.1559884,0.20944038,0.3292712,-0.01864272,-0.6455731,-0.10185739,-0.020052647,-0.5655782,0.00937324,-0.14276168,0.24027817,0.3671302,0.39120284,-0.46842378,0.5127715,-0.7392577,-0.0943066,-0.015664358,-0.52539307,-0.3933935,0.39219415,0.099225305,0.3410647,0.0913531,0.50918204,0.06672911,-0.40278852,
getG2D(),-0.10848219,0.35878092,0.334427,0.0101772435,-0.19579719,0.05778357,-0.06739549,-0.43042803,0.17742676,0.024562726,-0.4535212,0.06525538,-0.1527,0.45141676,-0.017333651,0.14703798,-0.40974143,0.5796753,-0.38690874,0.07811498,0.12896,-0.3726346,-0.014549894,0.6217882,0.19176301,0.21738574,0.17013215,0.65420234,-0.21751623,-0.1103559,
org.apache.poi.poifs.filesystem,-0.014861682,0.35866615,0.24697456,-0.085880905,-0.14554136,0.13554512,0.12813708,-0.30405945,0.05891575,-0.07176238,-0.3491261,0.027590726,-0.25114372,0.39403328,0.053472936,0.053957865,-0.22803745,0.040096402,-0.31904852,0.10320602,-0.051263556,-0.19298452,-0.1668544,0.33713016,0.21439289,0.30924746,0.20033245,0.27388397,-0.45517293,-0.09419565,
makeBlack(),-0.02592995,0.48107952,0.73477745,0.41913608,0.21802185,-0.11930564,-0.1641678,-0.67554164,0.25685072,-0.17805262,0.2155469,0.1651605,-0.38873228,0.23848155,-0.19549948,-0.054223955,-0.24796659,0.70185035,-0.24404664,0.081458725,-0.17676768,-0.37195298,-0.2676372,0.5415377,-0.09479099,0.3278916,0.28126636,0.4827076,-0.31574285,0.11481155,
obj5,-0.28892866,0.7068789,0.39753693,0.32848272,0.21740381,0.20817317,0.023264308,-0.74573207,-0.47573197,-0.04426826,-0.72425324,0.075295374,-0.25726286,0.6565036,-0.005052425,0.7317986,-0.5200976,0.15850432,-0.5423069,0.10693939,0.13196272,-0.6326913,-0.27081347,0.5428283,-0.15393375,0.5373754,0.31396598,0.37502772,-0.6084867,0.118739866,
EscherContainerRecord,0.12172436,0.44811103,0.19659647,0.072462,-0.1673771,0.22620858,0.17801057,-0.23884466,0.14955696,-0.09864329,-0.112149976,0.22461088,-0.52317923,0.67008644,-0.18266147,-0.08668907,0.08941309,-0.11596652,0.073353626,0.18350185,-0.11447215,-0.06759994,-0.2060184,0.42851734,0.30593452,0.51266444,0.33849064,0.2348975,-0.8626874,0.11549747,
pos,-0.1494465,-0.11587492,0.68473226,-0.3816732,0.010671629,-0.2506751,0.25565618,-0.28107467,0.0796362,-0.27702066,0.4208856,-0.010661045,-0.4904511,0.43509042,0.20726897,-0.27584392,0.14258602,0.2343019,0.025103627,-0.01067168,0.08106429,-0.07621163,-0.33251008,0.050980188,0.34495312,-0.025047855,0.1984648,0.1594103,-0.41457316,0.122688815,
getBytes(),-0.22441342,-0.09285354,0.58773416,-0.35686627,0.0961989,-0.07625918,0.14837295,-0.2859128,0.07642151,-0.35353255,0.3041441,0.11913987,-0.45163992,0.43700388,0.28830057,-0.22532319,0.17909995,0.1114346,-0.035746057,0.016872533,-0.16139291,-0.10971495,-0.49955645,0.0016758544,0.25837502,0.023887789,0.2594826,0.20048164,-0.47506857,0.024179507,
get,0.26143557,0.40598282,0.6451838,-0.2560588,-0.38760528,-0.32219344,0.2795238,-0.40566579,0.1357662,-0.30416065,0.2749039,-0.11375088,-0.3989023,0.55713594,0.0039184527,-0.56859195,0.010586642,0.31168178,-0.1785252,0.12135389,0.31739524,-0.13288428,-0.065913476,0.19867976,0.21274322,-0.2956228,0.086173266,0.15768966,-0.65220755,0.16739042,
org.apache.poi.hssf.model,0.12939095,0.30789527,0.2341683,-0.019051604,-0.16676028,0.10836908,0.1907435,-0.19643445,0.079818755,-0.12567897,-0.104722835,0.06755007,-0.3820438,0.5440214,-0.032510772,-0.036236152,-0.069092795,-0.048548754,-0.13594334,0.12788142,-0.021276481,-0.15615539,-0.17834301,0.3404999,0.33445475,0.3841616,0.28497878,0.22067128,-0.6113795,0.056415915,
addSubRecord(),-0.062428012,0.46582735,0.22622102,0.17026535,-0.13838352,0.18518548,-0.06925672,-0.36904064,0.0071342913,-0.15467612,-0.35760325,0.23514993,-0.17265825,0.49470708,-0.1672927,0.15668212,-0.12873079,0.26725802,-0.07792933,0.10333265,0.016240383,-0.24837686,-0.24054721,0.4842635,0.02292964,0.3921763,0.23794495,0.51053435,-0.7030257,0.019920383,
getNumAreas(),-0.4483989,-0.08643827,0.8460616,-0.26132447,0.23880701,-0.5005878,0.4279282,-0.49446252,0.11573939,-0.09931963,0.7179257,0.07764598,-0.8643769,0.5472768,0.07277831,-0.23558454,0.09808053,0.038171437,0.4873505,0.032146268,0.16794056,0.007922009,-0.15024376,0.007426719,0.28634527,-0.03899531,0.25959083,0.084031045,-0.58714515,0.49855036,
CellReference,-0.39608675,-0.041982412,0.54359084,-0.5368066,0.23196043,0.019963453,0.12427496,-0.39607552,-0.43730387,-0.3053733,-0.12722258,0.14072898,-0.19980642,0.4513391,0.37858352,0.21557522,-0.056173045,0.12376944,-0.20508906,-0.04131341,0.18341623,-0.24882445,-0.36176687,0.06949342,0.35209987,-0.15385225,0.060001582,0.26678514,-0.4780828,0.11623278,
getEscherGraphics(),-0.058532517,0.32635933,0.28463826,0.0996953,-0.056662876,0.013400958,-0.09562074,-0.42423275,0.08613927,-0.03790803,-0.40232205,0.10399479,-0.2137914,0.40002298,-0.17057809,0.29351637,-0.314636,0.6379329,-0.3428842,0.13032876,0.08696102,-0.34514344,-0.20963113,0.68897647,0.2401384,0.30172053,0.09323044,0.5320056,-0.26339188,-0.03868469,
write,0.024088122,0.13862856,0.36059502,-0.110467896,-0.10061607,-0.06794561,0.21182784,-0.23716974,0.16439436,-0.14512314,0.053773466,0.112259865,-0.4574991,0.52709055,-0.052360453,-0.24138771,0.06333471,0.26491952,0.039298333,0.11420147,0.16903907,-0.104887865,-0.23105942,0.3376425,0.32375953,0.12798858,0.042343352,0.2579161,-0.5170367,0.051045712,
HPSFRuntimeException,-0.012892025,0.08630501,0.28026754,-0.016998809,-0.07853247,-0.13207816,0.108144335,-0.30024627,0.016734835,-0.42609093,0.22251044,0.04010219,-0.32527608,0.5905746,0.15860952,-0.17053781,0.003457555,-0.031074328,-0.10197727,0.080829374,-0.058753747,-0.31283477,-0.31458098,0.20320097,0.08979252,0.14613657,0.39878452,0.19596052,-0.561969,0.108721845,
writeToStream(),-0.30479264,-0.1336752,0.3496504,-0.060004182,0.24521413,-0.3109193,0.1893494,-0.3035254,-0.021094715,-0.11685723,0.31188637,0.1991872,-0.57363915,0.49484935,-0.10350886,-0.03214027,0.115104854,0.14232565,0.35257408,0.07051242,0.23619434,-0.17796172,-0.26126894,0.27231526,0.51679003,0.14639334,0.16985677,0.21359643,-0.6151448,0.40706483,
compareTo,-0.13848251,0.09669066,0.90643823,-0.35491377,0.25119612,-0.09145056,0.033718307,-0.6733711,-0.18291791,-0.34174645,0.18527152,-0.033940222,-0.2523681,0.2655566,0.47493923,-0.19353609,-0.5018457,0.14229095,-0.13423623,-0.029274428,0.08100929,-0.48940426,0.06730496,0.019192092,0.31455016,-0.13259676,0.3684889,0.54127884,-0.112655655,0.14263906,
POIFSFileSystem,0.056082867,0.4154063,0.28344196,-0.01721974,-0.04430914,0.33443487,0.2331219,-0.31639373,0.062469117,-0.12946767,-0.28967562,0.17856614,-0.33665463,0.48695087,0.042892653,-0.0063262167,-0.046155397,-0.11661064,-0.1980812,0.14939335,-0.1451296,-0.15632722,-0.38064623,0.26961818,0.19175677,0.44897616,0.22982231,0.11153733,-0.67575043,-0.09389725,
FileInputStream,-0.048195448,0.3035806,0.3657231,-0.09586984,0.082724646,0.34514162,0.14747876,-0.3110316,-0.010456057,-0.17463207,-0.2495613,0.14107107,-0.3050035,0.47058305,0.095615126,0.08556575,-0.018209644,-0.12578866,-0.19087519,0.060286406,-0.1574246,-0.14712636,-0.48313317,0.17981474,0.08588118,0.3895923,0.23081371,0.18717934,-0.6632411,-0.0857254,
readRemainder(),0.18668313,-0.2075467,0.59060884,-0.43844545,-0.030889103,-0.05969496,-0.006148144,0.13681887,-0.48800486,-0.7667422,0.36198175,-0.03304087,-0.45984787,0.73961586,0.3259203,-0.060681216,0.30039448,-0.120149404,-0.23831691,-0.2936767,0.24399704,-0.19422045,-0.5251145,-0.06417957,0.5339229,0.16275665,0.20706762,0.19816521,-0.73865795,0.2080321,
getColumn,0.18352894,-0.12672476,0.661784,-0.38459352,-0.1854872,-0.18456742,0.10355511,-0.18061106,-0.1454319,-0.28960213,0.17987613,-0.1764572,-0.16905317,0.43486702,0.37689847,-0.15137465,-0.20827527,0.49381226,-0.49011856,-0.32024324,0.59437853,-0.37642607,-0.1277225,0.17376009,0.4840694,-0.21237355,0.097117744,0.5295336,-0.12242158,-0.12627402,
readCompressedUnicode(),0.22790974,-0.14078459,0.8241323,0.11789034,0.26965,-0.17179248,-0.36608168,-0.011443822,-0.46763664,-0.4883939,0.46806046,-0.1908818,-0.33604348,0.38277948,0.116348356,0.3270163,-0.017136315,0.2948739,-0.5186709,-0.49118996,0.36591762,-0.50320274,-0.42581156,0.09997927,0.23439251,0.21878438,0.28514454,0.4473022,-0.31606585,0.105101876,
color,-0.15420681,0.087836646,0.51544064,-0.18615216,0.105436094,-0.18762131,0.07634639,-0.41375792,-0.15395384,-0.0632578,-0.037174717,-0.0424462,-0.28720093,0.34955087,0.022240415,0.14126548,-0.12378236,0.49079406,-0.19530918,-0.04130408,0.33731472,-0.2949497,-0.13324682,0.29502755,0.29092216,-0.06803529,0.024298795,0.39729476,-0.24388126,0.13613586,
HSSFRichTextString,-0.0023174095,-0.11042713,0.30638924,-0.027864918,0.080787085,-0.2252154,0.1660058,-0.14206478,-0.040934417,-0.14562362,0.20083122,0.02568923,-0.4772283,0.43435505,0.12504373,-0.032831986,-0.13333073,0.1375908,-0.078542925,0.025108695,0.28501707,-0.32386062,-0.1350917,0.30874822,0.56208026,0.25311527,0.11475225,0.2326621,-0.18402562,0.1337944,
drawImage,-0.31804422,0.25006574,0.35689715,0.11731822,0.23659955,-0.12825355,-0.03209845,-0.57374233,-0.08402971,0.02262019,-0.33360896,0.060732413,-0.2483324,0.3208611,-0.06603598,0.43054903,-0.3320261,0.58437365,-0.3048659,0.071759425,0.12447165,-0.4049392,-0.19827682,0.5368363,0.1295881,0.20377608,0.13697799,0.43677735,-0.19508588,0.13483746,
getTrans(),-0.09822456,0.37232122,0.26905468,0.03314454,-0.11073371,0.10568344,-0.020786207,-0.48937115,0.17605264,0.037051097,-0.52432394,0.104818165,-0.14070268,0.36336854,-0.023699785,0.20398611,-0.3695004,0.6145796,-0.40086636,0.10678461,0.061639287,-0.3494732,-0.2208903,0.62963843,0.19066039,0.32236236,0.110886484,0.5724558,-0.19402708,-0.20854002,
sheet,-0.027746402,0.23821872,0.4900297,-0.12142607,-0.053468645,-0.058579225,-0.08652849,-0.27803427,-0.1167129,-0.2603979,0.02350197,0.015074828,-0.28072438,0.46767288,0.1503886,0.014316484,-0.25354135,0.15450488,-0.21909924,-0.011109982,0.06098301,-0.28436637,-0.027037784,0.25789976,0.1576053,0.09691577,0.2703803,0.35637197,-0.37192497,0.07473845,
blocks,0.027894348,0.2571496,0.5003209,-0.09061752,-0.1134454,0.043978404,0.21567367,-0.3289295,0.20819217,-0.057769276,0.100593105,0.03083996,-0.46705684,0.49239185,0.008217331,-0.22348158,0.03959745,0.041039344,-0.044363555,0.07998224,-0.0976619,-0.035401512,-0.2318923,0.21563151,0.23325804,0.1908985,0.20394109,0.1881335,-0.52367234,0.0006878384,
ShortField,-0.21278231,-0.025844669,0.5396888,-0.5293825,-0.15636063,-0.28956476,0.017753009,-0.37161773,0.33226478,-0.353244,0.12688293,0.1942898,-0.36963302,0.42660144,-0.02433153,-0.34931624,0.29298165,0.5979415,0.038989156,0.16708983,-0.14863047,0.09728022,-0.47727373,0.32588193,0.30059484,-0.09020552,0.00092731207,0.3823685,-0.46855292,0.06791554,
EscherBoolProperty,-0.13926423,0.48401642,0.30307016,0.34492266,0.12258622,0.032625947,-0.27159375,-0.48066425,-0.1433706,-0.2594264,-0.24570614,0.21513072,-0.32049146,0.5354086,-0.42261353,0.39447257,-0.08651393,0.50855255,-0.0699723,0.10908533,0.07061536,-0.28916746,-0.3357989,0.73277223,-0.09610598,0.60584086,0.19513357,0.4780358,-0.672608,0.23435482,
s,-0.09902736,0.047785092,0.48423788,-0.20447952,0.06800116,-0.19823156,0.04846799,-0.2574748,-0.056091897,-0.21896218,0.14026026,0.040016532,-0.3287562,0.37564275,-0.014485291,-0.021145238,0.031326387,0.24548604,-0.100466594,0.047318928,0.16178495,-0.17116259,-0.23200366,0.18914293,0.14843361,0.060063127,0.09376824,0.22775002,-0.50616646,0.16971259,
getPropertyIntValue(),0.0061309785,0.13194732,0.10576142,-0.39787838,-0.39994448,-0.106796384,0.323865,-0.31905815,-0.17646791,-0.5310014,-0.15792704,0.35001424,-0.36037016,0.9378594,-0.07134601,-0.5052924,0.14609882,0.33646768,0.4002399,0.2861779,0.5943034,-0.11678967,-0.14410244,0.39345217,0.36328053,-0.2067115,-0.045864232,0.3680428,-1.1501017,0.393294,
getNumColumns(),-0.24044754,0.14880535,0.9289977,-0.1476185,0.41126612,0.020160483,0.29942378,-0.47558406,-0.18496555,-0.1670374,0.3874793,0.081020884,-0.60078245,0.40720657,0.09213448,0.07449428,0.08344108,-0.11336765,0.12078028,-0.16814202,0.11057242,0.01139149,-0.2507617,-0.015728569,0.28919548,0.0931476,0.18484475,0.09288308,-0.5070263,0.28352726,
GetChar(),-0.29037824,0.08179883,0.69063294,-0.1250646,0.3637991,-0.060624283,0.36437273,-0.3506802,-0.20813778,-0.14611943,0.27703565,0.11143076,-0.6222324,0.47774673,0.2081295,0.08741588,0.00868845,-0.2033597,0.14926533,-0.013985815,0.14033315,-0.19705491,-0.18030451,-0.04238163,0.2301439,0.23148723,0.25415868,-0.05207526,-0.59004533,0.36466613,
getIterator(),-0.095202096,0.2451562,0.8631844,0.07920562,0.120734036,0.03853216,0.23400739,-0.42713133,0.32164612,0.045585487,0.52259195,0.028750911,-0.6916066,0.35420305,0.079577394,-0.2267721,-0.05061572,-0.13813095,0.18670927,0.010135482,-0.09513819,-0.15269652,-0.12304362,0.102581024,0.2379554,0.27699608,0.4921519,0.26794946,-0.5434941,0.13237755,
setRow,0.28266546,-0.0846038,0.7263917,-0.2135124,-0.019417837,-0.17124063,-0.17161821,-0.02872473,-0.3099192,-0.5364036,0.29276943,-0.22380292,-0.28942135,0.42444244,0.31725922,0.053742222,-0.15241979,0.33684963,-0.5246574,-0.47530314,0.3628465,-0.4274479,-0.3744319,0.13870268,0.26514977,0.10744932,0.18659455,0.41947475,-0.18548518,-0.05942987,
isInValueSection,-0.22025397,-0.046390153,1.0442575,-0.54755557,0.1796286,-0.10048322,-0.036863714,-0.5359661,-0.35980624,-0.45198122,0.19336067,-0.118584305,-0.23689573,0.4309612,0.74597126,-0.0078329835,-0.5113829,0.1725239,-0.37921235,-0.26469806,0.24142933,-0.6009976,0.03576102,-0.06676937,0.3576494,-0.19079334,0.43107194,0.65404654,-0.12884013,0.03606264,
len,0.068712436,-0.116059504,0.53448117,-0.22868554,-0.0119995205,-0.2039504,0.06305594,-0.21403928,-0.017564997,-0.23529536,0.26245648,-0.054260615,-0.3075241,0.39154798,0.03862247,-0.12653843,0.07872484,0.36489558,-0.17289492,-0.100794286,0.26531002,-0.2136801,-0.31461555,0.22646827,0.46416885,-0.044599783,0.108657055,0.36553937,-0.3816929,0.0532764,
parent,0.19889921,0.29232773,0.33692372,-0.10639799,-0.1674723,0.003640757,0.08640401,-0.20791079,0.06660356,-0.15094422,-0.07043023,0.0110663865,-0.35733405,0.45013678,-0.10831154,-0.1906271,-0.049169276,0.1709096,-0.11832434,0.11071878,0.16513637,-0.10544093,-0.12543046,0.36214235,0.2427836,0.17198175,0.06838795,0.24765466,-0.57742685,0.031062786,
font,-0.06514221,0.16971707,0.3859949,-0.092587225,-0.122819796,-0.03155637,0.012280846,-0.2457478,0.08567315,-0.092381634,-0.12804773,0.09054728,-0.21575789,0.41899922,0.019924581,0.04051444,-0.13222525,0.48925975,-0.25024056,0.016664712,0.18867347,-0.14605209,-0.17143613,0.411767,0.28995538,0.04884937,0.07440557,0.40261233,-0.30552113,-0.06643596,
border,0.33624718,-0.04431882,0.6928661,-0.32473558,-0.17719145,-0.3626816,-0.03843279,-0.17951506,0.16217706,-0.077958845,0.21496837,-0.19129305,-0.33557236,0.32706982,-0.15927874,-0.25352064,-0.118894905,0.8961678,-0.3803461,-0.06893465,0.6602663,-0.22326015,-0.15683788,0.5829602,0.6745864,-0.20693086,-0.13602869,0.6495235,-0.2322701,-0.01387079,
setLastColumn(),-0.34939128,0.22482198,0.6291867,-0.05976408,0.38974074,0.015344606,-0.11994658,-0.6190498,-0.16084924,0.078714155,-0.20463914,0.06833763,-0.27753454,0.2621539,0.00066905894,0.47677892,-0.182196,0.549393,-0.28715208,0.010589025,0.08437645,-0.3851383,-0.36477712,0.3339304,0.008187915,0.12682392,0.023661206,0.4605842,-0.19947074,0.04252424,
set,0.030470986,0.06312636,0.76059955,-0.54485357,-0.29000548,-0.28368524,0.27472347,-0.42132506,0.23461641,-0.02441987,0.22738923,-0.13780867,-0.37272087,0.4411642,0.20073235,-0.44526595,-0.010998807,0.66869235,-0.39260763,-0.015685664,0.37778282,-0.14927015,-0.26284546,0.23035434,0.40119842,-0.42862302,-0.034346484,0.34491044,-0.26479575,-0.13821407,
records,-0.12175659,0.20247677,0.4720695,-0.1347657,-0.08647925,-0.03815263,0.29780897,-0.32817206,0.20225818,-0.08907475,0.15128732,0.090419546,-0.5012045,0.50546324,0.11794942,-0.17331342,0.023715481,-0.058856256,0.055114172,0.103908926,-0.07956961,-0.053894002,-0.2427216,0.14769328,0.17829934,0.20813507,0.3357608,0.14779565,-0.57870877,0.067205146,
toByteArray(),-0.15192819,0.01573939,0.44865257,-0.25575748,0.03092129,-0.06291126,0.13243076,-0.27220848,-0.019847732,-0.32043648,0.1632898,0.0870116,-0.44108182,0.4953814,0.09273772,-0.15914927,0.06679839,0.05895319,0.022475602,0.008703579,0.017854923,-0.17573941,-0.2767517,0.13766159,0.367516,0.07701719,0.19023363,0.22380613,-0.56305385,0.19594896,
args,0.013435384,0.30706725,0.47795057,0.0066965227,0.1433321,0.24120162,0.16941963,-0.3767635,-0.051376715,-0.19261509,-0.01952228,0.12811522,-0.38595414,0.41210514,0.03809818,0.0144288065,0.014989519,-0.11421876,-0.14374422,0.14603706,-0.12295422,-0.25303018,-0.3652689,0.11381385,0.20606315,0.29688367,0.24285561,0.08159356,-0.6213532,0.049767338,
type,0.15752152,0.01913624,0.47431177,-0.26654142,-0.13758208,-0.1991312,-0.00078817806,-0.12838855,-0.0451127,-0.26060107,0.15732585,-0.059699472,-0.28229532,0.45003,0.05135467,-0.17953426,-0.024114082,0.44185767,-0.2737827,-0.123096116,0.4066216,-0.18669891,-0.20220512,0.2974395,0.46649897,-0.10635191,0.014964996,0.40861416,-0.35813192,0.0033756262,
put,0.1495214,0.60010266,0.48737493,0.0014786815,-0.29964128,-0.19827653,0.10365611,-0.37955642,-0.047333147,-0.352787,0.05274608,0.09561699,-0.33273667,0.54071933,-0.18533982,-0.4168829,-0.067505285,0.3686753,-0.042052567,0.13078792,0.43780786,-0.17685498,0.04226614,0.36355567,0.094044924,-0.116293795,0.057500135,0.24292728,-0.82344216,0.25461105,
