name,vector_0,vector_1,vector_2,vector_3,vector_4,vector_5,vector_6,vector_7,vector_8,vector_9,vector_10,vector_11,vector_12,vector_13,vector_14,vector_15,vector_16,vector_17,vector_18,vector_19,vector_20,vector_21,vector_22,vector_23,vector_24,vector_25,vector_26,vector_27,vector_28,vector_29
MemberReference,-0.39757916,0.37542987,0.92495555,-0.7282257,-0.07748983,-0.35408425,0.1291457,-0.33128542,0.3749456,-0.39565808,-0.19745137,-0.36222845,0.11197113,0.001976679,0.6657324,0.44544747,0.025738468,0.5117465,0.20360738,-0.18804969,0.3411613,-0.5049654,0.6238424,0.5386976,1.3626696,-0.05065503,0.35673934,0.1703587,-0.0017541536,-0.16978711,
ReferenceType,0.25154194,-0.09173846,0.5395314,-0.29636285,-0.13112873,-0.019359134,0.034166746,0.3793115,0.44403255,-0.00894805,-1.076621,0.17130561,-0.24162154,0.14434102,0.3170052,0.29392207,0.37625292,0.77972823,-0.09394628,0.1834258,0.032183476,-0.42648214,0.2825654,-0.37473682,1.0295259,0.21607639,-0.49236175,0.36394104,0.5750848,-0.05814431,
StatementExpression,0.31522083,0.22302023,0.6018707,-0.7761585,-0.20065123,-0.41065314,0.33772883,-0.31479475,-0.19722693,-0.5305882,-0.5636141,-0.72657675,0.39187688,-0.41295367,0.53322315,0.2988785,-0.22447728,0.77839404,-0.5080192,-0.32276332,0.49961808,0.008778354,0.8215805,-0.07621365,1.3068546,0.35019746,0.40384182,0.23218927,-0.08847427,-0.27212882,
VariableDeclarator,-0.2009955,-0.23513368,0.8088812,-0.5356619,-0.44593596,0.12793744,-0.31703478,0.13320078,0.3039659,-0.40056217,-0.3658258,-0.1320079,0.12682234,-0.19291316,0.71885455,0.46082777,0.15022455,0.6541074,0.61796504,0.17022757,0.28456473,-0.046733577,0.5994581,-0.5284936,1.1708611,0.31127545,-0.7211983,0.07698467,0.14037563,-0.15674315,
BasicType,-0.6705594,0.45808572,0.9518944,-0.38867855,-0.614333,0.10840178,-0.16907881,-0.04944165,0.53020287,-0.15402292,0.073288836,-0.21942039,0.3352559,0.5819394,0.6948839,-0.340173,0.47881153,0.53254294,0.8161266,0.18223612,0.39386272,-0.28567675,0.41075945,1.0746051,1.0796579,0.47880882,-0.9136784,-0.35868227,0.77662927,-0.38145822,
IfStatement,-0.5335386,0.016778745,0.96095836,-0.9766394,-0.19177371,0.13223304,0.3882698,-0.27422565,0.51249176,-0.3246469,0.02283503,-0.23857515,-0.2949061,-0.42849243,0.7987928,0.34499955,0.3901882,0.46696833,-0.17888269,-0.31511772,0.5873374,0.08350275,-0.04928613,0.56162983,1.6679587,0.05384465,0.16770902,0.21774817,0.41179943,0.06366422,
BlockStatement,-0.17746256,0.09567707,0.5389443,-1.0689687,0.18426183,-0.21200418,0.5114129,-0.6186212,0.41971773,-0.28373134,-0.021751722,-0.5179421,0.009452424,-0.43182626,0.5981854,-0.062352367,0.1331523,0.4905921,0.000743133,0.09495554,0.5450864,0.34498063,0.20913187,-0.2940011,1.8367727,0.017661948,0.13329524,-0.203549,-0.038378246,0.11167467,
ReturnStatement,-0.9113671,0.2320776,0.59674144,-0.3372764,-0.46105078,-0.5180656,0.23280363,-0.28753263,0.08008986,0.04256947,-0.024840105,-0.08069851,-0.8806233,0.52466923,1.2400814,0.21740171,0.55559176,-0.05130421,0.20547678,0.3037061,0.9314759,0.3340812,-0.15225855,1.2081867,1.363251,-0.021547258,-0.31205285,0.29402283,0.8999719,0.12147795,
SwitchStatementCase,-0.9115531,0.2101359,0.45784524,-0.19274642,-1.0554842,0.30831718,0.6533416,-1.9148116,0.92368025,0.101118885,-0.6062371,0.29186335,0.20889246,-0.9985011,-0.23444226,0.562414,1.0065093,0.92917806,-0.44776773,0.81436646,1.2903552,0.10829883,0.05975674,1.098188,2.0788357,-0.78498954,-0.19601318,-0.5034371,0.4184842,0.52333355,
getProperty(),0.66508716,0.23248906,-0.3543407,-0.73782533,-0.15267622,-0.3740925,-0.14659987,-0.30290407,0.37495977,-0.6444153,-1.5316311,-0.07664593,-1.234684,0.60103905,0.70775265,1.0785365,0.20656605,0.6724967,-0.3255628,0.47319868,0.34735447,0.30272934,-0.12766054,0.5129686,0.54317135,0.2546116,-0.18763043,0.13998671,-1.1125314,0.2592539,
add(),1.0298699,-0.06981719,-0.25493768,-0.22304676,-0.37075338,-0.8544308,0.3891068,-0.47069073,0.5642548,-0.1274057,-0.805505,-0.110319085,-0.9986466,0.3517853,0.38524777,0.65874183,0.26279622,0.78255266,-0.12310532,0.021124795,0.48568353,0.30858743,0.8226136,-0.49304205,0.99796003,0.28573117,-0.09068299,0.5149645,-1.8795472,0.8527399,
BreakStatement,-0.75532985,0.54184955,0.7618047,-0.7913278,-0.6932535,0.03468751,0.2809961,-1.7441084,0.61408764,-0.2677857,-0.021997323,-0.048853956,0.3414065,-0.8748736,0.003479797,0.21634899,0.767641,0.36626145,-0.32023492,0.75088876,0.81257236,0.29497406,0.56849647,0.6249701,2.0874789,-0.45046,0.045000665,-0.450976,0.15205397,0.10622152,
ForStatement,0.13664888,-0.40138137,1.274268,-1.0450013,0.11869862,0.51109964,-0.115371056,-0.35501283,0.49558356,-0.050535116,-0.2873833,-0.15604839,-0.4592381,0.25299728,-0.4458837,0.28346723,0.43498573,0.71909887,0.9881234,0.117064364,1.0596064,0.7223023,0.60065264,-0.2594242,0.49994555,0.082197174,-0.53597575,-0.20445408,-0.84229344,0.17642702,
ForControl,0.12251722,-0.0899102,0.7705625,-0.6567624,-0.5116632,-0.26107842,0.27550447,-0.46789387,0.24158643,-0.76201254,-0.37189054,0.5509356,-0.41777706,0.18467738,0.24592939,-0.19620344,0.6436979,1.1543895,0.8109072,-0.36000493,0.940739,0.60927004,-7.0892616e-05,-0.3110615,0.64512956,0.24235566,-0.562211,-0.2200573,-0.73741424,-0.3676229,
TryStatement,-0.15557303,-0.59045714,0.49517098,0.07377354,-0.38737035,0.18204065,0.6541855,-0.35034865,-0.13695155,-0.4607253,-0.597798,-0.527648,1.0763754,0.17464879,0.9397791,-0.55939716,0.26651752,0.5260032,0.7728046,0.29934493,1.5910414,-0.62667567,0.21362986,0.9365243,0.88912284,-0.21718405,-0.40858445,-0.31705368,-0.27015394,-0.12154883,
ThrowStatement,-0.2079713,-0.9510087,1.0711448,-0.24408163,0.38472533,-0.08791174,1.2638491,-0.3150944,0.61766547,-1.4708902,0.021144947,0.52649695,-0.25344184,-0.3653207,0.62210906,-0.38717914,0.53939885,0.1682286,0.060800392,1.0629497,1.8223596,-0.4255633,-0.5089156,0.5737259,1.2923224,-0.029513426,-0.09064872,-0.1236307,0.23450771,-0.53474414,
CatchClause,0.4428446,-0.62417746,0.31253886,-0.47195244,0.2428253,0.07630421,0.785574,-0.38640803,0.34432036,-0.35492784,-0.921266,0.035681635,1.0459992,-0.007610373,1.2793722,0.15038773,-0.061228253,0.30849868,0.3106034,0.24865434,1.7681197,-0.22079211,-0.7110517,0.8967406,1.3511263,-0.57026845,-0.40149394,-0.021333484,-0.51669925,-0.07841518,
equals(),-0.13161476,0.6335895,0.4613333,-0.66194886,-0.20209819,0.02515798,0.318197,0.5106218,1.006881,-0.10406836,-0.31498745,-0.20682399,-0.9697891,-0.040320795,0.5147426,0.42618608,0.67596173,0.7598486,0.2706954,0.72646326,-0.005085197,0.87963426,-0.9191324,0.07049201,1.4152035,-0.51206744,0.2889765,-0.36357254,-0.096820675,0.11535824,
e,0.2909674,-0.12603988,0.036924634,-0.41176924,-0.022403527,-0.5705396,0.79855424,0.24797086,-0.25144243,0.32415196,-1.2950418,0.51120466,0.43161467,-0.32349366,0.6727599,0.65582126,0.32440537,-0.37226054,0.14727032,0.53669685,1.3993886,-0.6286392,-0.1743845,0.48823997,1.2971777,0.04962098,0.20921272,-0.47150216,-0.8222379,-0.30942068,
log(),0.1567892,-0.3266847,0.7043873,0.09818412,-0.36206418,-0.38233864,0.49446356,0.14199078,-0.010343769,0.15903696,-0.5280488,-0.51349264,0.4510167,0.34067708,0.77063024,-0.055984564,0.42656672,0.29168016,1.1603342,-0.24595419,1.1838751,0.5660561,-0.3094187,0.6263899,0.5058598,-0.43067807,-0.19403169,-0.051477082,-1.3440793,-0.08793135,
append(),-0.49727497,0.42895666,0.6349581,-1.0377271,-1.0226763,0.3911104,-0.09931975,-0.60246944,0.83454555,-0.14647742,-0.9219131,0.67254716,0.29774442,0.5492204,-0.24722144,-0.77015805,1.4681218,0.5579578,-0.34983414,1.2047194,1.2422441,1.2566093,-0.030353133,0.2641008,0.899509,-0.9541708,-0.5109206,0.37915444,-0.85594016,-0.37431234,
name,-0.3348728,0.24331436,0.16812828,0.86244416,-0.0005167695,0.1273282,0.7621192,0.75440323,0.83000916,-0.02035828,-0.7984026,0.30615258,-1.4620324,0.49097294,-0.04515427,0.09310528,-0.1589307,0.8662387,0.0082993135,0.21008107,0.62216455,0.29031864,-1.0443418,0.70884,0.80228984,-0.23504432,-0.34000662,0.613117,-0.007832294,0.167479,
get(),-0.44072682,0.060462188,0.66869754,-0.25676027,-0.047674417,-0.14871787,1.089839,-0.2800343,0.69621867,0.14344856,-0.28431395,0.15122303,-0.9307017,0.45958325,-0.37124425,-0.04293311,0.25323603,1.1169738,0.5695444,0.04249921,0.5661434,0.61264014,-0.27026948,0.4366332,0.84528923,0.057409182,-0.5841303,0.4549321,-0.3060804,0.14180803,
WhileStatement,-0.31607747,-1.1942798,0.82146966,-0.32562155,-0.172747,0.06293155,0.93449205,-0.76267797,0.45852476,-0.6741223,-0.29605,0.38388127,-0.40599656,-0.37881508,0.7819459,0.43952847,0.546038,0.77063286,-0.23927905,-0.12492318,0.5615367,0.5937254,1.0294727,-0.2104332,1.1531154,-0.088545725,-0.36984515,-0.010241868,-0.36355034,0.5030851,
length(),-0.34141734,0.052230734,0.11396432,-1.1899128,-0.69846183,0.07070893,-0.07833216,-0.176119,0.046748545,-0.23625943,-0.39380243,0.1790748,-0.20023224,0.031234749,0.5096559,-0.65639806,1.1149298,0.7831272,0.28060925,0.36467072,0.95202416,0.24217328,0.30921683,0.16697328,0.9150797,-0.7728124,-0.20213093,-0.05451,-0.6050718,0.67951673,
SwitchStatement,-0.30915174,-0.051766977,0.6176377,-0.62055314,-1.062687,0.025932187,0.32848728,-1.4643052,0.34741357,-0.29288694,-0.5194338,0.5887351,0.2964822,-0.64369315,0.34202352,0.48590526,0.9458587,0.27341145,0.06960159,0.53146666,0.8803567,-0.075296335,0.36641762,0.7605277,1.5158103,-0.33347493,-0.6109488,-0.51090735,0.18422227,0.15019457,
put(),-0.17702726,0.33285794,0.5456916,0.09138193,0.4665435,0.11340191,0.9664619,0.19545835,1.1827674,-1.0815597,-0.66746485,-0.14321044,-0.5319295,0.12801775,-0.41087642,-0.46859586,-0.41258523,1.9500502,-0.26156268,0.28962848,1.2098159,0.3349955,0.17450243,0.36971298,0.7251564,-0.49903128,-0.95617455,0.7242968,-0.9545122,0.5597368,
toString(),-0.18476972,0.25623256,0.26011983,-0.47592056,-0.3675951,0.23182365,0.24544705,-0.061406974,-0.12773271,0.2422807,-1.1798139,0.1224712,0.49428028,0.2686302,0.2368661,-0.26419806,0.8472868,0.40561223,0.12540048,0.55897385,1.0221784,0.667154,-0.3107837,0.5070161,0.82332236,-0.7896986,-0.21477105,0.12742954,-0.55704015,-0.42837754,
getBooleanProperty(),0.034811582,0.2510714,0.46076477,-0.3926178,-0.26277778,0.29728135,-0.49070033,-0.32453334,0.3324108,-0.85915995,-1.1082082,-1.1654065,-0.7016874,0.48523995,0.6367471,0.30249012,-0.10578095,0.87826014,-0.09670867,-0.171976,0.9478058,0.8174306,-0.12467195,-0.008042494,0.3997949,0.48988283,0.29972523,0.4902202,-1.1476774,0.025928337,
size(),0.057141885,-0.18418202,0.71852356,-0.37970167,-0.32203957,-0.3161784,0.8324603,-0.6088252,0.5083603,0.13066483,-0.2617934,0.26621845,-1.1632235,0.7719488,-0.24920829,-0.06672109,0.48802328,0.56892484,1.1181605,-0.32949862,0.44228613,0.54531443,0.07888455,0.2913631,0.6345809,-0.06333854,-0.95619255,0.37103495,-0.9300638,0.23796375,
evt,-0.23526973,0.03044138,-0.57069445,-0.3613181,-1.4461278,-0.27104408,-0.91441023,-0.13186403,0.67847705,0.36708847,-0.22113584,-0.1310942,-0.6808367,-0.6814185,0.2544029,0.8548133,1.0299375,-0.75054026,-0.34230942,0.74880373,0.7429336,0.054759424,-0.137014,-0.20061529,1.2467563,0.37176454,0.06396413,0.2453328,-0.31005248,-0.78070354,
jj_consume_token(),-0.04997303,-0.1659434,1.0349197,-0.40586466,-0.46969146,-0.536587,0.7019703,-1.7464038,0.97997355,-0.8112169,-0.7607504,0.2671134,0.42905343,-0.8867769,0.56521094,0.91435844,0.80084324,0.19132058,-0.8129724,0.7325841,2.1956375,-0.40349838,0.6397075,0.8248448,2.3600698,-0.32287258,-1.0983099,-0.81709963,-0.17442672,0.04556235,
jj_scan_token(),-1.2314351,-0.022707917,1.0576183,0.042097446,-1.1305896,0.22185813,0.8236285,-0.64848226,1.5472337,-0.13662688,0.69240683,-0.71386135,-1.7188166,0.20615728,1.3652816,0.42423412,0.8053778,0.14946386,-1.1224089,0.22069854,2.0399227,-0.07665067,0.0159782,0.9251758,2.2062333,0.2883438,-0.49506524,-0.077107206,0.71687835,0.061845478,
view,0.26030856,0.121096246,-0.2166099,0.5131671,-0.6352172,0.28359407,-0.21429747,1.0175104,0.5302316,0.33948183,-0.5762437,-0.9060232,-0.9911708,1.1484087,0.35680497,0.23393677,0.30142793,0.057400044,-0.0017412333,-0.21892616,1.0438834,-0.31382418,0.020469606,1.1680113,-0.11531705,-0.021780996,-0.41792908,0.73990154,-0.30497882,-0.23176621,
buffer,-0.055097714,0.28663948,0.02172498,0.30172125,-0.91214037,0.6166852,-0.11168357,0.5040204,0.41381142,0.32031542,0.5394691,-0.08893168,-0.6250708,0.9554627,-0.41248864,-1.0056803,0.68702763,-0.004858571,0.364137,-0.6254273,1.3716503,0.37502158,0.3576583,1.0124831,0.37316793,-0.23604675,-0.23872918,0.7054707,-0.3947133,-0.19915012,
addActionListener(),0.9946732,0.22308879,-0.43903556,-0.2433084,-0.89012873,-0.96108156,-0.36148718,-0.6798907,0.5486383,-0.4775647,-0.8478469,-0.26948586,-0.9463383,-0.30114004,0.41760013,1.251824,1.1681337,0.8027635,-0.5807101,0.64716625,0.47884357,-0.22983332,0.24921018,0.26521066,1.8168688,0.37231627,-0.11029846,0.37870944,-1.7681386,0.3978273,
getName(),0.30127093,-0.49963617,0.14346403,-0.8162365,0.4752086,0.24349698,0.24287249,0.38887292,0.3708855,-0.27487424,-1.1247245,0.18607849,-0.65978056,0.2143069,0.2666663,0.1502788,0.48443717,0.82028997,0.40721336,0.7169543,0.582444,0.41561416,-0.26523945,0.26405197,0.6364684,-0.33365518,-0.49774626,0.035600897,-0.22283345,-0.013673105,
substring(),-0.20779325,-0.087613694,-0.32486188,-1.0497147,-0.44134292,0.06461129,0.003286117,0.23857136,0.0016494967,-0.31212017,-0.3608538,0.36126062,-0.3302033,-0.033335045,0.64891994,-0.46714154,1.3785082,0.82950985,0.15729809,0.34118342,0.9601402,0.08917695,0.034173474,0.45334816,1.0300419,-1.078872,-0.072567545,-0.07077976,-0.5518628,0.74770945,
charAt(),-0.1195548,0.3700741,0.06284328,-1.4424862,-1.0120227,-0.16481462,-0.16218065,-0.74566084,0.1783307,-0.24483722,-0.5679525,0.31376857,-0.41472194,0.43765694,0.9051502,0.14750126,0.85442114,1.176219,-0.16624635,0.33790222,0.5787506,-0.020136284,1.1326865,0.0066995164,1.2881169,-0.503515,-0.22842968,-0.0522384,-1.0197396,0.89018804,
isSelected(),-0.40593722,0.29254928,-0.39312607,-1.0128775,-0.8951831,0.2000759,-0.6238747,0.21914595,0.40332747,-0.37425473,-1.0259787,-1.300451,-0.03542532,-0.39711413,0.07042712,0.077075735,0.7280784,0.23421371,-0.0003868791,0.21276796,1.2849648,-0.24026446,-1.2071586,-0.39941177,1.7813296,0.28571296,-0.5466093,0.7306001,-1.5312916,-0.036558,
path,0.27200863,-0.23730575,-0.3563317,-0.33403823,-0.22766873,0.15336101,0.028759021,1.126465,-0.08557231,0.21473256,-0.5689882,-0.1511221,-1.0473832,0.9185478,0.57532793,-0.058716152,0.75299305,0.47791907,0.41283002,-0.24509504,0.9772327,-0.11988449,-0.08363251,0.9487592,0.39207688,-0.65792143,-0.50611496,0.5294947,-0.3784776,0.08552602,
addComponent(),0.5293171,0.30919522,0.14843689,0.13870294,-0.05354856,-0.39087042,-0.5344153,-0.3385764,0.7523239,-1.2826948,-1.3545552,-1.126451,-1.2686709,-0.093388095,0.55433035,1.214128,0.31036875,1.1119739,-0.36352026,0.67193806,0.9769276,0.10373586,-0.69586587,0.4183548,1.3849018,0.51886004,0.093499474,0.34263512,-1.605379,0.17140843,
remove(),-0.17365167,0.07791794,0.37799245,-0.20510599,0.042882547,-0.005362698,0.5937177,0.23576503,0.5504256,-0.14575447,0.030883353,-0.49296606,-0.9648426,0.25259808,0.00046747187,-0.6212997,0.34748182,0.8628991,0.47900644,-0.49135357,0.563762,0.7977328,0.033232994,-0.092443965,0.85176086,-0.11418177,-0.12172434,0.6736555,-1.0041325,0.6313601,
write(),0.20954946,-1.0496306,1.2644738,-0.29751596,0.38442904,-0.34957793,-0.48475018,-0.8707848,0.3103213,-0.76573974,-1.9140248,-0.29044595,0.08875348,-0.11535003,0.05190307,-1.2284055,0.5497997,-0.20878078,0.4906189,0.59137875,1.1693845,0.3638188,0.38872707,0.59541786,1.2373539,-0.88892984,-2.0253916,-0.14492086,-1.5498827,-0.37582797,
setText(),0.13344637,0.1456917,-0.107066244,-0.6083735,-0.44632435,-0.093846105,-0.7573171,-0.14827543,0.5799813,-0.18050945,-0.73881924,-0.41929093,-0.9033005,-0.30593663,0.26152524,-0.14312397,1.0407839,0.08765984,-0.19971247,0.52281517,0.5879565,0.92780906,-0.27815205,-0.238136,0.737124,-0.24635565,0.33952656,0.2007035,-0.9686713,-0.11929694,
error(),-0.11973858,0.21812862,0.3685533,-0.7639718,-0.12194567,-0.24276313,0.5052736,0.3073853,-0.02132787,-0.17340638,-0.8944853,-0.88393533,0.36295265,0.002597528,1.0441501,0.4128929,0.26496917,0.09563026,0.05039605,0.030178312,1.240301,0.41508293,-0.3670758,0.63515884,1.0337319,-0.7888508,-0.08035267,0.098351896,-0.4041253,-0.27963138,
setEnabled(),0.09800695,0.037194755,-0.1504606,-0.92952514,-1.0024903,-0.6508967,-0.6892673,-0.060520425,0.72352904,-0.42696652,-0.8592901,-0.83762145,-0.89133984,-0.63349736,-0.19106263,0.15760253,0.93417996,0.56626344,0.100858785,0.22826679,0.4091398,0.12659547,-0.47178566,-0.65528685,1.3822339,0.3870244,-0.44347775,0.61284965,-1.4903399,0.24070114,
getBuffer(),-0.066623375,-0.12204274,-0.070615426,-0.5431765,-0.236652,0.17546943,-0.19531763,0.08553622,0.57159585,0.023294307,0.08679401,-0.9167599,-0.97509015,-0.29927117,0.40041682,-0.29054287,0.9981658,-0.030502586,0.36990717,-0.2892885,0.58461577,0.8375264,-0.14591737,-0.070993125,0.71425045,0.2097081,0.28607795,-0.1904673,-0.41162276,0.061992835,
ContinueStatement,-0.13275951,-0.2577718,0.47740066,-1.322734,-0.09501038,-0.16544168,0.11258293,-0.3449018,0.16069494,-0.37190124,-0.48853144,0.19566946,-0.24708389,0.19100809,0.5073512,-0.25860146,0.9443097,0.71867764,0.5446182,0.5230605,0.7452049,1.0062168,0.3877475,0.08383816,0.97635543,-0.5341458,-0.36990473,-0.23403175,-0.6885674,0.08519976,
setBooleanProperty(),-0.30658737,0.37101835,0.020595586,-0.85586256,-0.44025385,0.043710694,-0.21493833,0.16414927,0.16814677,-0.40908095,-1.4314846,-1.2496585,0.5218832,-0.17102438,0.17106712,0.26341107,0.384195,0.10196854,-0.025166662,0.21462253,1.5063831,0.124553114,-1.3169547,0.29858348,1.2499832,-0.22016063,-0.56493396,0.6681405,-1.1666584,-0.21612655,
getPath(),0.20869076,-0.25607958,0.059870783,-0.95276767,0.19665349,-0.08046505,0.08559691,0.26432827,0.38713378,0.040318336,-0.835792,-0.6778811,-0.85158044,0.2351027,0.26461044,0.095988765,0.7133781,0.6085671,0.5166759,0.032086946,0.41973865,0.66189325,-0.09387012,0.15384655,0.5720327,-0.32065004,-0.29097027,0.1847951,-0.7234031,0.18324389,
value,-0.4758248,0.6673942,0.018740274,0.59691536,0.26403445,0.34434375,0.66696113,0.3543983,0.4251714,-0.42481536,-0.21303979,0.29425302,-0.8196281,0.37376225,-0.42244792,-0.4388234,-0.51500607,0.45279622,0.047326528,0.31163892,1.253361,0.24080837,-0.8621205,1.170073,1.1440351,-0.30757722,-0.40563613,0.6382917,0.3439055,-0.054994527,
setSelected(),0.2980657,0.35454127,0.15253046,-0.42439717,-0.30790302,-0.57658464,-0.6651955,-0.2927277,0.9829691,-1.0565456,-1.2397488,-1.3024273,-1.1524078,-0.17275785,0.6275665,0.9301361,0.6545732,0.8983239,-0.35534278,0.48874646,0.9021586,0.34460458,-0.5489493,0.099516906,1.1737046,0.5646697,0.28949544,0.55832344,-1.5339139,0.09388211,
getLineStartOffset(),-0.43421444,0.02347806,0.72284496,-0.28931245,-0.7506559,0.2474559,0.024161268,-0.23919453,0.8062805,-0.00043806576,0.9226242,-0.26979658,-0.48803255,-0.06854618,0.39978465,-1.2705889,1.1796075,0.06814495,0.32162285,-0.72136277,1.394856,0.52780604,0.45669368,-0.00041901995,1.1502433,0.063761346,-0.09511436,-0.45296407,-0.4218408,0.095487274,
EnhancedForControl,0.10110984,-0.5288608,0.49117783,-0.43057987,-0.06589177,-0.3922245,0.42513472,-0.19091402,0.40087786,-0.6179548,-0.44620058,0.14387968,-0.5479115,-0.01994955,0.05630243,-0.508158,0.75506467,0.8259153,1.0835046,-0.3061828,0.70311993,0.33747435,0.15848349,-0.29395545,0.5163513,0.25831214,-0.67062134,0.20897833,-1.1797016,-0.17886378,
actionPerformed,0.25368965,-0.28982702,-0.31520316,-0.4821358,-0.9805818,-0.6085891,-0.5966079,0.10518507,0.6054722,0.062029812,-0.7785342,-0.5563914,-0.5196257,-0.56384796,0.5786103,0.88920456,0.9400205,-0.15094747,0.050655134,0.58757746,0.31036478,-0.18027782,-0.39046514,-0.24107021,1.3885261,0.4106043,-0.31445283,0.34639314,-0.6960082,-0.47344646,
beep(),-0.62043595,-0.17852136,0.1612248,-0.7492838,-0.4702247,0.17513984,0.22772756,-0.32214573,0.5720167,0.054355208,0.13363814,-0.6591212,-0.37685165,-0.86590946,0.22673996,-0.9445676,1.2813172,-0.3983438,0.2951125,-0.6382821,1.4316012,0.52549475,-0.3612442,-0.28821433,1.132089,-0.13043171,0.10335761,-0.17931099,-0.4307295,0.42491192,
getText(),-0.27786365,0.1507179,-0.042909455,-0.79369503,-0.5838554,0.4759595,-0.35109845,0.10695109,0.07146034,-0.02379954,-0.513472,-0.44792825,0.30103323,-0.44260338,0.030321393,-0.75144917,0.98479515,-0.038090147,0.380026,-0.07683016,1.0513449,0.4164312,-0.6434171,-0.22260593,1.0629135,-0.3125005,-0.047811043,0.122433074,-0.7464456,0.07783241,
getToolkit(),-0.59942704,-0.15937096,0.0778189,-0.65100694,-0.44968247,0.04149614,0.17330909,-0.21301864,0.6246888,0.007418217,0.11847414,-0.6179308,-0.36838022,-0.7705458,0.43330207,-0.8870307,1.2463245,-0.43190148,0.22492422,-0.65753585,1.4070792,0.5287284,-0.24214958,-0.23782833,1.0924946,-0.040325053,0.20747435,-0.29392567,-0.38861504,0.45735252,
setProperty(),-0.2548225,0.6025332,-0.0694619,-0.41556948,-0.2415222,0.25709417,-0.17370112,0.33824807,0.1510957,-0.198736,-1.1636168,-0.7549345,-0.23672399,0.18765047,-0.16683069,-0.16944967,0.24435735,0.69181687,0.14806072,0.2848174,0.9687083,0.37258366,-1.2766361,0.2799073,1.2715378,-0.32844493,-0.45423228,0.99423397,-1.0624523,0.13613264,
File,0.22839902,-0.55095017,0.08596716,-0.72299165,0.283315,-0.12674142,0.16239245,0.6891901,0.09050967,-0.014310745,-0.99207723,-0.7121443,-0.6185566,0.40403363,0.8463339,0.1965,0.51710916,0.84670836,0.714843,-0.0083388025,1.0244166,-0.049580548,-0.17064431,0.23799556,0.6939734,-0.2613594,-0.7226807,0.09361962,-1.1708876,0.057808276,
comp,0.34929636,0.026963472,-0.15863511,0.079399526,-0.22405995,0.13140886,-0.10185308,0.9438231,0.083748385,0.15111417,-0.46734273,-0.21317942,-1.0749629,0.67477024,0.49257973,0.29585123,0.22870445,0.46056953,0.4968434,-0.13123894,0.577743,-0.20456852,-0.118141666,0.69599116,0.7304183,-0.14285564,-0.16610786,0.38041443,-0.43251586,-0.03125972,
line,-0.18834826,0.03260942,0.6183614,-0.07155896,-0.5869961,0.5976012,0.39834625,-0.1286303,0.7527441,0.3482023,0.7796119,0.408404,-0.49737972,0.35316232,0.054918323,-0.84137625,0.595013,0.022012243,0.31581116,-0.5042329,1.173545,0.26955178,0.7376701,0.56676525,0.94674176,-0.16029088,-0.22938004,-0.27605855,0.35653284,-0.047296606,
closeNodeScope(),-0.2825533,-0.24026683,1.0461494,-0.6542539,-0.056178153,-0.32317016,0.7599984,-0.99998987,0.7581473,-0.82203746,-0.4222979,-0.03154341,0.26232278,-0.7538904,0.93872327,0.49584597,0.7154512,0.39272884,-0.5182505,0.5941215,1.8985305,-0.48045874,0.46192387,0.19670355,2.1793244,-0.19966626,-0.74079937,-0.7334246,-0.2412763,-0.003586304,
jjtreeCloseNodeScope(),-0.35215503,-0.19764942,0.89057803,-0.68590707,-0.086005464,-0.366537,0.7020256,-1.0440457,0.54831415,-0.84721506,-0.4350532,0.07175646,0.29572675,-0.68041205,0.86756504,0.4087901,0.70013964,0.4332621,-0.46711987,0.71017605,1.7791239,-0.51661116,0.5417899,0.23508412,2.1816247,-0.2607918,-0.7814895,-0.723785,-0.33974296,0.037865747,
JPanel,1.0910788,0.23940183,0.060170516,0.3374126,-0.5639968,-0.3857845,-0.77638066,0.42779148,0.68694454,-0.09998412,-0.62630564,-0.32578206,-0.9995893,0.59643847,0.055046503,0.7668941,0.46061954,0.90839714,-0.15762676,0.08292371,0.50006783,-0.5729827,0.7090563,0.4020128,1.3915998,0.6417134,-0.78162116,0.7725652,-1.5806392,-0.21153611,
ActionHandler,0.73603535,-0.044929814,-0.32523835,-0.5298814,-0.9650374,-0.746586,-0.5131227,-0.18191789,0.45049644,0.12742102,-0.92899555,-0.45324653,-0.6382382,-0.27818066,0.4698079,1.1789519,0.998384,0.37831748,-0.18434757,0.54889864,0.21032545,-0.24015416,0.13254243,-0.050374065,1.5663658,0.4136761,-0.3512737,0.44199127,-1.2033662,-0.20929176,
JCheckBox,0.6414598,0.5541296,0.28881797,-0.014804675,-0.34046984,-0.53829795,-0.7777887,-0.34333372,1.0128856,-1.3004787,-1.1903162,-1.1117105,-1.3004109,0.044306256,0.5601384,1.1082885,0.6597819,1.3338017,-0.51344216,0.6241272,0.9331803,0.19881786,-0.46207353,0.43169466,1.5352792,0.64947724,0.14604613,0.6239025,-1.8829813,0.06482548,
start,-0.16066314,0.41834942,0.5406531,-0.18446884,-0.837711,0.5924152,0.006728407,0.14551018,0.5752811,0.085277155,0.46891862,0.51344496,-0.24606244,0.4482287,-0.18982683,-1.1367975,0.54074717,0.20934893,0.21821731,-0.30779132,1.1410807,0.53896797,0.7731363,0.4132402,0.8315105,-0.42835,-0.24720898,0.04309449,-0.017824717,-0.10160438,
getHeight(),0.27397788,0.59494936,0.8723656,0.051968396,-1.1630981,-0.4012207,-0.5404617,-0.21055606,1.4053875,-0.16212887,0.64603615,-0.6975669,-0.81227714,-0.121891856,0.4485287,-0.27711603,0.41192195,-0.080567345,0.31624675,-0.6849591,0.5443064,0.43617234,0.6681822,-0.13697694,1.0742109,0.5514815,0.11061676,-0.22811249,-0.797759,0.09063307,
offset,-0.118763275,0.13638635,0.5198176,-0.03932685,-0.66473377,0.5030397,0.34390333,0.22985026,0.6299029,0.16644713,0.6986859,0.4758688,-0.5775862,0.69955826,-0.046393305,-1.0419266,0.33302313,0.093895406,0.62808365,-0.53497404,1.3733566,0.33165988,0.8258759,0.49504563,0.96743846,-0.15009086,-0.48093662,-0.0694132,-0.10838068,-0.039577506,
startsWith(),-0.21583456,-0.17158392,-0.24245021,-1.1846293,-0.2532978,-0.046983246,0.10908333,0.16330852,0.08263497,-0.31067687,-0.45005614,-0.21537566,-0.59452224,-0.20687424,0.866403,-0.29922238,1.3907593,0.76269263,0.379046,0.33866003,1.0837157,0.20695364,-0.29210505,0.1778272,1.1477288,-0.86914074,0.09509634,-0.2151583,-0.7944042,0.6793278,
setBorder(),1.0798649,0.41902852,0.048382234,0.52444357,-0.5590635,-0.38294238,-0.83954525,0.22996232,0.8181916,-0.3178344,-0.46477088,-0.4179968,-0.98848313,0.43507707,0.015609767,0.5705498,0.28268775,0.7557753,-0.34259433,0.15992284,0.50779825,-0.3799037,0.6798772,0.4144289,1.3561946,0.6372391,-0.42537674,0.74795645,-1.454935,-0.113367274,
run,0.4396424,-0.07116981,-0.25847155,-0.33274275,-0.13223086,-0.27709594,0.06499055,0.23741087,-0.13511245,0.18251653,-0.7007632,-1.1062994,-0.07681262,-0.22965163,0.28392774,0.21353371,0.4055972,-0.4010556,0.38013357,-0.19605137,1.0420238,-0.0074227545,-0.34811652,0.20589976,0.93195,-0.14299417,-0.46045542,0.37059647,-0.6664343,-0.26951626,
callstack,0.19177939,-0.87720686,0.38516808,0.19358571,0.38372597,0.3403968,0.93589634,0.8048005,0.40108502,-0.2102884,-0.17080338,0.47863385,-0.52716094,0.515774,0.2298385,0.33299604,-0.16733998,0.3379884,0.5443924,0.41047242,1.7377402,-0.90488976,-0.021764051,0.6853174,1.5339258,0.11263134,-1.2485856,0.27396876,-0.18365946,-0.5744066,
ArrayList,0.20178352,-0.37718022,0.2539151,-0.38423768,-0.09967994,-0.1461669,0.21350215,0.06326259,0.32500446,-0.099016584,-0.351035,0.3033048,-0.7548849,0.416472,-0.17446218,0.074266754,0.4850443,0.862421,0.75853306,0.10397924,0.28972238,0.16862763,0.612635,-0.04699819,0.78047603,0.20624714,-0.7891514,0.6005427,-0.82993037,-0.12230734,
StringBuilder,-0.27941585,-0.027973406,0.15013804,-0.8601459,-0.6793527,0.49209067,-0.22742125,-0.07855757,0.06388499,0.07137534,-0.72744876,0.6818961,0.36524728,0.21695408,-0.34541047,-0.43947044,1.0287092,0.6608775,0.46372524,0.6252645,0.6253243,0.30358893,0.3677477,0.02188234,0.99198884,-0.39739844,-0.66028434,0.4418523,-0.4331965,-0.46464413,
toString,-0.05765514,-0.27454603,0.114483856,-0.44721025,-0.13888413,0.40290868,0.3748104,0.3146496,0.16986397,0.3469911,-0.4667436,0.4365716,-0.4346207,0.45332775,-0.018342461,0.1389198,0.48719847,0.5618551,0.22682574,0.40780303,0.7148948,0.13612054,-0.23296975,0.7074277,0.8900582,-0.37501675,-0.39169326,0.3257242,0.18552998,-0.37279117,
dispose(),-0.033370815,-0.090970166,-0.26925817,-0.81227887,-0.9823488,-0.42877084,-0.3589345,-0.24739549,0.5275276,0.09828971,-0.5702154,-0.75406957,0.13942182,-0.820321,0.13180427,0.2139192,0.83453774,-0.5127581,-0.14587387,0.09426636,0.911095,0.084530465,-0.28837246,-0.3726776,1.0318941,0.18605319,-0.22762768,0.450654,-0.6160894,-0.28512073,
JLabel,0.8305288,0.39232606,0.07138355,0.0603714,-0.578143,-0.3722522,-0.70761997,-0.082290806,0.6923406,-0.4644198,-0.5525753,-0.53241944,-1.0041747,0.22872293,0.24176934,0.68927985,0.732835,1.0113386,-0.13791767,0.27986854,0.3453938,-0.024322415,0.50561374,0.26800448,1.2631414,0.52912116,-0.04896772,0.5637417,-1.6557434,0.17076737,
getSize(),-0.022347603,0.03768198,0.42205897,-0.7538432,-0.3992567,-0.14086722,-0.6435157,-0.43358594,0.5736789,-0.49486062,-0.38999057,-0.6438119,-0.61826414,-0.47046298,-0.12750103,-0.53161365,0.4749994,0.19181006,0.29678485,0.15432273,0.2581436,0.6471994,0.17285785,-0.5210344,1.0167806,0.030373216,-0.3639957,0.027155811,-0.99664843,0.037972473,
interpreter,0.095805354,-0.93357205,0.51905185,0.088727355,0.4495527,0.32855317,0.94604236,0.7715659,0.3925477,-0.23095438,-0.13966964,0.4397492,-0.6614941,0.53084254,0.31290978,0.38859212,-0.15567982,0.5475187,0.583731,0.45233008,1.6438153,-0.78142756,0.12806353,0.6057186,1.4782082,0.20805348,-1.2014405,0.22908634,-0.14395323,-0.58852255,
InterpreterError,-0.2678035,-0.38658965,0.62745064,-0.26340756,0.5527768,0.043120544,1.136484,0.10069079,0.3631287,-0.43338224,-0.29626808,0.3981759,-0.4134096,-0.074600816,0.52799684,0.4448447,0.1042555,0.5316321,0.025834506,0.88104695,1.5509942,-0.52299845,-0.3923064,0.8451996,1.8385438,-0.30213654,-0.6296023,-0.065889046,0.5668701,-0.48426384,
getClass(),-0.05727509,-0.55157876,0.34844962,-0.4110496,0.46136174,0.28433815,0.9254957,0.5045383,0.41889477,-0.03391918,-0.5211757,0.4356131,-0.46500263,0.1464096,0.13149342,0.055793595,0.4714246,0.5588521,0.5330728,0.6988553,1.010248,0.1511929,-0.32223967,0.6544355,1.032462,-0.31703776,-0.47089684,-0.067717806,0.4391114,-0.31503475,
jj_ntk(),-0.23089151,-0.17068298,0.99235725,-0.63194895,-0.71628875,-0.4491222,0.49218056,-1.6895839,0.8673265,-0.6137825,-0.7826031,0.16590974,0.34209782,-0.66532433,0.7461817,0.7254278,0.7266821,0.27431983,-0.6672163,0.64612645,1.7942445,-0.11534261,0.77908003,0.6826523,2.1242719,-0.41446677,-0.8445186,-0.6154943,-0.12729506,0.16918667,
getColorProperty(),0.6649617,0.48894668,0.17743914,0.40381294,-0.6427543,-0.2838943,-0.80757934,-0.27854905,1.1087922,-1.0624226,-0.9277483,-0.938349,-0.95254093,-0.006541922,0.12663554,0.66925603,0.04849823,0.33306327,-0.28660944,0.4606731,0.8731834,0.38111907,-0.28632724,0.46734497,0.77308977,0.8821023,0.45510682,0.40894797,-1.1090525,-0.16510428,
println(),0.16229285,0.06429503,0.35500073,-0.22324453,0.33086094,-0.12637065,1.035214,0.01468747,0.12215472,-0.27897286,-1.0593231,-0.58164394,0.49916106,-0.34178197,0.44524673,-0.19994763,0.56404364,0.69861925,0.28929564,0.41703078,1.4132618,-0.1452196,-0.23401202,0.29476425,1.3418081,-1.1119082,-0.4306109,0.26071787,-0.80583084,-0.04875698,
org.gjt.sp.jedit.bsh,0.19501527,-0.56880444,0.18919255,0.3564678,-0.08877963,0.3903101,0.30076405,0.21468547,0.25472963,-0.19348836,-0.29349145,0.5723448,-0.06570967,0.1880691,0.011711527,0.0659257,-0.04748149,0.055954993,0.5543972,0.26506695,0.980977,-0.49731475,0.47122237,0.48281744,0.89506817,0.44623524,-0.9143474,-0.16779685,0.30162334,-0.50914514,
getSource(),-0.17150727,-0.26108626,-0.4747179,-0.61965686,-0.98826855,-0.40986422,-0.49446127,0.23840034,0.7497718,0.117121875,-0.42685196,-0.7127184,-0.9103589,-0.60593015,0.5032663,0.62935114,1.0121608,-0.42042702,-0.31899837,0.57353455,0.7303091,-0.21837416,-0.5801953,-0.32594007,1.2678078,0.4096582,-0.09778092,0.423054,-0.4087417,-0.48584402,
loadIcon(),0.827081,0.2595154,-0.24008563,0.14879476,-0.5964462,-0.55958754,-0.36017138,-0.3408908,0.5293261,-0.3638332,-1.0458537,-0.5019969,-0.879067,0.15870468,0.5791778,1.221958,0.5474212,0.7549892,-0.29879144,0.64960635,0.37832272,-0.29886445,0.2321691,0.60025597,1.2758015,0.3772629,-0.053050257,0.3074451,-1.2875046,0.34429908,
valueOf(),-0.12906556,-0.2676011,0.44157135,-0.70451117,-0.07525897,-0.16622946,-0.20828784,-0.6239587,0.01830092,-0.34781152,-1.0433109,-0.30018407,-0.41292903,-0.010105345,0.0939453,-0.463214,0.31664196,0.4323089,0.14542794,0.23065537,0.36397824,0.7031595,0.22002193,0.2244825,0.9661188,-0.4824541,-0.63102525,0.36722583,-0.85081375,0.015033714,
length,-0.16941631,0.17203833,0.7467245,-0.1505666,-0.7931823,0.57017756,0.2422423,0.14510766,0.65053135,0.13100022,0.6174486,0.7096306,-0.5603443,0.77154964,-0.101783276,-1.0778042,0.5161238,0.3135165,0.4211023,-0.42098337,1.4548926,0.37124118,0.8717863,0.46363693,0.9636755,-0.33176795,-0.63900703,-0.014236551,-0.22982964,-0.030000972,
setToolTipText(),1.016752,0.3065289,-0.30545288,0.18834959,-0.5680192,-0.64093894,-0.47641674,-0.18589464,0.6050841,-0.3698558,-1.2680044,-0.51442564,-0.6792016,-1.653732e-05,0.4288061,1.1771561,0.7231886,0.5336603,-0.31639564,0.6144374,0.44665617,-0.26348934,0.17410202,0.6854906,1.190047,0.19896929,-0.06699634,0.4475551,-1.2562135,0.3105376,
getValue(),-0.30654517,0.2296776,0.0861468,-0.42862386,0.18651605,-0.20829962,0.6668935,0.27947843,0.7731004,-0.28148353,-0.42061833,-0.545518,-0.5449422,-0.8257711,0.31899735,0.732882,0.6250622,0.5719962,0.24359931,0.38207886,0.41878587,0.57489336,-0.9381228,0.26916686,1.3904865,-0.10353781,0.4741427,-0.13318509,-0.012719758,0.24591191,
getIntegerProperty(),0.06796303,0.43551573,0.45891055,-0.18226033,-0.69608074,-0.0448382,-0.53437096,-0.10741113,0.39894626,-0.5484924,-0.15383203,-0.594026,-0.8638731,0.28927326,0.6686644,0.36225513,-0.05961935,0.6033818,0.57464325,-0.23492728,0.29757988,0.3976095,0.16630757,-0.021822663,0.86762804,0.6586949,0.05015275,0.05764752,-0.6780304,-0.06511862,
getLength(),-0.23256972,-0.006002009,0.38806888,-0.5968151,-0.044739466,0.26510888,0.2585387,0.1110821,0.3177853,-0.19683431,0.01255902,-0.20285583,-0.19380337,-0.27711236,0.32347804,-0.79682845,0.68582094,0.26295587,0.41478238,-0.34763694,1.0626955,0.46342385,-0.05394467,-0.18423893,0.94366837,-0.19116001,0.061866034,-0.23574707,-0.3130711,0.27872914,
getType(),-0.07490961,-0.33115312,0.3731332,-1.0015931,0.37706733,0.03228647,0.342855,0.18522356,0.29091418,-0.29871023,-0.37798676,-0.26893532,-0.84491324,0.08368623,0.3526839,0.25828522,0.4742648,0.8612432,0.6715764,0.31114072,0.47117597,0.17750272,-0.14060251,0.2599436,1.0457689,-0.03963621,-0.24658847,-0.029414527,-0.19230372,-0.06934238,
jjtGetChild(),-0.17022431,-0.82728523,0.8394931,-0.36951256,0.39908877,0.14380106,1.0455894,0.40764874,0.52075624,-0.23524389,0.030879442,0.29573634,-0.5479781,0.46075517,0.45976403,0.2202262,0.17688799,0.7575734,0.57832557,0.3395107,1.3676583,-0.7101196,0.0771236,0.36309528,1.5753936,0.066585205,-1.2483206,0.105937205,-0.40922713,-0.4020181,
event(),0.93498814,-0.13182318,-0.0049949144,0.46328604,-0.40589684,-0.57317555,0.19266003,0.27637693,0.35001335,-0.2123492,-1.0393276,-0.006045784,0.4007079,-0.44597164,0.5484135,0.9785936,0.262992,-0.6013007,0.028646262,0.42051256,1.6002693,-0.9339223,-0.23854256,0.8067726,1.564608,0.20945117,-0.22624974,0.304375,-0.6302721,-0.65059537,
max(),0.19672585,0.53292274,1.0616356,-0.55819994,-0.9379629,-0.4929504,-0.60299295,-0.5293665,1.1617627,-0.5449794,0.63786525,-0.1567505,-0.76245385,-0.017454756,0.436003,-0.45114318,0.73348194,0.6056557,0.2062695,-0.45424432,0.38993326,0.47098398,1.151408,-0.19945548,1.1126145,0.10086136,-0.08124375,-0.29946625,-0.8586065,0.25400007,
consume(),-0.19902799,0.26578802,0.138507,-0.6539266,-1.0035896,-0.5054833,-0.15994172,-1.374247,1.0790058,-0.3321231,-0.5967333,-0.42870718,0.030318404,-1.1811459,0.096288,0.38161418,0.9793882,-0.27463603,-0.61914915,0.62643284,0.9323058,0.4405952,0.00684781,0.259884,1.1788437,-0.2791893,0.25499985,-0.18773642,-0.112758376,0.23348232,
getPreferredSize(),0.5517078,0.32298234,0.75293016,-0.25723767,-0.66089565,-0.40876004,-0.67363673,-0.21474893,1.1258559,-0.41082618,0.5127829,-0.32811463,-1.0742856,0.006350919,0.22704853,0.29364583,0.39680052,0.6188852,0.1338684,-0.020890748,0.09831089,0.020251855,1.0111933,-0.24549215,1.2595084,0.61728156,-0.15780878,-0.0223106,-0.96221554,-0.18461019,
index,-0.13320334,0.38195798,0.21533978,-0.118656754,-0.42678416,0.3307215,0.4130244,-0.1255714,0.25828645,0.10089523,0.16699308,0.5537977,-0.7887385,0.69587207,-0.22205958,-0.3539932,0.047637157,0.5996989,0.21669598,-0.21991213,0.6353057,0.34370756,0.31708378,0.7703669,0.9668452,-0.25802153,-0.34215412,0.42728955,0.0652069,0.22073077,
constructPath(),0.26060525,-0.4114518,-0.030652428,-0.8823765,0.10700126,-0.2625948,0.098355204,0.60464746,0.16134739,-0.0061746025,-1.0590854,-0.76900053,-0.6136515,0.29904494,0.87025714,0.3033053,0.79064184,0.959838,0.5940421,-0.059136055,0.75642127,0.1379428,-0.085164875,0.13839288,0.75155735,-0.31527597,-0.49635553,0.25343058,-1.1343375,0.25062302,
moveCaretPosition(),-0.35176402,0.22298947,0.4987476,-0.16125883,-0.7721022,0.030912047,-0.1319055,-0.24773009,0.883442,0.025847163,0.75406307,-0.2843583,-0.37806392,-0.33743456,0.157442,-1.0254045,0.8577428,-0.39888242,0.12337927,-0.58928794,1.2399498,0.5543936,0.515217,-0.18251644,1.0414014,0.08018521,0.08449151,-0.2461909,-0.20379646,0.088634804,
getWidth(),0.19473615,0.6992666,0.9200741,0.047404356,-0.963334,-0.21867064,-0.6068698,-0.18347529,1.3321791,-0.30470708,0.69945025,-0.71191615,-0.64726573,-0.3059169,0.3772223,-0.3042474,0.33982515,-0.01498995,0.3019824,-0.51735204,0.52914345,0.39666405,0.48769924,-0.17238562,1.2826836,0.46259657,0.21440753,-0.37898517,-0.5293249,0.002548364,
BorderLayout,1.0798846,0.30526313,0.006639114,0.4635518,-0.51824147,-0.2849038,-0.7114489,0.41953576,0.7126307,-0.18753639,-0.5272474,-0.25917313,-0.9451183,0.5472588,-0.16763823,0.58238286,0.30632433,0.78008497,0.04734785,0.06730622,0.41541576,-0.4179282,0.6682729,0.41279477,1.3059517,0.6161595,-0.62113565,0.80276376,-1.4674166,-0.18563971,
parent,0.35201076,-0.07601453,-0.052188594,0.13488863,-0.19838387,0.03181619,-0.07584662,0.7503067,0.4846592,0.12440202,-0.11995662,-0.18023467,-1.1367539,0.5232949,-0.02723997,0.12493518,0.17707263,0.38289145,0.3573784,-0.17564999,0.4612391,-0.3886798,0.15108575,0.6540177,0.65441173,0.07516668,-0.25113454,0.57889986,-0.21265797,-0.12320142,
getLineCount(),-0.29909027,0.051398743,0.9100146,-0.35496044,-0.15091516,0.13579535,0.46066967,-0.18886288,0.8417905,-0.26482618,0.6241533,-0.21637224,-0.35714936,-0.22108836,0.39566764,-1.0459596,0.45787343,0.10930306,0.5894504,-0.61077213,1.2002246,0.41657898,0.622383,-0.17812294,1.164119,-0.03965027,-0.13379605,-0.6135978,-0.13141832,0.20676993,
EmptyBorder,1.1994606,0.40998542,0.01945659,0.44851708,-0.53733426,-0.40887702,-0.74956733,0.23773222,0.73284185,-0.27023768,-0.716431,-0.33638465,-0.8979686,0.4086712,-0.010349791,0.711121,0.40245968,0.8423268,-0.19696416,0.14554468,0.51384115,-0.390851,0.6425277,0.45172134,1.4874607,0.49677664,-0.589385,0.77196926,-1.6933237,-0.009295726,
requestFocus(),0.45215,0.15185772,-0.24387772,-0.28094754,-0.6347086,-0.4918949,-0.24899937,-0.3379887,0.62195903,0.020700358,-0.40772545,-0.9943468,-0.10260741,-0.70669544,0.20819129,0.18430483,0.46459946,-0.755004,-0.14904548,-0.03732365,0.9302019,0.23806377,-0.034877144,-0.104787365,0.70362514,0.17160842,0.27875435,0.17626764,-0.44557655,-0.07437837,
JButton,1.0992959,0.48038718,0.058946796,-0.07815229,-0.77234656,-0.88796157,-0.5003945,-0.49233046,0.6589852,-0.29044002,-0.90994817,-0.34875232,-0.5808509,-0.07845165,0.4247225,1.23533,1.0186203,1.0727271,-0.4069892,0.5915924,0.45807576,-0.36642817,0.66386193,0.5363945,1.9171791,0.18360479,-0.3553359,0.5025291,-1.8496076,0.33060828,
indexOf(),-0.31006366,-0.15126552,0.123299874,-0.9375218,-0.43208158,0.14617954,0.2775862,-0.1584969,0.21793756,-0.11464311,-0.18866496,0.097603805,-0.5435612,0.081451066,0.41943645,-0.5091618,0.9364782,0.6613861,0.11287247,0.022901567,0.7857236,0.4711055,0.2902315,0.20054811,0.94096756,-0.60872567,-0.14729705,0.0393538,-0.37975666,0.5183808,
end,-0.12407896,0.31144083,0.60545075,-0.038817365,-0.7308875,0.53671247,0.029975362,0.108030744,0.6655918,0.05148325,0.6042098,0.37673223,-0.43894303,0.4632238,-0.0942161,-0.9530779,0.30693698,0.13015069,0.4739103,-0.3964403,1.1519389,0.3763546,0.78130096,0.37516528,0.83234304,-0.10160417,-0.26634645,-0.14757214,-0.025995275,-0.09054632,
getTextArea(),0.122269444,-0.067482464,-0.08721732,-0.33338612,-0.5855405,-0.04750688,-0.41431335,0.1368221,0.56881297,0.11177903,-0.14126779,-1.0301154,-0.39236182,-0.4841584,0.19015756,-0.35887977,0.6656159,-0.57694536,0.2775859,-0.30479303,0.855908,0.3741814,-0.15515459,-0.30983287,0.6980363,0.3506219,0.16460463,0.12232149,-0.47189403,-0.23629132,
Runnable,0.45866188,0.037666526,-0.1425943,-0.32411948,-0.13038851,-0.42269877,-0.010755272,0.16845389,-0.0040513133,0.10468646,-0.7893097,-1.2012284,0.101133466,-0.27316663,0.2124139,-0.00677892,0.38081643,-0.5295932,0.35060292,-0.14232492,1.0271715,0.017548509,-0.3274079,0.251921,0.928381,-0.19455285,-0.35378966,0.4898956,-0.7278893,-0.2582646,
setSelectedIndex(),-0.04822697,0.36281264,0.34589893,-0.5220187,-0.55053693,-0.4029912,-0.54061335,-0.5567067,1.0552093,-0.7728607,-0.4921569,-1.0643283,-0.9080725,-0.7825392,0.3543514,0.48052588,0.89170825,0.50612444,-0.07671522,0.49081028,0.15910001,0.614674,-0.3188356,-0.2611573,1.2376401,0.22099303,0.26681238,-0.053178582,-0.8922054,0.21671532,
send(),0.10472758,0.2387905,-0.0025376817,-0.27530628,-0.17400092,-0.05164706,-0.018808715,0.33327758,0.5226964,-0.097510144,-0.25586107,-0.66884136,-0.48823422,-0.004417686,0.121604316,-0.21621767,0.27452573,0.024400432,0.22228996,-0.26870948,0.6126166,0.43632668,-0.23354568,0.10191806,0.54306865,0.023616588,0.20990151,0.3630693,-0.29176608,0.11376037,
getModel(),-0.06567459,0.04865468,0.0023466013,-0.6297641,-0.7030458,-0.046465136,-0.40657735,-0.27174217,0.65615714,-0.090925366,-0.10867552,-0.1195952,-0.7046373,-0.21489623,-0.29022235,-0.12872705,0.7366074,0.23920725,0.27678946,0.24698122,0.21463586,0.3533716,0.13008593,-0.24060702,0.81116617,0.3443354,-0.12274184,0.3357028,-0.5305032,-0.21090488,
arraycopy(),-0.35560045,0.44960493,1.40821,-0.37876648,-0.12372185,-0.14585947,0.3551664,-0.10803909,0.6564954,-0.31106433,0.46765092,-0.19765176,-0.4698168,0.5807748,0.4813372,-0.26924068,0.2250894,1.0036812,0.25986633,-0.45133382,0.9299158,0.17188023,0.5499355,0.34613967,1.4248166,-0.28704348,-0.54916036,-0.06899983,-0.5172848,0.024453701,
createGlue(),1.204706,0.486027,0.12224131,0.03227119,-0.6196029,-0.844939,-0.3948896,-0.41410598,0.840587,-0.3432205,-0.7929059,-0.6729866,-0.6743769,-0.13369553,0.19697192,0.9421432,0.88572574,0.88522804,-0.25938925,0.2666328,0.36237326,-0.18647704,0.6051404,0.4102917,1.716856,0.3353185,-0.17894165,0.56325406,-1.815854,0.35678264,
id,0.27400047,-0.5016009,0.2541683,0.34264398,-0.22798932,0.45941618,0.32649243,0.3610753,0.29644188,-0.15652756,0.111184284,0.8611469,-0.18379197,0.45501238,-0.084055565,-0.2211498,-0.18082714,0.025565341,0.6241234,0.0321666,1.2228653,-0.47807813,0.81305116,0.57657796,1.0288311,0.20403078,-0.94955194,-0.029963212,0.2892343,-0.42042568,
org.gjt.sp.jedit.gui,0.73675424,0.022207672,-0.4037306,0.47739556,-0.477605,0.1250657,-0.4132687,0.37597296,0.38699585,-0.08859849,-0.42207962,-0.03725018,-0.63665605,0.2604963,-0.29097626,0.24183239,-0.06066242,0.035327286,0.23694234,0.05487966,0.40063354,-0.15395692,0.46490362,0.5234276,0.578307,0.5577908,-0.10675355,0.4433786,-0.27199626,-0.2454088,
createHorizontalStrut(),1.2387662,0.52261174,0.005724465,-0.031827282,-0.6611135,-0.88418984,-0.28892988,-0.63612014,0.6946052,-0.33057845,-1.0223702,-0.44679847,-0.50634307,-0.13557361,0.26187244,1.1689388,0.9088243,0.91480905,-0.40910482,0.4749631,0.36702165,-0.2786831,0.5752255,0.68841976,1.8271042,0.08497876,-0.15905142,0.49757835,-1.7139064,0.5226469,
getLineEndOffset(),-0.40139616,0.029131316,0.8789602,-0.47860464,-0.44325426,0.19556221,0.34587985,-0.23267353,0.78026086,0.0051340917,0.685886,-0.21266165,-0.42083323,-0.015424946,0.4467081,-1.0606822,0.7894549,0.008874856,0.32519695,-0.6220124,1.4616482,0.5238288,0.41271496,-0.028320104,1.2238295,-0.19353583,-0.23719575,-0.5085425,-0.30627736,0.23574916,
put2(),-0.41603503,0.5270944,1.3066144,-0.30650017,0.16113658,-0.30663294,1.0148761,-0.11817054,1.3305539,-0.8556281,0.41157165,-0.707919,-0.38238412,-0.5291249,-0.051114697,-1.0690017,-0.016022343,0.57202923,-0.05426162,-0.7358472,1.7062593,0.48287928,0.39675283,0.06991542,1.4606254,-0.34075013,-0.3788321,0.11908231,-0.6669942,0.28464156,
setColor(),0.32462168,0.79127944,0.98132277,0.11156018,-1.1064339,-0.21132275,-0.6382206,-0.24827759,1.2817813,-0.1506294,0.74069613,-0.5663981,-0.4261762,0.020668775,0.0030233068,-0.7412335,0.23572399,-0.22225581,0.07118218,-0.8418381,0.8578189,0.38097033,0.942642,-0.0059689474,1.050583,0.20820102,-0.15271865,-0.054750312,-0.7859055,0.056952108,
endsWith(),-0.2311183,-0.37036657,-0.24082541,-1.1337327,-0.15810902,0.13199161,0.28990293,0.35417998,-0.09377987,-0.03245528,-0.6385062,-0.2265653,-0.6266886,0.17446996,0.63307154,-0.2162303,1.0667417,0.8883323,0.646576,0.08403879,0.9087788,0.15815762,-0.18369795,0.36557713,1.1185344,-0.6372632,-0.24229051,0.19914696,-0.7966563,0.45237806,
Dimension,0.5922144,0.23833275,0.3754107,0.104671694,-0.7086415,-0.16326901,-0.5662869,0.1114346,0.9441298,-0.23709291,0.3108679,-0.30464348,-1.1868762,0.1821876,0.12353609,0.31214243,0.20866238,0.41731352,0.20821834,-0.23190829,0.19983213,-0.0073774806,0.75174844,-0.09408945,0.94338065,0.70830095,-0.08234634,0.15267433,-0.83977586,-0.119267546,
eval(),-0.0579852,-0.7047941,0.62105477,-0.44140738,0.33283386,-0.03603248,0.94727373,0.13353223,0.16928016,-0.17240338,-0.41598052,0.1750299,-0.027115308,0.071401596,0.5634914,0.22880311,0.24171431,0.45757964,0.5003691,0.11281464,1.3320701,-0.36528286,0.034848403,0.4583001,1.1807182,-0.24691069,-0.8041203,0.013941743,-0.12172471,-0.24116482,
next(),-0.23514873,-0.5864409,0.52734745,-0.61939305,-0.043236222,0.08471158,0.73384535,-0.16994615,0.47701868,-0.19085765,-0.06530667,0.3036083,-1.0219282,0.08200566,0.09742759,-0.2812704,0.6523726,0.91879517,0.36871135,0.118087344,0.4037767,0.5471136,0.87463856,-0.27881792,1.2455329,-0.08660752,-0.46438143,0.41670892,-0.83013123,0.3836198,
sort(),0.20695765,0.0072896928,0.13512374,-0.32413873,-0.23985067,-0.12286415,-0.007944512,-0.26615173,0.44440246,-0.34053448,-0.34167558,0.15105227,-1.0094118,0.3969626,-0.27744094,-0.0021570404,0.31948927,0.8101391,0.5159916,0.078926906,0.11527535,0.3762285,0.42918694,0.1305388,0.73737836,0.13497886,-0.42856723,0.42743292,-0.6745207,0.21997467,
UtilEvalError,-0.20496644,-0.54743093,0.6089362,-0.4561412,0.7328147,0.06481825,1.1406939,0.31024304,0.42343795,-0.4736287,-0.3976952,0.143889,-0.49113825,-0.12102412,0.5626852,0.38891006,0.27475888,0.6565696,0.21987967,0.8555518,1.3802681,-0.39244658,-0.31812558,0.62768126,1.5171636,-0.19660111,-0.4377107,-0.22917096,0.39186546,-0.42526764,
Vector,0.19861002,-0.25179356,0.25982368,-0.32253173,0.12038627,-0.037858922,0.17271216,0.29663378,0.20000304,-0.3789529,-0.4811856,0.1852692,-0.5175962,0.28538716,-0.03488942,-0.1406707,0.34384012,0.953598,0.7446624,0.115898944,0.43541697,0.026979916,0.3504589,-0.042510543,0.93714005,0.048904065,-0.7963349,0.43652675,-0.90249443,-0.027729003,
EvalError,0.08139236,-0.7326377,0.6291762,-0.28375277,0.69903326,0.031233855,1.0647712,0.41092685,0.25652325,-0.3146789,-0.47238246,0.25961626,-0.30817816,-0.013335886,0.6740394,0.476789,0.28931925,0.6128523,0.36597323,0.45948225,1.6553932,-0.7731421,-0.24524736,0.57739335,1.7415859,-0.030374931,-0.8905847,-0.14528315,-0.1300111,-0.44720685,
SynchronizedStatement,0.15657677,-0.15992321,0.26230973,-0.3360211,0.177278,-0.09395578,0.45978564,0.38947046,0.15227845,-0.16072448,-0.31379008,-0.14048293,-0.6247841,0.3727065,0.25535044,-0.27802894,0.35327485,0.5961204,0.5536679,-0.2767175,0.7159659,0.094136454,-0.014075263,0.16104628,0.8360283,-0.18919855,-0.55683994,0.3189569,-0.690337,0.20370069,
repaint(),0.2093463,0.31947866,0.15105908,0.12643963,-0.42234117,-0.10877192,-0.121339165,0.15185274,0.6537113,-0.06872313,0.07591092,-0.7314156,-0.5266154,-0.14449604,0.2563305,-0.05696266,0.070320785,-0.1327484,0.15112989,-0.53401554,0.5689322,0.23444031,0.04443905,0.055165913,0.7493308,0.2326815,0.20645462,0.19162022,-0.5010487,0.17777176,
Hashtable,-0.16895694,0.040313013,0.32469997,-0.26835167,0.25590944,-0.005721881,0.58526707,0.6203319,0.517,-0.41983283,-0.29370773,-0.14911593,-0.871234,0.45435402,0.10096891,0.15909232,-0.033947285,1.196265,0.17889549,0.09367202,0.56671923,0.011808589,-0.010805184,0.35642356,1.0252937,-0.06509394,-0.58438134,0.7003634,-0.29854307,-0.052733596,
toArray(),0.34895247,-0.23699509,0.28563893,-0.4114967,-0.011059407,-0.28678423,0.6602966,0.019722452,0.3200877,0.02478845,-0.3015639,0.124945365,-0.8021988,0.45716327,0.007110248,-0.04158533,0.5541413,0.89199126,0.8776769,-0.27831805,0.3565453,0.34398636,0.2845631,0.13740014,0.87698275,0.060218696,-0.46580315,0.4392129,-0.92905825,0.2822419,
textArea,0.06222226,-0.05863291,-0.12593368,-0.011158371,-0.53700995,0.23313779,-0.15727663,0.31575432,0.41718042,0.1719465,-0.046027508,0.016368952,-0.38397363,0.032338426,-0.16482058,-0.44147515,0.36589122,-0.18283242,0.27323955,-0.15820855,0.67204696,0.32087034,0.2127638,0.10426271,0.58204025,0.16052018,-0.09648076,0.37305436,-0.006382868,-0.3069554,
hasNext(),-0.19683503,-0.6277224,0.47024107,-0.7467209,-0.14608338,-0.2233668,0.61371076,-0.29966393,0.6510191,-0.44527635,-0.13886882,0.22418661,-1.0973277,0.036891554,0.20593143,-0.18043675,0.7587408,0.9303753,0.23011482,0.34739187,0.2051055,0.6323707,1.1031537,-0.37243068,1.1844931,0.093570895,-0.49678797,0.4735515,-0.7999356,0.34998542,
y,0.19281343,0.21429601,0.51463014,0.38088328,-1.0354537,0.4318611,-0.2862126,0.1494394,0.82037175,-0.039963536,0.63239616,0.24758938,-0.780408,0.3462173,-0.0073460178,-0.7337839,0.22996797,-0.11830093,0.652093,-0.61677,1.0296872,0.32230625,0.9077742,0.18204765,0.86352825,0.38632727,-0.27291322,-0.15454914,-0.34652975,-0.14342661,
getFont(),0.28796786,0.5406592,0.07369623,-0.05946384,-0.86687416,0.011473896,-0.93863565,-0.09130984,0.72959864,-0.31769502,-0.07439219,-0.49662092,-0.46961933,-0.09822997,-0.07980585,-0.15700021,0.3446681,0.115157165,-0.10108545,0.029703157,0.39594248,0.33523485,0.24390559,-0.15226084,0.8336451,0.46641192,0.112815484,0.31231952,-0.8578914,-0.12665793,
setVisible(),0.4976835,0.30529988,-0.28234422,-0.034617152,-0.75951356,-0.5045287,-0.50555646,0.048367996,0.8228304,0.05495818,-0.43235013,-1.0037981,-0.34603122,-0.6085006,0.19222903,0.41195115,0.48224086,-0.41146478,-0.14007577,0.030375782,0.6052176,-0.076853916,-0.197345,-0.08392249,1.0323702,0.36875072,0.13908382,0.36418903,-0.682899,-0.076133355,
Primitive,-0.62819356,-0.16119196,0.2996697,-0.40218535,0.13355167,0.2052453,1.051245,0.024192672,0.14789769,-0.3540764,-0.24782427,0.3497581,-0.3419262,0.218967,0.4368622,0.2223098,0.018576013,0.8085849,-0.028994942,0.5529684,1.4213246,-0.47522688,-0.33934113,1.0632477,1.5778981,-0.47211984,-0.6581552,0.055927068,0.45961332,-0.08663277,
openNodeScope(),-0.048662238,-0.35287628,0.6320903,-0.025003111,-0.27686325,0.15154594,0.32344872,-0.83502024,0.33271548,-0.6225291,-0.46891597,0.396237,0.5541438,-0.51793677,0.5018875,0.6128135,0.30942026,0.20629448,-0.13714649,0.37192202,1.6057874,-0.6377512,0.58500856,0.34590143,1.8565415,0.13682416,-1.1029103,-0.72661054,-0.15002726,-0.14353637,
jjtreeOpenNodeScope(),0.010325888,-0.34199643,0.7415254,-0.16832802,-0.17658003,0.052785095,0.33048585,-0.88323647,0.28070536,-0.6175401,-0.53747743,0.4283004,0.5586108,-0.5493832,0.6228178,0.6772297,0.3631892,0.17202045,-0.09499562,0.31498218,1.7360748,-0.533557,0.5580805,0.4124298,1.9039418,-0.03048724,-1.1793011,-0.84853315,-0.23874363,-0.033429876,
getCaretPosition(),-0.3751776,0.0727518,0.37791997,-0.44965106,-0.56718063,0.14974998,-0.067331634,-0.13569643,0.7398943,-0.12325431,0.40287167,-0.36646298,-0.51236886,-0.2749676,0.13347277,-0.8110831,0.6835825,-0.12981454,0.3241037,-0.40689364,0.990892,0.64681786,0.30613253,-0.27056274,0.8466433,0.12750676,-0.0057349503,-0.10920562,-0.2692265,0.114427924,
close(),0.20184259,-0.45746535,0.3558552,-0.44714114,0.35589543,-0.24334222,0.3403437,0.12078035,0.0652152,-0.2684809,-1.1833065,-0.47366253,0.3907248,-0.27256718,0.35397378,-0.47698823,0.46995917,0.035669733,0.64087665,-0.071936294,1.123703,0.13356143,-0.062806435,0.25422102,0.821784,-0.51782304,-0.66930056,-0.0014131758,-0.85008395,0.0031034923,
toLowerCase(),-0.2178349,-0.16383608,0.009034692,-0.88474333,-0.19989748,0.17369252,0.14436127,0.14532137,0.19761519,-0.21926738,-0.5027531,0.050252408,-0.85781497,0.25251174,0.26254225,-0.4342262,0.750825,0.91261363,0.565032,0.15151943,0.66452897,0.5735566,0.023563426,0.21125792,0.7652229,-0.42006332,-0.2022312,0.1843258,-0.5541246,0.39642847,
insert(),-0.31829047,0.16822849,0.40174857,-0.7978375,-0.4328967,0.15073462,0.0769466,-0.107048005,0.3666202,-0.24619725,0.03670541,-0.06690298,-0.2850342,0.04783864,0.24072298,-0.9418344,0.8400818,0.53405607,0.32947776,-0.35232297,0.9626277,0.78977364,0.3006868,-0.07392177,0.8459054,-0.3681668,-0.09195344,0.027363878,-0.61596435,0.31464788,
getX(),-0.080820926,0.33887234,0.50104046,-0.11107459,-0.99492794,-0.2918314,-0.4453653,-0.23973283,1.2354244,-0.17474395,0.5579903,-0.51159406,-0.7750353,-0.5455563,0.42599785,0.08653146,0.63188994,-0.23604152,0.23738858,-0.13252428,0.3363387,0.389917,0.2741006,-0.17318156,1.1165816,0.5717913,0.41275328,-0.20389923,-0.1467801,-0.16512604,
jjStartNfa_0(),-0.36477992,0.038752325,1.1823477,-0.10755942,-0.7469494,0.008019691,0.77393055,-0.9024062,0.56801975,-0.15581489,-0.23098157,0.44559547,0.38037965,-0.105366446,0.8357525,0.47953892,0.010897587,-0.24904904,-0.0908432,0.032270644,2.0773242,-0.160397,0.67416286,1.2657955,1.6001952,-0.53784007,-0.74846065,-0.8116203,0.7879843,-0.1416769,
org.gjt.sp.jedit,0.20904031,-0.039644837,-0.17482558,0.10748921,-0.385414,0.24921891,-0.058193166,0.29642347,0.32121852,-0.055483613,-0.31989798,0.02249985,-0.51162434,0.16421182,-0.029862601,0.050791252,0.010207213,0.03700083,0.33667362,-0.047710348,0.56321824,0.07842573,0.14899486,0.3496813,0.59973264,0.2851638,-0.13295987,0.20560576,0.01619904,-0.14778562,
exists(),0.1309142,-0.40342656,0.07391839,-0.73158705,0.12976117,-0.2675742,0.27324542,0.47944492,0.15707771,-0.01590908,-0.85671663,-0.6945366,-0.49594325,0.2644014,0.8683856,0.29457864,0.49367687,0.6542879,0.6405557,-0.09331014,0.92995375,-0.014975407,-0.19359215,0.25721902,0.68177515,-0.23580994,-0.42003998,0.1902204,-0.86051625,0.08556551,
t,0.22274831,-0.1606798,0.55517924,-0.11976628,0.22879449,-0.110682055,0.48164263,0.5410607,-0.009437907,0.122972384,-0.62812763,-0.2387469,0.06720871,0.28104055,0.5223848,-0.26481906,0.27326185,0.26023418,0.9493106,-0.29074237,1.1473169,0.10148029,-0.070294775,0.45254156,0.99447286,-0.35768518,-0.59781486,-0.102792084,-0.72770596,0.03174001,
str,-0.29348734,-0.008776874,0.079667844,-0.7760782,-0.9022848,0.39590228,-0.07017496,-0.3592261,0.24611837,-0.041341566,-0.20068955,0.65982926,-0.22159372,0.25745434,-0.08390184,-0.5525059,0.6471202,0.38575682,0.44092664,0.13461822,0.7181916,0.59795576,0.47871497,0.25159705,0.63499707,-0.36763647,-0.2543893,0.14136674,-0.1153979,0.019411743,
getY(),-0.045568757,0.30507863,0.5938087,-0.088677794,-0.920309,-0.20809142,-0.37394318,-0.20934702,1.3226162,-0.22946966,0.6418982,-0.58868337,-1.0400896,-0.47786602,0.48937386,-0.13324796,0.6591742,-0.10647346,0.19748813,-0.3268835,0.5432057,0.50979495,0.22285189,-0.2901257,1.1270862,0.58449763,0.41150847,-0.34696925,-0.31378308,-0.016624384,
jjStartNfaWithStates_0(),-0.520322,0.26516366,0.4392154,-0.4424241,-1.2458458,-0.08137468,0.5609554,-1.3954375,1.0360944,0.03396513,-0.49962866,-0.02439623,-0.399478,-0.014221447,0.5093164,0.94517475,0.42889678,0.11656504,-1.3058282,0.74160683,1.6816208,-0.05274123,0.21530086,1.4367539,1.5942072,-0.54455787,-0.14787532,-0.060809366,0.7048246,0.121968165,
getMode(),0.0724875,0.07091275,-0.1873929,-0.7493602,-0.339186,-0.29433855,0.004473925,-0.44519013,0.46865076,-0.1995373,-0.61539084,-0.6256016,-0.57293975,-0.29048532,0.2279758,0.3385331,0.64933383,0.4424129,-0.16498207,0.35394365,0.27496603,0.63001853,-0.08988683,0.23518424,0.76721555,-0.12755165,0.34087715,0.24697484,-0.39099845,0.2883033,
args,0.23766801,-0.4326875,0.15569112,0.09252194,0.3646926,0.24118012,0.50158525,0.68490887,0.08994531,-0.0728051,-0.6421584,0.23772983,-0.5369948,0.3717946,0.07791892,0.22384,0.06184008,0.5698913,0.66197455,0.39099482,0.815522,-0.4585375,-0.13878587,0.7769116,1.0796072,-0.035428427,-0.6084376,0.2842435,-0.030347532,-0.3042745,
getSelectedIndex(),-0.31064314,0.1360631,0.13102047,-0.89945906,-0.719212,-0.10418004,-0.58929884,-0.2692998,0.5645766,-0.40692908,-0.5173755,-0.77937144,-0.34496164,-0.5697305,0.20461835,0.19773419,0.73888886,0.24781653,0.012677081,0.4045986,0.54229105,0.364663,-0.48012587,-0.3893904,1.1910783,0.17578328,-0.17689201,0.17276494,-0.77859527,-0.1452748,
Integer,-0.5026374,0.24622814,0.5249015,-0.63148487,0.38847977,0.0068107503,1.0717871,-0.33823106,0.41407785,-0.58252114,-0.61300015,0.008202081,-0.18982723,0.14004207,0.18131132,0.46547386,-0.06971671,1.3240901,-0.46064165,0.7865649,1.2355214,0.02014764,-0.20801434,1.0948563,1.5439157,-0.7114209,-0.7141277,0.3480419,-0.01761696,0.16748549,
getVFSForPath(),-0.09657469,-0.12822738,0.09055936,-0.7419066,-0.07355538,0.031864673,0.13394567,0.4433539,0.2506477,0.0043837065,-0.39793202,-0.5473533,-0.8074033,0.32426795,0.50389504,-0.15071158,0.8375572,0.700749,0.4320962,-0.16895774,0.7035813,0.36851412,-0.2752362,0.2993401,0.72439945,-0.32328287,-0.15958141,0.21406971,-0.5338656,0.20406437,
setFont(),0.31393334,0.34432414,0.2695934,0.015801718,-0.6672705,-0.2588002,-0.65872586,-0.03971938,0.86074936,-0.265625,-0.089008786,-0.5613627,-0.632165,-0.094003096,0.10351661,-0.2034986,0.38680297,-0.00692027,0.039251953,-0.089065485,0.40105483,0.32516813,0.37974608,-0.15974884,0.6041088,0.40522206,0.10899252,0.21905747,-0.8100636,-0.053557325,
setIcon(),0.52306354,0.14528546,-0.280678,-0.17466642,-0.47937733,-0.3402475,-0.5134858,-0.1054744,0.48572686,-0.27101552,-0.70672214,-0.50879043,-0.7716446,-0.061088227,0.2562898,0.62962043,0.52056813,0.36742413,-0.11992212,0.3678289,0.38557848,-0.05629103,0.06198767,0.15893556,0.99946177,0.4315395,-0.016076934,0.3423373,-0.9836673,0.0028886998,
contains(),0.018109417,-0.046483543,0.523883,-0.80445933,-0.17755456,-0.29274565,0.20370273,-0.09790182,0.3992388,-0.19663042,-0.24911395,-0.1836072,-0.5412397,0.102665305,0.34105375,-0.41910622,0.6990668,0.750224,0.65368557,-0.15442587,0.50271827,0.55305064,0.387275,-0.111546665,0.7923445,-0.23476447,-0.22466303,0.11543186,-0.9438721,0.34313136,
parseInt(),-0.35081115,-0.02475085,0.17856647,-0.90623415,-0.18698144,0.077427536,0.21774821,0.09833841,0.1434554,-0.40155596,-0.65230894,-0.22418652,-0.05581196,-0.5091252,0.8584993,0.056987982,1.0050856,0.5281187,0.39415804,0.41314107,0.9187654,0.43891278,-0.5879189,0.2622641,1.3795081,-0.6415186,0.015191128,-0.47448295,-0.23517554,0.28998232,
c,-0.036874846,0.20937555,0.23664773,-0.37717137,-0.6207626,0.22522305,-0.016066208,0.021314625,0.253282,0.076384895,-0.10599006,0.24244331,-0.010141099,0.1942416,0.2135837,-0.20966503,0.3112106,0.08826712,0.24067524,0.16644911,0.6693341,0.5351705,0.3586668,0.35653123,0.68564045,-0.25733972,0.0090917265,0.02562644,0.016649486,-0.22754566,
selectNone(),-0.38430205,0.19918212,0.5032894,-0.31448957,-0.62715846,0.038615778,0.043595374,-0.17917898,0.7938098,-0.06801299,0.49484652,-0.31479058,-0.28456667,-0.22407708,0.28544316,-0.97726625,0.70291865,-0.2024169,0.18868826,-0.5109077,1.1851709,0.57483494,0.5235426,-0.13000871,1.0112019,-0.09013066,0.026472101,-0.24303058,-0.2132319,0.20456386,
drawLine(),0.39841992,0.7411142,0.85014135,0.22771694,-0.8774298,-0.3224164,-0.39944112,-0.27097175,1.1143996,-0.12389273,0.755839,-0.5576421,-0.25429028,-0.008404408,-0.08767015,-0.77573925,0.34640318,-0.24643487,-0.17728472,-0.9385251,1.0140568,0.2892941,0.9413362,0.2807494,1.1026791,-0.011774212,-0.11233237,0.057370193,-0.6403416,0.20685913,
ParseException,-0.26472726,-0.28257918,0.78909004,-0.4827024,-0.040964663,-0.113185,0.69783175,-0.9149355,0.57514507,-0.5729425,-0.5819916,0.113998145,0.30175504,-0.6986435,0.55312586,0.76512295,0.3822302,0.3340764,-0.29585844,0.7400792,1.3822224,-0.4986892,0.31472608,0.51841027,1.9149075,-0.0834151,-0.6254583,-0.57159,0.29613882,-0.25957936,
startLine,0.061757974,0.17488354,0.62402534,0.020350901,-0.7740444,0.5441411,0.28992152,0.46892774,0.6667786,0.021730142,0.47394305,0.32413822,-0.7510514,0.77519584,0.017779509,-1.1404177,0.20723838,0.1779383,0.9051752,-0.78223187,1.6002313,0.5540709,0.92426765,0.4792229,1.002386,-0.07761921,-0.4962614,0.013145963,-0.373104,-0.060016695,
isEmpty(),-0.15925501,-0.07705269,0.38221538,-0.7211027,-0.19862427,-0.23159364,0.5210406,-0.24558505,0.51109636,-0.19754617,-0.08505709,-0.13545334,-0.7365844,0.13799424,0.18286976,-0.43848616,0.5150242,0.58163565,0.39182994,-0.16808443,0.53302926,0.6932949,0.41302946,-0.2652262,0.7547546,-0.02960495,-0.15720661,0.22773528,-0.45370418,0.28838235,
io,0.07411714,-0.19704916,0.48540634,-0.5017405,0.28666964,-0.16235732,0.5637205,0.35443988,-0.08359624,-0.035273127,-1.1781385,-0.5618302,0.44784895,0.081913516,0.7433173,0.07127083,0.3461229,0.23222755,0.5022159,0.05484725,1.5962073,-0.099376366,-0.5036192,0.6967655,1.2402823,-0.68751186,-0.65259373,-0.039609104,-0.86414295,-0.099943824,
invokeLater(),0.5503689,0.020634638,-0.10698298,-0.22658367,-0.16130912,-0.4176334,-0.04060912,0.2760903,0.16251794,-0.003308096,-0.7818287,-1.0018945,0.07769094,-0.357335,0.20432644,0.0153735215,0.34360462,-0.5071485,0.27800336,-0.099089496,1.015002,0.047324188,-0.27378768,0.08919243,0.86284924,-0.072569616,-0.29617265,0.39557967,-0.63239795,-0.2778086,
addMouseListener(),0.89518344,0.31690383,-0.41696134,0.5383772,-0.7670511,-0.42277858,-0.7166145,-0.08461132,0.92548543,-0.29757285,-0.56559813,-0.39681128,-0.6006355,-0.30599073,-0.31432366,0.63412815,0.3333659,-0.22079432,-0.28416693,0.40527418,0.4024008,-0.26338533,0.40151402,0.40441006,0.92970884,0.5516277,0.074423596,0.59820336,-0.67510283,-0.14852457,
getLineOfOffset(),-0.33441046,0.07133689,0.8085942,-0.29055917,-0.48762825,0.22525989,0.21938716,-0.06934605,0.7720577,-0.1915435,0.59685874,-0.07337394,-0.7362832,0.19450837,0.24590231,-0.9036646,0.5677322,0.28651038,0.4294874,-0.48646504,1.0148777,0.58182573,0.5452663,-0.0782935,0.86947995,0.10536925,-0.24371298,-0.24857616,-0.3118355,0.071560405,
getParent(),0.14542148,-0.087201186,-0.08614031,-0.15875429,0.12607785,-0.3426731,0.30323473,0.3012579,0.49986762,-0.10883705,-0.36780068,-0.6208623,-0.5921001,-0.25413498,0.43414617,0.39116696,0.2530801,0.30010226,0.17617519,0.1424701,0.39512655,-0.1106435,-0.20322493,0.18369527,0.96268576,0.114544176,0.12526792,0.16117235,-0.29769734,0.11901166,
tryRead(),-0.17302448,0.08390917,0.6080064,-0.65943635,-0.36341628,-0.32824785,0.55070466,-0.59666014,0.8731715,-0.33229584,-0.4026736,-0.6837744,-0.2311266,-0.57066584,0.9614309,0.4224958,0.33698866,0.07743485,-0.5735178,0.09983931,0.8670915,0.33574343,0.3927183,-0.015800528,1.3290137,-0.11462314,0.16103975,-0.44299474,0.19315295,0.21264602,
addElement(),0.049340542,-0.33789217,0.26906708,-0.68033075,0.09664689,-0.31532738,0.39075375,-0.079592444,0.4213356,-0.4464572,-0.44791308,-0.0052414346,-0.72170204,0.0057036034,0.13163643,-0.289629,0.66511685,0.9150391,0.59250057,0.115593195,0.20942177,0.4127321,0.43386635,-0.14630388,0.9149056,-0.14417712,-0.46961135,0.2972645,-0.8849077,0.39158282,
JScrollPane,1.028796,0.3676705,0.09038362,0.27751964,-0.5317361,-0.5188903,-0.6398618,-0.033986118,0.7758715,-0.2791751,-0.25232187,-0.41751292,-0.74175835,-0.08991773,-0.12224843,0.43787113,0.46492687,0.3757309,-0.06423849,0.052964326,0.28135985,-0.0791803,0.5346769,0.1551703,1.1516166,0.549418,-0.044546854,0.49133772,-1.2335166,-0.074105784,
row,-0.2199545,0.21043874,0.08863078,-0.10382183,-0.64833426,0.44580302,0.082437836,-0.3786725,0.46864456,-0.099485524,0.09423304,0.8494137,-0.7817338,0.44875294,-0.4291018,-0.19632246,0.04126039,0.4169619,0.28614813,0.2568321,0.6115045,0.43921795,0.4488825,0.72450966,0.91601884,0.076007865,-0.35754544,0.22568347,0.38711646,-0.17603847,
debug(),0.0023147634,-0.427361,0.6143553,-0.21608484,0.4870147,-0.08882883,0.95171547,0.30755073,0.23998363,-0.26448315,-0.4976613,-0.0087550795,-0.2230606,0.16195868,0.602439,0.23425944,0.097013734,0.47180602,0.33602178,0.3710588,1.2658454,-0.37914932,-0.2594444,0.5686789,1.2607884,-0.18620466,-0.6892646,-0.060247682,-0.04478762,-0.23801686,
in,0.24242134,-0.4104299,0.11056098,-0.025634686,-0.018049743,0.27015978,0.28719896,0.37258148,0.048548467,0.064381756,-0.5493486,0.17998816,-0.086521655,0.33702594,0.10011015,-0.08970773,0.0210831,0.108998306,0.46455592,0.014404618,0.9922521,-0.109382905,0.10607559,0.53987056,0.62006783,-0.13991183,-0.5675233,0.21925458,-0.12079744,-0.25751492,
eval,0.24827246,-0.66088426,0.38284576,0.12728468,0.28331026,0.304952,0.64515156,0.7095495,0.15403171,-0.20277487,-0.15374413,0.50265527,-0.40254492,0.38908082,0.26780522,0.22949097,-0.16314961,0.39464068,0.745813,0.1618,1.4885778,-0.60883904,0.27330962,0.6158234,1.423125,0.19653831,-0.9982393,0.174958,-0.08774654,-0.52749646,
init(),0.5193806,0.1765908,0.08958227,0.22732629,-0.06899447,-0.2445444,-0.060690362,0.39739078,0.43239313,-0.13008387,-0.47003108,-0.53858894,-0.2873934,0.10754915,0.14959142,0.08221958,-0.06268974,0.09200957,0.18853514,-0.07060386,0.5566224,-0.1164469,0.09922439,0.3909788,0.5655522,0.08124972,-0.057309706,0.41038525,-0.52617,-0.018004967,
clear(),0.044295564,-0.09635454,0.1598926,-0.40309405,0.045569893,-0.16459161,0.20579,0.21592167,0.18001127,-0.20102657,-0.35363698,-0.16497838,-0.5065705,0.10255285,0.26015034,-0.20296945,0.35554802,0.60700715,0.5179642,-0.09051596,0.419636,0.1954485,0.22786249,0.042170823,0.7994797,-0.13562305,-0.2569434,0.2879579,-0.5813601,0.25058252,
min(),0.15054189,0.4026157,0.8372942,-0.25197473,-0.6750911,-0.2563261,-0.4257714,-0.22208413,0.9710671,-0.44463012,0.5197098,-0.4539921,-0.7683897,-0.07846462,0.32039958,-0.4043839,0.42272344,0.42335606,0.30927756,-0.47942272,0.43168598,0.300536,0.74064726,-0.3547072,1.0947444,0.38492045,0.03739627,-0.14974931,-0.89132154,0.19015788,
getPainter(),0.14220381,0.3957158,0.36513475,0.08482496,-0.8523795,-0.005753873,-0.57699865,-0.045560673,0.97467744,-0.18079777,0.41550726,-0.440713,-0.6593854,-0.09166101,0.09646945,-0.46534324,0.3796614,-0.15441094,0.26985368,-0.48433366,0.6137619,0.4505302,0.50915194,-0.072942786,0.76873326,0.45978224,0.13654734,-0.002381642,-0.51221985,0.019854281,
MouseHandler,0.49936995,0.07027936,-0.37671474,0.038903132,-0.8508683,-0.3070758,-0.6332437,-0.04771059,0.73789847,-0.091002434,-0.43874216,-0.35890308,-0.5410612,-0.35452697,-0.02772321,0.5947142,0.44702113,-0.2664388,-0.20639375,0.38227144,0.38102612,-0.1889568,0.21848653,0.040080525,0.881595,0.5503974,0.030675702,0.38340783,-0.45912892,-0.33915353,
session,0.2861677,-0.23621003,-0.123999305,-0.07844028,-0.058912266,0.29516438,0.21279134,1.059261,-0.025743894,0.27888167,-0.2982553,-0.20504008,-0.94607735,0.69438666,0.2088958,0.045280408,0.26593423,0.33780262,0.6606987,-0.29453427,1.0108149,-0.22520535,0.018644394,0.8777085,0.9038637,-0.16492152,-0.35767964,0.563147,-0.30447304,-0.2187816,
isLineVisible(),-0.24279264,0.09303284,0.8122099,-0.40579173,-0.48246315,-0.022073988,0.13831747,-0.28901497,0.80668855,-0.19086514,0.48820895,-0.30344856,-0.37134004,-0.039838724,0.37178496,-0.7946331,0.6227505,0.1538809,0.42137942,-0.5017408,0.9217834,0.53823143,0.5485903,-0.12719376,0.82096726,-0.02159552,-0.078967825,-0.40058666,-0.43842718,0.20536356,
HashSet,0.34147215,-0.22842492,0.052003495,-0.2025374,-0.055417974,-0.036059886,0.058408868,0.34047928,0.38340703,-0.13215268,-0.24877657,0.21417688,-0.8001489,0.30200416,-0.32856044,-0.2691294,0.43793702,0.7231315,0.74719036,0.0020355068,0.38984498,0.09859726,0.3056518,0.019796144,0.79646695,0.15743017,-0.58646184,0.5407778,-0.7986339,-0.11245434,
Entry,0.24563359,0.046515644,0.23193751,-0.006482858,-0.10705572,-0.037841827,0.18928175,0.2557369,0.42724425,-0.097588554,-0.18579061,-0.03608076,-0.92556614,0.41302815,-0.0738221,0.04418988,0.38502395,0.91654867,0.5667331,-0.063634835,0.2530443,0.19689801,0.06634743,0.34907854,0.82231575,0.23113132,-0.32723626,0.4677633,-0.70809424,0.12748238,
isEditable(),-0.47087854,-0.09682736,0.4104808,-0.6324977,-0.39923543,0.12980935,0.26671836,-0.05288346,0.699142,-0.06736433,0.15046725,-0.5156458,-0.4826223,-0.4378117,0.4960702,-0.7452972,0.7828477,-0.19876313,0.3190946,-0.4420841,1.1891264,0.57119805,0.055554505,-0.17077053,0.9200764,-0.1268639,0.14537181,-0.28245774,-0.05083348,0.25562093,
getStatus(),-0.3181978,-0.19553658,-0.13919708,-0.3895498,-0.55845845,-0.14024128,-0.27979568,-0.171235,0.5992627,-0.20668508,-0.42588735,-0.5156495,-0.7301051,-0.5919499,0.22546087,0.15704964,0.8854989,-0.15192232,-0.097568095,0.43246493,0.50899196,0.40393943,-0.3237793,-0.035612598,0.82581204,0.2592613,0.2588534,0.20981352,-0.090854995,-0.15656674,
load(),0.11384665,-0.059606995,0.12331807,-0.41541708,0.08514048,-0.2410188,0.32211342,0.26677608,0.12502486,-0.07834422,-0.67079425,-0.5752896,-0.37915123,0.2626292,0.36506674,0.20510486,0.24346223,0.4986234,0.34630194,0.0004506809,0.62302494,0.12650959,-0.09946044,0.31953526,0.76149386,-0.12466447,-0.3275964,0.4601,-0.68629634,0.07170013,
setLayout(),1.0177474,0.25799555,-0.08095324,0.33280215,-0.41012368,-0.36785278,-0.62804115,0.316453,0.6279144,-0.21712993,-0.6105404,-0.3293725,-0.7653901,0.28568298,-0.09338142,0.5852487,0.3370395,0.65325445,0.008901937,0.1132818,0.35178658,-0.2860058,0.51846284,0.24121918,1.1851387,0.49652866,-0.49413732,0.6927281,-1.3567805,-0.08895595,
propertiesChanged(),0.1728991,0.25724876,0.22145456,-0.14625199,-0.23389064,-0.13931362,-0.15504794,0.07275526,0.78910017,-0.40898216,-0.13274719,-0.7443353,-0.7308702,-0.12583998,0.12119852,-0.028441342,0.3674741,0.31436756,0.015090392,-0.09227433,0.3744107,0.46183842,0.030953227,-0.12213668,0.70870763,0.3764332,0.27603295,0.39326423,-0.6668857,0.10124783,
HashMap,0.20508066,-0.098016806,0.15247571,-0.04284924,-0.024942368,0.15760618,-0.020891825,0.5382888,0.2501009,-0.2290428,-0.391955,0.057760846,-0.5920459,0.46819383,-0.12433592,-0.010877941,0.13725281,0.9553238,0.46782243,0.15354197,0.53959054,-0.0512034,0.35153726,0.16737953,0.9072231,0.20798123,-0.82160425,0.55092394,-0.79244715,-0.27823257,
IllegalArgumentException,-0.33887362,-0.13605323,0.8956439,-0.29469302,0.4964507,0.13377415,0.81771624,0.16019319,0.87340033,-0.5399033,0.19435199,0.21143526,-0.5754505,-0.28772837,0.28818434,-0.12748052,0.4535861,0.6953678,0.03537911,0.20287465,1.1398152,-0.2827871,0.10564995,0.13701606,1.3354026,-0.060160212,-0.32718167,-0.22632493,0.18754336,-0.015789572,
type,0.05696598,-0.08768859,0.25931472,0.038250655,0.07918907,0.32631534,0.47035706,0.5644469,0.16556706,-0.08127759,-0.15352285,0.3086325,-0.71147305,0.5448509,0.1338152,0.10555961,-0.12434663,0.53894883,0.48006228,0.0046772924,0.8806168,-0.08051295,0.060051847,0.7017757,0.9637179,-0.0746447,-0.432209,0.3086494,0.07198413,-0.16342002,
Box,1.0134699,0.2820083,0.06192699,0.01533359,-0.42261472,-0.50904155,-0.42782912,-0.06444013,0.5748288,-0.28092617,-0.583383,-0.46074203,-0.8210635,0.17326245,0.10142912,0.7700264,0.6336557,0.92291015,-0.009404274,0.2162592,0.1891412,-0.15099178,0.48054713,0.28601834,1.3681166,0.49775663,-0.22083162,0.56075895,-1.5312301,0.020224039,
getView(),-0.030306133,-0.17957821,-0.18911414,-0.4262688,-0.46276808,-0.15440363,-0.09874384,0.18961455,0.6775952,0.016784437,-0.37622318,-0.7824516,-0.82610345,-0.33154666,0.38415414,0.36112878,0.6790246,-0.026012786,0.049983703,0.13677059,0.42911384,0.27591375,-0.32692087,-0.035296652,0.75047845,0.35389963,0.23338109,0.1936916,-0.14561982,-0.15113404,
update(),0.41718042,-0.0038551018,-0.1128612,-0.26977214,-0.35372147,-0.31111118,-0.23218082,0.20801167,0.46764204,0.010217076,-0.5248533,-0.6388701,-0.1975111,-0.25499323,0.08021286,0.1155816,0.4033545,-0.18364003,0.2236766,0.06172904,0.44293424,0.12981713,0.010581978,-0.20429125,0.7891827,0.2450437,-0.06653729,0.4622605,-0.7557564,-0.24836105,
x,0.24371383,0.28269348,0.40315318,0.38061023,-0.84597415,0.31255618,-0.25741816,0.11927525,0.69964844,-0.02340839,0.5200783,0.1362979,-0.6441576,0.29459998,0.13444053,-0.48400295,0.12143074,-0.050601717,0.435075,-0.5018511,0.83711284,0.2868118,0.69116706,0.21372488,0.8078923,0.2922013,-0.14483497,-0.117928356,-0.267964,-0.11821458,
getFontMetrics(),0.33666205,0.44293174,0.42532817,0.1303169,-0.9543706,-0.12128611,-0.7680675,-0.073062085,1.1026223,-0.25211897,0.43716612,-0.53406924,-0.8891673,-0.13426052,0.08798172,-0.29871434,0.54945856,0.16910066,0.3407713,-0.42831263,0.38834512,0.36922792,0.64739525,-0.17532249,0.9185501,0.6775213,0.19199203,0.0055750664,-0.93140113,0.04701913,
numLines,0.059589453,0.13421892,0.7210689,-0.09587104,-0.84403217,0.61060965,0.15370551,0.3814293,0.71915394,-0.05571884,0.49909547,0.31725422,-0.86242145,0.8117833,0.09190479,-1.0913817,0.17578065,0.26819336,0.8908301,-0.699031,1.5329891,0.5800858,1.044774,0.29875422,1.0472113,-0.009521012,-0.5202243,-0.007000127,-0.40131363,-0.08215298,
skipWhitespace(),-0.16842599,0.17926522,0.5634898,-0.7036309,-0.5541523,-0.24642576,0.4119054,-0.7852195,0.8307518,-0.3146422,-0.4505316,-0.57947475,-0.10932162,-0.5465943,0.86404306,0.35849506,0.32426497,0.15964505,-0.5682427,0.090333946,0.77110404,0.30309516,0.57887524,-0.0054934826,1.4064139,-0.19083238,0.04414986,-0.44752136,0.083449036,0.29911765,
getLineText(),-0.46008438,-0.07229383,0.66689336,-0.7592698,-0.51682633,0.19147547,0.05409693,-0.38548422,0.4799335,-0.15560977,0.17757387,0.0032279752,-0.4156054,0.07918334,0.3425901,-0.7721736,0.86067224,0.45194906,0.3964379,-0.25234058,0.8697567,0.6032994,0.50034213,-0.09277161,0.9284306,-0.18973678,-0.33998346,-0.2762758,-0.3937093,0.15645932,
getStringProperty(),-0.030661914,-0.001368265,0.23166506,-0.37239477,-0.11121155,0.003970943,-0.13419233,0.07775259,0.47123173,-0.42148405,-0.434063,-0.73829734,-0.76350605,-0.0591552,0.51238596,-0.12506951,0.6966884,0.6110116,0.34414297,0.12462337,0.43241388,0.5280624,-0.16320609,0.027685583,0.68503433,0.1431331,0.2741392,0.025177177,-0.60078573,0.16210593,
getSettingsDirectory(),0.25976738,-0.110816896,-0.17115755,-0.48223308,0.009870495,-0.33144757,0.0036585364,0.55964917,0.22603372,-0.11447464,-0.89963347,-0.8466394,-0.60092396,0.22325753,0.6404855,0.4641335,0.51009727,0.6985649,0.3243634,0.116448924,0.5298182,-0.06995476,-0.17092538,0.23423131,0.80355895,0.018326854,-0.20953144,0.44469354,-0.91015315,0.08294861,
beginCompoundEdit(),-0.29647595,-0.11097598,0.56677794,-0.6552148,-0.09882367,0.12383275,0.26092964,0.012374403,0.4009974,-0.1902303,0.035280406,-0.18215133,-0.17020267,-0.20828402,0.5167724,-0.67689115,0.6549176,0.0822285,0.7893027,-0.57625896,1.1089478,0.48688966,0.12960523,-0.147031,0.97490895,-0.10164726,-0.32390258,-0.46798667,-0.32606283,0.23501933,
endCompoundEdit(),-0.2737868,0.001373056,0.46500224,-0.39606217,-0.18572876,0.16496871,0.23468205,0.03792867,0.40073287,-0.17435125,0.23460738,-0.25372398,-0.23239164,-0.09291384,0.3444482,-0.82385135,0.5611577,0.088030055,0.4808854,-0.51515514,1.11437,0.41896558,0.26904428,0.026545076,0.8496041,-0.2080051,-0.13524249,-0.17947632,-0.37762696,0.24695939,
getFileName(),0.10065625,-0.25287184,-0.043230593,-0.7418185,0.10330797,-0.08127719,0.12225713,0.27022853,0.025642721,-0.20661493,-0.77599955,-0.50851476,-0.47304627,0.09744095,0.54556,0.22606654,0.5570584,0.5390859,0.4568008,0.15194117,0.68499863,0.17877726,-0.26145357,0.2982533,0.7946305,-0.22244477,-0.1569949,0.11544283,-0.58174366,0.10779808,
RolloverButton,1.077277,0.4056873,-0.2240372,0.26074594,-0.565826,-0.66978335,-0.4247898,-0.2619971,0.7397412,-0.43024948,-1.109757,-0.44999,-0.7336137,-0.052340217,0.20301573,1.1581918,0.61226934,0.68658745,-0.18390867,0.608124,0.35109043,-0.29112577,0.43231753,0.7501314,1.4585376,0.31847963,-0.047899622,0.5477838,-1.3300252,0.2785766,
s,-0.09839898,-0.12660225,0.3831403,-0.39913008,-0.06036976,0.3192894,0.37649807,0.2926468,0.045374036,-0.062808506,-0.1286489,0.26424333,-0.018211922,0.22308822,0.27253643,-0.47166592,0.2840611,0.3774968,0.45953795,-0.0038640234,1.0284926,0.15747687,0.33021346,0.17452504,0.92930025,-0.3667993,-0.41749358,-0.014400912,-0.17323591,-0.049943592,
Selection,-0.23043138,0.10588138,0.549292,-0.23131804,-0.3664175,0.10408718,0.079732165,-0.06327877,0.5110294,-0.10616123,0.54723513,-0.051266667,-0.47015825,-0.032147363,0.05595357,-0.7482177,0.66388184,0.17915948,0.2826775,-0.39589378,0.88102216,0.46582586,0.49980682,-0.050763868,0.9633163,0.023357084,-0.105115145,-0.15270738,-0.38908827,0.08130667,
setBounds(),0.40934595,0.51083785,1.2480031,-0.18461703,-0.53700686,-0.37267578,-0.34545797,-0.2957334,0.95496845,-0.34296688,0.25040093,-0.7469994,-0.29399365,-0.06878937,0.7985797,0.24299073,0.045296174,0.29790607,0.01618101,-0.48477024,0.570299,0.10826226,0.57813525,0.09126661,1.1610916,0.12353958,-0.09763934,-0.4095111,-0.5990927,0.07468614,
getMessage(),0.1478828,-0.4469923,0.5059311,-0.27435273,0.5254464,-0.09950631,0.86787033,0.4271391,0.035968028,-0.116398335,-0.9366905,-0.30968818,0.35884693,-0.12928274,0.7590045,0.31119695,0.1590849,0.20261183,0.4632287,0.22925666,1.4619238,-0.471728,-0.37978986,0.620339,1.3463385,-0.38847816,-0.6124853,-0.10919764,-0.1886555,-0.28681457,
compareStrings(),-0.20990421,-0.0283378,0.1836303,-0.9133014,-0.2760805,0.13045126,0.036144633,0.046538316,0.26875648,-0.045309156,-0.41918975,-0.10153781,-0.80076766,0.39718828,0.37968755,-0.076431856,0.76922935,0.7567978,0.26517242,0.4283852,0.5682917,0.55393827,-0.18950629,0.3143291,0.8618129,-0.36018246,-0.09348296,0.13911492,-0.42581847,0.0657219,
Insets,0.7940371,0.42810848,-0.043142583,0.29011443,-0.5176289,-0.36996603,-0.44322592,-0.109011956,0.67115295,-0.2656179,-0.45189026,-0.21878915,-0.6625783,0.075927325,0.021359427,0.7178937,0.3082447,0.42784405,-0.34730378,0.24369101,0.1904697,-0.16927733,0.46193236,0.4324277,1.0297109,0.3279186,-0.05528588,0.43926236,-0.8502896,0.10566511,
setLength(),0.043132268,0.32060668,0.34545535,-0.9388078,-0.28188592,-0.05015108,0.074228086,-0.19097771,0.4470956,-0.11029517,-0.933449,-0.08257658,0.32165417,-0.2986409,0.33195713,-0.10484326,1.0335293,0.5300538,-0.18065038,0.5405315,0.62830627,0.7351219,-0.120541126,0.19833827,1.1883081,-0.88774914,0.1663453,-0.005101091,-0.45810273,0.11821544,
setVariable(),0.26847723,-0.2247341,0.044217914,0.2298888,0.4107747,-0.029335953,0.63154864,0.8540165,0.2109948,0.057088327,-0.53759426,-0.56137824,-0.25260413,0.04506717,0.4727714,0.102923766,-0.013772172,-0.047849897,0.4785169,-0.15597473,1.3677163,-0.2294974,-0.4799579,0.6522546,0.93791056,-0.084808104,-0.25948393,0.08406977,-0.16312541,-0.15149067,
setBuffer(),-0.08985375,0.060675886,0.09468636,-0.41605088,-0.314394,0.050086107,0.19694862,0.04671833,0.41219753,0.00921751,-0.04083692,-0.43572503,-0.5746592,0.12835594,0.1609802,-0.29010224,0.48840383,-0.01657233,0.0648434,-0.2498558,0.7509411,0.44557866,0.058962863,0.303893,0.50915617,-0.16974156,0.0620303,0.22536539,-0.17253606,0.17204346,
closeQuietly(),0.23965034,-0.23847814,0.20392647,-0.25698805,0.25580668,-0.070064284,0.3437779,0.51624393,-0.038228218,-0.020511441,-1.0459648,-0.45009494,0.31862518,0.14792575,0.4663688,0.011192667,0.13739492,0.2241834,0.55656,0.01394854,1.2079513,-0.15683909,-0.33751634,0.54952437,1.0017039,-0.4246811,-0.6397777,0.17379571,-0.70909953,-0.13179259,
select,-0.45680326,0.182714,0.5814143,-0.41041788,-0.7364535,0.092355624,0.005879269,-0.5699253,0.6763486,-0.18757269,0.47759995,0.01873532,-0.26535732,-0.17511158,0.17507909,-0.68776464,0.6090624,0.0056973663,0.12703604,-0.3950423,1.0511835,0.57451814,0.7013992,-0.108649045,1.0421423,0.010162415,-0.07902417,-0.2922511,-0.19922006,0.1374804,
JComboBox,0.36334336,0.2868807,0.08641278,-0.24844913,-0.3233182,-0.4046361,-0.41550604,-0.23480731,0.6740853,-0.6546962,-0.8517812,-0.6566489,-0.98789364,-0.06448908,0.303195,0.6926439,0.66657215,0.87963736,0.019421672,0.57812256,0.21500711,0.17360654,-0.1105313,0.12134269,1.1396639,0.26189634,-0.03678521,0.3461942,-1.1730855,0.21637344,
popNode(),-0.456806,-0.5002143,0.9981457,-0.48538485,0.6049697,-0.35607287,1.1660125,-0.13027814,0.9073357,-0.65062106,-0.19352707,-0.6164546,-0.35782427,-0.8413255,0.77657443,-0.02388043,0.680042,0.24387671,-0.1515058,0.4139959,1.6698704,-0.36150888,-0.21781363,-0.026855456,1.7539446,-0.083396934,-0.2569529,-0.43363798,-0.12956133,-0.11049346,
jjStopAtPos(),-0.5345334,0.11826714,0.46404928,-0.65587455,-1.0023005,-0.20279334,0.5934126,-1.2804891,0.92045414,-0.08022271,-0.5119675,-0.074164756,-0.15369764,-0.22006837,0.63425523,0.73282945,0.4366785,0.009779497,-0.97028214,0.7536071,1.5620244,-0.05969669,0.2622884,1.1492873,1.5148466,-0.4401073,-0.08027807,-0.14861958,0.68752015,-0.0030145338,
readCh(),-0.32231325,0.022478824,0.73128664,-0.8779487,-0.54356414,-0.12414678,0.45677257,-1.0513909,0.5244456,-0.24108613,-0.41514048,-0.004926527,0.06377469,-0.30359545,0.72544503,0.30409127,0.4894321,0.3727206,-0.18733025,0.2714573,0.9789074,0.2891819,0.6275556,0.26718813,1.4037037,-0.49229714,-0.33855948,-0.58986646,0.033993643,0.3149622,
elementAt(),-0.11425076,-0.21353045,0.62529355,-0.63506454,-0.074222416,0.04437424,0.4715914,-0.2828501,0.2485694,-0.11864441,-0.31220615,0.2695259,-0.4627397,0.28160888,0.049643442,-0.062320296,0.5778578,0.9915284,0.65347636,0.043669038,0.48689336,0.43954217,0.27297544,0.18664712,0.9734153,-0.09689078,-0.53278947,0.08514239,-0.4591585,0.044502858,
replace(),-0.28499222,-0.24198478,0.064075485,-0.7950552,-0.18540171,0.07482537,0.12595089,0.09749845,0.036721475,-0.11326939,-0.3304485,0.010136704,-0.38210616,0.06383137,0.39394477,-0.25909176,0.8889179,0.66974884,0.42644748,0.2168922,0.72588974,0.23685129,0.047515675,0.18399887,0.94667655,-0.3902068,-0.31185502,0.17301826,-0.5115638,0.19815472,
iterator(),-0.13063972,-0.53068113,0.34859613,-0.6793073,-0.114602275,0.020669619,0.46881637,-0.12492536,0.42969263,-0.23399548,-0.1168801,0.24704416,-1.0121278,0.20968352,0.13898605,-0.3297293,0.7220954,0.9791792,0.48645553,0.21529888,0.31793618,0.4125159,1.025343,-0.24770406,1.215355,0.046772078,-0.6110389,0.4750905,-0.87120646,0.2796116,
setIntegerProperty(),-0.055514034,0.3318594,-0.0496592,-0.6332692,-0.47503206,-0.14317362,-0.1938242,-0.15106097,0.34061003,-0.16675122,-0.8199371,-0.6485953,0.11363521,-0.27495724,0.037949067,0.12174669,0.35517266,0.0003902388,-0.004293988,0.12779665,0.7214839,0.30397788,-0.61364174,0.2163503,0.8048399,-0.19453885,-0.17379932,0.46622244,-0.43831617,-0.016197694,
org.gjt.sp.jedit.textarea,0.36360973,-0.038664006,-0.18732911,0.31072044,-0.50951105,0.23708387,-0.16892004,0.21284358,0.44986954,0.019231673,-0.13236539,0.1415527,-0.35720438,0.028694296,-0.29094923,-0.17993608,0.0056525175,-0.2943492,0.35860002,-0.10568715,0.6311958,0.06380116,0.38302648,0.39379263,0.49422303,0.27038437,-0.05874003,0.24010603,0.07126077,-0.25893745,
pop(),-0.07583608,-0.2884598,0.4122976,-0.54624206,0.20802131,0.053230323,0.67171663,-0.08572277,0.36065313,-0.24597816,-0.25705045,0.0968093,-0.1718357,-0.30978283,0.23632483,0.013689925,0.48943955,0.34641317,0.17560744,0.31318215,0.64915687,0.3325263,0.10003793,0.14335665,1.0586728,-0.22022276,-0.084314525,-0.09510062,0.13439813,-0.04000981,
getSelection(),-0.53703576,-0.073927335,0.39494857,-0.7017702,-0.51135546,0.22664364,0.17379251,-0.080301814,0.6178091,0.023843786,0.27528578,-0.41461718,-0.5825698,-0.10001867,0.314157,-0.7400289,0.7835501,0.15011373,0.42166293,-0.3604478,0.9390127,0.42478365,0.16560423,-0.15687701,0.9406024,-0.027233731,-0.12143124,-0.13790543,-0.23378012,0.13436264,
getClassName(),0.03717095,-0.16599344,0.096843086,-0.46310464,-0.1726706,0.028562047,0.06874382,0.1962651,0.14295925,-0.14201385,-0.8275751,-0.23431829,-0.58004737,0.2778924,0.51600015,0.3989133,0.48486236,0.8838674,0.5910601,0.34142035,0.33166325,0.18164691,-0.11572494,0.3066367,0.8299817,-0.058515076,-0.28653866,0.15532418,-0.5797262,0.12254397,
getWhat(),-0.13532999,-0.18885446,0.11424349,-0.42128637,-0.094255194,-0.054866735,0.14048547,0.08887819,0.8952301,-0.24665429,0.06278233,-0.9117402,-1.1440462,-0.4572093,0.29674685,-0.02207409,0.74972534,0.27300456,0.044745166,0.05408055,0.4487831,0.5456244,-0.15718637,-0.35234997,0.9727055,0.44945058,0.33140767,0.15765002,-0.4255706,0.041886676,
getModifiers(),-0.15817477,0.006951522,0.07203103,-0.55627877,-0.73805004,-0.11452586,-0.0068196985,-0.7064095,0.73843145,-0.12691088,-0.4638508,0.0727604,-0.13100874,-0.5232157,0.061776556,0.22026597,0.55338055,-0.12901528,-0.32267198,0.55545413,0.6585705,0.3832853,0.22415155,0.18307002,0.7516267,-0.09636525,0.06676531,-0.03227121,0.32414672,-0.07778524,
setValue(),0.043929145,0.031352147,0.27347067,-0.30192354,-0.13510135,-0.24532698,0.08572579,-0.1870853,0.26358575,-0.21436669,-0.7152732,-0.34878165,-0.0024927442,-0.32784617,0.26940838,0.2369718,0.24552059,0.19506802,0.041574292,0.20408599,0.5419819,0.25204912,-0.0069552204,0.20531201,0.7178009,-0.116378926,-0.14556119,0.013275715,-0.1448466,-0.064452,
toEvalError(),0.15504193,-0.5736749,0.48691097,-0.16518806,0.5350283,-0.10895099,1.0165151,0.28640884,0.16094136,-0.26298553,-0.7133805,0.050161235,-0.07554907,-0.19975206,0.66181064,0.52079564,0.17058057,0.2828133,0.32886854,0.39605877,1.6051127,-0.52980816,-0.36458743,0.7745954,1.510389,-0.18574291,-0.58817023,-0.1696175,0.11863098,-0.29169965,
action,-0.017028479,-0.118338354,-0.15230647,-0.15638442,-0.5102388,0.16308354,-0.020949937,-0.052892644,0.46421367,-0.071654,-0.36272255,0.21421756,-0.44745272,-0.0050678253,-0.20575355,0.06727933,0.19470802,0.20283711,0.20836744,0.23717326,0.39391962,0.21307899,0.27303785,0.23271269,0.5498212,0.10121461,-0.20587021,0.35882464,0.04175639,-0.16356921,
InternalError,-0.14402008,-0.023376433,0.5271443,-0.63407964,0.09467633,-0.021302264,0.4279464,-0.34978625,0.44240293,-0.2153458,-0.25467113,0.18652536,-0.24298783,-0.3414813,0.20881973,0.21979322,0.4404344,0.47812378,0.22229119,0.2798928,0.5664136,0.054202665,0.12438704,0.26135007,1.2136521,-0.11052986,-0.18964788,-0.3820684,0.21764818,0.008112512,
LinkedList,0.12574533,-0.3375969,0.25671583,-0.306639,0.029149963,0.11501599,0.25693294,0.32078758,0.21148168,-0.0921248,-0.30708852,0.29674834,-0.47557595,0.36317903,-0.15844075,-0.11681281,0.43473926,0.8830281,0.74475133,0.08451115,0.48722747,0.03452616,0.4268588,0.06985408,0.9496786,0.06701465,-0.77512884,0.46868455,-0.73863125,-0.11917567,
getParentOfPath(),-0.21756203,-0.3286086,-0.039909706,-0.84892464,-0.10920905,-0.05357749,0.1810036,0.22095846,0.23258848,-0.048070338,-0.51849,-0.46146852,-0.7501007,0.04180055,0.6188997,0.11648216,0.9114827,0.70396507,0.4020243,0.21377076,0.56195605,0.3286713,-0.12915008,0.25789347,0.86440784,-0.28943738,-0.1355301,0.1875607,-0.43737563,0.24062464,
getFoldLevel(),-0.3499687,0.15034251,1.057272,-0.47865427,-0.49769598,0.026391448,0.31878853,-0.505292,0.87409115,-0.30568936,0.5084378,-0.044861935,-0.36628136,0.06418238,0.3819356,-0.76214784,0.50674754,0.36192593,0.287187,-0.43162775,0.91359144,0.49553615,0.8122637,-0.05026096,1.0143143,-0.1429988,-0.34887382,-0.34607568,-0.27297184,0.19612256,
setCaretPosition(),-0.15504485,0.108824715,0.14969341,-0.5485561,-0.454654,-0.122760564,-0.08314996,-0.08670634,0.6449547,-0.13671352,-0.052559596,-0.61256856,-0.31085557,-0.5065879,0.24127632,-0.60977185,0.8885774,-0.02577002,0.24150887,-0.20568499,0.6614113,0.55077887,0.065507144,-0.2997076,0.8475144,0.0031956744,0.283485,-0.0025731714,-0.44529617,0.22430387,
text,0.08909934,0.16618651,0.09131579,-0.13493855,-0.601155,0.3692126,-0.25568864,0.105405346,0.2697679,-0.018881055,-0.08490393,0.31313726,-0.24171267,0.27813193,-0.13095157,-0.46071038,0.3214762,0.17374855,0.32381728,-0.07746468,0.64166963,0.384255,0.5513687,0.24332486,0.63726115,-0.07944387,-0.17288673,0.2534801,-0.22611515,-0.1272879,
getNameSpace(),0.16356763,-0.34767485,0.2731139,-0.14956185,0.34488022,-0.010197528,0.65936536,0.58231544,0.034563616,-0.040470116,-0.60469747,-0.2637079,-0.13423909,0.09583488,0.6598595,0.3741571,0.116782285,0.2880054,0.46326193,-0.012871393,1.2205985,-0.32233486,-0.30778882,0.53645104,1.0364807,-0.11272068,-0.4831249,-0.025770051,-0.24561816,-0.16942114,
getEditPane(),-0.081328176,0.052076213,0.023462255,-0.42525208,-0.45931983,-0.13038646,0.011632115,-0.15083954,0.6902,-0.14648613,-0.2869608,-0.68924063,-0.59896106,-0.25758702,0.28456968,0.28728384,0.48733667,-0.105834946,-0.072665714,0.22122602,0.51759434,0.46155062,-0.13214003,0.28476107,0.526329,0.15587512,0.33340847,0.14410149,0.13527195,-0.10904198,
invoke(),0.122634165,-0.40337828,0.23332052,-0.24018407,0.16014968,-0.15667424,0.43747893,0.20859234,0.17845725,-0.16253641,-0.59756476,-0.20556824,0.01598224,-0.18485709,0.5112504,0.28369483,0.28602558,0.111102514,0.33242747,0.23909947,0.9445618,-0.2856861,-0.23970342,0.35247415,0.97053933,-0.092771366,-0.4260355,-0.05000617,-0.15709497,-0.287003,
processKeyEvent(),-0.122851305,0.056865532,-0.024120446,-0.4455393,-1.0322044,-0.11625188,-0.269499,-0.6605236,0.7288182,0.017163094,-0.40386787,-0.06613444,-0.060359053,-0.5783966,0.09561767,0.33600077,0.7201063,-0.35471287,-0.42535636,0.44905436,0.70719105,0.21986261,0.066309005,0.3084249,0.836332,-0.1085098,0.046148106,-0.019433344,0.18894574,-0.20400289,
update,0.114114575,0.051203124,-0.22906007,-0.26505405,-0.5665075,-0.07962108,-0.34914038,0.08520309,0.75254107,-0.081595644,-0.09702188,-0.52263,-0.9525844,-0.13369343,0.11287503,0.17379797,0.5048995,-0.017183227,0.071253024,0.1536749,0.334306,0.31035805,-0.016745172,-0.06918521,0.6723861,0.50706655,0.28931987,0.3366557,-0.28735286,-0.191753,
col,-0.37685984,0.058437113,0.3182138,-0.37143558,-0.52818334,0.34481102,0.4307324,-0.5311949,0.40808153,-0.1688515,0.103543095,0.8595542,-0.7377914,0.4110177,-0.06083782,-0.14847812,0.16015874,0.60131925,0.18243702,0.18882826,0.86094254,0.4771419,0.48897952,0.63799345,0.9668802,-0.111614496,-0.3674028,0.014845725,0.4072783,0.021858461,
reset(),0.1894795,-0.15512389,0.31402236,-0.03335929,0.04211264,-0.007978242,0.350718,0.2885466,0.3275519,-0.085006915,-0.33712313,-0.2604573,-0.1773967,0.08572445,0.30597186,-0.11954848,0.101412125,0.066705905,0.47561792,-0.16913906,0.77102685,0.038733628,0.041276406,0.29356954,0.6258924,-0.0026205666,-0.20142296,0.023674622,-0.17755379,-0.027021565,
setConstraints(),0.88130563,0.49741143,0.22544011,-0.045874804,-0.47632328,-0.5676206,-0.35542378,-0.26325488,0.6226853,-0.32151538,-0.605831,-0.49969533,-0.56084543,0.0960913,0.19618121,0.68874806,0.56015265,0.7717548,-0.32909623,0.068740964,0.29733244,-0.10230833,0.4077913,0.3014458,1.3263179,0.18780735,-0.1767491,0.4801779,-1.563554,0.29819438,
source,0.17146206,-0.19957122,0.08539125,-0.12534793,0.053713243,0.13941102,0.28392208,0.34007007,0.15887524,0.005889812,-0.29639712,0.11266249,-0.36385602,0.20046097,-0.039407074,-0.20985667,0.1936776,0.302247,0.5633965,-0.06894824,0.7051945,0.062623456,0.12789176,0.3788725,0.6845539,-0.07935902,-0.36643073,0.21378823,-0.19960916,-0.081925616,
JMenuItem,0.25596374,-0.041062985,0.003382456,-0.54292214,-0.39885938,-0.39257026,-0.27323794,-0.12904349,0.46584955,-0.18724982,-0.6529719,-0.4566896,-0.76170826,-0.14605036,0.3049245,0.52506906,0.90259373,0.78617936,0.31426948,0.37996125,0.068922445,0.21094565,0.13520649,-0.06095028,1.0881885,0.2122225,-0.11445617,0.27175072,-1.0807676,0.18302938,
getRowCount(),-0.09161965,-0.019951237,0.35230368,-0.7951904,-0.5419794,-0.17719832,0.048562735,-0.33168495,0.63791597,-0.17087416,-0.3856371,-0.062796,-0.4270664,-0.029885434,0.034098648,-0.2841184,0.52900404,0.42860132,0.62721145,0.10151771,0.21013694,0.42382717,0.28972456,-0.15023643,0.6301864,-0.009170859,-0.33225214,0.07146657,-0.36658618,0.067702085,
clearNodeScope(),-0.38690943,-0.44456065,1.1400627,-0.5658793,0.49806094,-0.49470136,1.1366574,-0.34743991,0.9166252,-0.6932668,-0.44439682,-0.5756732,-0.14970927,-0.83493036,0.8516068,0.19337997,0.67523426,0.19936652,-0.13165306,0.41173348,1.7078046,-0.32058027,-0.2220405,0.19274904,1.6494933,-0.15991208,-0.3764684,-0.51765084,-0.0933145,-0.07009572,
hasMoreElements(),0.08577458,-0.78448194,0.39605498,-0.6563462,0.13937919,-0.19335379,0.46347803,-0.24517432,0.3151367,-0.30944124,-0.5394859,0.15257773,-0.69399005,0.007828399,0.17409016,-0.301557,0.6050631,0.7328416,0.6632752,0.29594776,0.20541187,0.32386193,0.86398995,-0.119611815,1.0119299,-0.06779205,-0.7873163,0.16932426,-0.692914,0.16648376,
len,-0.30756092,0.33494812,0.6258146,-0.3909285,-0.80290866,0.5530717,-0.0021195703,-0.14517963,0.47301623,-0.047665093,0.1606837,0.36406904,-0.22416048,0.3961294,0.11781122,-0.6790695,0.35616827,0.36532077,0.26199982,-0.060126826,0.88521975,0.6821974,0.4641706,0.33061716,0.9231296,-0.40104792,-0.26556054,-0.21624506,0.030207096,-0.07406591,
save(),0.05497613,-0.080724195,-0.08863007,-0.5735087,-0.30270413,-0.12839517,-0.06591259,0.33164024,0.2346551,0.025661418,-0.61335856,-0.78291833,-0.35042828,0.058277607,0.30213737,0.1048071,0.45757246,0.22752902,0.30557102,-0.14329816,0.67833793,0.06460392,-0.33014262,0.081805944,0.7242743,0.055409804,-0.25760674,0.44629863,-0.673833,-0.046688866,
getCapabilities(),-0.13545607,-0.108618736,0.18664975,-0.69537497,-0.052273173,0.08505748,0.21962401,0.4276168,0.27874246,0.00053377467,-0.42794937,-0.5332759,-0.7475756,0.37858072,0.5508031,-0.1970689,0.6540424,0.6519269,0.46398798,-0.15130876,0.75227433,0.30896878,-0.15818746,0.31273076,0.6525387,-0.30833742,-0.1795277,0.1801951,-0.45999023,0.23569426,
getSelectedItem(),-0.04652355,0.1229131,-0.23561387,-0.65218294,-0.25390136,-0.05195562,-0.10793918,0.32725975,0.24055359,-0.16326943,-1.0637034,-0.7836662,0.024593696,-0.25779667,0.186241,0.23927057,0.57676196,0.24697223,0.11986591,0.41165814,0.82021165,0.08906798,-0.8724234,0.13678442,1.1184809,-0.13163029,-0.15044956,0.60256493,-0.8378223,-0.10216294,
getLineLength(),-0.35061255,0.04114058,0.6695925,-0.44439226,-0.5014212,0.2270012,0.13587423,-0.16415107,0.63754654,-0.14157909,0.4442712,-0.026477594,-0.57829785,0.11093036,0.30085567,-0.75114095,0.6176939,0.31881627,0.27852914,-0.36536783,0.89636445,0.53796005,0.5666138,-0.098843895,0.95432,-0.044880416,-0.24491565,-0.25714093,-0.23463336,0.15113844,
jjte000,-0.2777937,-0.33330983,0.9871732,-0.5524286,0.30972877,-0.4999956,1.0219669,-0.53048,0.86086214,-0.6903585,-0.62289095,-0.50856656,0.052385643,-0.881879,0.7344528,0.2444015,0.6155401,0.09392176,-0.18838598,0.47847536,1.5861522,-0.27422914,-0.052490532,0.28911617,1.6413991,-0.2307766,-0.3088583,-0.54920846,0.042466868,-0.014080261,
newUTF8(),-0.28990537,0.46647584,0.98871756,-0.15782642,0.20872235,-0.23283811,0.8061833,0.15281807,0.99249494,-0.54805183,0.30069777,-0.58832365,-0.38821352,-0.2841565,0.007046753,-0.8094197,0.025751956,0.58206266,0.15996021,-0.53339916,1.3048931,0.31931227,0.08911166,0.11017758,1.1995004,-0.2588728,-0.20557866,0.100651294,-0.4690867,0.22886181,
JTextField,0.6726365,0.30340204,0.08389985,-0.033375,-0.3331379,-0.5436776,-0.48124126,-0.23319322,0.5806565,-0.62343657,-1.1050737,-0.703195,-0.7434775,-0.009531901,0.3124486,0.88851,0.5411337,0.9180131,-0.11409575,0.54369235,0.35776255,-0.018316202,0.054615643,0.44506234,1.2372637,0.2893237,-0.07301805,0.51729625,-1.3413393,0.15105471,
nextElement(),0.10671223,-0.8802188,0.41720578,-0.699656,0.25279924,-0.17861055,0.46310937,-0.20043758,0.31712937,-0.27569282,-0.6735705,-0.027136514,-0.59775084,-0.017607095,0.16081008,-0.35556957,0.7004737,0.62232614,0.7289408,0.25246757,0.31696248,0.38908514,0.7014795,-0.075751916,0.97166765,-0.17822789,-0.75927,0.15900205,-0.84816456,0.10437641,
toCharArray(),-0.10133786,-0.04122436,0.23614143,-0.5531524,-0.33985928,0.23845312,0.21192378,-0.045930356,0.16355935,-0.032978904,-0.1814528,0.35659894,-0.0285922,0.12108663,0.18497187,-0.33555776,0.3748919,0.3186366,0.3848539,0.012076343,0.7211688,0.31667182,0.36694044,0.26132843,0.7618732,-0.31078035,-0.23445484,-0.06713469,0.0029790346,0.0009992095,
read(),-0.18028805,-0.23582175,0.64274627,-0.5184532,-0.20370036,0.059712846,0.39964858,-0.15533854,0.30232224,-0.23438188,-0.3541653,-0.088020295,-0.0933431,0.08017648,0.6658509,-0.078004435,0.23204058,0.34697378,0.2830907,0.054467402,0.8538529,0.07988717,0.36780927,0.10484411,0.91294,-0.15643169,-0.55081606,-0.38004303,-0.06890995,-0.08359051,
push(),-0.042413037,-0.16972807,0.31628528,-0.48759344,0.06789094,-0.08109711,0.6539269,-0.11494646,0.33378142,-0.16113244,-0.45430788,0.10773601,-0.20676945,-0.09941683,0.23053184,0.20185842,0.29288885,0.41758287,0.061545964,0.25467953,0.5982339,0.2680318,0.036839604,0.3829587,0.8243535,-0.26782283,-0.0910324,0.11477995,0.21865557,0.03713391,
getCaretLine(),-0.23065734,0.0657321,0.4825214,-0.33847952,-0.544493,0.13861012,-0.05255469,-0.13459727,0.7060435,-0.12479712,0.45669708,-0.28491226,-0.47486028,-0.18690367,0.21014564,-0.7257691,0.52521425,-0.08249254,0.33775985,-0.45861056,0.8806596,0.489053,0.49114034,-0.16241929,0.86445224,0.18599562,-0.033606958,-0.26030317,-0.17182557,0.06421078,
uri,-0.104953356,0.2644707,-0.1114093,-0.45067495,-0.15904218,0.32343292,0.19711488,0.44502166,0.5999504,-0.10625871,-0.66399306,-0.008955101,-0.41587982,-0.24462932,-0.15249237,-0.05800498,0.5498531,0.5425518,0.38601273,0.47604898,0.3882969,0.9158932,-0.46536228,0.30859873,0.87616503,-0.40044445,0.43623608,0.30088285,0.22818181,-0.04079108,
nextToken(),-0.109794594,-0.4374551,0.31362072,-0.8336412,-0.11819574,-0.22443381,0.34675467,-0.27132067,0.46795216,-0.41041616,-0.41600046,-0.03360255,-0.7593435,-0.1353672,0.48667708,0.06276858,0.8866621,0.9759385,0.3591381,0.35243842,0.14561482,0.50094736,0.48876548,-0.21505477,1.0473965,-0.10744719,-0.27735648,0.07871895,-0.6863266,0.36378127,
gfx,0.21452881,0.20008588,0.31206512,0.3298427,-0.8090137,0.34995404,-0.21794587,0.1276722,0.7297017,-0.0010352342,0.45276657,0.22601743,-0.6191314,0.31760183,-0.19105549,-0.6421307,0.13201833,-0.046876963,0.5237859,-0.46971038,0.8041025,0.30626023,0.9261631,0.2828594,0.6741822,0.29481217,-0.18581007,0.10116709,-0.146562,-0.07722622,
readChar(),-0.20123434,-0.12231051,0.83071053,-0.29613194,-0.29676577,-0.12600769,0.7487306,-0.5698572,0.26252472,-0.058856428,-0.62101007,0.16639417,0.55094326,-0.074026324,0.8092911,0.6050069,0.108234726,-0.12509713,0.06802115,0.22909184,1.7219911,-0.3733299,0.21738163,1.1821175,1.4716707,-0.5312513,-0.7644099,-0.5178588,0.37071475,-0.09828217,
getKeyCode(),-0.13283803,-0.020998565,0.054900475,-0.6640014,-0.9039583,-0.25052425,-0.123208605,-0.7687921,0.6242951,-0.12741216,-0.68271524,-0.03351653,0.10821225,-0.60812765,0.26085365,0.38557455,0.6775102,-0.19836085,-0.3502872,0.5978775,0.7559226,0.23470652,0.11948495,0.14898856,0.9182629,-0.11419304,-0.035161994,-0.015359631,0.11920093,-0.17058304,
Boolean,-0.4878031,-0.06652565,0.34156132,-0.5441136,-0.47196013,0.09233575,0.7283991,-0.649165,0.32026172,0.007244561,-0.3596728,0.52029264,-0.5022382,0.18104385,0.32206517,0.8921264,0.31548002,0.52069706,-0.35868105,0.787142,1.307489,-0.034653217,-0.17633724,1.4057434,1.5199037,-0.42167428,-0.39749262,0.15433818,0.64733076,-0.2230589,
put4(),-0.44481322,0.44964215,1.2155606,-0.5084003,0.018467978,-0.31396043,0.8267411,-0.5031817,1.0405757,-0.7283806,0.15843219,-0.42609224,-0.22641785,-0.34363207,0.09536744,-0.5758024,0.123360485,0.7817262,-0.012783886,-0.45642585,1.3037483,0.50501263,0.4577254,0.16499005,1.3930932,-0.3671861,-0.40015307,0.031608995,-0.5309809,0.36455932,
message,0.074350916,-0.13683364,0.12722592,-0.22067387,-0.06346465,0.08390933,0.1708777,0.24035475,0.26169255,-0.12159554,-0.4331514,-0.10999735,-0.2664445,0.018796545,0.33045614,0.16386488,0.24302474,0.12511611,0.19064178,0.15214682,0.6542527,0.05325202,-0.054770455,0.26777425,0.6926868,-0.0032038228,-0.083690554,0.1321029,-0.07524375,-0.13686237,
isWhitespace(),-0.49906126,0.068006694,0.7312367,-1.0630316,-0.70371133,0.061285436,0.20666997,-0.815676,0.5708349,-0.16967417,-0.029292691,0.01095883,-0.39236605,0.044472914,0.56356335,-0.21897985,0.857659,0.6806986,-0.101063944,0.10006573,0.8865226,0.51398665,0.55181205,0.06393482,1.1866685,-0.38790393,-0.26772892,-0.28387475,-0.3249859,0.3595167,
